{"numStates":1,"sensitivity":12.911031835648533,"alpha":0.04343993539535469,"gamma":0.27815534007009624,"epsilon":0.315414645908611,"cycles":6887,"max":{"lastUpdatedDate":"2017-12-08T05:02:47.427Z","meetsCriterion":false,"cycles":273,"wealth":1.7369603302875427,"percentSuccess":0.25129450566439,"odds":3.5,"weights":{"nh":100,"ns":4,"na":3,"net":{"W1":{"n":100,"d":4,"w":{"0":-0.03471130898534209,"1":-0.19418849985034825,"2":0.33876207908075434,"3":0.059513637532483954,"4":-0.001226868538530075,"5":-0.05029006013194267,"6":0.05339715146524846,"7":0.013270589582006494,"8":0.012188567323000242,"9":0.047060763416820306,"10":-0.10190414621656521,"11":-0.010835790554018841,"12":-0.019297208150949284,"13":-0.12990582868072154,"14":0.27975037576423445,"15":0.01237915324514064,"16":-0.0037338902186403373,"17":-0.024137864283123256,"18":0.028662158450946457,"19":0.010201958034580865,"20":-0.004824843816219669,"21":0.008655709968453124,"22":-0.001347399203115624,"23":0.00278641471666905,"24":0.012569385325996291,"25":0.035291226098851394,"26":-0.05324206833817422,"27":-0.02199854113849706,"28":-0.02703794235604354,"29":-0.09830040199034379,"30":0.11735007400444745,"31":0.06061546121733605,"32":-0.001904336063965025,"33":0.0038990574159143577,"34":0.026672588604529802,"35":-0.00929873944985757,"36":0.017549525185844152,"37":-0.7602084151131577,"38":-0.5778781596183915,"39":3.0022053094940073,"40":-0.02885927738512201,"41":-0.1724635208424712,"42":0.2621088906802388,"43":0.06034020058811587,"44":0.015011437700956838,"45":0.05242633486420713,"46":-0.11458273789845508,"47":-0.014030671202790985,"48":0.010136055791047477,"49":-0.005508051596071643,"50":-0.02013350838163064,"51":-0.0051655075630227506,"52":-0.02057565069075807,"53":-0.04298107694478446,"54":0.14642124639658147,"55":0.005483195338746888,"56":0.023587102435756034,"57":0.06916537545040434,"58":-0.11625113071949257,"59":-0.03741034195306807,"60":-0.009458267940165818,"61":-0.08208101440852163,"62":0.11165727910377064,"63":0.024729198613353147,"64":0.008933428796894046,"65":0.059273244737555325,"66":-0.08373622050805041,"67":-0.019892165245102643,"68":0.004360728510055955,"69":0.03831159062028104,"70":-0.009775750599550445,"71":-0.026970498387175055,"72":0.005056440539780295,"73":0.014231853772952238,"74":-0.02954326596621555,"75":-0.005841648877797808,"76":0.04245710314551055,"77":0.27064260546453656,"78":-0.5132353334274565,"79":-0.07449383218573868,"80":-0.010053534212263453,"81":-0.06867654935320675,"82":0.05785741933190076,"83":0.036995632026566784,"84":-0.03397872993102399,"85":-0.0729721084839888,"86":0.20425042971363352,"87":0.025072041038316006,"88":-0.024275798613572406,"89":-0.11087234429804399,"90":0.22770344422410976,"91":0.025500435271937807,"92":0.00595662637383218,"93":0.03240469026123517,"94":-0.041501064160363754,"95":-0.014081398598508248,"96":-0.017946645503358956,"97":0.005543793969549567,"98":0.07079824489673062,"99":-0.0012514268260299531,"100":0.01742198705186089,"101":0.029794301235370267,"102":-0.07889233195174357,"103":-0.016830859542557534,"104":0.009386333119144266,"105":-0.006649638445535184,"106":-0.004440939507842845,"107":-0.009098790268269314,"108":-0.0034863321107254904,"109":0.0006372724352664939,"110":-0.0038017970141104515,"111":0.006536934660370267,"112":-0.00942738785402993,"113":-0.07281163933426954,"114":0.09572853269671168,"115":0.024699509961250258,"116":0.026405311594701813,"117":0.10792856484524775,"118":-0.18936687774030392,"119":-0.04015473593719438,"120":2.150617460343174,"121":1.525357197310681,"122":2.093730593135083,"123":-2.467840285134046,"124":-0.02168101663656575,"125":-0.061605613825475046,"126":0.11865587037203763,"127":0.02882242487999675,"128":-0.01947616612702009,"129":-0.01606718144305062,"130":0.08291379201635578,"131":0.01009887314057021,"132":-0.004940515430361325,"133":-0.004492255178371632,"134":0.017613593625276116,"135":0.004059820510759304,"136":-0.007600137824292175,"137":-0.07673909114940455,"138":0.0649849150980219,"139":0.035486921196685915,"140":-0.09655483263175856,"141":-0.36378979084928964,"142":0.6423062359350605,"143":0.19792334890897023,"144":-0.004309655536684085,"145":-0.02559990994277745,"146":0.03863324730922507,"147":0.008324559789386234,"148":4.575856580020247,"149":1.9789100540354378,"150":9.278152674301268,"151":-6.295462940783659,"152":-0.010836910995871097,"153":-0.10197513235952847,"154":0.24889076259973114,"155":-0.008591192898346868,"156":-0.03188854543757265,"157":-0.1292526645414941,"158":0.2460278079024824,"159":0.04302883154519863,"160":0.002938307764005423,"161":0.022412189933417877,"162":-0.021078676866136528,"163":-0.010686887034881193,"164":0.008188908727178746,"165":0.07881867173219319,"166":-0.09695454998697411,"167":-0.026022829147619924,"168":0.0014978686311951988,"169":-0.04988860002259013,"170":0.07020722481334418,"171":0.0025195526190487445,"172":0.033607124991012816,"173":0.06177460698766332,"174":-0.15039499840413678,"175":-0.03641470136391555,"176":0.017368660694751695,"177":0.049872745626321956,"178":-0.06443458855911938,"179":-0.03450404642533081,"180":-0.017979506244885566,"181":-0.021033927839144047,"182":0.06598015982001085,"183":0.01703712589048732,"184":-0.004686970420079369,"185":0.006034903768147107,"186":-0.013417356732561555,"187":0.008670253995490903,"188":-0.010552785790164342,"189":-0.08649705819550939,"190":0.1679022177743933,"191":0.009125965855272731,"192":0.014392265859142196,"193":0.030279791063880946,"194":-0.10408249410846784,"195":-0.0031132919331439235,"196":-0.0031992409380213597,"197":-0.03766294418705928,"198":0.06013262964861208,"199":0.006090660485743129,"200":-0.03171962279668485,"201":-0.12277706154891416,"202":0.2427493899480319,"203":0.03975863160296653,"204":0.02397538684924895,"205":0.0646536087064654,"206":-0.1469739287887174,"207":-0.024177574607971195,"208":0.02361744308483872,"209":0.09425765021961845,"210":-0.18072321603380403,"211":-0.030179577559950585,"212":0.025622464103299134,"213":0.04278006553402256,"214":-0.10165468154070938,"215":-0.0295393812467442,"216":0.002546867444035007,"217":0.03986659230272555,"218":-0.0456579002673488,"219":-0.011764443459242994,"220":-0.026889772690261944,"221":-0.19312572460139307,"222":0.32314920849956463,"223":0.05115401566721753,"224":0.005003508382319502,"225":0.021370361099699784,"226":-0.04187862092524531,"227":-0.0056048260421298806,"228":-0.05191472615748581,"229":-0.19029887159086895,"230":0.3777269454638619,"231":0.07279244547281226,"232":-0.012523194615992826,"233":-0.046948889910060444,"234":0.07343285515157452,"235":0.02171128880361573,"236":0.006700081376854361,"237":0.05082609370823369,"238":-0.07013986934607255,"239":-0.016104381395358622,"240":0.004285710045442936,"241":0.06520400199563624,"242":-0.14380105936035004,"243":0.0055349920291937775,"244":-0.007083450357109433,"245":-0.0922109775998237,"246":0.11498846371842555,"247":0.026066131466507138,"248":-0.021939109618325587,"249":-0.02949121818388829,"250":0.1243214442003142,"251":0.007215873124972983,"252":0.00771805746282673,"253":0.007237910739399403,"254":-0.026219127644740426,"255":-0.006962089419086556,"256":0.024044966812096922,"257":0.091135359057013,"258":-0.21255519118507368,"259":-0.017872826669121183,"260":-0.010031895598756089,"261":-0.19901915893265426,"262":0.5011885251251431,"263":-0.02265269542080556,"264":-0.015899877823482633,"265":-0.08061975160501826,"266":0.13854018415736,"267":0.02435312638250006,"268":0.004967024035875733,"269":-0.011499225059773893,"270":0.024993954753766486,"271":-0.010030465877562417,"272":0.019917462618240935,"273":0.08452929268227663,"274":-0.12133458912943582,"275":-0.039323334836394414,"276":-0.051493609910696764,"277":-0.32708564189919576,"278":0.6363024829882268,"279":0.10020799268053243,"280":0.0034770598187023427,"281":0.07066769526259939,"282":-0.0931890341283636,"283":-0.01487200770596347,"284":0.016429031036080073,"285":0.044514280188270215,"286":-0.09698229075462916,"287":-0.017763846502416282,"288":-3.6448898233862077,"289":-4.112288916792837,"290":3.266190682021005,"291":3.27078748201291,"292":0.011877010324844272,"293":-0.003584404145550766,"294":-0.025450481562226842,"295":-0.007138160062933647,"296":0.024610769244896726,"297":0.10526293419996165,"298":-0.157684342264136,"299":-0.04672463132432869,"300":0.03727583829169363,"301":0.14644409752314294,"302":-0.27901460017331675,"303":-0.051674498394427365,"304":-0.01361202204760704,"305":-0.04614396672089362,"306":0.08518852850916747,"307":0.01862556618262404,"308":0.029372990832864154,"309":0.10744218569253922,"310":-0.16695717222615072,"311":-0.05236757358710149,"312":-0.00005324075053136351,"313":0.016993513065013715,"314":-0.01630637504036432,"315":-0.004370175353709374,"316":-0.028360349545660735,"317":-0.13579889012659055,"318":0.20732465265090821,"319":0.054590674546896104,"320":0.0066752693846013665,"321":0.014618683831707254,"322":-0.022236364785044354,"323":-0.011353379952364444,"324":-0.0032552648341729793,"325":-0.036033184780416595,"326":0.04938449127105774,"327":0.009136346235431402,"328":0.023503339895453244,"329":0.05156598038822815,"330":-0.11417903679931476,"331":-0.027088225618526078,"332":0.011864898841334681,"333":0.050620456632225114,"334":-0.07935410443362774,"335":-0.020772442094935683,"336":-0.025149795647703897,"337":-0.013841369960739367,"338":0.0808274286092285,"339":0.018468916615229283,"340":-0.01585851605557262,"341":-0.077901426198969,"342":0.12543070287481575,"343":0.02729667101867296,"344":-0.011942851810440932,"345":0.02457862129844495,"346":0.00873806612267497,"347":0.00046419570876637056,"348":-0.0013260404142131424,"349":0.017130125052421646,"350":-0.014742110837157995,"351":-0.003020172111676648,"352":-0.002375633222967574,"353":-0.00003812532745565246,"354":0.007989850260219053,"355":0.0008176647093132715,"356":0.0021600913746301436,"357":-0.03963299408285783,"358":0.011668929225025798,"359":0.016758185220581086,"360":0.01455999410478259,"361":0.0380213098819365,"362":-0.10049912472508621,"363":-0.009491862976880832,"364":0.013933915126488736,"365":0.018615993148695775,"366":-0.03616776057210711,"367":-0.02015326013799341,"368":-0.02386630469534942,"369":-0.10941931017799778,"370":0.23264931710665906,"371":0.022263080736030352,"372":-0.03580480165466306,"373":-0.07899863259031818,"374":0.18341088524096222,"375":0.038992321078015604,"376":0.007188768974755832,"377":-0.02334261315705696,"378":0.012844112139049676,"379":-0.0017149242538836938,"380":-0.0012135603736712413,"381":-0.04547246193921693,"382":0.04120455359461116,"383":0.01476941797111283,"384":-0.008290483345929097,"385":-0.05655056455810006,"386":0.06568920454796418,"387":0.023805621817089548,"388":-0.01011900014484138,"389":0.031132352921084773,"390":0.0006704967462783864,"391":-0.0034800879649714072,"392":-0.04052934136515918,"393":-0.2038241446836943,"394":0.39712785646553256,"395":0.057887826659001,"396":-0.001811895720847308,"397":-0.050727672496050584,"398":0.09715748384357259,"399":-0.0015890535133420399}},"b1":{"n":100,"d":1,"w":{"0":-0.0385826817517498,"1":-0.004908218345886551,"2":0.013435864784645578,"3":-0.040562468024701766,"4":-0.002012578180831818,"5":0.0006728896287154215,"6":0.003244381674297348,"7":-0.004103488385399934,"8":-0.006476820079478641,"9":0.8714319239459285,"10":-0.026374293260403393,"11":0.014709257667131695,"12":0.002264270250279946,"13":-0.02196114445838177,"14":0.009547458690296351,"15":-0.01133921641649626,"16":0.008254599253165368,"17":-0.005015680845683312,"18":0.00329446976370994,"19":0.06204991630169837,"20":-0.00009882806866307862,"21":-0.026546869835817128,"22":-0.029569263618218173,"23":0.0031117814393461997,"24":-0.01196482678898482,"25":0.008675078446592223,"26":-0.0011461528915271701,"27":0.002044009267821592,"28":-0.00891265338232762,"29":0.020163897009675566,"30":-0.502365518590805,"31":-0.011962495373849278,"32":-0.011061253220309823,"33":-0.0019108912100103078,"34":-0.0014476750475219773,"35":-0.05403634498587094,"36":-0.0040294561000528166,"37":-2.515925247853482,"38":-0.040671015859030435,"39":-0.02836365378074485,"40":0.0006965589098229313,"41":0.008712474603967131,"42":-0.010023284080971018,"43":0.015479400313909118,"44":0.002066319358726569,"45":-0.006678178337066423,"46":0.003986961256370257,"47":-0.02386507533109712,"48":0.01579441435176071,"49":-0.00781635710291188,"50":-0.028668443518244546,"51":0.017550940613140515,"52":0.02119527151804963,"53":0.009372666356978508,"54":0.004163227071426969,"55":-0.03790655970873821,"56":0.005234534404090396,"57":-0.04205191084486029,"58":-0.00639687517881532,"59":0.007016336903504326,"60":0.023539924865491477,"61":-0.011403879748030995,"62":-0.018218232709236375,"63":0.002632891025492311,"64":0.029142568917549197,"65":-0.08290986146929584,"66":-0.01584044116870135,"67":-0.006080158642294596,"68":0.009675740138695096,"69":-0.07521768996851427,"70":0.010691617160307913,"71":0.011158714353349702,"72":0.43468564169794,"73":0.002666854646143481,"74":0.013605692216301068,"75":0.03150787134748301,"76":-0.009011088337310454,"77":0.013841196336177896,"78":0.001399700858539383,"79":-0.019407528759774053,"80":0.0008827943750853517,"81":-0.005419643158275816,"82":0.011795899686852445,"83":0.0075038532672100705,"84":-0.008925446863468064,"85":-0.013103801769160177,"86":-0.0017791733921056745,"87":0.001437135172346693,"88":-0.0011279928848917822,"89":0.0024906787407296136,"90":0.013667118844602904,"91":0.0011604208366737404,"92":-0.031112064984770805,"93":-0.01998373102090247,"94":-0.0020507915317706355,"95":-0.002672730006964023,"96":-0.004494617555976562,"97":-0.001443430172258637,"98":-0.04820676608787125,"99":-0.015317038158805885}},"W2":{"n":3,"d":100,"w":{"0":-0.03349990289656254,"1":-0.005664950311160933,"2":0.009285876080060347,"3":-0.026176647539839813,"4":-0.0029515384666090974,"5":0.0003700945963509496,"6":0.005192685593466675,"7":-0.012181499557221878,"8":-0.0018964081237351175,"9":-0.41009386690952976,"10":-0.026248275527033384,"11":0.010440652978105073,"12":0.00136652807115287,"13":-0.012601742579539141,"14":0.011134114416193027,"15":-0.011171586288055204,"16":0.008284211097871237,"17":0.001978859322991303,"18":0.002702622320027378,"19":0.052141686945419666,"20":-0.006616324130557192,"21":-0.018164921874098548,"22":-0.021298482796506955,"23":0.004195030378556351,"24":-0.005221069064548634,"25":0.006977452112122958,"26":0.00014122635617001185,"27":0.00030106495247009344,"28":-0.009643704933336836,"29":0.01814079084677529,"30":0.12207841044294154,"31":-0.011068505813672153,"32":-0.006844410848481072,"33":-0.001486529255294554,"34":-0.007415150828851206,"35":-0.06933521149875282,"36":-0.0037553226755347767,"37":0.04596064471324714,"38":-0.022655791046316952,"39":-0.023434797573465338,"40":0.002320234516787061,"41":0.009930740161625718,"42":-0.006926006464792574,"43":0.013559430545882524,"44":0.00652447162316705,"45":-0.0057123520703513415,"46":0.0011992830442294456,"47":-0.015692355899983045,"48":0.00891173933025442,"49":-0.00577391412918233,"50":-0.022944352054276827,"51":0.01336657878051722,"52":0.0169917355670201,"53":0.009155856320015431,"54":0.0047437970745105975,"55":-0.032097187946772555,"56":0.0038667522289989316,"57":-0.0367985390119074,"58":-0.007105715062205709,"59":0.006968035019272254,"60":0.013091995304986677,"61":-0.011754963732251556,"62":-0.01045627130256484,"63":0.002231572290881083,"64":0.019412571327610494,"65":-0.04778248479979831,"66":-0.013218760074421125,"67":-0.0022501926896155437,"68":0.012021827979031887,"69":-0.06645655889810652,"70":0.009366648821797,"71":0.008834850392812834,"72":0.458371918619867,"73":0.0018341430343017794,"74":0.015547691161096262,"75":0.02675904055858613,"76":-0.007979429306056801,"77":0.016360070524712517,"78":0.0017790054769009128,"79":-0.020520566413484282,"80":0.0021650320632706542,"81":-0.004904727754444173,"82":0.010399691436194857,"83":0.007675052451873294,"84":-0.0066251587226240595,"85":-0.012112753681952654,"86":0.00010405669883027256,"87":0.001662471114958802,"88":-0.0006103368422081604,"89":-0.0021510035510843616,"90":0.008889372568369741,"91":0.003363205457934667,"92":-0.02164575148098818,"93":-0.016723053584346257,"94":-0.0017065953394072586,"95":-0.004583571254175362,"96":-0.006817077684456749,"97":0.0009283106941517745,"98":-0.038954950111825766,"99":-0.009018971933396373,"100":-0.03970187579345366,"101":-0.005116271273049336,"102":0.012763021238293377,"103":-0.039157987674373645,"104":-0.0022059259449227686,"105":0.0006404010910735925,"106":0.0036206129338105506,"107":-0.005738307009948895,"108":-0.00563172892469908,"109":-0.04944989169160835,"110":-0.02746503396557342,"111":0.014037187253875087,"112":0.0020682835092449754,"113":-0.02040979266858792,"114":0.009948198988183655,"115":-0.011472384490375449,"116":0.008346389910995521,"117":-0.0037001496827270192,"118":0.003192574018565736,"119":0.06583856954449704,"120":-0.0013662360590014613,"121":-0.025428133513578675,"122":-0.028745397315781466,"123":0.0033390276268196054,"124":-0.010695954371539465,"125":0.00838176880909525,"126":-0.0009428694857178513,"127":0.0017352973539893673,"128":-0.009167215009418838,"129":0.020224543107542247,"130":-0.4811165473803054,"131":-0.01190835398802455,"132":-0.010287607755049681,"133":-0.0018267440842366933,"134":-0.0026369442394970537,"135":-0.0664366490132035,"136":-0.0040035497911285875,"137":0.33915426685286454,"138":-0.03829098559572404,"139":-0.02830027181811307,"140":0.0010140020028966508,"141":0.009070683821485103,"142":-0.009546348764228368,"143":0.015283328569170255,"144":0.002915118616484564,"145":-0.00649552623012435,"146":0.0034973493255668867,"147":-0.02272041085666103,"148":0.014596112645565998,"149":-0.007495183232593907,"150":-0.028417870336098473,"151":0.016968042299431246,"152":0.02079748189349417,"153":0.0093717734380018,"154":0.004318485801008845,"155":-0.038721840103254586,"156":0.005002632493698983,"157":-0.04360297809612219,"158":-0.00657523128031883,"159":0.00707471633071484,"160":0.02187506046883969,"161":-0.011662478105873437,"162":-0.01687376685228463,"163":0.0025498956468866887,"164":0.027907991680128735,"165":-0.08171658479686204,"166":-0.015570562159634338,"167":-0.005408643404902851,"168":0.0102626075779424,"169":-0.08261577576216224,"170":0.010580663818931786,"171":0.010795389596172824,"172":-0.018138032456638125,"173":0.002481011979343273,"174":0.014250718315132457,"175":0.03180101718511523,"176":-0.008878998140077116,"177":0.01461713376925344,"178":0.001490361845322459,"179":-0.020200253864298214,"180":0.001118774382544169,"181":-0.005369487934007878,"182":0.011619998034559506,"183":0.007596383171913937,"184":-0.008480870791487127,"185":-0.013091489364521876,"186":-0.0013749549297601639,"187":0.0015029889239267982,"188":-0.001027557323147622,"189":0.0015877962565388213,"190":0.012857504724334164,"191":0.0015529515261249462,"192":-0.030105974447930086,"193":-0.01969520211869388,"194":-0.0020350742248967774,"195":-0.003080221837528797,"196":-0.004986432217234619,"197":-0.0009464460638698896,"198":-0.04946919151050182,"199":-0.014281197069840568,"200":-0.022942450683851666,"201":-0.00327477518456632,"202":0.008364247035505376,"203":-0.02402180520849989,"204":-0.0013565407471090656,"205":0.00047333800475855457,"206":0.002147101556246423,"207":-0.00301649320254626,"208":-0.003915580436734755,"209":0.03946829939293089,"210":-0.01634756397394218,"211":0.009141435304902062,"212":0.0013201027481984469,"213":-0.013360257596816728,"214":0.006115965006573101,"215":-0.007303713239441393,"216":0.0053277417111057025,"217":-0.0028409601704236323,"218":0.002075531548558239,"219":0.03417648655757017,"220":-0.00044327493059347864,"221":-0.01605008843552165,"222":-0.017941907760829878,"223":0.0020673574656667458,"224":-0.007183474845506406,"225":0.005391494726113781,"226":-0.0007621704938034281,"227":0.0012583500029375182,"228":-0.005798125952875417,"229":0.01256208169151305,"230":0.03630705080450388,"231":-0.0075254108683620105,"232":-0.006749512280250175,"233":-0.0011770407686011012,"234":-0.0013167960229844597,"235":-0.030853410493245557,"236":-0.0025902831421308406,"237":0.025638754875500616,"238":-0.024136045965117002,"239":-0.01727620557016847,"240":0.0005473626037008068,"241":0.0057151921521724075,"242":-0.00637545438565582,"243":0.00957255717809657,"244":0.0015061944204969634,"245":-0.00413293552775382,"246":0.0024762428554394645,"247":-0.014695870972455066,"248":0.009681132214501008,"249":-0.004959623519007076,"250":-0.017425955262560563,"251":0.010848575269671493,"252":0.013112730248852917,"253":0.005858092577721532,"254":0.0027587911755244227,"255":-0.02264892522224534,"256":0.0032963550342537556,"257":-0.024575955929811148,"258":-0.00412561975040632,"259":0.004539118990293487,"260":0.014458527997621672,"261":-0.007404893071451367,"262":-0.011088128602027828,"263":0.0016251043446988164,"264":0.017644941117994358,"265":-0.04363428985901998,"266":-0.009949217756044551,"267":-0.003782042658168716,"268":0.006290103775834721,"269":-0.03951968804511139,"270":0.006873949557571158,"271":0.006970696343307969,"272":0.04079765714943883,"273":0.0015717004634522842,"274":0.008724021954177772,"275":0.01902975016594308,"276":-0.005696459211739122,"277":0.008858863774902168,"278":0.0009518964183226578,"279":-0.012247469418481517,"280":0.0006053017856264873,"281":-0.003497555029963924,"282":0.007366207054229996,"283":0.0048173898390981885,"284":-0.005430476092090679,"285":-0.008312132897151622,"286":-0.0009087555172950251,"287":0.0009789024596184135,"288":-0.0006811119037690037,"289":0.001279219743667032,"290":0.008447543977233442,"291":0.0007786543901192951,"292":-0.018802074263462348,"293":-0.01228467133265157,"294":-0.0014045461042669846,"295":-0.0018893706453553965,"296":-0.003041143009962941,"297":-0.0006707530587027617,"298":-0.027763863802207956,"299":-0.009546903483557773}},"b2":{"n":3,"d":1,"w":{"0":-0.21132914655138138,"1":0.16299525518274968,"2":-0.019362287445691843}}}}},"weights":{"nh":100,"ns":4,"na":3,"net":{"W1":{"n":100,"d":4,"w":{"0":0.051318640925857625,"1":-0.08083428496217851,"2":-0.02486321579220142,"3":-0.022544444258747225,"4":0.02042483399773812,"5":-0.03217206025035218,"6":-0.009895568560385103,"7":-0.00897270245927215,"8":-0.008811723183967168,"9":0.013879734717706559,"10":0.00426916629345669,"11":0.0038710219063602153,"12":0.03346910367333778,"13":-0.05271867138242553,"14":-0.01621534817476781,"15":-0.014703092992322754,"16":0.007605129781837272,"17":-0.011979176082707913,"18":-0.003684587348749251,"19":-0.0033409610786783203,"20":-0.0072230357977913495,"21":0.011377322951255417,"22":0.0034994677399974223,"23":0.0031731058129484293,"24":-0.005867463872749798,"25":0.009242101674519358,"26":0.0028427106187890166,"27":0.0025775981679536024,"28":0.02335342436855222,"29":-0.03678501316472903,"30":-0.01131443271610873,"31":-0.010259242191167741,"32":-0.004780443886476768,"33":0.007529888439794326,"34":0.002316063448141538,"35":0.0021000663526474597,"36":0.1692701487555053,"37":1.554381620007942,"38":-0.3159344348529353,"39":-2.1305464524569273,"40":0.04924713513927893,"41":-0.07757136164941214,"42":-0.02385959844162558,"43":-0.02163442670480836,"44":-0.008830777873731228,"45":0.013909748602449423,"46":0.0042783980449245685,"47":0.0038793927001159467,"48":0.010419731540650682,"49":-0.016412579825232896,"50":-0.00504822560365632,"51":-0.004577425750476309,"52":-0.0013308014644729308,"53":0.002096204196811956,"54":0.0006447561578111151,"55":0.0005846259186232315,"56":-0.011412799711779456,"57":0.01797680545408468,"58":0.005529354322361582,"59":0.00501368415096049,"60":0.027030575726845297,"61":-0.042577058103820176,"62":-0.013095964933198685,"63":-0.011874627047026746,"64":-0.017987224786401253,"65":0.028332473746090676,"66":0.00871457840015278,"67":0.007901852297782461,"68":-0.015295482359867356,"69":0.02409259087183331,"70":0.007410463957776907,"71":0.006719360419455301,"72":-0.0018717931383715586,"73":0.0029483440902240434,"74":0.0009068596512658088,"75":0.0008222855260772036,"76":-0.0742004568597207,"77":0.11687649685851235,"78":0.03594915187840533,"79":0.0325964661607243,"80":0.02347564207874028,"81":-0.03697752371930364,"82":-0.011373645615106,"83":-0.010312932843903149,"84":0.00108591995508244,"85":-0.0017104805095660592,"86":-0.0005261142226304335,"87":-0.00047704858190582544,"88":0.024290472305689457,"89":-0.03826099908388053,"90":-0.011768420313810432,"91":-0.01067089050524953,"92":-0.009417688238930964,"93":0.014834217082856758,"94":0.004562748547961455,"95":0.004137224533243685,"96":-0.018586955279457727,"97":0.029277135863144427,"98":0.009005140075376469,"99":0.008165315988483362,"100":0.001517217302381232,"101":-0.0023898360212513447,"102":-0.0007350722286746732,"103":-0.0006665190734061656,"104":0.009520231836546048,"105":-0.014995738040235308,"106":-0.004612429598522281,"107":-0.004182272303969756,"108":-0.002302487464182361,"109":0.003626749756769738,"110":0.0011155255010614166,"111":0.0010114911075095468,"112":0.023526300583612072,"113":-0.0370573181849856,"114":-0.011398189005137546,"115":-0.01033518729603725,"116":-0.0239193949386429,"117":0.037676498601401015,"118":0.011588638132664735,"119":0.010507874970738922,"120":-2.4572821983706508,"121":8.502923352429825,"122":4.488076124518431,"123":-0.09378145186022976,"124":0.008791472091607296,"125":-0.01384783632631506,"126":-0.004259354900358562,"127":-0.0038621255286367053,"128":-0.009778384687624136,"129":0.015402366017778273,"130":0.004737501325441013,"131":0.004295679778208678,"132":-0.0020628983309122022,"133":0.0032493623245794354,"134":0.0009994476539767884,"135":0.000906238731219976,"136":0.02853252006634373,"137":-0.04494283766893972,"138":-0.013823637497116032,"139":-0.012534436108560306,"140":0.7801821090688722,"141":-0.07047397049764137,"142":-2.588067046660173,"143":0.9295383907483314,"144":0.0073290522689859,"145":-0.011544314183232653,"146":-0.0035508313533912724,"147":-0.003219679231337249,"148":15.244914798067983,"149":-2.1774974685268944,"150":31.788158464309905,"151":2.398212087263417,"152":0.027206945576665316,"153":-0.04285486612245516,"154":-0.013181413839908009,"155":-0.011952106902029903,"156":0.027235679724792135,"157":-0.04290012656114605,"158":-0.013195335162301288,"159":-0.011964729907715087,"160":-0.007744114117277513,"161":0.012198096456016782,"162":0.0037519234672272962,"163":0.0034020173984167772,"164":-0.027171745157486375,"165":0.04279942037177547,"166":0.013164359692980703,"167":0.011936643242193002,"168":0.02092082823045376,"169":-0.032953322806057894,"170":-0.010135871353350092,"171":-0.009190594428500875,"172":0.0007412497891794326,"173":-0.001167575299708516,"174":-0.0003591259694603039,"175":-0.00032563372575507787,"176":-0.009215957272373997,"177":0.014516461712701025,"178":0.004465012496291695,"179":0.0040486033948308195,"180":-0.005341171069252247,"181":0.00841311461278636,"182":0.002587728540050238,"183":0.002346395834777842,"184":-0.005104601159279474,"185":0.008040482889600018,"186":0.0024731134682490466,"187":0.002242469816744541,"188":0.024947979563940816,"189":-0.039296668050283215,"190":-0.012086974068141227,"191":-0.010959735645891658,"192":0.0009191625950351796,"193":-0.0014478136224570122,"194":-0.00044532243090774563,"195":-0.0004037914677802281,"196":0.012583225574701203,"197":-0.019820395049608294,"198":-0.006096410552112127,"199":-0.005527856406356959,"200":0.02439098549063101,"201":-0.03841932187733156,"202":-0.011817117650771702,"203":-0.010715046284673525,"204":-0.00703292315365734,"205":0.011077868118661379,"206":0.0034073606150506926,"207":0.0030895886421103093,"208":-0.01957644775110304,"209":0.030835729388059695,"210":0.009484536390584835,"211":0.008600003457656743,"212":0.0018461697213074133,"213":-0.002907983513626783,"214":-0.0008944454359467737,"215":-0.0008110290658963517,"216":-0.014978403853471172,"217":0.023593146462817342,"218":0.007256843514958642,"219":0.0065800667135286015,"220":0.05676157605232288,"221":-0.08940770174553649,"222":-0.02750024617567478,"223":-0.024935537946389495,"224":-0.004619697601901745,"225":0.007276689861365066,"226":0.002238183945336887,"227":0.0020294499274055825,"228":0.03604473355620552,"229":-0.05677566161318306,"230":-0.017463207358837576,"231":-0.015834575096517117,"232":0.010324242033646182,"233":-0.01626217007708818,"234":-0.0050019621691847,"235":-0.004535476867892716,"236":-0.016143095342530285,"237":0.025427703657561026,"238":0.00782112150360393,"239":0.007091719784384032,"240":-0.02008560911822327,"241":0.031637732072320304,"242":0.009731218491594,"243":0.008823679802384403,"244":0.03328137121195241,"245":-0.0524229655666829,"246":-0.0161243942368359,"247":-0.014620621538100707,"248":-0.007395280009841556,"249":0.011648632426586194,"250":0.0035829178399352834,"251":0.003248773316859322,"252":0.0030346012083165333,"253":-0.0047799344711144075,"254":-0.0014702251739556185,"255":-0.0013331113330826763,"256":-0.01576866011830893,"257":0.024837914134675662,"258":0.0076397124723968845,"259":0.006927229074542557,"260":0.06012286204581327,"261":-0.09470221845358688,"262":-0.029128744808463253,"263":-0.026412157685916093,"264":0.02051281598303586,"265":-0.03231064458449639,"266":-0.009938194694800008,"267":-0.009011353247811176,"268":0.007228625533166011,"269":-0.011386127590628278,"270":-0.0035021758947166434,"271":-0.0031755614038725143,"272":-0.02093464190478463,"273":0.03297508133839673,"274":0.010142563899950689,"275":0.009196662822989973,"276":0.09512847752364084,"277":-0.1498412343047786,"278":-0.0460884934201661,"279":-0.04179015024968187,"280":-0.02644176715191967,"281":0.04164959945655719,"282":0.012810694807693791,"283":0.011615961498125256,"284":-0.0051675263075393295,"285":0.008139599072308405,"286":0.0025035998914295097,"287":0.0022701130622438895,"288":-24.59803185868429,"289":-31.750971360827013,"290":24.081436762081324,"291":34.210611917660614,"292":0.010925101902696835,"293":-0.01720861104829386,"294":-0.005293071025237849,"295":-0.004799436759853407,"296":-0.025765543284862368,"297":0.04058444909686935,"298":0.012483073103599003,"299":0.011318894112472073,"300":-0.030100013438312756,"301":0.04741186651945375,"302":0.014583067704393209,"303":0.013223041009910563,"304":0.008500817818232032,"305":-0.013390013923554071,"306":-0.004118536653001692,"307":-0.0037344400604023436,"308":-0.023201947200860704,"309":0.0365464147370103,"310":0.01124104398849772,"311":0.01019269775950744,"312":-0.007309648791352451,"313":0.011513750907555553,"314":0.0035414306186535532,"315":0.0032111552135953222,"316":0.03513506682810004,"317":-0.055342804690750945,"318":-0.0170224856637135,"319":-0.015434955738777229,"320":-0.0014810784701222775,"321":0.002332912149496674,"322":0.0007175634302178895,"323":0.0006506431531175256,"324":0.012422909557844081,"325":-0.019567874192584187,"326":-0.006018739510530513,"327":-0.005457429009376504,"328":-0.0030096585370681583,"329":0.004740646167255092,"330":0.0014581407712240212,"331":0.0013221539270775176,"332":-0.01216621151233474,"333":0.019163537735143628,"334":0.00589437261957389,"335":0.005344660643436506,"336":-0.014360110528291531,"337":0.02261924524717733,"338":0.006957288380343373,"339":0.006308448271543014,"340":0.020037098578950224,"341":-0.03156132096701194,"342":-0.009707715762400853,"343":-0.008802368955373415,"344":-0.020169391762838426,"345":0.03176970183771075,"346":0.009771810099850545,"347":0.008860485806673911,"348":-0.008287241833311278,"349":0.013053600942935466,"350":0.0040150618423600215,"351":0.0036406153612267744,"352":-0.001997356763046609,"353":0.0031461249045214895,"354":0.000967693609085378,"355":0.0008774460824291024,"356":0.019990701251330567,"357":-0.03148823847530402,"358":-0.009685236856927428,"359":-0.008781986449478016,"360":-0.0029742628557831263,"361":0.004684892865305453,"362":0.0014409920198587686,"363":0.001306604475822582,"364":0.0020759438740283152,"365":-0.0032699109360713905,"366":-0.0010057680514774668,"367":-0.0009119696856873851,"368":0.0235304066240252,"369":-0.03706378579199025,"370":-0.011400178328580514,"371":-0.010336991093444504,"372":0.004175949085706409,"373":-0.006577721958833269,"374":-0.0020231935091868875,"375":-0.001834509595848333,"376":0.015183696619616742,"377":-0.023916512197584807,"378":-0.007356305209829432,"379":-0.006670252549753041,"380":0.018843353772324864,"381":-0.029681000511143172,"382":-0.009129361832051104,"383":-0.008277952735923914,"384":0.01819764451207118,"385":-0.02866391519405711,"386":-0.008816524038709556,"387":-0.007994290415543689,"388":-0.02169883460796063,"389":0.03417879523429252,"390":0.010512805382290038,"391":0.009532375291332475,"392":0.04876488892722906,"393":-0.07681175366530993,"394":-0.023625956478793578,"395":-0.02142257473649905,"396":0.017529884991174034,"397":-0.02761209754180324,"398":-0.008493003177470369,"399":-0.007700941331601862}},"b1":{"n":100,"d":1,"w":{"0":0.000633639096300005,"1":0.00025218635177865487,"2":-0.00010879860114434037,"3":0.00041324567967561935,"4":0.00009390075020863703,"5":-0.00008918302311803168,"6":-0.0000724457339680032,"7":0.00028834593475267686,"8":-0.00005902426633788184,"9":-0.6171889592274736,"10":0.0006080614005078786,"11":-0.00010903387009374323,"12":0.00012865274243590213,"13":-0.000016431439310511843,"14":-0.0001409141973311796,"15":0.0003337481544574994,"16":-0.00022208899882526634,"17":-0.0001888538789167839,"18":-0.00002311107733551041,"19":-0.0009161747255963242,"20":0.00028985496962147863,"21":0.000013407881094979245,"22":0.00029991576640848457,"23":-0.0001162804742431034,"24":-0.00022949391542669717,"25":0.000018733120410745504,"26":0.00011754658395893069,"27":-0.000028428871295919487,"28":0.00029048045551714036,"29":-0.0002953340335223002,"30":-0.5750232858960554,"31":0.00010854856016948585,"32":-0.00012073400719909213,"33":-0.000025470658067939322,"34":0.0003522928673409209,"35":0.7819118083540846,"36":0.0000904920119718592,"37":-9.519419986858143,"38":0.00033592581626072545,"39":0.00033628060060185433,"40":-0.00009561679448581267,"41":-0.00033549119202201254,"42":0.0002583104358188862,"43":0.000009152229834225766,"44":-0.00011378969437873477,"45":-0.00006594758106995127,"46":-0.00006302664549764161,"47":0.0003080340829218965,"48":0.000011348923746511185,"49":0.00015536549939537987,"50":0.00030115681387632215,"51":-0.00008683569611204777,"52":-0.0002417112561779166,"53":0.000022794704346861047,"54":-0.00018493889207330303,"55":0.0007008454675326818,"56":-0.00005703952739892436,"57":0.0004450474987335106,"58":0.00012747372959816508,"59":-0.00019931940815078378,"60":-0.00024799791345454444,"61":0.00041092771188395625,"62":-0.00009130972807669875,"63":0.00003746829889307979,"64":-0.0001946962331777814,"65":0.0007423490216321516,"66":0.0002532726729155468,"67":0.0000892520397638428,"68":-0.00025848099448149147,"69":0.0011745955533746183,"70":-0.00032647805906403855,"71":-0.00006380358412864775,"72":7.035843318140017,"73":0.00013489257137417086,"74":-0.00031812863906918645,"75":-0.000371646943082314,"76":0.00010495984138445782,"77":-0.00028647563043761396,"78":-0.00009025243659405147,"79":0.0004338156533978159,"80":-0.000018286913326948316,"81":0.00015338606986253629,"82":-0.00003716033106997548,"83":-0.00015021660700147548,"84":-0.0001773047895128636,"85":0.00024739894977160014,"86":-0.0002490323848023608,"87":-0.00010232281113723236,"88":-0.000024661414639728846,"89":0.0002468260781027782,"90":-0.000036723299655781675,"91":0.000025631731725447096,"92":0.00029053115323124487,"93":0.000051560552048351816,"94":0.00018747365380047541,"95":0.00023265968710479976,"96":0.0002246870664702211,"97":-0.00026791655142466395,"98":0.0006021069260002317,"99":0.0002164421919298677}},"W2":{"n":3,"d":100,"w":{"0":0.00031816093894385594,"1":0.00012662730504601187,"2":-0.00005462975254581736,"3":0.00020749795648636278,"4":0.000047149272031535995,"5":-0.00004478041581497425,"6":-0.00003637631951777529,"7":0.00014478366510161568,"8":-0.0000296371570423585,"9":-0.2037673165251574,"10":0.00030531800282864883,"11":-0.000054747885338821335,"12":0.00006459887542777837,"13":-0.000008250524521759179,"14":-0.00007075557290127455,"15":0.00016758090509247034,"16":-0.00011151489223991463,"17":-0.00009482694693268689,"18":-0.00001160449224022764,"19":-0.00046002565128263495,"20":0.00014554137780047887,"21":0.000006732340954999799,"22":0.00015059307884009979,"23":-0.00005838653624141861,"24":-0.00011523303208811347,"25":0.000009406240458984267,"26":0.00005902227279934345,"27":-0.000014274653276107506,"28":0.00014585544516272249,"29":-0.00014829251114232287,"30":0.12707295047024214,"31":0.00005450420245161942,"32":-0.00006062273556690088,"33":-0.00001278928062961934,"34":0.0001768925227370167,"35":-0.20721896322952804,"36":0.00004543768282977255,"37":-0.012098725271378289,"38":0.00016867434645542574,"39":0.00016885248975894658,"40":-0.00004801092893355485,"41":-0.00016845611416878905,"42":0.00012970231537296582,"43":0.000004595501059566854,"44":-0.000057135870670915323,"45":-0.00003311347904363658,"46":-0.00003164682427769544,"47":0.00015466942634721748,"48":0.000005698501024602666,"49":0.00007801183160169087,"50":0.00015121623031930263,"51":-0.00004360178039838408,"52":-0.00012136757487557277,"53":0.000011445635609909602,"54":-0.00009286116208527884,"55":0.00035190620660774516,"56":-0.00002864058358363655,"57":0.0002234661746116189,"58":0.00006400687181507137,"59":-0.00010008187589658869,"60":-0.0001245242163836163,"61":0.0002063340663024956,"62":-0.00004584827289682795,"63":0.00001881351419262207,"64":-0.00009776049729978242,"65":0.0003727456985194845,"66":0.00012717276601138098,"67":0.0000448150703231135,"68":-0.00012978795587520695,"69":0.0005897808656547652,"70":-0.00016393046522212508,"71":-0.000032036939266777335,"72":-0.16938732502369172,"73":0.00006773200603551278,"74":-0.00015973807752646082,"75":-0.00018661053295466697,"76":0.000052702241852320666,"77":-0.00014384455270286708,"78":-0.000045317387693061384,"79":0.00021782648063673355,"80":-0.000009182191767932163,"81":0.00007701792446335545,"82":-0.000018658877951202996,"83":-0.00007542648018346132,"84":-0.00008902794263459023,"85":0.00012422346616102855,"86":-0.00012504364267712875,"87":-0.00005137814126209115,"88":-0.000012382944790329731,"89":0.00012393581719716455,"90":-0.000018439436534809803,"91":0.000012870158641722026,"92":0.00014588090136790995,"93":0.00002588949055585608,"94":0.00009413391124580344,"95":0.00011682262207846456,"96":0.00011281942807063782,"97":-0.00013452571464322188,"98":0.00030232817281240364,"99":0.00010867953028025697,"100":0.0008476925907519837,"101":0.00033738078913862876,"102":-0.00014555342919026916,"103":0.000552848770226605,"104":0.0001256227259598383,"105":-0.00011931123663295432,"106":-0.00009691968471348067,"107":0.00038575580284637493,"108":-0.00007896411744325518,"109":-0.2879036290366803,"110":0.0008134747512320928,"111":-0.00014586817762463327,"112":0.000172114771951816,"113":-0.000021982385392557603,"114":-0.0001885184349538062,"115":0.0004464957316242981,"116":-0.00029711591551588975,"117":-0.00025265324120585063,"118":-0.00003091857000961863,"119":-0.0012256646970901146,"120":0.0003877746188815955,"121":0.000017937394550940935,"122":0.00040123414522963305,"123":-0.00015556285779584422,"124":-0.0003070223716677018,"125":0.00002506163119124147,"126":0.0001572566895453009,"127":-0.00003803284593118764,"128":0.000388611405985884,"129":-0.0003951046158272936,"130":-0.7903554042600434,"131":0.0001452189183857668,"132":-0.00016152090020502314,"133":-0.00003407527532310375,"134":0.00047130516657648924,"135":-0.15141228135555182,"136":0.00012106243358530766,"137":0.30965548221039924,"138":0.00044940904571326825,"139":0.00044988368239738696,"140":-0.00012791849140392038,"141":-0.0004488275978130872,"142":0.00034557371446432435,"143":0.000012244079183469243,"144":-0.00015223063306796393,"145":-0.00008822629721223954,"146":-0.00008431859821459188,"147":0.0004120949814828213,"148":0.000015182870559014472,"149":0.00020785172353938788,"150":0.0004028944419989801,"151":-0.00011617092573495445,"152":-0.00032336698844281735,"153":0.000030495318419361155,"154":-0.00024741568385501067,"155":0.0009376010090785511,"156":-0.00007630888508200968,"157":0.0005953936531690948,"158":0.00017053746068803604,"159":-0.0002666542594817887,"160":-0.0003317774096795618,"161":0.0005497477609234039,"162":-0.00012215639396038786,"163":0.00005012601487756802,"164":-0.00026046927329360854,"165":0.0009931240987288952,"166":0.0003388340919416005,"167":0.00011940356877167713,"168":-0.00034580189132618486,"169":0.0015713681590621995,"170":-0.00043676966924987616,"171":-0.00008535800571075428,"172":-0.4513278207851431,"173":0.00018046256232036553,"174":-0.0004255996645763717,"175":-0.0004971973644276699,"176":0.00014041784435225057,"177":-0.0003832536734416208,"178":-0.0001207419238512008,"179":0.0005803675522804495,"180":-0.000024464684339740374,"181":0.00020520359683131779,"182":-0.000049714007942260855,"183":-0.00020096341579418946,"184":-0.00023720260890680418,"185":0.00033097610362465803,"186":-0.0003331613469065528,"187":-0.0001368899619512698,"188":-0.00003299264950318612,"189":0.0003302097039972729,"190":-0.00004912933655673883,"191":0.00003429076363506908,"192":0.0003886792303658361,"193":0.00006897897752442801,"194":0.0002508067450799683,"195":0.00031125760838620394,"196":0.0003005916662810051,"197":-0.00035842497056980495,"198":0.0008055088482499902,"199":0.0002895614951600426,"200":0.00019810174342562727,"201":0.00007884462050075219,"202":-0.000034015310216097804,"203":0.0001291985061156341,"204":0.000029357578013999752,"205":-0.000027882606016547432,"206":-0.00002264978178437629,"207":0.00009014965741627968,"208":-0.000018453630684481214,"209":-0.013848279967516638,"210":0.00019010527073209149,"211":-0.00003408886576585833,"212":0.00004022259766271636,"213":-0.000005137204730344633,"214":-0.00004405607238970878,"215":0.0001043443104290551,"216":-0.00006943488330197189,"217":-0.000059044131781415417,"218":-0.000007225559044461598,"219":-0.00028643049081037884,"220":0.00009062144603739781,"221":0.000004191904863548332,"222":0.00009376687903912407,"223":-0.00003635447674237004,"224":-0.00007174998226806488,"225":0.000005856813438497156,"226":0.00003675031895665491,"227":-0.000008888139810200238,"228":0.00009081699957874139,"229":-0.00009233443465607867,"230":0.04611236669532023,"231":0.00003393713627308008,"232":-0.00003774684919500922,"233":-0.000007963269755977275,"234":0.00011014216132311016,"235":-0.008252243964335765,"236":0.000028291854351217895,"237":-0.004296518521219034,"238":0.00010502513867873994,"239":0.0001051360591092045,"240":-0.000029894089999122,"241":-0.00010488925695247016,"242":0.00008075927320103785,"243":0.000002861397456236822,"244":-0.0000355757481369557,"245":-0.00002061816861604125,"246":-0.000019704953494104086,"247":0.00009630500891291589,"248":0.0000035481824742281334,"249":0.0000485741890330003,"250":0.00009415488315373338,"251":-0.00002714872681518055,"252":-0.00007556965284227913,"253":0.0000071266466654076954,"254":-0.00005782013496409954,"255":0.00021911267303032286,"256":-0.00001783311246725607,"257":0.00013914102522522657,"258":0.000039853985892109724,"259":-0.00006231611505942201,"260":-0.00007753513381328164,"261":0.00012847381589284863,"262":-0.00002854750889536697,"263":0.00001171426997330872,"264":-0.0000608707080086997,"265":0.00023208797065949645,"266":0.00007918425135998803,"267":0.00002790418370038573,"268":-0.00008081259718502966,"269":0.00036721687673362164,"270":-0.00010207137363333938,"271":-0.000019947859267743754,"272":-0.04920118899949937,"273":0.00004217344512649884,"274":-0.00009946099356063154,"275":-0.00011619304594207111,"276":0.00003281514293662092,"277":-0.00008956492051929944,"278":-0.00002821695239672374,"279":0.0001356295043088676,"280":-0.000005717309098731182,"281":0.000047955331849236374,"282":-0.000011617985432873845,"283":-0.000046964417568725494,"284":-0.000055433378815308667,"285":0.00007734787188221453,"286":-0.0000778585542492723,"287":-0.00003199068978010545,"288":-0.00000771026398461958,"289":0.00007716876743787237,"290":-0.000011481349830676208,"291":0.000008013628601609193,"292":0.0000908328498440411,"293":0.000016120139506208507,"294":0.00005861261281364346,"295":0.00007273973997001783,"296":0.00007024715231137013,"297":-0.00008376255804936369,"298":0.00018824369290743764,"299":0.00006766944545363083}},"b2":{"n":3,"d":1,"w":{"0":0.11451431671675918,"1":0.5577555592369063,"2":0.05422478013373327}}}}}