{"numStates":1,"sensitivity":10.57967669870025,"alpha":0.05078901558984133,"gamma":0.652452682933808,"epsilon":0.4192781050364862,"cycles":5467,"max":{"lastUpdatedDate":"2017-10-15T08:10:52.318Z","meetsCriterion":false,"cycles":61,"wealth":1.8988088278235895,"percentSuccess":0.4505094541888467,"odds":1.75,"weights":{"nh":100,"ns":4,"na":3,"net":{"W1":{"n":100,"d":4,"w":{"0":-0.11087043484170483,"1":-0.15447931510698495,"2":0.03741281332101901,"3":0.2569501301729374,"4":-0.1354251555945465,"5":-0.21785619565134856,"6":0.21073164436119124,"7":0.2097816725034895,"8":0.15424648293186283,"9":0.23156844341319363,"10":-0.2010504333609923,"11":-0.25783543663157565,"12":0.0435282928843985,"13":0.10875719472949194,"14":-0.6560485606123483,"15":0.33653491245744677,"16":0.046087747973296664,"17":0.0734595684622091,"18":-0.13770313008256935,"19":-0.02236625490457415,"20":0.015443462526540788,"21":0.04136019384282102,"22":-0.07398827214766229,"23":0.003214276165074698,"24":-0.15615269118896286,"25":-0.30509232564029964,"26":0.6152663564217827,"27":-0.00009929686947627412,"28":0.3468875277858811,"29":0.5934404716538839,"30":-0.47282093850376583,"31":-0.6118513776260178,"32":0.2598897311310574,"33":0.4596528419399621,"34":-0.5297840354268784,"35":-0.3361885286379972,"36":-0.2908798760689257,"37":-0.5025228706841294,"38":0.15365585589277006,"39":0.6921572228794437,"40":-0.26068700246086396,"41":-0.44599928056341354,"42":0.41219849906966266,"43":0.4164998686952573,"44":0.09500918002348588,"45":0.11926737644516897,"46":0.4997388200685861,"47":-0.5924869486110075,"48":0.39712411236876705,"49":0.6443839535786593,"50":-0.4512259557924318,"51":-0.747028869344333,"52":-0.045723731768077806,"53":-0.05045734824986279,"54":-0.020362173277501963,"55":0.12496362839021634,"56":0.1686517780222707,"57":0.26027398046074646,"58":-0.04853097455522487,"59":-0.4119520311699804,"60":-0.060737198695641155,"61":-0.04040458787388186,"62":-0.3224966816573749,"63":0.3650116470516599,"64":-0.11005338177444629,"65":-0.16821716773865858,"66":0.2851963657865634,"67":0.08046956156600166,"68":-0.12405621795674636,"69":-0.2566262930906808,"70":0.5916176481084867,"71":-0.06635694240484533,"72":-0.0453505193331164,"73":-0.07301397698572529,"74":-0.03790082752647556,"75":0.15072588733437967,"76":0.33009408194187106,"77":0.5758226718044791,"78":-0.5740695832172489,"79":-0.4971885910465772,"80":0.0699181772451295,"81":0.12609821336508228,"82":-0.2858579904263197,"83":0.014973478446735782,"84":-0.3039561413396978,"85":-0.4919262886714764,"86":0.3346882885458348,"87":0.5779441654275955,"88":0.15855902419592457,"89":0.19006577926599888,"90":0.4199240265711931,"91":-0.6853735013276702,"92":0.2820842334333526,"93":0.5525428981490745,"94":-1.130636203916012,"95":0.00392806547662594,"96":-0.27144352210196265,"97":-0.44296050815133065,"98":-0.022776113415578853,"99":0.7485175549165654,"100":-0.04429030803263098,"101":-0.07367073587393046,"102":0.02626626555933324,"103":0.10172489652182133,"104":-0.26458884587743126,"105":-0.4562179133948134,"106":0.5992454481125549,"107":0.29112456329071446,"108":0.1287972078545184,"109":0.26592037032866267,"110":-0.7891534417313328,"111":0.19128447150275418,"112":-0.0702406795117526,"113":-0.11324168201326884,"114":0.04259489743903695,"115":0.15833984472559,"116":-0.04368045735634297,"117":-0.06470565151036352,"118":-0.18518076415067025,"119":0.2510845870390828,"120":-0.17505885629493526,"121":-0.28913212599364035,"122":0.22478285959193706,"123":0.31071405652021256,"124":-0.09451422017267325,"125":-0.2066737749095881,"126":0.351943083961676,"127":0.0271916403633877,"128":-0.031153938768590694,"129":-0.053020765925754235,"130":0.044469237447710155,"131":0.052553139353008094,"132":0.2553858352714777,"133":0.41515124190968583,"134":-0.39829011922535323,"135":-0.3975796247821532,"136":-0.011821353359292236,"137":-0.039517135932886714,"138":0.1637437550929088,"139":-0.07714458288262259,"140":-0.010248448283392317,"141":0.014843265596454092,"142":-0.26590654941518244,"143":0.2055803837286454,"144":-0.15577111349424944,"145":-0.2265982941622922,"146":0.10457266893117254,"147":0.3287992069170412,"148":-0.728413067411802,"149":-1.3796863570540019,"150":2.1636085450963862,"151":0.5415256919319966,"152":-0.030242981706871334,"153":-0.043224083271722995,"154":0.09761339626912068,"155":0.005836599099499915,"156":-0.2602017646202479,"157":-0.4493171421952541,"158":0.5118066347114243,"159":0.343295335669523,"160":0.21630841749444732,"161":0.35500796604367263,"162":-0.25718297690931496,"163":-0.3979959569340337,"164":0.13254963219713692,"165":0.25792464322472564,"166":-0.1426739098313917,"167":-0.2781231673814095,"168":-0.11220171039472052,"169":-0.173342137716012,"170":-0.050144780687418525,"171":0.33406061503043144,"172":-0.023017726458593294,"173":-0.009203709225444496,"174":-0.39182099171829504,"175":0.3312705636852213,"176":0.035155835102463645,"177":0.06061481677717934,"178":-0.10582314766107224,"179":-0.018323036124846346,"180":0.13932857705153592,"181":0.24599244576805926,"182":-0.2161181958749547,"183":-0.22976876225772958,"184":0.05088822468596877,"185":-0.01709922011439626,"186":0.6527674602372161,"187":-0.5427056173879252,"188":-0.14062338143489408,"189":-0.2339728463425743,"190":0.031663226029640446,"191":0.3602046933254552,"192":-0.3112723268976172,"193":-0.4923254910100971,"194":0.1230122471011499,"195":0.7437444158712524,"196":-0.10591685280189364,"197":-0.16587076304592144,"198":0.11987344411142646,"199":0.19427848459848757,"200":-0.25932011527934185,"201":-0.41515233244091104,"202":0.202776750499245,"203":0.5493567274666603,"204":0.09179100135152143,"205":0.1890070396600405,"206":-0.23069520178915243,"207":-0.10139239034387561,"208":0.030754745120893247,"209":0.06737449233261975,"210":-0.09046617054522983,"211":-0.026499519949913442,"212":0.21313210900310534,"213":0.3680907365578498,"214":-0.696328582353669,"215":-0.07699200321795988,"216":-3.0156531396939723,"217":-3.360272427144551,"218":0.8394010384193654,"219":3.3987384688542113,"220":-0.14379077829074988,"221":-0.25570437995700346,"222":0.12413827009471805,"223":0.3094603334199585,"224":0.006251121320985604,"225":0.04329868927265738,"226":-0.1417535745921238,"227":0.06832020882502025,"228":-0.02531982818394815,"229":-0.07871431036783626,"230":0.3089086812053459,"231":-0.13798932881073817,"232":0.2737272227489624,"233":0.4612414827754352,"234":-0.3195765524606341,"235":-0.516994397406406,"236":-0.09640159256431696,"237":-0.21183278062311606,"238":0.5655115765454154,"239":-0.12209299432534479,"240":0.04555373102971262,"241":0.08633351961516056,"242":-0.13645237663302065,"243":-0.029928086081210465,"244":-0.12119088966973275,"245":-0.1724702408154936,"246":0.1169650294522703,"247":0.22656307284142413,"248":-0.16046467244135737,"249":-0.22830352437409557,"250":-0.2667658890290925,"251":0.6048479480817027,"252":0.2486959663226123,"253":0.3991656422050091,"254":-0.4318181227177477,"255":-0.3519379141159577,"256":0.363003165381603,"257":0.6279902086359188,"258":-0.7006541984476545,"259":-0.4925005043723376,"260":0.11122347172888795,"261":0.18118638927417596,"262":-0.010529926368578389,"263":-0.2931547597662784,"264":-0.24465111743037155,"265":-0.43293052872318494,"266":0.43415602134099684,"267":0.36377329674833886,"268":-0.13904018102447402,"269":-0.23090838602638974,"270":0.09422577864220512,"271":0.3088462904277742,"272":-0.0033936241272597657,"273":-0.055790502295517075,"274":0.1467138910011227,"275":-0.069369355798458,"276":0.08959780680983119,"277":0.13358130061086315,"278":-0.22066122099975635,"279":-0.07118665604493786,"280":-0.07777052794550256,"281":-0.1789909866624691,"282":0.4267311803583406,"283":-0.07177973374915529,"284":0.06983393146327242,"285":0.09399134778755892,"286":0.16458582075384498,"287":-0.298333644664922,"288":-0.248994418445899,"289":-0.4587515070983191,"290":0.6471622474822122,"291":0.23001667829415756,"292":-0.3670524975497618,"293":-0.6117004656868511,"294":0.6226690906768785,"295":0.5477567851489458,"296":0.006249823773457018,"297":0.02774602301071898,"298":-0.10495764332683001,"299":0.04988175087983077,"300":0.07745209162273735,"301":0.09888382873443048,"302":0.07524695416274399,"303":-0.24896917599474655,"304":-0.1599859897053458,"305":-0.2301143240334898,"306":-0.011651757183057243,"307":0.42355407834459485,"308":-0.22421823426714832,"309":-0.4260021702352796,"310":0.5720610721632429,"311":0.22158544039250047,"312":0.022709297658295526,"313":0.03946323839239204,"314":-0.10722732704179729,"315":0.016722786471520847,"316":-0.16250983587855436,"317":-0.2253871395695108,"318":-0.33238034593999627,"319":0.6535015618813599,"320":-0.13739672839324976,"321":-0.21505463158908847,"322":-0.005877894670381258,"323":0.37097317924175377,"324":-0.14820624242083635,"325":-0.21533148977021432,"326":0.16027521003668335,"327":0.2675866651786908,"328":0.02754302983452145,"329":0.021156629314106463,"330":0.19681703387496685,"331":-0.20554483887160155,"332":-0.18348369114845006,"333":-0.3121242422086296,"334":0.059408290661983644,"335":0.45980560682244526,"336":-0.0002353030585293509,"337":-0.016046271761804665,"338":0.21004160006520697,"339":-0.14526475754393167,"340":0.14105684004164626,"341":0.2113156063122147,"342":0.021575355604391725,"343":-0.38719732121419,"344":0.14536695968436741,"345":0.22147863788928976,"346":0.10571034720849949,"347":-0.46071268074853916,"348":0.07649652921791426,"349":0.12823507598800102,"350":-0.21542616812953727,"351":-0.049625240999891886,"352":0.14885044832555,"353":0.3020241398776933,"354":-0.5715039734138055,"355":-0.016722939074524032,"356":-0.15123465770297148,"357":-0.30560044202588665,"358":0.6783859805172171,"359":-0.0544323448632507,"360":0.21774788689582256,"361":0.3386442077497017,"362":-0.1515149529300194,"363":-0.4688009004081857,"364":0.06789901202064219,"365":0.17919403913699375,"366":-0.5633271754533719,"367":0.1884776972591334,"368":0.2059899126424001,"369":0.313894452985264,"370":-0.15383984627900754,"371":-0.4314287308101995,"372":0.046406829280681176,"373":0.06662575711416853,"374":-0.20644035012771192,"375":0.03237898408937289,"376":0.14260462359557685,"377":0.23349432882784696,"378":0.04677355629239388,"379":-0.4210546281421241,"380":0.1116808364070508,"381":0.19366488946062216,"382":-0.14452718854399343,"383":-0.20240133867446805,"384":-0.12477633991157612,"385":-0.14945651868525456,"386":-0.2809650550046121,"387":0.5087064821792076,"388":0.11022155460216894,"389":0.16951099718269166,"390":-0.04356059383126284,"391":-0.26117558427134213,"392":0.15801661848154339,"393":0.25695079455284214,"394":-0.1284360065062818,"395":-0.33253410280191903,"396":-0.018587315471455427,"397":-0.05085447039471818,"398":0.11888996299392272,"399":-0.025330701901347553}},"b1":{"n":100,"d":1,"w":{"0":0.025665074221488497,"1":0.004650167864794591,"2":-0.01091676639090698,"3":0.09749535217245393,"4":0.009974561113430015,"5":0.007031165886129709,"6":-0.055487183278043244,"7":-0.026528949813424428,"8":0.00973929082259212,"9":0.06463746984909285,"10":0.009905144958187001,"11":-0.11263945098051284,"12":-0.043636643446920406,"13":0.015955761439499394,"14":-0.04228566884399683,"15":0.07055587594441094,"16":-0.01681064034948854,"17":-0.0608673189374186,"18":0.020558114815067793,"19":-0.004491674880788342,"20":0.02762133344886681,"21":0.03512811148423673,"22":-0.11588925317136409,"23":0.10117279062161141,"24":0.08705719037016696,"25":0.009168014285513578,"26":-0.021117210653470657,"27":0.0926703255495021,"28":0.014098936799826574,"29":0.04532620042588447,"30":0.014836256744826429,"31":-0.028667805151605493,"32":0.001924203805294476,"33":-0.008915185608086927,"34":-0.02356775571904988,"35":0.04740314811778604,"36":0.02771122427530611,"37":-0.12296172610320394,"38":-0.008236732918910366,"39":-0.00736681401899691,"40":-0.021778644048376275,"41":-0.018725238645324053,"42":0.04243306759864453,"43":0.07309886433698344,"44":0.007538962751969349,"45":-0.006512897948602109,"46":-0.1204584224592544,"47":0.03801975216225187,"48":0.07314152753626554,"49":0.01112494536386473,"50":0.04385065778362852,"51":0.009313132777162494,"52":0.0051568560647247295,"53":0.05409586247775613,"54":0.20377907012592292,"55":0.023880740200599018,"56":0.020521965212486545,"57":-0.043604613359867345,"58":-0.029653604812952684,"59":-0.06487307739823858,"60":0.008955686304080581,"61":0.014979443667290052,"62":0.09288657626893475,"63":-0.0007084190828133414,"64":0.00740169388310948,"65":-0.032311764293378675,"66":0.0019889855627005506,"67":0.026479358718877646,"68":-0.021027235273490798,"69":0.012031603758617794,"70":-0.04663829516295806,"71":-0.04877085501818205,"72":-0.032223422454996785,"73":0.00573898454114832,"74":0.015130946116773791,"75":-0.03500805891615419,"76":0.04904120388704791,"77":-0.026438367681634073,"78":0.011642600718659689,"79":0.10441595954381536,"80":0.04261484122791685,"81":0.015701095826772808,"82":-0.04113925373463295,"83":0.04680820892929739,"84":-0.03552453386616429,"85":-0.04586545297971909,"86":-0.061874021191733124,"87":0.013934823798090181,"88":0.049631025988997254,"89":-0.06728746429842046,"90":-0.03935587954906584,"91":0.07217548004489995,"92":-0.0348776559706255,"93":0.022465456755129325,"94":-0.05206963301384039,"95":-0.009866364837106815,"96":0.08316415013945413,"97":-0.025661419979082157,"98":-0.02604459046596802,"99":-0.013606443737219068}},"W2":{"n":3,"d":100,"w":{"0":-0.008601885156996308,"1":-0.025682508610723385,"2":0.025364102639036757,"3":0.060525200408394576,"4":0.014406584181843403,"5":0.007753954956276644,"6":-0.06352462764296628,"7":0.06121488489682699,"8":0.061537836932454515,"9":-0.030223051307447416,"10":-0.050911190139527614,"11":-0.03948467612860216,"12":0.06110151540342404,"13":-0.00005716200637373198,"14":0.013119629886164122,"15":0.026378525245114824,"16":-0.030407168423670246,"17":-0.05980929604865744,"18":0.0007439728365705273,"19":0.06942648600663205,"20":0.028943178137613965,"21":-0.04581275433554782,"22":-0.030194814866264186,"23":0.11712534598022976,"24":-0.01278970625439034,"25":-0.0048013591409488444,"26":-0.06747754758862352,"27":0.07743361011518725,"28":-0.007576994278778875,"29":0.013739525263597443,"30":-0.029321958682697918,"31":-0.03731684406983608,"32":-0.005645156048496055,"33":0.04867542568696707,"34":-0.015410954207089786,"35":0.023354521011998152,"36":-0.016876164299705662,"37":-0.23970031639798076,"38":-0.009909985080048176,"39":-0.05964030703590434,"40":0.034381815063332974,"41":0.021041101469548223,"42":-0.0016101327540783913,"43":0.033527966910827524,"44":0.01118316331609964,"45":0.027063173034546584,"46":-0.0573008799717171,"47":-0.010727462997860527,"48":-0.027264853491012177,"49":-0.01605862176776369,"50":-0.03171628770062395,"51":0.026280759180677897,"52":0.010062667310976143,"53":0.07283165834451283,"54":-0.13176976854471395,"55":-0.01940559177551748,"56":0.01360941302104363,"57":-0.029228390877874585,"58":0.04340132004407039,"59":-0.055999280723505344,"60":0.01470162097646575,"61":-0.016076988473806134,"62":0.015467430560758666,"63":0.051053177403918765,"64":0.08226963221784778,"65":0.007118160987976572,"66":-0.05231691812360585,"67":-0.016025196815727227,"68":-0.01442195024074061,"69":0.023633995480203136,"70":-0.04286106662943135,"71":-0.01093937131256687,"72":-0.07163929139391798,"73":-0.07496903186838846,"74":0.009956355170382302,"75":-0.0030220714854275145,"76":-0.006929402307401699,"77":-0.06394050016975591,"78":0.0105825018058776,"79":0.021330462690163324,"80":-0.006869606275543083,"81":-0.02129888111918469,"82":-0.01618724338972974,"83":-0.01572482120214623,"84":-0.018615520314135707,"85":0.005417052032360353,"86":-0.0015903829632923589,"87":0.02296381637974286,"88":0.05958302303203543,"89":-0.06900182118947219,"90":0.02470923444438861,"91":0.05467603885479001,"92":0.024081608806891374,"93":0.020108155909373433,"94":0.003919346143981807,"95":0.019085019212093383,"96":0.01919328670361601,"97":0.009622587757649015,"98":0.019891969432068276,"99":-0.011937032982474609,"100":0.010343790813291162,"101":-0.007641909751131305,"102":0.004154874277844753,"103":0.07663245605524914,"104":0.01104278160452119,"105":0.006849249682494961,"106":-0.05541584614228996,"107":0.010273491656920469,"108":0.029635792380353927,"109":0.02155011527794505,"110":-0.01485540293185474,"111":-0.07497058020967724,"112":0.0015250832865431427,"113":0.008565521730699072,"114":-0.01726133414069473,"115":0.048105691518296786,"116":-0.021067645513180272,"117":-0.05680055688059926,"118":0.011332183410179959,"119":0.025134465652888942,"120":0.02633435436542279,"121":0.0004087281604407709,"122":-0.07237789522140799,"123":0.10364860858531734,"124":0.039728201539143256,"125":0.0030331351824419844,"126":-0.038182741179267954,"127":0.08140034380820205,"128":0.004578882770484371,"129":0.029696984894586727,"130":-0.0036561948871844875,"131":-0.030260291723137208,"132":-0.001202597085940114,"133":0.014507389346313335,"134":-0.01877210579375112,"135":0.03470724872878291,"136":0.00813868994169806,"137":-0.17626248336711386,"138":-0.00834269100190522,"139":-0.02760123771172798,"140":0.0019962083646761076,"141":-0.001661753074401407,"142":0.02196015237798086,"143":0.052380437220452235,"144":0.008484025982747594,"145":0.007195686118848035,"146":-0.08689619420215319,"147":0.015990778286826622,"148":0.026952625231689505,"149":-0.0003728298280198086,"150":0.010551424207244883,"151":0.015420746871261775,"152":0.006758987798224802,"153":0.05845892197095889,"154":0.08063051578945483,"155":0.005044784417233341,"156":0.01642955027130461,"157":-0.0350650627604921,"158":0.0014730391542225939,"159":-0.057401125573335834,"160":0.01062204764008532,"161":0.0016817157965325858,"162":0.05473326285922043,"163":0.019823802323555278,"164":0.03667953298873775,"165":-0.014435554951902392,"166":-0.019658320010501953,"167":0.007784231120925273,"168":-0.017030367863993312,"169":0.015823414045613812,"170":-0.042165604877490666,"171":-0.03038179747727934,"172":-0.04595519124636016,"173":-0.026683912639353,"174":0.012066061834813756,"175":-0.01993882236071538,"176":0.02329027107230521,"177":-0.03971139507487516,"178":0.010447180918739144,"179":0.06292539028261465,"180":0.019955259539416424,"181":0.000007246106274251814,"182":-0.02846802995429177,"183":0.01851409361382445,"184":-0.026450094872438473,"185":-0.022255222884227058,"186":-0.03334526810693305,"187":0.01658101330025168,"188":0.0506276728870241,"189":-0.06413148877608782,"190":-0.011077811247044857,"191":0.060774052619505865,"192":-0.00899893679037253,"193":0.020025930080691725,"194":-0.026058407854576582,"195":0.0022606107684608016,"196":0.05152569162404337,"197":-0.009946892704951955,"198":-0.006024864005738932,"199":-0.012040478741856651,"200":0.007467226679460151,"201":0.004577947440785199,"202":-0.006052395768085643,"203":0.014536855405248857,"204":0.0005576769558085779,"205":0.0006895396185261066,"206":-0.004601444543266991,"207":-0.013889381511262674,"208":-0.005859274937406338,"209":0.018695819963533124,"210":0.009040287026726474,"211":-0.02062189136627184,"212":-0.017286128505307998,"213":0.00392116739898143,"214":-0.01199337581567958,"215":0.013437903738019454,"216":-0.000029133121980795263,"217":-0.00646036248228509,"218":0.004966140442526218,"219":-0.01004216621125626,"220":0.002860348769527692,"221":0.013991220946079607,"222":-0.022343877779194988,"223":0.005977466020195917,"224":0.021478737138215433,"225":0.0029079015928821427,"226":0.003982536563046376,"227":0.011056805419197081,"228":0.0044961251996662975,"229":0.009246067489884883,"230":0.007545075292544631,"231":-0.0019310534425572646,"232":0.0012674764387457867,"233":-0.008622638596924076,"234":-0.0037276055227493344,"235":0.008392896289702346,"236":0.008992078185177943,"237":0.013756937923591327,"238":-0.0006914022636452443,"239":0.006193258936661907,"240":-0.009824952263078685,"241":-0.007497701245348883,"242":0.010651448238189988,"243":0.013109995854353615,"244":0.00031050311664313423,"245":-0.005204004194502783,"246":-0.019766133214885104,"247":0.010709287222087466,"248":0.020025915493533303,"249":0.0049129857650497015,"250":0.014469002281035568,"251":-0.0012986216486466442,"252":-0.0001071581271043478,"253":0.0029130233107678453,"254":-0.06641591540460405,"255":0.008553776526757715,"256":0.0032114607815164637,"257":-0.006642922661059735,"258":-0.01260783536665325,"259":-0.007917697523745841,"260":0.00024472822131905867,"261":0.005871999328768619,"262":0.019674657967953185,"263":-0.006965766231612755,"264":-0.009032541814474628,"265":-0.00890612309228043,"266":0.007436585838658824,"267":0.008700882876672509,"268":-0.0032222432942179504,"269":-0.00028189300897560153,"270":-0.005608866466226969,"271":-0.010442375328599386,"272":0.002002575566373415,"273":0.010958256905036066,"274":0.0024268219712631498,"275":-0.008192473269192336,"276":0.012737889173292325,"277":0.0023495823229253724,"278":0.001430416117904946,"279":0.021162209603720943,"280":0.011285555594725674,"281":0.006691922724800546,"282":-0.007925317233890786,"283":0.013423404354208133,"284":-0.006227200407026144,"285":-0.011804293550726366,"286":-0.014686955630245488,"287":0.00030832325177349896,"288":0.003754766633584445,"289":-0.0064661190937892535,"290":-0.012673120426782009,"291":0.009796866085527661,"292":-0.0116054734558964,"293":0.002844964009865651,"294":-0.013093856639392117,"295":-0.005040066217319748,"296":0.01714504446917422,"297":-0.007539131254797582,"298":-0.0090530272950656,"299":-0.0017495300449768144}},"b2":{"n":3,"d":1,"w":{"0":0.02459325815029237,"1":0.12827009629328814,"2":0.037570261154445644}}}}},"weights":{"nh":100,"ns":4,"na":3,"net":{"W1":{"n":100,"d":4,"w":{"0":0.015432468868358045,"1":0.051215554521284526,"2":-0.022430696004569442,"3":-0.02406454332083054,"4":0.04004708343852269,"5":0.11768393571283386,"6":-0.055410472361124556,"7":-0.05879790503513112,"8":-0.0394698977761475,"9":-0.13016251297597525,"10":0.0573941566932324,"11":0.061107414564302374,"12":-0.111975213675446,"13":-0.44087242724430176,"14":0.18360532224985868,"15":0.18017686158028556,"16":-0.021519176503348822,"17":-0.07508079319655492,"18":0.0320079740133366,"19":0.03435724666606645,"20":-0.011354973482054755,"21":-0.021439967548464747,"22":0.013354092145170412,"23":0.014036249220456104,"24":0.12320878685085775,"25":0.42943661449250703,"26":-0.1907281864780059,"27":-0.18636444819643957,"28":-0.10535963787901297,"29":-0.2679506228442531,"30":0.1397851611967303,"31":0.1424443032351248,"32":-0.11135714220569588,"33":-0.315091976629064,"34":0.15492532900275757,"35":0.15640054212114984,"36":0.058527579379432454,"37":0.07859593937984027,"38":-0.0627995353228429,"39":-0.06492472276610586,"40":0.08489005675946243,"41":0.22247044872930233,"42":-0.11324910472397738,"43":-0.11714320559642431,"44":0.07470948404984366,"45":0.2805907772947688,"46":-0.11681480313785589,"47":-0.12129613135173324,"48":-0.10429308089063519,"49":-0.29063495435417463,"50":0.1437070144441477,"51":0.14618001178610862,"52":0.0013250046743308536,"53":0.01661463630376437,"54":-0.004288254900683637,"55":-0.004835885290406676,"56":-0.024334044561956703,"57":-0.04846732381617904,"58":0.02912178121099418,"59":0.030629649413796593,"60":-0.0543651306840739,"61":-0.1484740014780718,"62":0.07318646183118235,"63":0.07706111982367231,"64":0.04878936229790395,"65":0.17322764640010602,"66":-0.07354401610127842,"67":-0.07804028318613009,"68":0.12202170678792416,"69":0.403284477239541,"70":-0.18366656938014625,"71":-0.18088855715765925,"72":0.0004453665952925763,"73":-0.01718521510016115,"74":0.002963415800736409,"75":0.0035339305273577363,"76":-0.1217662770527055,"77":-0.3476766864875374,"78":0.17092143961713915,"79":0.17049877335718283,"80":-0.04913727994995762,"81":-0.15495197186762952,"82":0.0701938619371052,"83":0.07431258741086608,"84":0.0755726794308909,"85":0.20014778900921412,"86":-0.10098351588085266,"87":-0.10508782596444743,"88":0.05326514396915991,"89":0.17605080137902723,"90":-0.07777752242975991,"91":-0.08221834706385595,"92":-0.3424371927208824,"93":-0.7167875926366826,"94":-3.539613339812189,"95":2.4288789467480942,"96":0.03310422546583589,"97":0.015573985273767002,"98":-0.029857734313647372,"99":-0.030281216919056636,"100":0.008146000998241002,"101":0.013486930880657059,"102":-0.009213011256209882,"103":-0.009641403835665413,"104":0.12030713392186673,"105":0.40077467820200546,"106":-0.181610932103653,"107":-0.17917721556036909,"108":1.4039493623045873,"109":1.3193085815784882,"110":-1.8438218647917135,"111":-2.139634868206427,"112":0.012851069599903283,"113":0.02574986197204826,"114":-0.015401718519996853,"115":-0.016220951043089377,"116":-0.02268671671938553,"117":-0.09918415050992911,"118":0.03765312037455578,"119":0.040713732300965505,"120":0.04681518634699437,"121":0.12017055356990017,"122":-0.06142009292821067,"123":-0.06477624939281805,"124":0.06869492041460618,"125":0.16444622471846532,"126":-0.08812081304218847,"127":-0.09195589280860318,"128":0.008846185468091643,"129":0.021426294298827052,"130":-0.011317203837427582,"131":-0.012005485764738751,"132":-0.07919361470522511,"133":-0.23280287949227776,"134":0.11064930212588607,"135":0.11485181642733086,"136":0.023778072446605722,"137":0.06804491853937603,"138":-0.03247428651819627,"139":-0.034594478871288276,"140":-0.043052631656752535,"141":-0.12943868749381116,"142":0.06017535077646893,"143":0.06381714519155797,"144":0.028256032428885067,"145":0.08887549785076146,"146":-0.04017074952907389,"147":-0.042884774662071586,"148":-1.8701447593487195,"149":-0.8029655848329739,"150":1.7023610512889493,"151":-0.18080243423761408,"152":0.014565678438860839,"153":0.057788127052251885,"154":-0.02300242114978739,"155":-0.02484901724414765,"156":0.10561639586649053,"157":0.3055309477370338,"158":-0.14801106232113947,"159":-0.15014986204632827,"160":-0.05561417514481822,"161":-0.14186354971910892,"162":0.07289667082141195,"163":0.07660529183925062,"164":-0.03484458436165995,"165":-0.03537706251328388,"166":0.03511213026791202,"167":0.03615821455758426,"168":0.005398810144800969,"169":-0.013147709093352885,"170":-0.0018332415618976209,"171":-0.0013856137048550233,"172":-0.06979023091814876,"173":-0.23424556081004022,"174":0.10315433383586291,"175":0.10778081287127403,"176":-0.016742993120894643,"177":-0.05240036861633782,"178":0.02372402833381043,"179":0.025390171367341383,"180":-0.042875164332712164,"181":-0.09863963570328055,"182":0.05397784364085644,"183":0.056825332763459614,"184":0.11243217743934023,"185":0.3475556314990754,"186":-0.16293067756272514,"187":-0.16346544387210019,"188":0.020119963212534647,"189":0.017467807521378997,"190":-0.019692751413087965,"191":-0.020220287219781793,"192":0.05465836296843756,"193":0.11103199507371475,"194":-0.0660205950075124,"195":-0.06903303748855916,"196":0.025529944009058194,"197":0.07246465908982996,"198":-0.03475725494721707,"199":-0.03700167189694105,"200":0.05445485987370608,"201":0.12927222610812578,"202":-0.06945494661072427,"203":-0.07290506318400315,"204":-0.04226391777940982,"205":-0.08669154991390018,"206":0.05114056977308129,"207":0.053665298668109554,"208":-0.015136810056029463,"209":-0.029403212895484032,"210":0.01796298537630227,"211":0.018894598248513313,"212":-0.10338712286949991,"213":-0.5329108915775369,"214":0.1979193191359268,"215":0.18938168233023767,"216":-6.116027078273039,"217":-11.249331589440906,"218":1.1735930961208754,"219":15.461809551339826,"220":0.03270094398740245,"221":0.04785524250923113,"222":-0.0357957629771126,"223":-0.037242311677314295,"224":-0.020647173648946818,"225":-0.04127407692988044,"226":0.02473389300528524,"227":0.026029263934763593,"228":0.05518619216822206,"229":0.1543385223546048,"230":-0.07502414211378236,"231":-0.07900255085796713,"232":-0.07208195193389984,"233":-0.17041352351038908,"234":0.09210178790093057,"235":0.09593645433915304,"236":0.11846102957770485,"237":0.37773329123057137,"238":-0.1748031543393144,"239":-0.17362171875425295,"240":-0.02219315415411223,"241":-0.059962239168871355,"242":0.029616142731874896,"243":0.03149491384573238,"244":0.025748505252246215,"245":0.0906800067041717,"246":-0.03848377691968641,"247":-0.0412708323014903,"248":-0.025448100014091087,"249":-0.11595775915320959,"250":0.04317802777089193,"251":0.04669030801842034,"252":-0.08365691068665612,"253":-0.2623183199183019,"254":0.12046514948753048,"255":0.12448424055785313,"256":-0.1170634706264309,"257":-0.4965890760507046,"258":0.2012369698985183,"259":0.19322366223298743,"260":-0.013826711699886859,"261":-0.009833290005239486,"262":0.013111701523289597,"263":0.01340577650879404,"264":0.09001247885203033,"265":0.2289840576097902,"266":-0.11884126974310875,"267":-0.12251675637125818,"268":0.02743635747226631,"269":0.04995052000380626,"270":-0.03192824195494453,"271":-0.03346761401869668,"272":0.0221321588662421,"273":0.026118484821227,"274":-0.023000591867091642,"275":-0.023802952337555153,"276":-0.03673867451114818,"277":-0.13404142697025512,"278":0.055929405659208335,"279":0.05977948878167575,"280":0.0878206162912253,"281":0.23875510814059744,"282":-0.11903951614226581,"283":-0.12284269091385337,"284":0.017696263363495304,"285":0.07224007762335712,"286":-0.028350560779094217,"287":-0.030634794701330337,"288":0.12616515337918913,"289":0.44628818937782755,"290":-0.1972552676442953,"291":-0.19139563989285516,"292":0.12249751351240286,"293":0.4122467460454585,"294":-0.18613445402924694,"295":-0.18283171006219343,"296":-0.014389287898881801,"297":-0.036550710973493515,"298":0.01874137900843816,"299":0.0199074651956739,"300":0.002846753358784426,"301":0.009332754221371206,"302":-0.004113126992068604,"303":-0.004416291278853616,"304":0.014513183917343098,"305":0.032665304524398815,"306":-0.018089094154141793,"307":-0.019128733212746257,"308":0.12501438924692373,"309":0.35727545387032844,"310":-0.17583936287098,"311":-0.17472010878612276,"312":-0.01555533322376092,"313":-0.05391812492219423,"314":0.02305467703371849,"315":0.02477410738502655,"316":-0.03618496990268445,"317":-0.14908505278749268,"318":0.058443335286374146,"319":0.06266868137406435,"320":0.014081313468920014,"321":0.011628325082303914,"322":-0.013665538941530114,"323":-0.01401808926978386,"324":0.033591699380143177,"325":0.1152188784206622,"326":-0.04966550134729081,"327":-0.05306783479029628,"328":0.027001702650333245,"329":0.08810899749578657,"330":-0.03900129481639451,"331":-0.04170289623144864,"332":0.029563951550806537,"333":0.02699015262667179,"334":-0.029198875902224593,"335":-0.030002137938803124,"336":0.03079015205696323,"337":0.10381242745281116,"338":-0.04515030267248069,"339":-0.04826941637812778,"340":-0.011688018764197854,"341":-0.013417946898404103,"342":0.01207141671586002,"343":0.012488906251167907,"344":-0.00016218840996816346,"345":0.037602042709843055,"346":-0.007143915678321386,"347":-0.008387301124844758,"348":-0.03600442472527563,"349":-0.11480362787820754,"350":0.05154987004171661,"351":0.054912449655655136,"352":-0.12324699196681047,"353":-0.37823103482406123,"354":0.17903014479498452,"355":0.17726547235938225,"356":0.11765000135489964,"357":0.48718481813829867,"358":-0.1994923199444664,"359":-0.1921095626046573,"360":-0.04222949011113175,"361":-0.10676380941050305,"362":0.055045095581793595,"363":0.05811815166312279,"364":-0.11919997270730398,"365":-0.3642133560355238,"366":0.172407326480782,"367":0.17167117841587817,"368":-0.04047557120453533,"369":-0.11214022013707096,"370":0.0546709452202543,"371":0.057907925624420785,"372":-0.03137312642402483,"373":-0.1237570507108578,"374":0.04953267115658412,"375":0.05318966658011852,"376":-0.009586323685151683,"377":0.02104055644732938,"378":0.0037010465704113735,"379":0.0029826650603247008,"380":-0.030401001617573434,"381":-0.06641808881163519,"382":0.03753800283156778,"383":0.03956750883052147,"384":-0.03659892485183959,"385":-0.11409800736332629,"386":0.05189586517671411,"387":0.0552324610249281,"388":-0.01695669226200873,"389":-0.0374599356451398,"390":0.021000229371400985,"391":0.022186910432488195,"392":-0.033265360746855537,"393":-0.07364165880560712,"394":0.04127287071686577,"395":0.043499038081742526,"396":0.017724842262192064,"397":0.04119735377234578,"398":-0.02234791721621886,"399":-0.023652106909204374}},"b1":{"n":100,"d":1,"w":{"0":0.0001483501383796382,"1":0.00040538447803644876,"2":-0.0004226719669641997,"3":-0.002908730585230619,"4":-0.00021544145488048872,"5":-0.0000917653772932814,"6":0.0030211882734123394,"7":-0.001516211058610962,"8":-0.0018733656963458945,"9":0.0004759400891659679,"10":0.0010738703397172597,"11":0.001202790278846538,"12":-0.0016257520004076562,"13":0.000024182418884334818,"14":-0.00020284375898716394,"15":-0.0005746877706846818,"16":0.000584784556167683,"17":0.002742751436634745,"18":-0.000013665555856720111,"19":-0.0022663291237214624,"20":-0.0005464513873980019,"21":0.000900917379593981,"22":0.0006294199148528332,"23":0.5333047713204362,"24":0.00022361142975401853,"25":0.00006383996320693565,"26":0.0026871080807511073,"27":-0.03252538293777226,"28":0.0001054802529008625,"29":-0.00025433726926034735,"30":0.00045995528095187744,"31":0.0007334600829897006,"32":0.00007598007982664628,"33":-0.0010528837836654948,"34":0.00022190121772081042,"35":-0.0004483293373824697,"36":0.00027851182004345665,"37":-0.24037438029790897,"38":0.00014992969284595247,"39":0.001731158306779476,"40":-0.0005705503982875462,"41":-0.0002564323470622539,"42":0.000021131900961751532,"43":-0.0009598413718592479,"44":-0.0001580782836328707,"45":-0.0003950203133542412,"46":0.0021134765889161597,"47":0.00014306719284393134,"48":0.0005025510570571592,"49":0.00023891975308127256,"50":0.0005355544054193663,"51":-0.0003725433950849557,"52":-0.00012361818065667927,"53":-0.003764362842900291,"54":0.9990294776487361,"55":0.0002567774950757528,"56":-0.00017114991860236507,"57":0.0005943542376995274,"58":-0.0007794881973951488,"59":0.002451484193074768,"60":-0.00020196063367690337,"61":0.00026380641075645934,"62":-0.00029750257435578467,"63":-0.0012247557748073616,"64":-0.0036383319557694617,"65":-0.00009588965879085737,"66":0.0011546122848323567,"67":0.00022472316148061645,"68":0.00016465881848623938,"69":-0.0004091038190435212,"70":0.0011704820553444832,"71":0.00018677079084370614,"72":0.0032613544362342425,"73":0.002836713301845045,"74":-0.00012619758858185173,"75":0.00002669472359028928,"76":0.00012299221966304588,"77":0.002396978435847163,"78":-0.00015207709850959556,"79":-0.0004325648648416384,"80":0.00009924297746903517,"81":0.0003544348055522521,"82":0.0002689185763049008,"83":0.00021306899804493534,"84":0.0003171129323603522,"85":-0.00008597448151255962,"86":0.00003528905395084033,"87":-0.00037118174989856343,"88":-0.002540983757975299,"89":0.00353827942374365,"90":-0.0004032982676065471,"91":-0.0023532571193376666,"92":-0.0003993140198767257,"93":-0.00035209065141587003,"94":-0.00003972315980441716,"95":-0.0002639310532878994,"96":-0.00037434815752865737,"97":-0.0001434904818754693,"98":-0.0002923927380126622,"99":0.00015233271100450628}},"W2":{"n":3,"d":100,"w":{"0":-0.000219378366328441,"1":-0.0005272774494539623,"2":0.0005672779282689925,"3":0.002171022436388709,"4":0.0003187347420314188,"5":0.00010869992915319661,"6":-0.00218413218417829,"7":0.0013516241017843952,"8":0.001579777873094241,"9":-0.00046418737303984925,"10":-0.0010791479071862592,"11":-0.0012585074133849138,"12":0.001440042093291169,"13":-0.00005815594907504816,"14":0.00024183049729182928,"15":0.0006865087345190866,"16":-0.0007511213332279819,"17":-0.002046062822366001,"18":0.000053828077998313266,"19":0.001780921909208096,"20":0.0006888131299397288,"21":-0.0009559473470700375,"22":-0.0007786225221503014,"23":-0.16932419604891566,"24":-0.00016586717392219256,"25":-0.00007184130383766573,"26":-0.00202340842404332,"27":-0.040227269932864636,"28":-0.00012784821558232338,"29":0.00040218850611961415,"30":-0.0005608597197627253,"31":-0.0007987603585736349,"32":-0.00009989811206655128,"33":0.0010935378397969428,"34":-0.0003037451277565508,"35":0.000578223874569623,"36":-0.0003882170003437969,"37":0.029157537457981317,"38":-0.0002376808560624281,"39":-0.001509358909972639,"40":0.0006684292914751976,"41":0.0002363471071178346,"42":0.000023567582824096696,"43":0.0010582332257890376,"44":0.0002278427168476077,"45":0.00047378769738506174,"46":-0.001728927131760644,"47":-0.00012649691532845537,"48":-0.0005592047804922936,"49":-0.0003244602363740418,"50":-0.0006206571093851677,"51":0.0004317035136628973,"52":0.0001476548575930522,"53":0.002603449628015692,"54":0.21425014769059278,"55":-0.00026945259539331765,"56":0.000205451837499219,"57":-0.0007100622788939182,"58":0.0008336459789060008,"59":-0.001901954017363878,"60":0.00027171549588130754,"61":-0.0003851435887195206,"62":0.0004678407523931402,"63":0.0012275059007764494,"64":0.0024984795529042173,"65":0.00007986428827626003,"66":-0.0011265492236078025,"67":-0.0002576324351177553,"68":-0.0001615311830481498,"69":0.0005702193966754757,"70":-0.0011544651568514775,"71":-0.00029584938654493093,"72":-0.002290265790342581,"73":-0.0020932362374770372,"74":0.0001681661847150168,"75":-0.00003998515484447381,"76":-0.00015602461397443422,"77":-0.0018435927554745933,"78":0.0002285902074901559,"79":0.0006192848892220188,"80":-0.00008654453233189668,"81":-0.0004951861311171629,"82":-0.0003811721933952788,"83":-0.00019045561529018617,"84":-0.00044688099993467513,"85":0.00008397002155846812,"86":-0.00012067029465776928,"87":0.0005026688748985175,"88":0.0019321867003894953,"89":-0.0024510880572028177,"90":0.0004986306366025765,"91":0.0018428306240457222,"92":0.0005102136976308641,"93":0.0005156440175420763,"94":-0.000034420731768069885,"95":0.0003220155627622201,"96":0.0005024916065837048,"97":0.00018011532399627464,"98":0.00035600500097561624,"99":-0.00019492829268987055,"100":0.0009891161684338033,"101":0.0023639471830892073,"102":-0.0025252903083127142,"103":-0.008400531799468232,"104":-0.0014301669451564365,"105":-0.0005052524762562343,"106":0.008462159841394357,"107":-0.005725700796798019,"108":-0.006525490834559048,"109":0.0021728475503506846,"110":0.004679186237330305,"111":0.005305664082592936,"112":-0.006030896291383419,"113":0.0002520379332817876,"114":-0.0011178468728424034,"115":-0.0030601998353286144,"116":0.0032981135754996055,"117":0.008043625271741843,"118":-0.00022681055640972096,"119":-0.0072120222017274,"120":-0.003050996561444667,"121":0.004185360255665847,"122":0.003422430222052512,"123":0.11811428035089686,"124":0.0008310643630558303,"125":0.00033652491269392266,"126":0.007970610921933208,"127":0.08154608041636754,"128":0.0005921720305857194,"129":-0.0017830446260433319,"130":0.0025257985882992657,"131":0.0035545155520398477,"132":0.0004582384993888626,"133":-0.004714968511479191,"134":0.0013759126417828757,"135":-0.0025828572450947757,"136":0.0017458110719057072,"137":-0.011730489046603908,"138":0.0010629745619763868,"139":0.0062723379197837745,"140":-0.0029921956100198567,"141":-0.001134940966387365,"142":-0.00007914688728596424,"143":-0.004553659102228749,"144":-0.0010298425877708895,"145":-0.0021546434077962537,"146":0.00702134244707457,"147":0.0006145072168008439,"148":0.002547488608255173,"149":0.0014693560628132566,"150":0.002795856091945983,"151":-0.0019786488815686848,"152":-0.0006848614353904508,"153":-0.009628271131704244,"154":0.02358364459905084,"155":0.0012659418562124293,"156":-0.000950362550265471,"157":0.003157142322242001,"158":-0.003702342023678581,"159":0.007589253599626065,"160":-0.0012353987123295141,"161":0.0017235913052397597,"162":-0.002065586183687541,"163":-0.005220106275830214,"164":-0.009358960908543247,"165":-0.0003925427639432123,"166":0.004870522901605265,"167":0.001196193462917233,"168":0.0007705229386092934,"169":-0.0025273606950549764,"170":0.004966445237340495,"171":0.0013196482039817769,"172":0.008780166556657056,"173":0.008188044789280209,"174":-0.0007687656218298881,"175":0.00018080080278134978,"176":0.000717878583582775,"177":0.007419823383732171,"178":-0.0010284417968105131,"179":-0.002724788470533096,"180":0.0004218592332748893,"181":0.0022084833331987275,"182":0.0017117603671971033,"183":0.0009212977978780908,"184":0.0019987698157573107,"185":-0.0004016829126175157,"186":0.0005114768172009268,"187":-0.002248144426744505,"188":-0.007694673826085276,"189":0.009226376178589214,"190":-0.0022544499206589796,"191":-0.0074039990161141635,"192":-0.0022955626782806896,"193":-0.002284418117441241,"194":0.0001090010053851251,"195":-0.0014775776509015775,"196":-0.002249603618456844,"197":-0.0008291701200739173,"198":-0.0016304212350597765,"199":0.0008947091185817677,"200":0.0008141916399025766,"201":0.001968327451676722,"202":-0.002091124872078274,"203":-0.007320792132836087,"204":-0.001175428974730411,"205":-0.000429435508865297,"206":0.007426563897922739,"207":-0.004937436781169647,"208":-0.005644392422750597,"209":0.0018947661520847712,"210":0.003986168171083194,"211":0.00445945847519889,"212":-0.005191074561325142,"213":0.00019684870767355342,"214":-0.0009479906281064941,"215":-0.0025685408945774185,"216":0.0027329926012293355,"217":0.007036765426287682,"218":-0.00017060476587816794,"219":-0.006288654848378564,"220":-0.002540204734646178,"221":0.0035480261015866546,"222":0.0028491833605361165,"223":0.041922828128002264,"224":0.0007643438839559854,"225":0.00028830978700404846,"226":0.006962888795651879,"227":-0.03962461121663069,"228":0.0005015383978759794,"229":-0.001450651401565549,"230":0.0021210832842284673,"231":0.0030162635030967504,"232":0.0003836580901933221,"233":-0.0039919787018569694,"234":0.0011429578881448732,"235":-0.002150269148826643,"236":0.0014443752506471635,"237":-0.1356485523413713,"238":0.0008670605371223353,"239":0.005402559394580739,"240":-0.0025202876026997594,"241":-0.0010030721290146278,"242":-0.000038598720565211054,"243":-0.0038221070681780252,"244":-0.0008504902490168366,"245":-0.0018178262388271384,"246":0.006080893958865746,"247":0.0005475672822811161,"248":0.0021695085245589697,"249":0.001221481825177081,"250":0.0023621047976768858,"251":-0.00167963067025759,"252":-0.0005812122386205039,"253":-0.00844322220540291,"254":0.014980941109825797,"255":0.0010945730727820577,"256":-0.0008054859970071546,"257":0.0026479585783384368,"258":-0.003147398459547305,"259":0.0066106093185376354,"260":-0.0010291980766432133,"261":0.0014172658685360727,"262":-0.001679145321517216,"263":-0.004425510199523998,"264":-0.008244558566820331,"265":-0.0003535850603256139,"266":0.004163676081891906,"267":0.0010202205800151033,"268":0.0006743830029927381,"269":-0.002081740676568827,"270":0.004233413097472491,"271":0.0010755959834302694,"272":0.007735860997690907,"273":0.007170869910392112,"274":-0.0006421101753102642,"275":0.00014877599307454995,"276":0.0006038570448342086,"277":0.006487100575235931,"278":-0.0008446741589232069,"279":-0.0022330473846479196,"280":0.00037689546350607627,"281":0.001822124664669098,"282":0.0014132054909446118,"283":0.0008189667131104293,"284":0.0016490914893463238,"285":-0.0003519958339447725,"286":0.0003881783405602116,"287":-0.0018624697914825811,"288":-0.0067258330845910465,"289":0.008120399627927767,"290":-0.0018923587581716275,"291":-0.0064481896138093835,"292":-0.001917111616040443,"293":-0.0018719093745222628,"294":0.00004457117574569055,"295":-0.001247277935963684,"296":-0.0018659865848919697,"297":-0.0006983769508762375,"298":-0.0013758878634237662,"299":0.0007513846944672361}},"b2":{"n":3,"d":1,"w":{"0":0.12996540494369052,"1":0.14428769928649476,"2":0.12839684250468464}}}}}