{"numStates":1,"sensitivity":16.424627654221656,"alpha":0.08548051127692471,"gamma":0.5197687791335832,"epsilon":0.2388297428373477,"cycles":2771,"max":{"lastUpdatedDate":"2017-10-25T06:34:23.676Z","meetsCriterion":false,"cycles":596,"wealth":3.2147890379617254,"percentSuccess":0.3755299688782092,"odds":2.272727272727273,"weights":{"nh":100,"ns":4,"na":3,"net":{"W1":{"n":100,"d":4,"w":{"0":0.07829585113653245,"1":-0.04637730507181759,"2":0.18093328360503227,"3":0.023880620668033578,"4":0.013126542085094808,"5":-0.006465822290945159,"6":0.05075032670593488,"7":0.010665130754860815,"8":-0.03653454796177028,"9":0.022364084304835774,"10":-0.10743373906867833,"11":-0.018894329761128783,"12":0.09171031805496963,"13":-0.07143308879075297,"14":0.20533127163230966,"15":0.026043812239024237,"16":0.019299326280700118,"17":-0.011117407754422732,"18":0.038724548486194776,"19":0.0043392255186020506,"20":-0.03373251135084408,"21":0.0394290362853476,"22":-0.12060208152864106,"23":-0.024846344878928363,"24":0.014221200777705776,"25":-0.017424723909082104,"26":0.005766791305901769,"27":-0.0036956680725328444,"28":-0.03468394217839182,"29":0.09379901796778894,"30":-0.21353661348418362,"31":-0.05457145924277205,"32":-0.027479212217496912,"33":0.020535123570438553,"34":-0.054415209808921394,"35":-0.006102683363004716,"36":-0.0008993965279315074,"37":-0.010949233327356226,"38":-0.002315227426033405,"39":0.000059460102904612264,"40":-0.01817355681381271,"41":0.01872873610445551,"42":-0.0808375536151563,"43":-0.018430924901129245,"44":0.014611921797741062,"45":-0.024474079223864673,"46":0.07789604374934063,"47":0.019265134682846873,"48":-0.03173641274106667,"49":0.03226691748717979,"50":-0.06438787863892177,"51":-0.007835447971091498,"52":-0.03308163258395102,"53":0.03899221293113397,"54":-0.09375077487925874,"55":-0.01673447982121886,"56":0.03546565576726013,"57":-0.032525977064803355,"58":0.08490619301690681,"59":0.012681896420579642,"60":0.03510590570076318,"61":-0.026624294991530073,"62":0.13093026082818376,"63":0.026980759675880435,"64":0.08083125643181235,"65":-0.07894553210830185,"66":0.22593053494826795,"67":0.03719939167760676,"68":0.046432532316548064,"69":-0.05183319857917387,"70":0.15459209528471118,"71":0.030207180671693423,"72":-0.005045471304653093,"73":-0.0034316408597061406,"74":-0.008458427934353542,"75":-0.0003732029346333676,"76":-0.007949297053671573,"77":0.0010067966750066358,"78":-0.0224512214140047,"79":-0.003727336598598382,"80":-0.043470329520114044,"81":0.030475049515044737,"82":-0.10387679188937475,"83":-0.015050459033761692,"84":0.03541191149640751,"85":-0.032472652578809366,"86":0.11570336958477848,"87":0.022334565492571068,"88":4.1617592201666715,"89":2.8470590437563805,"90":-4.359254514142756,"91":4.8278997609428975,"92":0.02212944556867474,"93":-0.018735535307185566,"94":0.10343064116941261,"95":0.023802821272401305,"96":-0.05707103503421725,"97":0.05703068806608652,"98":-0.15169933431819113,"99":-0.024831979349895148,"100":-0.01973634407730817,"101":0.01564750073104057,"102":-0.0652857721948149,"103":-0.01272961393392496,"104":-0.06756093393862032,"105":0.07303679894801979,"106":-0.19412611455718803,"107":-0.03356903803914724,"108":-0.026050015322715225,"109":0.028227300216742482,"110":-0.11640321570944187,"111":-0.026489780024955317,"112":-0.05897457699789702,"113":0.0494498341210149,"114":-0.18491778603182385,"115":-0.03376985881470752,"116":0.044523108431181325,"117":-0.038532056676737016,"118":0.09021099942468994,"119":0.01061460569679457,"120":0.06617699704316145,"121":-0.06277734374712932,"122":0.15667255209858158,"123":0.022543674027224753,"124":-0.04091048436481795,"125":0.056731193944592556,"126":-0.1618317392653182,"127":-0.035019701485544404,"128":0.03650390480760471,"129":-0.0371733878354178,"130":0.133009045477699,"131":0.0273967325429208,"132":0.09468253941003331,"133":-0.0999140112495715,"134":0.2946569277226164,"135":0.0509508125379063,"136":0.0005566303024646869,"137":-0.0034799514830726468,"138":-0.03715704479490741,"139":-0.011930875949228571,"140":0.0071076171608139465,"141":-0.012373171200744507,"142":0.03126711654604183,"143":0.00731603168698842,"144":-0.07429786626892834,"145":0.08328469257990818,"146":-0.21090401205041534,"147":-0.03589874107943455,"148":0.04569473071588436,"149":-0.045714343497956424,"150":0.14831101983166503,"151":0.02838672136068558,"152":-0.048703912547902156,"153":0.030734931611073893,"154":-0.12897165400731814,"155":-0.020561740524425928,"156":0.03270690831956109,"157":-0.03854421853470721,"158":0.1438783205930692,"159":0.03246436315769317,"160":-0.013697731735372129,"161":0.004785614283061358,"162":-0.05720280537719058,"163":-0.012398739654510198,"164":0.01707887953567851,"165":-0.015253151055868545,"166":0.02050276938810845,"167":-0.00033062521611838347,"168":-0.08985660813161145,"169":0.0654225487081065,"170":-0.26311389073874897,"171":-0.04319445444990684,"172":-0.00034693643861408814,"173":0.0001878045829424309,"174":0.028197312469917673,"175":0.009114078012172056,"176":0.03156817087661762,"177":-0.027923780172399666,"178":0.08709083429043758,"179":0.014898472722996298,"180":-0.0097033916225359,"181":0.008354014581338883,"182":-0.05065517150875578,"183":-0.012193271012098744,"184":0.003830139259787599,"185":-0.008359173547672263,"186":0.004170025198954672,"187":-0.000026677613507999847,"188":-0.02503080669266107,"189":0.030676062128155716,"190":-0.06679431213524809,"191":-0.011455775411877324,"192":-0.007735182999657707,"193":0.010081399448373832,"194":-0.03512919666870403,"195":-0.008185551447507074,"196":-0.025403131453572578,"197":0.02696456583637715,"198":-0.12539138231838165,"199":-0.02952293132794357,"200":0.04404054334138485,"201":-0.04827715289645748,"202":0.1710132028829972,"203":0.03613199690297988,"204":-1.410364164114301,"205":-2.096012972287087,"206":2.0906620591847225,"207":1.537312202329564,"208":0.05563355211061603,"209":-0.05158854454758054,"210":0.1424417639433081,"211":0.02243227886361848,"212":-0.4621606483418285,"213":-0.784898536028985,"214":-3.4540815093006714,"215":3.8763862337554524,"216":-0.018054853487351898,"217":0.01677426542269492,"218":-0.08080472655437139,"219":-0.018400412253320255,"220":0.04762872232512187,"221":-0.04080878458930644,"222":0.13752273345585006,"223":0.024042789610479506,"224":-0.03444572344954554,"225":0.0394682272192619,"226":-0.12777611317830911,"227":-0.02676176366689808,"228":-0.01801484143540702,"229":0.02173420622361471,"230":-0.009813270290564127,"231":0.0038964362468761637,"232":0.038920814232114825,"233":-0.031200562771581813,"234":0.0708957367997061,"235":0.0067186913304039374,"236":-0.056378887109865994,"237":0.050265382075366426,"238":-0.15554077907595568,"239":-0.02606164388532885,"240":-0.003891936274885466,"241":0.0016660965176121868,"242":0.01893540685682199,"243":0.007653633160383847,"244":-0.027835464058935614,"245":0.02453306741675982,"246":-0.08558286164545549,"247":-0.015927504200906557,"248":0.0031991156917651024,"249":-0.006269219192940948,"250":0.023593288510233977,"251":0.00634888572103221,"252":-0.03581493081377914,"253":0.03167451981551821,"254":-0.10585324469070721,"255":-0.019058544299208422,"256":-4.1326734141544,"257":-4.332339201612732,"258":7.575291735006715,"259":-3.804434564602165,"260":-0.027909861230654993,"261":0.015805082690799742,"262":-0.10426550567210563,"263":-0.021432269261092294,"264":0.04959775898615193,"265":-0.08609363516962076,"266":0.22679404508689135,"267":0.05163963395857292,"268":0.058154708983732414,"269":-0.042072368654527965,"270":0.19241848581434462,"271":0.036108069109603534,"272":-0.052166606682406226,"273":0.0632590171533869,"274":-0.17596261472947683,"275":-0.034585759092806145,"276":-0.050516325898418556,"277":0.0560867493045497,"278":-0.18716958085902208,"279":-0.038430976991606566,"280":0.03200012547898034,"281":-0.03324003625682782,"282":0.04805091000281102,"283":0.0025911347228563687,"284":0.08723269621904411,"285":-0.13486389730239254,"286":0.3139028959856837,"287":0.060803088902990375,"288":0.02308591500012183,"289":-0.02377470647900788,"290":0.10605345427316974,"291":0.024390627239691126,"292":-0.007214676204815208,"293":0.012777880984671723,"294":0.0013984078967787421,"295":0.00310486181121184,"296":-0.06668502235781588,"297":0.08077124759453581,"298":-0.2068317848290801,"299":-0.0379999642841311,"300":0.03785258227914969,"301":-0.023448123626772288,"302":0.04404032086989096,"303":-0.0015879622120222414,"304":-0.025381556069052628,"305":0.017756056594875523,"306":-0.0516686794051974,"307":-0.006043183561283816,"308":0.04776651098443451,"309":-0.04675599545195641,"310":0.1166863532608307,"311":0.017757207834716623,"312":-0.022513736480386317,"313":0.02863820053558738,"314":-0.07496093425385042,"315":-0.015053083289823719,"316":0.09578790833094139,"317":-0.11183411672926385,"318":0.3180423549216609,"319":0.05712575898634189,"320":0.005968532218659071,"321":-0.006248173500237691,"322":-0.02797657052863364,"323":-0.011261476671238491,"324":0.023857900477824018,"325":-0.014170538424840649,"326":0.03648897816065401,"327":0.0017610059942524147,"328":0.04839194917970082,"329":-0.04962198286419101,"330":0.1993965631823506,"331":0.042797725618486444,"332":-0.01834112924420617,"333":0.016958620312623424,"334":-0.07948308704336654,"335":-0.017866066194884674,"336":-0.01680286390067642,"337":0.011251597517945631,"338":-0.04981076435043996,"339":-0.008945611057541691,"340":-0.03732214180164223,"341":0.03506050151838538,"342":-0.13113963246979318,"343":-0.026383034979335737,"344":0.029914901212131067,"345":-0.014017472769723142,"346":0.05094958046023092,"347":0.0037042763844435454,"348":0.06568430608111939,"349":-0.08766437537038108,"350":0.215098569345473,"351":0.041122318578957484,"352":-0.05096671672930315,"353":0.06590795747375776,"354":-0.19710868877900006,"355":-0.04155700078220265,"356":-0.027409549680672916,"357":0.027022412149233854,"358":-0.05214607851646613,"359":-0.005654843301778618,"360":0.009924616732786998,"361":-0.014059267195599938,"362":0.06390729483902638,"363":0.016504194757913253,"364":-0.043142308073394676,"365":0.04137381473783495,"366":-0.1300993284848959,"367":-0.02374125734438098,"368":-0.006836381572781585,"369":0.004981631350082608,"370":-0.0431439924682686,"371":-0.010932307005237424,"372":-0.028617634257723783,"373":0.022150209924503124,"374":-0.0688706705883293,"375":-0.010234858811921878,"376":-0.009011890411374422,"377":0.0032260183407495824,"378":-0.04494674604682477,"379":-0.010493798225669608,"380":0.011214209709161461,"381":-0.012688405790680443,"382":0.041342235477155126,"383":0.008742698450866322,"384":-0.061174310183456926,"385":0.06422704810980061,"386":-0.21315141918136596,"387":-0.04172104094093637,"388":-0.01197442157200879,"389":0.004260971040683529,"390":-0.0733335328124064,"391":-0.018230461711516845,"392":0.019404640036682727,"393":-0.022418574331881214,"394":0.07850574923488744,"395":0.017295677022328537,"396":-0.03279205747059617,"397":0.02915310572925839,"398":-0.11745310404638727,"399":-0.023903323824618294}},"b1":{"n":100,"d":1,"w":{"0":-0.03852893692751001,"1":-0.009314267885248716,"2":0.020894528424568865,"3":-0.04371364691901041,"4":-0.008259522593930013,"5":0.021617829662484492,"6":-0.002238121881636866,"7":0.033858914116858006,"8":0.011444914497293039,"9":0.0010200128686929121,"10":0.014044691827978288,"11":-0.012747394502141293,"12":0.013045724328121601,"13":0.017391838484559646,"14":-0.016746008774351638,"15":-0.02410869909571747,"16":-0.044917097488758266,"17":-0.02844402041584691,"18":0.002216967383585661,"19":0.004538543050028907,"20":0.02106217247687107,"21":-0.02148267616740678,"22":0.8317215898536415,"23":-0.018125083268336104,"24":0.029495316842893235,"25":0.012094701508011257,"26":0.03741624765315055,"27":0.020281867544550993,"28":0.035654725880827715,"29":-0.018717472094343,"30":-0.03153811799746116,"31":0.02842561748405091,"32":-0.024126103491312143,"33":-0.05893085495423572,"34":0.005612124793096857,"35":-0.0051636541953671575,"36":0.04089235596134954,"37":-0.027633465910448993,"38":0.025836396317368948,"39":-0.02514150072427044,"40":0.01045592751774942,"41":-0.00498658085172016,"42":0.05410646649088131,"43":-0.0041487918135486345,"44":-0.016683270967464692,"45":0.008666207428347412,"46":-0.0008126746738286519,"47":0.012421000675354229,"48":0.005950511583182813,"49":0.021634909176316473,"50":-0.030874704330585704,"51":0.06365935419439721,"52":-0.028052735203447646,"53":1.107514445063852,"54":0.014117748523839506,"55":-0.026492632233908978,"56":0.022850969414690656,"57":0.003225120547709468,"58":-0.015231754605560739,"59":0.030352255437174812,"60":-0.002285896393007816,"61":0.01602316543723272,"62":-0.0037047560910881874,"63":0.020062478266483413,"64":-2.348003132219776,"65":0.019335394677585493,"66":-0.03908041086508998,"67":-0.037162757765187016,"68":0.032273048311441024,"69":0.03421186956008761,"70":-0.010577772258626153,"71":-0.05903588092138652,"72":-0.01842965439979585,"73":0.00030019810075676226,"74":0.03898747415331775,"75":-0.011385645379142887,"76":0.010836143080861171,"77":-0.022930570292379403,"78":0.013355485165002654,"79":-0.06297217889252536,"80":0.0035289683988974432,"81":-0.00849463142690886,"82":-0.036221215919902995,"83":0.013953936401467956,"84":0.009519263867462623,"85":0.0240751704003002,"86":-0.011631679703399454,"87":-0.0398410588609017,"88":0.0354127651386111,"89":0.01077239565804506,"90":-0.010408914801312083,"91":0.024547803744608604,"92":0.007255604063304974,"93":0.013728255482386393,"94":0.00795442140574584,"95":-0.007298470135476903,"96":0.039993012643300664,"97":0.0126382026906417,"98":-0.013704749653754511,"99":0.021495387633626094}},"W2":{"n":3,"d":100,"w":{"0":-0.08710625701863217,"1":-0.021896959205557412,"2":0.048584168132882896,"3":-0.09763698333968635,"4":-0.019439273729966622,"5":0.05002567765980464,"6":-0.0052135059041361655,"7":0.07629047848860125,"8":0.026842321213654912,"9":0.0025090981586110444,"10":0.032804974486063745,"11":-0.029720087010917176,"12":0.03048004290417929,"13":0.040430372836915446,"14":-0.03903451383044087,"15":-0.05574784969151564,"16":-0.09986116740087583,"17":-0.06518963361954085,"18":0.005286817651305403,"19":0.01072429929451423,"20":0.0489467285437392,"21":-0.04980439023597935,"22":0.3666294580792694,"23":-0.042204089574357055,"24":0.0675399048055568,"25":0.028334040867609715,"26":0.0844069704185436,"27":0.04704790190899526,"28":0.0808499450733076,"29":-0.04355996089529469,"30":-0.07200377964822038,"31":0.06504337089052176,"32":-0.055696608991596105,"33":-0.12675196395126745,"34":0.013218933092162571,"35":-0.012078768525418067,"36":0.09157903746444311,"37":-0.06346593961124314,"38":0.05967557770587406,"39":-0.057906065340456725,"40":0.0245782829604698,"41":-0.011714753871459288,"42":0.11802360228130329,"43":-0.009755018590971047,"44":-0.03890125587198166,"45":0.020338832117557232,"46":-0.001863931914342088,"47":0.028992113741093867,"48":0.013950971433317562,"49":0.050109235110512546,"50":-0.07048922347102579,"51":0.05203608983777826,"52":-0.06442551593528048,"53":-0.051676140159890895,"54":0.03299126796569175,"55":-0.06101972691534569,"56":0.05280317049921234,"57":0.007523610626883479,"58":-0.035597568015754734,"59":0.06946307004585472,"60":-0.005362649652935971,"61":0.03738725889011597,"62":-0.008679319385045224,"63":0.0466054477879841,"64":0.1722421116123638,"65":0.045038059807167456,"66":-0.08752198554873822,"67":-0.08408562672866934,"68":0.07343627134026433,"69":0.07763551101148784,"70":-0.02474238428789051,"71":-0.1264802472420448,"72":-0.04285812395416844,"73":0.000643306228676097,"74":0.0875894776694385,"75":-0.026761027134886685,"76":0.02543578890044853,"77":-0.05303418778485212,"78":0.03115436963396332,"79":-0.13399142414254944,"80":0.00831138516279385,"81":-0.019996461211635137,"82":-0.08192817853190501,"83":0.03261373005113186,"84":0.022359776390658226,"85":0.055611451171785335,"86":-0.02735711461356198,"87":-0.08927087674293725,"88":0.0800845376289714,"89":0.02521674496755579,"90":-0.024350488177295494,"91":0.05665796872990217,"92":0.017049223559178678,"93":0.03212883621502382,"94":0.018717985183992272,"95":-0.017112087691899435,"96":0.08977568822184857,"97":0.0296378339616671,"98":-0.031994987857096306,"99":0.04984143147317562,"100":-0.029875548458567592,"101":-0.007822431486181874,"102":0.017100548367866886,"103":-0.03425862322455185,"104":-0.0064794360549580285,"105":0.01895575671304424,"106":-0.0016604252724277753,"107":0.03255272227933793,"108":0.009168663653196856,"109":0.00027345909548346205,"110":0.012404577194907618,"111":-0.01186246645700152,"112":0.010881416082604735,"113":0.015135372246657031,"114":-0.013955673546856616,"115":-0.020381221759899565,"116":-0.03667857053542859,"117":-0.024505657754938886,"118":0.001404467741682843,"119":0.0035485276494254896,"120":0.017014619076457658,"121":-0.018293157852710074,"122":0.43361536180411087,"123":-0.015781787385481298,"124":0.02468295992810239,"125":0.010270206493729813,"126":0.0313803968263189,"127":0.017884988816420318,"128":0.029448226050519485,"129":-0.015206531635407224,"130":-0.02590282655018712,"131":0.025284258465173244,"132":-0.020829971721861473,"133":-0.04748401005447842,"134":0.005153128190537758,"135":-0.004842310816866479,"136":0.03420391071476163,"137":-0.023530982888074065,"138":0.020829281040442908,"139":-0.02218362970015847,"140":0.008742388264383883,"141":-0.003848912103456873,"142":0.04245188751200207,"143":-0.0039353119449494845,"144":-0.014029897674186406,"145":0.007656036325872321,"146":-0.0008460744512055316,"147":0.010872949454034508,"148":0.005395129848108382,"149":0.019109810227184245,"150":-0.026683684808873065,"151":-0.21625312670131477,"152":-0.023254858988840995,"153":0.16184568992824347,"154":0.012377560720122076,"155":-0.022064215646371475,"156":0.020004637681799255,"157":0.0024521675469712763,"158":-0.012145199577515633,"159":0.025140859881946514,"160":-0.0024490172120085942,"161":0.013602735851735508,"162":-0.003520442349245908,"163":0.016917476144131843,"164":0.39625128594321596,"165":0.016165572236348635,"166":-0.035174408863715076,"167":-0.030422267408115336,"168":0.02791907474376117,"169":0.029373544728081402,"170":-0.008607504453340043,"171":-0.050028613298228455,"172":-0.01624083830744749,"173":0.00027037778089625936,"174":0.03320019137242361,"175":-0.008250210063398735,"176":0.008655054599650462,"177":-0.019172228622195024,"178":0.011878198566129513,"179":-0.05100401602349303,"180":0.003574734525688433,"181":-0.006417230151485198,"182":-0.030956610786884966,"183":0.012207541035296431,"184":0.007913548064368689,"185":0.020590605839978186,"186":-0.00874675360412914,"187":-0.03437355677086945,"188":0.03088142552594774,"189":0.008901981979053305,"190":-0.009576429920614572,"191":0.020789696024927886,"192":0.006431141707079661,"193":0.01127071878910103,"194":0.006776415178787539,"195":-0.006461061582435665,"196":0.033697129980637126,"197":0.010918817275846732,"198":-0.012169192406249802,"199":0.018380823147144405,"200":-0.04179890968151638,"201":-0.010321602362995959,"202":0.022993238859667586,"203":-0.04642984020858456,"204":-0.009310353077712717,"205":0.022931032987633184,"206":-0.002389576522803255,"207":0.03312084958453156,"208":0.012716426516281593,"209":0.0015629038056482465,"210":0.015091336219914047,"211":-0.013325402769863935,"212":0.014153918809318747,"213":0.01852394494785767,"214":-0.01821725687668279,"215":-0.02606863929860989,"216":-0.046710876237227715,"217":-0.030027908662689853,"218":0.002747123829768344,"219":0.005195149208861823,"220":0.023181497354089062,"221":-0.02314843865830402,"222":0.04484914830152865,"223":-0.01956164645747724,"224":0.031402390765071335,"225":0.013227192146147926,"226":0.039113183058845265,"227":0.02161965679271959,"228":0.03791510247438764,"229":-0.020477202305787135,"230":-0.03366705455148974,"231":0.029540396873506087,"232":-0.025735827490681523,"233":-0.05927359259547446,"234":0.006114103941511323,"235":-0.005378693922246347,"236":0.04238897425806277,"237":-0.029417091857302898,"238":0.028333163394742292,"239":-0.02653385494191806,"240":0.01162778022004884,"241":-0.005550217172290081,"242":0.056164041565282825,"243":-0.004431426983623994,"244":-0.018145553784393104,"245":0.009395186474456122,"246":-0.0007250799497744737,"247":0.01323534870835984,"248":0.0063386468683951135,"249":0.023038386976043476,"250":-0.03249156142711203,"251":0.19237281889214297,"252":-0.03009429383023815,"253":-0.07543490877881001,"254":0.01523953257118114,"255":-0.028549670873977282,"256":0.02423525354349319,"257":0.003457358878028841,"258":-0.016844624823737792,"259":0.03249844692387166,"260":-0.0023280117781520355,"261":0.017407474137188735,"262":-0.003872300756780542,"263":0.021727945546648246,"264":-0.029670100996342087,"265":0.02121707505181364,"266":-0.0392779475284697,"267":-0.03964358683358191,"268":0.033685360675063385,"269":0.035809146117248114,"270":-0.011513912601850545,"271":-0.057509636636965504,"272":-0.01972649194615645,"273":0.00016406193988532616,"274":0.04027673514580446,"275":-0.013033442180154873,"276":0.0120796516471592,"277":-0.0246755896386035,"278":0.014182463729666224,"279":-0.06233444774264091,"280":0.0037387696562319727,"281":-0.009657953495083041,"282":-0.03793381376820843,"283":0.015073311167974918,"284":0.01052711420219714,"285":0.02580742447881811,"286":-0.01328575791154803,"287":-0.0407664452665817,"288":0.03661387182249017,"289":0.011745476855786318,"290":-0.011034207471048805,"291":0.026324341477987862,"292":0.00788812186468397,"293":0.0151228877228358,"294":0.008805149092000806,"295":-0.007840229591101077,"296":0.0416372435933154,"297":0.013878402051272753,"298":-0.014646720753472953,"299":0.023166041096696417}},"b2":{"n":3,"d":1,"w":{"0":0.20941868863031252,"1":0.38943010516287274,"2":0.011415323558723591}}}}},"weights":{"nh":100,"ns":4,"na":3,"net":{"W1":{"n":100,"d":4,"w":{"0":-0.05335280537938355,"1":-0.0922296669848788,"2":0.03959967635292831,"3":0.0830188178569632,"4":-0.015705610938967784,"5":-0.011016458559800527,"6":0.01044538371088956,"7":0.019108018851882753,"8":0.030027315342016046,"9":0.037213767950800204,"10":-0.021220278737618854,"11":-0.04184586331008401,"12":-0.06157648409365061,"13":-0.12994856443306899,"14":0.04735967897158115,"15":0.10364833515637913,"16":-0.007925055074552281,"17":-0.018957754337161445,"18":0.0063222368644739076,"19":0.014040814636982184,"20":0.03177862254385701,"21":0.04811174405095289,"22":-0.023132202729126184,"23":-0.04715838502061747,"24":0.006140531933179885,"25":-0.0217362339189007,"26":-0.002040198361458232,"27":0.0010794163254649574,"28":0.06721201174355382,"29":0.1023721021312349,"30":-0.04872862199592114,"31":-0.1000936058278825,"32":0.009771402908444606,"33":0.030649292795707366,"34":-0.008364121404222127,"35":-0.019701570043730895,"36":0.003879350504774335,"37":-0.007529847816562988,"38":-0.0017757477012926197,"39":-0.0013542355622255568,"40":0.023616245636419456,"41":0.02241404417327008,"42":-0.016160702868866735,"43":-0.03065555009484146,"44":-0.02156347901936296,"45":-0.02434959485399569,"46":0.015060666375989686,"47":0.029266063439338085,"48":0.009593377279475845,"49":0.04177280966406188,"50":-0.009125578212254706,"51":-0.0231796869300102,"52":0.020002704764552206,"53":0.0471381232352811,"54":-0.01588701437194334,"55":-0.035214375077334596,"56":-0.017439730324828366,"57":-0.04404680440634055,"58":0.014084884675102672,"59":0.03166902488337402,"60":-0.03987023192105066,"61":-0.03982956988277551,"62":0.027414499633573234,"63":0.0524227619066261,"64":-0.07561464405233086,"65":-0.13458318872639455,"66":0.056128726494849394,"67":0.11911376062898253,"68":-0.042117560565520844,"69":-0.06806973483551565,"70":0.030954976718272693,"71":0.06393986635767904,"72":0.0031992879406967274,"73":0.0003728847640087822,"74":-0.0019811872270802692,"75":-0.003277878994437897,"76":0.006910694193946977,"77":0.004849315198834824,"78":-0.004596825818213794,"79":-0.008408088928081627,"80":0.02461117487455182,"81":0.04791094678021803,"82":-0.018753650599478745,"83":-0.04001695291605292,"84":-0.031130990571531743,"85":-0.044004389943542534,"86":0.022419604485486314,"87":0.04516813367058306,"88":15.257142763836672,"89":-1.2915186877765426,"90":16.651035433256634,"91":18.58383030346067,"92":-0.03247653075631754,"93":-0.024755552325655728,"94":0.02174255061342699,"95":0.040167889549408586,"96":0.03722329116685231,"97":0.07941182707258712,"98":-0.028851602416847894,"99":-0.062841101471702,"100":0.017554599557352925,"101":0.021598495491107594,"102":-0.012401571372209725,"103":-0.024407259716873644,"104":0.055237649333675094,"105":0.10654404217866228,"106":-0.041810783691087865,"107":-0.08961606843353508,"108":0.03469261449228926,"109":0.03447466501771557,"110":-0.023848118036406817,"111":-0.045550152966660463,"112":0.057104907794791236,"113":0.07967077425877933,"114":-0.040924708479387666,"115":-0.08258281710776344,"116":-0.016002920682572377,"117":-0.05453452280205068,"118":0.0140264384456622,"119":0.03369814105260237,"120":-0.036629464168088786,"121":-0.09096355886431051,"122":0.029372699709821003,"123":0.06606242666050843,"124":0.04555635908965185,"125":0.06848831546469697,"126":-0.033074530459178374,"127":-0.06747595730211763,"128":-0.0375958713961403,"129":-0.04872330174378346,"130":0.026718669721698177,"131":0.05310329870423836,"132":-0.18611208410578603,"133":-0.2821160739727184,"134":0.12923782514454507,"135":0.28009241301791027,"136":0.01626991226931773,"137":-0.004663723073764628,"138":-0.00956005596666301,"139":-0.014516160448231038,"140":-0.0074417237553338145,"141":-0.012212279038132783,"142":0.005498453978956682,"143":0.011349246167486489,"144":0.06319993465460172,"145":0.1253555890487186,"146":-0.048001095868877186,"147":-0.1037344063629005,"148":-0.04078255881905796,"149":-0.06243396477277426,"150":0.029711979575156342,"151":0.060764329408987905,"152":0.035015046994272464,"153":0.05233302874242423,"154":-0.02542784342059182,"155":-0.051742666469656244,"156":-0.04318922846834605,"157":-0.047600193060125286,"158":0.0300332650551827,"159":0.0582573294808406,"160":0.018728691559111166,"161":0.009920419836586532,"162":-0.01220323840118419,"163":-0.02173018577043209,"164":0.0002027546552792151,"165":-0.021323686240795992,"166":0.0015498502803141646,"167":0.006800589105308756,"168":0.12051712451854717,"169":0.16657545497397255,"170":-0.08504473466209805,"171":-0.17451004415709917,"172":-0.011610663913908014,"173":0.0017102329551441828,"174":0.0069493935114213175,"175":0.010890249932970405,"176":-0.020588363399147536,"177":-0.03801570216484592,"178":0.015533127195719452,"179":0.032794131224317055,"180":0.015942721308375547,"181":0.010153972469572241,"182":-0.010522409296203064,"183":-0.019058693832896136,"184":0.0016481205253084065,"185":-0.008406922858992553,"186":-0.0003456069413039411,"187":0.0011343687975697075,"188":0.012640599124748545,"189":0.03609590718027316,"190":-0.010539444040106753,"191":-0.02432125546855467,"192":0.009530861857463702,"193":0.01077445754876802,"194":-0.006660077578406667,"195":-0.01293781308523366,"196":0.03927504787843235,"197":0.033237667255942044,"198":-0.026541653570786857,"199":-0.04966686252838816,"200":-0.05207227235115333,"201":-0.065350490342815,"202":0.03678872808647215,"203":0.07288157001309396,"204":-1.023327663352964,"205":-0.6569268596856144,"206":0.13079242698012664,"207":0.2375375458667889,"208":-0.03431928146378823,"209":-0.0735175103545872,"210":0.026636599486429158,"211":0.05802971468691927,"212":-0.34872371072462993,"213":1.0108546148716044,"214":-5.230937667296957,"215":4.188867291389536,"216":0.02418777146373159,"217":0.02089800446217692,"218":-0.01639062847262774,"219":-0.030721393533100126,"220":-0.03647414801492868,"221":-0.05945265034191624,"222":0.02686441890132213,"223":0.05552688263416101,"224":0.03493410575189862,"225":0.048823268632149364,"226":-0.025107258895411967,"227":-0.050507920166645105,"228":-0.006657351318519332,"229":0.027171291163423983,"230":0.001928979244887131,"231":-0.0023540235727308803,"232":-0.010997001469214977,"233":-0.04561846608412384,"234":0.010281500318579703,"235":0.025828032420748766,"236":0.041204051582338905,"237":0.07420492824738986,"238":-0.030869801126335163,"239":-0.06505893147737257,"240":-0.009124671573600657,"241":0.004669660340750374,"242":0.005200470161033893,"243":0.007466689585991235,"244":0.021757726258687424,"245":0.0330393000369362,"246":-0.015857540499564903,"247":-0.03231275057026007,"248":-0.007012253080948865,"249":-0.005542353394047493,"250":0.004713167682646427,"251":0.00873578845098258,"252":0.026825732716751934,"253":0.04358153881627459,"254":-0.01976567758888582,"255":-0.040779370427630995,"256":-2.3771945451473306,"257":-1.2229242986249957,"258":6.640131754495214,"259":0.5734687741234638,"260":0.03238486675390446,"261":0.026500397207164288,"262":-0.021822599146091966,"263":-0.040650916721442894,"264":-0.07624694991533942,"265":-0.11259418922026523,"266":0.0549198885111751,"267":0.11243670846137167,"268":-0.06367148609780472,"269":-0.07492749608937092,"270":0.04454212480662281,"271":0.08751226275743537,"272":0.04934818737686882,"273":0.08347304760651673,"274":-0.03651403818989547,"275":-0.07616641701771176,"276":0.05786024599947995,"277":0.07858389899159267,"278":-0.041300030846231975,"279":-0.08297108359805495,"280":-0.002393814237716083,"281":-0.04316132988957791,"282":0.00484486064770464,"283":0.016532836375014483,"284":-0.30334219552206676,"285":-0.46469462579470744,"286":0.19440834403480442,"287":0.46752346475614326,"288":-0.03198884159796504,"289":-0.029116871780432537,"290":0.02178506242178984,"291":0.04112009833268641,"292":-0.006008815384525811,"293":0.014114084358031522,"294":0.0025581045985588794,"295":0.0012929885123352774,"296":0.061660798829968645,"297":0.11547569533516366,"298":-0.0463486248270327,"299":-0.09893422696640755,"300":-0.002160018859149321,"301":-0.03999788370909257,"302":0.004454678257909,"303":0.015263217307356457,"304":0.009921809520981808,"305":0.027322818517624668,"306":-0.00819542071327452,"307":-0.01875745221615111,"308":-0.024908134256434795,"309":-0.06312119656532171,"310":0.02011380440724822,"311":0.04531263991946805,"312":0.017274171535748076,"313":0.03272258968357984,"314":-0.013100304575238994,"315":-0.027784736399949467,"316":-0.4409734560937822,"317":-0.6293962687562015,"318":0.24776692260158892,"319":0.6801016660789581,"320":0.01463128632100662,"321":-0.009803396516063293,"322":-0.008157079766152408,"323":-0.011212541598346759,"324":-0.005032583702851517,"325":-0.024277416272489694,"326":0.004974997967618985,"327":0.012934425359511077,"328":-0.06709919305772545,"329":-0.07439437996131082,"330":0.04657591475008014,"331":0.09072754626726523,"332":0.023505718560343752,"333":0.021253915208499792,"334":-0.016002687646248424,"335":-0.030165375015201827,"336":0.013061891220747518,"337":0.016975106220472415,"338":-0.009299896527609324,"339":-0.018456855377217217,"340":0.03713509840683627,"341":0.04764750992552272,"342":-0.026355260061191297,"343":-0.05229432484781811,"344":-0.009630344243935766,"345":-0.027608087431255167,"346":0.008040019346499123,"347":0.018563611692388675,"348":-0.0658477365610141,"349":-0.12298200716994362,"350":0.04942121718725815,"351":0.1055720947613591,"352":0.06112838508358991,"353":0.08853316789922226,"354":-0.04402523968686126,"355":-0.08949153433260361,"356":0.006976345253808227,"357":0.035434581060320554,"358":-0.007034346059323508,"359":-0.018515849780057967,"360":-0.01975858792855741,"361":-0.01400165142758448,"362":0.01315090025393628,"363":0.024086458430721575,"364":0.03366767649114465,"365":0.05636197725373982,"366":-0.024919596482128166,"367":-0.0517379904656747,"368":0.014504885840175421,"369":0.006108497699280987,"370":-0.009328280033345876,"371":-0.016312048813819133,"372":0.015118470349206173,"373":0.03215710881338086,"374":-0.011742082148017788,"375":-0.025472067695601418,"376":0.015228445433746695,"377":0.006174367540555816,"378":-0.00977479564546719,"379":-0.017047386107140423,"380":-0.010493040256027633,"381":-0.01469596958357365,"382":0.007554482585465905,"383":0.015174493741142676,"384":0.07067664580199369,"385":0.09987018932774157,"386":-0.05063308977152991,"387":-0.10269722186853712,"388":0.026030864820612266,"389":0.007866148287225946,"390":-0.01649525901434163,"391":-0.028259058441565385,"392":-0.021283143850370615,"393":-0.025999501485692137,"394":0.015018697178476,"395":0.02953149901315537,"396":0.03343210620563397,"397":0.039778112127941904,"398":-0.023492435151727775,"399":-0.04604983899459175}},"b1":{"n":100,"d":1,"w":{"0":0.00953652918687587,"1":0.001908040866746636,"2":-0.004535932984858511,"3":0.012352806312448117,"4":0.001694576305895818,"5":-0.005280685465369715,"6":0.0006763881543482895,"7":-0.011283628191119806,"8":-0.0024873382571815703,"9":0.00008861203432111713,"10":-0.003190123545245658,"11":0.003124984096798243,"12":-0.003081004242800218,"13":-0.004243065303286032,"14":0.0038597297652729224,"15":0.005502668290965236,"16":0.013826150829559746,"17":0.007247494445869036,"18":-0.000286388665279446,"19":-0.0008394850546851381,"20":-0.004670366103587022,"21":0.005000889895181605,"22":10.133241681539882,"23":0.0040572918884507125,"24":-0.007462482876876312,"25":-0.002640504106307024,"26":-0.01049577762767273,"27":-0.004775438382145904,"28":-0.009155437258274968,"29":0.004314676554319597,"30":0.008051741393030278,"31":-0.007560062960884989,"32":0.0058013486315077025,"33":0.033011927579300854,"34":-0.0010982884676918755,"35":0.0012858279716512354,"36":-0.012233132504089,"37":0.006824096433449965,"38":-0.005783742461033036,"39":0.006208365509138347,"40":-0.0020997347407216197,"41":0.0011476842454817395,"42":-0.019635124767918618,"43":0.0008720991502119008,"44":0.0037919733152487344,"45":-0.0018806365986002097,"46":0.00032203870816168264,"47":-0.003024262350319977,"48":-0.0013810647891549575,"49":-0.005090631388525437,"50":0.007935456858498946,"51":0.05579203348673579,"52":0.0068926484805763915,"53":1.4504844480041326,"54":-0.0031547792855086427,"55":0.006298029035712024,"56":-0.005583913717646913,"57":-0.0009302456392984825,"58":0.003408495889769605,"59":-0.0075097204253866045,"60":0.0005037394742852787,"61":-0.0036169175583576846,"62":0.0008857825238368725,"63":-0.004617834147340844,"64":-1.7177020871235695,"65":-0.004145283278424765,"66":0.012634122763600661,"67":0.009447907841734614,"68":-0.008710373766574119,"69":-0.009158952715676539,"70":0.002557236079908411,"71":0.059407752683928554,"72":0.004255669234556044,"73":-0.000271093346572823,"74":-0.011544927825987676,"75":0.002364784350705811,"76":-0.002317973799598872,"77":0.0055306707298793025,"78":-0.003225782022779697,"79":0.09338377902438827,"80":-0.0006812956538602289,"81":0.0017445903905120692,"82":0.009708995165086956,"83":-0.0031174189077799045,"84":-0.0020136905247695102,"85":-0.005703568608987729,"86":0.002309305513948777,"87":0.01232664775343717,"88":-0.009990563199632227,"89":-0.0025162799458830513,"90":0.002408590751771184,"91":-0.005892547295385913,"92":-0.0015399412006819747,"93":-0.003015192682690124,"94":-0.0016037384464673303,"95":0.0016753699023432885,"96":-0.011439362545138963,"97":-0.0025953553538788027,"98":0.003191921412383084,"99":-0.004961220172726181}},"W2":{"n":3,"d":100,"w":{"0":0.015832561792346253,"1":0.003183953132003766,"2":-0.007564286103685564,"3":0.02042845047540871,"4":0.0028312662494576566,"5":-0.008803567218317621,"6":0.0011354984156103556,"7":-0.018685516449060358,"8":-0.004155872431962806,"9":0.00015048611344309535,"10":-0.005322419581362789,"11":0.005214766468256391,"12":-0.00514798493924825,"13":-0.007081650883415219,"14":0.006443681831192522,"15":0.009168380118257793,"16":0.02280429992237854,"17":0.012062843262383913,"18":-0.0004775447488417659,"19":-0.0014011378424645408,"20":-0.007791306764863606,"21":0.008338198542883151,"22":0.21800881406467876,"23":0.006764891819975279,"24":-0.01242135838385596,"25":-0.004407528769851739,"26":-0.01740457320570118,"27":-0.007960752077161487,"28":-0.015203971995893819,"29":0.0072032746170708865,"30":0.013395754079840842,"31":-0.012578217461267922,"32":0.009666238268524993,"33":0.05184489596747684,"34":-0.0018289807399254595,"35":0.002147721361177522,"36":-0.02023326401366918,"37":0.011362150950912224,"38":-0.009638402979647572,"39":0.010339297386115867,"40":-0.003502837279587288,"41":0.0019208568090431128,"42":-0.03199224512513184,"43":0.001453085025669178,"44":0.006328869244805749,"45":-0.0031379874584407576,"46":0.0005399274415052612,"47":-0.005051499381562227,"48":-0.0023058937456581783,"49":-0.008483087635468295,"50":0.01319522508835368,"51":0.41005236542879475,"52":0.011479332399576441,"53":-0.21844530247622243,"54":-0.005263068236448532,"55":0.010491863767953323,"56":-0.009306229993341745,"57":-0.0015606193616970582,"58":0.005694121848091511,"59":-0.012497327022338797,"60":0.0008380020785639488,"61":-0.006036062427422527,"62":0.001478558670986916,"63":-0.007702547450058513,"64":-0.08864040510179735,"65":-0.006911700638035895,"66":0.020877066565200386,"67":0.015681345884975897,"68":-0.014475359484701782,"69":-0.015209345582795035,"70":0.004276828096855288,"71":0.08567889609077345,"72":0.007095998248502176,"73":-0.0004571023236668781,"74":-0.01911448591750542,"75":0.003955257696792132,"76":-0.00387266148662547,"77":0.009223238535986975,"78":-0.005385512569672451,"79":0.1218618919991262,"80":-0.0011320787121796004,"81":0.0029165427788880142,"82":0.0161083789152139,"83":-0.005201046156551311,"84":-0.0033621188709990354,"85":-0.009503958432941514,"86":0.0038583323303714393,"87":0.020383721264480372,"88":-0.016573656085652883,"89":-0.0042058111208531585,"90":0.004018654176546223,"91":-0.0098199710174832,"92":-0.0025689081004459154,"93":-0.005034965118096776,"94":-0.0026752277373814646,"95":0.002797702133784066,"96":-0.018937626385592984,"97":-0.004327334101685612,"98":0.005326724250882498,"99":-0.008270867677909863,"100":-0.003201126101522646,"101":-0.000601210292699125,"102":0.0014930203484751956,"103":-0.004185348909019083,"104":-0.0005892165059725654,"105":0.0017656893881378033,"106":-0.0003205348047622639,"107":0.0037337750948414137,"108":0.000881578594519781,"109":-0.00007017942940483652,"110":0.0010285317315347812,"111":-0.0010219799191216177,"112":0.0011145708727768515,"113":0.00147119359962009,"114":-0.0013457095273254433,"115":-0.0017774419403460886,"116":-0.004602587681359882,"117":-0.002429676362054186,"118":0.00008256452600413722,"119":0.0002646135918639329,"120":0.0015948310876470525,"121":-0.0016632355499612555,"122":-0.12256061867556442,"123":-0.0012846769253190573,"124":0.0025570955960790773,"125":0.0008699503750884128,"126":0.0035469583572360092,"127":0.0015431804666634604,"128":0.003021898185459288,"129":-0.0015356698689881537,"130":-0.002788387765453846,"131":0.0025181586170071185,"132":-0.0019137919115906187,"133":-0.009995787009530162,"134":0.00027990730460838103,"135":-0.00043406586742389565,"136":0.004125857424479267,"137":-0.002279088747073923,"138":0.0019306431431353297,"139":-0.0020197139672264593,"140":0.0006482968038419613,"141":-0.00045019060750491107,"142":0.0062763513012321385,"143":-0.0002342716989325639,"144":-0.0012905010935132164,"145":0.0005883425579838956,"146":-0.00014092496957029773,"147":0.0010645372705451535,"148":0.00045210357694481807,"149":0.001623361337661951,"150":-0.002602320288557437,"151":0.05061587302078031,"152":-0.002364715122191912,"153":0.224212733423808,"154":0.0010095289274588918,"155":-0.002115860604619037,"156":0.0018541180501253063,"157":0.00042443230580987317,"158":-0.0012292200249820247,"159":0.0025387363930693746,"160":-0.00011316474957164324,"161":0.001211691035551727,"162":-0.0002817665669885344,"163":0.0015541500464872338,"164":0.354425052616342,"165":0.0013197091900347688,"166":-0.004155589856146986,"167":-0.0030728915090816027,"168":0.0029234531587043863,"169":0.003016312182634754,"170":-0.0009764556929686858,"171":-0.015471084225796268,"172":-0.0013662221331411381,"173":0.00016099256227501032,"174":0.003882673555253904,"175":-0.0009035557975381252,"176":0.0008141533486869009,"177":-0.0019254208517959955,"178":0.0011005499591475697,"179":-0.019804364670706787,"180":0.00013205233868485839,"181":-0.0006352511718417508,"182":-0.0031405658986242563,"183":0.0010012305054080534,"184":0.0006666688603491664,"185":0.0018802166024225022,"186":-0.000813444173691401,"187":-0.0041364507946054846,"188":0.0033019886714846357,"189":0.0009184832048960023,"190":-0.0007593270225624964,"191":0.0019850407286136906,"192":0.00046854001080371934,"193":0.0010382915498572023,"194":0.00048681311092837077,"195":-0.0005581807791704916,"196":0.0037604564151316744,"197":0.0007746544720038733,"198":-0.0010506175771001502,"199":0.0016267674601678156,"200":0.00773697510598967,"201":0.001506896303829164,"202":-0.003647126165669995,"203":0.010068269273482696,"204":0.001393790383860698,"205":-0.004273982277381459,"206":0.0006420111015089405,"207":-0.00910436447831949,"208":-0.0020627039531974332,"209":0.00011240987541882052,"210":-0.002543089459958488,"211":0.0025056580076804487,"212":-0.0025777990312524073,"213":-0.0034864143962862375,"214":0.0031787753476025795,"215":0.004391048499948483,"216":0.011191870315979542,"217":0.005874016461097554,"218":-0.00021846236200618284,"219":-0.0006630655826473391,"220":-0.0038130759449776005,"221":0.0040384445539125464,"222":0.0256551622614857,"223":0.0032110979432082975,"224":-0.006104078570413292,"225":-0.002123558402907956,"226":-0.008541134808375974,"227":-0.0038110161465011957,"228":-0.007375624810637182,"229":0.0035850929094218905,"230":0.006616311686417541,"231":-0.006111326516410685,"232":0.004669626656973782,"233":0.025959442115517373,"234":-0.0008009323319571022,"235":0.001044499353009218,"236":-0.009951353964976477,"237":0.005521766648865398,"238":-0.004678197021012948,"239":0.004969082483558944,"240":-0.0016449357155250114,"241":0.0009952941511668957,"242":-0.01566729839561789,"243":0.0006480382617330495,"244":0.0030912376925635913,"245":-0.0014810013372365234,"246":0.00029393582703682433,"247":-0.0025006856518437655,"248":-0.001107695695584914,"249":-0.0040409509825290076,"250":0.006374193069094707,"251":-0.05678109310017551,"252":0.005640296923328458,"253":0.003817096831907233,"254":-0.0025072680026126943,"255":0.005108176587745169,"256":-0.004506574634061719,"257":-0.0008665000157632209,"258":0.0028480390576001943,"259":-0.006108078631010208,"260":0.00035207045005646785,"261":-0.0029291698686837995,"262":0.0007022042938902103,"263":-0.003747327150466258,"264":-0.10914788103939853,"265":-0.0032879688356215755,"266":0.010172771528940234,"267":0.007566007456039265,"268":-0.007065060334174695,"269":-0.00737168728286633,"270":0.0021910690577877116,"271":0.044928332655665176,"272":0.003386982079421106,"273":-0.0002899704262710994,"274":-0.009378574212947343,"275":0.0020267393180065105,"276":-0.0019148054128269698,"277":0.00455292370813576,"278":-0.0026322932847978606,"279":0.06751995752587159,"280":-0.0004550823340669888,"281":0.001463691630032899,"282":0.007758248222482465,"283":-0.002481240238277406,"284":-0.0016226435077821893,"285":-0.004589532321037149,"286":0.0019099888563714913,"287":0.010006657431925019,"288":-0.008054435287330368,"289":-0.0021134646393644184,"290":0.0019026626918234252,"291":-0.004784433192164829,"292":-0.0011994127694240047,"293":-0.0024700366090605473,"294":-0.0012479633522949288,"295":0.001353534885785271,"296":-0.009205450784506058,"297":-0.0020064917551207906,"298":0.002566117599916876,"299":-0.00398301861307425}},"b2":{"n":3,"d":1,"w":{"0":-0.1933417346664653,"1":0.4652834072257217,"2":0.06185237037750094}}}}}