{"numStates":1,"sensitivity":19.88098893086854,"alpha":0.07043813762644646,"gamma":0.5802086751167648,"epsilon":0.375255696048045,"cycles":3414,"max":{"lastUpdatedDate":"2017-10-23T18:53:58.445Z","meetsCriterion":false,"cycles":2110,"wealth":4.6049761481896,"percentSuccess":0.46838402682881697,"odds":1.736842105263158,"weights":{"nh":100,"ns":4,"na":3,"net":{"W1":{"n":100,"d":4,"w":{"0":0.7812771076957703,"1":-1.6496578310387562,"2":0.05418853280383952,"3":-1.0855191774287518,"4":0.006248276077037991,"5":-0.008970835443585193,"6":-0.002418009794636026,"7":-0.003408916065546646,"8":-0.012313057074713935,"9":0.01767824417107924,"10":0.0047650671786148395,"11":0.006717700956532974,"12":0.007186872147287997,"13":-0.01031840716220721,"14":-0.002781239295052483,"15":-0.003920991207982674,"16":0.0008940846503164817,"17":-0.0012836633156505192,"18":-0.0003459988758770095,"19":-0.00048779257586374197,"20":-0.017348106997361102,"21":0.024907266352434888,"22":0.006713704894199566,"23":0.009464662022936783,"24":0.0004897921312644561,"25":-0.0007032087923444333,"26":-0.00018954303321914323,"27":-0.000267219629460624,"28":0.004051058538958194,"29":-0.005816223504546471,"30":-0.001567708456886146,"31":-0.002210165943753537,"32":4.3939224328919915,"33":4.046428638689861,"34":-3.303077299592002,"35":-8.675577607836022,"36":0.013083937161610803,"37":-0.01878502519215023,"38":-0.005063403122221896,"39":-0.007138270379388747,"40":-0.034428383523354325,"41":0.04943049545435433,"42":0.01332503264771714,"43":0.018782753950541665,"44":-0.003664823452125328,"45":0.005261694289444965,"46":0.001418239902384502,"47":0.0019994449744495575,"48":0.02338643751524527,"49":-0.0335767964488791,"50":-0.009050775407665844,"51":-0.012758928263525754,"52":0.004381901536010303,"53":-0.006291224693751988,"54":-0.0016957410272748195,"55":-0.00239066622204799,"56":0.005681401820119082,"57":-0.00815695661857066,"58":-0.0021986344759651133,"59":-0.0030996430447384204,"60":-0.010595071375366843,"61":0.015211671143777812,"62":0.004100201237030025,"63":0.00578041639158296,"64":0.019227375065891835,"65":-0.027605416915647617,"66":-0.007441035646248234,"67":-0.010489920765518228,"68":-0.00042753839173472613,"69":0.0006138292895018058,"70":0.00016545166390750254,"71":0.00023325538223965597,"72":-0.013858322975346709,"73":0.019896840281769915,"74":0.00536309777446027,"75":0.007560751729234763,"76":0.02487904544213749,"77":-0.03571981958177262,"78":-0.009628504027769684,"79":-0.013573223233684801,"80":-0.022028923662933544,"81":0.03162774008957927,"82":0.008525347657191042,"83":0.012018330099593546,"84":0.013072826922744082,"85":-0.018769073806437282,"86":-0.005059103369069951,"87":-0.00713220896578037,"88":-0.004858792351939488,"89":0.006975911189570849,"90":0.0018802926980493334,"91":0.0026508467328931664,"92":-0.017457124214213488,"93":0.025063787154325563,"94":0.006755897253374018,"95":0.009524137914695266,"96":-0.01066077267513836,"97":0.015306000771628383,"98":0.0041256276968086375,"99":0.00581626122235717,"100":-0.007712799907673335,"101":0.011073498354093582,"102":0.0029847699978562464,"103":0.004207924336698934,"104":0.01898199375309919,"105":-0.027253111450611003,"106":-0.0073460650928953075,"107":-0.01035605017944668,"108":-0.0021509423993810685,"109":0.0030881706460557266,"110":0.0008323864637094383,"111":0.0011735059141317135,"112":-0.005207242310105247,"113":0.007476191348421629,"114":0.002015139297663043,"115":0.0028409528448909396,"116":0.022025626955939938,"117":-0.0316230068332504,"118":-0.008524071674518865,"119":-0.01201653156088724,"120":-0.013107393537817588,"121":0.018818702389784954,"122":0.005072480932660161,"123":0.007151067475330529,"124":-0.007521854198244833,"125":0.010799351510201104,"126":0.0029108751610588696,"127":0.004103749119474629,"128":-0.012828868303530232,"129":0.01841881332691942,"130":0.004964689493243645,"131":0.006999112413098927,"132":-0.02401719430391451,"133":0.03448240964401866,"134":0.009294914401142884,"135":0.013103039356593026,"136":-0.02834840354887684,"137":0.04070099821273195,"138":0.010971408381354426,"139":0.015465918436676536,"140":0.016219254785482744,"141":-0.023286524862394173,"142":-0.006276814156394277,"143":-0.008848799604431076,"144":-0.02765248309928855,"145":0.039701818317029985,"146":0.010702027948169055,"147":0.015086263961557232,"148":-0.015388390991467278,"149":0.02209361941396795,"150":0.0059552548575768655,"151":0.008395508101783829,"152":0.016649849762959343,"153":-0.02390474827526706,"154":-0.006443463290176881,"155":-0.009083717438054275,"156":0.017874531623060314,"157":-0.025663077475997893,"158":-0.006917444729045771,"159":-0.009751860286785988,"160":-0.024698826194978356,"161":0.03546106815194401,"162":0.009558747669180943,"163":0.013474904549934935,"164":-12.841698367643813,"165":-16.055743918221914,"166":11.564132051634106,"167":11.020534579079502,"168":-0.0033296455130446805,"169":0.004780469385264731,"170":0.0012885299910359476,"171":0.0018165795698049229,"172":-0.020318314576652164,"173":0.02917173135542637,"174":0.007863268312619817,"175":0.011085094051982106,"176":-0.010691105712180307,"177":0.015349550963260798,"178":0.0041373666122500674,"179":0.005832810095714227,"180":0.00259229244839203,"181":-0.003721829853644142,"182":-0.0010031833642911037,"183":-0.0014142965185450795,"184":0.0116812134930076,"185":-0.016771083533786688,"186":-0.004520540704162707,"187":-0.006372985261686289,"188":-0.00409754531824241,"189":0.005882965961679654,"190":0.0015856983179380047,"191":0.0022355280565428946,"192":0.007756936698506036,"193":-0.011136866956016,"194":-0.00300185067944083,"195":-0.00423200426556278,"196":-0.017777201526293977,"197":0.02552333631414803,"198":0.0068797753919899955,"199":0.00969876053379459,"200":0.021171886646783936,"201":-0.030397247564369057,"202":-0.008193635497812874,"203":-0.01155076759785884,"204":0.019286408249922688,"205":-0.027690173644900527,"206":-0.007463883452831985,"207":-0.010522126980034697,"208":0.004774089379926907,"209":-0.006854300576035843,"210":-0.0018475135297848302,"211":-0.002604634773018422,"212":-0.008103251108497703,"213":0.011634081680251021,"214":0.003135872477243615,"215":0.004420944696482492,"216":-0.021749378883514185,"217":0.031226382970029994,"218":0.008417150721877925,"219":0.011865822656768254,"220":0.0024299602124075205,"221":-0.003488764696884324,"222":-0.0009403628234639815,"223":-0.0013257317269715022,"224":-0.007144137004689918,"225":0.010257050969221878,"226":0.0027647010887345658,"227":0.003897675967266608,"228":-0.19230880249445326,"229":0.44148194596994933,"230":0.3656093736133154,"231":0.043325219166636335,"232":-2.4702718740537466,"233":-5.874633912842076,"234":5.523786216332899,"235":5.415301556927805,"236":-0.005578925727616445,"237":0.008009828556864456,"238":0.002158977185708727,"239":0.0030437345247191004,"240":0.029976957265982773,"241":-0.04303922782693077,"242":-0.011601810798127046,"243":-0.016354359612297625,"244":-0.0016272719510037371,"245":0.0023363216796247234,"246":0.0006297327419413296,"247":0.0008878031141984543,"248":0.007073884823952858,"249":-0.010156187698891,"250":-0.002737513984990197,"251":-0.0038593481061121415,"252":-0.025848434272903682,"253":0.03711162981613934,"254":0.010003722928422156,"255":0.014102072466942847,"256":0.034319100238399104,"257":-0.04927358797615303,"258":-0.013282725319429041,"259":-0.018723137130910755,"260":0.00006811632359933899,"261":-0.00009779658445221027,"262":-0.000026360109593640517,"263":-0.00003716274253182634,"264":-0.003037561907451326,"265":0.004361116323270867,"266":0.0011754971556901174,"267":0.001657225419086701,"268":0.005900087112097872,"269":-0.008470929803551656,"270":-0.002283263691015634,"271":-0.0032189525236831834,"272":-0.03726635651557185,"273":0.05350523321588715,"274":0.014423746205354394,"275":0.020330927803799085,"276":-0.023752723659308504,"277":0.03410269406958163,"278":0.009192548830187976,"279":0.012958756773975373,"280":0.004603480594332563,"281":-0.006609352403134371,"282":-0.0017814897320519681,"283":-0.0025115546018943335,"284":-0.017503986640747513,"285":0.02513106960265466,"286":0.006774034187469504,"287":0.009549704371747004,"288":-0.0035028220274929715,"289":0.00502910403643011,"290":0.0013555472483957325,"291":0.0019110607129662414,"292":-0.03555257405562734,"293":0.05104459548521368,"294":0.013760251510618476,"295":0.019396026469386703,"296":0.012422427208014116,"297":-0.017835270867483745,"298":-0.004807394064609389,"299":-0.00677737011362721,"300":-0.00909750687081179,"301":0.013061567162836888,"302":0.0035206454561668254,"303":0.004963385139647911,"304":-0.015324161158478374,"305":0.022001402035302025,"306":0.005930396864877357,"307":0.008360466412821304,"308":-0.013313134375027945,"309":0.019114092244065642,"310":0.005152104406197577,"311":0.007263313483157585,"312":-0.01624419430460008,"313":0.023322331576212583,"314":0.006286466243647293,"315":0.008862405757012633,"316":-0.006047452196619263,"317":0.008682506393435796,"318":0.002340292675555903,"319":0.003299351384618154,"320":0.024711984697522626,"321":-0.03547996058947215,"322":-0.009563840843224066,"323":-0.013482083178769358,"324":0.03260787705617623,"325":-0.04681664168453563,"326":-0.012620264818595857,"327":-0.017789616649775058,"328":0.004125694692328053,"329":-0.005923380859026737,"330":-0.001596591810376799,"331":-0.002250885704326258,"332":-0.03014142474864764,"333":0.0432753658321645,"334":0.011665476161858729,"335":0.01644408281844852,"336":0.016434498548507065,"337":-0.02359555939522878,"338":-0.0063601178345692845,"339":-0.008966229244111328,"340":-0.030581909586844033,"341":0.04390780255209973,"342":0.011835988849447605,"343":0.01668438353388623,"344":0.00003724260213093932,"345":-0.00005347028571018323,"346":-0.000014412390767785534,"347":-0.00002031873068297149,"348":-0.014057925019592778,"349":0.02018341663888672,"350":0.005440345992062188,"351":0.007669648416621316,"352":0.010517904825317113,"353":-0.015100880465384079,"354":-0.004070337730159797,"355":-0.005738316428909918,"356":0.0056153825200507025,"357":-0.008062170688653435,"358":-0.002173085622026514,"359":-0.003063624484624054,"360":-0.006410435975942779,"361":0.009203653438803139,"362":0.002480764330625176,"363":0.0034973865914660848,"364":0.021702973583404245,"365":-0.031159756459939583,"366":-0.008399189736612868,"367":-0.011840505933788277,"368":-0.007453555587207893,"369":0.010701293022988253,"370":0.0028844440277327544,"371":0.004066487094603611,"372":-0.024531781413890445,"373":0.03522123215209184,"374":0.009494090850032461,"375":0.013383773138157232,"376":0.029999423394548422,"377":-0.043071484087768765,"378":-0.01161050742471587,"379":-0.016366615735785118,"380":-0.004001108973584368,"381":0.005744509422979175,"382":0.0015483785389912672,"383":0.0021829146140104976,"384":0.0028621249893673356,"385":-0.004109236369140392,"386":-0.0011076052143405284,"387":-0.0015615110283622702,"388":-0.02734617593042369,"389":0.039262032884336905,"390":0.010583462074898131,"391":0.01491915987783036,"392":0.0023170622816403932,"393":-0.0033266738270780563,"394":-0.0008966727487451456,"395":-0.001264137169406628,"396":0.03029536900652186,"397":-0.04349639494482473,"398":-0.011725068169249158,"399":-0.01652806514424447}},"b1":{"n":100,"d":1,"w":{"0":-0.3101654584267245,"1":-0.0004385098575947681,"2":0.0008641083800765823,"3":-0.0005043792188946167,"4":-0.00006274852236239179,"5":0.001217396600979429,"6":-0.00003437452863791967,"7":-0.0002843092899106256,"8":-1.4297811897897301,"9":-0.0009182011809161949,"10":0.0024152639734940492,"11":0.0002572030030186365,"12":-0.0016409950833846008,"13":-0.00030752804639456245,"14":-0.0003987270199705612,"15":0.000743553281251098,"16":-0.001349241564011185,"17":0.000030005445251378297,"18":0.0009725388440591427,"19":-0.001745686096788875,"20":0.0015457729607758178,"21":-0.0009174215812105266,"22":0.0003409964012320991,"23":0.0012250452407544605,"24":0.0007481637840997802,"25":0.0005412877011481297,"26":-0.0013320267349365901,"27":0.0001509569362332648,"28":0.00036545063394844487,"29":-0.0015455417076281608,"30":0.0009198471019133275,"31":0.0005278875754265318,"32":0.000900303072657996,"33":0.00168523709813297,"34":0.00198899392612096,"35":-0.001138194691075188,"36":0.001940192430406344,"37":0.0010798981545846933,"38":-0.001168406224687197,"39":-0.0012543302335671245,"40":0.0017330459960943835,"41":-12.574780292624444,"42":0.0002336798830459637,"43":0.0014257748221181725,"44":0.0007502923630845497,"45":-0.000181931531087376,"46":-0.0008197710028518777,"47":0.0002875717634727507,"48":-0.000544385112698607,"49":0.0012475016664793327,"50":-0.0014856534817731554,"51":-0.0013533830368686718,"52":-0.0003350519299463384,"53":0.0005686885302113903,"54":0.0015261636916403286,"55":-0.0001705388241184167,"56":0.0005013801453026109,"57":-0.14931579495552932,"58":-1.0042850730342878,"59":0.0003915352906935597,"60":-0.0021031886152371726,"61":0.0001142048970794607,"62":-0.0004964499725558565,"63":0.0018136744362845533,"64":-0.0024076035847241926,"65":-0.000004780531487366475,"66":0.0002131811217297667,"67":-0.00041407423311583925,"68":0.002614175323894016,"69":0.0016666869858131203,"70":-0.0003230785567419861,"71":0.001228333095858436,"72":0.0002458335895830126,"73":0.0024940625030544566,"74":-0.000871782969045253,"75":0.0006384619324365005,"76":0.0010753914821154571,"77":0.0009342837781081943,"78":0.0011399445170845865,"79":0.00042441621048301464,"80":-0.0017339689025509346,"81":-0.0022876451246696588,"82":-0.000289547304932888,"83":0.0021147205003123402,"84":-0.0011532967435974196,"85":0.0021456051788521936,"86":-0.0000026137557482523877,"87":0.0009865444718430857,"88":-0.0007381382109843203,"89":-0.0003940938141069998,"90":0.0004498900731638965,"91":-0.0015229084682497002,"92":0.0005230945280725418,"93":0.001721329813922481,"94":-0.002104763868541709,"95":0.000280803794268852,"96":-0.0002008687400019771,"97":0.0019187119925286867,"98":-0.00016261548142136015,"99":-0.002125514427483212}},"W2":{"n":3,"d":100,"w":{"0":0.06435640588855093,"1":-0.0003595271565434071,"2":0.0007084688759379037,"3":-0.0004135324064424288,"4":-0.000051446492151087504,"5":0.0009981250033664546,"6":-0.00002818311645826361,"7":-0.00023310057555075568,"8":-0.02160904364661223,"9":-0.0007528187791202056,"10":0.001980246144978924,"11":0.00021087656774518393,"12":-0.0013454284576245113,"13":-0.0002521372605640279,"14":-0.0003269098399721276,"15":0.0006096275379491495,"16":-0.0011062230295613158,"17":0.000024600976106239997,"18":0.0007973694534881379,"19":-0.0014312635885603139,"20":0.0012673568471832863,"21":-0.0007521795965401171,"22":0.00027957742774619224,"23":0.0010043960241837967,"24":0.0006134076199308352,"25":0.0004437930928288524,"26":-0.0010921088020659359,"27":0.0001237671370768485,"28":0.0002996270618930555,"29":-0.001267167245253289,"30":0.0007541682460688335,"31":0.0004328065393072569,"32":0.0007381443783432502,"33":0.001381702039701169,"34":0.0016307496220630715,"35":-0.000933188400312295,"36":0.0015907376477925493,"37":0.0008853918582350968,"38":-0.0009579584350176797,"39":-0.0010284064139814196,"40":0.0014209000900230475,"41":-1.0684471615825348,"42":0.0001915903414444411,"43":0.001168971732457443,"44":0.0006151528098682147,"45":-0.00014916270507536693,"46":-0.0006721173116343498,"47":0.00023577542511107083,"48":-0.0004463326121819455,"49":0.0010228077590288477,"50":-0.0012180655553007207,"51":-0.0011096185726953197,"52":-0.00027470365098872105,"53":0.00046625860543967164,"54":0.0012512794229064166,"55":-0.0001398220093057742,"56":0.0004110735131266641,"57":-0.14576835214064554,"58":0.11358693093268271,"59":0.00032101345569731873,"60":-0.0017243770609986489,"61":0.00009363473702334453,"62":-0.0004070313419998259,"63":0.0014870066042250462,"64":-0.0019739654170133473,"65":-0.000003919479941605139,"66":0.00017478373845500363,"67":-0.00033949277587067873,"68":0.0021433331464688877,"69":0.0013664929877563428,"70":-0.00026488687431103274,"71":0.0010070916941541921,"72":0.000201554969144678,"73":0.002044852841729207,"74":-0.0007147611594619371,"75":0.0005234647391236843,"76":0.0008816968991062326,"77":0.0007660046696876707,"78":0.0009346230592627754,"79":0.00034797199882897665,"80":-0.001421656772221268,"81":-0.0018756119452597703,"82":-0.00023739513976228389,"83":0.0017338319808601307,"84":-0.0009455703717829876,"85":0.0017591541402937863,"86":-0.000002142975787201538,"87":0.0008088524698435601,"88":-0.0006051878033259676,"89":-0.0003231111482779426,"90":0.00036885761506087164,"91":-0.0012486105012758653,"92":0.00042887679484149977,"93":0.0014112941046186785,"94":-0.0017256686011764956,"95":0.0002302264761141586,"96":-0.00016468901593247304,"97":0.0015731260071454945,"98":-0.00013332578912373695,"99":-0.0017426818548322207,"100":0.10325843662903363,"101":0.000014544358149726,"102":-0.000028660949070823067,"103":0.000016729123422829088,"104":0.0000020812117771428817,"105":-0.000040379778024695804,"106":0.0000011401171739242267,"107":0.000009429850627597716,"108":0.32715244339694804,"109":0.00003045519899346642,"110":-0.00008012214420421598,"111":-0.000008530797018529962,"112":0.00005443205849045915,"113":0.00001019996471131697,"114":0.000013224840325944169,"115":-0.000024662207333112622,"116":0.000044753388485837754,"117":-9.95205592987175e-7,"118":-0.00003225758696776095,"119":0.000057905285903383476,"120":-0.0000512730634121536,"121":0.00003042933967993397,"122":-0.00001131003672995824,"123":-0.00004063349801186911,"124":-0.00002481513376002662,"125":-0.00001795331527787367,"126":0.00004418232414090712,"127":-0.00000500686737275423,"128":-0.000012121131477230268,"129":0.000051265391689202975,"130":-0.000030509794185425498,"131":-0.000017508855311341015,"132":-0.000029861519768932346,"133":-0.00005589981750770675,"134":-0.00006597771072028301,"135":0.000037752523732300936,"136":-0.00006435853022119732,"137":-0.00003581876135237627,"138":0.00003875468357738387,"139":0.000041604941091611015,"140":-0.00005748593225183314,"141":0.4551851316997951,"142":-0.000007750589779032146,"143":-0.00004729224119681028,"144":-0.00002488573693181697,"145":0.000006034219748880314,"146":0.00002719029625307935,"147":-0.000009538059503074017,"148":0.000018056051367894704,"149":-0.00004137842299754805,"150":0.00004927864200065714,"151":0.000044890773152064444,"152":0.00001111287148011841,"153":-0.00001886215717933174,"154":-0.00005062253613574643,"155":0.00000565635110992244,"156":-0.000016629649412855464,"157":-0.004694852808818547,"158":0.12183682619781337,"159":-0.00001298630533780463,"160":0.00006976667637340907,"161":-0.000003787892241819013,"162":0.000016466124289346886,"163":-0.00006016092613063893,"164":0.00007986793697052825,"165":1.58558272004354e-7,"166":-0.000007070694115355595,"167":0.000013733876486119505,"168":-0.00008672324059611123,"169":-0.000055284402532717236,"170":0.000010715740810096614,"171":-0.000040742562574396814,"172":-0.000008153699888589028,"173":-0.00008273709317999073,"174":0.00002891551307967032,"175":-0.000021176441591512585,"176":-0.00003566927082358635,"177":-0.00003098865930362428,"178":-0.000037810567798134606,"179":-0.00001407689937671122,"180":0.000057516550954960646,"181":0.00007588726448660461,"182":0.000009603583757727354,"183":-0.00007014931171371621,"184":0.000038253479667754465,"185":-0.00007117409330987555,"186":8.669174040217299e-8,"187":-0.000032722158339188274,"188":0.00002448259421399962,"189":0.00001307116632591746,"190":-0.000014921818068164894,"191":0.00005051454613485794,"192":-0.000017349878009341413,"193":-0.00005709723239752616,"194":0.00006981894419088661,"195":-0.00000931358127884883,"196":0.0000066623216514612116,"197":-0.0000636458413513745,"198":0.000005393553001892407,"199":0.00007050746263438513,"200":-0.009697440428833711,"201":-0.00028578454583503556,"202":0.0005631564683801727,"203":-0.00032871288645022376,"204":-0.00004089426246134012,"205":0.0007934049576008929,"206":-0.00002240245537868167,"207":-0.00018528921124557523,"208":-0.17566603910385828,"209":-0.0005984101680872728,"210":0.0015741243858738306,"211":0.00016762356684035503,"212":-0.0010694816618314045,"213":-0.000200421287612967,"214":-0.00025985732136680936,"215":0.00048458775594394766,"216":-0.0008793331400607567,"217":0.000019555050609719643,"218":0.0006338235161063977,"219":-0.0011377141600206536,"220":0.0010074209015275416,"221":-0.0005979020820233829,"222":0.00022223321652634393,"223":0.0007983898413064247,"224":0.00048759252859320124,"225":0.0003527668829134615,"226":-0.0008681135757218217,"227":0.00009838117382369017,"228":0.00023817048565040206,"229":-0.001007270183334446,"230":0.0005994828590455386,"231":0.0003440337508433374,"232":0.0005867454936544537,"233":0.001098316395589178,"234":0.0012962921631347458,"235":-0.0007417864259991204,"236":0.0012644851465607664,"237":0.000703792735435186,"238":-0.0007614762711839023,"239":-0.0008174759024290969,"240":0.001129475934795065,"241":0.30500184329990654,"242":0.00015229313909989026,"243":0.0009292129178936675,"244":0.0004889797734815912,"245":-0.00011856784566875211,"246":-0.0005342606801365316,"247":0.00018741542303467375,"248":-0.000354785528793005,"249":0.0008130254824875631,"250":-0.0009682383691183654,"251":-0.0008820322981901254,"252":-0.00021835909700909683,"253":0.0003706245629340027,"254":0.0009946406560965386,"255":-0.00011114302374536784,"256":0.00032675833091760074,"257":-0.10065848618280084,"258":0.043825145068727846,"259":0.0002551703376257315,"260":-0.001370720501611192,"261":0.00007442924743083463,"262":-0.0003235452401354747,"263":0.0011820258895058075,"264":-0.0015691314483287666,"265":-0.000003115552323573639,"266":0.00013893374121234648,"267":-0.0002698593873116234,"268":0.0017037733071231418,"269":0.0010862263500726877,"270":-0.00021055583386176297,"271":0.0008005326509913061,"272":0.000160213921312064,"273":0.001625484395285806,"274":-0.0005681581958840273,"275":0.0004160973619459377,"276":0.0007008555986603851,"277":0.0006088916315800083,"278":0.0007429268441868496,"279":0.0002765994487714017,"280":-0.0011300774417433586,"281":-0.0014909445800896073,"282":-0.00018870291842085145,"283":0.0013782366404884892,"284":-0.000751628924702286,"285":0.0013983663863485082,"286":-0.000001703428335414302,"287":0.0006429513795932372,"288":-0.0004810586283568904,"289":-0.0002568377748683929,"290":0.00029320124963556557,"291":-0.0009925190815152974,"292":0.0003409100258146191,"293":0.0011218398823074898,"294":-0.0013717472043550875,"295":0.00018300461774501287,"296":-0.00013090954977823928,"297":0.00125048502398604,"298":-0.0001059792461526323,"299":-0.0013852718064931307}},"b2":{"n":3,"d":1,"w":{"0":-0.19954719618364075,"1":1.5884750617055672,"2":0.7044607555330338}}}}},"weights":{"nh":100,"ns":4,"na":3,"net":{"W1":{"n":100,"d":4,"w":{"0":0.27569603834621903,"1":-1.1672268980787333,"2":1.2701636537195444,"3":-1.2608824152844034,"4":0.006845818086001701,"5":-0.010010329018258213,"6":-0.0038911983764572953,"7":-0.0029184432241699245,"8":-0.013524173920624898,"9":0.019777264428759045,"10":0.007685449978871247,"11":0.005766649409030454,"12":0.007876605395854028,"13":-0.011517698324808357,"14":-0.004476989165501674,"15":-0.0033579533161622443,"16":0.0009786312316240305,"17":-0.001430972062184479,"18":-0.0005563018508303549,"19":-0.0004171725720783066,"20":-0.019096588737040315,"21":0.027928973471547304,"22":0.01084876757341609,"23":0.008144894753943317,"24":0.0005361000226961922,"25":-0.0007838947389135534,"26":-0.00030474581220384437,"27":-0.000228529397630195,"28":0.004435939104429776,"29":-0.0064863758004823375,"30":-0.00252152565980042,"31":-0.0018910114531108843,"32":6.250956275025744,"33":3.620107397038769,"34":-4.2744060066338605,"35":-7.729696456182857,"36":0.014376135218010401,"37":-0.021023417596184975,"38":-0.008169270084087344,"39":-0.006130137068607235,"40":-0.03700384590014095,"41":0.05414944735495133,"42":0.020985032539962343,"43":0.01580658628121286,"44":-0.004012700424060158,"45":0.005867490823680832,"46":0.002280957305269568,"47":0.001710578645515201,"48":0.025746005370202517,"49":-0.03766010247666414,"50":-0.01461881504037263,"51":-0.010985836473523672,"52":0.004798558252585374,"53":-0.007016622285391368,"54":-0.0027276343475116428,"55":-0.0020456036314239912,"56":0.006223683772580753,"57":-0.009100569711177498,"58":-0.003537622272249998,"59":-0.0026531892756839603,"60":-0.011627927684705202,"61":0.017003815609657663,"62":0.006608392396715073,"63":0.004957749728747717,"64":0.021176171729000555,"65":-0.03097183128133787,"66":-0.012028457754797998,"67":-0.009032984658792402,"68":-0.00046795973513012685,"69":0.0006842588045838357,"70":0.00026601152743380683,"71":0.00019948244943947594,"72":-0.015232574628024551,"73":0.022276172103747383,"74":0.008655572219907781,"75":0.006495575271765701,"76":0.027362474693189143,"77":-0.04002654054512271,"78":-0.015534350214328476,"79":-0.011677095071985128,"80":-0.02426249159055854,"81":0.03548860437595787,"82":0.013778226569789784,"83":0.010351666888314586,"84":0.014363851968562442,"85":-0.02100545068652386,"86":-0.008162294973745083,"87":-0.0061248961678161745,"88":-0.005321392920596813,"89":0.007781152243846334,"90":0.003024801328847119,"91":0.002268503272126169,"92":-0.019217310786364634,"93":0.028105603081400674,"94":0.010917263675499573,"95":0.008196440311199064,"96":-0.011700381140211333,"97":0.017109782059481788,"98":0.006649550256463779,"99":0.004988653812247001,"100":-0.008454597858523965,"101":0.012362941503181183,"102":0.004805438513617783,"103":0.003604412931676186,"104":0.02090488093923686,"105":-0.030574852272713504,"106":-0.011874591464742625,"107":-0.008917110122291195,"108":-0.0023545771012460485,"109":0.0034429133188486755,"110":0.0013384464941131717,"111":0.0010037198388791453,"112":-0.0057035254672232125,"113":0.008339940882715792,"114":0.003241991300583972,"115":0.002431420924044634,"116":0.02425887670924978,"117":-0.035483313415979774,"118":-0.013776177907504348,"119":-0.010350121865915152,"120":-0.014402068510823873,"121":0.021061350682034557,"122":0.008183996404807924,"123":0.006141202067980442,"124":-0.008244714209733415,"125":0.012056010849464109,"126":0.0046861720834197994,"127":0.0035149160352284563,"128":-0.014094168315702824,"129":0.020610982646168976,"130":0.00800915048755505,"131":0.006009832157674544,"132":-0.026431275425070476,"133":0.038663264106223186,"134":0.015006988998809017,"135":0.01127884856120701,"136":-0.03102736674435021,"137":0.04539315814477369,"138":0.0176084226432853,"139":0.013245404118005748,"140":0.017846344184375106,"141":-0.02609980748678968,"142":-0.010139301109002859,"143":-0.007611130463000117,"144":-0.030305322612954128,"145":0.04433568519129291,"146":0.01719998809572997,"147":0.012936296429268659,"148":-0.016926180028206245,"149":0.024753652637847297,"150":0.00961703776914778,"151":0.007218355387387924,"152":0.018323263824388116,"153":-0.026797546401253505,"154":-0.010409954874713601,"155":-0.007814727739453216,"156":0.01967947017772243,"157":-0.028781805851272498,"158":-0.011179471523597807,"159":-0.008393781822288737,"160":-0.0271682923071785,"161":0.0397422476008603,"162":0.015424391585646608,"163":0.011594041376340247,"164":-13.907439279000373,"165":-17.517752643066117,"166":12.873579928595499,"167":11.794500095212191,"168":-0.0036454849476371207,"169":0.005330529145473396,"170":0.0020722291271577137,"171":0.0015540315384192775,"172":-0.022380828903951724,"173":0.03273469744283965,"174":0.012711582504347648,"175":0.009547595325324584,"176":-0.011733833298624322,"177":0.017158707451825694,"178":0.0066685529469128445,"179":0.005002922475638093,"180":0.00283786626394281,"181":-0.004149594831258372,"182":-0.0016131628001082381,"183":-0.001209742987817619,"184":0.012826364175742134,"185":-0.018756622529029657,"186":-0.0072891284363212315,"187":-0.0054689580624926026,"188":-0.004486886182999417,"189":0.006560873923900144,"190":0.002550483619880359,"191":0.0019127311292831057,"192":0.00850311790215988,"193":-0.012433896730575583,"194":-0.0048330097368473,"195":-0.003625102656407005,"196":-0.01957171530022201,"197":0.028624143804130305,"198":0.01111833858243558,"199":0.008347769186507242,"200":0.02332112031316156,"201":-0.03411080910408394,"202":-0.013244659957770796,"203":-0.009949360236803022,"204":0.021241422694115608,"205":-0.031067313975011623,"206":-0.012065464363884422,"207":-0.009060855742183729,"208":0.0052285169419468945,"209":-0.007645341194606464,"210":-0.002972013382058991,"211":-0.002228907155214072,"212":-0.008883901394390754,"213":0.012990754104833541,"214":0.005049383624453829,"215":0.0037874774945320638,"216":-0.023955786731109915,"217":0.03503969813208066,"218":0.013604400964002549,"219":0.010220583733263934,"220":0.0026600992189039266,"221":-0.0038896575952571894,"222":-0.0015121149938273953,"223":-0.0011339617414611982,"224":-0.007829652841872278,"225":0.011449036535506208,"226":0.004450307281754135,"227":0.0033379328968097337,"228":-0.3982505579995044,"229":0.6078269557942928,"230":-0.3812536813774216,"231":0.13690001385814457,"232":4.2455523599400165,"233":4.870532408545604,"234":-3.645916936794804,"235":-5.652835136107448,"236":-0.006111249664772631,"237":0.008936156362970286,"238":0.0034737213526598986,"239":0.0026052527232167627,"240":0.03268515155337783,"241":-0.04782139330397035,"242":-0.018545791503064374,"243":-0.013955350878916141,"244":-0.0017812370234482106,"245":0.002604559738211267,"246":0.0010125384782909929,"247":0.0007593111855114569,"248":0.007752471900130457,"249":-0.011336169979093324,"250":-0.004406447196810493,"251":-0.0033050233301511814,"252":-0.02840145240729461,"253":0.04154774700417967,"254":0.016122579323747537,"255":0.01212154586987237,"256":0.03689891438091749,"257":-0.05399565296579786,"258":-0.020925815586458063,"259":-0.015761574655248703,"260":0.00007455598712961482,"261":-0.00010901703895443387,"262":-0.00004238133671112236,"263":-0.00003178180764087148,"264":-0.003325534507643072,"265":0.004862682808813182,"266":0.0018903644686940812,"267":0.0014176354303317912,"268":0.006463651407215643,"269":-0.00945147769085003,"270":-0.003674004213681754,"271":-0.0027555010491758774,"272":-0.039311851891461955,"273":0.05753276916614531,"274":0.02228686175266311,"275":0.016797066583055135,"276":-0.026144303410318016,"277":0.03824316042043821,"278":0.014844441537600903,"279":0.011156137401083096,"280":0.005041462948749702,"281":-0.00737181580411701,"282":-0.002865696671400473,"283":-0.002149160330708923,"284":-0.01926920283333261,"285":0.0281815272663681,"286":0.010946706034834644,"287":0.008218597360141106,"288":-0.003835206065657154,"289":0.005607948978498727,"290":0.0021800684783355832,"291":0.0016349110364063206,"292":-0.03809325473474809,"293":0.0557462841333202,"294":0.021599674288804417,"295":0.016274001199156802,"296":0.013645008533320431,"297":-0.01995400473236757,"298":-0.007754074265257372,"299":-0.005818200943794608,"300":-0.009977891056825486,"301":0.014590638951575719,"302":0.005670982766310055,"303":0.00425400756324969,"304":-0.016855056689527942,"305":0.024649605672106324,"306":0.009576666304450773,"307":0.007187998477410944,"308":-0.014629558455429792,"309":0.02139410627859502,"310":0.008313175029532317,"311":0.006238267150190834,"312":-0.01787396655155437,"313":0.02614021877781481,"314":0.010154977565416843,"315":0.007622922039654181,"316":-0.006625382948055406,"317":0.009687980958641602,"318":0.003765920667755203,"319":0.0028244571367883465,"320":0.02718248040549259,"321":-0.03976301952605744,"322":-0.015432426015082563,"323":-0.011600109626910904,"324":0.035262928813572035,"325":-0.05159812123683349,"326":-0.020002237723428844,"327":-0.015060011563876489,"328":0.004517737137633159,"329":-0.0066059862183490085,"330":-0.002568019052543183,"331":-0.0019258834795868698,"332":-0.03284990833422747,"333":0.04806274532275456,"334":0.01863892080289687,"335":0.014025927445613625,"336":0.018084744168941506,"337":-0.026448586875553296,"338":-0.01027459704715968,"339":-0.007712901587352462,"340":-0.0332886837951255,"341":0.04870552966533782,"342":0.018886912974382507,"343":0.014213902500168876,"344":0.000040763484873297995,"345":-0.00005960506432776839,"346":-0.00002317199537846456,"347":-0.000017376702763935374,"348":-0.015453414460185418,"349":0.022599213710818404,"350":0.008780958775953253,"351":0.006589813267455848,"352":0.011542837431754193,"353":-0.01687936765068076,"354":-0.006560055636945533,"355":-0.004921455877430672,"356":0.006151248035201988,"357":-0.00899464627590036,"358":-0.003496454119879719,"359":-0.002622306091198929,"360":-0.00702384206088111,"361":0.01027065929302591,"362":0.003992371582221475,"363":0.0029943475363807016,"364":0.023904838495594476,"365":-0.03496512923056831,"366":-0.013575524639191509,"367":-0.010198809726900186,"368":-0.008169651547234853,"369":0.011946240781776186,"370":0.00464351719978361,"371":0.003482908752358021,"372":-0.026988042005603903,"373":0.03947835658940533,"374":0.015322316660268153,"375":0.011516950182868746,"376":0.032707686858249915,"377":-0.04785440497359721,"378":-0.018558529981924574,"379":-0.013965004075498286,"380":-0.004381198613087864,"381":0.006406330764450954,"382":0.002490411477301066,"383":0.0018676746234420711,"384":0.0031333810173298426,"385":-0.004581707880547391,"386":-0.0017811405779642364,"387":-0.0013357202764527059,"388":-0.029985175302810245,"389":0.04386683811919713,"390":0.017018861066937195,"391":0.012799261372762806,"392":0.002536473262334149,"393":-0.0037088876057108713,"394":-0.0014418422254459395,"395":-0.001081260770714479,"396":0.033003666751672885,"397":-0.048287990031037425,"398":-0.018725828253378308,"399":-0.014091795906780067}},"b1":{"n":100,"d":1,"w":{"0":-0.6330547716763559,"1":0.00022621002470415925,"2":-0.00044613409142823764,"3":0.0002602221306867845,"4":0.00003235573173182206,"5":-0.0006285264000977196,"6":0.000017724808925892926,"7":0.00014662824448160352,"8":0.20384230335071057,"9":0.0004740982436973588,"10":-0.00120218039931786,"11":-0.00013264409634321738,"12":0.0008441818871704694,"13":0.00015860793622146215,"14":0.0002056731356018863,"15":-0.00038380817551634535,"16":0.000696236775020682,"17":-0.000015471933448571543,"18":-0.0005021833011534922,"19":0.0008961973750876239,"20":-0.0007962925367990272,"21":0.0004736952473656763,"22":-0.00017587785234915297,"23":-0.000632462956829685,"24":-0.0003861915833503575,"25":-0.0002792849012096685,"26":0.0006874162568540252,"27":-0.00007784317791768978,"28":-0.00018849796162923076,"29":0.0007961756746421102,"30":-0.00047494906129660815,"31":-0.0002723635045944233,"32":-0.0004648459560192496,"33":-0.0008662545848202467,"34":-0.0010134251593738113,"35":0.0005877176722590098,"36":-0.000990411196632104,"37":-0.0005576381151237794,"38":0.0006032931216714758,"39":0.0006475267123089427,"40":-0.0008899584020588535,"41":-13.888968245037828,"42":-0.00012050957021529827,"43":-0.0007353556949275591,"44":-0.00038729196477839054,"45":0.00009381799586934126,"46":0.00042321152564326356,"47":-0.00014831144982984108,"48":0.0002808848321329947,"49":-0.0006440154538033719,"50":0.0007658328773873681,"51":0.0006983577044124944,"52":0.00017281028657146897,"53":-0.0002934393020209869,"54":-0.0007863744950492968,"55":0.00008794219209537905,"56":-0.00025867329856897543,"57":0.15865689761547835,"58":-0.6823717735118416,"59":-0.00020196099667707426,"60":0.0010661019788541658,"61":-0.000058890064430356314,"62":0.000256127225470837,"63":-0.0009295333882020076,"64":0.0011988951430938876,"65":0.0000024650161409197607,"66":-0.00010993591971985551,"67":0.00021359528914257744,"68":-0.0012741559869867097,"69":-0.0008570149864799705,"70":0.00016663181774945673,"71":-0.0006341548593549635,"72":-0.00012677900572552096,"73":-0.001236222561311618,"74":0.0004501017931517196,"75":-0.00032949017495486705,"76":-0.0005553116258613486,"77":-0.0004824115006073304,"78":-0.0005886200552070347,"79":-0.0002189340892034479,"80":0.0008904143475740563,"81":0.0011475353273112264,"82":0.00014933069939629333,"83":-0.0010713244571385501,"84":0.000595504729352246,"85":-0.001085221271475648,"86":0.0000013477476036394315,"87":-0.0005094208237727085,"88":0.0003810088791239791,"89":0.00020328160985792805,"90":-0.0002320854950605175,"91":0.000784726402532656,"92":-0.0002698879229204537,"93":-0.0008841646938775272,"94":0.001066816444080084,"95":-0.00014481967982913726,"96":0.00010358526934753987,"97":-0.0009801937504324136,"98":0.00008385581307261882,"99":0.001076196181457492}},"W2":{"n":3,"d":100,"w":{"0":-0.03548320851362348,"1":-0.000024485444711931153,"2":0.00004838498287392827,"3":-0.000028173104130184126,"4":-0.0000034999564258148793,"5":0.00006834638429522063,"6":-0.0000019172944836517663,"7":-0.0000158651815661544,"8":-0.057589588642825124,"9":-0.00005143546718895657,"10":0.00013272687775798907,"11":0.000014351363599989501,"12":-0.000092201948570744,"13":-0.000017162205254615817,"14":-0.000022259900626549465,"15":0.000041596887505068304,"16":-0.00007580225831573241,"17":0.0000016735990688721908,"18":0.000054502447291272835,"19":-0.00009800887168709153,"20":0.00008687551397801874,"21":-0.00005139148329920926,"22":0.000019032338471891726,"23":0.0000687790987467971,"24":0.00004185621786893071,"25":0.00003024103478668601,"26":-0.0000748293769822005,"27":0.000008420936162182899,"28":0.00002039923116058361,"29":-0.00008686253822420988,"30":0.00005152832950029169,"31":0.000029490103512600964,"32":0.00005042582322658524,"33":0.0000946632664404616,"34":0.00011118788865166943,"35":-0.00006386575127998749,"36":0.00010858982307284051,"37":0.000060568869139959446,"38":-0.00006557478496161595,"39":-0.00007043577496357108,"40":0.00009731112028612593,"41":-0.9147314215054284,"42":0.00001303795111729626,"43":0.00008012318883346451,"44":0.00004197595301732324,"45":-0.000010149426791146727,"46":-0.000045886765514024336,"47":0.000016047408603670847,"48":-0.00003041463425093642,"49":0.00007004949529284198,"50":-0.0000834969272909867,"51":-0.00007603626681238436,"52":-0.00001870012502911574,"53":0.00003177706638239369,"54":0.00008577463859432153,"55":-0.00000951363741784272,"56":0.000028005123184337182,"57":0.12234308416555678,"58":-0.46693315512121536,"59":0.000021857704335195742,"60":-0.00011715612301555335,"61":0.000006370406697825954,"62":-0.000027728996504513075,"63":0.0001017430806676325,"64":-0.00013234812868845381,"65":-2.666399889632014e-7,"66":0.000011893607499312815,"67":-0.000023118317654423288,"68":0.0001410634597628825,"69":0.00009363246274111791,"70":-0.00001803104655544672,"71":0.0000689651037921446,"72":0.00001371652025258046,"73":0.0001366604332235998,"74":-0.000048817609673388404,"75":0.00003569164352995763,"76":0.000060314066469776635,"77":0.000052342947113380014,"78":0.00006396473054536467,"79":0.00002369687580998741,"80":-0.00009736210036918893,"81":-0.0001264458971489296,"82":-0.000016157756249782528,"83":0.00011774951920696659,"84":-0.00006472003053954881,"85":0.00011933006329551942,"86":-1.4578540895812751e-7,"87":0.00005529337168024264,"88":-0.00004129233001782799,"89":-0.000022000785061528697,"90":0.00002512230521687955,"91":-0.00008559177722823942,"92":0.00002922154467581016,"93":0.0000966634756985075,"94":-0.00011723728454271582,"95":0.000015669386825246116,"96":-0.00001120635296131896,"97":0.00010743812447453591,"98":-0.000009071487428799985,"99":-0.00011830334525826139,"100":-0.08657039235651126,"101":0.00008160742423626631,"102":-0.00016109429602928556,"103":0.00009388714861749829,"104":0.000011669061456953395,"105":-0.00022723457356823472,"106":0.000006392405590808398,"107":0.00005288793003207106,"108":0.5871327578393092,"109":0.000171219344917666,"110":-0.0004377288234540192,"111":-0.00004784278968983615,"112":0.00030583048336755577,"113":0.0000572102120369762,"114":0.00007419451223511271,"115":-0.00013854453321935533,"116":0.0002518587764448097,"117":-0.000005579909446840572,"118":-0.00018139331066258565,"119":0.0003248696302221037,"120":-0.0002883323051465695,"121":0.00017107339557078099,"122":-0.00006344174818411994,"123":-0.0002286650065081893,"124":-0.00013940646530210824,"125":-0.00010077129282338533,"126":0.0002486485154958416,"127":-0.000028074920775202784,"128":-0.00006799592220846504,"129":0.00028828963933007483,"130":-0.00017152748091647487,"131":-0.000098271614580033,"132":-0.00016786879727835054,"133":-0.00031390532799141724,"134":-0.0003679201615423286,"135":0.00021241382639885928,"136":-0.00035945192844706126,"137":-0.00020149855181633027,"138":0.0002180687667700818,"139":0.00023414004599004134,"140":-0.00032258406914143547,"141":0.6396376216743612,"142":-0.000043465227563518794,"143":-0.00026610587812461625,"144":-0.00013980441565058632,"145":0.00003383696496015391,"146":0.00015279824749217505,"147":-0.00005349521445538381,"148":0.00010134913687141548,"149":-0.00023286366592873843,"150":0.0002772170323497501,"151":0.0002526308133113661,"152":0.0000623348238143782,"153":-0.00010588374995588437,"154":-0.0002847118498955945,"155":0.00003171755533294006,"156":-0.00009332787519395459,"157":-0.044660696672762894,"158":-0.5045125491296863,"159":-0.00007285472020920993,"160":0.0003873362722742839,"161":-0.00002123895498328833,"162":0.00009240852239438202,"163":-0.0003370910645842645,"164":0.0004365078772589898,"165":8.889998995717129e-7,"166":-0.000039650947685605705,"167":0.00007705391745247957,"168":-0.0004645374229426724,"169":-0.00031052443786787364,"170":0.00006010540202352622,"171":-0.00022927983869660155,"172":-0.000045726912048420405,"173":-0.00045039406468293426,"174":0.00016253059289578727,"175":-0.00011890869257605928,"176":-0.00020065461489862337,"177":-0.00017423031608551146,"178":-0.00021274139693295606,"179":-0.000078980992796144,"180":0.00032275108031364666,"181":0.00041744931886835405,"182":0.0000538629526727539,"183":-0.0003892638291345297,"184":0.0002152407991438816,"185":-0.0003943953519923539,"186":4.860606927757347e-7,"187":-0.0001840160182066031,"188":0.00013753223758096052,"189":0.00007333135407686277,"190":-0.00008372843885605203,"191":0.0002841103466234753,"192":-0.00009737759522052308,"193":-0.00032046210257828363,"194":0.00038759994473513385,"195":-0.000052235423300841296,"196":0.000037360128531528406,"197":-0.0003556950181418263,"198":0.000030243617224333104,"199":0.0003910623631853085,"200":-0.02016141472033816,"201":-0.000010236861803795734,"202":0.000020265746265796913,"203":-0.000011780994635727166,"204":-0.0000014623594256744397,"205":0.000028696537698494725,"206":-8.010809633676716e-7,"207":-0.0000066304886848031316,"208":0.06306430866380747,"209":-0.0000215503053193338,"210":0.000056491481380359184,"211":0.000005997535626229108,"212":-0.00003886879832805521,"213":-0.000007172872051260562,"214":-0.000009305392606762418,"215":0.00001741143669755138,"216":-0.00003186296414517522,"217":6.992598873977594e-7,"218":0.00002284308656947029,"219":-0.000041364763477303865,"220":0.000036586691786312755,"221":-0.000021531774893165636,"222":0.000007955050836665175,"223":0.000028880020043111855,"224":0.00001752038369032608,"225":0.000012647331662471507,"226":-0.00003144918010225418,"227":0.0000035186702467369734,"228":0.000008526860213850217,"229":-0.00003658114054570567,"230":0.00002158942910384447,"231":0.000012332699035901949,"232":0.000021125007841281198,"233":0.0000399256883784474,"234":0.00004706320263503666,"235":-0.000026798588831530593,"236":0.000045935913359747955,"237":0.000025404249752969017,"238":-0.00002752210307897586,"239":-0.000029582812558457564,"240":0.000041064393975742565,"241":-0.10373235370910389,"242":0.0000054484458826985925,"243":0.00003370307672410549,"244":0.000017570687994571466,"245":-0.000004241059057506431,"246":-0.000019214636239519944,"247":0.000006706687175939997,"248":-0.000012720074435712846,"249":0.000029418900145806616,"250":-0.00003514257899016097,"251":-0.00003196252059360516,"252":-0.000007816091059902995,"253":0.000013291054481803125,"254":0.00003611585760813387,"255":-0.0000039753347933369524,"256":0.000011710635089842047,"257":0.011748661220992322,"258":-0.002281951875885469,"259":0.000009137090972654518,"260":-0.000049660540489672165,"261":0.0000026617762582760672,"262":-0.000011594982749745119,"263":0.00004297447299786155,"264":-0.00005632432749638319,"265":-1.1140667957444882e-7,"266":0.000004970086052641654,"267":-0.000009664634652460972,"268":0.00006018407805149003,"269":0.00003948287656225959,"270":-0.000007536242191693985,"271":0.000028958901589233836,"272":0.000005732123073255314,"273":0.00005823057590523574,"274":-0.000020447851282877133,"275":0.000014932497622036912,"276":0.00002529656079265322,"277":0.00002193268592785765,"278":0.000026840477777728385,"279":0.000009906782726649678,"280":-0.000041086335675281156,"281":-0.00005372606464586743,"282":-0.000006752829878872775,"283":0.000049919389566924056,"284":-0.000027160182689043026,"285":0.00005060939732344788,"286":-6.091159678309161e-8,"287":0.000023176690765725452,"288":-0.000017283498807752607,"289":-0.000009196962951422409,"290":0.000010503467980825638,"291":-0.0000360376764888006,"292":0.000012220186280645528,"293":0.000040785708299758936,"294":-0.00004969593787107162,"295":0.000006548618382593873,"296":-0.000004682819050623817,"297":0.000045436831060708345,"298":-0.000003790546919245404,"299":-0.00005016107865775143}},"b2":{"n":3,"d":1,"w":{"0":-0.8739752996348771,"1":0.18928662175719563,"2":-0.0007511874543756833}}}}}