{"numStates":1,"sensitivity":19.145297026004407,"alpha":0.00900396181472758,"gamma":0.7362821466867437,"epsilon":0.44017084107317983,"cycles":5766,"max":{"lastUpdatedDate":"2017-11-23T19:45:44.288Z","meetsCriterion":false,"cycles":5001,"wealth":3.4654236992021716,"percentSuccess":0.3949579758784094,"odds":1.6,"weights":{"nh":100,"ns":4,"na":3,"net":{"W1":{"n":100,"d":4,"w":{"0":-0.01504630348380022,"1":0.02204059178179634,"2":0.0076999869220672245,"3":0.007750490017592603,"4":-0.04172851942092972,"5":0.061124915003317536,"6":0.021354985440959512,"7":0.021495108905160206,"8":-0.05997212795915291,"9":0.0878465621750146,"10":0.030691865246360955,"11":0.03089335817726521,"12":0.05016541341402129,"13":-0.07348276994442066,"14":-0.025672835667644844,"15":-0.02584132771563268,"16":-0.026892758329191115,"17":0.039393640164851355,"18":0.013762506288892288,"19":0.013852785080871781,"20":0.031553325346129764,"21":-0.04622047839174485,"22":-0.016147616243906246,"23":-0.01625354884495971,"24":-0.08436980048842016,"25":0.12357862480795145,"26":0.043179254629156436,"27":0.04346300664380556,"28":-0.043535791812055295,"29":0.06377212837076378,"30":0.022279907112145784,"31":0.022426105855530475,"32":0.03905480662324336,"33":-0.05720855068478795,"34":-0.019986646023112828,"35":-0.02011778304839521,"36":-0.04278362338681717,"37":0.06267038688090042,"38":0.021894963615181805,"39":0.022038633790540732,"40":0.13913934017535182,"41":-0.20376988523369258,"42":-0.07121770574846896,"43":-0.07168731904373202,"44":0.06298873769581305,"45":-0.09226483718390847,"46":-0.032235783714715416,"47":-0.032447434434305866,"48":-0.01661677990118495,"49":0.024341090664737126,"50":0.008503686460676998,"51":0.008559461678431461,"52":0.7993842522031972,"53":4.799648081814248,"54":-2.389467120276835,"55":-2.864547609926548,"56":0.025026460317634218,"57":-0.03665985252154761,"58":-0.012807407191219066,"59":-0.01289141848735586,"60":0.014546383723190845,"61":-0.02130828775024486,"62":-0.00744415059224914,"63":-0.007492975492952086,"64":-0.015460385054023447,"65":0.02264715602009845,"66":0.007911895228508794,"67":0.007963788382701904,"68":0.023153894656178516,"69":-0.03391687438167679,"70":-0.01184910306074009,"71":-0.011926826321541793,"72":0.0054081116523373935,"73":-0.007922096746616022,"74":-0.0027676108314830454,"75":-0.0027857621905579577,"76":0.03792818718989386,"77":-0.055558307319113674,"78":-0.01941007276856475,"79":-0.019537423680427077,"80":-0.015615189754011664,"81":0.02287392043370585,"82":0.007991117324309752,"83":0.00804353015689031,"84":-0.05406354688666798,"85":0.07919239398937264,"86":0.027667863638899958,"87":0.027849469748402897,"88":0.001525472877398182,"89":-0.0022345965689028234,"90":-0.0007806632834134587,"91":-0.0007857832204367865,"92":-0.017808748912737662,"93":0.026087133275378892,"94":0.009113683627293303,"95":0.009173460467636273,"96":-0.00576430758310381,"97":0.008443871546803114,"98":0.0029498948468785623,"99":0.0029692417360549306,"100":0.0016877023020271382,"101":-0.0024722391364697493,"102":-0.0008636844656140301,"103":-0.0008693488932987072,"104":-0.005747295679860128,"105":0.00841895160522301,"106":0.002941188969211927,"107":0.002960478759824553,"108":0.018379804505201623,"109":-0.02692363677461082,"110":-0.009405924945876762,"111":-0.009467618958785064,"112":0.012117706960614025,"113":-0.017750651881406093,"114":-0.006201265051675999,"115":-0.0062419373455642165,"116":-0.02819570275710014,"117":0.041302211122967586,"118":0.014429304402514111,"119":0.014523959128298194,"120":-0.006749330131766854,"121":0.009886784691862296,"122":0.0034539823170962936,"123":0.00347663534249103,"124":-0.01654935058964756,"125":0.02424231750577842,"126":0.008469179133745721,"127":0.008524727985160144,"128":0.013592743928160013,"129":-0.019911353954400007,"130":-0.006956121149081852,"131":-0.007001744807240832,"132":0.07029752252608874,"133":-0.10296937767582282,"134":-0.03597653227552742,"135":-0.036212807934003874,"136":0.021752596743930062,"137":-0.03186421448875119,"138":-0.011131976426029122,"139":-0.011204994469063447,"140":-0.026762474180096463,"141":0.039202797870304514,"142":0.01369583181839079,"143":0.013785673066359218,"144":0.06795295017593114,"145":-0.09953552940361707,"146":-0.03477653284468909,"147":-0.03500490683588279,"148":-0.051033689661828134,"149":0.07475454780876432,"150":0.026117209314901718,"151":0.026288622012912443,"152":0.003947118567594251,"153":-0.005781955414132594,"154":-0.0020199447444547327,"155":-0.0020331924894622508,"156":0.0070248536148246506,"157":-0.010290385944360382,"158":-0.0035949821019473443,"159":-0.0036185599027546097,"160":0.033187634645180104,"161":-0.04861441146684881,"162":-0.01698400124473529,"163":-0.017095424040512685,"164":0.4578944298580956,"165":-0.668895535055428,"166":-0.2348161599816486,"167":-0.2364518901387679,"168":5.13051877443898,"169":6.407582644035904,"170":-5.6440736912243565,"171":-3.812044280877591,"172":0.09798449739948013,"173":-0.14351599408475588,"174":-0.050148227103837456,"175":-0.05047800449756033,"176":0.011012491904757274,"177":-0.016131680076862824,"178":-0.005635667303606066,"179":-0.005672629742770019,"180":0.043668134805843216,"181":-0.06396597798547,"182":-0.022347637460554497,"183":-0.022494281116733763,"184":-0.0612699562027534,"185":0.08974743273399002,"186":0.031356099348731875,"187":0.031561962039853876,"188":-0.05142294702077903,"189":0.07532469782237856,"190":0.02631642704412343,"191":0.026489149172670753,"192":0.026542783250435045,"193":-0.03888099098924835,"194":-0.013583402388735765,"195":-0.013672505836492562,"196":0.1295346947736264,"197":-0.18970998027932906,"198":-0.06630000980457926,"199":-0.066736879350857,"200":0.06149771490133958,"201":-0.09008101948439819,"202":-0.031472667538586074,"203":-0.031679297150078646,"204":-0.02355335468423165,"205":0.03450201357332954,"206":0.012053530507851124,"207":0.012132595105997767,"208":-0.7305315767939856,"209":2.375554498952082,"210":0.8270223494176191,"211":0.30438791588625064,"212":-0.004332227831263858,"213":0.006346084301128725,"214":0.0022170251411680326,"215":0.0022315654447823997,"216":0.0569393070836625,"217":-0.0834044835295544,"218":-0.029139665617001466,"219":-0.029330949376218853,"220":-0.05439100185203003,"221":0.07967201563777547,"222":0.027835453053357502,"223":0.02801816099649746,"224":-0.02675372572173361,"225":0.039189982987525344,"226":0.013691354690725565,"227":0.01378116655811884,"228":0.03531759539118249,"229":-0.05173435926582687,"230":-0.01807404795751862,"231":-0.018192626784994413,"232":0.04081604201311381,"233":-0.05978835242125325,"234":-0.020888001364879363,"235":-0.021025057772352654,"236":-0.13018764434032798,"237":0.19066585332011834,"238":0.06663431665842122,"239":0.06707340991799932,"240":0.0074817273618717475,"241":-0.010959638448692521,"242":-0.003828788341138782,"243":-0.0038538996137914136,"244":0.025971452824804515,"245":-0.03804409615113148,"246":-0.013291017462153325,"247":-0.013378202213999482,"248":0.026433727171089993,"249":-0.03872124380171509,"250":-0.013527591664901266,"251":-0.013616328866357089,"252":-0.12743497619493951,"253":0.1866360961835032,"254":0.06522497542910412,"255":0.06565469628315956,"256":0.0018139285354820231,"257":-0.0026571422497192994,"258":-0.0009282809547633544,"259":-0.0009343690357662873,"260":-0.037454405205183505,"261":0.054864321996818316,"262":0.01916760441947879,"263":0.019293363225292667,"264":-0.008140607673742094,"265":0.011924800408243605,"266":0.004165972005256734,"267":0.004193294789895145,"268":-0.02201953255585542,"269":0.032255229807507176,"270":0.011268583098556072,"271":0.011342497427544507,"272":0.04190965685915898,"273":-0.06139023786156068,"274":-0.02144768735989135,"275":-0.021588419694618905,"276":-0.04888284100911337,"277":0.07160415846967802,"278":0.025016432062810644,"279":0.02518061028039874,"280":-0.0159564953316579,"281":0.02337387900629909,"282":0.008165782234688676,"283":0.008219340835616672,"284":-0.027966481959510046,"285":0.04096644570961609,"286":0.014311997693754986,"287":0.014405882562587685,"288":1.4277384020045876,"289":3.610818279170382,"290":-9.392108618170278,"291":7.467371845091764,"292":0.024908023159325034,"293":-0.03648636326695346,"294":-0.012746795723215886,"295":-0.012830409295215239,"296":-0.002071394749672568,"297":0.0030342928783837534,"298":0.001060039729365445,"299":0.0010669919451859382,"300":-0.009384534634938296,"301":0.013746967887252616,"302":0.0048025550524229705,"303":0.004834053097832787,"304":0.009422448671575729,"305":-0.013802506272703437,"306":-0.004821957671302349,"307":-0.004853582977050683,"308":4.042590562783964,"309":6.84936059533578,"310":-5.880868036127981,"311":-4.22821700765004,"312":0.009620977354578666,"313":-0.014093321036334566,"314":-0.0049235553104838604,"315":-0.004955846988863574,"316":-0.018397298333679975,"317":0.0269492623758904,"318":0.009414877526150823,"319":0.009476630270641629,"320":0.012447350908951006,"321":-0.018233529777514624,"322":-0.006369961598609347,"323":-0.0064117404184623125,"324":-0.062452474173149086,"325":0.09147940373411441,"326":0.03196131973372424,"327":0.03217116446099739,"328":0.0285477977451424,"329":-0.04181796383121833,"330":-0.014609493650688792,"331":-0.014705330933313719,"332":0.011861117829783791,"333":-0.01737478800460621,"334":-0.0060699546121667156,"335":-0.006109765610741671,"336":0.13440061353667226,"337":-0.19683320019783157,"338":-0.06879137462456324,"339":-0.06924482370325666,"340":-0.01235658208089436,"341":0.01810056736105302,"342":0.006323510301086241,"343":0.006364984433651919,"344":0.01722631296326953,"345":-0.02523395875506589,"346":-0.008815618510060737,"347":-0.008873440005942052,"348":-0.0152614884813909,"349":0.022355803924140605,"350":0.007810108907254361,"351":0.007861334370080372,"352":0.06867808394896507,"353":-0.10059756091778511,"354":-0.03514766977523613,"355":-0.03537848737284825,"356":-0.030938589704589584,"357":0.04532001242362724,"358":0.0158330156732355,"359":0.01593688329858259,"360":-0.031850382578975156,"361":0.04665560794311039,"362":0.016299640046719712,"363":0.016406570525788543,"364":-0.03627562123443903,"365":0.05313766148690854,"366":0.0185643368397309,"367":0.01868613464806016,"368":-0.002391995228938791,"369":0.0035039260194126213,"370":0.001224107577436474,"371":0.0012321358269700984,"372":0.055497036046702274,"373":-0.08129201366254582,"374":-0.02840151571766877,"375":-0.0285879455413774,"376":0.031894628980934335,"377":-0.046720420063983685,"378":-0.016322283859370932,"379":-0.01642936297284731,"380":0.020793480502852197,"381":-0.030459271827270425,"382":-0.010641140892834418,"383":-0.010710938600644189,"384":-0.027557540623664976,"385":0.04036742306897292,"386":0.014102716778633565,"387":0.014195228205421311,"388":0.02563443979411694,"389":-0.03755043311327781,"390":-0.013118547275732027,"391":-0.013204600261682237,"392":0.032053474995814804,"393":-0.04695309761924711,"394":-0.016403575894310674,"395":-0.016511188613113053,"396":-0.035429746228364783,"397":0.051898636353391085,"398":0.01813144334256969,"399":0.018250398988664644}},"b1":{"n":100,"d":1,"w":{"0":0.000055641016777419614,"1":0.00015434730934656962,"2":0.0002218907262130915,"3":-0.0001855761331530275,"4":0.00009945661102710041,"5":-0.00011669750621427953,"6":0.00031232848621855306,"7":0.00016103593420254688,"8":-0.00014445287714198523,"9":0.00015825213874786292,"10":-0.0005160523765496432,"11":-0.00023306514020322234,"12":0.00006144908451667873,"13":-0.3335211483307162,"14":-0.00009255316745390246,"15":-0.0000537921986521169,"16":0.000057172395217518706,"17":-0.00008562683780406069,"18":-0.000019998516024320436,"19":-0.00014028395949869314,"20":0.00005774490447706234,"21":0.0002000089031081203,"22":-0.00000564098337985105,"23":0.00006585741670998102,"24":0.000021315696729663473,"25":-0.0000062408853918734755,"26":0.000021252788177143857,"27":-0.00006796941680657551,"28":-0.00004481056214594327,"29":0.00010427639508279256,"30":0.00002495823546161322,"31":0.00006119970900637426,"32":-0.000050265453526940714,"33":-0.00026014733629173173,"34":-0.00008044383626405463,"35":0.0000989746793653318,"36":-0.00025145835287519443,"37":0.00018879067850715203,"38":-0.000014595916964714186,"39":-0.000025977104265525022,"40":-0.00012274386212659342,"41":-0.0017511802225016635,"42":-7.843522515897696,"43":-0.0003628672289041748,"44":-0.00004072338285456414,"45":-0.0001615257477984951,"46":0.00022669803188152675,"47":0.00019023183537910795,"48":-0.00009816202824804706,"49":-0.0004802384010913805,"50":-0.00022754171250590418,"51":0.00008710435449839856,"52":-0.03190119912360989,"53":0.000016020007381640315,"54":-0.00021065813803989518,"55":0.00020122142399748143,"56":0.00009894231816189707,"57":-0.0001306244049505742,"58":-0.00015097045362200254,"59":0.00048267178727992067,"60":-0.000027666599162289576,"61":-0.00009604865995036496,"62":-0.00009775862429882101,"63":0.0004724145429975395,"64":-0.000006707652677876444,"65":0.00013853083635043643,"66":0.000030103113060630858,"67":0.00008143114425513224,"68":-0.00015501766869718088,"69":0.00018082800950109214,"70":0.00005900714846717528,"71":0.00010342846187579698,"72":5.414467523844032,"73":-0.00009211507818542592,"74":0.000007659727711095778,"75":0.00003470314036879123,"76":-0.00003484334677353655,"77":-11.191583570416828,"78":-0.00003557750815596938,"79":0.00006803411654829125,"80":-0.00004602962304376033,"81":0.00023107852137322932,"82":-0.00010557887412940812,"83":-0.0000438616693958722,"84":-0.0004983771671438447,"85":0.00004569394911701677,"86":-0.00006370334767854142,"87":0.000056436824246198814,"88":-0.00025414555978702316,"89":0.0001144232807237772,"90":0.00011779648924728855,"91":0.00013416913610672695,"92":0.000008845265326647401,"93":-0.0002053170648514223,"94":-0.00011796018257675874,"95":-0.00007689642299565339,"96":0.00010191571913024503,"97":-0.00009480205225408324,"98":-0.00011854784867953346,"99":0.00013103936144859762}},"W2":{"n":3,"d":100,"w":{"0":0.00005505139972509,"1":0.0001527233403673083,"2":0.00021957656671168593,"3":-0.00018363074169821711,"4":0.00009840514382271013,"5":-0.00011546534581193019,"6":0.00030912585633417555,"7":0.0001593428241715349,"8":-0.00014293146186978472,"9":0.00015658778642966097,"10":-0.000511075827160426,"11":-0.00023063873931267905,"12":0.00006079807231368794,"13":-0.1658318577130887,"14":-0.00009157423865524979,"15":-0.00005322213362839015,"16":0.00005656658632755093,"17":-0.00008472078447867874,"18":-0.000019786399756837475,"19":-0.00013880584763123688,"20":0.000057133042978623796,"21":0.00019791625360374415,"22":-0.000005581144179026163,"23":0.00006515983542572609,"24":0.000021089613867104122,"25":-0.000006174682629437654,"26":0.000021027372341251426,"27":-0.00006724953438045616,"28":-0.000044335536209194805,"29":0.00010317434446793729,"30":0.000024693533650392223,"31":0.00006055133197110506,"32":-0.000049732696313508634,"33":-0.0002574515941810221,"34":-0.00007959237491716691,"35":0.00009792827282033017,"36":-0.0002488485941638639,"37":0.00018681241378897998,"38":-0.000014441093995344746,"39":-0.00002570160144329011,"40":-0.00012144850617278105,"41":-0.0017514256566863746,"42":-0.2856684774189007,"43":-0.00035919123982720554,"44":-0.00004029163239593306,"45":-0.00015982758059673234,"46":0.00022433550975095386,"47":0.00018823884654219943,"48":-0.00009712415630859892,"49":-0.0004755453268440675,"50":-0.00022517071443777225,"51":0.00008618274770357593,"52":0.1122820716153529,"53":0.000015850081224957155,"54":-0.00020845741175173026,"55":0.00019911644348454783,"56":0.00009789625145282171,"57":-0.00012924683028974832,"58":-0.00014938144910831976,"59":0.0004779590199147072,"60":-0.000027373187339816447,"61":-0.00009503298956244455,"62":-0.00009672498950428583,"63":0.0004677852011301176,"64":-0.000006636498636482524,"65":0.00013707095048676296,"66":0.00002978387673853024,"67":0.00008056927997908571,"68":-0.00015338676325108127,"69":0.00017893125047360433,"70":0.000058381943899007765,"71":0.00010233530652379447,"72":-0.4821053951285929,"73":-0.00009114075595861637,"74":0.000007578474543198094,"75":0.000034335159441471686,"76":-0.00003447388037698012,"77":0.3928808251219876,"78":-0.00003520026365699366,"79":0.00006731355104454406,"80":-0.00004554169265554636,"81":0.00022867202967121944,"82":-0.00010446316301473503,"83":-0.0000433966890341003,"84":-0.0004935387964713524,"85":0.00004520957188073925,"86":-0.00006302851834638604,"87":0.00005583879246360817,"88":-0.0002515091645793475,"89":0.00011321491447996131,"90":0.0001165528353959511,"91":0.00013275463580005937,"92":0.000008751436793934321,"93":-0.00020317048061497094,"94":-0.00011671481704275513,"95":-0.0000760823534897708,"96":0.00010083843725633829,"97":-0.00009379948224083825,"98":-0.0001172963386990618,"99":0.00012965746229820884,"100":-0.00003298881249474497,"101":-0.00009158542387786361,"102":-0.00013179589288662014,"103":0.0001101618937545015,"104":-0.00005898233279885103,"105":0.0000692171669777922,"106":-0.0001858661098904187,"107":-0.00009556222774426124,"108":0.0000857043350741101,"109":-0.00009390696746929563,"110":0.0003091344756717283,"111":0.00013846087458168062,"112":-0.000036433317546739326,"113":0.3917054687699779,"114":0.000054885398662892703,"115":0.00003189241790597323,"116":-0.00003389697776320681,"117":0.00005077550574884388,"118":0.000011855587996257816,"119":0.00008322700153289506,"120":-0.00003423650219825268,"121":-0.00011875555955989622,"122":0.0000033440581900573577,"123":-0.000039047895217743936,"124":-0.000012636470715692559,"125":0.0000036996899982402544,"126":-0.000012599175640078076,"127":0.000040300583516451484,"128":0.000026566438411977192,"129":-0.00006184308568506711,"130":-0.00001479595612946347,"131":-0.000036285418298642966,"132":0.000029801042334572623,"133":0.00015463138545572058,"134":0.00004770043604943496,"135":-0.00005869630337912979,"136":0.00014944049650826992,"137":-0.00011207543708466913,"138":0.000008652736973458818,"139":0.000015400002313729044,"140":0.00007280762595020143,"141":0.0011593938042697993,"142":-2.817403495171884,"143":0.00021623109753251773,"144":0.000024142975134064977,"145":0.00009585349169038263,"146":-0.00013466272330573713,"147":-0.00011293341259465347,"148":0.000058213997230603196,"149":0.0002872812885031896,"150":0.0001351659265524826,"151":-0.00005165217333759427,"152":0.32948249950307734,"153":-0.000009496981211842957,"154":0.00012510013274406368,"155":-0.000119477788208802,"156":-0.000058677096920802256,"157":0.00007748821697074354,"158":0.00008957804416873036,"159":-0.00028876331811206586,"160":0.000016401644068142824,"161":0.00005695976158608243,"162":0.00005797458151340123,"163":-0.0002825189210653472,"164":0.000003976397561742421,"165":-0.0000821853302842557,"166":-0.000017846186697501847,"167":-0.000048286180877503776,"168":0.00009198394979796821,"169":-0.00010733593869871193,"170":-0.00003498508062872739,"171":-0.00006133977595614641,"172":-0.8792905795177008,"173":0.00005462543057270016,"174":-0.00000454080444122278,"175":-0.00002057348758035159,"176":0.000020656615824487826,"177":7.234783343536981,"178":0.000021091900992401603,"179":-0.00004033895946957221,"180":0.000027289291667433033,"181":-0.00013727566240746933,"182":0.00006261622182981092,"183":0.000026003790314494852,"184":0.00029833818872251346,"185":-0.000027090249808175386,"186":0.0000377702971641359,"187":-0.00003346075406598555,"188":0.00015104557306774808,"189":-0.00006786683880976213,"190":-0.00006986972173789431,"191":-0.00007959395192088495,"192":-0.000005243613438129349,"193":0.0001219176334920158,"194":0.0000699669213615625,"195":0.00004559593561568934,"196":-0.000060441879559025933,"197":0.000056219956860124567,"198":0.00007031587586194849,"199":-0.00007773470836114026,"200":0.000003938289455633251,"201":0.00001093728980314599,"202":0.0000157456050504307,"203":-0.000013157929369994624,"204":0.000007042220603892583,"205":-0.000008264700315996221,"206":0.000022222210377813316,"207":0.00001141258694198896,"208":-0.000010234481812933342,"209":0.000011214748836905314,"210":-0.000037057052330476874,"211":-0.00001654319225074444,"212":0.000004349550198502445,"213":0.043622879565469466,"214":-0.0000065529279295787475,"215":-0.000003807386841911737,"216":0.000004046719639760163,"217":-0.0000060621173811685776,"218":-0.0000014152901993597475,"219":-0.00000993846168942079,"220":0.000004087257312137846,"221":0.00001418561715328153,"222":-3.992029056077961e-7,"223":0.000004661730017390131,"224":0.0000015085113100284372,"225":-4.4165713633652946e-7,"226":0.0000015040590502878117,"227":-0.000004811303652078247,"228":-0.0000031715152270225797,"229":0.000007383896154755094,"230":0.0000017663101728830657,"231":0.000004331891316360369,"232":-0.000003557693154302534,"233":-0.000018479113993170142,"234":-0.0000056949053974108,"235":0.000007008059393068386,"236":-0.000017857532405227268,"237":0.00001338674053459441,"238":-0.0000010329388616766166,"239":-0.000001838421449633289,"240":-0.000008693609059095465,"241":-0.000144196061456778,"242":-0.27807067421154125,"243":-0.00002586644970401035,"244":-0.0000028821849584364998,"245":-0.000011447399915663472,"246":0.000016088650642971523,"247":0.000013489336831051958,"248":-0.000006950456709703662,"249":-0.000034418536760072555,"250":-0.000016148867645840298,"251":0.000006166808154974085,"252":-0.12387205804542842,"253":0.0000011337230947427344,"254":-0.000014944520973852506,"255":0.00001427199847276718,"256":0.0000070057655231201596,"257":-0.000009252788142736884,"258":-0.000010697390764841288,"259":0.0000345973448863506,"260":-0.000001957998248956705,"261":-0.000006800663140041466,"262":-0.000006921863025647566,"263":0.000033844077610019394,"264":-4.746896440198226e-7,"265":0.00000981399581584579,"266":0.0000021304498554265036,"267":0.0000057648514505897225,"268":-0.000010984918453275136,"269":0.000012820040352152232,"270":0.000004176634621426448,"271":0.000007323781930002151,"272":-0.616625179384885,"273":-0.000006521881228380571,"274":5.420668525977254e-7,"275":0.0000024560423696100777,"276":-0.000002465966517214432,"277":-0.002386497083974426,"278":-0.0000025179324956984273,"279":0.000004815885853978921,"280":-0.0000032578155397109623,"281":0.000016401345968749056,"282":-0.000007476238844912426,"283":-0.0000031043418666825554,"284":-0.00003575301095065866,"285":0.0000032340521999629393,"286":-0.000004509184139308205,"287":0.000003994636700349372,"288":-0.0000180497181573739,"289":0.00000810340042015408,"290":0.000008342650974017113,"291":0.000009504372846426153,"292":6.259661588049768e-7,"293":-0.000014563828028229695,"294":-0.00000835426199623561,"295":-0.000005443603171774046,"296":0.000007216540365334638,"297":-0.0000067123094951832635,"298":-0.000008395946678923995,"299":0.000009282237363271828}},"b2":{"n":3,"d":1,"w":{"0":2.2040002734473125,"1":7.049362115100956,"2":1.4395396738639876}}}}},"weights":{"nh":100,"ns":4,"na":3,"net":{"W1":{"n":100,"d":4,"w":{"0":-0.015231231528510959,"1":0.02763000462209862,"2":0.0068492562277685555,"3":0.006810438661102222,"4":-0.04218481083760818,"5":0.07649619625191155,"6":0.018973860860209416,"7":0.018867201783724235,"8":-0.06053677635860057,"9":0.10972500896926746,"10":0.027235160799161825,"11":0.027083575546214617,"12":0.050681194834233494,"13":-0.09188570299413758,"14":-0.02279779960942043,"15":-0.022670176606799788,"16":-0.027211006778287004,"17":0.049355690811775633,"18":0.012237225992686139,"19":0.012168058216154213,"20":0.03191898564796251,"21":-0.05789119653094075,"22":-0.014355021914532248,"23":-0.014274002817806239,"24":-0.0849528237318138,"25":0.15384808070555187,"26":0.03823824397514584,"27":0.03802936695802456,"28":-0.0440061005507905,"29":0.07979582658228106,"30":0.01979346103957012,"31":0.019682286710306085,"32":0.03948915598067204,"33":-0.07161181000033659,"34":-0.01776088020696446,"35":-0.01766092381628676,"36":-0.04324817968311664,"37":0.0784227470286381,"38":0.019452382042189208,"39":0.019343085368305795,"40":0.1392897007773525,"41":-0.2514984598102423,"42":-0.06280184026633344,"43":-0.06248025750052499,"44":0.06356375325220877,"45":-0.11520107750059308,"46":-0.028598438151979547,"47":-0.02843958003146163,"48":-0.01682024171265861,"49":0.030512151269691184,"50":0.007563862564127043,"51":0.007521006536118851,"52":-3.2073664713891024,"53":-0.7753094978427422,"54":4.271652928452092,"55":3.767014102633972,"56":0.02532482842172987,"57":-0.04593561386284323,"58":-0.011388828164002822,"59":-0.011324422104153936,"60":0.014725367896522032,"61":-0.026712447462996725,"62":-0.006621763319590652,"63":-0.006584232051039657,"64":-0.015650220632460413,"65":0.028389977294369144,"66":0.00703768170358213,"67":0.0069977989724426684,"68":0.02343184698496581,"69":-0.04250296350377095,"70":-0.01053740349577039,"71":-0.010477783409313669,"72":0.005475578374742087,"73":-0.009933381744864482,"74":-0.0024622178766874224,"75":-0.0024482486009066605,"76":0.03835287411472075,"77":-0.06955269800800128,"78":-0.017249612239302343,"79":-0.017152487941932536,"80":-0.01580685626891096,"81":0.02867408499448753,"82":0.007108123277667827,"83":0.007067842398586766,"84":-0.054601471966525573,"85":0.09898336896221527,"86":0.02456262339765516,"87":0.024425419632291834,"88":0.0015445419594344624,"89":-0.0028020103309468716,"90":-0.0006945356839683254,"91":-0.0006905946955286894,"92":-0.018026127726510268,"93":0.03269931338577322,"94":0.00810618140363291,"95":0.008060262828906395,"96":-0.00583619630772038,"97":0.010587577197134284,"98":0.002624379354587874,"99":0.0026094903835969688,"100":0.0017087984945039537,"101":-0.00309999374754413,"102":-0.0007683971354895623,"103":-0.0007640370489362614,"104":-0.005818973301556231,"105":0.010556333059593538,"106":0.002616634564023819,"107":0.002601789516077568,"108":0.018603802010401814,"109":-0.03374703946652104,"110":-0.008365980172066946,"111":-0.008318595217788443,"112":0.012267540212318736,"113":-0.0222541994358104,"114":-0.0055164676765158795,"115":-0.005485190138072743,"116":-0.028527537811158563,"117":0.051742716038692634,"118":0.012829418882963375,"119":0.012756931933066108,"120":-0.00683342520315865,"121":0.012396635112005758,"122":0.003072811442279606,"123":0.0030553795291057033,"124":-0.016752021143959732,"125":0.030388415020809183,"126":0.007533182243552461,"127":0.0074904995315714755,"128":0.013760334270108391,"129":-0.024962000887143645,"130":-0.0061877799775151825,"131":-0.006152703385455118,"132":0.07088824008104594,"133":-0.12844526497142494,"134":-0.03189811398451548,"135":-0.03172184431385628,"136":0.02201498314568672,"137":-0.03993353884823975,"138":-0.009900147125548134,"139":-0.009844113585592607,"140":-0.027079350588133135,"141":0.049116975782789236,"142":0.012178006278731647,"143":0.01210917063287333,"144":0.06854009461888681,"145":-0.12420036827301464,"146":-0.03084013112582764,"147":-0.030669413497373038,"148":-0.05155470602525973,"149":0.093467378205997,"150":0.02319100994381752,"151":0.0230612468255326,"152":0.003996410026038241,"153":-0.0072500105058874885,"154":-0.0017970728958729787,"155":-0.0017868765353091214,"156":0.0071123565889109315,"157":-0.012902637251115913,"158":-0.0031982412337786393,"159":-0.0031800981354437063,"160":0.033569102968552866,"161":-0.06088241277871681,"162":-0.015097355559510143,"163":-0.015012195287452214,"164":0.40242089199640185,"165":-0.4848754986187871,"166":-0.21843827161248605,"167":-0.21954226998315432,"168":6.744160978585738,"169":4.647095592320416,"170":1.3407822230264583,"171":-1.769877920352026,"172":0.09851399410157231,"173":-0.178299805955421,"174":-0.04435732211222805,"175":-0.044118181191421656,"176":0.01114892275430857,"177":-0.020225074937223763,"178":-0.005013429928292751,"179":-0.004985000612239019,"180":0.04413944354772575,"181":-0.08003738923038645,"182":-0.019853468910584395,"183":-0.01974196444175564,"184":-0.06183934001182421,"185":0.11208164400553797,"186":0.027821778524883163,"187":0.02766705832735182,"188":-0.05194625444198723,"189":0.09417632538439336,"190":0.023367269796972578,"191":0.023236548357354295,"192":0.026857340605681436,"193":-0.04871443119743698,"194":-0.012078145296505718,"195":-0.012009869800898191,"196":0.12979524392837463,"197":-0.23450516126620155,"198":-0.05849989196504427,"199":-0.05819622392273264,"200":0.062067886976895185,"201":-0.112495109465361,"202":-0.027924710029042947,"203":-0.02776944059508968,"204":-0.023835699977417614,"205":0.04323531209684902,"206":0.010719045718839816,"207":0.010658404012675642,"208":-0.27208053764929757,"209":2.2147551820726017,"210":-2.274376037720258,"211":5.071605289666482,"212":-0.004386315516585269,"213":0.007957343782050645,"214":0.001972403275691476,"215":0.0019612123059358916,"216":0.05749128670774981,"217":-0.10421398301246576,"218":-0.02586375084942504,"219":-0.025719525592891732,"220":-0.0549306262010206,"221":0.09957920521226961,"222":0.024710815174144293,"223":0.024572809854176255,"224":-0.027070509911990198,"225":0.049100946091506045,"226":0.012174029697760862,"227":0.0121052163556998,"228":0.03571898088786378,"229":-0.06477919819590142,"230":-0.016064565546214035,"231":-0.01597402061506157,"232":0.041265004232956,"233":-0.07482964233238423,"234":-0.018559957487167735,"235":-0.018455582895975497,"236":-0.1304409953716733,"237":0.23566202658724822,"238":0.058792326581531856,"239":0.05848741363752176,"240":0.007574874657255925,"241":-0.013741675960792628,"242":-0.003406226686626701,"243":-0.0033869044129208586,"244":0.02627994748023205,"245":-0.04766749596110354,"246":-0.011818433808020092,"247":-0.011751615607043138,"248":0.026747130801248506,"249":-0.0485145994306842,"250":-0.012028572663886421,"251":-0.011960575275549307,"252":-0.12771833272427005,"253":0.23078333543632942,"254":0.05755949077070937,"255":0.05725985221090589,"256":0.0018366017941839135,"257":-0.0033318460157056797,"258":-0.0008258666244524435,"259":-0.0008211804521649255,"260":-0.037874956880294686,"261":0.06868660177127497,"262":0.01703457969104665,"263":0.016938647719624444,"264":-0.008241879317226542,"265":0.014951659455043561,"266":0.003706166869797452,"267":0.003685144314822326,"268":-0.022284902417938124,"269":0.04042303559435114,"270":0.010021546202560731,"271":0.00996482913493847,"272":0.042367383271664394,"273":-0.07682697951227813,"274":-0.01905601809492615,"275":-0.01894890589770263,"276":-0.049390577867716064,"277":0.08954858535722662,"278":0.022216855296728164,"279":0.022092399753763925,"280":-0.016152191259019698,"281":0.02930045435622812,"282":0.007263426500878374,"283":0.007222267931927626,"284":-0.028295944791396025,"285":0.051322819960799064,"286":0.012725244022928288,"287":0.012653340679161051,"288":-0.4804409964218565,"289":0.834763269265438,"290":0.22134709530539656,"291":0.22094908928586596,"292":0.025205113574136163,"293":-0.045718535027506516,"294":-0.01133498189463882,"295":-0.011270878301907261,"296":-0.0020972842638766224,"297":0.003804758608861084,"298":0.0009430881110037929,"299":0.0009377368238278192,"300":-0.009501089139291754,"301":0.017235909095072225,"302":0.004272414976341967,"303":0.004248183336731946,"304":0.00953946776179712,"305":-0.017305528632296126,"306":-0.004289673360457005,"307":-0.0042653439310741436,"308":4.038902166147255,"309":6.84490301065503,"310":-5.884647308868037,"311":-4.21849642275462,"312":0.009740427901165073,"313":-0.017670073467771462,"314":-0.004380042693555032,"315":-0.004355201230404371,"316":-0.018621498082764417,"317":0.03377913452389522,"318":0.008373938702439484,"319":0.008326508835715415,"320":0.012601165930788921,"321":-0.022859374656668464,"322":-0.005666498878732038,"323":-0.005634372091309123,"324":-0.06302581114218983,"325":0.11422800211069538,"326":0.028356146699194958,"327":0.028198577907279584,"328":0.028883261425278823,"329":-0.05238766266147359,"330":-0.01298943109232243,"331":-0.012916047964622507,"332":0.01200784664439065,"333":-0.021783129808828187,"334":-0.005399684046523681,"335":-0.005369067636093532,"336":0.1346064195713413,"337":-0.24312063450632942,"338":-0.06067921528964251,"339":-0.060366363974024645,"340":-0.012509301450152752,"341":0.022692738864054103,"342":0.005625187449133917,"343":0.005593294493179706,"344":0.01743690829837966,"345":-0.03163063163308963,"346":-0.007841192680564818,"347":-0.007796770277599182,"348":-0.015448968623417183,"349":0.028024942373170582,"350":0.006947175632810989,"351":0.006907804502960361,"352":0.06926648176681198,"353":-0.12551361341369738,"354":-0.031167397828379045,"355":-0.03099495961069825,"356":-0.031298189973879814,"357":0.056765802256495454,"358":0.01407575463314267,"359":0.013996295272529801,"360":-0.032218949189643825,"361":0.05843496658126297,"362":0.014489963256284447,"363":0.014408190849835615,"364":-0.03668570299864363,"365":0.06653130162856706,"366":0.016499504269573927,"367":0.01640654219134367,"368":-0.0024218885732049805,"369":0.004393633372552703,"370":0.0010890535031056706,"371":0.0010828740243216904,"372":0.056042212732874304,"373":-0.10159128761648573,"374":-0.025211289701253633,"375":-0.0250705808367486,"376":0.032263627243087574,"377":-0.05851595773266003,"378":-0.014510062177679693,"379":-0.014428177588832873,"380":0.02104507846559255,"381":-0.038174588972206845,"382":-0.00946392692763185,"383":-0.009410350542665782,"384":-0.027882752069930537,"385":0.05057365968739659,"386":0.012539383606938874,"387":0.012468521787746385,"388":0.02593933698392887,"389":-0.0470498866365587,"390":-0.011665228679938933,"391":-0.011599270475010267,"392":0.03242402023927573,"393":-0.058806712368303385,"394":-0.014582216953082086,"395":-0.014499929673870272,"396":-0.03583215829732248,"397":0.06498432741017274,"398":0.01611548464776299,"399":0.01602465659759827}},"b1":{"n":100,"d":1,"w":{"0":-0.0005393743318319519,"1":-0.0014906420641445611,"2":-0.0021335029996082697,"3":0.0017888986233366216,"4":-0.0009629233356746962,"5":0.0011290871372628733,"6":-0.0029791450352087937,"7":-0.0015546584441515337,"8":0.0013958173014566404,"9":-0.0015280234768543883,"10":0.004800071212736573,"11":0.00223900725354004,"12":-0.0005956026489470369,"13":0.8366589866450063,"14":0.0008963005636625515,"15":0.0005214715187224324,"16":-0.000554201730840055,"17":0.0008294106696383716,"18":0.0001939579951374856,"19":0.0013558206844010894,"20":-0.0005597446242397532,"21":-0.0019261624882855764,"22":0.000054713452866265026,"23":-0.0006382654919405222,"24":-0.0002067307622290966,"25":0.000060531988523963187,"26":-0.00020612074364662273,"27":0.0006587002150666291,"28":0.0004344723458101238,"29":-0.0010094084036346,"30":-0.00024205051000999547,"31":-0.0005931888631068172,"32":0.00048731534182562205,"33":0.002493572765226722,"34":0.0007793283559034235,"35":-0.0009582739406374076,"36":0.0024120786663937768,"37":-0.0018195041221237714,"38":0.00014156510587698087,"39":0.00025192932432621234,"40":0.0011872785398220006,"41":-0.0122758119798167,"42":10.323952954030357,"43":0.0034426324226591995,"44":0.0003948693550976124,"45":0.0015593436344196196,"46":-0.0021789239520793144,"47":-0.0018332191746197402,"48":0.0009504334167008404,"49":0.004489667034348103,"50":0.0021868903087560823,"51":-0.0008436832679629773,"52":2.4616608192513856,"53":-0.00015537604603818199,"54":0.002027188339902481,"55":-0.001937676409122725,"56":-0.0009579617300808804,"57":0.0012630532316305237,"58":0.0014582960191939804,"59":-0.004510900488138267,"60":0.0002683097985052643,"61":0.0009300403232517428,"62":0.0009465410918202867,"63":-0.0044212589964514395,"64":0.0000650592148734753,"65":-0.0013389938104825117,"66":-0.00029193148689103107,"67":-0.0007888703092340979,"68":0.0014970611839140156,"69":-0.0017436580107237122,"70":-0.0005719646478164604,"71":-0.0010012321850616773,"72":-0.012924221124973403,"73":0.0008920711264010939,"74":-0.00007429344386632597,"75":-0.0003365228357951976,"76":0.000337881838844527,"77":-11.201365370871724,"78":0.00034499785287967226,"79":-0.000659326169412998,"80":0.00044628300678145133,"81":-0.002220269784331744,"82":0.001021966076558601,"83":0.0004252786709951855,"84":0.004647447305671711,"85":-0.0004430309596826642,"86":0.0006174205331351838,"87":-0.0005470798229337454,"88":0.002437300552885837,"89":-0.001107188042203797,"90":-0.001139667305997495,"91":-0.0012971106197767293,"92":-0.00008579193460457958,"93":0.001976547018900774,"94":0.0011412430954412208,"95":0.0007450372419014569,"96":-0.0009866436110450131,"97":0.0009180089948254344,"98":0.0011468999794554437,"99":-0.0012670409600886382}},"W2":{"n":3,"d":100,"w":{"0":0.0006561187292977073,"1":0.001813663450795405,"2":0.0025964953325349404,"3":-0.002176784869797762,"4":0.0011714232385315148,"5":-0.0013736180354625006,"6":0.003627396075651626,"7":0.0018915924062305038,"8":-0.0016982395122531577,"9":0.001859168296154202,"10":-0.005854306414100305,"11":-0.0027250337955707204,"12":0.0007245223424622411,"13":-0.9788878289520407,"14":-0.0010903601091010774,"15":-0.0006343396530738355,"16":0.0006741566153642468,"17":-0.0010089751359493506,"18":-0.00023593259177561945,"19":-0.0016495573159149176,"20":0.0006808997025717737,"21":0.0023439427163343364,"22":-0.00006655378333004185,"23":0.0007764240930222834,"24":0.00025146966231237404,"25":-0.00007363149152446837,"26":0.00025072762190361364,"27":-0.0008012844061925815,"28":-0.000528505480247191,"29":0.0012279858521768623,"30":0.00029443351221196195,"31":0.0007215858623059387,"32":-0.000592788446612878,"33":-0.0030352633751867916,"34":-0.0009480418955548297,"35":0.0011657659886277197,"36":-0.0029359356992148125,"37":0.002214053345754088,"38":-0.00017220099016561946,"39":-0.00030645039729087977,"40":-0.0014444333536178255,"41":0.01291757182219665,"42":0.8029828307143745,"43":-0.004193152033410842,"44":-0.00048032948057578656,"45":-0.0018972960194625743,"46":0.0026518303759719562,"47":0.0022307546823129407,"48":-0.0011562259022649248,"49":-0.00547379024629697,"50":-0.002661535936076251,"51":0.0010263403595289333,"52":-0.40489058214431917,"53":0.00018900081825204543,"54":-0.002466989129373879,"55":0.0023579655004534157,"56":0.0011653861004097257,"57":-0.001536651268619009,"58":-0.0017742895685179626,"59":0.005499805542864727,"60":-0.00032637613896988526,"61":-0.001131412486996825,"62":-0.0011514898692557716,"63":0.005389990014623423,"64":-0.00007913844299525354,"65":0.0016290768754761101,"66":0.00035511043021293847,"67":0.0009596511035704141,"68":-0.0018214774029061697,"69":0.0021216976100626433,"70":0.0006957657564862481,"71":0.0012180369794099414,"72":0.01614640829219984,"73":-0.0010852140585617394,"74":0.00009037103048702255,"75":0.00040935334752222605,"76":-0.00041100650774633765,"77":1.542045671439058,"78":-0.00041966279616684275,"79":0.0008020459281631168,"80":-0.0005428729416489792,"81":0.0027022040089301706,"82":-0.0012432662100059669,"83":-0.0005173215697174459,"84":-0.005667152054743529,"85":0.0005389168786803847,"86":-0.0007510649159284017,"87":0.0006654926319284344,"88":-0.0029666755262147625,"89":0.0013469689956720186,"90":0.001386493211731783,"91":0.0015781010257607054,"92":0.00010435789052284235,"93":-0.0024053074944253958,"94":-0.0013884108237367163,"95":-0.0009063221051843034,"96":0.0012002856451762765,"97":-0.0011167734425243888,"98":-0.0013952948259588034,"99":0.0015415044974126703,"100":0.00017919095159620442,"101":0.0004952613228181906,"102":0.0007089195848455265,"103":-0.0005943806545546306,"104":0.0003199109542577206,"105":-0.00037512084793976685,"106":0.0009900908741828243,"107":0.0005165348107142491,"108":-0.0004637507406101974,"109":0.0005076835957173171,"110":-0.0015962395114498863,"111":-0.0007439910117486822,"112":0.00019787165403641508,"113":-0.27515378364787296,"114":-0.0002977753956010615,"115":-0.00017324314063004272,"116":0.00018411703564280275,"117":-0.00027555142033470966,"118":-0.00006443604454504343,"119":-0.0004504600530360142,"120":0.00018595854522409627,"121":0.0006400018046743733,"122":-0.000018176684929848193,"123":0.00021204561089229252,"124":0.00006867938314791194,"125":-0.000020109696187575664,"126":0.0000684767241483334,"127":-0.00021883471155928542,"128":-0.0001443397931079119,"129":0.000335355928280156,"130":0.00008041324178681979,"131":0.00019706972018270695,"132":-0.00016189554987864794,"133":-0.0008286218728255002,"134":-0.0002589119202036613,"135":0.0003183661714635757,"136":-0.0008015275526094944,"137":0.0006045524733076208,"138":-0.00004703022805411914,"139":-0.00008369516682730756,"140":-0.00039445623001187555,"141":0.004030718242477856,"142":-2.029195981160277,"143":-0.0011442722025716986,"144":-0.00013118276238585335,"145":-0.0005180917820602737,"146":0.0007240180371945801,"147":0.0006091107539381881,"148":-0.00031576112540572916,"149":-0.0014928262911241986,"150":-0.000726666185777911,"151":0.0002802934232195436,"152":-0.7031522238061796,"153":0.00005161845562627733,"154":-0.0006735808008464555,"155":0.0006438287188071676,"156":0.0003182624381386228,"157":-0.00041963455754478557,"158":-0.00048451250205300105,"159":0.0014998990571614408,"160":-0.00008913706823293979,"161":-0.0003089854597547471,"162":-0.0003144678864092746,"163":0.001470041140049822,"164":-0.000021613713813179546,"165":0.00044486861682169833,"166":0.00009698464779475556,"167":0.0002620821548357844,"168":-0.0004973944574778272,"169":0.0005793450751379142,"170":0.0001900183957676215,"171":0.00033263931208884763,"172":0.004329949842139795,"173":-0.00029637016752729787,"174":0.00002468147400314798,"175":0.00011179879022017286,"176":-0.0001122502791909893,"177":5.587346966105757,"178":-0.00011461436735020132,"179":0.00021904267495542596,"180":-0.00014826357901383825,"181":0.00073776220347492,"182":-0.00033952832992062686,"183":-0.0001412854365198845,"184":-0.0015453866722468497,"185":0.00014718317016391944,"186":-0.00020512023914136525,"187":0.00018175093383952952,"188":-0.0008099129182163708,"189":0.00036784447263968226,"190":0.0003786363189413472,"191":0.00043095130350123207,"192":0.000028501459305997116,"193":-0.0006567484134674296,"194":-0.00037915990716530827,"195":-0.00024751903129832783,"196":0.00032779215171396136,"197":-0.0003049880305245088,"198":-0.0003810395243667597,"199":0.0004209596119194348,"200":-0.0003415796104691172,"201":-0.0009438342000596479,"202":-0.0013505735243736746,"203":0.0011325761720740552,"204":-0.0006097718458471103,"205":0.0007149717051008614,"206":-0.0018850831686599257,"207":-0.0009843493352812162,"208":0.0008838167571666466,"209":-0.0009674926889040039,"210":0.0030325431982468043,"211":0.001417297322343828,"212":-0.00037718610168734973,"213":-0.13575846560129146,"214":0.0005675895604746531,"215":0.00033024255199249144,"216":-0.0003509690987630556,"217":0.0005252367075115343,"218":0.00012283430378126818,"219":0.000858500303328979,"220":-0.00035447913904906197,"221":-0.0012194199338875107,"222":0.000034650341118540846,"223":-0.00040420183248999624,"224":-0.00013092328084750036,"225":0.00003833525046031565,"226":-0.00013053695712651335,"227":0.0004171417289693193,"228":0.0002751490175562824,"229":-0.0006392030153661691,"230":-0.00015329116714311885,"231":-0.00037565758906629834,"232":0.0003086127943656635,"233":0.001578251416090469,"234":0.0004935250767960789,"235":-0.0006068281246870184,"236":0.0015267316274694498,"237":-0.0011519407045023687,"238":0.00008965384412484483,"239":0.00015954737091540512,"240":0.0007518106483083354,"241":-0.009813029155038814,"242":-0.6492452532839138,"243":0.002177693067094303,"244":0.0002500694253508613,"245":0.0009873144406775459,"246":-0.0013793001187127048,"247":-0.0011606182074497063,"248":0.0006018639531121207,"249":0.0028374158966172547,"250":0.001384338285970597,"251":-0.0005342738422700154,"252":-0.23809972240947486,"253":-0.00009840033935842787,"254":0.001283328106829858,"255":-0.0012267039305112215,"256":-0.0006066304512136401,"257":0.0007997787623559016,"258":0.0009233619510240881,"259":-0.002850771538521822,"260":0.0001699210239411985,"261":0.000588952113989463,"262":0.0005993995476672334,"263":-0.0027943805884046735,"264":0.00004120236630073876,"265":-0.0008478492454900608,"266":-0.00018488044758354895,"267":-0.0004995670036884987,"268":0.0009478968801996088,"269":-0.0011039506596869301,"270":-0.00036221745388621097,"271":-0.0006340264482479022,"272":-0.007934100256612724,"273":0.0005649116379343199,"274":-0.00004705044973035126,"275":-0.00021311962512278644,"276":0.0002139802622078183,"277":-0.37069475277228137,"278":0.00021848672789622024,"279":-0.00041753810101510623,"280":0.0002826283702882989,"281":-0.0014054479097454053,"282":0.0006471535426410149,"283":0.0002693269120748548,"284":0.0029366315592630468,"285":-0.00028056894435674344,"286":0.00039100206390949314,"287":-0.00034645913775213405,"288":0.0015426773351190626,"289":-0.000701107791215508,"290":-0.0007216697451924166,"291":-0.0008213374695951746,"292":-0.00005433249826920136,"293":0.0012512937444517957,"294":0.0007226673341211415,"295":0.0004718118719968656,"296":-0.0006247899997801412,"297":0.0005813344412320736,"298":0.0007262485432453635,"299":-0.0008023030668242575}},"b2":{"n":3,"d":1,"w":{"0":1.0564849578656288,"1":8.695691819446113,"2":1.8070198497144978}}}}}