{"numStates":1,"sensitivity":18.064945034840242,"alpha":0.063050112463867,"gamma":0.009105181159764886,"epsilon":0.3118359287683944,"cycles":6721,"max":{"lastUpdatedDate":"2017-11-15T11:17:37.565Z","meetsCriterion":false,"cycles":374,"wealth":2.9191504344889196,"percentSuccess":0.3578078731949815,"odds":1.5555555555555556,"weights":{"nh":100,"ns":4,"na":3,"net":{"W1":{"n":100,"d":4,"w":{"0":0.015958854079791092,"1":-0.0016707222495838925,"2":0.040257152551965464,"3":0.005846473753446234,"4":-0.09296824914270065,"5":-0.13145622195124856,"6":0.20084566523750608,"7":0.051993662682089874,"8":-0.0036337785081643715,"9":0.04663984563147755,"10":-0.07806948516624024,"11":-0.014754021000397077,"12":-0.043919179891268215,"13":0.022267525720552704,"14":-0.11254641595797456,"15":-0.014060877059606179,"16":-0.08186233747729857,"17":-0.05808021623576816,"18":0.015234453224510997,"19":0.01612945038779178,"20":0.9793330022985677,"21":9.772944766392976,"22":-9.141729231719708,"23":-18.234131297526417,"24":-0.18040075228317176,"25":-0.1549855314288889,"26":0.0162777393122036,"27":0.026784475365791788,"28":0.048399208223693854,"29":0.10122297976811236,"30":-0.1568419386699944,"31":-0.03786944738278773,"32":-0.014744414233170794,"33":-0.05455986790542326,"34":0.05125897727411124,"35":0.011312539702074133,"36":-0.058988819210225904,"37":0.00965348480636439,"38":-0.16162213799932473,"39":-0.02133608578274105,"40":0.013936112040660068,"41":0.04583972488778053,"42":-0.08019331732711533,"43":-0.018166340930874634,"44":-0.042908972451284284,"45":-0.04068687613736462,"46":0.005285038385818236,"47":0.007692574743729198,"48":0.09752720549273003,"49":0.06692941881575142,"50":0.015517271444770496,"51":-0.011651138926928093,"52":0.007585204467093003,"53":-0.02801831049107502,"54":0.0946021935653258,"55":0.017846564656057887,"56":-0.05990647286351317,"57":-0.04425654776065571,"58":0.03663488188240733,"59":0.017375623413982754,"60":-0.12482464593658123,"61":-0.047754854766700966,"62":-0.14083989206086375,"63":-0.004671967521985134,"64":0.1151511076851949,"65":0.10073158863659476,"66":-0.020492627649760647,"67":-0.020557085758913827,"68":-0.10317961079456263,"69":-0.10505814158698235,"70":0.07999647600945914,"71":0.030893723687169146,"72":0.08952454322652977,"73":0.09685710196320785,"74":-0.05423581790419397,"75":-0.024082315587379503,"76":0.042515186304420534,"77":0.022334279474764258,"78":0.0061039778751869065,"79":-0.006420496205213944,"80":0.1890954235859683,"81":0.10570800976944965,"82":0.12411653777317233,"83":-0.01072361920757896,"84":-0.0209624171833108,"85":-0.02635218953050933,"86":0.04836958069253456,"87":0.013008782015980819,"88":0.1733856154051933,"89":0.24536617683346523,"90":-0.3081242599284415,"91":-0.06857882702917996,"92":0.0950017883938444,"93":0.021912886589370035,"94":0.07697317013200229,"95":-0.0010158008861994418,"96":-0.033996426957120296,"97":0.00774870641543328,"98":0.002291579955510849,"99":0.008102186073172805,"100":-0.06702452202592095,"101":-0.05058836527256583,"102":0.0011023486978446353,"103":0.011323392892947953,"104":-0.10108388280036208,"105":-0.11653865856599473,"106":0.13827808685666876,"107":0.042298338873190656,"108":-0.00285994592090749,"109":0.07317485301194625,"110":-0.13871469485051457,"111":-0.02581095780426533,"112":0.10049640164383203,"113":0.12415916822498042,"114":-0.05353922297142229,"115":-0.023893629902736187,"116":-0.21226940652385315,"117":-0.22638356285707462,"118":0.2069019875262985,"119":0.05765886708512402,"120":0.03485404339006242,"121":0.06108913692368138,"122":-0.09231696792034162,"123":-0.02413761727283071,"124":0.3189583174047314,"125":0.2814099457697173,"126":-0.13858135106257843,"127":-0.04464091072186373,"128":0.016994661935448116,"129":0.05446974347273111,"130":-0.13658226431131432,"131":-0.030524322234865203,"132":0.025934175979754906,"133":0.012442037634844635,"134":0.013117604918650107,"135":-0.0013377537489044776,"136":-0.09625250020399893,"137":-0.10653697928874063,"138":0.07672622109241545,"139":0.02956779076616212,"140":0.004019695807452665,"141":0.020242121425350423,"142":-0.03257817162451909,"143":-0.007164057048756658,"144":0.47826971977727245,"145":0.3939976045658084,"146":-0.1945755093343829,"147":-0.022423341634543167,"148":0.08714509012446846,"149":0.11027815771550498,"150":-0.08854245486802238,"151":-0.029418306345559985,"152":0.005722758711188403,"153":-0.0032504259572982913,"154":0.054533939536203946,"155":0.010979076434350614,"156":-0.053628801811051494,"157":-0.03729901802334883,"158":0.049736304253896316,"159":0.019737388870173574,"160":-0.08958641710415785,"161":-0.09520594362516668,"162":0.045236655776505826,"163":0.021517742798578016,"164":-0.17119209297149954,"165":-0.16271350948960075,"166":0.14446690765629713,"167":0.049997422191638705,"168":0.14965293083330927,"169":0.1430515869846907,"170":-0.1148840270233928,"171":-0.04227766364576234,"172":-0.1271075384543649,"173":-0.062099603571827484,"174":-0.08600290115321772,"175":0.0043548627072835955,"176":0.08164478104850251,"177":0.16022929594331542,"178":-0.29128173056601553,"179":-0.064814608701599,"180":0.03958127202007104,"181":0.056524401255850114,"182":-0.03973747653189949,"183":-0.013632754962260069,"184":0.0070615554298616235,"185":0.0020693188606755266,"186":-0.0030190981295902656,"187":-0.0022776126862866083,"188":0.004866099579638385,"189":-0.012516321188292519,"190":0.05014460261078511,"191":0.009626546750929462,"192":0.0731529333329561,"193":0.10911836359299117,"194":-0.11927265903463243,"195":-0.03381119147049988,"196":0.0563982389508282,"197":-0.020358794271705442,"198":0.08812117702673877,"199":0.0067985207626186685,"200":-0.09737290338928273,"201":-0.07216283235680396,"202":0.02798040876744467,"203":0.021724290989651,"204":-0.08204273918972727,"205":-0.03405742354168148,"206":-0.03346165104155555,"207":0.007149743654257074,"208":-0.24926604113889267,"209":-0.2623964101519879,"210":0.22956673563015922,"211":0.05790211718255909,"212":-0.04532981041628946,"213":-0.03683885303114787,"214":0.03450375185066108,"215":0.014766460735000469,"216":0.12315675026051348,"217":0.12560905160634953,"218":-0.10670036164245524,"219":-0.03842056470738299,"220":0.05986922729534977,"221":0.016666232245366803,"222":0.029947218694312383,"223":-0.004673143302276283,"224":-0.10553460510730152,"225":-0.07821038015761123,"226":0.015441708169594028,"227":0.019791139232605146,"228":0.015613260127647995,"229":-0.01103548344256052,"230":0.011653696799224227,"231":-0.00022601528679433775,"232":0.02881936884644468,"233":0.01765369055972792,"234":-0.0007385431875158675,"235":-0.004699897542595527,"236":0.0007103902357699884,"237":-0.01596443100252103,"238":-0.02009105812413012,"239":-0.005053050582560667,"240":-0.11992431665464112,"241":-0.10625033596837322,"242":0.009097725587651968,"243":0.018657156378570763,"244":-0.1436351785998254,"245":-0.10861653494483878,"246":-0.003191988872864566,"247":0.02043543875585492,"248":0.03444891922693847,"249":0.01745032459188262,"250":0.016162490055729412,"251":-0.0023030564230128183,"252":-0.17500446213479898,"253":-0.16748541832740005,"254":0.11255310249171362,"255":0.04345465181862261,"256":0.0774382297187391,"257":0.046816118648310624,"258":-0.01840754092723186,"259":-0.017050921487750285,"260":0.11948923936389694,"261":0.18991131215386764,"262":-0.29871817959003377,"263":-0.06852723049331837,"264":0.00004429901311647395,"265":0.035809520160383676,"266":-0.0419076356503474,"267":-0.007922255383261242,"268":-0.03849527663261596,"269":-0.055747542104695305,"270":0.06969858592546833,"271":0.02030674758987197,"272":-0.024859867115153013,"273":-0.015660274382701376,"274":0.01575506294384966,"275":0.007917822312451101,"276":0.11238089783925811,"277":0.13382065334923873,"278":-0.1941385209765756,"279":-0.053937769524906205,"280":0.10843163967092397,"281":0.10441344536375347,"282":-0.026391103157615337,"283":-0.020386227285473072,"284":0.06355150237296445,"285":0.0783066247964566,"286":-0.07016681358407938,"287":-0.023540526812638064,"288":-0.08152481533044481,"289":-0.12790129493179173,"290":0.16546431313305318,"291":0.04368182830007363,"292":0.07193232245803556,"293":0.12875825394480914,"294":-0.14894017689913466,"295":-0.03884602051810916,"296":-0.04181767736812231,"297":-0.10876091712323432,"298":0.15876848685193878,"299":0.03671473889561738,"300":0.2305279131873253,"301":0.2443742155552713,"302":-0.17901685436674086,"303":-0.051631813307267134,"304":-0.004512368138753138,"305":-0.010749992413795106,"306":0.013929138310005782,"307":0.0033440566719631073,"308":0.08736645378609778,"309":0.07214263411432412,"310":0.009998050707961484,"311":-0.010866760599734003,"312":-0.2069021527367869,"313":-0.16046600202169586,"314":0.009723230221703074,"315":0.029665136783209697,"316":-0.028890353176962594,"317":-0.016538241660156387,"318":0.018625494838833263,"319":0.008683585850882428,"320":-0.013310799077062037,"321":0.05887152465451286,"322":-0.1429366127215402,"323":-0.02544343729876961,"324":0.12677397932519377,"325":0.18415680044704863,"326":-0.17324486413156043,"327":-0.04689217546237987,"328":-0.030064097184107384,"329":0.0001065615952873228,"330":-0.05089403247224901,"331":-0.0057081627704011284,"332":-0.21339119555722066,"333":-0.08197378956198317,"334":-0.9045206234425873,"335":0.6551212039578163,"336":0.07482570041525614,"337":0.014002133801795404,"338":0.07186545515529415,"339":0.0013188614568944322,"340":0.06432721136196368,"341":0.042865649579704145,"342":-0.008286392378517362,"343":-0.012470579575810456,"344":-0.30554178323745307,"345":-0.2522670106804982,"346":0.14493708924181864,"347":0.049869901553941706,"348":0.06721786916297944,"349":0.06532642216718143,"350":-0.07021021339920437,"351":-0.025418384159213287,"352":0.1356405645976294,"353":0.15808046703789302,"354":-0.1085121902346138,"355":-0.03844717287351572,"356":0.02499721330093364,"357":-0.00786721753307364,"358":0.05038356898080241,"359":0.005958999520019003,"360":0.21001219850753888,"361":0.20090714934557516,"362":-0.13507353464830668,"363":-0.04858901189074338,"364":-0.1223495077702983,"365":-0.053481439499571924,"366":-0.13035033387979272,"367":-0.0034485586333619727,"368":0.2548780524437257,"369":0.4508148872853226,"370":-0.8487061369623171,"371":-0.013735846164030747,"372":-0.03859724478078465,"373":-0.016914106141016082,"374":0.02041274103792301,"375":0.011228076412045918,"376":-0.07054188754044279,"377":-0.0814643021753543,"378":0.14186472145900994,"379":0.03961853825780636,"380":-0.09037118908682105,"381":-0.09006225515403297,"382":0.06409551567334056,"383":0.02726478726896381,"384":-0.0479169619024407,"385":-0.04316013801153164,"386":0.051479608657600796,"387":0.018172872466324888,"388":-2.3325600828853927,"389":0.41983304421548606,"390":-3.182636704991434,"391":-2.021257564341982,"392":-0.19962877642948854,"393":-0.18611401337536995,"394":0.12169135145373229,"395":0.046843001669738336,"396":0.12027490391069,"397":0.12732772903112136,"398":-0.08143168610086536,"399":-0.0322644969661804}},"b1":{"n":100,"d":1,"w":{"0":-0.002621025558142515,"1":-0.030254721075885525,"2":0.008714782794681953,"3":0.00874617355138552,"4":-0.009006803582939458,"5":-1.8838827485560015,"6":-0.02067498479498538,"7":0.02166908213433527,"8":-0.008008339275058486,"9":0.012144108977439167,"10":0.010009550184571336,"11":-0.004890330349834962,"12":0.007713524335056893,"13":-0.009225298424663242,"14":-0.008883876190762838,"15":0.004606670259350715,"16":0.013795052726163772,"17":-0.01856232112233751,"18":0.01482054215371347,"19":0.002876625784436999,"20":0.002497296730829306,"21":-0.006822225283889101,"22":0.05422702505701759,"23":-0.0004466747882942699,"24":-0.0016534269957146233,"25":-0.006323442601690258,"26":-0.02415418779183406,"27":0.015675768244697172,"28":0.016967949040406292,"29":-0.04653394252303227,"30":0.013024178172101419,"31":0.05460263812520686,"32":0.015612321085496629,"33":0.0010242433484770482,"34":-0.017728185749935007,"35":0.004000791213908275,"36":0.092075918185495,"37":0.018597229058818367,"38":-0.004521198141758512,"39":-0.009226099822425683,"40":-0.014132541196619964,"41":-0.0325478153468311,"42":0.027166600286675998,"43":-0.002136697359353139,"44":0.039795304566470825,"45":0.00852352028824217,"46":0.0006877533413831294,"47":-0.004658909419957347,"48":0.020291379093534137,"49":-0.005648431203478793,"50":-0.01160397743411103,"51":-0.003411634832582064,"52":-0.055371084402496926,"53":-0.007397939498642509,"54":0.02340519753249622,"55":0.0015536101115375155,"56":-0.011394205889942291,"57":-0.00043625020372418163,"58":0.002652820578121602,"59":0.0010953335664729386,"60":-0.013347219731715354,"61":-0.013742397012389041,"62":0.0014380287124363558,"63":-0.030275601522181596,"64":0.008341137902362239,"65":0.044971260121629206,"66":0.005273306359577975,"67":-0.010963617034539703,"68":-0.0034840146111065795,"69":0.031000273400626385,"70":0.014096830215744248,"71":0.013736729983705091,"72":-0.02595419316933376,"73":0.023817774796563523,"74":-0.02180243037743326,"75":0.046947502788789126,"76":-0.0020159349855069356,"77":0.0078105388642691785,"78":-0.02203154993443553,"79":-0.00416825259403606,"80":0.01477987744760291,"81":0.033275652706055044,"82":0.0026157187476028893,"83":0.25408197214657674,"84":-0.0015080053986989946,"85":0.006494853939230653,"86":-0.051446429530848006,"87":0.013191503701705224,"88":0.026244593774255434,"89":-0.003299160908760539,"90":0.037405299381988374,"91":0.003365245396028644,"92":0.15714246147021008,"93":-0.0048372650048359184,"94":-0.02075676700631985,"95":-0.015263612370655067,"96":-0.009468433355294905,"97":-0.35912630466072537,"98":-0.03418951996912289,"99":0.02111395907246978}},"W2":{"n":3,"d":100,"w":{"0":-0.014735793207614034,"1":0.02582194990986563,"2":0.008402635014782502,"3":0.03701944678735083,"4":0.04344979276227927,"5":0.3372929957675486,"6":0.105845452912822,"7":-0.009037353589559587,"8":0.006653079480655676,"9":0.05561353935975193,"10":0.001344547052939803,"11":0.025244376773573347,"12":-0.058283536823073225,"13":-0.016935861833846377,"14":0.026926600826735043,"15":0.09058266084639743,"16":-0.06535918155091247,"17":0.048961120857983396,"18":-0.04646628399367341,"19":-0.02367656817694428,"20":-0.12608036980670392,"21":0.004419423196036019,"22":-0.06525594496852036,"23":-0.06055857947233662,"24":0.012397234488416406,"25":0.03828493822349677,"26":0.038568526669433556,"27":0.014849147806059226,"28":-0.05690655887580306,"29":0.09791830963877547,"30":-0.008141144246484744,"31":-0.17354116381070353,"32":0.009717213273882277,"33":-0.01626824169200435,"34":0.04674135754624112,"35":0.0009804235939798091,"36":-0.27103086422802575,"37":-0.04137472795298344,"38":-0.012968944988751433,"39":0.020110249876651946,"40":0.04818100102388723,"41":0.07771315490316068,"42":-0.07013459137344363,"43":0.08391622935172839,"44":-0.009429465670521239,"45":-0.01997683018602251,"46":-0.0027252236938491436,"47":-0.009860765659118685,"48":-0.02883335810274609,"49":-0.03789714590856881,"50":0.05015129513625072,"51":0.048595963224909625,"52":0.11888469260481131,"53":0.019576739950589683,"54":-0.05643204901338128,"55":-0.03488975569142033,"56":0.05753019636360916,"57":-0.007084644273974645,"58":-0.01570588695894258,"59":0.006849987388023734,"60":0.0708504537658937,"61":0.08405591431403825,"62":-0.021459759928155155,"63":0.08685121226750399,"64":-0.0385494635612572,"65":-0.030846427880462674,"66":0.0015789477853654114,"67":0.013197943976164441,"68":0.010410801016956918,"69":-0.035984008318461685,"70":-0.06198640072965112,"71":-0.028422784048802465,"72":0.026994932892564914,"73":-0.02622999304785631,"74":0.0073014869532229704,"75":-0.1157318099327133,"76":0.0012293733032665809,"77":-0.05376092420757504,"78":0.11993266808225309,"79":0.011881253329381444,"80":0.022998388740179565,"81":-0.05697510515357464,"82":0.023293661241070285,"83":0.06510799645562766,"84":-0.04926969031701232,"85":-0.034218045719380794,"86":0.15917329421214654,"87":-0.027294609712616283,"88":-0.06812177812382646,"89":-0.01943022921269033,"90":-0.10518071869187672,"91":0.08859107724346985,"92":-0.0852728291902757,"93":0.015671682260243604,"94":0.01770090386618515,"95":0.043345198333805714,"96":0.018607318277098883,"97":-0.7431241169978317,"98":0.09989758164693617,"99":-0.06068709823904933,"100":0.007452863095920145,"101":0.013772011744521712,"102":-0.009364635430402819,"103":-0.020306167520481488,"104":-0.009373348806562484,"105":-0.18058508339864754,"106":-0.023355033287715495,"107":-0.01295603193498292,"108":0.0032700366682565348,"109":-0.029983691023803303,"110":-0.00791832879118126,"111":-0.005877806286602727,"112":0.01586904331246306,"113":0.013242159224834658,"114":-0.0032670232561118435,"115":-0.0373384423539132,"116":0.013947870404467351,"117":-0.004180646172410033,"118":0.006322440616097354,"119":0.006711246198952486,"120":0.04503198926089663,"121":0.00357580577317376,"122":-0.0197656132520456,"123":0.022668917087453888,"124":-0.003141739073537022,"125":-0.009653435487247428,"126":0.004074307665518844,"127":-0.017098074201213783,"128":0.008689859844809973,"129":0.0010862317636384994,"130":-0.006683030236617876,"131":0.018092437065130314,"132":-0.01541772691513801,"133":0.005266522658278432,"134":-0.0041704266367807545,"135":-0.0032737336535893593,"136":0.01378434397990877,"137":0.0014616285416117376,"138":0.0083153946339852,"139":-0.00044068322411956273,"140":-0.007396515423444581,"141":-0.0034530117985868457,"142":0.0050398646503732065,"143":-0.02960483051608806,"144":-0.027696226462365185,"145":0.0012220387048191572,"146":0.0005095795813901327,"147":0.0071680906018077185,"148":-0.004494620630001606,"149":0.018101840269566148,"150":-0.009976569661231763,"151":-0.015442542943754968,"152":0.001483003897264615,"153":-0.001719141194204447,"154":0.0031212120678493216,"155":0.011749833158429668,"156":-0.012850770587341857,"157":0.00267901551019054,"158":0.0038213692575617096,"159":-0.0036620013751088635,"160":-0.016360250204128627,"161":-0.020795289730427,"162":0.006925151860198494,"163":-0.008701170332154009,"164":0.008026803956720212,"165":-0.02425748008149501,"166":-0.004262089841577658,"167":0.0032176041396426067,"168":-0.001256769640085512,"169":-0.010652611956861329,"170":0.012546064062374131,"171":0.0003511594221665997,"172":0.009659774178224006,"173":-0.00808455429646266,"174":0.013578256585690179,"175":0.005028291558437343,"176":0.0010333124246450168,"177":0.014270235180792346,"178":-0.027218741880669695,"179":-0.0011784658187032615,"180":-0.019522876671633053,"181":-0.004405217144403343,"182":-0.010561380248569046,"183":-0.3752909973816011,"184":0.01937814905756796,"185":0.00788582850356257,"186":-0.01585414565679725,"187":0.0002511786835722796,"188":0.005411249368163939,"189":0.009623450186724197,"190":0.009418504286209722,"191":-0.035730716807658346,"192":-0.12866023762118026,"193":-0.0020592269386829096,"194":0.009363501602797237,"195":-0.004786162335311192,"196":0.0002838784667923996,"197":0.4882320049511941,"198":-0.010212048776356399,"199":0.006570437965526433,"200":-0.004057711375329092,"201":0.013864307375613717,"202":0.01916263911226859,"203":-0.014199208647377315,"204":0.004755841932635345,"205":0.002119797300149645,"206":0.01023785414219062,"207":-0.002546167013376179,"208":0.007899235145987832,"209":0.007951245787284945,"210":-0.0019722739490899053,"211":-0.006156906524883674,"212":-0.019333995871743836,"213":0.004415690138909197,"214":0.006902171370849284,"215":0.009659947444489498,"216":-0.011506847273908001,"217":0.006202516962691093,"218":0.013536089220482153,"219":0.01948591373272213,"220":0.004864519211146197,"221":0.021650020070003276,"222":0.0017482634849092242,"223":-0.01881367589508499,"224":-0.017329767911851614,"225":-0.020707608149026564,"226":-0.003199287292514243,"227":-0.0019341773602729172,"228":0.010681273675415166,"229":0.003566167204029917,"230":0.0012310255639093072,"231":-0.0056642291432385215,"232":0.002917668201334028,"233":-0.008328338209554503,"234":-0.0179460786145492,"235":0.004027930910838958,"236":0.016730899412351487,"237":-0.011967077535947054,"238":-0.0043421287282932285,"239":-0.002985720571785173,"240":0.013308759789712358,"241":-0.011363907977082116,"242":-0.014405221229709511,"243":0.010498595172223681,"244":0.015333622343255474,"245":-0.0013180813348015017,"246":0.011418158129152936,"247":-0.0012354323607462094,"248":-0.005742620173437584,"249":0.0026511405390491614,"250":-0.023559040094756217,"251":0.0009347441639866899,"252":0.0128316685227452,"253":-0.0025655435728555716,"254":-0.0010989865099429478,"255":0.010258968190123098,"256":-0.009367768538057628,"257":-0.030063250037463643,"258":-0.00943398918189178,"259":-0.014794284270072455,"260":0.012740282392130164,"261":0.009522996173810631,"262":-0.0005588783639404174,"263":-0.0015221147569098382,"264":0.010696283459297778,"265":0.005272574824239457,"266":0.013798667602115598,"267":-0.006072762975038226,"268":-0.010380619449669781,"269":-0.001398793270535242,"270":-0.009458624282655722,"271":-0.003501445322914101,"272":0.00007411504384334412,"273":0.009213212459618167,"274":-0.0033543191916250506,"275":-0.004117559396189644,"276":0.004495504932590058,"277":-0.0075280640060030836,"278":0.002372068578583988,"279":0.012564200648254073,"280":0.004764134937599507,"281":-0.008925305396531075,"282":0.01413716067517135,"283":0.0006983345650070584,"284":-0.0006045913684889657,"285":0.008568155364974343,"286":0.009532725290096515,"287":0.01082462031492944,"288":0.01745518049643332,"289":-0.004172783478284849,"290":0.015521917860337629,"291":-0.005556520934652302,"292":-0.01741950299265238,"293":0.0029791100244422513,"294":0.020113913835931387,"295":-0.029675273356153924,"296":0.016326416535143072,"297":-0.0027889023936387134,"298":-0.020022561770568627,"299":-0.01041452634088677}},"b2":{"n":3,"d":1,"w":{"0":-0.1331350558333417,"1":0.18278929487120227,"2":0.0004483136690243902}}}}},"weights":{"nh":100,"ns":4,"na":3,"net":{"W1":{"n":100,"d":4,"w":{"0":0.034315104085159136,"1":-0.014944411918714158,"2":0.03257798155903925,"3":-0.0116514071323078,"4":0.005176422273381476,"5":-0.06461867770406692,"6":-0.0067110071718668295,"7":0.00214438837899104,"8":-0.006705618997667812,"9":0.02289774604202693,"10":-0.013760040552812837,"11":-0.00027925860497080663,"12":-0.12074987848552883,"13":-0.03437639129920248,"14":-0.08230828112107355,"15":0.05221912888311112,"16":-0.06547810275989592,"17":-0.010034045510009231,"18":-0.05621020498771908,"19":0.02623737115020252,"20":2.896859349773404,"21":21.25729213103801,"22":-20.809801081226727,"23":-39.72953279342006,"24":-0.04843701478108308,"25":-0.0018767325037813015,"26":-0.04621350390166631,"27":0.018378078591420773,"28":-0.0846023867058555,"29":-0.022275325301745287,"30":-0.06766516812724477,"31":0.035275719666960775,"32":0.0240319696121711,"33":0.0033540809867725176,"34":0.028698769322772884,"35":-0.008535478572748353,"36":-0.001152971747836334,"37":-0.014341635980717216,"38":-0.00023457990959854956,"39":0.001748874548338824,"40":-0.04766510257318859,"41":0.009741586691983474,"42":-0.04020130063814716,"43":0.017718315317134397,"44":0.007760318536044634,"45":0.0734618120843008,"46":0.017464993758292018,"47":-0.007877591479985697,"48":0.0059956925997738655,"49":-0.020884914658516166,"50":0.013128638129502749,"51":0.0003880962226064289,"52":0.0769022430072672,"53":0.012823084302637842,"54":0.06082926056716994,"55":-0.03151143126860689,"56":-0.0018580284105518068,"57":0.0028255958343020096,"58":-0.005365192436517208,"59":0.000019254491933907166,"60":-0.0022212649333256617,"61":0.018609377745135484,"62":-0.0002660032604862633,"63":-0.0005479102439067857,"64":0.03381398880134299,"65":-0.006291923362059813,"66":0.035998608968569386,"67":-0.011728023335591033,"68":-0.00603827322890901,"69":0.009144687790389886,"70":-0.01131556233531129,"71":0.0008039017511151087,"72":-0.0019742070201706923,"73":-0.06591918785255037,"74":-0.012307370825956336,"75":0.005063869228409917,"76":0.004902833315578843,"77":-0.08402340783247077,"78":-0.014073208452550008,"79":0.003027399285046148,"80":0.07099278992307054,"81":-0.34920156101578037,"82":1.1192239245237825,"83":-0.24435765033544424,"84":0.03921996841250193,"85":0.1046226886040728,"86":0.0751526780403306,"87":-0.01890852331081236,"88":-0.07171661673702623,"89":-0.013886437314463505,"90":-0.059975939972966213,"91":0.029171809696309465,"92":0.006707638602736869,"93":-0.019662149428195514,"94":0.013404645771481765,"95":-0.000022826374932831514,"96":-0.061463442373029704,"97":-0.027849835066362606,"98":-0.05861216577539325,"99":0.025357826807343234,"100":-0.03068795344230532,"101":0.0445397270989277,"102":-0.01485714481103141,"103":0.009417379030033535,"104":0.008531838066673781,"105":-0.01821964845915349,"106":0.014232901199454176,"107":-0.0009249788499966977,"108":-0.07536172083374577,"109":-0.015489111499755398,"110":-0.061215494968495404,"111":0.030921859071996842,"112":-0.000761976484211921,"113":-0.06694700307146803,"114":-0.011620257135195189,"115":0.00464240414251389,"116":-0.003560997717121347,"117":-0.038437667607945696,"118":-0.0052014614587277295,"119":0.004360303237821148,"120":-0.012411665693962046,"121":0.037165610692067065,"122":-0.010923767421603111,"123":0.0016242413261358733,"124":0.06635228992221125,"125":0.010592128586594078,"126":0.056739017081411394,"127":-0.02664957297525997,"128":-0.05648541982197804,"129":-0.009906589938625903,"130":-0.05236116053428761,"131":0.022255585454676027,"132":0.020866740603048786,"133":-0.008743471482462352,"134":0.027093201163128865,"135":-0.006225279257963944,"136":-0.03161532251337177,"137":0.006129343147040566,"138":-0.03221781065393215,"139":0.011060846804868489,"140":-0.0038094040767284528,"141":0.007574331847199718,"142":-0.007701701998280738,"143":0.00028160581982967337,"144":0.04844343295088928,"145":0.015406124952987562,"146":0.04891904316148629,"147":-0.01911761142723743,"148":-0.005504418352677315,"149":-0.0032261430342839085,"150":-0.00352239697846628,"151":0.0025047985601255513,"152":0.022981772892399856,"153":-0.02440328103210962,"154":0.022810541339272735,"155":-0.006462514080026023,"156":-0.004185744737484418,"157":-0.006342164439712047,"158":-0.004530356078030434,"159":0.002017793641546041,"160":-0.025875793885472245,"161":0.013044128153343604,"162":-0.029997074237912917,"163":0.007999736948600542,"164":-0.01826876670929666,"165":-0.005293741824462949,"166":-0.021057048516087785,"167":0.006772436938361731,"168":-0.0012535161480476972,"169":-0.007612754503661104,"170":0.003655610539221256,"171":0.0016822139379091433,"172":0.5024679520843328,"173":0.6057738055003988,"174":-0.7576261474933315,"175":-0.13801216601815017,"176":0.005617669683791298,"177":-0.0010356208611726032,"178":0.0024825471925577257,"179":-0.002318435205393415,"180":0.0008796767440667442,"181":-0.0038307148876525416,"182":0.0014219919720522192,"183":0.00007212386795016028,"184":0.008816763592749317,"185":0.001403500012973376,"186":0.007837001770045926,"187":-0.0034328603948439946,"188":0.015720762411306835,"189":-0.035172896097773076,"190":0.01376277839894175,"191":-0.003071112182358621,"192":-0.01516364793045561,"193":0.027126041962074215,"194":-0.014632831475019875,"195":0.0033482010730048277,"196":0.07813209782160965,"197":0.013650114997975783,"198":0.06120379402589794,"199":-0.032124522890554084,"200":-0.08389244616202433,"201":-0.0006298237109608891,"202":-0.055845831569376156,"203":0.03444265237917369,"204":-0.0710599125335714,"205":-0.013729608921549445,"206":-0.05916250061271813,"207":0.028914037180691913,"208":-0.004252104267418804,"209":-0.07373731382743326,"210":-0.015746118026677865,"211":0.006409792779002575,"212":-0.005590616651557134,"213":-0.00156178879988917,"214":-0.006764300593174517,"215":0.002021919533581518,"216":0.005592280061946108,"217":-0.0017598188874597966,"218":0.008220824329902596,"219":-0.0015696579280887798,"220":0.1158222802088773,"221":0.035282015401643774,"222":0.08177888848990897,"223":-0.04996122832411639,"224":-0.09499074635247459,"225":-0.0183464717457415,"226":-0.06853251558742834,"227":0.039919393451731344,"228":-0.015261092497646732,"229":-0.005364729166694594,"230":-0.009797373700689924,"231":0.006636296315994145,"232":0.0007258820355706981,"233":-0.009101907317181177,"234":0.005282313963497205,"235":0.001047535250345049,"236":-0.7015914886929081,"237":-0.7508975603822837,"238":0.7830122288755021,"239":-0.040911971431354305,"240":-0.02651953254284735,"241":0.00917250416670687,"242":-0.03089456378220903,"243":0.008515160437789377,"244":-0.0483263566516796,"245":-0.0003241881852226504,"246":-0.04528642321273631,"247":0.018297575427353465,"248":0.02426907013118087,"249":-0.027753898688897032,"250":0.021559796704846392,"251":-0.0069489727729941135,"252":-0.04947814824810962,"253":0.010416476846503847,"254":-0.040508978955419106,"255":0.01851063089224565,"256":0.07765268681842392,"257":0.00432500756689671,"258":0.056715180430389846,"259":-0.03163442944625364,"260":-0.04262835265886328,"261":-0.0014976144630985979,"262":-0.04310583391791085,"263":0.015853902249632026,"264":0.0020029220503177546,"265":0.007859810295921737,"266":-0.002945281427023239,"267":-0.001979990814724191,"268":0.0013240025911842304,"269":-0.009657380621925208,"270":0.005038471621919367,"271":0.0007786580951773942,"272":-0.01026231494310304,"273":-0.0015877690549920115,"274":-0.010454706421997586,"275":0.0038364898998288375,"276":0.00032013856588897514,"277":0.054550009628186354,"278":0.004994083089783723,"279":-0.004157006931938955,"280":0.04644582405152404,"281":-0.00006082541611711994,"282":0.0446733668396067,"283":-0.017424510702884456,"284":-0.0014473760034167476,"285":-0.0005164094858803278,"286":-0.0009747181625173146,"287":0.0006245638761578488,"288":0.06796147636542292,"289":0.009396969517699206,"290":0.05669997482043697,"291":-0.02734125882952645,"292":-0.03840138008366556,"293":0.005135712748373896,"294":-0.038932574952929754,"295":0.013732194659144138,"296":0.0512783951384269,"297":0.002837444819516121,"298":0.04705985079831058,"299":-0.019731925435955387,"300":0.0008311134168087069,"301":-0.0012005418701218796,"302":0.0019395985345245334,"303":-0.00006778229435990324,"304":0.004792792119522315,"305":-0.00019264633064851802,"306":0.004955735621424355,"307":-0.0017020300416223078,"308":0.04892330533153788,"309":0.003214233933049315,"310":0.046754907901172996,"311":-0.018658229096028094,"312":-0.005637949510615153,"313":-0.006274964225576374,"314":-0.0072342338400485165,"315":0.0023907725916964408,"316":0.005493089118388678,"317":-0.0013827100206392367,"318":0.002866620105389124,"319":-0.00218359749343415,"320":-0.05047654036260579,"321":-0.0005982915381877571,"322":-0.0457819909449282,"323":0.01930264441381909,"324":-0.028534316883663507,"325":0.026594206965956366,"326":-0.02302498573019757,"327":0.00893716539186435,"328":-0.025663510390187664,"329":0.012797461378055867,"330":-0.029663003655221818,"331":0.007950146635195296,"332":0.10459925226927054,"333":0.04011569131999325,"334":0.08081991463806106,"335":-0.044972331920721836,"336":0.0770401053263854,"337":0.01580266367882747,"338":0.06216378126692115,"339":-0.03166872219831359,"340":0.04386654873811941,"341":-0.02165950519291653,"342":0.03254148796765598,"343":-0.01573872235368195,"344":-0.03746196520454121,"345":0.00759946268859602,"346":-0.03671706252437189,"347":0.013310363704555945,"348":0.00866709582577071,"349":0.004906872354790336,"350":0.007610255423486474,"351":-0.0036857308713284676,"352":-0.004937717270083655,"353":-0.15698603245112377,"354":-0.04469588050402003,"355":0.010158147803051468,"356":0.06468202747285913,"357":0.009442410667769494,"358":0.05569708274118583,"359":-0.0258589671244919,"360":0.010433562202981863,"361":-0.07004428227187194,"362":-0.005762285211194714,"363":0.00015582057818753643,"364":-0.004720436802754084,"365":0.007497743656821224,"366":-0.002424708281777533,"367":0.001343300165855501,"368":0.06300263897364526,"369":-0.020113104672493547,"370":0.04085823085810451,"371":-0.024275628732149786,"372":-0.0025684826525393485,"373":-0.0023021560309498595,"374":-0.004645522594333427,"375":0.0008821687527721679,"376":0.0010134393891727332,"377":-0.06494090647055693,"378":-0.01080932901219816,"379":0.0037176194975854834,"380":0.0077525437655251404,"381":0.07169519261023176,"382":0.02088350283116303,"383":-0.007342094180276663,"384":0.010988784761130724,"385":-0.004655633010228056,"386":0.009207037220509808,"387":-0.0038030284343847547,"388":-3.128105633755029,"389":2.1849853162429245,"390":-2.7724174896253233,"391":-1.3409765819429271,"392":-0.06579642003206022,"393":0.011325624856880972,"394":-0.04444045566291498,"395":0.025916463342163704,"396":0.028689196271313167,"397":-0.00824029226658103,"398":0.032772622160473726,"399":-0.009439512640919412}},"b1":{"n":100,"d":1,"w":{"0":-0.002257623667009376,"1":0.00014659425710847416,"2":0.0010010171163612645,"3":0.005392115216500659,"4":0.003759905597382186,"5":-4.3672738855094515,"6":0.0031050444282615004,"7":0.004479237925433643,"8":-0.001872171505122538,"9":-0.000040787339257066275,"10":0.0027645660087992634,"11":-0.0008180614691871312,"12":-0.000947931578670187,"13":-0.0040688705731315,"14":0.00035724621102880557,"15":0.0000929070441178265,"16":-0.0024372588917791573,"17":0.0007723694906091414,"18":0.0005147255339408364,"19":0.0005317644201427189,"20":-0.1941294865615111,"21":-0.004397867324316341,"22":0.003999166831522439,"23":-0.0009605026157718437,"24":0.003781397841190981,"25":0.0012173517837396966,"26":-0.001009418576492374,"27":0.00407293561994972,"28":0.00046354382779755806,"29":0.0001804020191784357,"30":0.0008919516879329339,"31":-0.0037933906929403303,"32":0.003482516630907014,"33":-0.0018309697428736877,"34":0.002171706416657575,"35":0.0005290151290810251,"36":-0.0031931488295906508,"37":0.00021754185451729682,"38":-0.00163440349993636,"39":0.00026903177810822285,"40":0.0020605416975451934,"41":0.0013521624331376406,"42":-0.0002641424259811959,"43":0.127756221149262,"44":-0.00016761395766048178,"45":-0.00010695965107562285,"46":-0.0005044833863521038,"47":-0.0010753060610283207,"48":0.0010876662554806875,"49":-0.004087520835949497,"50":0.003809289072851459,"51":0.003940525467593645,"52":0.0007024447514672484,"53":0.0004324676362153763,"54":-0.0005397430783701298,"55":-0.0053533767660244825,"56":0.004572358432048293,"57":0.0006192233776524436,"58":-0.00037664108009550823,"59":-0.2387017724687596,"60":0.002097781464418994,"61":0.003050670155840766,"62":-0.00156996273740081,"63":0.0027922397113284434,"64":-0.003843433361915116,"65":0.0028851737670789112,"66":0.00021883134230331377,"67":-0.00036360889491336354,"68":0.0006735480528412558,"69":-0.00008795656930667688,"70":-0.003009632587797507,"71":0.00006161887242273291,"72":-0.003800640289966787,"73":0.0026373528375951793,"74":-0.003158086883488607,"75":-0.0001298180392705055,"76":-0.0003225549956450916,"77":-0.0031332862843674388,"78":0.00044398306973052925,"79":-0.0001935500963757625,"80":0.0030840653565469096,"81":0.0016660989441812566,"82":0.0020355901792309854,"83":-0.005248723429714856,"84":-0.0041392862905354185,"85":-0.002307070095492381,"86":0.002498180597602829,"87":-0.00047576670238477775,"88":0.0021316702330762653,"89":-0.0037278306862146126,"90":0.000049830271177823986,"91":0.00018880910704974457,"92":-0.002899090974517791,"93":0.0002911078213548332,"94":0.00041953811356410534,"95":-0.0010510316906489178,"96":-0.0006193466669733542,"97":-0.35947740323447736,"98":0.003084376795471642,"99":-0.0022230500561096654}},"W2":{"n":3,"d":100,"w":{"0":-0.010217211858366833,"1":0.00247345073050371,"2":0.002490385435606965,"3":0.03401881011926448,"4":0.01989739585170633,"5":0.3558262081464586,"6":0.01525934293739544,"7":0.025279812759180693,"8":-0.008614227612927971,"9":0.000716362021345815,"10":0.013767436469025727,"11":-0.006605652935393701,"12":-0.0023473904552364115,"13":-0.022591572504073374,"14":0.0010673307354360977,"15":-0.00023145942915764545,"16":-0.010988344767004603,"17":0.0024821701960358266,"18":0.004572134025426577,"19":0.00437700696365403,"20":-0.04880583913574175,"21":-0.022132895403087813,"22":0.021649019209368577,"23":-0.0025509674871575013,"24":0.02031600729892837,"25":0.005788460643774727,"26":-0.0030311715869359695,"27":0.0225047107696846,"28":0.004301815544861603,"29":0.002735988991316959,"30":0.002463166418204507,"31":-0.020143648034200302,"32":0.017831114340012416,"33":-0.00740298401773842,"34":0.01005426526977687,"35":0.0015965719441578864,"36":-0.016202102289339056,"37":0.0015746680302958593,"38":-0.00650535768022949,"39":0.0016273323339790233,"40":0.008511059469791651,"41":0.006534818294958877,"42":-0.00012093940065096567,"43":-0.07518668626637277,"44":-0.0012807872117130028,"45":-0.00024105148507049857,"46":-0.0027454087796755914,"47":-0.0035188089471276406,"48":0.003857784283956179,"49":-0.022886140410238173,"50":0.02250570349288248,"51":0.02141333835468771,"52":0.005768242176799351,"53":0.0020517331164929264,"54":-0.0021712540154472004,"55":-0.033149805379289285,"56":0.02697195866479888,"57":0.004248746080152637,"58":-0.0006534489172863654,"59":0.22227757586592098,"60":0.008900434857526267,"61":0.0150400462668856,"62":-0.006398158269378553,"63":0.014085338494120947,"64":-0.021752925509850654,"65":0.013818862568970133,"66":-0.00012373248467613187,"67":-0.0006930948406331878,"68":0.0034070231752415187,"69":-0.0027415021710172002,"70":-0.01462275718305096,"71":0.0004105014802083567,"72":-0.020355035885863987,"73":0.012232814121471093,"74":-0.01589317812446006,"75":-0.00040599203582061615,"76":-0.001571437920197573,"77":-0.015474042254523875,"78":0.0022960773892776545,"79":-0.001310179416549528,"80":0.015479795023010934,"81":0.00736568112514581,"82":0.00843431880307748,"83":-0.03133456996225052,"84":-0.022936664756613698,"85":-0.011519569917091235,"86":0.011646587343051771,"87":-0.002804618472014469,"88":0.013504253061643247,"89":-0.019665062872348704,"90":0.0016620273353305547,"91":0.0009039256219749701,"92":-0.015975215009097845,"93":0.0012435443336134319,"94":0.0038111878409749136,"95":-0.007083941076634063,"96":-0.0031111704742367062,"97":-0.6350310113147708,"98":0.01732661948767459,"99":-0.009579771724927076,"100":0.010067131142873574,"101":-0.00605879218494931,"102":-0.0012171284222093487,"103":-0.03862199597533873,"104":-0.021914099298108263,"105":-0.2397479814408502,"106":-0.016389972081536554,"107":-0.028424283021381048,"108":0.009184988025133794,"109":-0.001596389800888869,"110":-0.014251256204534147,"111":0.010953367811872549,"112":0.0011713420745216383,"113":0.02504682415413982,"114":-0.0008919857247517456,"115":0.0012860640611978636,"116":0.011290485292738685,"117":-0.001987965978288842,"118":-0.00838193019682255,"119":-0.009023988387592535,"120":0.24333371025479578,"121":0.028471739472464012,"122":-0.024030340049898923,"123":0.001459990497024216,"124":-0.023111836529387003,"125":-0.003922909141237789,"126":0.002062688714945508,"127":-0.02505254268180225,"128":-0.008143666824827877,"129":-0.005049739504435073,"130":-0.0005438105996305957,"131":0.022212390879533334,"132":-0.019595271003545713,"133":0.007238312599252175,"134":-0.010294387837242985,"135":-0.001167420995235052,"136":0.018022873888489895,"137":-0.0018670326059809813,"138":0.005545982246909924,"139":-0.0020630934524038295,"140":-0.008245776599201435,"141":-0.007109044882652742,"142":-0.00039870161865485017,"143":-0.029519791862240036,"144":0.001332182841299899,"145":0.000020007011487640188,"146":0.0029682939109178016,"147":0.0017890915971580056,"148":-0.0025526647020197575,"149":0.025409041279060605,"150":-0.024479338754163926,"151":-0.023760352946939997,"152":-0.010057235164528259,"153":-0.002215218673903645,"154":0.0021242337862120153,"155":0.037693464109336106,"156":-0.03016915109731855,"157":-0.004845625104144058,"158":0.00007952947890357794,"159":0.07268182305103378,"160":-0.008856459838366863,"161":-0.016082819830812972,"162":0.0052882044228612,"163":-0.014580792762061666,"164":0.023776561653138444,"165":-0.01476953028840374,"166":0.0006697792078222338,"167":0.00010314880068627871,"168":-0.0036520684090183392,"169":0.005901075630604626,"170":0.015598164126423055,"171":-0.0004670999781330902,"172":0.022402918576174567,"173":-0.01272088534149033,"174":0.0171426672749812,"175":0.0003354088659323266,"176":0.001628471310385739,"177":0.016686134465716547,"178":-0.002736593381520477,"179":0.0013340213163842006,"180":-0.016589165474552088,"181":-0.006423648433312086,"182":-0.008175321865711882,"183":0.035852633390589556,"184":0.02554904764009012,"185":0.01125365646591105,"186":-0.01197162071373811,"187":0.0032342159780716726,"188":-0.022249757042222835,"189":0.02163005792772118,"190":-0.005420429298811486,"191":-0.0005491344898592307,"192":0.016319483993542553,"193":-0.0013976113309903469,"194":-0.007501267785447177,"195":0.01131022028618682,"196":0.0030165652913263443,"197":0.8779342823341496,"198":-0.018191702765996794,"199":0.009643755678382278,"200":-0.004954393514657462,"201":0.0029576357736302594,"202":0.009924221377810577,"203":-0.006552845876349107,"204":0.0036199995881405008,"205":-0.000897826229578907,"206":0.005457951070513292,"207":0.0006901419610150621,"208":0.005869209427404269,"209":-0.0016735157242113092,"210":0.0017350692691407,"211":0.003737767666399669,"212":-0.008730461436261834,"213":0.00013841076637257163,"214":0.001277843111145047,"215":-0.0031721750950889456,"216":-0.00596153045052881,"217":0.0013502871281913795,"218":0.0007419767425474673,"219":0.004683738919161319,"220":-0.0019372028335338262,"221":-0.0008904809693433133,"222":0.0026739247146508917,"223":-0.007371563108029806,"224":-0.010724227588722341,"225":-0.009424751176956465,"226":-0.005023577598034083,"227":-0.0011969959605715962,"228":0.0010851534583162516,"229":-0.0032199247578759676,"230":0.004102003747651264,"231":-0.0034288268524271075,"232":0.002733464642362194,"233":-0.005186715338983434,"234":-0.0022606426492738753,"235":0.0006094553782390117,"236":0.00496294013540234,"237":-0.006197276790917493,"238":-0.005317950855764738,"239":-0.0032046330579071397,"240":0.009072641514355545,"241":-0.009967707105125269,"242":-0.005047554292877925,"243":0.004292022067822144,"244":0.007260330737797592,"245":0.00038785978874740994,"246":0.008114106954157452,"247":-0.003758452699831102,"248":0.00010063465795898244,"249":0.002291337844765013,"250":-0.011663300552447582,"251":0.00013901922638947923,"252":-0.0008622090298683574,"253":-0.003741191820949298,"254":0.002332288268918865,"255":0.004129672343704567,"256":-0.0036289590242872555,"257":-0.017084377393189135,"258":-0.0034083848631898173,"259":0.004818551703828149,"260":0.006208127925333513,"261":0.00446555601247192,"262":-0.0030396622774611177,"263":0.0008356772960072499,"264":0.004005762409892125,"265":0.0044359027628421465,"266":0.005655446771025092,"267":-0.0022286060218376243,"268":-0.008136403346954408,"269":0.003823148988769565,"270":-0.006047868348662457,"271":-0.001599176527610633,"272":-0.002752680367012064,"273":0.0064405986932988945,"274":-0.002132520744660941,"275":-0.00012972917728364366,"276":0.003923013945922074,"277":-0.0045458844699704706,"278":-0.0034495110300729855,"279":0.006757056635443767,"280":0.0021111895642795895,"281":-0.001399250147111169,"282":0.00812291039316572,"283":0.003728901928874527,"284":0.0000755314052923623,"285":0.0025238066056858443,"286":0.0036667129047927554,"287":0.008105522012769992,"288":-0.0013132316520341014,"289":-0.0038186062714273814,"290":0.005716842403486417,"291":-0.005836667468538617,"292":0.00422997420975522,"293":-0.0005278361139473631,"294":0.0036544375028018127,"295":-0.0019495097240239208,"296":0.010027668532358704,"297":0.00016429409061176006,"298":-0.010045727777170317,"299":-0.007037332009445515}},"b2":{"n":3,"d":1,"w":{"0":-0.3156295190979701,"1":0.19882413094770438,"2":0.0005220813373014757}}}}}