{"numStates":1,"sensitivity":17.766893063652905,"alpha":0.0032479140285262887,"gamma":0.9413034561717866,"epsilon":0.37035793990613086,"cycles":6019,"max":{"lastUpdatedDate":"2017-11-15T06:07:59.047Z","meetsCriterion":false,"cycles":451,"wealth":3.3192092228193264,"percentSuccess":0.35581908992678307,"odds":1.8888888888888888,"weights":{"nh":100,"ns":4,"na":3,"net":{"W1":{"n":100,"d":4,"w":{"0":0.00008558604053604825,"1":0.009525630261700153,"2":0.002545925254151723,"3":-0.007425526702291512,"4":0.13308795156075529,"5":0.1871882053126328,"6":0.42445332104834493,"7":-0.5719696434347854,"8":0.00030778259705123716,"9":0.008987231117563457,"10":0.0023771347164659906,"11":-0.007377335671249693,"12":0.05386105875684962,"13":-0.051973364940115875,"14":-0.01817850126785906,"15":-0.049134132959706416,"16":-0.3150038366735208,"17":-0.635946289892443,"18":2.503898954831972,"19":-1.0860950470003894,"20":-0.04873725245571819,"21":-0.03913434890761196,"22":-0.6451365638923532,"23":0.45630285562094747,"24":-0.0005215357506663136,"25":0.012009582857487976,"26":0.003300685289773978,"27":-0.008341675493954863,"28":-0.00006586643411440748,"29":0.00011371777268304329,"30":0.00003669617740892415,"31":0.0000212691084107113,"32":0.00027057733907667807,"33":-0.010617750495533759,"34":-0.0028822610268642787,"35":0.007679941490117451,"36":-0.0002717721932554236,"37":0.01062263440133999,"38":0.002883741135865907,"39":-0.007681739136545286,"40":-0.07935319721920532,"41":-0.12092318093932417,"42":0.3070792564890458,"43":0.041145231877648944,"44":-0.0010068376566056705,"45":0.014202736517070675,"46":0.003977686077477875,"47":-0.009240863691313946,"48":0.032851634599314464,"49":-0.011081288557929924,"50":-0.023674240514058253,"51":-0.037597592750763145,"52":-0.031570742371428005,"53":0.007408524403901741,"54":0.021583303611960817,"55":0.038744209787626376,"56":-0.029086022253922175,"57":0.021941671102491775,"58":0.032729698053007406,"59":0.020183143928171655,"60":1.0217175493053228,"61":0.7843049580951144,"62":-0.9454335631006648,"63":0.7803434927052831,"64":0.00011476701782050529,"65":-0.05924355828538012,"66":-0.061324160056138756,"67":0.06555772690532075,"68":-9.597913599987619,"69":-3.8987377164324513,"70":13.742612364619891,"71":-21.6430270792563,"72":-0.031250197801808176,"73":0.01476931343069161,"74":0.0273269485999203,"75":0.03088084009039394,"76":-0.00040926553539603,"77":-0.008712026832763231,"78":-0.002291814106814317,"79":0.00733274786635607,"80":-0.029891134385984355,"81":0.019220139621339727,"82":0.03075502730108509,"83":0.024181522471821662,"84":-0.00036402021913658724,"85":0.002343632716137996,"86":0.0006491737979773866,"87":-0.0011880859175940816,"88":0.030790098675147846,"89":-0.01606573155188952,"90":-0.028400441331782836,"91":-0.028787571659871357,"92":-0.12344280135025591,"93":-0.20242653236235664,"94":-0.4036049292371161,"95":0.5492834479489485,"96":-0.030766658838669192,"97":0.016137084633170772,"98":0.02845716362041427,"99":0.028676595348473707,"100":0.0016888251535927376,"101":-0.061623108856064195,"102":-0.06266901289515707,"103":0.06504289084816345,"104":0.016770076515873207,"105":-0.025482001035428498,"106":-0.099861318181614,"107":0.03312296400959959,"108":-0.00021359276873025336,"109":-0.009216982571155786,"110":-0.0024491004849419265,"111":0.007398931275976023,"112":0.016400004481064517,"113":-0.07195806333221008,"114":-0.03249245651875279,"115":0.033316060417778855,"116":0.0001889496136131913,"117":-0.003710335358633588,"118":-0.000988471620089121,"119":0.002516204248358976,"120":0.03653059357770386,"121":-0.09869030335360848,"122":-0.0001398311291890063,"123":0.0020739227587199855,"124":-0.07232004485425943,"125":-0.10185329420831442,"126":-0.3576664233390001,"127":0.35900441485787116,"128":-0.028081315114310643,"129":-0.007441476431591825,"130":-0.007516167686802446,"131":0.055502960664554415,"132":-0.05757110616935129,"133":0.09513436735682629,"134":-0.07022462360387326,"135":0.06742566243763694,"136":-0.00018965916074783717,"137":0.003948247596521955,"138":0.0010511519647381914,"139":-0.002696457950871601,"140":0.0001966415790339861,"141":-0.004027616526051385,"142":-0.0010727775855594506,"143":0.0027455422769261913,"144":0.00389842334463322,"145":-0.012108590587743814,"146":-0.00359421071702028,"147":0.0028452392458678264,"148":-0.0004429775990024079,"149":-0.008605616254129056,"150":-0.0022592557406863763,"151":0.007306384539747037,"152":0.0003419966285295285,"153":0.008899401571134315,"154":0.002349763384977362,"155":-0.007366120732487632,"156":0.01435808737360484,"157":-0.03572460596028915,"158":-0.07798288052460715,"159":0.03391004858246064,"160":-0.13196962217195882,"161":-0.12249964286075228,"162":-0.4829141608221265,"163":0.5593736667969241,"164":0.00019683997438096646,"165":-0.00036759306406240066,"166":-0.00011687916410209975,"167":-0.000042441147297960215,"168":0.022984856854502515,"169":-0.008323044991629775,"170":0.48775492808254123,"171":-0.28071446624506585,"172":0.00020179786677068166,"173":-0.0003786728962312783,"174":-0.0001202964426534288,"175":-0.000042124088752225606,"176":0.05798494028785133,"177":0.029237636225216024,"178":0.34805598357560563,"179":-0.2821043543126187,"180":-0.006787022088090475,"181":0.010103088739130421,"182":0.003363538453212048,"183":0.0034196130941161348,"184":-0.029845390538376343,"185":0.019393861409627032,"186":0.030879437521709484,"187":0.02393655929140345,"188":0.001063973975356828,"189":-0.059004305701338765,"190":-0.07919490646297657,"191":0.07187633804519827,"192":-0.00023527031202417057,"193":0.004261296796717233,"194":0.0011383579244814012,"195":-0.002860455165250002,"196":-0.00029131540392548697,"197":0.0006165194979760411,"198":0.00019182217088589934,"199":0.00000763432460851263,"200":0.032503448012196984,"201":-0.011830552577364864,"202":-0.024501974652576208,"203":-0.03615608545672405,"204":-3.7625337458737476,"205":-2.7149846522112546,"206":7.54921983822837,"207":-7.208076588612259,"208":-0.03083409274669318,"209":-0.010435116764255976,"210":-0.007631207444666602,"211":0.06212143689336619,"212":-0.00047521906969536073,"213":-0.008489521670222657,"214":-0.0022240933518586493,"215":0.007270132991429269,"216":0.029377348060858233,"217":-0.021057234361094933,"218":-0.03207614861234616,"219":-0.021537898538514948,"220":0.03101065060586762,"221":-0.015421293580020281,"222":-0.02787752296819147,"223":-0.02980955931082332,"224":-0.020615507175448758,"225":0.034408880428206674,"226":0.048722142310782354,"227":-0.009323186588932629,"228":0.0002493949211149971,"229":-0.0031797211365869995,"230":-0.0008555175015140377,"231":0.002012704365376252,"232":0.026878434925973405,"233":-0.026542805984954027,"234":-0.03663759738406358,"235":-0.011739992551494296,"236":0.00006592461971119436,"237":-0.00011382010727392944,"238":-0.000036729082459730464,"239":-0.00002128646816091888,"240":0.13474440965427945,"241":0.2112007323765396,"242":0.3114485044624912,"243":-0.5231583439729173,"244":0.00020892676444560847,"245":-0.0034811795703085283,"246":-0.0009303390627156261,"247":0.002308765863059495,"248":-0.10582214970593638,"249":-0.3035852541682184,"250":0.35542648572057595,"251":0.21940378100549848,"252":-0.030646499615053918,"253":-0.010704811507269488,"254":-0.008316209388002092,"255":0.06228687138893191,"256":-0.04476662403200787,"257":0.07043150799420189,"258":0.0237675609922946,"259":0.019401125817708427,"260":0.0002815867645851624,"261":-0.0053192312052439674,"262":-0.001423792751893548,"263":0.0035922588913494743,"264":3.9089681753580114,"265":7.392952489815916,"266":-10.810408962350367,"267":-3.423859272150165,"268":-0.014492926365080237,"269":0.033981335071557504,"270":0.08310082881843747,"271":-0.03486987334756471,"272":0.7181584127128842,"273":1.9713498860543834,"274":-3.9682891787987797,"275":-0.4770090523558304,"276":0.024050362277594644,"277":-0.0306062953577385,"278":-0.04149944429472038,"279":-0.0021675373940279992,"280":-0.02892565268256586,"281":0.022382326678890313,"282":0.03306314255226517,"283":0.019478976430246923,"284":0.0241941850265593,"285":-0.09243243554605482,"286":-0.02267359668069399,"287":0.028954735619257488,"288":0.031451947162813146,"289":-0.01425139995649459,"290":-0.026872239780959723,"291":-0.03175893649141446,"292":0.028306471948742497,"293":-0.023861554171819344,"294":-0.034233316340292336,"295":-0.016956002300662423,"296":0.014987670622536801,"297":-0.03729615859799091,"298":-0.06748980024677044,"299":0.029127032011228047,"300":-0.1278610817733679,"301":-0.16277462222302766,"302":-0.5779759667657017,"303":0.6617234608977165,"304":-0.00004758385445026843,"305":0.0000817884987814535,"306":0.00002641563207172258,"307":0.000015642906801004335,"308":0.00020861967613028777,"309":0.009228877863964563,"310":0.002452834232551911,"311":-0.00739989028302597,"312":0.000517357406403163,"313":0.008291804698706292,"314":0.002165234916801748,"315":-0.007187327857363219,"316":-0.010355763837778755,"317":0.025418874627249483,"318":-0.46728480044879456,"319":0.2355145273005797,"320":0.000027332517765850124,"321":-0.0000468281650983545,"322":-0.000015133887059857989,"323":-0.000009100900065387452,"324":0.2062289976230275,"325":2.097061918175208,"326":-5.269891065347638,"327":-0.5840577796080686,"328":-0.06657073708242679,"329":-0.07720252893171582,"330":-0.5980285764933897,"331":0.4858728738168758,"332":0.0003190466822928375,"333":-0.004749378906593943,"334":-0.0012759935047154613,"335":0.003095552708436771,"336":-0.03549601270245344,"337":0.00998609878521158,"338":0.02047619541674238,"339":0.04419696788763248,"340":0.04997932351600798,"341":0.04460329733454883,"342":0.6240076888333803,"343":-0.4494810223915514,"344":0.00037284638270863575,"345":0.008816513856493093,"346":0.0023240437346537866,"347":-0.0073531610558771835,"348":0.0003009349410394548,"349":-0.059481729544952774,"350":-0.06024687980438662,"351":0.06491118242219895,"352":-1.2030043288144834,"353":-2.7347733457564147,"354":6.241880340403583,"355":-0.4971761673012362,"356":0.025346211071337235,"357":-0.028880653368557108,"358":-0.03919375282078539,"359":-0.0065010780547858655,"360":0.02869966770157012,"361":-0.022957924807305578,"362":-0.03350836199673685,"363":-0.018526995189721843,"364":-0.02215196252903088,"365":0.0948287307620385,"366":0.10781156993859399,"367":-0.07231715102036891,"368":-0.6022489311961827,"369":-1.9138834295038956,"370":4.143396445779843,"371":0.3584443927254022,"372":-0.0019564067671459648,"373":0.07539916507556854,"374":0.01760757022737644,"375":-0.053182612760818204,"376":0.0001564572820848065,"377":-0.0002824923823173132,"378":-0.00009038268450476785,"379":-0.00004110699959005618,"380":-0.03191542118341831,"381":0.013140514208992538,"382":0.025838285410234245,"383":0.033720511172568524,"384":-0.000047455429325669585,"385":0.00008156563056811072,"386":0.00002634378532751338,"387":0.00001560230697578161,"388":-0.02701550448457727,"389":0.026312376495493978,"390":0.0364124645608649,"391":0.01222077117000785,"392":-0.0003177715171404808,"393":-0.008961947437497217,"394":-0.0023692444484994467,"395":0.007374337740455797,"396":0.00019885589238452463,"397":-0.004046742929415351,"398":-0.001078044957022297,"399":0.002756499618085362}},"b1":{"n":100,"d":1,"w":{"0":-0.0014584232530274626,"1":-0.16763567827849607,"2":-0.0014267761880639423,"3":-0.0046484226956486395,"4":-0.547067235150945,"5":0.195779866312096,"6":-0.0017038689832569085,"7":-0.00000216872626297598,"8":0.0015449411775329239,"9":-0.0015454224235515407,"10":-0.05739915866793854,"11":-0.0019363214584995096,"12":-0.0010299121420970529,"13":0.0015605012783587629,"14":-0.003233910735958145,"15":0.21414567037084042,"16":0.021265810851413266,"17":-20.79011337365898,"18":-0.0006566653835540208,"19":0.0014077943777013851,"20":-0.002280522792177865,"21":-0.00026740746548814157,"22":0.0011662987793265133,"23":0.16001982614523724,"24":-0.0011932296696878211,"25":0.021418389063729112,"26":0.024873866834461987,"27":0.001440423276067767,"28":0.010298180418134373,"29":0.0005108617133007166,"30":-0.0014995615427084903,"31":0.12454202099745358,"32":0.009741390471486904,"33":0.02623172192164331,"34":-0.0005463193693215033,"35":0.0005566326650283965,"36":0.0009354099175975489,"37":0.001399171122902603,"38":-0.0014211426923807506,"39":0.020341347370113505,"40":0.17838262615604347,"41":0.00001061154065484391,"42":-0.1402264472111254,"43":0.000011149869487806832,"44":-0.11237941429296733,"45":0.000016305762587625724,"46":-0.002339502825374027,"47":0.025864831634757245,"48":-0.0005829356515389377,"49":-0.000026495009951690814,"50":-0.0006582185985572473,"51":-7.326701603550358,"52":0.010704551487553136,"53":0.001388710220280652,"54":0.002913343470838558,"55":0.0009179399076365284,"56":-0.010700933605624349,"57":0.0004179169475215431,"58":0.005215016069553126,"59":0.000002170921563097789,"60":-0.1376897265505608,"61":0.00047208094701046933,"62":-0.0445630079685783,"63":0.010864168121302224,"64":-0.0006188272533816761,"65":0.0007314896919221197,"66":12.162610701835845,"67":-0.021561663782617865,"68":0.5695864139615269,"69":0.007570534420759344,"70":-0.0033996122240399678,"71":0.007257393384166051,"72":0.0004415004650789203,"73":0.003990156333538031,"74":0.01745305967694956,"75":0.21036168950245457,"76":-0.0000015124895241825356,"77":-0.0014411075061017758,"78":-0.0013679360825668892,"79":0.12977399199623585,"80":8.461985853995109e-7,"81":8.30543095862176,"82":0.1904503196123398,"83":0.0006372690889312607,"84":0.002654452400696647,"85":-0.19062905677907477,"86":-0.001415491698118003,"87":0.020944420340424205,"88":-10.216510614488941,"89":0.006480692743347959,"90":0.0036228660395394977,"91":-0.031099879443974635,"92":-10.509287204047181,"93":-0.010185389812349288,"94":0.000006992711069272088,"95":0.00004372707107586768,"96":-0.0000015080907939027529,"97":-0.005101086917277327,"98":0.0014251869191795063,"99":0.0005589984215440921}},"W2":{"n":3,"d":100,"w":{"0":-0.000105489635896545,"1":0.041029420820472104,"2":-0.00010295031711541624,"3":-0.00005212281845242053,"4":0.12234605964242756,"5":-0.06270492477436648,"6":-0.00012100739844007237,"7":-3.6873262099087e-7,"8":0.00011157227216005511,"9":-0.00011160322449774062,"10":0.03276454972173205,"11":-0.0001336258893494531,"12":-0.002316918234130089,"13":0.002227688632588352,"14":0.002887848194061162,"15":0.37956804731265403,"16":-0.004535593372387034,"17":3.9727969421175997,"18":0.0025760454696796393,"19":0.0001015121486552268,"20":0.0027781800962446497,"21":-0.00002236957229859093,"22":-0.002643332833082289,"23":-0.038827986924718075,"24":0.002646771139379324,"25":-0.004594019236813511,"26":-0.010326068263753893,"27":0.00010404265273926774,"28":-0.0007622994120403488,"29":0.00004088897368410726,"30":0.00397814745867011,"31":-0.03618705362747092,"32":-0.0004807375034938595,"33":-0.011756625787014448,"34":-0.00004362007489847154,"35":0.000044432283606669186,"36":0.00008298681005837426,"37":0.00010089265525259403,"38":-0.00010251219648560502,"39":-0.007417192279451814,"40":-0.04819891198924047,"41":0.0000014318701974307586,"42":0.050521155276166255,"43":0.0000014895856949304154,"44":0.03723425443685781,"45":-0.000018571252984290667,"46":0.0027850123397295864,"47":-0.006576981365856841,"48":-0.00004655936439614595,"49":-0.00000298094499961912,"50":-0.0023792960102364444,"51":-0.5769297508482125,"52":-0.000366168660356017,"53":0.0001001642046677293,"54":-0.0028509534671421984,"55":-0.0026110876968366632,"56":0.004166029626996688,"57":0.000033857959341151886,"58":-0.003135525347170036,"59":3.6908067895457304e-7,"60":0.029055313421259717,"61":0.00003794968121918013,"62":0.053104477432955335,"63":-0.0004334756234952628,"64":-0.00009981713892502815,"65":0.00005782717766150828,"66":-0.620351559723948,"67":0.00806982846052519,"68":-0.4530108887837341,"69":-0.0035120575280810935,"70":0.002907075836795832,"71":0.0011809802862454467,"72":-0.0025462552105651026,"73":-0.002977167451531942,"74":-0.006163358795325649,"75":-0.05358516897352858,"76":-2.620488924981165e-7,"77":-0.00010409807680244019,"78":-0.00009877389574753036,"79":-0.049356911053316924,"80":1.4871862080418816e-7,"81":1.3451166189649446,"82":-0.05763240251359869,"83":0.000050918968076600954,"84":0.00200435525607818,"85":0.06059681643385172,"86":-0.00010208230888652483,"87":-0.004403682416239808,"88":-1.1073985457868483,"89":-0.0033250326736182193,"90":-0.0029332426454336947,"91":0.00840524341006693,"92":-2.4729924280815445,"93":-0.0010982110092269933,"94":0.0000010229473912940441,"95":0.0024757330540506033,"96":-2.6131634992730145e-7,"97":0.0031198540052889616,"98":0.00010282578697267974,"99":0.00004462025568319355,"100":0.0012438487405050153,"101":0.052446805580354125,"102":0.0012175027504509207,"103":0.003745951565917707,"104":-0.13781680564863422,"105":-0.020935621547165054,"106":0.0014465126256700102,"107":0.000001889878272923799,"108":-0.0013156335174960895,"109":0.0013160317373814938,"110":-0.02494161542145069,"111":0.0016354100159970074,"112":0.004787574885496044,"113":-0.005020877927308967,"114":-0.00260388794785774,"115":0.11405396728955053,"116":-0.007990437847498652,"117":-0.4932312829167717,"118":-0.003978447908751184,"119":-0.0012016913398937882,"120":-0.0031217200379000166,"121":0.00023131002737986954,"122":0.0037157831167813305,"123":-0.05216996521459451,"124":-0.0037017124826849933,"125":-0.007996756778888102,"126":-0.0008118837914977658,"127":-0.001228867093242225,"128":-0.006190532250278448,"129":-0.0004412242517429497,"130":-0.005384948588878496,"131":-0.02969346649008656,"132":-0.006466711717685281,"133":0.00024155850479791994,"134":0.0004717292120956251,"135":-0.00048059955725337713,"136":-0.0008045852815353424,"137":-0.001194506049841149,"138":0.0012128107674407539,"139":-0.002390375646120004,"140":-0.04471828701998084,"141":-0.000009221315274773477,"142":0.00880787855009877,"143":-0.000009688081192941357,"144":0.01798232158712923,"145":-0.000013163460759391704,"146":-0.0030897791238051462,"147":-0.00792696688435366,"148":0.0005032164475780309,"149":0.000022982549558644432,"150":0.004618035809709892,"151":-0.45255495311411786,"152":-0.007381212137659533,"153":-0.0011857869500512682,"154":0.0027780494892970147,"155":0.003844674917029597,"156":0.0007578545679121584,"157":-0.0003611799076855098,"158":0.0015588591159940539,"159":-0.0000018917895614288686,"160":0.05480361475237892,"161":-0.00040784158854046673,"162":-0.056062217104376894,"163":-0.007384625552826013,"164":0.000406586169505386,"165":-0.000630523950204812,"166":0.6310903689790366,"167":0.0021871976066446426,"168":0.4018404860791727,"169":0.0004530272140695628,"170":-0.0025140862431066724,"171":-0.007182074052069359,"172":0.004087087248687127,"173":0.002196469329343398,"174":-0.0023774650756597333,"175":-0.050387031046561816,"176":0.0000013183575343354878,"177":0.001229436779596034,"178":0.0011684619073754968,"179":-0.004027959256482946,"180":-7.377330113956147e-7,"181":1.3001874887512563,"182":-0.028507478977746366,"183":-0.0005498595150449868,"184":-0.005467479719402094,"185":0.02173783856403337,"186":0.0012081037483433136,"187":-0.00797528136798378,"188":-3.6422585432197616,"189":0.0009431421074385717,"190":0.00239349038160584,"191":0.008598036576255226,"192":-5.4999357341085116,"193":0.009306915993191835,"194":-0.000006082099876929207,"195":-0.004326578676671463,"196":0.0000013145254424030175,"197":-0.0016166042189091818,"198":-0.0012161791359419274,"199":-0.00048263417974281635,"200":0.0001393523311329555,"201":-0.012521469643879889,"202":0.00013658051776693655,"203":0.0003770359763968324,"204":-0.16616514674735297,"205":0.02864869028721992,"206":0.0001604367990382722,"207":2.1167312297349887e-7,"208":-0.00014688310194321445,"209":0.00014692473443394963,"210":-0.019341598332333825,"211":0.00017937911314048365,"212":0.001440385933089545,"213":-0.0014159187821658997,"214":-0.0015293712565215868,"215":0.0254588052300649,"216":0.0014334247690579519,"217":2.5389161805818086,"218":-0.0014942642754167804,"219":-0.000134910378011124,"220":-0.0015195859772346256,"221":0.0000266068772444944,"222":0.0015043322088314943,"223":0.011417806973041903,"224":-0.001504799190127078,"225":0.0014613096884362833,"226":0.004599388565600915,"227":-0.00013777713168797184,"228":-0.00009554224606361241,"229":-0.00005067069652628843,"230":-0.0021314904611223454,"231":0.013378578162753105,"232":-0.00030545778563277853,"233":0.005215461860772386,"234":0.00005414857710335726,"235":-0.00005515838649989405,"236":-0.00009114583436947021,"237":-0.0001341491105515329,"238":0.0001360856258671014,"239":0.0031715329886763503,"240":0.01710930855311176,"241":-0.00000104456719311853,"242":-0.023423953657864337,"243":-0.0000010979131914046956,"244":-0.01528267793006128,"245":-0.000002260623884778884,"246":-0.0015202242281322164,"247":0.0023535778569406937,"248":0.000057728813219318776,"249":0.000002622172973602653,"250":0.0014552632129041726,"251":0.034143320882345785,"252":-0.0004299490524607918,"253":-0.00013322350604509978,"254":0.0015261001965055899,"255":0.0014997290402351203,"256":-0.0018426383453799362,"257":-0.000041517341131184,"258":0.0015602117209383283,"259":-2.1188798911299953e-7,"260":-0.0066981917428859915,"261":-0.00004685752759343754,"262":-0.02873538161067924,"263":-0.00039980526811148813,"264":0.000011355841900771634,"265":-0.00007212388587608495,"266":2.2811295761564567,"267":-0.003479917246286512,"268":0.37682906379552866,"269":0.0016435409982423223,"270":-0.0015311365267949998,"271":-0.0010299340596307649,"272":0.0014892426789861802,"273":0.0015382496790176587,"274":0.002610638948953976,"275":0.019798622655188523,"276":1.475063982649853e-7,"277":0.00013783705983750136,"278":0.00013137888472075236,"279":0.023248943072665566,"280":-8.247581724623756e-8,"281":0.5031196160677404,"282":0.024927763905984467,"283":-0.00006301190008330121,"284":-0.0013546312244355173,"285":-0.02746466782262016,"286":0.00013558854960273747,"287":0.0013758143179966294,"288":-1.208280442213335,"289":0.001597633327176063,"290":0.0015336487285095347,"291":-0.0031478320108022043,"292":-0.0766468007997097,"293":0.0011861278602025844,"294":-6.864538569549253e-7,"295":-0.0014760360101110925,"296":1.470767060803583e-7,"297":-0.0015576361265715929,"298":-0.00013644096591082982,"299":-0.00005538989244594445}},"b2":{"n":3,"d":1,"w":{"0":10.921381931081811,"1":-0.28542335901241767,"2":9.890807809947727}}}}},"weights":{"nh":100,"ns":4,"na":3,"net":{"W1":{"n":100,"d":4,"w":{"0":0.0037370363674207557,"1":-0.006684180662537557,"2":-0.002530451915566217,"3":-0.001357607276219197,"4":-0.015793766897898402,"5":0.028249155301962366,"6":0.0106943579578743,"7":0.005737664577368354,"8":0.003036262476796048,"9":-0.00543075475241338,"10":-0.002055938475204871,"11":-0.0011030268681043003,"12":0.015757373684710117,"13":-0.028184061766617197,"14":-0.010669715401461274,"15":-0.0057244432464015225,"16":-0.04021409827058605,"17":0.07192714978481322,"18":0.027229461249675405,"19":0.014609661259475012,"20":1.5113160866953252,"21":1.2406506113057663,"22":-0.4240239627991831,"23":-0.3467785203451911,"24":-0.00558531240180647,"25":0.00999006332722309,"26":0.003781970188242775,"27":0.0020290581661527914,"28":0.009764084464309765,"29":-0.01746433250313541,"30":-0.0066115253672841415,"31":-0.0035471477128083823,"32":0.0012826926338701655,"33":-0.0022942646632262975,"34":-0.0008685472730830974,"35":-0.0004659821637429955,"36":-0.00771189031772543,"37":0.013793722338755775,"38":0.0052219325590705835,"39":0.0028016132964488417,"40":-0.09044138369882267,"41":0.17465863810081178,"42":0.06917626416551383,"43":0.027115994082625633,"44":-0.009308107445871109,"45":0.016648760008244404,"46":0.006302771969182645,"47":0.0033814972405509015,"48":0.014179797379296252,"49":-0.025362379166043572,"50":-0.0096015063507725,"51":-0.0051513248059346225,"52":0.002706738988919762,"53":-0.004841358759874947,"54":-0.0018328089419710092,"55":-0.000983316068674673,"56":0.002513316413121781,"57":-0.00449539708871842,"58":-0.0017018371176091395,"59":-0.0009130486388256605,"60":-0.0036086935043058315,"61":0.006454622653198701,"62":0.0024435474119924583,"63":0.0013109822749674256,"64":-0.006356823200990335,"65":0.011370010351281051,"66":0.004304380879769692,"67":0.0023093367361087676,"68":1.179505459917319,"69":-2.435071874298047,"70":15.311565790518815,"71":-5.69095608888194,"72":-0.00687677677358663,"73":0.012300014433045703,"74":0.004656455263526491,"75":0.002498228369608475,"76":-0.006006373259718344,"77":0.010743185278202031,"78":0.0040670818400624364,"79":0.002182023382031674,"80":0.00809140056072009,"81":-0.014472524979175774,"82":-0.0054789087798367084,"83":-0.002939484091847502,"84":-0.006755697933895282,"85":0.012083449318086692,"86":0.004574469574524897,"87":0.002454242164471746,"88":0.0006304709335958196,"89":-0.0011276802923808544,"90":-0.0004269096180105399,"91":-0.00022904021779367664,"92":-7.972362122117872,"93":-3.4117248631330996,"94":13.321754861657164,"95":-19.908027762741508,"96":0.00013343574794045013,"97":-0.00023866740855871794,"98":-0.00009035310199653198,"99":-0.000048475117309227856,"100":-0.009077782290583772,"101":0.016236794287825086,"102":0.006146813016843672,"103":0.0032978231724938613,"104":0.006515088093663896,"105":-0.011653087563457919,"106":-0.004411546258550137,"107":-0.002366832078344497,"108":-0.008820516515091002,"109":0.01577664178868916,"110":0.005972611853373062,"111":0.003204361966603944,"112":-0.003331192867886596,"113":0.005958276419193519,"114":0.002255644038772868,"115":0.0012101705449892978,"116":-0.004626819476143697,"117":0.008275673998759328,"118":0.0031329485462373912,"119":0.0016808519873654634,"120":0.02027411309667464,"121":-0.036262761989992225,"122":-0.013728076803845198,"123":-0.0073653434155719275,"124":-0.0037353967470974384,"125":0.006681247987023614,"126":0.0025293416833062307,"127":0.0013570116271868803,"128":-0.0009513619740765894,"129":0.0017016361671995865,"130":0.0006441939693240183,"131":0.0003456149126397428,"132":-0.0014736821972684687,"133":0.002635874628706119,"134":0.0009978716708780755,"135":0.0005353656911055545,"136":-0.004759644617968904,"137":0.008513249082408136,"138":0.00322288808382761,"139":0.0017291053641197392,"140":0.002622391078857326,"141":-0.004690491450181626,"142":-0.001775694618846871,"143":-0.0009526737769930492,"144":0.002309423629812351,"145":-0.004130708064578055,"146":-0.0015637756161540422,"147":-0.0008389775503317811,"148":-0.006436806856298808,"149":0.011513071457002333,"150":0.004358539946892344,"151":0.0023383936379793415,"152":1.1634380328662615,"153":0.8420042788274157,"154":-2.980105991690679,"155":2.871175083049561,"156":0.00887595081570206,"157":-0.015875793078500986,"158":-0.006010147823902163,"159":-0.003224500501786769,"160":-0.004763971926146599,"161":0.008520989037100095,"162":0.003225818222486059,"163":0.001730677410192177,"164":-0.009154405962015732,"165":0.01637384543803375,"166":0.006198696834661286,"167":0.003325659531061233,"168":0.008901382185048521,"169":-0.01592128031266961,"170":-0.006027368048274173,"171":-0.0032337393764347686,"172":-0.000725369365438162,"173":0.0012974186331706982,"174":0.0004911680166394011,"175":0.0002635153329792287,"176":0.007014622646410984,"177":-0.012546569533936886,"178":-0.004749794345961329,"179":-0.002548305804182241,"180":0.0008870636785056964,"181":-0.001586630200794212,"182":-0.0006006557849469382,"183":-0.0003222563473824979,"184":-0.009181939632700949,"185":0.016423092897064263,"186":0.006217340575639683,"187":0.0033356621473698152,"188":-0.002391705965354857,"189":0.004277880830875122,"190":0.001619491285838659,"191":0.0008688694470384797,"192":5.728806359840446,"193":3.791556266015576,"194":0.7443748148198829,"195":-0.8200775789477497,"196":0.015184366583648265,"197":-0.027159170982757348,"198":-0.01028172090800052,"199":-0.0055162749996629625,"200":0.0046076696655230195,"201":-0.008241422064932084,"202":-0.0031199816850405733,"203":-0.001673895149505811,"204":-9.960277560703114,"205":-3.176404138252143,"206":13.522609822250715,"207":-24.349498085774737,"208":0.0030324662189808315,"209":-0.005423964647447445,"210":-0.0020533679234160398,"211":-0.0011016477461039502,"212":0.0026069869636796126,"213":-0.004662939167807286,"214":-0.001765264062553198,"215":-0.0009470777002171733,"216":0.007701652638229806,"217":-0.013775410936887991,"218":-0.0052150003598582274,"219":-0.002797894090683512,"220":0.0056461867571268795,"221":-0.010098945013889114,"222":-0.0038231898589271745,"223":-0.002051172920429716,"224":-0.005882960064883895,"225":0.010522444786730702,"226":0.003983515448303892,"227":0.002137189177729,"228":-0.009422695965607944,"229":0.01685371607181441,"230":0.006380362723448494,"231":0.003423125737095943,"232":0.002876129513744664,"233":-0.005144335942749799,"234":-0.0019475079878933902,"235":-0.0010448530308594147,"236":-0.009079365948868802,"237":0.01623962686149981,"238":0.00614788535179531,"239":0.003298398494410053,"240":-0.013090765468935124,"241":0.02341451393441359,"242":0.008864099271186948,"243":0.004755690987995649,"244":0.0003968529462975285,"245":-0.0007098237585139412,"246":-0.0002687203032044684,"247":-0.00014417046026660456,"248":-0.0007321137727116947,"249":0.0013094818935992418,"250":0.0004957348445741675,"251":0.00026596547060905477,"252":-0.008811418446305765,"253":0.015760368736407567,"254":0.005966451320122083,"255":0.003201056760834792,"256":-0.00445526258083631,"257":0.007968822109833474,"258":0.0030167826699900877,"259":0.0016185279537948032,"260":0.015842898389348086,"261":-0.028337032740180786,"262":-0.010727625849449975,"263":-0.005755513613361234,"264":3.389060634603005,"265":6.732433361246571,"266":-8.892809334598056,"267":-4.39887396959008,"268":-0.00840715736611475,"269":0.015037296333056786,"270":0.005692715833078682,"271":0.0030541941989834743,"272":0.004412655735403783,"273":-0.007892614205747307,"274":-0.0029879324056001754,"275":-0.0016030495303771426,"276":-0.0023412017570793916,"277":0.004187547420018148,"278":0.0015852934746545119,"279":0.0008505220511371908,"280":0.005288386913846932,"281":-0.0094589735129127,"282":-0.0035809138970422684,"283":-0.001921189537963067,"284":0.0006894259529663185,"285":-0.0012331291073216348,"286":-0.0004668297206651495,"287":-0.0002504576536792216,"288":0.00510185255342586,"289":-0.009125332544544638,"290":-0.003454606411385363,"291":-0.001853424383540626,"292":-0.0018292193178045216,"293":0.0032717995342253893,"294":0.0012386158305588801,"295":0.0006645267861331178,"296":-0.002558260234848706,"297":0.004575785015562291,"298":0.0017322698342759138,"299":0.0009293760335592503,"300":0.008731025312104308,"301":-0.015616575395215012,"302":-0.005912015086672644,"303":-0.0031718510204159075,"304":-0.0014014421242559186,"305":0.002506663753136373,"306":0.0009489558888304381,"307":0.0005091219997850845,"308":-0.001415455674735558,"309":0.0025317288320725723,"310":0.0009584448574245495,"311":0.0005142129039791241,"312":-0.009298528365449943,"313":0.016631626610457566,"314":0.006296285733722184,"315":0.003378017287395841,"316":-0.006146745777493161,"317":0.010994259703207655,"318":0.004162131837305668,"319":0.002233018665978923,"320":0.007382750311377645,"321":-0.013205013207006901,"322":-0.004999063266951234,"323":-0.0026820413580850052,"324":-0.007121624703578495,"325":0.012737956486368543,"326":0.004822248259368229,"327":0.0025871781266971665,"328":-0.0064652603960022965,"329":0.011563964289315663,"330":0.004377806597108644,"331":0.0023487303968145606,"332":-0.009295017293278234,"333":0.016625346613453225,"334":0.0062939082987360255,"335":0.0033767417613473527,"336":-0.0029288900304961806,"337":0.005238705048758125,"338":0.001983233603218957,"339":0.0010640201128893209,"340":-0.16368340834857634,"341":0.29821020554901445,"342":0.11418501123922012,"343":0.057044081976229274,"344":0.008786385558791226,"345":-0.01571559423527498,"346":-0.005949500916486226,"347":-0.003191962650386067,"348":-0.00396390736705792,"349":0.007089969122074754,"350":0.0026840725354480336,"351":0.0014400260527075545,"352":0.013255792452866842,"353":-0.0237096847616762,"354":-0.008975842683625463,"355":-0.004815643497523482,"356":0.009290456645081583,"357":-0.016617189316846186,"358":-0.006290820169494331,"359":-0.003375084938234256,"360":0.005619737769815314,"361":-0.010051637567009683,"362":-0.0038052805352053014,"363":-0.0020415643938024933,"364":-0.006050284834958171,"365":0.01082172681819716,"366":0.004096815546496216,"367":0.0021979758147567846,"368":-0.6311171422697666,"369":-1.9343695799043683,"370":4.196449402463684,"371":0.3084586210291988,"372":-0.008067999896043596,"373":0.014430669899417478,"374":0.005463063585693544,"375":0.0029309829538329744,"376":-0.0019697648351933573,"377":0.0035231836713032626,"378":0.0013337831392454473,"379":0.0007155847857617522,"380":-0.009598557380641755,"381":0.0171682664318996,"382":0.006499442871554332,"383":0.0034870138809506624,"384":0.008749312930334409,"385":-0.01564928512597484,"386":-0.005924398097900809,"387":-0.003178494664975502,"388":-0.008787078291761159,"389":0.01571683327625385,"390":0.005949969983573681,"391":0.0031922143109264253,"392":-0.0015965522151755597,"393":0.002855643820203448,"394":0.001081070409082369,"395":0.0005800024524151705,"396":-0.00881746670919426,"397":0.015771186823252417,"398":0.005970546752409895,"399":0.0032032540132235165}},"b1":{"n":100,"d":1,"w":{"0":0.0001997079931787265,"1":-0.0008440081545130233,"2":0.0001622585478787692,"3":0.0008420633922510774,"4":-0.0021488451415368247,"5":10.725541202130856,"6":-0.0002984798737640702,"7":0.0005217916407689392,"8":0.00006854741972967698,"9":-0.0004121236569322126,"10":-0.007230065650107053,"11":-0.0004974245847443313,"12":0.0007577612488670882,"13":0.0001446487585956774,"14":0.00013431222116522373,"15":-0.00019284933729410815,"16":-0.00033970929313143785,"17":-34.397639538650324,"18":-0.0003674954844067552,"19":-0.00032098131188718754,"20":0.0004324045104457769,"21":-0.00036102506461966667,"22":0.000033692529670955095,"23":-35.35390706385061,"24":0.000007130841060176066,"25":-0.00048511617149392915,"26":0.0003481669344572115,"27":-0.0004713680577419305,"28":-0.0001780196699314882,"29":-0.0002472580527532917,"30":0.001083423035117978,"31":-0.00019962037170721824,"32":-0.000050841027953515747,"33":-0.00007875394743769325,"34":-0.0002543562289682617,"35":0.00014014119130673024,"36":0.000123416151590948,"37":-0.0003439836026779736,"38":10.615565476007813,"39":0.000474330431416678,"40":-0.00025458748030512994,"41":-0.0004892108874718143,"42":0.00047568946736967617,"43":-0.000038763926038260154,"44":0.00037486192701043715,"45":0.000047404910949977406,"46":-0.0004906822674839982,"47":-0.00012781333571476526,"48":-12.319006024868248,"49":0.000811443268783077,"50":0.0002462346866245092,"51":-23.121808245279222,"52":0.0001620556752798924,"53":0.0001393179926094687,"54":0.00041157655967429815,"55":0.0003017329929355208,"56":-0.0003143861290768839,"57":-0.0005035481099932511,"58":0.0001537010169516381,"59":-0.00048520080110954776,"60":-0.0006995653759930033,"61":0.000021207924407835396,"62":-0.00003912434887529648,"63":-0.0004708818626878939,"64":-0.0002380900486645033,"65":0.0008466336177940395,"66":14.37156989515419,"67":-0.0004492783893471768,"68":0.00023581313747575477,"69":-0.0001251143809787734,"70":0.0002826122000614028,"71":0.00003684310093830185,"72":0.0002726438136226825,"73":-0.00009775393229540948,"74":-0.00013671402732640776,"75":0.000466585703629129,"76":-0.00007489342088688531,"77":-0.00007564230834542156,"78":-0.0004969126856867412,"79":-0.000328482795842835,"80":0.00039453454527613863,"81":-0.0003805800831467692,"82":-0.00034550415356684745,"83":-0.0004967250565521184,"84":-0.00015652054752310284,"85":-0.009758075636669871,"86":0.00046954412089567467,"87":-0.00021183199935543946,"88":0.0007083841384351718,"89":0.0004964813388351867,"90":0.00030031956188282695,"91":-0.000323327939445207,"92":-10.416142616120604,"93":-0.0004311539904005674,"94":-0.00010526471539393727,"95":-0.0005129460077586448,"96":0.00046756298267879856,"97":-0.00046958114011298946,"98":-0.0000853201497771573,"99":-0.00047120507804048487}},"W2":{"n":3,"d":100,"w":{"0":0.00011482677400933167,"1":-0.00048528236578054417,"2":0.00009329434024972965,"3":0.0004841641781631954,"4":-0.0012355301807319087,"5":-2.1327423219370285,"6":-0.0001716179778680401,"7":0.0003000163262135129,"8":0.000039412938824719024,"9":-0.00023696013699583203,"10":-0.004066204879629406,"11":-0.00028600591279393656,"12":0.00043569264706960623,"13":0.00008316918052334415,"14":0.00007722594689953864,"15":-0.00011088322948593602,"16":-0.0001953237987695118,"17":7.6257844972769195,"18":-0.00021130012123113753,"19":-0.0001845557069250168,"20":0.00024862109045191877,"21":-0.0002075798015505447,"22":0.000019372306256401278,"23":-0.5825548748133071,"24":0.0000041000434858292,"25":-0.0002789289005719934,"26":0.0002001867179892506,"27":-0.0002710240987774365,"28":-0.00010235656564808719,"29":-0.00014216679278506196,"30":0.0006229397175835957,"31":-0.00011477639399603061,"32":-0.000029232235582597284,"33":-0.000045281420182564485,"34":-0.00014624805528731035,"35":0.00008057744942478352,"36":0.00007096099723095454,"37":-0.0001977814132740334,"38":-1.3053631635906044,"39":0.000272727385277351,"40":-0.00014638101865482894,"41":-0.00028128325399276737,"42":0.00027350879500256096,"43":-0.000022288223959555864,"44":0.00021553563028949203,"45":0.00002725655991187969,"46":-0.00028212925859928066,"47":-0.00007348926093123701,"48":1.5590903922323758,"49":0.00046655840576924443,"50":0.00014157838448598876,"51":-0.44802231864515457,"52":0.00009317769390921509,"53":0.0000801041321064859,"54":0.00023664557057151217,"55":0.0001734884349380213,"56":-0.00018076365201252596,"57":-0.0002895267779742678,"58":0.00008837398792121336,"59":-0.0002789775603631602,"60":-0.0004022315446291231,"61":0.000012193991087752679,"62":-0.000022495457481715556,"63":-0.00027074454948334886,"64":-0.00013689543435085484,"65":0.0004867919387510373,"66":3.7413361749946983,"67":-0.0002583231240149628,"68":0.0001355862710010508,"69":-0.00007193743387600015,"70":0.00016249448726642464,"71":0.000021183800737805293,"72":0.00015676293010260113,"73":-0.00005620590503951263,"74":-0.00007860692144781548,"75":0.0002682743716849109,"76":-0.00004306172032369881,"77":-0.00004349231064951575,"78":-0.00028571158436625646,"79":-0.00018886886095175772,"80":0.00022684686404534228,"81":-0.00021882341838568053,"82":-0.00019865568966672244,"83":-0.0002856037025732558,"84":-0.00008999514289099008,"85":-0.005571823800798571,"86":0.00026997538334283067,"87":-0.00012179775480659257,"88":0.0004073021017765031,"89":0.0002854635713280514,"90":0.00017267574964477096,"91":-0.00018590495543814015,"92":-7.154247950959045,"93":-0.00024790207454754765,"94":-0.00006052440514278799,"95":-0.00029493032087862526,"96":0.000268836281281934,"97":-0.00026999666841339277,"98":-0.00004905681150157095,"99":-0.0002709303897606483,"100":-0.0002385788123616851,"101":0.0010082856061848242,"102":-0.00019384026714984383,"103":-0.0010059623104315234,"104":0.0025671127332185057,"105":-10.852541626082848,"106":0.0003565755113963192,"107":-0.0006233525134042543,"108":-0.0000818893662880951,"109":0.000492338803949505,"110":0.008635708729826615,"111":0.0005942426587874143,"112":-0.0009052514189654993,"113":-0.00017280293775642932,"114":-0.00016045451412546405,"115":0.00023038519846839997,"116":0.00040582977624315517,"117":-5.797257854237089,"118":0.00043902424290853393,"119":0.00038345660202685297,"120":-0.0005165671083383696,"121":0.0004312944270377682,"122":-0.00004025038283626667,"123":0.21369817632107746,"124":-0.000008518775078234628,"125":0.0005795385399936603,"126":-0.0004159336037331385,"127":0.0005631144989271805,"128":0.00021266910831836,"129":0.00029538394423280927,"130":-0.0012943011373324803,"131":0.0002384741363838695,"132":0.00006073663402493537,"133":0.00009408247444466187,"134":0.00030386369937946393,"135":-0.000167418025155243,"136":-0.00014743765214899032,"137":0.0004109360327411877,"138":0.35075225435361007,"139":-0.0005666534677254037,"140":0.0003041399611505445,"141":0.000584430250053635,"142":-0.0005682770258622175,"143":0.00004630886666855662,"144":-0.0004478244828174272,"145":-0.000056631717366556335,"146":0.0005861880189799862,"147":0.00015269069667014234,"148":-0.456992563747876,"149":-0.0009693822130528829,"150":-0.0002941613915876818,"151":-0.16356697748876808,"152":-0.00019359790776220365,"153":-0.00016643460045254977,"154":-0.0004916852201004584,"155":-0.0003604618136026916,"156":0.0003755777406674899,"157":0.0006015580653379881,"158":-0.00018361711255668642,"159":0.0005796396418869696,"160":0.0008357282168787872,"161":-0.00002533579650778679,"162":0.000046739441558604135,"163":0.0005625336710841713,"164":0.00028443149308197036,"165":-0.0010114220964033925,"166":5.663906993655836,"167":0.0005367253086636134,"168":-0.0002817114072295257,"169":0.00014946642199684232,"170":-0.00033761937413604706,"171":-0.00004401417562554465,"172":-0.0003257107542589965,"173":0.000116780582930777,"174":0.00016332380376813012,"175":-0.0005574013095970854,"176":0.00008947054184274352,"177":0.00009036519142888601,"178":0.0005936311238458242,"179":0.00039241816611857436,"180":-0.0004713261618233303,"181":0.0004546556155377381,"182":0.00041275254201635233,"183":0.0005934069746312931,"184":0.00018698543187961172,"185":0.011658260130679986,"186":-0.000560935551831819,"187":0.00025306261634235803,"188":-0.0008462634741220306,"189":-0.0005931158197695179,"190":-0.00035877327409807524,"191":0.00038625997442681307,"192":-10.421699412885781,"193":0.000515073187900607,"194":0.00012575325175361227,"195":0.0006127851678395224,"196":-0.0005585688057833307,"197":0.000560979776452783,"198":0.00010192671081263985,"199":0.000562919796929015,"200":-0.000041960901408991176,"201":0.00017733598953967238,"202":-0.00003409234928731533,"203":-0.0001769273704485641,"204":0.00045150360524310364,"205":-1.5280380916044873,"206":0.00006271399643162389,"207":-0.00010963438332888928,"208":-0.000014402584383141846,"209":0.00008659186095556289,"210":0.0015694227080816732,"211":0.00010451457880399942,"212":-0.0001592144381274967,"213":-0.00003039233364385299,"214":-0.000028220510449944975,"215":0.00004051982014386174,"216":0.00007137676917543247,"217":-2.1576696800379733,"218":0.00007721496708752781,"219":0.00006744180578400764,"220":-0.00009085310323553727,"221":0.00007585545748519857,"222":-0.000007079179617648415,"223":-0.9112690471056643,"224":-0.0000014982699435833239,"225":0.00010192843711727683,"226":-0.00007315381664639204,"227":0.00009903979783383369,"228":0.000037403939221355184,"229":0.00005195170838268783,"230":-0.0002276401851382341,"231":0.00004194249114541678,"232":0.000010682272120106678,"233":0.00001654709080159798,"234":0.00005344311590323298,"235":-0.000029445242867807808,"236":-0.00002593112329405707,"237":0.00007227485063571182,"238":-1.075967805293958,"239":-0.00009966222711586313,"240":0.000053491704438944785,"241":0.00010278878483916498,"242":-0.00009994777643572986,"243":0.000008144737070380023,"244":-0.00007876274145759583,"245":-0.000009960305258942524,"246":0.00010309793899769375,"247":0.000026855021284274842,"248":2.844639235873147,"249":-0.0001704936977836773,"250":-0.00005173668752841963,"251":-0.22069432500211061,"252":-0.000034049723461676226,"253":-0.00002927227952907473,"254":-0.00008647690949245474,"255":-0.00006339751391839902,"256":0.00006605608242826635,"257":0.00010580120323729945,"258":-0.00003229431535407786,"259":0.00010194621878910425,"260":0.00014698677154514344,"261":-0.000004456023556702014,"262":0.000008220465964953355,"263":0.00009893764258021712,"264":0.000050025406562822026,"265":-0.000177887632524487,"266":3.8444501830753213,"267":0.00009439850118957922,"268":-0.00004954700166496848,"269":0.000026287940445554257,"270":-0.00005938001715320799,"271":-0.000007741150098574214,"272":-0.00005728554557036265,"273":0.00002053920168395366,"274":0.000028725157031306896,"275":-0.00009803496945432882,"276":0.000015735950692255057,"277":0.000015893300381666974,"278":0.000104407022814847,"279":0.00006901795344181892,"280":-0.00008289618534250178,"281":0.00007996419192364082,"282":0.00007259433582319619,"283":0.0001043675997356389,"284":0.00003288673057828268,"285":0.002072376895762519,"286":-0.00009865656742358847,"287":0.00004450829247860521,"288":-0.00014883970106899236,"289":-0.00010431639178829924,"290":-0.00006310053591215234,"291":0.00006793485909135505,"292":-2.193301487126268,"293":0.00009059035446749374,"294":0.00002211730186797659,"295":0.00010777581185773209,"296":-0.00009824030717814985,"297":0.00009866434559298383,"298":0.00001792672387819337,"299":0.00009900555389689896}},"b2":{"n":3,"d":1,"w":{"0":15.603440659275089,"1":4.634145406430723,"2":12.006734770040813}}}}}