{"numStates":1,"sensitivity":18.164126190687426,"alpha":0.07097057284391943,"gamma":0.7729004490991811,"epsilon":0.34399353651454456,"cycles":6521,"max":{"lastUpdatedDate":"2017-10-07T01:54:10.321Z","meetsCriterion":true,"cycles":2591,"wealth":2.9304933353838716,"percentSuccess":0.28876406061955795,"odds":3.5714285714285716,"weights":{"nh":100,"ns":4,"na":3,"net":{"W1":{"n":100,"d":4,"w":{"0":-0.009322768623252473,"1":0.014276886283352818,"2":0.004718305138416595,"3":0.004433060844348631,"4":-21.556916066320156,"5":-26.467216952007544,"6":42.006564192157626,"7":-6.715175442770356,"8":-12.226593124059418,"9":-4.940804693846713,"10":-6.096525676162117,"11":-3.1145245106786894,"12":-0.003969512459328628,"13":0.006078890448734684,"14":0.0020089967517038726,"15":0.001887545978056268,"16":0.0068461580430568365,"17":-0.010484186184812571,"18":-0.003464882852736937,"19":-0.0032554165841608466,"20":0.0010973507983652138,"21":-0.0016804759933796438,"22":-0.0005553768304190194,"23":-0.0005218025563491084,"24":0.0019519491040696359,"25":-0.002989202768386586,"26":-0.000987894859279994,"27":-0.0009281734575612608,"28":-0.00309627037046667,"29":0.00474161065278239,"30":0.0015670434187924364,"31":0.0014723104465606091,"32":0.0070884003439079905,"33":-0.010855157056043974,"34":-0.003587482803002232,"35":-0.0033706046325663354,"36":-0.00768607333943215,"37":0.011770436704286468,"38":0.0038899677166187234,"39":0.0036548024208044563,"40":-0.003788825636831144,"41":0.0058021871955130895,"42":0.0019175500326006193,"43":0.0018016275835499136,"44":0.008182186758166388,"45":-0.012530188281882477,"46":-0.00414105270899544,"47":-0.003890707626979939,"48":0.0016706818633290192,"49":-0.00255847172555728,"50":-0.0008455436039512966,"51":-0.0007944278086748063,"52":-0.007256853698892226,"53":0.011113127326347241,"54":0.0036727378046518865,"55":0.003450705444833709,"56":0.009306253163169012,"57":-0.014251594319935806,"58":-0.004709946613296461,"59":-0.004425207658408354,"60":-0.002186501907741254,"61":0.003348395644061617,"62":0.0011066036098750147,"63":0.0010397058622608655,"64":0.0009841361338597924,"65":-0.0015070997622404325,"66":-0.000498078109419259,"67":-0.0004679677255038815,"68":0.003717110407605828,"69":-0.005692362726136946,"70":-0.0018812545078717455,"71":-0.0017675262681775428,"72":-0.006237856518440247,"73":0.009552631405572595,"74":0.003157018479245559,"75":0.0029661643596019223,"76":-0.0031721490152725232,"77":0.0048578108896591594,"78":0.001605446090032796,"79":0.0015083915330775472,"80":-0.00485082806527056,"81":0.007428535382516711,"82":0.0024550358434588873,"83":0.0023066200795386414,"84":-0.0018215827141648013,"85":0.0027895604166445894,"86":0.0009219155482820612,"87":0.0008661828163076149,"88":-0.008420263176452003,"89":0.012894780452021389,"90":0.004261544081570757,"91":0.004003914444267458,"92":0.004881736983745068,"93":-0.007475869266271541,"94":-0.0024706790255112155,"95":-0.002321317559740596,"96":2.563586736502652,"97":3.2399243852313093,"98":1.611160433118379,"99":-0.21550206514726705,"100":0.00805951047439446,"101":-0.012342320888274163,"102":-0.004078965764580131,"103":-0.0038323742679040123,"104":0.013281112238974619,"105":-0.02033876248172057,"106":-0.006721629872393497,"107":-0.006315265451701889,"108":0.005845870818846817,"109":-0.008952343848233658,"110":-0.0029586324894287684,"111":-0.002779771858154475,"112":-0.0005762851029636573,"113":0.0008825192812210215,"114":0.00029166188578087955,"115":0.0002740300139100494,"116":0.021217390340228057,"117":-0.03249243723416285,"118":-0.010738211540953274,"119":-0.01008901714599183,"120":0.02123443798933643,"121":-0.03251854315311936,"122":-0.010746839634836499,"123":-0.010097123745332576,"124":0.002123677233963435,"125":-0.003252186278366623,"126":-0.001074807621300821,"127":-0.0010098320495637227,"128":0.016439368359123897,"129":-0.02517538906353762,"130":-0.008320024955522552,"131":-0.0078170197711596,"132":-0.005961561574460096,"133":0.009129512824474214,"134":0.003017184187995142,"135":0.002834783800657845,"136":0.01564475554367285,"137":-0.023958501316180714,"138":-0.007917870834180718,"139":-0.007439180242419755,"140":0.007481316196404939,"141":-0.011456870392798371,"142":-0.0037863392578074253,"143":-0.003557438973667746,"144":-0.004730894909615997,"145":0.007244869899117317,"146":0.002394336976939481,"147":0.002249590734288172,"148":-1.089971021031883,"149":-1.5053906523476146,"150":1.3435869391803954,"151":1.8807504136309838,"152":0.0051529264356916975,"153":-0.007891168584080222,"154":-0.0026079295531666667,"155":-0.0024502706535071694,"156":-0.011636873146898116,"157":0.017820740785999004,"158":0.005889478710467478,"159":0.005533426515776064,"160":-0.0054010557780371825,"161":0.008271153812792807,"162":0.002733509196528938,"163":0.0025682584025169593,"164":0.0006584234733625795,"165":-0.0010083054558732004,"166":-0.00033323268334643254,"167":-0.0003130877262228574,"168":-0.003574597211642995,"169":0.0054741185057410454,"170":0.0018091276851506448,"171":0.0016997597963203037,"172":-0.007154592516725324,"173":0.010956524055053858,"174":0.003620982961899211,"175":0.0034020795020820354,"176":0.010084192163358735,"177":-0.015442939902376843,"178":-0.0051036637275199285,"179":-0.004795121318704585,"180":0.03166103261337454,"181":-0.04847788459726639,"182":-0.016025516602464145,"183":-0.015057762154153458,"184":-0.012686196021037828,"185":0.019427694773460385,"186":0.00642054229605686,"187":0.006032381862568214,"188":-0.015422422419152962,"189":0.023618015184876825,"190":0.007805347930240193,"191":0.007333460604594152,"192":0.002730312761333375,"193":-0.004181184823673902,"194":-0.0013818298898300935,"195":-0.0012982937511050686,"196":0.009234145952436167,"197":-0.014141168527518014,"198":-0.004673452930057917,"199":-0.0043909203065502275,"200":0.004311102555918991,"201":-0.006602000650584371,"202":-0.002181877578677443,"203":-0.0020499754366824006,"204":0.009758081205427451,"205":-0.014943529238301886,"206":-0.004938618106282092,"207":-0.004640054101736218,"208":-0.0038400795836135413,"209":0.005880677328730125,"210":0.001943489973521484,"211":0.001825999350757105,"212":0.009009588219055077,"213":-0.013797278399013924,"214":-0.004559803540904745,"215":-0.004284141906016706,"216":-0.009544201474508863,"217":0.01461599115480858,"218":0.004830372966895121,"219":0.004538353271643044,"220":-0.016254321032358736,"221":0.024892003624573358,"222":0.008226372335865461,"223":0.007729029450374166,"224":0.007185373020328327,"225":-0.011003661464660423,"226":-0.0036365611134568073,"227":-0.0034167158585664678,"228":0.000034873668876558114,"229":-0.0000534053101713683,"230":-0.0000176498057796663,"231":-0.000016582820022113565,"232":0.027634786730492238,"233":-0.042318206310955966,"234":-0.013986487881896327,"235":-0.013141168996279996,"236":0.012631679209377978,"237":-0.019344206573116626,"238":-0.0063929512857427385,"239":-0.0060064590209052,"240":0.017313960142203978,"241":-0.02651475567311619,"242":-0.008762657077056127,"243":-0.008232890332857104,"244":-0.01429963104937829,"245":0.02189854579731122,"246":0.007237102773693581,"247":0.006799572281053354,"248":0.008180794830732998,"249":-0.012528056673367993,"250":-0.0041403482491633595,"251":-0.0038900457566541586,"252":0.006856255378549973,"253":-0.010499649283245817,"254":-0.0034699931617062953,"255":-0.0032602179447739545,"256":0.0024279998635010577,"257":-0.0037182243458330584,"258":-0.001228827336011158,"259":-0.0011545407423659562,"260":0.004572570915246166,"261":-0.0070024127797129136,"262":-0.0023142082740605844,"263":-0.0021743061679632943,"264":21.337601010946262,"265":27.864271772841562,"266":-44.7970918896091,"267":4.585972550167213,"268":0.004392178716653081,"269":-0.006726160508588319,"270":-0.002222910710078099,"271":-0.0020885279394094796,"272":-0.012251742934614705,"273":0.018762364307335008,"274":0.0062006651331031875,"275":0.005825798575114273,"276":0.006184355754515393,"277":-0.009470700222692587,"278":-0.0031299414709782085,"279":-0.0029407243037032,"280":-0.020033536015814556,"281":0.03067952152023191,"282":0.010139047907413726,"283":0.009526070599337659,"284":-0.007117489618236229,"285":0.010899704503481123,"286":0.0036022050170183397,"287":0.0033844367989647726,"288":-0.002324547528676157,"289":0.0035597979756817346,"290":0.0011764694210110622,"291":0.001105348045055327,"292":-0.0020133274844247513,"293":0.0030831972779906693,"294":0.0010189588712556851,"295":0.0009573595455278234,"296":-0.000411020210320289,"297":0.0006294336877605358,"298":0.0002080201790271494,"299":0.00019544471026237059,"300":-0.026950805059233304,"301":0.041271205988042195,"302":0.01364022374457625,"303":0.012815776978068611,"304":-0.006400054097889803,"305":0.009801021167445682,"306":0.003239107487774653,"307":0.0030432906349478353,"308":0.009989411001030322,"309":-0.015297790733092644,"310":-0.005055694737308489,"311":-0.00475005246460466,"312":0.015515952762044817,"313":-0.023761249741477277,"314":-0.007852683681041268,"315":-0.00737793437949304,"316":0.00013882028401739982,"317":-0.00021258848213245523,"318":-0.00007025790886472049,"319":-0.00006601059931797948,"320":0.14502179158356884,"321":0.23429232739214448,"322":-2.459682634687387,"323":1.3910624657711903,"324":-0.013103521257124648,"325":0.020066795693986055,"326":0.0066317509496124066,"327":0.006230820688055665,"328":0.011310223318165393,"329":-0.017320503327931742,"330":-0.005724160702645867,"331":-0.005378103593479449,"332":-0.0068743222663065215,"333":0.010527316985399894,"334":0.0034791368983933596,"335":0.0032688088884822897,"336":-0.001827920547408402,"337":0.0027992661382660474,"338":0.0009251231685940286,"339":0.0008691965253037158,"340":-0.006585946599383353,"341":0.01008569747632294,"342":0.0033331885964701965,"343":0.0031316840100576488,"344":-0.0017996935914145209,"345":0.002756039539377588,"346":0.0009108373150114571,"347":0.0008557742990468845,"348":0.0002688445044371434,"349":-0.0004117067306631593,"350":-0.00013606406867542882,"351":-0.00012783857153390732,"352":0.008498452868726318,"353":-0.013014520823576887,"354":-0.004301116171164597,"355":-0.004041094116014575,"356":-0.004929478659174928,"357":0.0075489808195573355,"358":0.0024948413621458596,"359":0.002344019172142399,"360":0.016090217603355213,"361":-0.02464069202994082,"362":-0.008143319461162089,"363":-0.007650998019129351,"364":0.006304764574420385,"365":-0.009655094554402686,"366":-0.0031908809838083947,"367":-0.0029979796902076653,"368":0.006628210299025601,"369":-0.010150420240021482,"370":-0.0033545784597596327,"371":-0.00315178073369637,"372":0.0036755441830056664,"373":-0.005628708348609145,"374":-0.0018602175815337274,"375":-0.0017477611074703389,"376":0.004120349771458176,"377":-0.0063098822967371715,"378":-0.002085336439221926,"379":-0.001959270616136854,"380":0.005363749119818011,"381":-0.008214022394254188,"382":-0.0027146280908019434,"383":-0.002550518751820605,"384":0.002899691873738483,"385":-0.0044405712088547615,"386":-0.001467553766364004,"387":-0.0013788353096089317,"388":0.005301822087781753,"389":-0.00811918734098972,"390":-0.0026832864763889483,"391":-0.0025210718900518887,"392":0.0009563601912463757,"393":-0.0014645638578795698,"394":-0.0004840205134710875,"395":-0.0004547599558711235,"396":0.006013949815664242,"397":-0.009209740257514195,"398":-0.003043698149396145,"399":-0.0028596948530579904}},"b1":{"n":100,"d":1,"w":{"0":-0.00005328240319086756,"1":-27.81608559153591,"2":2.0786066446621123,"3":-0.00002268658332595301,"4":0.00003912749196451323,"5":0.0000062715642251939514,"6":0.000011155759857613262,"7":-0.000017695798126744154,"8":0.00004051199789674376,"9":-0.000043927937109604144,"10":-0.000021653913526620612,"11":0.00004676343751432938,"12":0.000009548261775660155,"13":-0.0000414747740080345,"14":0.00005318800898137231,"15":-0.000012496276642730293,"16":0.00000562452100273967,"17":0.000021244043567678584,"18":-0.000035650832658960186,"19":-0.00001812946169361188,"20":-0.000027723535451253014,"21":-0.00001041068992635778,"22":-0.000048124150928197175,"23":0.000027900188621790113,"24":-0.7717177179743544,"25":0.0000460622888155415,"26":0.00007590676737746127,"27":0.000033410504465673783,"28":-0.0000032935760073761915,"29":0.00012126605778936311,"30":0.00012136347504577122,"31":0.000012137220812069791,"32":0.00009395847098047429,"33":-0.00003407171474475729,"34":0.00008941670037445827,"35":0.00004275766635382044,"36":-0.00002703808404944642,"37":0.07386439933613577,"38":0.000029450114292051298,"39":-0.00006650883451299246,"40":-0.00003086824741466862,"41":0.000003763012088029619,"42":-0.00002042954648735038,"43":-0.00004089031160350354,"44":0.000057634341009336556,"45":0.00018081213656551438,"46":-0.00007250640771548385,"47":-0.00008814590611903724,"48":0.000015604269861788445,"49":0.00005277587997749362,"50":0.000024638857966561244,"51":0.000055770440497167364,"52":-0.000021946842382110863,"53":0.000051492421420360584,"54":-0.000054548005478304076,"55":-0.00009290079823902204,"56":0.000041066234088554614,"57":1.9930945493541849e-7,"58":0.00015791058702291006,"59":0.00007219480692270326,"60":0.00009895732923101382,"61":-0.00008172833437611572,"62":0.000046755482034634514,"63":0.00003918520197805305,"64":0.000013876487427553829,"65":0.00002613321913490914,"66":27.815439859470604,"67":0.000025102229514520505,"68":-0.00007002321527103928,"69":0.00003534505764108391,"70":-0.000114500665103933,"71":-0.00004067825425127313,"72":-0.000013285235791522379,"73":-0.000011506549643471609,"74":-0.0000023490564687644825,"75":-0.00015400947937384363,"76":-0.000036577847686048436,"77":0.000057092614770996495,"78":0.00008868049967701274,"79":7.933835514192672e-7,"80":0.8752462538732582,"81":-0.00007489171015382074,"82":0.00006464182597176053,"83":-0.000039288460948429505,"84":-0.000010446911901844227,"85":-0.00003764028891065822,"86":-0.00001028558924803508,"87":0.000001536495995518397,"88":0.0000485710407516495,"89":-0.0000281730458097901,"90":0.00009196283268638376,"91":0.000036033235090057425,"92":0.00003788184109925124,"93":0.000021006482566645662,"94":0.00002354865660677358,"95":0.00003065502858396922,"96":0.000016572308360965915,"97":0.000030301097001990743,"98":0.000005465776253499699,"99":0.00003437113077475937}},"W2":{"n":3,"d":100,"w":{"0":-0.000024610902129349016,"1":-0.09781313133593614,"2":-0.08165043306034482,"3":-0.000010478488541310793,"4":0.000018072490135290697,"5":0.0000028966918663483208,"6":0.000005152596648751129,"7":-0.000008173317837823065,"8":0.000018712004977483205,"9":-0.000020289868076713107,"10":-0.000010001511726145268,"11":0.000021599633290834847,"12":0.000004410126903089567,"13":-0.000019156720967747635,"14":0.000024567298648855222,"15":-0.000005771754236480431,"16":0.000002597837116621208,"17":0.000009812198361181139,"18":-0.00001646660428819431,"19":-0.000008373619903501772,"20":-0.000012805006431382279,"21":-0.000004808464289226252,"22":-0.0000222281741958798,"23":0.000012886601250172462,"24":0.011799093756058109,"25":0.000021275759758150587,"26":0.00003506216703836712,"27":0.000015431794557359345,"28":-0.0000015212266561626725,"29":0.00005601442200031818,"30":0.00005605940422506744,"31":0.00000560591352283163,"32":0.000043401411438763,"33":-0.000015737207527109103,"34":0.00004130328748269167,"35":0.00001974930404306753,"36":-0.000012488401723443549,"37":0.054414152377409146,"38":0.000013602502190581176,"39":-0.00003072072616912265,"40":-0.000014257531429312808,"41":0.000001738048423095757,"42":-0.000009435993658423594,"43":-0.00001888675172690413,"44":0.000026621207104161963,"45":0.00008338411987131872,"46":-0.000033491334806984595,"47":-0.000040716225217903064,"48":0.000007207277227200489,"49":0.000024376924231201484,"50":0.000011380221660095912,"51":0.000025760205560837927,"52":-0.00001013681167545878,"53":0.000023784059057487173,"54":-0.000025195522728601136,"55":-0.000042912809794387144,"56":0.000018968012091875212,"57":9.205641674316326e-8,"58":0.00007290939500093114,"59":0.00003334738814510887,"60":0.00004571064647768688,"61":-0.000037751524130495094,"62":0.000021595958503433012,"63":0.00001809914681613074,"64":0.000006409246664998001,"65":0.000012070452386017044,"66":-0.04860730843876717,"67":0.000011594248176772723,"68":-0.00003234420601594672,"69":0.000016325366121410665,"70":-0.00005289017208603293,"71":-0.00001878880036472812,"72":-0.0000061361589426513465,"73":-0.000005314619269770443,"74":-0.000001084974816919283,"75":-0.0000711150867981436,"76":-0.000016894795387805808,"77":0.000026370964011198162,"78":0.00004096318879037309,"79":3.6644547309488266e-7,"80":0.042117449264522405,"81":-0.000034593249337332775,"82":0.000029858262581025873,"83":-0.000018146842908102785,"84":-0.000004825194463229539,"85":-0.00001738554172841509,"86":-0.000004750682902964341,"87":7.09671905731137e-7,"88":0.00002243460224957759,"89":-0.000013012632075486447,"90":0.00004247950647409265,"91":0.000016643237007727513,"92":0.000017497115982894247,"93":0.000009702472229792387,"94":0.000010876669786472118,"95":0.00001415904646787379,"96":0.000007654397035508496,"97":0.000013995566946233669,"98":0.0000025245164936381535,"99":0.00001587550795309686,"100":-0.0000053386816742992276,"101":-1.0898561809013751,"102":0.26747308120190205,"103":-0.0000022722903312009717,"104":0.000003919650348379714,"105":6.28110939164558e-7,"106":0.0000011172897780957383,"107":-0.0000017723539312815773,"108":0.0000040584145510271575,"109":-0.000004400811423437917,"110":-0.000002168841715423264,"111":0.000004685060631605567,"112":9.562877001213353e-7,"113":-0.000004154914218818004,"114":0.000005329216096743919,"115":-0.0000012515540149779388,"116":5.633074115383538e-7,"117":0.0000021277832564627684,"118":-0.0000035712256730840393,"119":-0.000001815792942386453,"120":-0.0000027769069097769838,"121":-0.00000104266552515597,"122":-0.000004821478309671612,"123":0.0000027946056898255358,"124":0.6709661286935776,"125":0.000004614770058634908,"126":0.00000760834180784461,"127":0.0000033467247613347423,"128":-3.2985729880034027e-7,"129":0.000012155560111343248,"130":0.000012165286847403807,"131":0.0000012155912884858554,"132":0.000009420009809967947,"133":-0.000003412982302711424,"134":0.000008964227121686036,"135":0.000004283504502760506,"136":-0.000002708232699631458,"137":0.17982277075300057,"138":0.000002949895446275794,"139":-0.000006665331866903706,"140":-0.0000030919865017587313,"141":3.768723387685334e-7,"142":-0.000002046192563156931,"143":-0.0000040963327842965365,"144":0.000005775119510775796,"145":0.000017802629115744637,"146":-0.000007267112741279863,"147":-0.000008836688911197738,"148":0.0000015628551667945058,"149":0.000005287889406816117,"150":0.000002467867670623737,"151":0.0000055881875086539265,"152":-0.00000219818589137688,"153":0.000005159193468253658,"154":-0.0000054655959947527915,"155":-0.0000093138748491311,"156":0.000004113965598137585,"157":1.9961148305767495e-8,"158":0.000015753637082967493,"159":0.000007235844832439413,"160":0.000009921554008789404,"161":-0.000008192594637609286,"162":0.000004684263079567831,"163":0.000003925434288799998,"164":0.0000013897962888766417,"165":0.0000026175776712872968,"166":-1.2725846041474604,"167":0.0000025142891714049965,"168":-0.00000701794200039916,"169":0.000003540583345448024,"170":-0.000011479246439309499,"171":-0.000004075078297389056,"172":-0.0000013305760629127214,"173":-0.000001152424176244623,"174":-2.3526183290148349e-7,"175":-0.000015380806040193072,"176":-0.0000036641255598327726,"177":0.000005720787967310202,"178":0.00000889034161024226,"179":7.945859019416029e-8,"180":-0.1039436961104209,"181":-0.000007506476962726798,"182":0.000006478025494742519,"183":-0.00000393578336605412,"184":-0.0000010462934096432857,"185":-0.000003770600526842469,"186":-0.0000010301358266979859,"187":1.538824959477331e-7,"188":0.000004866282588501992,"189":-0.000002821943257781424,"190":0.00000921974863662191,"191":0.000003609547412351957,"192":0.000003794808755504668,"193":0.000002103985895994374,"194":0.000002358651082073093,"195":0.0000030706224946897092,"196":0.000001659818236270058,"197":0.0000030351597002339375,"198":5.474086349536185e-7,"199":0.0000034429861704219905,"200":-0.00000574833895396692,"201":-0.14330481119649724,"202":0.11437465294965933,"203":-0.000002446585605966348,"204":0.000004220357650361753,"205":6.762859511270803e-7,"206":0.0000012029852471914431,"207":-0.000001908296960624031,"208":0.000004369773195978016,"209":-0.000004738454339273386,"210":-0.0000023352006716107778,"211":0.000005044526737930283,"212":0.0000010296339717359153,"213":-0.000004473680364274377,"214":0.000005738146423882322,"215":-0.000001347548010892805,"216":6.065120469751934e-7,"217":0.0000022909923617070013,"218":-0.0000038451907309278264,"219":-0.000001955068209170268,"220":-0.0000029899179848336244,"221":-0.0000011226371302015327,"222":-0.000005191418742152443,"223":0.0000030089747654598637,"224":0.1513643237027058,"225":0.000004968839387781323,"226":0.000008192385661480424,"227":0.0000036034606492979444,"228":-3.551566492607572e-7,"229":0.000013088725546051977,"230":0.000013099195886204065,"231":0.000001308826803030746,"232":0.000010143310698607924,"233":-0.000003674802947355464,"234":0.000009652495825560019,"235":0.000004612141905817126,"236":-0.0000029159745694965016,"237":0.17380342204987065,"238":0.0000031761799616612437,"239":-0.000007176903145096183,"240":-0.000003329174189415001,"241":4.057776594474452e-7,"242":-0.000002203142420007027,"243":-0.000004410602074014884,"244":0.0000062182981391988515,"245":0.000019143181110322197,"246":-0.000007824929945038921,"247":-0.000009515154053687604,"248":0.0000016827277604122036,"249":0.00000569364589430711,"250":0.0000026571676767161822,"251":0.000006017007765215416,"252":-0.0000023667960402830267,"253":0.000005555066611836553,"254":-0.000005885000518734821,"255":-0.000010029018539461145,"256":0.000004429588415837594,"257":2.1492122810386703e-8,"258":0.000016956921516813322,"259":0.000007791258926757368,"260":0.000010683395567691911,"261":-0.000008821548145725793,"262":0.000005043667950503329,"263":0.0000042265855470127196,"264":0.0000014963941312745566,"265":0.0000028183639515502883,"266":-0.3365068651442292,"267":0.0000027071507500152017,"268":-0.0000075566097079511625,"269":0.0000038121967024561626,"270":-0.000012360641560338827,"271":-0.000004387716064541671,"272":-0.000001432631404516208,"273":-0.0000012408145574786164,"274":-2.533058959977267e-7,"275":-0.00001655694770906553,"276":-0.000003945220538050877,"277":0.0000061597932393167594,"278":0.000009572930936872355,"279":8.555288330170171e-8,"280":-0.02085937068366829,"281":-0.000008082691307816821,"282":0.000006975204552233742,"283":-0.000004237728987706695,"284":-0.0000011265432812518654,"285":-0.000004059867574393533,"286":-0.000001109146377707994,"287":1.6568493695915906e-7,"288":0.000005239663277705681,"289":-0.000003038409916797666,"290":0.00000992765779279298,"291":0.000003886453575911301,"292":0.000004085933853654988,"293":0.000002265369370007641,"294":0.0000025395718830854745,"295":0.000003306170813392561,"296":0.0000017871286949765565,"297":0.000003267986801659009,"298":5.893938505164651e-7,"299":0.0000037071094175085868}},"b2":{"n":3,"d":1,"w":{"0":0.6150550495236078,"1":1.022559472587573,"2":0.9160763702710873}}}}},"weights":{"nh":100,"ns":4,"na":3,"net":{"W1":{"n":100,"d":4,"w":{"0":-0.012300536794854846,"1":0.01858096198282126,"2":0.0062129537092978455,"3":0.005962396885140979,"4":-29.02429008689902,"5":-28.616307865396617,"6":43.57545049612349,"7":-15.07382792514837,"8":0.09318919859158847,"9":-0.14076988350221853,"10":-0.04706950961684048,"11":-0.04517128239715593,"12":-0.005235295025496155,"13":0.007908339230790517,"14":0.0026443273284055407,"15":0.0025376865453797795,"16":0.009030828352824606,"17":-0.013641801244680753,"18":-0.004561436578143184,"19":-0.004377482358077466,"20":0.001447150045993115,"21":-0.0021860379257316242,"22":-0.0007309499073406963,"23":-0.0007014720626660283,"24":0.0025742042398210333,"25":-0.003888545014880622,"26":-0.001300220634261776,"27":-0.0012477851642881815,"28":-0.004083453792692902,"29":0.00616838930079185,"30":0.0020625367633254014,"31":0.001979358507426602,"32":0.009350551271722308,"33":-0.014124768736860548,"34":-0.004722927391952333,"35":-0.004532460548779651,"36":-0.010139469548689056,"37":0.015316494007035266,"38":0.005121406972530285,"39":0.004914870191557883,"40":-0.004996951710247985,"41":0.007548302254395212,"42":0.00252394103892961,"43":0.0024221552101710915,"44":0.010794423827538722,"45":-0.016305855754769987,"46":-0.005452221854232508,"47":-0.005232343926419243,"48":0.002203260023485539,"49":-0.0033282035854411917,"50":-0.001112858141092804,"51":-0.00106797865057159,"52":-0.009572894972305426,"53":0.014460636993856735,"54":0.004835232338005921,"55":0.004640236445962475,"56":0.012278724790362232,"57":-0.01854801317461415,"58":-0.006201936549887797,"59":-0.005951824027216717,"60":-0.002883545232645522,"61":0.00435582976142983,"62":0.0014564675768103598,"63":0.0013977309594294038,"64":0.00129784454127219,"65":-0.0019604998091017085,"66":-0.0006555362726951654,"67":-0.0006290997190679071,"68":0.004902353973484909,"69":-0.007405404673732863,"70":-0.0024761600868639395,"71":-0.0023763011746837453,"72":-0.008228040989904258,"73":0.012429125592204613,"74":0.004155951776004729,"75":0.00398835000114053,"76":-0.004183536120243644,"77":0.0063195718021883795,"78":0.002113087961035984,"79":0.0020278710697295872,"80":-0.00639792350126097,"81":0.009664584170010065,"82":0.0032315664885592815,"83":0.0031012434466470675,"84":-0.0024022720802544272,"85":0.0036288274945172304,"86":0.0012133783634990737,"87":0.0011644450801290254,"88":-0.011108756935544117,"89":0.016780681499504124,"90":0.005610990295535641,"91":0.005384709532742803,"92":0.006438701329886494,"93":-0.009726182399080848,"94":-0.0032521632125688815,"95":-0.003121009543231841,"96":-2.7184997990871316,"97":1.50698738918107,"98":1.6502939152450322,"99":-0.4947059721480056,"100":0.010632462047619595,"101":-0.016061199303394304,"102":-0.005370415583468024,"103":-0.005153836749900464,"104":0.017532060036801238,"105":-0.026483603688264336,"106":-0.008855375944413395,"107":-0.008498255158548865,"108":0.007710785286734686,"109":-0.011647768752193019,"110":-0.0038946879145375693,"111":-0.0037376224234990842,"112":-0.0007599820222433513,"113":0.001148014698315672,"114":0.0003838639885805798,"115":0.0003683834708103979,"116":0.028051572192930578,"117":-0.04237418326537303,"118":-0.014168741064936987,"119":-0.013597342149652253,"120":0.028074224507399707,"121":-0.04240840143097411,"122":-0.014180182661933965,"123":-0.013608322328291044,"124":0.002800688130052967,"125":-0.004230667364322034,"126":-0.0014146167738159122,"127":-0.0013575679211651798,"128":0.021712649609397974,"129":-0.03279872457602128,"130":-0.010966975643859239,"131":-0.010524697974867568,"132":-0.007863443951076663,"133":0.011878372089821575,"134":0.003971795217335804,"135":0.0038116201327163274,"136":0.020660189830937533,"137":-0.031208898397238363,"138":-0.01043538226015932,"139":-0.01001454276270456,"140":0.009869180211068246,"141":-0.014908199962691136,"142":-0.004984884869983637,"143":-0.004783853770623994,"144":-0.006239698839908927,"145":0.00942557294104837,"146":0.003151647822188738,"147":0.003024547750880272,"148":0.32704877941560423,"149":-5.718341612038154,"150":-2.4414874045847443,"151":2.2001988138253608,"152":0.006796487998784945,"153":-0.01026664828297426,"154":-0.003432879879509848,"155":-0.0032944382443901715,"156":-0.01535799350130801,"157":0.02319949921096402,"158":0.00775726331112755,"159":0.007444427360902305,"160":-0.0071238657960763065,"161":0.01076117909138624,"162":0.0035982371426767933,"163":0.003453126957842753,"164":0.0008683033600916874,"165":-0.0013116428952381863,"166":-0.00043857667858973923,"167":-0.00042088970021041333,"168":-0.004714370970753595,"169":0.007121441048240481,"170":0.002381210597060179,"171":0.0022851808205086774,"172":-0.009437918066326363,"173":0.014256743391166797,"174":0.004767056023115452,"175":0.004574809554609387,"176":0.01330627710491876,"177":-0.020100214585625546,"178":-0.006720949264221111,"179":-0.00644990592694604,"180":0.04198831743267811,"181":-0.06342677217076315,"182":-0.021208137646283164,"183":-0.0203528528976988,"184":-0.016745268462843868,"185":0.025295090967672185,"186":0.008457970550549991,"187":0.008116876383584494,"188":-0.02036579025052058,"189":0.030764183863647654,"190":0.010286682165237452,"191":0.009871839465731754,"192":0.0036007743466059086,"193":-0.005439262712593202,"194":-0.0018187372364248822,"195":-0.0017453909601826073,"196":0.012183493963914722,"197":-0.018404159259815686,"198":-0.006153835826452043,"199":-0.005905663116221186,"200":0.005685901370861231,"201":-0.008589016790310624,"202":-0.0028719268559327313,"203":-0.002756107408928459,"204":0.012875496635119547,"205":-0.01944948562149544,"206":-0.006503363708911609,"207":-0.006241095191220589,"208":-0.005064560024650549,"209":0.007650430115923885,"210":0.0025580897378344744,"211":0.002454926755812518,"212":0.011886937863854072,"213":-0.0179561871321413,"214":-0.006004046483211809,"215":-0.0057619144977397365,"216":-0.012592994698121718,"217":0.019022743450819713,"218":0.00636067306918399,"219":0.006104158998815464,"220":-0.02146751533484378,"221":0.03242842929707861,"222":0.010843159265108246,"223":0.01040587488020007,"224":0.009478545612220671,"225":-0.014318114606045962,"226":-0.004787576839931816,"227":-0.004594502805183182,"228":0.000045989929992433164,"229":-0.0000694715322996885,"230":-0.000023229336279832262,"231":-0.000022292540529919627,"232":0.036600069669237074,"233":-0.05528738493506234,"234":-0.018486554332662452,"235":-0.01774102601205502,"236":0.016673178738511485,"237":-0.025186193570719374,"238":-0.008421558308445085,"239":-0.008081932579335956,"240":0.022871572966597278,"241":-0.03454937266095926,"242":-0.011552343372443536,"243":-0.011086458912320962,"244":-0.018879566381832597,"245":0.028519121717835487,"246":0.009535996210590479,"247":0.009151427277507373,"248":0.010792586122578355,"249":-0.016303079751847815,"250":-0.005451293636540293,"251":-0.00523145314201446,"252":0.009044154932949099,"253":-0.013661932128646205,"254":-0.004568167782389573,"255":-0.0043839421054203695,"256":0.003202051526973077,"257":-0.00483695944188314,"258":-0.0016173438778138123,"259":-0.0015521194196403188,"260":0.006030830819437653,"261":-0.009110060796272825,"262":-0.00304614939040482,"263":-0.0029233038738777743,"264":24.39782390105242,"265":25.902398824335823,"266":-44.46565044876423,"267":17.50490280848478,"268":0.005792855709535378,"269":-0.00875058002390803,"270":-0.002925949079992274,"271":-0.002807951017558055,"272":-0.016170820013844976,"273":0.024427339823657305,"274":0.008167818851547003,"275":0.007838425961765334,"276":0.008157440086922065,"277":-0.012322477181901454,"278":-0.0041202915320955906,"279":-0.00395412786830205,"280":-0.02647916331051873,"281":0.03999893160977338,"282":0.01337452338163134,"283":0.012835153790074012,"284":-0.009388945921059818,"285":0.014182766979744656,"286":0.004742320381324161,"287":0.004551071455085343,"288":-0.00306560979588298,"289":0.00463085310222745,"290":0.0015484276856014274,"291":0.001485982488763493,"292":-0.0026551528956456107,"293":0.004010824547813788,"294":0.0013411074881515424,"295":0.001287023127715666,"296":-0.000542036709376891,"297":0.0008187905650089019,"298":0.0002737806515522912,"299":0.00026273958917749624,"300":-0.03568674741375384,"301":0.053907737270146285,"302":0.018025238762438396,"303":0.01729831444521339,"304":-0.00844208576165065,"305":0.012752457641485672,"306":0.004264064965018039,"307":0.004092103187049882,"308":0.013181069843046974,"309":-0.01991107882497036,"310":-0.006657707558719198,"311":-0.006389214641465753,"312":0.02048963312209721,"313":-0.030951258603315965,"314":-0.010349234722990694,"315":-0.009931869395306414,"316":0.00018307037958611793,"317":-0.00027654270816742635,"318":-0.00009246814272132804,"319":-0.00008873907521546097,"320":-0.6959831846002942,"321":-0.2712196214558266,"322":0.9266419058466497,"323":1.0505574318763562,"324":-0.017297170079411162,"325":0.0261287832864804,"326":0.008736733931519558,"327":0.008384397756939397,"328":0.014926259390866845,"329":-0.022547329693675542,"330":-0.0075391960751603985,"331":-0.007235154369968714,"332":-0.00906799989847949,"333":0.013697951889888062,"334":0.004580211782556121,"335":0.004395500393540066,"336":-0.00241063062309127,"337":0.0036414537537631784,"338":0.0012176002312522627,"339":0.00116849668784002,"340":-0.008687408937648548,"341":0.013123038266255653,"342":0.004387976755449842,"343":0.004211017846266308,"344":-0.0023734040108091123,"345":0.0035852199260856758,"346":0.0011987972129485177,"347":0.0011504519601500634,"348":0.0003545409855373726,"349":-0.0005355630141731467,"350":-0.00017907728451419075,"351":-0.0001718554320677782,"352":0.011211995679682918,"353":-0.016936632025651936,"354":-0.005663135787290159,"355":-0.005434752094114008,"356":-0.006501686859181045,"357":0.009821327167512781,"358":0.003283976960559765,"359":0.003151540302162796,"360":0.021250146298035066,"361":-0.03210007567032942,"362":-0.010733367001134841,"363":-0.010300510333851322,"364":0.008316335607270596,"365":-0.012562501798217664,"366":-0.004200549046837274,"367":-0.0040311487472881975,"368":0.008743185946205375,"369":-0.013207293977509206,"370":-0.004416149507444214,"371":-0.004238054443758795,"372":0.00484752541694889,"373":-0.007322581676607527,"374":-0.002448466394379793,"375":-0.002349724317106471,"376":0.005434268409845337,"377":-0.008208904722277073,"378":-0.0027448280176035813,"379":-0.002634134229435996,"380":0.007074643064909176,"381":-0.010686824149665994,"382":-0.00357337493094696,"383":-0.003429267392696793,"384":0.003824174591738352,"385":-0.00577672696521654,"386":-0.0019315758387569173,"387":-0.001853678992395227,"388":0.006992936735543384,"389":-0.010563400088995704,"390":-0.0035321053790113035,"391":-0.003389662164744221,"392":0.001261214206744779,"393":-0.0019051667075110621,"394":-0.0006370344319885326,"395":-0.0006113440230440179,"396":0.007932573542095176,"397":-0.011982797963632538,"398":-0.004006712307238744,"399":-0.0038451290815646436}},"b1":{"n":100,"d":1,"w":{"0":-0.00003822714986748954,"1":-42.44155949127026,"2":0.00028961072537684197,"3":-0.00001627005412717355,"4":0.000028065671179082395,"5":0.000004497398765345679,"6":0.000008000015630101095,"7":-0.000012690404967920106,"8":0.00002905929418496112,"9":-0.000031511065113877225,"10":-0.00001552933967158301,"11":0.000033546507732523546,"12":0.000006847209068417632,"13":-0.00002975028567838691,"14":0.000038159363326085606,"15":-0.000008961373999442568,"16":0.000004033392703753484,"17":0.000015235352357960786,"18":-0.00002557079846985795,"19":-0.00001300143708573929,"20":-0.00001988322752008201,"21":-0.000007465691294858833,"22":-0.000034523380518369555,"23":0.000020009955335132922,"24":-0.3466543114181236,"25":0.00003304316891674821,"26":0.00005448548562043994,"27":0.00002396329045063851,"28":-0.0000023618436915316247,"29":0.00008717764879887505,"30":0.00008724804686846625,"31":0.000008703873794383667,"32":0.00006747777037924769,"33":-0.000024437717363568464,"34":0.00006420697382341605,"35":0.0000306710699420033,"36":-0.000019391502818888612,"37":1.1280377523650154,"38":0.000021121871404470486,"39":-0.000047729001200359544,"40":-0.000022139283921077928,"41":0.000002698480692257077,"42":-0.000014651145802931849,"43":-0.00002933080946356544,"44":0.000041352752471527646,"45":0.00013048979686675907,"46":-0.00005204032350417937,"47":-0.00006329204944643497,"48":0.000011190351824965418,"49":0.000037863408483704476,"50":0.000017670431707045012,"51":0.000040013988822092374,"52":-0.00001573945026647173,"53":0.000036941782401975325,"54":-0.000039136039733738705,"55":-0.00006671595090561467,"56":0.000029457070241524443,"57":1.4292578354095068e-7,"58":0.00011374437672774157,"59":0.00005181628569517199,"60":0.00007107943077643372,"61":-0.00005867321677741794,"62":0.00003354079658116301,"63":0.00002810708702941395,"64":0.000009951215951808282,"65":0.000018742390576524317,"66":40.78849716551052,"67":0.000018002820409410273,"68":-0.00005025507363590679,"69":0.000025351387610986827,"70":-0.00008229097175297793,"71":-0.000029178615649714423,"72":-0.000009527187441325215,"73":-0.000008251584835350911,"74":-0.0000016845214031809192,"75":-0.00011090598436600907,"76":-0.000026235998847427545,"77":0.00004096363796136704,"78":0.00006367692384594749,"79":5.689392754040746e-7,"80":-0.02813207611436634,"81":-0.00005375550318338087,"82":0.00004638727378560368,"83":-0.00002818119152700191,"84":-0.000007491667661667118,"85":-0.00002699840508889561,"86":-0.0000073759761883437935,"87":0.000001101829208387244,"88":0.00003484422206345961,"89":-0.000020205699414254134,"90":0.00006604041924487292,"91":0.00002584519719623888,"92":0.000027171746801891534,"93":0.000015064958217610968,"94":0.000016888416182942704,"95":0.00002198631135148098,"96":0.0000118846267567875,"97":0.000021732387466107367,"98":0.000003919554320590202,"99":0.00002465255573288833}},"W2":{"n":3,"d":100,"w":{"0":-0.000045213386355244485,"1":-0.5574297465448681,"2":0.00034253550723028456,"3":-0.000019243504895235333,"4":0.00003319484026700597,"5":0.0000053193257342613906,"6":0.000009462067079114477,"7":-0.000015009653388831392,"8":0.00003437005358687248,"9":-0.00003726989963869039,"10":-0.000018367420444485988,"11":0.0000396773308885043,"12":0.000008098578132185177,"13":-0.000035187327732431356,"14":0.00004513321145180213,"15":-0.000010599119509708107,"16":0.000004770519745921675,"17":0.000018019705189686947,"18":-0.000030244015134953333,"19":-0.000015377528496947064,"20":-0.00002351700721547494,"21":-0.000008830091734575834,"22":-0.00004083273265130302,"23":0.000023666895288806886,"24":-0.5185931805644698,"25":0.000039082004072503615,"26":0.00006444301730444235,"27":0.00002834272565384483,"28":-0.0000027934849911228607,"29":0.00010310980330486626,"30":0.00010319306682899602,"31":0.000010294559584123047,"32":0.00007980970112731156,"33":-0.000028903856856292196,"34":0.00007594115245559907,"35":0.000036276390574491216,"36":-0.00002293541691227743,"37":0.1843874874488799,"38":0.000024982020589448832,"39":-0.000056451751548034884,"40":-0.00002618537123584472,"41":0.0000031916444505591842,"42":-0.00001732873138695006,"43":-0.00003469118983865526,"44":0.00004891020980541545,"45":0.00015433729547716595,"46":-0.00006155098979983539,"47":-0.00007485902161709846,"48":0.000013235456497689768,"49":0.0000447831692381724,"50":0.000020899809829773,"51":0.00004732677986959289,"52":-0.000018615930007481443,"53":0.00004369311091575867,"54":-0.00004628838081217238,"55":-0.00007890865592580198,"56":0.00003484052549681006,"57":1.6904633988101308e-7,"58":0.00013453165111843046,"59":0.0000612860079675701,"60":0.00008406957973844163,"61":-0.00006939607627113422,"62":0.00003967057599215034,"63":0.00003324382510250084,"64":0.000011769861063371614,"65":0.00002216767555653608,"66":-1.0627963092034487,"67":0.000021292944545632557,"68":-0.000059439476585552325,"69":0.000029984505665518114,"70":-0.00009733007078117426,"71":-0.00003451118173347393,"72":-0.00001126833877993987,"73":-0.000009759612080036724,"74":-0.0000019923779356718944,"75":-0.00013117454006008326,"76":-0.00003103078474375105,"77":0.000048449982523528204,"78":0.00007531423351446608,"79":6.729163887377827e-7,"80":0.3948090649370813,"81":-0.00006357962701857265,"82":0.000054864816512452305,"83":-0.00003333147262350126,"84":-0.00000886081543982015,"85":-0.0000319325251405753,"86":-0.000008723980648656757,"87":0.0000013031951983158927,"88":0.00004121220978116862,"89":-0.000023898412756463134,"90":0.00007810966797266987,"91":0.000030568561822823333,"92":0.00003213754605350126,"93":0.00001781817049984824,"94":0.00001997487630798808,"95":0.000026004442029243788,"96":0.000014056614358344544,"97":0.000025704112059435204,"98":0.000004635876706518554,"99":0.000029157958191078388,"100":-0.00004744124124641258,"101":-0.13334007883339385,"102":0.00035941728742244013,"103":-0.00002019171087931941,"104":0.000034830487672671035,"105":0.000005581430445594481,"106":0.000009928301479038505,"107":-0.000015749240039700706,"108":0.00003606360887447148,"109":-0.00003910634309211948,"110":-0.000019272458118691146,"111":0.00004163239919514793,"112":0.000008497627887009335,"113":-0.000036921153694223636,"114":0.00004735711575637666,"115":-0.000011121381114067594,"116":0.000005005582562245925,"117":0.000018907609495139408,"118":-0.000031734262635203534,"119":-0.000016135241865873813,"120":-0.000024675786483758785,"121":-0.000009265186138202896,"122":-0.00004284473278982261,"123":0.0000248330601716628,"124":-0.16218346049563936,"125":0.00004100773796574773,"126":0.00006761840990278317,"127":0.00002973928848282967,"128":-0.000002931131299311251,"129":0.00010819054053970583,"130":0.00010827790703724222,"131":0.000010801814279785239,"132":0.00008374229438533745,"133":-0.0000303280690156315,"134":0.00007968312024192281,"135":0.00003806387944918824,"136":-0.000024065538787601625,"137":0.8328327521357201,"138":0.00002621298722922117,"139":-0.000059233374143953036,"140":-0.00002747563204578463,"141":0.000003348909686994148,"142":-0.000018182588558703,"143":-0.00003640056891350796,"144":0.00005132022438729616,"145":0.00016194245410061482,"146":-0.00006458387735876148,"147":-0.00007854766675402697,"148":0.000013887621193406228,"149":0.000046989825352937606,"150":0.000021929628841159147,"151":0.000049658771448530976,"152":-0.000019533212776442496,"153":0.00004584605486282297,"154":-0.00004856920564548751,"155":-0.00008279684948682931,"156":0.00003655726299310856,"157":1.773759369025089e-7,"158":0.0001411607921524679,"159":0.0000643058385259068,"160":0.00008821208228559834,"161":-0.00007281553220135598,"162":0.00004162531145479709,"163":0.00003488188620392566,"164":0.000012349809880350261,"165":0.000023259967602466618,"166":0.07057444916530489,"167":0.000022342134942906584,"168":-0.00006236831922922337,"169":0.000031461966020052155,"170":-0.00010212600130478898,"171":-0.000036211691021560844,"172":-0.000011823575546877977,"173":-0.00001024050773336311,"174":-0.0000020905504571925815,"175":-0.00013763824641795742,"176":-0.000032559799767711656,"177":0.000050837319546605134,"178":0.00007902530948613581,"179":7.060737014373175e-7,"180":-0.08857344289398925,"181":-0.00006671247591564232,"182":0.000057568243052473176,"183":-0.00003497385249954223,"184":-0.000009297423725364907,"185":-0.00003350597280666283,"186":-0.000009153846527585675,"187":0.0000013674088978462058,"188":0.000043242908467976136,"189":-0.000025075985477354854,"190":0.0000819584908158998,"191":0.00003207480113357694,"192":0.00003372109598707634,"193":0.000018696144358109863,"194":0.000020959119997299627,"195":0.00002728578769162113,"196":0.000014749240865651565,"197":0.00002697065919409038,"198":0.000004864305114789705,"199":0.00003059469100976585,"200":-0.00003863722188689462,"201":-0.18718104161060464,"202":0.00029271752212966563,"203":-0.00001644458693300848,"204":0.000028366738465922515,"205":0.000004545643446388561,"206":0.00000808583372791273,"207":-0.00001282653800749092,"208":0.000029371020312610613,"209":-0.00003184909199952781,"210":-0.000015695926653207405,"211":0.00003390636932118613,"212":0.000006920660731758012,"213":-0.000030069424243721384,"214":0.000038568708182027046,"215":-0.000009057504820863668,"216":0.000004076659879839979,"217":0.00001539878566616692,"218":-0.000025845102639589947,"219":-0.000013140906642274741,"220":-0.000020096519718580935,"221":-0.000007545777566427539,"222":-0.00003489372126705221,"223":0.000020224606973909947,"224":-0.15165037582115093,"225":0.00003339763106356733,"226":0.000055069965043693406,"227":0.000024220350485460473,"228":-0.000002387179758235268,"229":0.00008811282643579653,"230":0.00008818397968726236,"231":0.000008797242348848332,"232":0.00006820162160841149,"233":-0.000024699866692730925,"234":0.0000648957383021655,"235":0.000031000085989643115,"236":-0.000019599520166271814,"237":0.268943696076714,"238":0.00002134845083921103,"239":-0.00004824100202778621,"240":-0.000022376777389431095,"241":0.0000027274279452428367,"242":-0.0000148083121854248,"243":-0.000029645448203112386,"244":0.00004179635362801616,"245":0.00013188959902220315,"246":-0.00005259857302168141,"247":-0.00006397099927743917,"248":0.000011310393430915557,"249":0.00003826957855687848,"250":0.000017859986704417336,"251":0.00004044322871826615,"252":-0.000015908291155558607,"253":0.00003733806595841316,"254":-0.00003955586164605864,"255":-0.00006743162988290115,"256":0.00002977306341185419,"257":1.444589828771145e-7,"258":0.00011496454447997272,"259":0.00005237213189965467,"260":0.00007184191804017912,"261":-0.000059302619122709543,"262":0.00003390059690486652,"263":0.000028408598594379952,"264":0.000010057965047269036,"265":0.00001894344473828943,"266":0.02013732375050093,"267":0.000018195941021450647,"268":-0.00005079417230580334,"269":0.000025623338106233808,"270":-0.00008317372851226859,"271":-0.000029491621768414403,"272":-0.0000096293878803835,"273":-0.000008340101576826336,"274":-0.0000017025916703861652,"275":-0.00011209570367768003,"276":-0.000026517438785993973,"277":0.00004140306498678078,"278":0.00006436000233136348,"279":5.750424241694823e-7,"280":0.046717318116228,"281":-0.000054332151889840645,"282":0.00004688488155293108,"283":-0.000028483498029288472,"284":-0.00000757203258799788,"285":-0.000027288023547836346,"286":-0.000007455100064293161,"287":0.00000111364879593556,"288":0.00003521800456020776,"289":-0.000020422450847673948,"290":0.00006674885160447012,"291":0.00002612244490886893,"292":0.000027463224740300495,"293":0.000015226563666448165,"294":0.000017069582309148026,"295":0.000022222163845509668,"296":0.000012012116018133542,"297":0.000021965516056343492,"298":0.0000039616003248808755,"299":0.000024917009686205734}},"b2":{"n":3,"d":1,"w":{"0":0.9041314443430862,"1":0.6043265294434361,"2":0.7014183355727603}}}}}