{"numStates":1,"sensitivity":17.794467959445413,"alpha":0.05548526922069437,"gamma":0.4637028343418548,"epsilon":0.40795143765979236,"cycles":5324,"max":{"lastUpdatedDate":"2017-10-23T08:06:21.778Z","meetsCriterion":true,"cycles":6,"wealth":3.7895928495118074,"percentSuccess":0.5104648576794609,"odds":3.375,"weights":{"nh":100,"ns":4,"na":3,"net":{"W1":{"n":100,"d":4,"w":{"0":0.015223693178234665,"1":0.0907720991930108,"2":-0.40499291530946885,"3":0.11418704761014105,"4":0.08378447573043006,"5":0.16901925533861137,"6":-0.3766397162238025,"7":0.0229307938362029,"8":0.02820570593128874,"9":0.06547510896735134,"10":-0.1325512452612049,"11":0.019025402563602325,"12":0.09570889179958206,"13":0.16768660775246622,"14":-0.31315519297473016,"15":-0.00976222344877634,"16":0.08713174411678042,"17":0.14349101092027264,"18":-0.15281944412290518,"19":-0.06366562876357945,"20":0.17783103646864473,"21":0.27627568621738574,"22":-0.3333181395588524,"23":-0.12047627803682086,"24":-0.023392835269828438,"25":-0.02539516058470188,"26":-0.028476238638897082,"27":0.05257317126869708,"28":-0.05966477246173452,"29":-0.07089297159650537,"30":0.10903578376302389,"31":0.031714221153174564,"32":-0.028884362488905805,"33":-0.031121220218248605,"34":-0.01276943514758525,"35":0.05279928690621607,"36":-0.04535688893089299,"37":-0.03399936443581829,"38":-0.21557773009519676,"39":0.16530342638032086,"40":0.017567908506775948,"41":0.017832283981372734,"42":-0.07754517685218283,"43":0.016825450625353087,"44":-0.015486097883578966,"45":-0.03312166894546787,"46":0.11718806755160478,"47":-0.03546686807877618,"48":0.10278614431224864,"49":0.14638426509934938,"50":-0.17281311864846519,"51":-0.07279173494410339,"52":-0.13574473199838008,"53":-0.19786213685138437,"54":0.29670239988975716,"55":0.06651352940244955,"56":0.04163898421448075,"57":0.036629636237460364,"58":0.02740580936320314,"59":-0.07783306579781418,"60":-0.09109177400532846,"61":-0.15497707975168226,"62":0.34595891651999355,"63":-0.009542772648278791,"64":0.03785419949953603,"65":0.06688214747970055,"66":-0.09656958723655452,"67":-0.012318114039659909,"68":-0.06464849708803871,"69":-0.09252559172889141,"70":0.06437354538112677,"71":0.07106543987201618,"72":0.15859734370330061,"73":0.20830261632611924,"74":-0.2130675297550464,"75":-0.13515196670715754,"76":0.0937888606888796,"77":0.16369911596630388,"78":-0.2866929925444069,"79":-0.014922731883071177,"80":-0.014002622083360023,"81":-0.0067740254650156765,"82":0.03442817851706282,"83":-0.0007926987284700134,"84":0.07323759747858427,"85":0.09828694381505808,"86":0.09064757473754599,"87":-0.16592445189294722,"88":0.1452148935433045,"89":0.2003612944576305,"90":-0.24918089448692368,"91":-0.09907706913364984,"92":-0.11452043800217546,"93":-0.1357174507329981,"94":0.09750296745042575,"95":0.1251583902985255,"96":-0.05391112536773031,"97":-0.008518797143663683,"98":-0.2850491618271508,"99":0.1857466960142009,"100":0.09888311752524995,"101":0.17997725974840767,"102":-0.39068833274225473,"103":0.007909789211887258,"104":-0.07653003172327617,"105":-0.08405047269880979,"106":-0.08051787192300355,"107":0.16010983166104276,"108":0.12877899262555634,"109":0.23375652562756644,"110":-0.33511771179174643,"111":-0.05297341678183916,"112":0.0032929304929531517,"113":-0.01118551702037563,"114":0.004135545944618404,"115":-0.0038086709520092446,"116":0.12076681379943217,"117":0.0907681537873456,"118":0.14499363237944682,"119":-0.2423378104448646,"120":0.03123437410289229,"121":0.10447278104862279,"122":-0.45806617446451753,"123":0.10428056893960883,"124":0.09920979352116954,"125":0.1732609315439403,"126":-0.2709409268441587,"127":-0.0307933520672897,"128":0.10413809702902176,"129":0.1987872731174798,"130":-0.39737599556874903,"131":-0.00009944054351488773,"132":-0.22667864351465056,"133":-0.2360279604196771,"134":-0.16830472990594567,"135":0.4031768930379749,"136":0.13349637452752222,"137":0.18433928124726623,"138":-0.2720179738129647,"139":-0.07176409258572737,"140":0.014905292186037911,"141":0.031055004413221895,"142":-0.06917073587286487,"143":0.011935354040335135,"144":0.006754077495044905,"145":0.01727945517016136,"146":0.061950159614482636,"147":-0.04898427807729519,"148":-0.03669193212308369,"149":-0.08104024576006952,"150":0.11797673248920384,"151":0.0027876983222176574,"152":-0.04046082461431243,"153":-0.03681593791357891,"154":0.08824346863493379,"155":0.010955162988108811,"156":0.0602978952052065,"157":0.180542978026086,"158":-0.4720129888294954,"159":0.06155062902506956,"160":-0.06794707087522459,"161":-0.08833891514116965,"162":0.09742834604924784,"163":0.054564877436737276,"164":0.11944464577669328,"165":0.18565312707915618,"166":-0.3218388780861821,"167":-0.03708820530380118,"168":0.13007438886577208,"169":0.1873335436513004,"170":-0.29639993893481603,"171":-0.057905130497105196,"172":-0.20548569887041634,"173":-0.12812378179512757,"174":-0.5316786743849028,"175":0.47272362340094815,"176":-0.11350444215267433,"177":-0.17461816945890857,"178":0.26837389798993266,"179":0.04654582642034355,"180":0.002243684795955093,"181":0.0346859104870397,"182":-0.19764977959398317,"183":0.08618789556772607,"184":-0.1028917919755779,"185":-0.1502362794111866,"186":0.1896270424311837,"187":0.0654319007374879,"188":-0.062462160718185715,"189":-0.13251477810493023,"190":0.3512803548810653,"191":-0.046357501603380674,"192":0.08283849523945015,"193":0.09960085053222907,"194":-0.059375625262762854,"195":-0.09817931384383047,"196":0.11997740811100985,"197":0.14162749408107106,"198":-0.10112267635060845,"199":-0.13118848437846609,"200":0.12034802040048102,"201":0.16359163652408185,"202":-0.0992290431857657,"203":-0.1399765926819161,"204":0.06045123621130309,"205":0.08153254317287925,"206":-0.11004280186584782,"207":-0.037200108969360705,"208":-0.13347503132602148,"209":-0.20372637929300771,"210":0.25131737102321294,"211":0.08581337586377652,"212":-0.12520681359149574,"213":-0.16023960699273407,"214":0.2799536356192058,"215":0.051682339578533944,"216":0.06441879103243295,"217":0.09211144569177229,"218":-0.15758677510909816,"219":-0.01923854423822444,"220":-0.0523715274766108,"221":-0.07125411438545844,"222":0.11960015458479235,"223":0.017886550195611195,"224":0.07032244747279634,"225":0.07186695372486405,"226":-0.06253144410263825,"227":-0.07276668119525356,"228":0.0670359577623732,"229":0.06900625364392761,"230":-0.04805734287719293,"231":-0.07621854261414691,"232":-0.13055060523548873,"233":-0.19049127350640507,"234":0.24066600754393555,"235":0.08470070173383831,"236":-0.13147611947486854,"237":-0.19112165116543411,"238":0.1708000198615927,"239":0.12112934612045374,"240":-0.07370234660511102,"241":-0.11674996023616105,"242":0.10321438799093269,"243":0.06739308722292887,"244":0.022371484143542918,"245":0.035691682765884934,"246":-0.044431228728273146,"247":-0.012551810132813097,"248":0.022949257711378464,"249":0.08757623923181682,"250":-0.3682200921257525,"251":0.1021525647121108,"252":0.016516158200571323,"253":0.013085240630496577,"254":-0.0030706775556413306,"255":-0.022857514841448677,"256":-0.08389785599848258,"257":-0.12104285685352296,"258":0.19588135128415957,"259":0.03130354535154165,"260":-0.20967874571659254,"261":-0.30145290512324097,"262":0.37637807628842507,"263":0.1456276333301215,"264":-0.10506186920178619,"265":-0.19195399810248687,"266":0.38888963394262765,"267":0.0015127763613346542,"268":0.01393592980965395,"269":0.036491246535697804,"270":-0.06740593277462713,"271":0.010184723913771785,"272":0.26792920597298003,"273":0.3563970579227113,"274":-0.34189318299181104,"275":-0.23639260235708873,"276":0.12934073010506766,"277":0.16339431198123328,"278":-0.08758079519984817,"279":-0.15597883429125967,"280":-0.11613980548432494,"281":-0.1804449463104497,"282":0.3174953219124489,"283":0.03259211805575502,"284":0.05785029332178162,"285":0.058415999565555085,"286":-0.12395403860562107,"287":-0.01897135878115816,"288":0.10821367932942821,"289":0.06554083572700312,"290":0.17930765296812368,"291":-0.23493811665624928,"292":0.011856426690851154,"293":-0.055736902139050276,"294":0.33544734863375414,"295":-0.13728225045634745,"296":0.0924039762933631,"297":0.13797454050059632,"298":-0.29304145753420313,"299":-0.005307139507765892,"300":-0.250837581131157,"301":-0.32609056061978564,"302":0.3030494438602059,"303":0.24219485391233794,"304":-0.0019691874267359615,"305":0.003287273152244447,"306":-0.09805531954794902,"307":0.05573468655449362,"308":0.13681522909177432,"309":0.17456736564149727,"310":-0.1649912630557787,"311":-0.12598971707068024,"312":0.04322039193858479,"313":0.06806879431100382,"314":-0.03141925259633354,"315":-0.0557268759410203,"316":0.11779257223911832,"317":0.15517278412351573,"318":-0.1586091217852344,"319":-0.10039135372743466,"320":-0.2383860138342053,"321":-0.21697699942677884,"322":-0.33879190591814734,"323":0.46744557831361255,"324":0.04859938831830623,"325":0.058684931248920574,"326":0.10817045899842861,"327":-0.13426714104538903,"328":-0.13479009081913523,"329":0.06991503218830432,"330":-0.7755652398191316,"331":0.2625234456408588,"332":0.008161813377597714,"333":0.04016854939064623,"334":-0.03715052683238843,"335":-0.00045023154961415263,"336":0.05804230124768102,"337":0.0739611417971324,"338":-0.0304624509253712,"339":-0.07646261631206074,"340":0.029461962561492274,"341":0.047649135518375164,"342":-0.09636594130123667,"343":0.004481193947863974,"344":0.1272192470887061,"345":0.19194398562030837,"346":-0.27599827570659297,"347":-0.06408772596394188,"348":0.08937676152632511,"349":0.11321589601514365,"350":0.004177067803364461,"351":-0.14391952760298724,"352":-0.17580628923369623,"353":-0.25424814379349986,"354":0.4533762477818974,"355":0.07233601180235494,"356":-0.09308772172681956,"357":-0.10836198190314729,"358":0.1425875459227317,"359":0.06577853306842003,"360":-0.11816195186987516,"361":-0.1921569654488697,"362":0.27793080227508576,"363":0.05332546789713786,"364":0.17212946398376897,"365":0.20916720242112116,"366":-0.2241717022960054,"367":-0.14577672422476234,"368":0.03141647728856171,"369":0.05075470318175719,"370":-0.08932906607337901,"371":-0.0034648032201586884,"372":-1.0708675086236967,"373":-0.25279836827577223,"374":0.12643814047273771,"375":-1.678378357019684,"376":-0.05347641831153345,"377":-0.08853696183678403,"378":0.14736427454476958,"379":0.010167930853810904,"380":0.04753733087613324,"381":0.08549666180834346,"382":-0.012567203571083225,"383":-0.07782390106947222,"384":-0.023386984432705697,"385":-0.0389981515764646,"386":0.06888020150050536,"387":0.0009299581394495084,"388":0.14829211153717153,"389":0.28766810878245774,"390":-0.6225083731599375,"391":-0.022753272619130748,"392":-0.017611127762822223,"393":-0.003139440587898526,"394":-0.035911791840300855,"395":0.04376390732045434,"396":0.016694681655745544,"397":0.14346932177068156,"398":-0.4875952157206327,"399":0.1133560254425528}},"b1":{"n":100,"d":1,"w":{"0":0.08246543990255803,"1":0.06617643339663068,"2":0.02625874674591041,"3":0.05143997711007368,"4":0.01619373853527893,"5":0.03782804110047785,"6":0.013775050852101484,"7":-0.013889483842975376,"8":0.011136234929423356,"9":0.06252468014568945,"10":0.016351368996859662,"11":-0.02624738400938584,"12":0.018106509426430273,"13":-0.04020270882441775,"14":-0.017825926451582555,"15":-0.05944873767486074,"16":0.01484300363333891,"17":0.0006192714296515127,"18":0.01493668009134114,"19":0.04657042170689057,"20":-0.006185925774212868,"21":-0.04277331938224432,"22":0.027039965376504094,"23":0.003756629718892224,"24":0.07566971680845497,"25":0.06606158552706178,"26":0.04013215517588297,"27":0.04874721262436898,"28":-0.0014712108003799584,"29":-0.06357405441008576,"30":0.08838335095295355,"31":0.04144489679675826,"32":0.06600405041691502,"33":0.09031026688216846,"34":0.035137413668799335,"35":0.014162376824446713,"36":-0.019029279308818106,"37":-0.020240463296608335,"38":-0.013564371553586339,"39":0.08495763881654446,"40":-0.00796549761656377,"41":0.048669429266669964,"42":0.04143295717286897,"43":0.1536944092115979,"44":-0.03870792749189338,"45":0.04761979259177796,"46":-0.022212644600442324,"47":-0.06557665390910132,"48":-0.006034123750882872,"49":-0.004091548288624201,"50":-0.00590462466632239,"51":0.012981020129855662,"52":-0.029541019078437016,"53":-0.039654591688633334,"54":0.024234686901605382,"55":-0.01797014330461202,"56":-0.001275313634335075,"57":-0.004395490003824668,"58":-0.027781829726790063,"59":-0.009836497959043825,"60":-0.006831068289968814,"61":0.0057416074772620096,"62":0.0759066355305731,"63":-0.003337108666789614,"64":-0.028840144272529268,"65":-0.040963197061448624,"66":-0.06451305512692607,"67":0.013545096672373096,"68":0.021243725575499327,"69":-0.010469316485613023,"70":-0.04877830156343286,"71":0.018440034169890256,"72":-0.06790652343284828,"73":-0.07603423268037926,"74":0.048861139660832206,"75":-0.01200537075955577,"76":0.026322545334158516,"77":0.007952485390099647,"78":-0.003783779658497738,"79":0.01112467468762667,"80":0.12471005231412521,"81":-0.0407110872979316,"82":0.14280813519543714,"83":0.006549573796219187,"84":-0.007460747907191332,"85":0.01767467114850414,"86":0.03715650644730231,"87":-0.02445745407849472,"88":-0.06408994591097408,"89":-0.013993189426245022,"90":-0.039175316105361756,"91":0.015073281301803665,"92":0.015055808836881056,"93":-1.1553798571470892,"94":-0.02401230051210457,"95":-0.010826685976739076,"96":-0.011968294805434846,"97":0.0948372862070167,"98":0.013715108245688251,"99":0.09367007514662418}},"W2":{"n":3,"d":100,"w":{"0":0.05298171136138403,"1":0.046563992577397524,"2":0.015679923741742645,"3":0.03795813731141938,"4":0.018553688616688067,"5":0.03946017426514843,"6":0.0028929274739985574,"7":-0.012455717974530524,"8":0.0010685468267837399,"9":0.02732355733156615,"10":0.008564674664403894,"11":-0.013453953235463743,"12":0.020491585084471787,"13":-0.035147686683451286,"14":-0.0029278859728752702,"15":-0.042016840922057035,"16":0.011565502203007873,"17":-0.008098310111395286,"18":0.02427743358985624,"19":0.03451388400926445,"20":-0.00360380980999657,"21":-0.010967777572958581,"22":0.029097770736615954,"23":-0.011099300874005551,"24":0.038507252317324596,"25":0.04814850286008091,"26":0.010024517681409975,"27":0.04078095798118026,"28":-0.0007107309105672155,"29":-0.021888204684489022,"30":0.060225039854372595,"31":0.03274951102396763,"32":0.04918206045956466,"33":0.04039323274503243,"34":0.03205703311160954,"35":0.007991015021021949,"36":-0.006390207158972238,"37":-0.014224089230421667,"38":-0.009816297939547755,"39":0.06150700113002084,"40":-0.011546399956324744,"41":0.03869863139527574,"42":0.03513221651617372,"43":0.10019617089437417,"44":-0.031877618466532316,"45":0.023602575096909176,"46":-0.022516192741644948,"47":-0.04337106566150468,"48":0.007155672090321764,"49":0.011379930954601773,"50":0.01151836026936128,"51":0.01302454520630822,"52":-0.029868619505373478,"53":-0.03270220141120589,"54":0.018428002890452336,"55":-0.013842984013992088,"56":0.007274096603754635,"57":0.005677769843563301,"58":-0.02854369321992689,"59":-0.020094282098056113,"60":-0.012772912932410794,"61":0.0052964251849155495,"62":0.04683809320041517,"63":0.0004196483677898291,"64":-0.023019663408303404,"65":-0.04380991984517877,"66":-0.04787216819050261,"67":0.00799243545027172,"68":0.03494407794037089,"69":0.009524154723918028,"70":-0.03802460068624085,"71":0.013956628635426448,"72":-0.025923847903576738,"73":-0.04375403543092412,"74":0.03489087603123286,"75":-0.03238500395887228,"76":0.010913890426142086,"77":0.01893880569469102,"78":0.00432120557634503,"79":0.018500435138142035,"80":0.0727700198258495,"81":-0.012463365368067907,"82":0.13416454952054316,"83":0.004861900848946164,"84":0.00401454402711873,"85":0.01109805957915518,"86":0.03279207015125747,"87":-0.0006491839373550653,"88":-0.054941352863221035,"89":-0.01643211994928301,"90":-0.03333613207287864,"91":0.025066401772056268,"92":0.010456737016486533,"93":0.24580861862551528,"94":-0.01739494922906281,"95":0.002583029048219766,"96":-0.008007488218507724,"97":0.0809199660098413,"98":0.004057224972934487,"99":0.06602534430637583,"100":0.02443754122789866,"101":0.042561281708604286,"102":0.016816777958286684,"103":0.04229007409041068,"104":0.031611084405496793,"105":0.06378313687132282,"106":-0.0030362796931672695,"107":-0.019508347724271492,"108":-0.00502469303152168,"109":0.0006327812755134224,"110":0.008191552894432035,"111":-0.01153958091741536,"112":0.034716662821659056,"113":-0.04970163331333474,"114":0.006089907261637352,"115":-0.04140888572605032,"116":0.015952695324934006,"117":-0.01912770291880231,"118":0.04893019078935589,"119":0.04085986980498668,"120":-0.004245469542012358,"121":0.012841811217832533,"122":0.048730568043050884,"123":-0.03050116284739566,"124":0.0027645205218731726,"125":0.04602314554385809,"126":-0.012281017644636077,"127":0.05392948767738421,"128":-0.0010009714547072211,"129":0.01718008452035969,"130":0.028569317769624212,"131":0.041728871992215456,"132":0.04882533097839467,"133":-0.04928684604616937,"134":0.046924850004065856,"135":0.008667711937313603,"136":-0.0014913233269634588,"137":-0.018441796391400807,"138":-0.01299088546656529,"139":0.04126918514072411,"140":-0.021174528661068632,"141":0.04738022542663134,"142":0.047954732332464896,"143":-0.0372288329235746,"144":-0.04362356155521498,"145":0.013451770224650094,"146":-0.03603211914054235,"147":-0.035295172516641306,"148":0.02141520343593824,"149":0.03188188703171853,"150":0.0337865944328362,"151":0.020454599381473145,"152":-0.047800354540895006,"153":-0.044077833379324034,"154":0.024640940575725485,"155":-0.01932813026877321,"156":0.01773028837569242,"157":0.01622900007159537,"158":-0.04557934815719463,"159":-0.041839258373837326,"160":-0.02468422707900208,"161":0.008368310048816356,"162":0.025161653085426183,"163":0.0030705178799143138,"164":-0.03156179306515715,"165":-0.07189059543204417,"166":-0.04809116984165224,"167":0.008929105294907685,"168":0.08264574292533579,"169":0.034222777683622974,"170":-0.046395587853312936,"171":0.018931741376528848,"172":0.01213151492428195,"173":-0.016263086878886432,"174":0.03830104318401849,"175":-0.07438102049279348,"176":0.005836068310156428,"177":0.040524520143925616,"178":0.012659112340327301,"179":0.03635459864361298,"180":-0.0504973265076828,"181":0.0051587351146590195,"182":-0.007292762933018276,"183":0.006856368783396871,"184":0.014686724680405657,"185":0.013366871237811995,"186":0.047189140259659645,"187":0.020044246426132374,"188":-0.0655524605682389,"189":-0.028428265035646834,"190":-0.046206942228126054,"191":0.05111885219825848,"192":0.013377075805132536,"193":0.4998984053494113,"194":-0.0225669642072372,"195":0.013505304543085614,"196":-0.010278084206585263,"197":0.06698992354011085,"198":0.00013329561106102564,"199":0.03044848956769226,"200":-0.024699557494991267,"201":-0.019115426727832462,"202":-0.007174815616718821,"203":-0.014507967848709837,"204":-0.0038113878288033995,"205":-0.009689921356408886,"206":-0.004082245586568658,"207":0.0032224471049940003,"208":-0.0032497516446835495,"209":-0.018015526440749583,"210":-0.004503124656912593,"211":0.007379346728529778,"212":-0.004310114327683296,"213":0.0105816339599866,"214":0.005310126336617312,"215":0.017072294011287285,"216":-0.0039290101276607215,"217":-0.0006525317891323966,"218":-0.002691598629939677,"219":-0.012815301891300701,"220":0.0015696208546773687,"221":0.012319763101484207,"222":-0.0064798452183368,"223":-0.002195239157095321,"224":-0.022054158511482024,"225":-0.019148114426638264,"226":-0.011800134933471972,"227":-0.01309555725894541,"228":0.0002349268063524287,"229":0.017679374253786607,"230":-0.026668803590411173,"231":-0.011358535421066235,"232":-0.0190378066663748,"233":-0.026311523925556874,"234":-0.009242696434704899,"235":-0.003774122679627399,"236":0.005338006404887386,"237":0.005281795517438624,"238":0.0035840244738694787,"239":-0.025546641633524853,"240":0.0016786612705147622,"241":-0.013622673274875164,"242":-0.011096671452242293,"243":-0.035481359806461645,"244":0.010161071786951496,"245":-0.013750811515733635,"246":0.00552652026587493,"247":0.019150902762423913,"248":0.0023674443042154343,"249":0.002412411971433338,"250":0.0028421078574488627,"251":-0.00335554196358697,"252":0.007364307015475943,"253":0.010594734913290197,"254":-0.006419211779182865,"255":0.004567147591709678,"256":0.0008443133247179179,"257":0.0016952362036860436,"258":0.007075228853273762,"259":0.0015377734525138008,"260":0.0013841163264498085,"261":-0.0013418139513241504,"262":-0.02231835368722096,"263":0.0009905229954007598,"264":0.007572077865860517,"265":0.01063159741205061,"266":0.018556479461934835,"267":-0.0036629994489014855,"268":-0.002862511157892825,"269":0.004500060358437918,"270":0.01343157810810017,"271":-0.004831915780329794,"272":0.018586688080632352,"273":0.02246256434929762,"274":-0.01379063314045801,"275":0.004226263548892294,"276":-0.007449195845841097,"277":-0.0010144153708196504,"278":0.0014743643882153391,"279":-0.0020151495469449636,"280":-0.03256520967586194,"281":0.01158641411150575,"282":-0.04364357035968311,"283":-0.001606971230291493,"284":0.002578033707364298,"285":-0.0046051339339580446,"286":-0.009686091591418899,"287":0.0079803285411579,"288":0.018406871532148063,"289":0.0031677851177274235,"290":0.010382975683971955,"291":-0.0026885153415001565,"292":-0.004013790926003834,"293":0.09361481120301957,"294":0.0063606772450754126,"295":0.0033706649320345288,"296":0.0030813910654684962,"297":-0.029075574734779328,"298":-0.003816716452376353,"299":-0.028139241423126085}},"b2":{"n":3,"d":1,"w":{"0":0.2260771533331476,"1":0.45041851093754204,"2":0.14366175211519572}}}}},"weights":{"nh":100,"ns":4,"na":3,"net":{"W1":{"n":100,"d":4,"w":{"0":0.020625369930543525,"1":-0.03054688296982542,"2":-0.010571505864808326,"3":-0.009668107185858407,"4":0.015979461153483646,"5":-0.023666131660538697,"6":-0.00819025168795944,"7":-0.007490345140640969,"8":-0.0002409479594317411,"9":0.00035685220613591336,"10":0.0001234975619897043,"11":0.0001129439405755306,"12":0.013729629280173064,"13":-0.020334053107355216,"14":-0.007037103394514163,"15":-0.006435740228482476,"16":-0.0008341165566363034,"17":0.0012353552781014375,"18":0.00042752535192483465,"19":0.00039099069789427494,"20":0.011487653409055602,"21":-0.017013609634173033,"22":-0.005887981657845047,"23":-0.005384817832070494,"24":0.0014409398245486045,"25":-0.0021340813868278353,"26":-0.0007385518253836655,"27":-0.0006754380586899067,"28":-0.013050764118658721,"29":0.0193286304178802,"30":0.006689151965783505,"31":0.0061175233298551785,"32":-0.0009611498880193821,"33":0.0014234960063979477,"34":0.0004926361200326515,"35":0.0004505373529875376,"36":0.016398393117825236,"37":-0.02428658434846809,"38":-0.008404974698179642,"39":-0.007686718798823472,"40":0.010470149161312559,"41":-0.015506650822918255,"42":-0.005366461207833029,"43":-0.004907864445408361,"44":-0.0063943952436577465,"45":0.009470319091289326,"46":0.003277438915962709,"47":0.0029973617637259887,"48":0.009631007231835043,"49":-0.014263852752168895,"50":-0.004936360123870818,"51":-0.0045145180955792055,"52":-0.019043417267084622,"53":0.02820395640927447,"54":0.009760678212353926,"55":0.008926569476566242,"56":0.004339095559319125,"57":-0.006426349614825115,"58":-0.0022239977579553735,"59":-0.0020339435680606795,"60":-0.021361312201427757,"61":0.031636838921787404,"62":0.010948712052506308,"63":0.010013078921996883,"64":0.0007557048693174585,"65":-0.001119224875177794,"66":-0.0003873355439846264,"67":-0.00035423535464010537,"68":-0.0008624368810112938,"69":0.0012772986515085022,"70":0.0004420408972002711,"71":0.0004042658011231875,"72":0.017007856480041127,"73":-0.025189220613197172,"74":-0.008717354316023287,"75":-0.0079724037334338,"76":0.01055260609663377,"77":-0.015628772381698967,"78":-0.005408724400615117,"79":-0.004946515993518404,"80":-0.008924590422520223,"81":0.013217625156530743,"82":0.004574287122338304,"83":0.004183386421839746,"84":-0.014514590292841271,"85":0.021496607415136915,"86":0.007439434106529364,"87":0.0068036893814551955,"88":0.01729451791625034,"89":-0.025613776091675616,"90":-0.008864282244651913,"91":-0.00810677580445533,"92":-0.013281445927086022,"93":0.01967027812189668,"94":0.006807387617801989,"95":0.0062256550379172545,"96":0.010367165751030763,"97":-0.015354128848448301,"98":-0.005313677197509781,"99":-0.0048595911471321935,"100":0.020955014243770893,"101":-0.03103509759534842,"102":-0.01074046459975976,"103":-0.009822627418115348,"104":0.004619453423939028,"105":-0.00684156924738993,"106":-0.0023676948143103666,"107":-0.002165360834882871,"108":0.0034972101708804606,"109":-0.005179488423445382,"110":-0.0017924905038886963,"111":-0.0016393112410733603,"112":0.007281527077960396,"113":-0.010784191837971264,"114":-0.003732137171291377,"115":-0.0034132032899697874,"116":0.010366312263632048,"117":-0.0153528648042412,"118":-0.005313239743675729,"119":-0.004859191076367012,"120":0.029309563938541162,"121":-0.043408475423868456,"122":-0.015022577114206704,"123":-0.013738809258684627,"124":0.007001107917906291,"125":-0.01036888142037291,"126":-0.0035884086997078546,"127":-0.003281757289267357,"128":0.016470965175573848,"129":-0.0243940660692608,"130":-0.008442171407853338,"131":-0.007720736829730797,"132":0.24559899801747093,"133":-0.9799600694335334,"134":-2.012129360254738,"135":1.5709454568171424,"136":0.020818721865654678,"137":-0.03083324387069688,"138":-0.01067060813073739,"139":-0.009758740588848937,"140":0.0013054905687122816,"141":-0.001933476385193935,"142":-0.0006691274862157361,"143":-0.0006119464534878735,"144":-0.011155817497123402,"145":0.016522149226239284,"146":0.005717899602645607,"147":0.0052292703118719235,"148":0.004694231235867786,"149":-0.006952317756807643,"150":-0.002406022083862398,"151":-0.0022004128056302553,"152":-0.01588268471015428,"153":0.023522802410607304,"154":0.008140649053012384,"155":0.007444981344721385,"156":0.015071392278785668,"157":-0.02232125034794369,"158":-0.0077248222139827,"159":-0.007064689377001945,"160":-0.008523422937252877,"161":0.012623482312544367,"162":0.004368669257450607,"163":0.00399533984859434,"164":0.019372244781157948,"165":-0.028690961316480548,"166":-0.009929218302029585,"167":-0.009080706831356507,"168":0.020635551071534235,"169":-0.030561961591616726,"170":-0.010576724194497187,"171":-0.009672879579019146,"172":-0.034602166546399804,"173":0.05124700446405434,"174":0.017735292629815574,"175":0.016219708699703104,"176":-0.013903102348053292,"177":0.020590972697630078,"178":0.007126016782585707,"179":0.006517055436657027,"180":0.00828716313574753,"181":-0.012273573420924765,"182":-0.004247574607889234,"183":-0.0038845934705959186,"184":-0.009822673578882987,"185":0.014547717206376085,"186":0.005034598456300628,"187":0.004604361368973696,"188":-0.017575139402322363,"189":0.026029386196980434,"190":0.009008114404537002,"191":0.008238316659460294,"192":0.00792600730274483,"193":-0.0117386892120573,"194":-0.004062464661818996,"195":-0.00371530229173942,"196":0.013986016959774297,"197":-0.020713772094431863,"198":-0.007168514555461815,"199":-0.006555921521205563,"200":0.003531712902506775,"201":-0.005230588154604911,"202":-0.0018101748338503138,"203":-0.0016554843371243539,"204":0.008885170605134702,"205":-0.01315924305106037,"206":-0.004554082547009718,"207":-0.004164908449771483,"208":-0.009467126651985642,"209":0.014021139975429244,"210":0.004852363349524626,"211":0.004437699353298834,"212":-0.02677199535655468,"213":0.0396502481608762,"214":0.013721950034345436,"215":0.012549327957812172,"216":0.011434358470112144,"217":-0.01693467799500861,"218":-0.005860665407823516,"219":-0.005359835919911391,"220":-0.00990495907974308,"221":0.014669584864271584,"222":0.005076773780785364,"223":0.004642932557252413,"224":0.014104685853653426,"225":-0.02088952481520207,"226":-0.007229338137572712,"227":-0.006611547365344017,"228":0.012066872605077833,"229":-0.017871453204290094,"230":-0.006184859685023305,"231":-0.00565632584781554,"232":-0.012916233582395903,"233":0.019129386060154747,"234":0.006620198519439129,"235":0.006054462368343614,"236":-0.004715409102569966,"237":0.006983682905235623,"238":0.0024168767716978372,"239":0.0022103398942295792,"240":0.001322368503444875,"241":-0.0019584731864204998,"242":-0.0006777782496190783,"243":-0.0006198579563010392,"244":0.0008139343657698357,"245":-0.001205464760024505,"246":-0.00041718099635164725,"247":-0.000381530330718178,"248":0.019786743144784926,"249":-0.02930484771427266,"250":-0.010141668866562195,"251":-0.009275002256758974,"252":0.004057135894706855,"253":-0.006008757661770603,"254":-0.002079479700979931,"255":-0.0019017754603860581,"256":-0.013407281789176932,"257":0.019856645368314628,"258":0.006871884620304541,"259":0.006284640385846276,"260":-0.02303841977783726,"261":0.034120693280983855,"262":0.011808311192121343,"263":0.01079922037390781,"264":-0.018625805217261714,"265":0.027585458540692755,"266":0.009546631729961381,"267":0.008730814518298198,"268":-0.0021626304336529677,"269":0.0032029299751353026,"270":0.001108453404281637,"271":0.0010137292879479657,"272":0.025100762464430097,"273":-0.037175094260324906,"274":-0.01286536201365746,"275":-0.011765940193946887,"276":0.007562014006099369,"277":-0.011199602623012924,"278":-0.003875900377097736,"279":-0.0035446810570770276,"280":-0.019192991306105137,"281":0.028425480727619298,"282":0.009837342180249573,"283":0.008996682060516651,"284":0.0193521271194449,"285":-0.02866116636448735,"286":-0.009918907022235388,"287":-0.00907127671059019,"288":0.010719833035902189,"289":-0.01587644123372028,"290":-0.005494436346348399,"291":-0.005024903336809314,"292":-0.01106631812304326,"293":0.01638959757271926,"294":0.0056720268174457,"295":0.0051873176323441765,"296":0.02223025765835095,"297":-0.032923777206609876,"298":-0.011394088832549082,"299":-0.010420395690143629,"300":-0.026256515210364408,"301":0.03888680417073404,"302":0.013457741428094408,"303":0.012307697454859583,"304":0.008249392985803785,"305":-0.01221763452988792,"306":-0.004228215567349464,"307":-0.003866888777406745,"308":0.015144151888243923,"309":-0.022429009837744807,"310":-0.007762115053616158,"311":-0.0070987953218452984,"312":-0.0038898083636995763,"313":0.0057609398381636735,"314":0.001993716193956272,"315":0.0018233409681760202,"316":0.01251712055765546,"317":-0.018538285925586172,"318":-0.006415633672143268,"319":-0.005867378813063638,"320":-16.286082563034558,"321":-16.006239739444858,"322":13.84214385563465,"323":17.464791015670155,"324":-0.01198215637169139,"325":0.01774598554586393,"326":0.0061414384925709805,"327":0.005616615256999302,"328":-9.126711604197638,"329":-14.85606177583719,"330":8.844028624100543,"331":11.98932747661777,"332":-0.010885028605385148,"333":0.016121101557478763,"334":0.0055791071160819425,"335":0.005102338479088227,"336":0.0022571645072393745,"337":-0.0033429381862443517,"338":-0.0011569067201724025,"339":-0.0010580419720522779,"340":0.005017062243426778,"341":-0.007430441574314473,"342":-0.0025714886937901996,"343":-0.0023517392853799435,"344":0.014574248315568826,"345":-0.02158496300284392,"346":-0.007470011745756645,"347":-0.00683165397930182,"348":-0.002325807243331416,"349":0.0034446004369278224,"350":0.0011920894648574194,"351":0.001090218136323894,"352":-0.031984742030619163,"353":0.04737050736103499,"354":0.016393735669376904,"355":0.014992794884643322,"356":-0.018276763108740778,"357":0.02706851512585795,"358":0.009367730675819329,"359":0.008567201607713628,"360":-0.009635684188748498,"361":0.014270779486262574,"362":0.004938757291946738,"363":0.004516710411156602,"364":0.024469806507551765,"365":-0.03624062661440658,"366":-0.012541966436263274,"367":-0.011470180598730253,"368":0.004003847717190233,"369":-0.005929836039616134,"370":-0.0020521669153406824,"371":-0.0018767967188724687,"372":1.020141260575686,"373":-1.3404321817402245,"374":-1.0677076548395517,"375":-1.595207869530484,"376":-0.005421056943072,"377":0.008028771610048401,"378":0.0027785556474657505,"379":0.0025411111065491952,"380":-0.011691401650651091,"381":0.017315367793972844,"382":0.005992412547776126,"383":0.005480324474567892,"384":-0.002516003269347384,"385":0.003726287286559899,"386":0.0012895741894305601,"387":0.0011793721958343706,"388":-0.4766658201254164,"389":0.7059767210886805,"390":0.24430752043473744,"391":0.22344356213621616,"392":-0.005439318652005785,"393":0.008055817828666715,"394":0.0027879156624313326,"395":0.002549671251236299,"396":0.012420346052561418,"397":-0.018394959551062323,"398":-0.0063660320288089906,"399":-0.005822015927609241}},"b1":{"n":100,"d":1,"w":{"0":0.0002016426346750738,"1":0.00015622228145523807,"2":-0.000002355615709582735,"3":0.00013422695756250069,"4":-0.000008154698903387179,"5":0.00011230842475188568,"6":0.000014087276248538604,"7":-0.00012759007723342863,"8":-0.000009396633923549046,"9":0.0001603179389304213,"10":0.0001023608563731013,"11":-0.00006251447830554505,"12":0.00009415703485670942,"13":-0.00018617680996361143,"14":0.000042420948881571844,"15":-0.00020883750809398322,"16":0.000007388110956992101,"17":-0.000008431571140536972,"18":0.00016627631163688102,"19":0.00010316699166105696,"20":-0.00008725079167879422,"21":-0.00014190107552175792,"22":0.0001690788352057065,"23":-0.00012984532279407875,"24":0.00010135404521438274,"25":0.00020486537290987072,"26":0.00004516185305276862,"27":0.000034190299543532085,"28":0.00007118747466812942,"29":0.00010134570114573972,"30":0.000286542727167115,"31":0.00006844597203403077,"32":0.0001610274342516594,"33":0.6364653584496999,"34":0.0002035329226778412,"35":0.000012763063376545902,"36":-0.000109064251374277,"37":0.00004589291445469161,"38":-0.00015527615361610062,"39":0.00014734461129128763,"40":-0.00008332880054071698,"41":0.00018939156472638126,"42":0.0002017421696983945,"43":-0.0003382851001060325,"44":-0.0001359229053491317,"45":0.00008101901989061116,"46":-0.00009603084969189971,"47":-0.00017182230941449643,"48":0.00007748820005739311,"49":0.0001367335144499649,"50":0.000034527613740003484,"51":0.00008686540608408616,"52":-0.000092554865898754,"53":-0.0002617344960035168,"54":0.00011178739007553824,"55":-0.0000968353090598392,"56":0.00013789367284475166,"57":0.00011797112503159395,"58":-0.00012627484821620043,"59":-0.0000460999587698223,"60":0.000012928069661160214,"61":0.000007957388722063063,"62":0.0001934438728604218,"63":0.00003966438473299861,"64":-0.00013107554878745745,"65":-0.00022523359149552213,"66":-0.00018209406005378635,"67":-0.000021142848283958615,"68":0.00024539587322666,"69":0.00007392963972907859,"70":-0.00018763910812646454,"71":0.00018919488609564893,"72":0.00010480187577354605,"73":-0.00010818926621123156,"74":0.00021733267248404698,"75":-0.0002566949630099854,"76":0.00008064976213792325,"77":0.00014805594047495355,"78":-0.00003802851571046877,"79":0.0001223729455013287,"80":-0.9343809527784385,"81":-0.00011714290211414755,"82":-1.358412629052788,"83":-0.00010641690026798507,"84":0.000022067055898237347,"85":0.0000490490550091367,"86":0.00014248431805851598,"87":-0.00002273813815186041,"88":-0.0003126962437790546,"89":-0.00017868167809038813,"90":-0.00009420275885332475,"91":0.00023922739902175106,"92":0.00003914341560154583,"93":-0.1764586758752328,"94":-0.00005299868804313987,"95":-0.00011430035678708544,"96":-0.000024597580014274567,"97":-0.004656819683334714,"98":-0.00005317722268091994,"99":0.00012142683574605287}},"W2":{"n":3,"d":100,"w":{"0":0.00023497279256007143,"1":0.00018204469569320237,"2":-0.00000274498043035194,"3":0.00015641368081680093,"4":-0.000009502606407911619,"5":0.00013087216045951918,"6":0.000016415792114430845,"7":-0.00014867976734291783,"8":-0.000010949823511224368,"9":0.00018681734130012812,"10":0.00011928032820737287,"11":-0.00007284763563168076,"12":0.00010972047327452425,"13":-0.00021695054227019778,"14":0.00004943279959781912,"15":-0.00024335694614567653,"16":0.000008609307509060428,"17":-0.000009825243446316672,"18":0.0001937605988007324,"19":0.00012021971198965324,"20":-0.00010167267795175555,"21":-0.00016535628173690404,"22":0.00019702636374757332,"23":-0.0001513077902209006,"24":0.00011810709825892466,"25":0.00023872823469799867,"26":0.00005262675405800345,"27":0.00003984168779051106,"28":0.0000829542130791359,"29":0.00011809737497456623,"30":0.00033390661063419856,"31":0.00007975956058569017,"32":0.000187644112075539,"33":-0.1812027963178382,"34":0.00023717553649063542,"35":0.000014872697267083755,"36":-0.00012709174759609044,"37":0.00005347865427205944,"38":-0.00018094217853791957,"39":0.0001716996002047766,"40":-0.00009710241028937026,"41":0.0002206966797476807,"42":0.00023508878026277051,"43":-0.0003942019954926308,"44":-0.00015838995789018014,"45":0.00009441083984424074,"46":-0.00011190401629773353,"47":-0.00020022331901336433,"48":0.00009029640153070775,"49":0.00015933455549609873,"50":0.00004023475739831847,"51":0.00010122359092025684,"52":-0.00010785347729092518,"53":-0.0003049976249100467,"54":0.00013026500233186987,"55":-0.0001128414470610193,"56":0.0001606864806858432,"57":0.00013747086649946235,"58":-0.00014714713963325912,"59":-0.00005371992141652029,"60":0.000015064977792883043,"61":0.000009272682406892316,"62":0.00022541881438277334,"63":0.00004622059673840382,"64":-0.00015274136455626755,"65":-0.000262463234840243,"66":-0.00021219293487829272,"67":-0.000024637594804629898,"68":0.00028595827235716547,"69":0.0000861496375792952,"70":-0.0002186545508902998,"71":0.00022046749112443627,"72":0.000122124830982561,"73":-0.00012607213345169186,"74":0.00025325632517657777,"75":-0.00029912506969881326,"76":0.0000939805465007343,"77":0.00017252850774143104,"78":-0.00004431433125535232,"79":0.00014260027830765318,"80":-0.26099058053528906,"81":-0.00013650574394165997,"82":0.5045525468407356,"83":-0.00012400680774584018,"84":0.000025714566691665868,"85":0.00005715648056728918,"86":0.0001660359306147139,"87":-0.000026496573582312863,"88":-0.00036438328562079614,"89":-0.00020821650416664197,"90":-0.00010977375511999993,"91":0.0002787701689585505,"92":0.000045613515448685143,"93":-0.3561532598430302,"94":-0.00006175895765227005,"95":-0.00013319334521624685,"96":-0.00002866336662026073,"97":-0.0054292506308811,"98":-0.00006196700269952394,"99":0.00014149778293721994,"100":0.000051546062616964935,"101":0.00003993512093624948,"102":-6.021640310527046e-7,"103":0.00003431241926405478,"104":-0.00000208457873267936,"105":0.000028709363346352032,"106":0.0000036011184991308408,"107":-0.00003261582555380904,"108":-0.000002402053531924648,"109":0.00004098210267948339,"110":0.000026166461168694947,"111":-0.000015980532440513858,"112":0.0000240693157669657,"113":-0.000047592477178158235,"114":0.000010844033962353254,"115":-0.000053385318365968596,"116":0.0000018886165055611795,"117":-0.0000021553553483064764,"118":0.000042505255488314926,"119":0.000026372533865775597,"120":-0.000022303871898107895,"121":-0.00003627416505359122,"122":0.00004322167165750322,"123":-0.000033192336537276525,"124":0.000025909089638021485,"125":0.00005236990442926103,"126":0.000011544689584576305,"127":0.00000874003865054038,"128":0.00001819760775003246,"129":0.000025906956640572706,"130":0.00007324961440704339,"131":0.000017496798169487335,"132":0.00004116347256231929,"133":-0.2778997993408634,"134":0.00005202928464191826,"135":0.0000032626110657754435,"136":-0.00002788005330427619,"137":0.000011731570367929341,"138":-0.00003969326032887617,"139":0.00003766570512696742,"140":-0.00002130129322813626,"141":0.00004841427580712867,"142":0.000051571507156130065,"143":-0.00008647708095799624,"144":-0.000034745956663898294,"145":0.000020710844101219853,"146":-0.000024548319487147058,"147":-0.00004392299319873128,"148":0.00001980826098074603,"149":0.00003495317378509415,"150":0.000008826266038080767,"151":0.00002220535575710858,"152":-0.000023659753008417127,"153":-0.00006690768338841735,"154":0.000028576170911566545,"155":-0.000024753963646309113,"156":0.00003524974671148411,"157":0.000030156923597792448,"158":-0.00003227961213905504,"159":-0.000011784496981831767,"160":0.0000033047914845530843,"161":0.0000020341404981144586,"162":0.000049450181706814684,"163":0.000010139375267100408,"164":-0.00003350682067129307,"165":-0.00005757672796303439,"166":-0.00004654879068065431,"167":-0.000005404728614710602,"168":0.00006273092899046956,"169":0.000018898586795127453,"170":-0.00004796628934376054,"171":0.00004836399817029636,"172":0.000026790460017536805,"173":-0.000027656380354853256,"174":0.0000555569763149357,"175":-0.0000656193912026865,"176":0.000020616450767715682,"177":0.000037847543462021606,"178":-0.000009721199170499145,"179":0.0000312821648383896,"180":0.3480381941242688,"181":-0.00002994520430653245,"182":-0.3373575928548689,"183":-0.000027203309512325458,"184":0.000005640983069087184,"185":0.00001253837273493928,"186":0.00003642326026121548,"187":-0.000005812531292459926,"188":-0.00007993549769202863,"189":-0.00004567647305834835,"190":-0.000024081004201790732,"191":0.0000611540436969191,"192":0.000010006200276138518,"193":-0.0004902473467596896,"194":-0.000013548015287398591,"195":-0.0000292185623017609,"196":-0.000006287858951690466,"197":-0.0011944681249449233,"198":-0.000013593654004686661,"199":0.00003104030992176385,"200":-0.000046417832463840455,"201":-0.00003596216360439878,"202":5.422602795985315e-7,"203":-0.00003089887858614962,"204":0.000001877203177198856,"205":-0.000025853266402178134,"206":-0.0000032428762699314962,"207":0.000029371079475100922,"208":0.000002163095320447193,"209":-0.00003690497623942067,"210":-0.000023563350385687222,"211":0.0000143907649774136,"212":-0.00002167484188884774,"213":0.00004285763527810955,"214":-0.00000976525733871532,"215":0.00004807407464553705,"216":-0.0000017007354329477628,"217":0.0000019409388768106566,"218":-0.00003827658208777741,"219":-0.00002374892160251068,"220":0.000020085033820100486,"221":0.0000326654476249752,"222":-0.0000389217174451926,"223":0.00002989023339670419,"224":-0.00002333158385761698,"225":-0.000047159698974686806,"226":-0.00001039621044399059,"227":-0.00000787057085160713,"228":-0.00001638727839218265,"229":-0.00002332966306460506,"230":-0.00006596157367656144,"231":-0.000015756187793544925,"232":-0.000037068300707456804,"233":0.03802821650842779,"234":-0.00004685297218614472,"235":-0.0000029380438557975358,"236":0.000025106462408381476,"237":-0.00001056449996543936,"238":0.000035744366732986415,"239":-0.00003391854005931485,"240":0.00001918219650824004,"241":-0.00004359766466595282,"242":-0.000046440745186477326,"243":0.00007787244402831117,"244":0.000031289282959134034,"245":-0.000018650487935045598,"246":0.000022106191540859398,"247":0.000039553259670916726,"248":-0.000017837697636310387,"249":-0.00003147588382300126,"250":-0.000007948220214499667,"251":-0.000019996318556151987,"252":0.000021306024734382473,"253":0.00006025080737026104,"254":-0.00002573332498269295,"255":0.000022291376997268676,"256":-0.00003174295034115966,"257":-0.000027156811580273948,"258":0.000029068315838361375,"259":0.000010612161336163499,"260":-0.000002976028129519356,"261":-0.0000018317825796604271,"262":-0.0000445304967873076,"263":-0.000009130699302406005,"264":0.000030173429434495617,"265":0.000051848410003935346,"266":0.00004191779515423853,"267":0.000004867061519960907,"268":-0.000056489708726641204,"269":-0.000017018521444750035,"270":0.0000431942530751112,"271":-0.00004355238968688918,"272":-0.000024125269626705193,"273":0.000024905042082948142,"274":-0.00005002963967717006,"275":0.00005909072349953742,"276":-0.000018565485266468457,"277":-0.000034082286774603715,"278":0.000008754124042303077,"279":-0.000028170103927495275,"280":-0.05972799611439897,"281":0.000026966155912653138,"282":0.1897140724186192,"283":0.000024497045976326963,"284":-0.0000050798131344500265,"285":-0.00001129103999076205,"286":-0.000032799709052777906,"287":0.000005234295558077078,"288":0.00007198200705124494,"289":0.00004113227211291736,"290":0.00002168536749158969,"291":-0.00005506974455766684,"292":-0.000009010772778800883,"293":0.054247675341442855,"294":0.000012200241050850516,"295":0.000026311806220774832,"296":0.0000056623371006567964,"297":0.0010708621616031266,"298":0.000012241339521387342,"299":-0.0000279523109204648}},"b2":{"n":3,"d":1,"w":{"0":0.2448769417254759,"1":0.19245423365986614,"2":0.24014598515287866}}}}}