{"numStates":1,"sensitivity":10.220493924219012,"alpha":0.016962156509317716,"gamma":0.38922074499061465,"epsilon":0.26227566980786854,"cycles":2568,"max":{"lastUpdatedDate":"2017-09-29T04:50:46.888Z","meetsCriterion":false,"cycles":118,"wealth":1.5673378808652776,"percentSuccess":0.274478074472099,"odds":2.25,"weights":{"nh":100,"ns":4,"na":3,"net":{"W1":{"n":100,"d":4,"w":{"0":0.08460664631977002,"1":0.18809575839022458,"2":-0.3025645485123192,"3":-0.12657713947116708,"4":-0.008465088256356109,"5":-0.13844118914490028,"6":0.3315266998774154,"7":0.025612338877526595,"8":0.18725288996515713,"9":0.3420340627014898,"10":-0.3049793218920129,"11":-0.2955120329880279,"12":-0.2558675756960336,"13":-0.4297084898691617,"14":0.24095310387058916,"15":0.4102835377565648,"16":-0.22548543475053265,"17":-0.43713013975823106,"18":0.44340393625092056,"19":0.35874578472963325,"20":0.03200958417573225,"21":0.07657996277223865,"22":-0.1960021851731773,"23":-0.040451018250462066,"24":0.0035032486749774568,"25":0.021797399294121094,"26":-0.050466861728228875,"27":-0.0060198391291966255,"28":0.025843897807325617,"29":0.050290453379268206,"30":-0.082702161893961,"31":-0.036855478193682394,"32":0.11179491896931668,"33":0.06163565763127325,"34":0.14399039282576906,"35":-0.15542649817517387,"36":0.05357511645457138,"37":0.03684674386424717,"38":0.02788018711743433,"39":-0.07421575155677636,"40":-0.1148874847671621,"41":-0.1390139844120662,"42":0.029222131110956413,"43":0.1712489241603032,"44":0.012472510937673669,"45":0.02161060075761283,"46":-0.0785890966270933,"47":-0.01227756987695192,"48":0.11875159170298488,"49":0.11265870963199902,"50":0.10342732995569587,"51":-0.17781492437312554,"52":0.03675700395706809,"53":0.006950274350203395,"54":0.09828072024383877,"55":-0.052951115658039984,"56":0.16660170658663168,"57":0.2126466215913816,"58":-0.012397274656974959,"59":-0.2544818708506959,"60":0.20586707910969415,"61":0.3178507288762044,"62":-0.18170496022012092,"63":-0.31964106561718486,"64":0.20606876920766268,"65":0.34576581632618625,"66":-0.1919461478727977,"67":-0.3294718897842054,"68":0.2856970008401843,"69":0.4563708456761917,"70":-0.2706520517557065,"71":-0.44992685840793795,"72":0.029209137405325207,"73":0.07230107339272371,"74":-0.0061718565284146695,"75":-0.05762310388986329,"76":0.08514612383120237,"77":0.1157801723080121,"78":-0.071330773157148,"79":-0.12622664555258337,"80":-0.08765440196849214,"81":-0.18144846704887932,"82":0.24449788577926967,"83":0.13367261487514318,"84":0.22016712887664353,"85":0.4301666355474874,"86":-0.4200798302066831,"87":-0.3527765529306332,"88":-0.04312711602772183,"89":0.0008028516601161165,"90":-0.2057902049912352,"91":0.06709708136722085,"92":-0.10681947120271336,"93":-0.0890023538877613,"94":-0.09398500873126411,"95":0.156149208299308,"96":-0.10961504675338447,"97":-0.1412719344313349,"98":-0.036301026622942295,"99":0.17301997410711872,"100":-0.08808912424022525,"101":-0.15056222655351223,"102":0.12160470530247626,"103":0.13666072690205702,"104":0.08279231967598687,"105":0.06210841898386878,"106":0.13304321036414846,"107":-0.12479671291309034,"108":0.13786543230694948,"109":0.26192086272972476,"110":-0.24208673539073475,"111":-0.21849556114743202,"112":0.3351078108386164,"113":0.48384930182201386,"114":-0.10914458606678086,"115":-0.5199068952492698,"116":-0.18519185075379904,"117":-0.371106054214905,"118":0.39235682258275467,"119":0.29464274345925306,"120":-0.707767887748842,"121":-0.12604227782500865,"122":1.2256711942777694,"123":-2.1697399647100113,"124":0.10582124788067847,"125":0.2001699310736501,"126":-0.1893643447428979,"127":-0.1665872205092397,"128":-0.05582987177563219,"129":-0.05616511349429338,"130":-0.019180609340521064,"131":0.08286442470170872,"132":0.04972477713013774,"133":0.12862009300266392,"134":-0.21942826772195462,"135":-0.0761359785706832,"136":-0.10013266234554792,"137":-0.1304835615133111,"138":0.09032599141474017,"139":0.14561284309583733,"140":0.09468470593738233,"141":0.292210534601337,"142":-0.5031255074936857,"143":-0.15731497326136507,"144":-0.14871037823685695,"145":-0.2878793463669395,"146":0.3362183957952387,"147":0.22935168331343153,"148":0.4252390808892422,"149":0.3250896536722541,"150":0.37269111945988115,"151":-0.5106274865549164,"152":0.09979375945218118,"153":0.10032890318323816,"154":0.0887536169550939,"155":-0.1525348876648186,"156":-0.01703016319932395,"157":-0.006743741964592993,"158":-0.01971501750705047,"159":0.023044732908282052,"160":0.01592648607655761,"161":0.0486411450243451,"162":-0.06290351407535953,"163":-0.02791748013177028,"164":0.28031507980647014,"165":0.5119960738987982,"166":-0.5202055462486395,"167":-0.4405595240838307,"168":-0.08948196241268888,"169":-0.029975358872049343,"170":-0.23258761913901735,"171":0.12741400788769336,"172":0.07199127217954716,"173":0.03745709176948321,"174":0.17797522460162815,"175":-0.10843107291517275,"176":-0.08668607078376342,"177":-0.09640450006066666,"178":0.037706978109677075,"179":0.12442408548159904,"180":-0.11285782233022343,"181":0.015557451270646786,"182":-0.46699995530873467,"183":0.1400056470475705,"184":0.147611932834851,"185":0.24243050569296945,"186":-0.15024814124602798,"187":-0.23196826200220397,"188":0.06438051024133974,"189":0.06770565793960741,"190":0.029265696980424194,"191":-0.09735068957450702,"192":-0.07834909812059648,"193":-0.14205612190607267,"194":0.15572967914417415,"195":0.11903803914219475,"196":-0.0291652969523545,"197":-0.08823137408557045,"198":0.12280023594799021,"199":0.0499594026891971,"200":0.03215852130497116,"201":0.055980540510858406,"202":-0.10638476537123186,"203":-0.042963944558346345,"204":0.16329721603586086,"205":0.17254362815615162,"206":0.05490173099011511,"207":-0.2416058182243664,"208":6.651392930382545,"209":-0.9063073244097303,"210":7.278863490301614,"211":8.947014183550149,"212":0.3377585386467405,"213":0.7550476456818801,"214":-0.9950355926524856,"215":-0.5602202916651239,"216":0.19427720999897372,"217":0.3817330418292267,"218":-0.33891836035814654,"219":-0.31474036509661363,"220":-0.08522466144960772,"221":-0.1552336173276126,"222":0.10131175041518291,"223":0.1376973607583897,"224":0.07760960555726944,"225":0.11207087731521445,"226":-0.0009428556576364503,"227":-0.12464723139723659,"228":0.15428463247361077,"229":0.31497362935715884,"230":-0.25897693390709015,"231":-0.2545963655716539,"232":-0.31808941249350164,"233":-0.556765083154171,"234":0.4318405427827133,"235":0.5099699914953055,"236":-0.3322011066262561,"237":-0.5854936082511869,"238":0.5163113610778516,"239":0.528800779994246,"240":0.03984375584036735,"241":0.11367028120837146,"242":-0.16652485957800342,"243":-0.06589773162545248,"244":0.01737469412093427,"245":-0.014767097624856002,"246":0.15379735078734127,"247":-0.030216705814816298,"248":0.04235107625294539,"249":0.02398484568084598,"250":0.05110842556558778,"251":-0.06007339872616338,"252":-0.04511040368196971,"253":0.020180704180152165,"254":-0.2483218738756301,"255":0.06554958412818108,"256":0.08569539360626745,"257":0.1674329642677883,"258":-0.2158430235812248,"259":-0.12954222888238173,"260":0.08789517675065522,"261":0.20645787010725328,"262":-0.28572482771532415,"263":-0.1387578706842184,"264":-0.0551479400703879,"265":-0.022430259425112373,"266":-0.17961377477569543,"267":0.08572133738947826,"268":0.006187682020676229,"269":-0.10234746486484374,"270":0.3195421668891192,"271":-0.001539620821037054,"272":0.058539837481567936,"273":0.06274284378479429,"274":0.0008672718392409548,"275":-0.0861449435876712,"276":0.27552485829944307,"277":0.29058800750836833,"278":0.05606257743609682,"279":-0.39563618936679956,"280":-0.09689140582711914,"281":-0.3957936716152191,"282":0.7425048151146767,"283":0.18422424941852517,"284":0.04794145358663354,"285":-0.05002438962296138,"286":0.24652328648671046,"287":-0.05760005242997383,"288":0.14959592179464837,"289":0.244544163623417,"290":-0.2678402102481495,"291":-0.22149882208623972,"292":0.11363498379956753,"293":0.13073097851952376,"294":-0.004814667830551887,"295":-0.16934588526435707,"296":-0.08277500999789583,"297":-0.12274106387215898,"298":0.048304901222329694,"299":0.12892649936426523,"300":-0.08372888070529697,"301":-0.09099777314428928,"302":0.054909290371164585,"303":0.11729903099779293,"304":0.1198860646887537,"305":0.2532728498837496,"306":-0.2510368104688048,"307":-0.19477054998815385,"308":0.14115558352708948,"309":0.13175553859545427,"310":0.12693515861954577,"311":-0.20921954702711712,"312":-0.009956646019995949,"313":0.01782551616814991,"314":-0.08002322002277877,"315":0.013247460986050983,"316":0.14113485679932394,"317":0.12420425989238021,"318":0.06298338386890838,"319":-0.20190776520378464,"320":-4.475533297989911,"321":-1.7823565794052427,"322":3.364261326116813,"323":-7.32364661437618,"324":0.1021582025173423,"325":0.28662406722123823,"326":-0.48895592581392344,"327":-0.16412767638644793,"328":0.11306293968295766,"329":0.19123953188480827,"330":-0.14711518116696345,"331":-0.17588809057722132,"332":0.015523272483980794,"333":-0.08450526241832365,"334":0.28502681901469823,"335":-0.01491167990892119,"336":-0.15829383422883833,"337":-0.20949967135279227,"338":0.06950294139879498,"339":0.23936812175629496,"340":-0.19672275584582408,"341":-0.39812258851897725,"342":0.5150162839293302,"343":0.3043794868697658,"344":-0.2518400932882094,"345":-0.29836288246370946,"346":0.028197585250230372,"347":0.37218015845090496,"348":0.4838044052232772,"349":0.4697555266325674,"350":0.1874841681845155,"351":-0.6266017137247057,"352":0.18167722489632057,"353":0.1823036419485938,"354":0.11330470790593059,"355":-0.2670924258810662,"356":0.1279124406427666,"357":0.12932983355646543,"358":0.05395956020053168,"359":-0.1893249794112861,"360":-0.004747709817987667,"361":0.018873894357797728,"362":-0.06654233688068478,"363":0.005744146492460414,"364":0.4067819899242255,"365":0.6013991288201761,"366":-0.3325143603158758,"367":-0.6310763230068674,"368":-0.6359796141899299,"369":-0.050186159434065895,"370":-1.3705308783332368,"371":0.25531130844385136,"372":-0.02195102105627138,"373":-0.02656506278047381,"374":0.0017483419936266005,"375":0.03324388605161386,"376":0.18581377577798705,"377":0.26476216482842674,"378":-0.17108110703932572,"379":-0.27913187618982566,"380":0.08106704812248035,"381":0.09182696169028104,"382":0.027675035952262134,"383":-0.12383315734606122,"384":0.16708367347337544,"385":0.2455677614560397,"386":-0.14897502140742744,"387":-0.2541271644349829,"388":-0.07932554137702694,"389":-0.10604747747709012,"390":0.01829537587499353,"391":0.12234292492161793,"392":-0.036706594680731355,"393":-0.06777833661903458,"394":0.0586636090884909,"395":0.057821930876251156,"396":0.106622420443242,"397":0.1178248381451985,"398":0.07224922210073237,"399":-0.16455707491323376}},"b1":{"n":100,"d":1,"w":{"0":0.0225517345275101,"1":-0.04258184862146478,"2":-0.003972644075621756,"3":0.031128995515128453,"4":-0.005394656167559568,"5":0.021253230462643408,"6":0.006148267309089176,"7":0.00582355011213734,"8":-0.04483282805881364,"9":-0.01563545971267255,"10":0.0229855713363787,"11":0.009169208551778454,"12":-0.04273363890393196,"13":-0.02221535846779053,"14":-0.038551901362526605,"15":-0.0250582543006961,"16":-0.02523700040088658,"17":-0.033162929412401884,"18":-0.008353999373503673,"19":-0.009930529855326966,"20":-0.013233750211734807,"21":0.003056569668880167,"22":0.03965856837959667,"23":0.03794387468895854,"24":0.03256641739149053,"25":0.004549104879007423,"26":-0.038523207336471965,"27":-0.0006057291175747511,"28":-0.06675011009813185,"29":-0.008406990839953108,"30":-0.4713686015563677,"31":0.00022345308014513077,"32":0.015816700094951952,"33":0.018829816513275362,"34":0.010302544168796434,"35":0.0458179962978017,"36":-0.010941335407667159,"37":-0.13256447898649976,"38":-0.036681598688464795,"39":0.006407922709581834,"40":0.004408364513744853,"41":0.0032165354344242353,"42":0.052956067866942326,"43":-0.04227290903787822,"44":0.014349817135649,"45":0.08811781730795039,"46":-0.015636164682909737,"47":-0.01954305796865313,"48":-0.0030645173219680712,"49":-0.00933607538393899,"50":0.008214740793382427,"51":-0.04595428793970971,"52":6.020456385501507,"53":0.050268072874381724,"54":-0.00231280872856389,"55":0.007606990163641771,"56":-0.019661207599008183,"57":-0.004025055044575298,"58":0.020140366806727553,"59":0.011302350665779998,"60":0.012968736847261261,"61":-0.02648439722128742,"62":-0.01668727704017003,"63":0.045390699136204624,"64":0.009864229243144805,"65":0.018195486214586904,"66":0.03892084242034751,"67":-0.045244671479703284,"68":-0.013751115579558808,"69":-0.07031627909171591,"70":-0.07521138549867881,"71":-0.04378764289646634,"72":0.0026428698377129784,"73":-0.026122585896610095,"74":0.013643817174651669,"75":0.010780832968248943,"76":0.004383259382334843,"77":-0.051010434274601085,"78":0.013356243301244877,"79":-0.04077210858272894,"80":-4.878199698893543,"81":0.04276458060034268,"82":-0.007179364314795247,"83":-0.042487678047828194,"84":0.028103853506187673,"85":-0.024129422858206614,"86":0.05481728021098333,"87":-0.12432981363108189,"88":-0.05821859422296394,"89":-0.037558450312585596,"90":0.010271244057974206,"91":-0.05285893716651065,"92":0.23797063161547766,"93":0.005020339687164552,"94":-0.02008513005750062,"95":-0.02352166865257836,"96":-0.019266198137702483,"97":0.016817701821166847,"98":0.0009153964359515289,"99":-0.0362690144143637}},"W2":{"n":3,"d":100,"w":{"0":0.005253967127477503,"1":-0.004401725027257645,"2":0.008325463291228602,"3":-0.009821292864589918,"4":-0.011063813739263018,"5":0.002623206120353574,"6":0.0006592934964630878,"7":0.0014309802913723517,"8":0.00033844853044245925,"9":0.000695315138884915,"10":-0.002903999056373665,"11":0.0009199116385340495,"12":0.0013917721097214527,"13":-0.0003351268681343626,"14":0.004043462987126115,"15":0.00725459094325888,"16":0.007736761351416073,"17":0.01077182769836362,"18":0.001222176542910979,"19":0.002685919135172503,"20":-0.004770908055750259,"21":0.010745988158924275,"22":0.0013214766281906805,"23":-0.001143866892298792,"24":-0.002345536218343466,"25":-0.003521852120809371,"26":0.0003222585731781494,"27":0.006291892472758052,"28":0.009528730614336112,"29":-0.009304143845754082,"30":0.21956144551204018,"31":0.004801815259142318,"32":-0.0010290175914788714,"33":0.00359971849718752,"34":-0.003133873337261645,"35":0.008321980687702745,"36":-0.007380465691142433,"37":-0.0031209674905317694,"38":0.0012986551019873419,"39":-0.00008554869729087832,"40":0.001194283258750447,"41":0.013414948046366088,"42":0.0010787184017181097,"43":-0.0004630933757105699,"44":-0.002201926964950447,"45":0.0048462786129975614,"46":0.005467960785967031,"47":0.001163559234369842,"48":-0.003559863701169888,"49":-0.0022291392231815004,"50":0.0017135492726156978,"51":0.002822668929211632,"52":0.13785599421474598,"53":0.0216451751088835,"54":0.009211991618782757,"55":-0.0034219182681819575,"56":0.002064616570378029,"57":0.0073056325289424205,"58":-0.014083146709652243,"59":-0.015367774904324963,"60":0.0029501460449298006,"61":-0.0011797637057952837,"62":0.00027758978964339154,"63":0.0019635228678013374,"64":0.004369270034771773,"65":0.005395764301557856,"66":0.0007378533478818949,"67":-0.0037961725716911315,"68":0.0012668341007009464,"69":0.004474688203538467,"70":-0.012116976247686389,"71":-0.0022842089292418617,"72":0.006319502598729487,"73":0.0025885547921188955,"74":-0.0025972234299450245,"75":-0.002231571738254508,"76":0.006068687022955765,"77":0.001448468032310286,"78":0.0007102367710700311,"79":0.002048370887400388,"80":-0.07280442208368224,"81":0.00816238264226616,"82":0.004456158605789632,"83":-0.003201037263028097,"84":-0.004465915365096768,"85":-0.010639381188015374,"86":-0.005706072191440557,"87":0.002306856027519138,"88":0.0022979946942154393,"89":0.0021351545768928453,"90":0.0006700332801129829,"91":0.014893773901209419,"92":0.03369557749026375,"93":-0.0005334833134251047,"94":0.006258071798262,"95":0.0016039059216406914,"96":0.005661654054197861,"97":-0.0021308748131992745,"98":-0.001579306851669561,"99":0.0017041286914363327,"100":-0.025319174547311207,"101":0.01901250004366999,"102":-0.04006704709282077,"103":0.046861856077068664,"104":0.0522639207206513,"105":-0.012514837043935384,"106":-0.0030468119896010083,"107":-0.007004904879205021,"108":-0.005340051137928721,"109":-0.004340256238602434,"110":0.015488582248514415,"111":-0.0044884337862391615,"112":-0.009891196689554745,"113":0.0006060137232297762,"114":-0.022042570797050416,"115":-0.035762746501984854,"116":-0.03764934635898142,"117":-0.05109787238374166,"118":-0.00593525195404218,"119":-0.013804007776361829,"120":0.023220939957597008,"121":-0.05077029879085753,"122":-0.004198599068289495,"123":0.008207291100029719,"124":0.013143461977999715,"125":0.017531122908553094,"126":-0.004015458092787463,"127":-0.030599993272173588,"128":-0.04988595752262993,"129":0.04446161806633376,"130":0.1183714089628244,"131":-0.02354006502665517,"132":0.005821225557063403,"133":-0.01720998692402466,"134":0.016131006175137783,"135":-0.03843291415660226,"136":0.03579127567596448,"137":-0.028859722123863563,"138":-0.008584531971256932,"139":0.0007556651564678428,"140":-0.0056747207628083775,"141":-0.062343487346289646,"142":-0.0006837657006009139,"143":-0.0005316782994646023,"144":0.011736415609175179,"145":-0.009987165425254133,"146":-0.02709658319660889,"147":-0.006638668111957951,"148":0.017588438864681304,"149":0.010595518822966018,"150":-0.008465903205706397,"151":-0.01740755252653107,"152":-1.4521926746769633,"153":-0.09676003506446462,"154":-0.0438135284002774,"155":0.016955576602754763,"156":-0.010854202657272745,"157":-0.03507052966548759,"158":0.06406533640841654,"159":0.06942384232711395,"160":-0.014062326187282339,"161":0.0047778931155442305,"162":-0.00220411050560877,"163":-0.0065646727512487894,"164":-0.021391215557493064,"165":-0.025971282048546256,"166":-0.0013430745105994979,"167":0.015761518156684067,"168":-0.006941083218943827,"169":-0.030284680084704658,"170":0.052813226810388025,"171":0.00797048859491094,"172":-0.03119087271291545,"173":-0.014158330198297545,"174":0.013295375674173625,"175":0.01182162871148198,"176":-0.02933567784295671,"177":-0.011462396733113965,"178":-0.0029793114077979544,"179":-0.013192787756147115,"180":-1.3852677807701825,"181":-0.03807954560104333,"182":-0.02210386640259172,"183":0.013067846865867466,"184":0.02326852560058757,"185":0.0507984867819806,"186":0.03224407500466198,"187":-0.04653563032528882,"188":-0.017037661202830245,"189":-0.012991155903577016,"190":-0.0029121703733307604,"191":-0.0682663623825073,"192":-0.015570185478215981,"193":0.0028387925720817055,"194":-0.03129681333727001,"195":-0.00901379265463289,"196":-0.02839204648716387,"197":0.011192676619310787,"198":0.00783965194353932,"199":-0.010493158733330918,"200":-0.0024158027543352755,"201":0.003535277022062116,"202":-0.0010456814188156609,"203":-0.0006075534472087617,"204":0.002021775394586047,"205":-0.0019315564132196456,"206":-0.0005628836253442767,"207":-0.0006586507028609681,"208":0.0029830492544988185,"209":0.0010331708020464743,"210":-0.0011716840740833496,"211":-0.0008080658576701916,"212":0.0026676148950940722,"213":0.0016570053242346676,"214":0.0019961699530505602,"215":0.0006007135299240119,"216":0.0005174474534743278,"217":0.0006325831718688583,"218":0.00037288883875203087,"219":0.00028033722794870323,"220":0.0017282246242576182,"221":-0.0018414089216094408,"222":-0.002904476703685474,"223":-0.002437578100167043,"224":-0.0018781733111872523,"225":0.0002650476548806647,"226":0.002590276290980471,"227":-0.0009947854746796855,"228":0.0026361618475024533,"229":0.0020272538337674896,"230":0.020262207621921546,"231":-0.0008228303894711224,"232":-0.0009789436964784902,"233":-0.001938823900300818,"234":-0.00024105068236477252,"235":-0.0041010813794919426,"236":0.001939726759672066,"237":0.0032888916934901914,"238":0.002320862985215651,"239":-0.00046112249431214624,"240":-0.0005331585362360683,"241":-0.002079316818254646,"242":-0.0035855683595192706,"243":0.0029289639799399826,"244":-0.0006909636923158167,"245":-0.004960653596143879,"246":0.00021190112859091587,"247":0.0012138950684497305,"248":0.0008171804533973296,"249":0.001068059026813822,"250":-0.000874360637803631,"251":0.0026335602994265973,"252":0.013371594491364366,"253":-0.004002827836095113,"254":-0.0012964662280381886,"255":0.00003930991383305386,"256":0.001054065528873737,"257":-0.0009275426727118367,"258":0.0006400272637670313,"259":0.0013227648032479754,"260":-0.001443560485484119,"261":0.0020617859948194686,"262":0.0011720227529111705,"263":-0.0033250561286283066,"264":-0.0014290934375249874,"265":-0.0021707576028357958,"266":-0.0027699477563037952,"267":0.0035808204845246957,"268":0.000792181576593129,"269":0.0035284038322791604,"270":0.005141669195610318,"271":0.0033158558167904954,"272":-0.0011973308400319036,"273":0.0014366415599272207,"274":-0.0005489475546043598,"275":-0.0004358669176792979,"276":-0.0013281236654105854,"277":0.003110750941276001,"278":-0.001096453615164042,"279":0.0024760313253471286,"280":0.013555463331501627,"281":-0.0039336535927240205,"282":-0.00022585771610339342,"283":0.0033642444395103437,"284":-0.0012569038882268458,"285":0.0031203480998307676,"286":-0.0026741636545068656,"287":0.003557920727267448,"288":0.0033277635476695057,"289":0.0022530868877322485,"290":-0.0008650213406656017,"291":0.001337042307377675,"292":0.03770685439560704,"293":-0.00027876831894794394,"294":0.00043434242489484706,"295":0.0014136367845360557,"296":0.0004557194068125082,"297":-0.0008563037411351993,"298":0.00020573981347477786,"299":0.00222396449041708}},"b2":{"n":3,"d":1,"w":{"0":-0.1233812938544847,"1":0.26825966760136477,"2":0.060889139154841065}}}}},"weights":{"nh":100,"ns":4,"na":3,"net":{"W1":{"n":100,"d":4,"w":{"0":-0.006576360248148735,"1":0.009844022027471918,"2":0.003287177139755367,"3":0.003217113913942331,"4":0.01258760109608616,"5":-0.018842091220614022,"6":-0.006291890868830823,"7":-0.00615778367784978,"8":-0.028047083622515404,"9":0.0419830367343857,"10":0.014019286508255182,"11":0.013720475401838409,"12":0.044298424624927286,"13":-0.06630927787512594,"14":-0.022142496477336224,"15":-0.02167054436698199,"16":0.03619097937770534,"17":-0.05417345425086025,"18":-0.018089996984101065,"19":-0.017704421810381833,"20":0.0049029131480427925,"21":-0.007339033970205555,"22":-0.002450719372384999,"23":-0.0023984832436981505,"24":-0.0013776714099043355,"25":0.002062205800536729,"26":0.0006886264009036967,"27":0.0006739488524527878,"28":-0.0002516635813164129,"29":0.0003767173763388624,"30":0.00012579143870672832,"31":0.00012311054011407974,"32":0.0016582407869940793,"33":-0.0024821730127133107,"34":-0.0008288714382236154,"35":-0.0008112043217543996,"36":0.002886040391017797,"37":-0.004320037032005396,"38":-0.0014425852519494695,"39":-0.001411837227327849,"40":0.007153630176775411,"41":-0.010708110456101217,"42":-0.003575728269317881,"43":-0.003499514338322092,"44":0.0053996460145487235,"45":-0.00808259082155983,"46":-0.002699008031538439,"47":-0.002641480091548958,"48":-0.01097890532501098,"49":0.016434063090468513,"50":0.005487789324521976,"51":0.005370820717303444,"52":-0.000012320657486181082,"53":0.00001844180350722542,"54":0.000006158652740435787,"55":0.000006027362588758353,"56":-0.018479414738780287,"57":0.02766140488677571,"58":0.009236905742623785,"59":0.00904002742554052,"60":-0.02540432610735704,"61":0.03802715199801153,"62":0.012698309141959291,"63":0.012427653673647773,"64":-0.03522841404463119,"65":0.05273258847746529,"66":0.017608866867557284,"67":0.017233545868061226,"68":-0.04047111150919336,"69":0.06058027586758274,"70":0.020229416422511,"71":0.019798240732454554,"72":-0.016457801484261,"73":0.024635281975148964,"74":0.008226410311142818,"75":0.008051069455072106,"76":-0.004519720536577699,"77":0.006765474307170092,"78":0.0022591722904607894,"79":0.0022110199053239077,"80":0.00947129964157657,"81":-0.014177382190087164,"82":-0.00473420988094059,"83":-0.0046333039140424356,"84":-0.03794557368143706,"85":0.05679985995189169,"86":0.01896702965165646,"87":0.01856276095171688,"88":0.007200694186234341,"89":-0.010778535508072114,"90":-0.003599259696881658,"91":-0.0035225434343915214,"92":0.005048413263254667,"93":-0.0075568545582703674,"94":-0.0025234405684411093,"95":-0.00246965524138936,"96":0.017751819761240926,"97":-0.026572274696396066,"98":-0.00887322136526401,"99":-0.008684094399928559,"100":0.01127144872274304,"101":-0.01687197339954696,"102":-0.005634014230407661,"103":-0.005513929228072134,"104":-0.008242190531073949,"105":0.012337535455378386,"106":0.004119847682060344,"107":0.004032035713712641,"108":-0.022278923856252287,"109":0.033348807243788,"110":0.01113608268166037,"111":0.010898724898979452,"112":-0.052331825636084434,"113":0.07833428315713614,"114":0.026157980489343917,"115":0.025600440956098213,"116":0.030614483620230067,"117":-0.04582612143146175,"118":-0.01530259630198051,"119":-0.014976432444852935,"120":-2.6815203366492306,"121":-0.4270760297457928,"122":3.637948224483477,"123":0.3434163401835511,"124":-0.016213234245364215,"125":0.02426921730178527,"126":0.008104157661850197,"127":0.007931423259204401,"128":0.0028303586440892414,"129":-0.004236700677705486,"130":-0.0014147494397310787,"131":-0.0013845951160008677,"132":-0.006080023370806248,"133":0.009101057131055685,"134":0.003039086631881758,"135":0.0029743109682785433,"136":0.00235591502115644,"137":-0.0035265303989517145,"138":-0.0011775959143977136,"139":-0.0011524967863498243,"140":-0.02089046819318026,"141":0.03127047443984125,"142":0.010442061495410609,"143":0.010219496753557945,"144":0.01772228779014315,"145":-0.026528099292528085,"146":-0.008858451561589268,"147":-0.008669640385084944,"148":-0.020618942030179343,"149":0.030864019457947322,"150":0.010306343356315703,"151":0.010086670906967158,"152":-0.01156631703797794,"153":0.017313343507512898,"154":0.005781406801850878,"155":0.005658179859250772,"156":-0.0016200189748469495,"157":0.0024249653000245662,"158":0.0008097647872616743,"159":0.0007925050979733038,"160":-0.005708451452418287,"161":0.008544846188624644,"162":0.0028533607287657766,"163":0.0027925432455227404,"164":-0.03786216211426649,"165":0.05667502994619729,"166":0.018925329173978853,"167":0.018521950158573292,"168":0.005006992282645007,"169":-0.007494841744971857,"170":-0.002502739289569363,"171":-0.0024493948495474265,"172":-0.00799373678281967,"173":0.011965627000116217,"174":0.003995659524835428,"175":0.003910494417952657,"176":0.0002016066616569817,"177":-0.0003017942215719431,"178":-0.0001007689586963557,"179":-0.00009862158735650694,"180":0.007613804268593941,"181":-0.01139690209246984,"182":-0.003805754368138328,"183":-0.0037246365459073895,"184":-0.021372138514521025,"185":0.031991457959985294,"186":0.010682828432941481,"187":0.010455131341478352,"188":-0.005263162623611063,"189":0.007878305607581083,"190":0.002630783309117941,"191":0.002574709971978527,"192":0.0077336871924584315,"193":-0.011576385969813259,"194":-0.003865668371587091,"195":-0.003783274620783184,"196":0.009255041104438462,"197":-0.013853654226121316,"198":-0.004626117668795877,"199":-0.004527515108606042,"200":0.0026748615489361606,"201":-0.00400392373698363,"202":-0.0013370291093460444,"203":-0.0013085307924415653,"204":-0.011929512761359904,"205":0.017857013145728257,"206":0.0059629467456667265,"207":0.005835850740997282,"208":14.74839993205786,"209":3.9017725283952043,"210":6.579764407406336,"211":12.044827669186054,"212":0.6958450569469826,"213":4.630032649980314,"214":-0.2935422565901235,"215":-4.026365569019136,"216":-0.0373570181740036,"217":0.05591885307505468,"218":0.018672844375491337,"219":0.018274845647631502,"220":0.016549176657565456,"221":-0.02477207272493303,"222":-0.008272080382090647,"223":-0.008095766532722383,"224":-0.014122694480567076,"225":0.021139924219016608,"226":0.007059208244291661,"227":0.0069087458056386305,"228":-0.03507153887705594,"229":0.05249776189149732,"230":0.017530454109177848,"231":0.017156804300375125,"232":0.051565104356390265,"233":-0.07718662946077799,"234":-0.02577472692477794,"235":-0.025225357258039302,"236":0.04964580781687434,"237":-0.0743136993472114,"238":-0.024815364138204055,"239":-0.02428644327205331,"240":-0.010104922248710374,"241":0.01512582449161395,"242":0.005050928570092515,"243":0.004943271553749533,"244":-0.005390572429163953,"245":0.008069008464614932,"246":0.002694472701662489,"247":0.0026370414188168776,"248":0.0009328032117658868,"249":-0.0013962873105574994,"250":-0.0004662612963884587,"251":-0.00045632312478187967,"252":0.0038833021740348863,"253":-0.005812810802824589,"254":-0.0019410660811008144,"255":-0.001899693145302118,"256":-0.007991817616041853,"257":0.011962779853200217,"258":0.003994693224687342,"259":0.0039095495422108535,"260":-0.014510036502818313,"261":0.021719746089863923,"262":0.007252815432583082,"263":0.007098226992152799,"264":0.008671284803439996,"265":-0.012979829572384216,"266":-0.0043343317044328145,"267":-0.004241947926704499,"268":0.005297628989810352,"269":-0.00792990868357892,"270":-0.0026480082085192287,"271":-0.002591568095968129,"272":-0.0022493283721500908,"273":0.003366972221980882,"274":0.0011243217889474685,"275":0.0011003578030879461,"276":-0.017015000895950757,"277":0.02546937158319249,"278":0.008504917111337848,"279":0.008323641070316497,"280":0.03421799654537936,"281":-0.051220148785141466,"282":-0.017103802907265726,"283":-0.016739247990467575,"284":0.009190824676677587,"285":-0.013757527093767463,"286":-0.004594020027844333,"287":-0.004496101507917233,"288":-0.008001154245929355,"289":0.0119767688787175,"290":0.0039993565005499035,"291":0.003914113851884405,"292":-0.007225809856155504,"293":0.010816152783496284,"294":0.003611807645162428,"295":0.0035348246503390684,"296":0.01083322722252413,"297":-0.016216005249779012,"298":-0.005414971179036336,"299":-0.0052995547802062405,"300":-0.0027839577981033322,"301":0.004167223070598422,"302":0.0013915618699403872,"303":0.0013619010855842844,"304":-0.024720154937954014,"305":0.03700302372756073,"306":0.012356329583512647,"307":0.012092962902512999,"308":-0.01288265919361427,"309":0.01928374697958361,"310":0.006439377872933601,"311":0.0063021267797359025,"312":-0.0015677858183657763,"313":0.0023467832483328255,"314":0.0007836548851238389,"315":0.0007669518574401265,"316":-0.002194017215841689,"317":0.0032841860406278975,"318":0.0010966724624336306,"319":0.0010732980552929953,"320":-24.154338190220376,"321":-4.311126158205168,"322":-19.201831478457617,"323":-17.420421079789147,"324":-0.017486508341671703,"325":0.02617517074345822,"326":0.008740596432032023,"327":0.008554297392871262,"328":-0.014768164913752886,"329":0.022106127000130926,"330":0.007381842005215616,"331":0.007224503274357362,"332":0.00590603084406119,"333":-0.008840606941109275,"334":-0.0029521180702291447,"335":-0.0028891959255587197,"336":0.013667998754020241,"337":-0.020459317183669553,"338":-0.006831924831054505,"339":-0.0066863073127781305,"340":0.023514038403664207,"341":-0.03519765295177386,"342":-0.011753444067852007,"343":-0.011502928671927117,"344":0.018489696968295114,"345":-0.02767681023418917,"346":-0.00924204143526171,"347":-0.009045054111087305,"348":-0.03327817665656683,"349":0.04981334313455087,"350":0.016634038507545173,"351":0.0162794959332825,"352":-0.01599132334276466,"353":0.023937036229203457,"354":0.007993237993545338,"355":0.007822867514650732,"356":-0.008165298207627729,"357":0.012222448186716393,"358":0.004081410152223722,"359":0.003994417811151141,"360":-0.001539311017007217,"361":0.002304159949227215,"362":0.0007694218105145455,"363":0.000753022149999439,"364":-0.04888135865614851,"365":0.07316941193339123,"366":0.024433255810985186,"367":0.023912479276207307,"368":-2.272049308648818,"369":0.5606001945626259,"370":-2.171143342192609,"371":2.1527922881192834,"372":0.001789584266204829,"373":-0.0026787877140151644,"374":-0.0008945206078184403,"375":-0.0008754545383672923,"376":-0.013219332656315336,"377":0.01978773094748279,"378":0.006607656634751597,"379":0.006466819613940504,"380":-0.008172307804214437,"381":0.012232935759971673,"382":0.004084915236417568,"383":0.003997848027457543,"384":-0.015324778773256394,"385":0.022939316946209546,"386":0.00766006245637541,"387":0.007496793894592113,"388":0.009073652195130956,"389":-0.013582138460480432,"390":-0.004535450423597312,"391":-0.004438780407974004,"392":0.005728240933064275,"393":-0.00857447119714986,"394":-0.0028632517583244946,"395":-0.00280222353855072,"396":-0.013905864602763206,"397":0.02081535655909434,"398":0.00695082619864358,"399":0.006802673846619066}},"b1":{"n":100,"d":1,"w":{"0":-0.000004440466530773851,"1":0.000008499140606569898,"2":-0.00001893737732198669,"3":0.000029910161035404263,"4":0.000024436168338325007,"5":0.000003310303423668584,"6":-9.302092017869901e-7,"7":-1.699691990311783e-7,"8":0.0000011195876209206107,"9":0.0000019485911864285553,"10":0.000004830159377122767,"11":0.000003645748400342726,"12":-0.000007412901757979019,"13":-8.314800265830801e-9,"14":-0.000012477248798989699,"15":-0.00001715297990797237,"16":-0.000023786106809192813,"17":-0.000027326051480218287,"18":-0.000011112161510735158,"19":-0.0000030517611407210396,"20":0.000006395080313685492,"21":-0.00002562083241622765,"22":0.000004861797663135061,"23":0.00000340868908601646,"24":0.000011985919286296144,"25":0.000007610478049282632,"26":-0.0000055650616459113685,"27":-0.000015042699930289294,"28":-0.00003533425499384875,"29":0.00002067089851959291,"30":-0.4000437740387464,"31":-0.000010947160062518172,"32":0.0000019110667810019692,"33":-0.000004105284326567856,"34":0.0000015908010997973495,"35":-0.00001410530056225573,"36":0.00001196615546140775,"37":-0.000013921886719886817,"38":-0.000007809506117161018,"39":-0.0000010938130394597964,"40":-0.000003854320984990413,"41":-0.000025564668990731696,"42":0.0000033806595279909666,"43":-0.00000539728409822373,"44":1.362050629521588e-7,"45":0.000005140680446078123,"46":-0.000014430421034226154,"47":-0.0000035536741328867555,"48":0.00000522182210611067,"49":0.000006248972524304193,"50":0.0000018059770323269588,"51":-0.000008054795433661637,"52":10.183770858910766,"53":-0.5156071819503765,"54":-0.00002522337268571497,"55":0.000011173935505745842,"56":-0.000009535558808028577,"57":-0.00002368016307560898,"58":0.000034816762089287374,"59":0.00003352097656284207,"60":-0.000006822827334266673,"61":-0.0000036396200901633474,"62":6.298025535599787e-7,"63":0.000002621915569219771,"64":-0.000005396137027014362,"65":-0.000009797199264342986,"66":0.000005854743711271383,"67":0.00000357701064267572,"68":-0.000001518769571530209,"69":-0.000011488559886119674,"70":0.000023104054344070484,"71":0.000006205596002131871,"72":-0.000005402518006743177,"73":-0.000004878884723954624,"74":0.000007314565364479574,"75":-0.000001879613557141389,"76":-0.000016690980736865367,"77":-0.000008698305933243972,"78":-0.0000010585717383140306,"79":-0.0000014814689281224836,"80":-15.29466115128681,"81":-0.000011806982294193724,"82":-0.00000997145496234737,"83":0.000003987776975210384,"84":0.000009228644752356641,"85":0.000015876828913807038,"86":0.000012484273331502202,"87":-0.00002246942592791262,"88":-0.000010797281042204896,"89":-0.000005513208385639738,"90":-0.0000010393454392864489,"91":-0.00003300481560228743,"92":0.741839244556246,"93":0.0000012083267758662404,"94":-0.000008925773936186022,"95":-0.000005517912620157799,"96":-0.00001034732344795119,"97":0.000006126505409055719,"98":0.00000386769786846288,"99":-0.000009389155463470154}},"W2":{"n":3,"d":100,"w":{"0":-0.000005829058983641962,"1":0.00001115713267518717,"2":-0.000024859784082282615,"3":0.000039264260764657435,"4":0.000032078212818769504,"5":0.00000434568656619188,"6":-0.0000012211138013508637,"7":-2.2308207955637881e-7,"8":0.0000014697750736743037,"9":0.000002558043913231795,"10":0.000006340696636403443,"11":0.000004785989984127879,"12":-0.000009731232097742337,"13":-1.091894042193131e-8,"14":-0.000016379378489035733,"15":-0.0000225173489315738,"16":-0.000031224981186479705,"17":-0.00003587192278754029,"18":-0.000014587466748650148,"19":-0.000004006113459286494,"20":0.00000839499600364444,"21":-0.00003363339873057986,"22":0.0000063823584097794,"23":0.0000044747075678425154,"24":0.000015734445848416555,"25":0.00000999055032283614,"26":-0.000007305515883802875,"27":-0.000019747116861702518,"28":-0.00004638471562380539,"29":0.000027135427386485513,"30":-0.1907004474869108,"31":-0.00001437074270981034,"32":0.0000025087176746162137,"33":-0.000005389104777369583,"34":0.0000020882206124529818,"35":-0.000018516479686139585,"36":0.00001570833799032044,"37":-0.00001827577931511887,"38":-0.000010251883657650478,"39":-0.0000014359094895568374,"40":-0.000005059728465610993,"41":-0.00003355952643927603,"42":0.000004437969699778776,"43":-0.000007085288288441897,"44":1.787269228532713e-7,"45":0.0000067485033274369264,"46":-0.000018943372649241558,"47":-0.0000046650473302104315,"48":0.000006854838671120196,"49":0.00000820327847847523,"50":0.00000237085348536027,"51":-0.000010573828532254135,"52":-0.5969589615351235,"53":0.0418729957891942,"54":-0.00003311170130255074,"55":0.000014668487909967707,"56":-0.000012517747059356116,"57":-0.0000310859251008287,"58":0.00004570520156575465,"59":0.00004400406352160056,"60":-0.000008956584240151131,"61":-0.000004777946823171792,"62":8.267885668818118e-7,"63":0.0000034419656940603576,"64":-0.000007083644699269081,"65":-0.000012861112603794005,"66":0.000007685831145598211,"67":0.000004695621958249764,"68":-0.000001993721740800314,"69":-0.000015081414074395914,"70":0.000030329458559792277,"71":0.00000814635286168334,"72":-0.0000070919500184961315,"73":-0.0000064046697486067905,"74":0.000009602118815754863,"75":-0.000002467542184006912,"76":-0.00002191090948502932,"77":-0.000011418637748115458,"78":-0.000001389622402831112,"79":-0.0000019447137532517763,"80":-0.6459223336262664,"81":-0.00001549936242431186,"82":-0.000013089894484934767,"83":0.000005234874241438754,"84":0.00001211476062808142,"85":0.000020841941345047806,"86":0.00001638852391355772,"87":-0.000029496416682853173,"88":-0.000014174032645865505,"89":-0.000007237386568362989,"90":-0.000001364383457775233,"91":-0.00004332648523024156,"92":-0.12334198204140145,"93":0.0000015862142258657695,"94":-0.000011717107806189436,"95":-0.000007243588519169518,"96":-0.000013583270818131016,"97":0.000008042505336027892,"98":0.000005077274859843938,"99":-0.000012325557984366185,"100":-0.000005085373728978374,"101":0.00000973391781241892,"102":-0.000021688641531060852,"103":0.00003425579329521199,"104":0.000027986238533833557,"105":0.000003791502906720382,"106":-0.0000010653403046796483,"107":-1.9457420625008652e-7,"108":0.0000012823509313989963,"109":0.0000022318057786530933,"110":0.000005531834800189938,"111":0.000004175583757153107,"112":-0.000008489960428711895,"113":-9.530672346673846e-9,"114":-0.000014290054185889737,"115":-0.000019645019909824395,"116":-0.000027241999547710696,"117":-0.00003129608525843382,"118":-0.000012726826473086203,"119":-0.0000034950356077691174,"120":0.000007324050186529063,"121":-0.000029343084477280707,"122":0.00000556833717699758,"123":0.0000039039055351983805,"124":0.000013727454140930634,"125":0.000008716142825309731,"126":-0.000006373684266274587,"127":-0.000017228172825138567,"128":-0.000040468015355630795,"129":0.000023673985625332722,"130":-0.004120310179994294,"131":-0.000012537603075266745,"132":0.0000021886916586729824,"133":-0.000004701602662533236,"134":0.000001821746411591832,"135":-0.000016154422299659795,"136":0.00001370448061107997,"137":-0.000015944514422071714,"138":-0.000008944214601543578,"139":-0.0000012527688155826108,"140":-0.000004414328949768093,"141":-0.00002927846179431445,"142":0.000003871923133040385,"143":-0.000006181573299725211,"144":1.5583890576183625e-7,"145":0.000005887830696821427,"146":-0.000016526975034037658,"147":-0.000004069980493447765,"148":0.0000059803828160242165,"149":0.000007156888665987784,"150":0.0000020685228451754027,"151":-0.00000922502534024404,"152":0.988419509838098,"153":0.014809189257682074,"154":-0.000028888010307374774,"155":0.000012797426214296718,"156":-0.000010921055364113809,"157":-0.000027120705760471906,"158":0.00003987496175007196,"159":0.000038390686451003106,"160":-0.000007814084665033482,"161":-0.000004168568627139532,"162":7.213510978789329e-7,"163":0.0000030030027431743217,"164":-0.000006179973838083286,"165":-0.00001122050139009051,"166":0.000006705533016673771,"167":0.000004096582836410563,"168":-0.0000017393734496549214,"169":-0.000013157567673836923,"170":0.00002646050946343345,"171":0.000007107244155178347,"172":-0.000006187134154879586,"173":-0.000005587658933082274,"174":0.00000837728872937852,"175":-0.00000215290587680262,"176":-0.000019115991020017618,"177":-0.00000996212927309739,"178":-0.0000012123566719891448,"179":-0.0000016965664300581475,"180":0.8158765010230308,"181":-0.000013522134384573458,"182":-0.000011420135737052673,"183":0.000004567076754527042,"184":0.000010569367202469511,"185":0.00001818313966977491,"186":0.00001429794178523328,"187":-0.000025733800897587097,"188":-0.00001236603552239969,"189":-0.000006314173939687696,"190":-0.000001190337376857383,"191":-0.00003779954668159964,"192":-0.2504473898888972,"193":0.0000013838745417533838,"194":-0.000010222363406526283,"195":-0.000006319616635484127,"196":-0.000011850528483757744,"197":0.000007016616597640718,"198":0.0000044296203738777955,"199":-0.00001075338205395447,"200":-0.000030813107781338966,"201":0.00005897870416358852,"202":-0.00013141348328952283,"203":0.00020755864025390544,"204":0.00016957131879171566,"205":0.000022972613872921418,"206":-0.000006455015276982517,"207":-0.0000011790911111577759,"208":0.000007769703985629898,"209":0.00001352251914365596,"210":0.00003351800130580674,"211":0.00002529995971371956,"212":-0.000051441296351504566,"213":-5.773405232236191e-8,"214":-0.0000865846221473916,"215":-0.000119030963486739,"216":-0.00016506146376826452,"217":-0.00018962578991094288,"218":-0.00007711257592203179,"219":-0.00002117689868680055,"220":0.00004437730183739338,"221":-0.00017779245318160565,"222":0.00003373872513822734,"223":0.000023654134494549674,"224":0.00008317559107748767,"225":0.000052811920644437164,"226":-0.00003861854594910186,"227":-0.00010438703251966319,"228":-0.0002451988819694016,"229":0.00014344291047169817,"230":-0.05291565985450504,"231":-0.00007596647216267792,"232":0.000013261517577570941,"233":-0.0000284876241826027,"234":0.000011038414226550208,"235":-0.00009788135277495147,"236":0.00008303695810325553,"237":-0.00009660924620574729,"238":-0.00005419361383968346,"239":-0.000007590568451549509,"240":-0.000026746755110052483,"241":-0.0001774013995675258,"242":0.000023460150598000317,"243":-0.000037454458130951684,"244":9.445004147502544e-7,"245":0.00003567440874811837,"246":-0.00010013835302982668,"247":-0.0000246603543080962,"248":0.000036235822600659316,"249":0.00004336416522784907,"250":0.000012533088247846881,"251":-0.00005589526395974009,"252":0.033578363038738596,"253":-0.00647278169518445,"254":-0.0001750349008936545,"255":0.00007754059526908058,"256":-0.00006617143591703492,"257":-0.00016432646391483592,"258":0.0002416061490904306,"259":0.0002326131843982427,"260":-0.00004734622630248223,"261":-0.000025257448514482524,"262":0.000004370650494187865,"263":0.000018195188532722228,"264":-0.000037445244609437094,"265":-0.00006798615174070446,"266":0.00004062911276865229,"267":0.000024821748612795745,"268":-0.000010539102379281014,"269":-0.00007972304709003846,"270":0.00016032692490495945,"271":0.000043063307945056835,"272":-0.000037488876598768065,"273":-0.000033856211691591376,"274":0.00005075868965248034,"275":-0.000013044291880849427,"276":-0.00011582537734754175,"277":-0.00006036127299902824,"278":-0.000007345792647960172,"279":-0.000010279876574542869,"280":0.0923020813340954,"281":-0.00008193218577887865,"282":-0.0000691956503819301,"283":0.00002767243034031627,"284":0.00006404083406344444,"285":0.00011017384357260668,"286":0.00008663267713743466,"287":-0.0001559235303961007,"288":-0.00007492678433640211,"289":-0.00003825817421441033,"290":-0.00000721237529166056,"291":-0.00022903139808579538,"292":-0.004231618799202875,"293":0.00000838502513459446,"294":-0.0000619385253978072,"295":-0.00003829106001843402,"296":-0.00007180357817585115,"297":0.00004251426494487989,"298":0.00002683945555755337,"299":-0.00006515548809755904}},"b2":{"n":3,"d":1,"w":{"0":-0.034137504295787845,"1":-0.0028080133695135585,"2":0.10082402547217598}}}}}