{"numStates":1,"alpha":0.07078157329448119,"gamma":0.5288963070928696,"epsilon":0.038686797373729376,"cycles":1579,"max":{"cycles":269,"wealth":1.841643316060606,"percentSuccess":0.3868518186898464,"odds":1.2601567443198185,"weights":{"nh":100,"ns":4,"na":3,"net":{"W1":{"n":100,"d":4,"w":{"0":-0.19158559076743756,"1":-0.19176495886283632,"2":0.06415195795163108,"3":0.09641401339023935,"4":-0.0002416554734985895,"5":0.03202491026417067,"6":0.25827062052318595,"7":-0.3912876788990025,"8":-0.2841130168239894,"9":-0.25442515674500815,"10":-0.1810044575573289,"11":0.3782768252293469,"12":0.09467850576137982,"13":0.18487721900683893,"14":0.04728779654321683,"15":-0.4960985136007234,"16":0.20957781508206366,"17":0.026940715363677783,"18":0.004838293108422401,"19":0.4046527933463021,"20":-0.0857696551731804,"21":0.021213976299629803,"22":-0.4678658478211978,"23":0.2510832738364465,"24":0.23148678355634209,"25":0.09372079483772405,"26":-0.12550122220231114,"27":0.3701416492496171,"28":0.034786271100445285,"29":0.0008367439411972038,"30":-0.2313898019616254,"31":0.3921652983996878,"32":0.33223370104066546,"33":0.32725259377397126,"34":0.05233592652217935,"35":-0.4312487915272593,"36":0.0008911050133483261,"37":-0.053829162073604914,"38":0.4373806547866071,"39":-0.3217911966450886,"40":-0.23468924842100952,"41":-0.1364878293717705,"42":0.03935939228872246,"43":-0.13060330389315383,"44":-0.06153732242043362,"45":-0.11586743424536813,"46":0.05248814836767389,"47":0.2121533845516293,"48":0.020716613656253845,"49":-0.08740621259118697,"50":-0.06566741241676839,"51":0.43754189702807544,"52":0.007031599084987422,"53":-0.03932189478714125,"54":-0.20634747366727413,"55":0.4219662360718709,"56":0.17455109064193192,"57":0.031125301269254158,"58":-0.005462900112603405,"59":0.2715225037989541,"60":2.2330057665062926,"61":0.15448898952149412,"62":-0.7965278456485789,"63":4.669716656432091,"64":0.19518531073363365,"65":0.06160219281306072,"66":0.39861620673339204,"67":-0.2633467362218621,"68":-0.3307443930922686,"69":-0.48415198886578537,"70":0.8274053021693565,"71":-0.06287549279617366,"72":0.12458329510462304,"73":0.0794634206568576,"74":-0.005381110283038073,"75":0.043050319744289536,"76":-0.001982683484035947,"77":-0.12549577497118464,"78":0.033436040403170365,"79":0.48316263773192025,"80":0.014432226432967866,"81":-0.1234513867338142,"82":0.03619208298133317,"83":0.44632632595386984,"84":0.48226661446902475,"85":0.24775155760443135,"86":-0.04530630808963538,"87":0.3123605670676079,"88":-0.10800696979482914,"89":-0.08426608594036633,"90":0.3173421598935397,"91":-0.3217088774052475,"92":-0.007449912759761987,"93":0.09354416865366752,"94":-0.5763023869151652,"95":0.33019304053865967,"96":0.002954268685329535,"97":-0.07007856320779389,"98":0.48103317877806623,"99":-0.30173081399609253,"100":-0.043203848423434395,"101":-0.0039440059445316755,"102":-0.31000456684003774,"103":0.32252755167206776,"104":0.02299702948917608,"105":0.1579374675194112,"106":0.005004561263994148,"107":-0.48948866565502436,"108":-0.11836190754666874,"109":0.022187440107435157,"110":-0.51360653846122,"111":0.2546250947665378,"112":0.33791794655191626,"113":0.17339816857664186,"114":-0.0052044896654183555,"115":0.2555030689025678,"116":-0.03878319381241107,"117":0.06650320086463678,"118":-0.46285102568299463,"119":0.2710991780626555,"120":-0.009289220218048299,"121":-0.0677845045069774,"122":0.421249934259572,"123":-0.2987106098875689,"124":-0.17303834436722007,"125":-0.1490766883318593,"126":0.38504133297943477,"127":-0.2775962833161647,"128":-0.16400828765750858,"129":-0.22507104131710537,"130":-0.07869345108957192,"131":0.5066462230512493,"132":-0.5315828892151301,"133":-0.29764949135103336,"134":0.009351693866633141,"135":-0.26662967340211036,"136":0.16489780471013518,"137":0.02608091673772755,"138":-0.014540610821464142,"139":0.26241901474148455,"140":0.1437867874299562,"141":0.08809051883819026,"142":0.32158501101495873,"143":-0.36010821281410715,"144":0.05102581530202274,"145":0.12866497485243555,"146":0.012450487640184757,"147":-0.4060922948733284,"148":0.1885349565690692,"149":0.063987567302737,"150":0.46704140058087007,"151":-0.3382850186461553,"152":0.4314419448719472,"153":0.43104069787674676,"154":-0.5948857820623649,"155":0.15922488207803706,"156":-0.24288559602090148,"157":-0.20589288803523137,"158":0.06819201411295607,"159":0.0930292019252854,"160":0.26034271176143864,"161":0.1379763048223914,"162":-0.45523258113458087,"163":0.6563616413038273,"164":0.0011182106442698628,"165":-0.06503735697060192,"166":0.436684873361117,"167":-0.27672349764014503,"168":0.40496691654664385,"169":0.21236901370189462,"170":-0.04477361902674961,"171":0.28584600540592126,"172":-0.11578103493718876,"173":-0.1726324193928543,"174":-0.03759026241984807,"175":0.36521916814898525,"176":-0.07800791424136999,"177":0.10006644706797652,"178":-0.07026781311864974,"179":-0.4552567671319363,"180":0.321661387145262,"181":0.23941318131539507,"182":-0.3415180531673798,"183":0.27913024472636705,"184":-0.2216624782349447,"185":-0.05018536087216912,"186":0.029879338139510336,"187":-0.3268956069540592,"188":-0.10219618729323089,"189":-0.2267150015766428,"190":0.15752521918491427,"191":0.40562136858914855,"192":-0.05692238042149734,"193":-0.041945853352247965,"194":-0.23044951069907021,"195":0.4105283701085008,"196":0.19645219806220254,"197":0.10486110828488514,"198":0.39959971159291663,"199":-0.3575209719872469,"200":-0.23043841065065207,"201":-0.26507616658796224,"202":-0.1196207670361257,"203":0.5031618053309742,"204":0.07464656351368114,"205":-0.05487828727319985,"206":0.05502247261217586,"207":0.35969202733417743,"208":-0.13049706239047595,"209":0.005540666746510276,"210":-0.4822849291239418,"211":0.3185444025845768,"212":0.10044794643824359,"213":0.017976430982124453,"214":-0.1718563055185422,"215":0.39489170341959184,"216":-0.2282377158090889,"217":-0.21967230217206285,"218":-0.15763838972374578,"219":0.40400615729633954,"220":-0.05725321386924203,"221":-0.19049898500886914,"222":0.03578712359422556,"223":0.4790190430573578,"224":-0.12550748219476873,"225":-0.24109908460465218,"226":0.012188134767549591,"227":0.5031589348774839,"228":-0.038344471784821164,"229":-0.14909806764123407,"230":0.6039147069843263,"231":-0.2549867297071611,"232":0.04256679130351448,"233":0.01582956547115712,"234":-0.01910545953640438,"235":0.13794708485975185,"236":-0.29993490799901995,"237":-0.19139703812636844,"238":-0.33578993130215057,"239":0.3377675066363619,"240":0.2425659607642285,"241":0.1560434357461271,"242":0.3081083755362431,"243":-0.317217928895044,"244":-0.33372767041179546,"245":-0.3913680627699286,"246":0.10411761593905361,"247":0.5327721623479009,"248":-0.2789445965429231,"249":-0.15102814169056603,"250":0.015212413290969506,"251":-0.24343243569549072,"252":-0.04197714188115436,"253":-0.17840093506346055,"254":-0.01674486468610582,"255":0.4893551849268232,"256":0.06466028387353745,"257":-0.032592182174527674,"258":0.48515214124370903,"259":-0.2652641450426119,"260":0.20379808784160353,"261":0.027705149576315653,"262":-0.04883138371881564,"263":0.3835694517570673,"264":-0.06079788147675827,"265":-0.01026504552508514,"266":0.19473791000999086,"267":-0.4080850330889352,"268":-0.2610018204668057,"269":-0.3744563913245812,"270":0.7342743419284941,"271":-0.15810243732422924,"272":-0.3803582682467916,"273":-0.19739930853348,"274":0.13094426695242323,"275":-0.3388826484137261,"276":-0.035646038112032374,"277":0.04692972144125929,"278":0.1589738710751264,"279":-0.4395536966661313,"280":0.12328472091334645,"281":-0.02024319188250464,"282":-0.001305526986465334,"283":0.3938124519011181,"284":-0.14667969419589671,"285":-0.0003125424432366633,"286":-0.012111618762789371,"287":-0.2779948507218573,"288":-0.024204675843739285,"289":0.01903995645981124,"290":-0.38575252377069463,"291":0.30887284747395044,"292":-0.019795961727607343,"293":0.10738581520177476,"294":-0.5775864730588739,"295":0.263244828935332,"296":-0.5356754254815534,"297":-0.3582120904096351,"298":-0.21130263878273967,"299":0.2557870161502154,"300":0.2295144515642666,"301":0.267935870694758,"302":0.15036964811206677,"303":-0.4906089471695819,"304":-0.16795932813622896,"305":-0.03436461029065513,"306":-0.4872476785364447,"307":0.33832241435077154,"308":0.10619488423598458,"309":0.03378782502363324,"310":0.3900972850512111,"311":-0.32656567647697066,"312":-6.3233686904254975,"313":-4.459023553336558,"314":0.5233401246591561,"315":-0.5146035134064477,"316":0.06046477886629969,"317":0.011464690168328953,"318":-0.22864368577570013,"319":0.34640270231419695,"320":0.03904558699764818,"321":0.11596868066879874,"322":-0.54185249175459,"323":0.23648753957309648,"324":0.23330119831612886,"325":0.052921052716478414,"326":-0.010299609128833343,"327":0.38343907741865935,"328":-0.21529451245384934,"329":-0.02024774790448671,"330":-0.01141784481364036,"331":-0.33607324804460004,"332":-0.1253070931343783,"333":-0.2045091505317299,"334":-0.0612412430962396,"335":0.48038966721428006,"336":0.09381805615337628,"337":-0.06008261915709011,"338":-0.01081769738630632,"339":0.44414674317614294,"340":-0.3073985872479055,"341":-0.17800093192733285,"342":0.20175794974379108,"343":-0.3371494876895111,"344":0.014063263278090184,"345":0.16279421852375978,"346":0.04686811918879529,"347":-0.49170607666750366,"348":0.06792859658043607,"349":-0.09343159951439921,"350":0.08704722539010658,"351":0.33939491909599967,"352":0.02850022156489078,"353":-0.07679097724738196,"354":-0.05258701564512298,"355":0.42329716600177764,"356":-0.04584080173349626,"357":-0.08698614026381261,"358":0.019372464450821185,"359":0.15407808476692542,"360":0.3794996656980244,"361":0.189365701465209,"362":-0.1056581100837085,"363":0.3356741999113604,"364":0.13907708305204047,"365":0.05134915805996736,"366":0.3885852299996411,"367":-0.3155574372981101,"368":-0.2402111393084312,"369":-0.11462902432973644,"370":0.10923564591849133,"371":-0.36078397774113735,"372":-0.09608837348832802,"373":-0.22209406639365592,"374":0.6633873900867948,"375":-0.24589819549300665,"376":-0.4898492507130104,"377":-0.36023702207342295,"378":-0.2203261992433083,"379":0.3890556929245741,"380":-0.6275739702843505,"381":-0.44686266858262264,"382":-0.16494877375918449,"383":0.2800258056583393,"384":-0.3959830618194531,"385":-0.3290475932800278,"386":0.023737463154665177,"387":0.12616995168783984,"388":-0.05604339516467638,"389":-0.10452219068903403,"390":0.4396648211183406,"391":-0.30729350996313015,"392":0.3054362430850995,"393":0.1749652488538457,"394":-0.20869963610197786,"395":0.33130639686127916,"396":-0.3217619059948003,"397":-0.10563544963051366,"398":-0.01924523714987411,"399":-0.3743095175904352}},"b1":{"n":100,"d":1,"w":{"0":-0.004101178194009154,"1":-0.1474703794990535,"2":0.11442656547037758,"3":-0.11248102403193089,"4":0.0876342801912423,"5":0.16413372871467424,"6":0.11311403094741238,"7":0.142386742435158,"8":-0.08980467061244474,"9":-0.1744355627047202,"10":-0.040193805417101054,"11":0.02485710637426952,"12":0.10905374086685474,"13":0.14189015701206228,"14":0.059645945669854816,"15":1.0788242010514417,"16":-0.1468075993783981,"17":-0.22333838632652006,"18":0.012999654419834276,"19":0.09218646401751328,"20":0.08292735236500781,"21":0.07678473047079143,"22":-0.14939423082685377,"23":0.20353373544246867,"24":-0.17975336005277143,"25":0.1445660156986999,"26":-0.10249164301085541,"27":0.17281260499108442,"28":0.05672442598575596,"29":0.1693559870135421,"30":-0.1669187308603028,"31":-0.15678014596034642,"32":0.11992559520254485,"33":-0.0562180199254773,"34":0.05988648423540001,"35":-0.15077391518376074,"36":-0.08470765098338891,"37":-0.17559876024178053,"38":0.17985154250407473,"39":-0.005624848020943472,"40":0.2494796288263208,"41":-0.16568271742449792,"42":0.07228105437054631,"43":0.07928892780350738,"44":-0.07825902732135685,"45":0.14514436231133557,"46":-0.07870381199232192,"47":0.03245287574456188,"48":0.14388106358678743,"49":-0.16499382041618402,"50":0.12663119168882664,"51":0.06070563080427651,"52":0.17836002298565046,"53":0.12933690630530167,"54":0.11567318018011388,"55":0.0866311392546921,"56":0.09490828133182319,"57":-0.19740897535026725,"58":0.033857133743636046,"59":0.14305879346483455,"60":-0.1346875801696493,"61":0.0635554293605799,"62":-0.05725602589643218,"63":0.10439881520144106,"64":-0.17124589049299221,"65":0.09628788236160436,"66":-0.13753148595080417,"67":-0.21277317829069847,"68":-0.10571472193265909,"69":-0.134584251543356,"70":0.08506573709264115,"71":-0.05573582206248894,"72":0.1596488471719158,"73":0.1917493688121072,"74":0.10331684211839337,"75":-0.13162316683538328,"76":0.18090751129078733,"77":-0.16104939915820804,"78":-4.568991905460965,"79":0.13206430751215148,"80":0.18162156408905436,"81":0.08685572763619068,"82":-0.06976178425199248,"83":0.11083090812349453,"84":0.09831026339917259,"85":-0.12394844446479018,"86":-0.11436009573544598,"87":0.0462371367746806,"88":0.10265792022143275,"89":0.022938845105249486,"90":0.09888934321779697,"91":-0.1571055123437498,"92":-0.10706645822735229,"93":-0.20900179734523067,"94":0.12679115538042365,"95":0.1035891288203341,"96":0.014619382380530179,"97":-0.17376090740120131,"98":0.12440362640992052,"99":-0.07763803488610763}},"W2":{"n":3,"d":100,"w":{"0":-0.018768265877772278,"1":-0.13348250050736807,"2":0.05002160760562771,"3":-0.1615997902168316,"4":0.21170686105411612,"5":0.04766295538076964,"6":0.19210434407645902,"7":0.14485768151329315,"8":-0.0628516431708065,"9":-0.0976586512561379,"10":-0.11793719201833841,"11":0.06749788031616391,"12":0.17026565765249957,"13":0.15022609834404838,"14":0.1556737459031387,"15":-0.8579752974014413,"16":-0.024350683985637077,"17":-0.05534834381534722,"18":0.05573453425883216,"19":0.18976409446700168,"20":0.18038947494519444,"21":0.23275173314009287,"22":-0.13121950523002168,"23":0.09272266065962718,"24":-0.08768811949026271,"25":0.09410740981589623,"26":-0.18231650668185267,"27":0.03899561359087263,"28":0.1904336219549822,"29":0.06865720288308155,"30":-0.09275069943213975,"31":-0.12553770681193024,"32":0.1431871278174817,"33":-0.2329326732269706,"34":0.1488931461941335,"35":-0.0795967106941344,"36":-0.14294622957559366,"37":-0.0538021698073973,"38":0.11883537911046939,"39":-0.03432185042590501,"40":0.23946798338322384,"41":-0.08111327747490903,"42":0.2101936090042314,"43":0.10484623642892058,"44":-0.20354533800772592,"45":0.159862720846789,"46":-0.18480077572887144,"47":0.13891848868511433,"48":0.12855233708142805,"49":-0.06066678886165975,"50":0.11909722771760002,"51":0.16672161469563118,"52":0.06212716023113975,"53":0.16646472742614926,"54":0.07878165357772049,"55":0.17200655104230145,"56":0.1590682700781398,"57":-0.07487837282939848,"58":0.067104045213559,"59":0.02442982960473042,"60":-0.03396490972010764,"61":0.1121493320546931,"62":-0.17190345590693282,"63":0.17570785646254802,"64":-0.05803740319819217,"65":0.19784778126853955,"66":-0.15984455222554225,"67":-0.07899450465155125,"68":-0.211418566761349,"69":-0.16717462044879547,"70":0.18698910060589075,"71":-0.15183993187312303,"72":0.0894974117267576,"73":0.06558056445677123,"74":-0.0697938649396096,"75":-0.11215177826593943,"76":0.05928036274261905,"77":-0.07423419859702021,"78":2.094285354445886,"79":0.13485713786558365,"80":0.07079406513544179,"81":0.20851704986472652,"82":-0.19013743212127182,"83":0.1453797259858241,"84":0.1961434700136744,"85":-0.18921259559387402,"86":-0.18141625238621814,"87":0.15881088964218948,"88":0.16842697348205424,"89":0.04706996854727575,"90":0.21327528944061472,"91":-0.060970979496645365,"92":-0.19282838939086885,"93":-0.08120696554569828,"94":-0.006150975657351765,"95":-0.08173041631297112,"96":-0.06860509872648048,"97":-0.10605425293206992,"98":0.1862993316537926,"99":-0.22754464594162863,"100":0.030388076241254013,"101":0.02456446216485891,"102":0.00923200365465044,"103":-0.02318337418247701,"104":-0.016460815018521587,"105":-0.06661575300046714,"106":-0.03960485879879801,"107":-0.02543697290561762,"108":-0.03730060581422501,"109":0.06186705178160069,"110":0.024780455293685746,"111":0.023932002184280994,"112":0.0048855797519247995,"113":-0.016718745821269306,"114":-0.008616769923484617,"115":0.0012017483935113388,"116":0.04762216897170022,"117":0.18976004368943958,"118":-0.008496275822715038,"119":0.02165116572629939,"120":0.020992482029572712,"121":-0.07908121067340787,"122":0.04999224915381224,"123":-0.09267610832753796,"124":0.07167377008225481,"125":-0.03405221333513601,"126":-0.021324591427387102,"127":-0.07660641360998953,"128":-0.040896422592938034,"129":-0.06798251439366822,"130":0.06064415597330302,"131":0.07057258061843663,"132":0.02545934697298432,"133":0.08428403222597868,"134":-0.008225563506706028,"135":0.027418141605177672,"136":-0.02020731746577028,"137":0.05890129965609396,"138":-0.15375342201141692,"139":0.03437645489851536,"140":-0.09723672787877476,"141":0.06342832939532102,"142":-0.061379790487946714,"143":0.021901261712450746,"144":-0.016599058842885574,"145":-0.0890064507377448,"146":0.020521172118566314,"147":0.05211663973119758,"148":-0.016309286942071576,"149":0.04139436741838531,"150":0.02403547946463251,"151":0.013851714892740386,"152":-0.06648976878414613,"153":-0.02430714173599661,"154":0.011178717173435453,"155":0.031721948593212645,"156":0.03690138276295704,"157":0.10442099418487166,"158":-0.0003024659366964558,"159":-0.02439621950248615,"160":0.02220014045599154,"161":0.06774391696863108,"162":0.03158960603795207,"163":0.022987916965664257,"164":0.07034466231572246,"165":-0.021102672563452583,"166":0.02330847782655356,"167":0.15849877628491055,"168":0.07021231569249738,"169":0.011922184410487436,"170":-0.0018511149782363308,"171":0.0012745448643023498,"172":-0.04961673633601659,"173":-0.09515165198531501,"174":0.02402781794823994,"175":-0.018938942992348537,"176":-0.06481177847649662,"177":0.0450716413909563,"178":-1.1744116662283215,"179":-0.027569274413187204,"180":-0.0891561522103597,"181":-0.022747837172496684,"182":0.012304416141102293,"183":0.02415618687808334,"184":0.0019883672570047656,"185":0.06594110113364392,"186":-0.01566786303566512,"187":0.021898515301497293,"188":0.005236001296815505,"189":0.015042175935428802,"190":-0.06594464156382177,"191":0.04400210589320164,"192":0.04032686964001745,"193":0.12451146914214965,"194":0.0164947180117052,"195":0.05052188288979554,"196":0.04929210984018951,"197":0.06845359815523576,"198":-0.06590196203565062,"199":0.036290144252537106,"200":-0.00334900631526086,"201":-0.012302029395380368,"202":0.0036636556715230395,"203":-0.011345686497910021,"204":0.007372488494751457,"205":0.00375810109127597,"206":0.008070915498919761,"207":0.01260171160485167,"208":-0.004321148972426935,"209":-0.008020590430436493,"210":-0.005095570821111479,"211":0.0004769661901877791,"212":0.010688884177427457,"213":0.012960679546662262,"214":0.005255442082100075,"215":-0.0895512206751364,"216":0.0005419531378962922,"217":-0.009890416534378834,"218":0.002341439045070445,"219":0.00951275418446602,"220":0.007955929746462804,"221":-0.0031343710798786453,"222":-0.012189753390244017,"223":-0.0014256494388274412,"224":-0.006111104043032912,"225":0.010497680233750018,"226":-0.010674906434470277,"227":-0.0011590161793362628,"228":0.002998877599029984,"229":0.006435269638415841,"230":-0.009615651521298967,"231":-0.012008137156951489,"232":0.011149907299435024,"233":0.005121117414737863,"234":0.005567468827464616,"235":-0.0065301685737862245,"236":-0.007291238007915777,"237":0.005174353668016118,"238":0.00644658328590679,"239":-0.003883251453165519,"240":-0.043533928181098865,"241":-0.009116201960935391,"242":0.0003143457000570701,"243":0.0061678751834682456,"244":-0.008173345308937045,"245":0.008202073978067355,"246":-0.005942012525061592,"247":0.0005051210104168073,"248":0.011735843144172992,"249":0.0011323867265913006,"250":0.009540157046549466,"251":0.005224395040000542,"252":-0.0009929403751554123,"253":0.011621206076418257,"254":0.006868944908139715,"255":0.008259631276832385,"256":0.009120521913163673,"257":-0.0020107940693889943,"258":0.0032774787097974273,"259":-0.0053450782009340095,"260":-0.0008849266098616156,"261":0.004067129277936481,"262":-0.004451738267915717,"263":0.010767799926127156,"264":-0.0036750684064727123,"265":0.007765584988898211,"266":-0.012547281566272979,"267":-0.005916702465775543,"268":-0.0028497810805864433,"269":-0.012996897655205394,"270":0.00746189344843845,"271":-0.005308353769227776,"272":0.009498707007983161,"273":0.0009571173933064597,"274":-0.015937936744379134,"275":-0.009040054715056247,"276":-0.005026120754488285,"277":-0.005688138303667609,"278":-0.0807387015781149,"279":0.01176592857490223,"280":0.006506097379995495,"281":0.006606221898830804,"282":-0.0056588215674481974,"283":0.010372874654466476,"284":0.00984851382222817,"285":-0.006854394719000814,"286":-0.012392110628675661,"287":0.00393538572140008,"288":0.009564154912746583,"289":0.0008361873636194649,"290":0.002391580533699573,"291":-0.003978820985263528,"292":-0.007027259051215243,"293":-0.0015081762389114353,"294":-0.01243640057907518,"295":-0.01766438872326721,"296":-0.004050893674940612,"297":-0.00964177574064355,"298":0.007205673497425479,"299":-0.004528219629705786}},"b2":{"n":3,"d":1,"w":{"0":1.9031851387416385,"1":-0.6465166456268775,"2":0.08924450986891033}}}}},"weights":{"nh":100,"ns":4,"na":3,"net":{"W1":{"n":100,"d":4,"w":{"0":-0.0943839246677276,"1":-0.20970646412005906,"2":0.08005551895694467,"3":0.3314354772771673,"4":-0.016882444257050332,"5":0.016705064360094286,"6":0.23997371477315657,"7":-0.3368766761101355,"8":-0.1328709905880608,"9":-0.23907329216117906,"10":-0.09787861393603764,"11":0.535276850741959,"12":0.18857869642455954,"13":0.28923266429753386,"14":0.06924133974530336,"15":-0.6450094750309587,"16":0.0034719680021905457,"17":-0.13142380025652012,"18":-0.03432249311992851,"19":0.5046465735598604,"20":0.08520096100319004,"21":0.19990453819648443,"22":-0.33614169022884205,"23":-0.11054169670025361,"24":0.09103890391952278,"25":0.008186174139342351,"26":-0.15163718866079,"27":0.35687499699785186,"28":0.019870768596575612,"29":-0.0011712067096633098,"30":-0.2259434085244261,"31":0.34144693637241186,"32":0.2541948620425053,"33":0.3799124269551192,"34":0.01728535746487478,"35":-0.7078593748410307,"36":-0.11726628617492742,"37":-0.1913284501564219,"38":0.3845415557060285,"39":-0.05378129278814339,"40":-0.1731713192374325,"41":-0.0783562316805085,"42":0.12604912518189157,"43":-0.2483549648194163,"44":-0.04649219051680336,"45":-0.18699203933210534,"46":0.007962998445009301,"47":0.4927297294575742,"48":-0.08647122480325026,"49":-0.1848133987591254,"50":-0.09178704357249794,"51":0.5371274581364808,"52":-0.020423074899262195,"53":-0.059909767185666034,"54":-0.20008895439830618,"55":0.40484604819061304,"56":0.05846895614190247,"57":-0.07888790764167078,"58":-0.06841262573661054,"59":0.4219960434084971,"60":5.330640933542797,"61":1.460790473659663,"62":-1.455449323860638,"63":7.51449014249712,"64":-0.013925775000754264,"65":-0.09330006827442822,"66":0.2418685526724728,"67":-0.03107044617248724,"68":-0.6958563692099272,"69":-0.9126116689026575,"70":0.8136594446077995,"71":0.6105428822251212,"72":0.10177606510824691,"73":0.05470967316851559,"74":-0.08019049844152952,"75":0.13397188703532684,"76":-0.17143356883987237,"77":-0.27452117267056586,"78":-0.017687244292648938,"79":0.6502453945924629,"80":-0.14169778228905985,"81":-0.26864298148934296,"82":-0.01644708124117138,"83":0.6278395600112049,"84":0.2793626354077865,"85":0.06327252589361759,"86":0.016866043461395072,"87":0.3767762006200095,"88":-0.1264353308355254,"89":-0.13838491568495076,"90":0.31217671680250036,"91":-0.1598385065653263,"92":0.16224464806338335,"93":0.3170892679257926,"94":-0.5250170392430784,"95":-0.10271052832186828,"96":-0.13485653018461524,"97":-0.23780655837776746,"98":0.41444544426279367,"99":0.03427878614560796,"100":0.050118754466582136,"101":0.06813819027815778,"102":-0.26494304879594993,"103":0.21807596700491602,"104":0.1681762158280802,"105":0.29006827302176713,"106":0.0456764206072039,"107":-0.6415211359726224,"108":0.07281150294602876,"109":0.22896432082019877,"110":-0.3539177314554198,"111":-0.1799790806406054,"112":0.16906888942405815,"113":0.02950977004830659,"114":-0.04685833199093324,"115":0.3760210427359949,"116":0.10883304977272536,"117":0.2355380049638964,"118":-0.36860069287598335,"119":-0.07366525367677229,"120":-0.12113592548275062,"121":-0.2009848502797777,"122":0.367127919105497,"123":-0.030742410720274112,"124":-0.20686166392064015,"125":-0.24314568373974507,"126":0.38198687427745975,"127":-0.02174134367973163,"128":-0.21450985562909639,"129":-0.3098432436670963,"130":-0.08261297379471948,"131":0.6635195875552765,"132":-0.41089875772584694,"133":-0.12517986074154372,"134":-0.09153358095785866,"135":-0.4021922985661204,"136":0.0619761438919336,"137":-0.07473487626534545,"138":-0.07696179767198107,"139":0.4100020299377396,"140":0.003524147044541802,"141":0.010208242006877326,"142":0.24660006419048547,"143":-0.3029191754164965,"144":0.1272699183099377,"145":0.23007242929166977,"146":0.044605823636764005,"147":-0.5877921506975728,"148":-0.04101646806788895,"149":-0.1084905963496392,"150":0.34217898691230514,"151":-0.11677884855248893,"152":0.6823052077459948,"153":0.6844190475775107,"154":-0.5487612652771331,"155":-0.22084509902296343,"156":-0.14452550817653517,"157":-0.21714787876540123,"158":0.11122385444701968,"159":0.28847605772633206,"160":0.09424747935730379,"161":0.1658303187411722,"162":-0.47348164758960365,"163":0.23286014660141444,"164":-0.12427701481942405,"165":-0.2125085657764603,"166":0.36675686345333147,"167":0.023087242672757947,"168":0.22312144706417217,"169":0.0618837347253791,"170":-0.045581021857321796,"171":0.35579025518488383,"172":-0.11890207744699226,"173":-0.24216245715606408,"174":-0.047637308466708536,"175":0.570701833659728,"176":0.1281687836478798,"177":0.2744971754225213,"178":-0.010160532837220685,"179":-0.6354243939933888,"180":0.2992077325381261,"181":0.2865028075949575,"182":-0.3523864751409065,"183":0.0648837315028734,"184":-0.06662065679932316,"185":0.0735021813045182,"186":0.07715037265006253,"187":-0.4257339049247367,"188":-0.23194996484354916,"189":-0.392652715186085,"190":0.07204146688522396,"191":0.7433708291968708,"192":-0.03390319887868126,"193":-0.03551089388082068,"194":-0.20707893681841952,"195":0.39308484783582603,"196":-0.007898349097249832,"197":-0.02226033776069377,"198":0.289393147297735,"199":-0.2407793156645879,"200":-0.22418412945465274,"201":-0.32431844847392977,"202":-0.0978067427916779,"203":0.6675539482542999,"204":-0.0685252619242249,"205":-0.19733794453519424,"206":-0.006985324057637434,"207":0.5631562392380925,"208":0.07056785119566941,"209":0.1878276263139333,"210":-0.371309470520554,"211":0.022920037850882077,"212":0.024885521054704554,"213":-0.02655065785411583,"214":-0.18602022045197406,"215":0.3751105312136395,"216":-0.13683418809740422,"217":-0.23041222497116323,"218":-0.10506787724694878,"219":0.5523125366274948,"220":-0.19885170275752365,"221":-0.3324409706294453,"222":-0.015869874736404076,"223":0.681843985713925,"224":-0.23828893061262452,"225":-0.3696224048503924,"226":-0.029552643990920606,"227":0.713378575851027,"228":-0.184492700139726,"229":-0.3898850300936237,"230":0.5152509106876684,"231":0.31429748020386533,"232":0.051637186624919576,"233":-0.01491817774255569,"234":-0.07061436850812655,"235":0.2857456080853968,"236":-0.05475297395982518,"237":-0.07989400545945495,"238":-0.18636348628092644,"239":0.31736090243966,"240":0.03258302122640257,"241":0.05941139872469653,"242":0.18573386109187906,"243":-0.2984489299957839,"244":-0.41897505479476316,"245":-0.5362163907107338,"246":0.029895249307678288,"247":0.8919776577370022,"248":-0.1394194272260182,"249":-0.03310467148146309,"250":0.07442206961735996,"251":-0.36221014490985287,"252":-0.1722679703351698,"253":-0.3033011461290308,"254":-0.05324643127828029,"255":0.6444694699068966,"256":-0.10454272417063037,"257":-0.21569638368531965,"258":0.36905502326226236,"259":0.10043296218052113,"260":0.03421467205179926,"261":-0.09763196066670493,"262":-0.08552351884995799,"263":0.4498361690491748,"264":-0.007446745132283959,"265":0.01860715530697646,"266":0.19997044179409976,"267":-0.37550965421336174,"268":-0.44248723516744376,"269":-0.6945656563576259,"270":0.7222228500227732,"271":0.5305682387555395,"272":-0.21545051223577275,"273":-0.08979516525508434,"274":0.12682562563686525,"275":-0.3065777920702894,"276":0.037784571477258534,"277":0.1012490195810682,"278":0.1659511260809942,"279":-0.4501363635538804,"280":-0.037305039417895106,"281":-0.15451885668721455,"282":-0.04823162422105693,"283":0.5201695219474582,"284":-0.03294058209482377,"285":0.11493538325230968,"286":0.052426647969226095,"287":-0.45246177663531734,"288":0.09252934199173739,"289":0.13257775419235737,"290":-0.3280893515192894,"291":0.10901389904812556,"292":0.14416248046752553,"293":0.33891234381965873,"294":-0.46685937754334705,"295":-0.26060618910883365,"296":-0.4651399194253665,"297":-0.22911555860809807,"298":0.02937729450297701,"299":-0.19613276850367814,"300":0.19954402362888296,"301":0.3114351849797901,"302":0.11598601411318898,"303":-0.6392261304085128,"304":0.05568663993289601,"305":0.14915237342994664,"306":-0.37016575298854715,"307":0.07776681686057663,"308":-0.052195287751240764,"309":-0.08782976300427317,"310":0.30682425820046283,"311":-0.16082324187945518,"312":-7.960568896531019,"313":-5.700887892881574,"314":0.11180034619188378,"315":0.12151020593823092,"316":0.05555858779234527,"317":0.015971996235449176,"318":-0.2278208544895772,"319":0.29899727975407864,"320":0.16906374050938192,"321":0.3205288890564088,"322":-0.4444065737594725,"323":-0.25875893181021364,"324":0.03557826599412188,"325":-0.09773619338175511,"326":-0.047366637142068346,"327":0.47199696659360707,"328":-0.040386481561310875,"329":0.12648188187024864,"330":0.04096314457628458,"331":-0.47361428612459233,"332":-0.18669202757447217,"333":-0.29517660048083194,"334":-0.0733967044879511,"335":0.6411107441255217,"336":-0.0771374973440896,"337":-0.19742815719894158,"338":-0.05239318568714771,"339":0.5565992820834935,"340":-0.1928821969826209,"341":-0.12922163608500623,"342":0.21611844199205976,"343":-0.2442246018923249,"344":0.1449321062053438,"345":0.2797724676916089,"346":0.07656548153993491,"347":-0.6125640096863649,"348":-0.0736005416091142,"349":-0.24569134167441628,"350":0.01556101828569837,"351":0.5869315563194016,"352":-0.08034932072071417,"353":-0.17750047953878864,"354":-0.08282211479682794,"355":0.5336652291485078,"356":-0.0036727753848530592,"357":-0.1266304090500207,"358":-0.016155841470437877,"359":0.3829834644122876,"360":0.2044683219996043,"361":0.0678180187429593,"362":-0.10385034383218511,"363":0.32911609869837555,"364":-0.04009081490991371,"365":-0.07677554315982855,"366":0.2887117840782832,"367":-0.15603371462272575,"368":-0.09461565701476375,"369":-0.0223303539877749,"370":0.13738270036329023,"371":-0.35977741671135166,"372":-0.23625753575412003,"373":-0.495729867086552,"374":0.6041726398133769,"375":0.4132498187267385,"376":-0.23326878007004495,"377":-0.29423970166554403,"378":-0.028558817899344238,"379":0.5050367321123796,"380":-8.680741526134206,"381":-6.512289360358682,"382":-0.3078138886525418,"383":2.168623500639609,"384":-0.3666907710055243,"385":-0.32670752508704903,"386":0.17925876312513767,"387":0.05103151886095789,"388":-0.14888119846495051,"389":-0.24058848948953424,"390":0.4025494947930688,"391":-0.007602668345027772,"392":0.19735382247752264,"393":0.13181209370674576,"394":-0.22424971558717635,"395":0.2348901561378507,"396":-0.0859726524717483,"397":0.08174224749201534,"398":-0.003133684043685549,"399":-0.47532560022167153}},"b1":{"n":100,"d":1,"w":{"0":0.026946573834499107,"1":-0.09293505638364338,"2":0.09160101700071957,"3":-0.10211845804951114,"4":0.07513012701452833,"5":0.05311321376946758,"6":0.0780655223990312,"7":0.09107406202661188,"8":-0.0999406778985994,"9":-0.0839453076750448,"10":-0.05754935354606151,"11":0.06460310926431309,"12":0.09145483136295796,"13":0.09458602303868141,"14":0.06999599941227207,"15":1.5478496097523375,"16":-0.052644840734517105,"17":-0.09946039844912531,"18":0.03378603990681665,"19":0.09292679721953863,"20":0.08925154346817396,"21":0.04164083681534138,"22":-0.08367192310376184,"23":0.0914398483261451,"24":-0.07851327843139685,"25":0.08206271880066583,"26":-0.09691775829829145,"27":0.047902636484212634,"28":0.058171870104591315,"29":0.06467829285454424,"30":-0.07770012564991316,"31":-0.07951670657430494,"32":0.10725880699122997,"33":-0.02165415399099953,"34":0.07001379930182769,"35":-0.08954407562928322,"36":-0.08923635012813985,"37":-0.08345741542400359,"38":0.08337787788794464,"39":0.014911979224139492,"40":0.1244818376538984,"41":-0.07060705436512335,"42":0.05399346580947104,"43":0.0870192429460382,"44":-0.08496375755872157,"45":0.07904973446129376,"46":-0.07224133906143465,"47":0.08762437744236728,"48":0.09463366776100536,"49":-0.08938413465738558,"50":0.1105919441393878,"51":0.07813741851151103,"52":0.0774310305269902,"53":0.08771895480793136,"54":0.09576392222101283,"55":0.0966052991794129,"56":0.10360667416626125,"57":-0.06366257478195655,"58":0.052184179523028056,"59":0.07910568447683589,"60":-0.07653897032382004,"61":0.11618915802750712,"62":-0.06265189010473372,"63":0.09867638183533241,"64":-0.06090764332458107,"65":0.07752704352428748,"66":-0.09073618825462303,"67":-0.08395842715809235,"68":-0.06469847859638679,"69":-0.09406265888500728,"70":0.08034128227997721,"71":-0.07104993800515975,"72":0.07990901859851947,"73":0.06053032809214732,"74":-0.022295712783392187,"75":-0.10999491939591664,"76":0.08401862716282403,"77":-0.08244081328421687,"78":-4.962312364042942,"79":0.08541860466354949,"80":0.05600693055087036,"81":0.07300533226762,"82":-0.07156331997767389,"83":0.10223240024865145,"84":0.08633650891501757,"85":-0.07532506557726071,"86":-0.09871082529898056,"87":0.07657299856222846,"88":0.08923003357532865,"89":0.05402506634809807,"90":0.06306150520019624,"91":-0.07821514420008473,"92":-0.07572934054497021,"93":-0.07031828644687123,"94":0.07224409131948101,"95":-0.876764896358091,"96":-0.028826504910833467,"97":-0.08182756771441221,"98":0.07565379572608695,"99":-0.06249005351834997}},"W2":{"n":3,"d":100,"w":{"0":0.07369318219521254,"1":-0.11436843056368677,"2":0.13428316503662951,"3":-0.15349382744980095,"4":0.14598843801266734,"5":0.003658533483276803,"6":0.12731939158728192,"7":0.11580466184232152,"8":-0.15573322037011178,"9":-0.06156930929994722,"10":-0.1106794079865873,"11":0.13226915788172788,"12":0.14290143902901548,"13":0.12466908868997367,"14":0.13458851334406788,"15":-0.8199556805654247,"16":-0.026337621027631576,"17":-0.019008947465395304,"18":0.0641063834994746,"19":0.1552380449255046,"20":0.15367145892717235,"21":0.15360455288309482,"22":-0.08880679718076288,"23":0.03369859470948675,"24":-0.04115688452735591,"25":0.08912887782213057,"26":-0.15433325098997053,"27":-0.018271144007294775,"28":0.13973613191486,"29":0.022148224316524117,"30":-0.054755458461205914,"31":-0.0684108397271798,"32":0.15489926040313587,"33":-0.17622563268956865,"34":0.1323357405395863,"35":-0.10201143303901597,"36":-0.14727957311752177,"37":-0.06275952447349338,"38":0.09368590795963905,"39":0.05003274394616201,"40":0.11390927944252108,"41":-0.03943155128623041,"42":0.14256341428480956,"43":0.14370229269211068,"44":-0.15631852726061798,"45":0.09444582166092202,"46":-0.13722755513908838,"47":0.16386398366881913,"48":0.12031683328390423,"49":-0.088846435969618,"50":0.1550258581658899,"51":0.14841798248445354,"52":0.04346678862729139,"53":0.12333859163147755,"54":0.13904646911353838,"55":0.15813624935537432,"56":0.16056765195355213,"57":0.02556813769185074,"58":0.09754005680810005,"59":0.09286435992500934,"60":-0.09152720223469177,"61":0.1741030300876681,"62":-0.13307445612710395,"63":0.1545693173556701,"64":-0.012450510930002472,"65":0.13876534665193707,"66":-0.12171386159619471,"67":0.019995099999356475,"68":-0.13231853671569105,"69":-0.1319102044738639,"70":0.14427424970409186,"71":-0.13752955931655234,"72":0.06913470369908016,"73":-0.020691170390085174,"74":-0.13785815224099715,"75":-0.1522024909209323,"76":0.05623491223822931,"77":-0.07534995045646925,"78":2.3183388863044545,"79":0.1098657529974828,"80":-0.01729597321991756,"81":0.14325670103568913,"82":-0.14349327788756033,"83":0.15276832105205962,"84":0.1473917492265611,"85":-0.1173106501762391,"86":-0.151700233401135,"87":0.15189004644003123,"88":0.14261771323738906,"89":0.11093360630124187,"90":0.13532663748529677,"91":-0.07064794337640586,"92":-0.12831306493102926,"93":0.03800892572418696,"94":0.10391821062552464,"95":-0.6919405154593075,"96":-0.06628647499157654,"97":-0.05562806837458365,"98":0.11587818167340432,"99":-0.14970452865527567,"100":0.028655302196775624,"101":-0.0005430361648582837,"102":0.04451325595986673,"103":-0.05761218751132867,"104":0.0003121510620784453,"105":-0.019161939614594586,"106":-0.023308838855718408,"107":-0.002576333546546638,"108":-0.07722154491915997,"109":0.028785735606475387,"110":0.04764230495074934,"111":0.015179783237697959,"112":0.02827912003766018,"113":0.009433675897690308,"114":-0.013262585965537262,"115":-0.030770738335516308,"116":0.0011195135450343778,"117":0.19555947412997496,"118":-0.028102896070972307,"119":0.0494033389547507,"120":0.04284877166310406,"121":-0.0826990224102601,"122":0.031166700927541854,"123":-0.04284522639780894,"124":0.03353378539192258,"125":-0.01112591861398409,"126":-0.052216898203364816,"127":-0.016723244678172263,"128":-0.05009682870804707,"129":-0.028058904478329674,"130":0.03045983647189337,"131":0.05229937828442307,"132":0.06554398583019694,"133":0.12338678369720095,"134":-0.013632746264017729,"135":-0.005406891103723218,"136":-0.03810656959956631,"137":0.00744205654824914,"138":-0.1903805556276502,"139":0.03994098223962712,"140":-0.025508825263737912,"141":0.030547434396097094,"142":-0.06536889592159609,"143":0.03825768233055939,"144":-0.03879007764600753,"145":-0.07999995184639401,"146":0.015224532654293136,"147":0.06784853874286315,"148":0.010214997013438342,"149":-0.0030341827659579814,"150":0.06976115815680443,"151":0.020157709971232778,"152":-0.018128805322541706,"153":-0.0037413305337223356,"154":0.044315946489690373,"155":0.06079717532579786,"156":0.07326976654764633,"157":0.047818270482729616,"158":-0.014697691587745082,"159":0.020836396297868626,"160":-0.014428535262561172,"161":0.12240098557758722,"162":0.04171349790753897,"163":0.054889874438856644,"164":0.024041450826778717,"165":-0.0055665209661400926,"166":0.00022218820789317303,"167":0.12211288785536706,"168":0.06011501544475034,"169":-0.014804961975940481,"170":0.012237307438819497,"171":0.005450650756251235,"172":-0.021027801182274784,"173":-0.037125908793948066,"174":0.13559365197575307,"175":-0.06472579325908821,"176":-0.01274825872694203,"177":0.010179347924516404,"178":-0.09699075950716318,"179":-0.010709704609207922,"180":-0.04092232178510331,"181":-0.008809842340549101,"182":0.007091559651041186,"183":0.05817562478233996,"184":0.024943296887952195,"185":0.05218033936708417,"186":-0.048519289104052316,"187":0.024625512851482827,"188":0.02575214528294381,"189":0.003710655274965238,"190":-0.057303398148856294,"191":0.006970044410698662,"192":0.02660447267829571,"193":0.06470095160071775,"194":0.06920232423229769,"195":-0.09315404262283376,"196":0.10614211705411467,"197":0.038583666431901725,"198":-0.0526983557408112,"199":0.02505756046897546,"200":0.0003805905687206069,"201":0.003550661706909317,"202":-0.0006706470233503609,"203":-0.00014444048525035205,"204":0.004434603648421498,"205":-0.00112242349067513,"206":0.0022752119031591886,"207":-0.0031634064860421303,"208":-0.002079338346533742,"209":0.0043537507540588605,"210":-0.005532677526327349,"211":0.003302034096950379,"212":0.00003805495499736221,"213":-0.0030269373551745616,"214":0.0046549222803719805,"215":-0.00862482895858217,"216":0.0022944798591440115,"217":-0.014324387116037163,"218":0.0023442676092993004,"219":0.0013740080650586628,"220":0.0019101549283498816,"221":0.013511801464508368,"222":0.0031943911405982895,"223":-0.0032331281204755567,"224":0.0031975836960393463,"225":-0.0035287595679037525,"226":-0.0010186532748087877,"227":-0.0005404995591081692,"228":0.00930201526725543,"229":-0.0019951940834620086,"230":0.003551810514353966,"231":0.0026790883861538125,"232":-0.0000030797709122981955,"233":-0.00869401523080867,"234":0.004401597770227973,"235":0.004082502315180468,"236":-0.0008769661138061652,"237":0.004632691716594621,"238":-0.00570409465023757,"239":-0.000911985658657259,"240":-0.012567209887127041,"241":0.0025668993586743668,"242":0.011121203768090946,"243":0.0010115863002366358,"244":-0.003036706436928789,"245":0.00006962223512960251,"246":-0.004776020660156503,"247":0.0038081494766473156,"248":-0.0038759861846180774,"249":0.004772191765752135,"250":-0.000028172332708274136,"251":0.0032538939897128407,"252":-0.0038977167970103296,"253":-0.001361734426288033,"254":-0.0009706025038470359,"255":0.0018950869219690667,"256":0.002014806215127121,"257":-0.003673905754451598,"258":0.0024173112741784483,"259":-0.002870843586818665,"260":0.002569636783003437,"261":0.008764419609393038,"262":-0.007078438083011333,"263":0.0009963412767596813,"264":0.0013326382781616137,"265":0.0034409097680181467,"266":0.0025422455903897604,"267":-0.016013023439864896,"268":-0.007951889960913313,"269":0.0019657239225327346,"270":0.0026444795172295616,"271":-0.00448592981248885,"272":-0.0037271408961787886,"273":0.0017202940334393537,"274":-0.013638341036695345,"275":0.00048772567427350134,"276":-0.00473392473466872,"277":0.004181318387987465,"278":0.0738060614817765,"279":-0.0021112126217275582,"280":0.0017256345570652763,"281":0.004924845555103586,"282":-0.005447701926754569,"283":0.00017255852687736822,"284":0.001723521408522316,"285":-0.0028776225345895235,"286":-0.0005177441979588942,"287":0.004163186036229958,"288":0.00038876201668045613,"289":0.0028088417060719226,"290":0.008543393350716206,"291":0.0037775013791281923,"292":-0.002915498206244458,"293":-0.008852946770332366,"294":-0.0005038958978935514,"295":0.002193435001453417,"296":-0.00564102145903385,"297":0.0038904689787720758,"298":0.002680365537474806,"299":-0.008446555492804132}},"b2":{"n":3,"d":1,"w":{"0":1.6543892082677896,"1":-0.29275632319955014,"2":0.07523840792931055}}}}}