{"numStates":1,"sensitivity":10.117488173671813,"alpha":0.033018736110852334,"gamma":0.37974437136340655,"epsilon":0.047583083768733325,"cycles":2455,"max":{"lastUpdatedDate":"2017-10-04T03:48:32.490Z","meetsCriterion":false,"cycles":1008,"wealth":1.1525091316955014,"percentSuccess":0.24814676801712832,"odds":2.076923076923077,"weights":{"nh":100,"ns":4,"na":3,"net":{"W1":{"n":100,"d":4,"w":{"0":-0.12841468396038858,"1":-0.12359711396007164,"2":-0.386179159714124,"3":0.5679906703957758,"4":-0.13779419330815607,"5":-0.06622512788472898,"6":-0.2720157942081667,"7":0.2791933951691953,"8":0.2762848742047965,"9":0.365173281433232,"10":-0.24580990397549307,"11":-0.34904781080886826,"12":-0.17107270388699947,"13":-0.16544257261149048,"14":-0.024794398423813698,"15":0.2187512598594579,"16":0.24828114913471516,"17":0.281288176940177,"18":-0.2782000173769534,"19":-0.0921746337944102,"20":4.481382441796323,"21":1.71845312170557,"22":3.1069892637401555,"23":0.27178361543090046,"24":0.2877175518062347,"25":0.38628852068732883,"26":-0.40752047525697577,"27":-0.12070742404872847,"28":-0.20405308801370123,"29":-0.23408960869587328,"30":0.3407825048928399,"31":-0.016273792592583245,"32":0.003833376026783586,"33":-0.010176731477090802,"34":0.6094460052757551,"35":-0.5782764111597803,"36":-0.05073330330868563,"37":-0.16286599036029853,"38":0.4172780621270369,"39":-0.06681152767680518,"40":0.214371068570172,"41":0.10540541250405239,"42":-0.6312844963294296,"43":0.7021256361892176,"44":-0.04895954825301037,"45":0.030045010075300436,"46":-0.42142224217299673,"47":0.2098996087629384,"48":0.2623839094562503,"49":0.2500408175587135,"50":-0.6591427554090339,"51":0.46958791108632386,"52":-0.05091916230185257,"53":-0.04314555060768303,"54":-0.2709015955573292,"55":0.31102319684685853,"56":0.02053112890219437,"57":-0.0950987699761974,"58":-0.5685998892527783,"59":1.0088416192213394,"60":0.20953833475201428,"61":0.08266991897218726,"62":-0.6411733620002416,"63":0.8821625914696616,"64":-0.5029700968297788,"65":-0.5457280325831497,"66":0.25457437507445185,"67":0.4450716139402352,"68":0.36242675928585244,"69":0.26327510058864984,"70":-0.9631485742510129,"71":0.8740054135858779,"72":-0.5634678710901514,"73":-0.582673594913425,"74":0.9129402300718451,"75":-0.23052730860523366,"76":0.2947836085516808,"77":0.38897427040896465,"78":-0.6642090641068296,"79":0.09068332813244764,"80":0.019263973842639243,"81":0.03520877236553326,"82":0.06712269889461353,"83":-0.17699422178676016,"84":0.1378773496673489,"85":0.07778661759672086,"86":0.35899469679092266,"87":-0.32711182142880146,"88":-0.11370274838624768,"89":-0.010551572980678648,"90":-0.4701047782795744,"91":0.3425963061944144,"92":-0.22916036739378262,"93":-0.2370892333094622,"94":-0.34281731692046086,"95":0.6071453753294594,"96":0.08852450544619511,"97":0.10755752814479713,"98":-0.6096871894150222,"99":0.44616492005486014,"100":0.2510294797584499,"101":0.13611579570789104,"102":-0.7280019669859626,"103":0.8769495335788494,"104":0.05960523164919411,"105":-0.06410271411273616,"106":-0.46350727473175973,"107":0.8079581868289081,"108":-0.22054350939436534,"109":-0.29611924461178796,"110":0.3528414843273071,"111":0.07847516438658908,"112":0.24198833197281513,"113":0.2406106317317403,"114":0.028106584806258102,"115":-0.3185785178427622,"116":0.2698213526294638,"117":0.2183602567498083,"118":0.2518572256117555,"119":-0.3997326691328904,"120":-0.24333649462208365,"121":-0.22606625142511474,"122":-0.18958316926984284,"123":0.4779090770142584,"124":1.2530480299480344,"125":-1.0181584474757082,"126":2.297291030156305,"127":3.5475053835242636,"128":0.10497203998451533,"129":0.054209857766184186,"130":-0.5199041046020637,"131":0.6116711381839668,"132":0.05424829963949585,"133":0.19179560337735188,"134":0.2559881417284023,"135":-0.8061451236141061,"136":-0.005068051617987981,"137":0.15387160312123288,"138":0.3508337788834268,"139":-0.8663628178724612,"140":0.19667374329535137,"141":0.18882214214495086,"142":-0.010775048361075783,"143":-0.16514149606989934,"144":0.007349989584680541,"145":0.0544569785148866,"146":-0.5346803798832158,"147":0.34348488934783844,"148":0.3584072473237899,"149":0.2984820566410742,"150":-0.8609977473629546,"151":0.7631836300523545,"152":0.18861453224160815,"153":0.1641190950326385,"154":-0.03623807773055613,"155":-0.12293343134724084,"156":-0.03074448967548114,"157":0.08801279838803448,"158":0.45056416417876083,"159":-0.8036316041300197,"160":0.4839408051220633,"161":0.574092581433772,"162":-0.820974824770026,"163":0.01829520460158478,"164":-0.07450458769249306,"165":-0.13110712656897253,"166":0.4053766572344016,"167":-0.17626302715702616,"168":-0.025943701402177066,"169":-0.0032153237210377824,"170":-0.14669532105888813,"171":0.08115022303267776,"172":0.09754796149650515,"173":0.16651091687841255,"174":0.2693686057399176,"175":-0.6412693736910078,"176":-0.30025805253319043,"177":-0.22846038841753888,"178":0.8979757746768124,"179":-0.8457231594526536,"180":0.13169839953261095,"181":0.15566844384408912,"182":0.23946673005897817,"183":-0.5308833980702299,"184":0.0911658021138465,"185":-0.004274140785263519,"186":0.48043299771576636,"187":-0.4284817753706449,"188":0.26457900632692877,"189":0.3848527742188122,"190":-0.6718428264752611,"191":0.041794379825889606,"192":1.5900116750973177,"193":2.1297778485004826,"194":-6.5118992335212775,"195":3.5072042397833147,"196":0.2308851888257459,"197":0.21737300428824874,"198":0.1864072241674007,"199":-0.44194830110554617,"200":0.1149769484201225,"201":0.08801842463932205,"202":0.2795164176115436,"203":-0.37175567016546845,"204":0.018772676465353116,"205":0.021686372046724543,"206":-0.21819112352173148,"207":0.16496864652203277,"208":0.02122659494042757,"209":0.09964091525865523,"210":-0.5495848804455401,"211":0.3028590510943584,"212":0.1253838148976694,"213":0.035541672108537245,"214":-0.6650882939005429,"215":0.8088727037898038,"216":0.2846218358642205,"217":0.3353125295486838,"218":-0.8266383906673671,"219":0.3953903105717853,"220":0.08869348473939156,"221":0.09745139253760679,"222":-0.14992237345005932,"223":-0.013245765310439219,"224":-0.37898182887041787,"225":-0.3523558396807435,"226":0.09597264969149609,"227":0.21997729027599278,"228":-0.08823745981392048,"229":-0.07032333515816439,"230":0.10321527675626307,"231":-0.014326240360329751,"232":-0.021279094309821917,"233":-0.07227630976417569,"234":0.33210270142345016,"235":-0.18430470821126219,"236":-0.12027893821982828,"237":-0.11872981045210206,"238":-0.060085340822067006,"239":0.2237013780164165,"240":0.09804035906084445,"241":0.17002360568007088,"242":-0.6428830816666219,"243":0.2760342302327799,"244":0.0830104015702962,"245":-0.014881155967823896,"246":-0.6436292516264834,"247":0.8873568307578562,"248":0.04143432424792431,"249":0.15134003180147773,"250":0.38410392488589734,"251":-0.807944574822128,"252":0.38176887203879706,"253":0.451634277955724,"254":-0.714235614314324,"255":0.09406843714585852,"256":-0.24201859502776005,"257":-0.3142637332997608,"258":0.24270749235074485,"259":0.2387108182426473,"260":0.017577794388600635,"261":-0.0026854643675826573,"262":0.5087553219473223,"263":-0.4202304555327093,"264":0.010081054247656249,"265":-0.006554828906058513,"266":-0.6422930210278334,"267":0.717612841858815,"268":0.23890344235609573,"269":0.16878716746904182,"270":0.2025020331085207,"271":-0.273835730603843,"272":-0.8609750172424984,"273":-0.7958557013871987,"274":-0.6710019301137597,"275":1.5163805448670467,"276":0.17082660724981805,"277":0.029750254770660137,"278":-0.6482830738239082,"279":0.9704335479555183,"280":-0.2503372933832403,"281":-0.2846776331815031,"282":0.06667630454500206,"283":0.3052970931887044,"284":0.1957279694794579,"285":0.24297233503411841,"286":-0.6431631979971059,"287":0.31816859699016503,"288":-0.23572375988132274,"289":-0.2157891350450813,"290":-0.2802882088600436,"291":0.5471219362791576,"292":0.1754553104198458,"293":0.21688945145548189,"294":-0.22250764695920025,"295":-0.10530523225062703,"296":0.27841544005025337,"297":0.2958291580575762,"298":0.14376282184662087,"299":-0.5721582320512142,"300":-0.23310479779806662,"301":-0.36198628706154606,"302":0.4846165599166167,"303":0.12602323152002204,"304":0.3645784430098465,"305":0.27914554683216625,"306":-0.8947780323280962,"307":0.8898839948977545,"308":-0.028914676558860895,"309":-0.16758506727699582,"310":-0.42337635982636707,"311":0.8966169852777527,"312":-0.15083964316463214,"313":-0.07633353052543798,"314":-0.4753997204611903,"315":0.4346495684982351,"316":0.06702712118668881,"317":0.023749676174821252,"318":0.22354384977898148,"319":-0.16504482055980563,"320":-0.015594957522546918,"321":-0.00716967507533442,"322":-0.4177848197518007,"323":0.459879831663606,"324":3.4041770040279284,"325":3.2990797745554015,"326":1.2740279794325422,"327":-4.593737823939054,"328":0.18884987104858256,"329":0.21321399632551785,"330":0.2855926829910702,"331":-0.6336204162843071,"332":-0.25306618889551574,"333":-0.580420115971976,"334":-0.07955333113720024,"335":1.4143268751600304,"336":-0.2601870402787324,"337":-0.2678751653176489,"338":0.745627288016865,"339":-0.46663639960690784,"340":0.22068330444028922,"341":0.18169651948870238,"342":-0.7775126543032217,"343":0.6851940673600487,"344":0.08531337980334178,"345":-0.005456875388954693,"346":-0.6434859075681878,"347":0.9370248355092379,"348":-0.37976766714178795,"349":-0.3635977207184164,"350":-0.23141629051518942,"351":0.6377908188225347,"352":0.257960451209393,"353":0.2882927752132886,"354":-0.394282611508194,"355":-0.01205483170899116,"356":0.23786626255592547,"357":0.4160257182843044,"358":0.11433857364872459,"359":-0.9481912258505705,"360":0.17935131389901854,"361":0.2745765145831461,"362":-0.5157011591873782,"363":0.04217851651024034,"364":0.13540202646260815,"365":0.29027949696998706,"366":0.34524098158063043,"367":-0.9684197680537451,"368":-0.2590117083988208,"369":-0.17974992389289482,"370":0.7878331863046372,"371":-0.7475810415225966,"372":0.04177441486937032,"373":-0.097422915043095,"374":0.45851062151443894,"375":-0.1558578462742277,"376":-0.2236748591669514,"377":-0.2444635086368467,"378":0.6311103288467942,"379":-0.34159657407808286,"380":0.046772248509196854,"381":0.15152661873655202,"382":0.4221929931593989,"383":-0.888514649843299,"384":0.45759620024181,"385":0.4912762848642895,"386":0.11181316977698026,"387":-0.6817179392086634,"388":-0.08110249757777939,"389":-0.06482379165001093,"390":-0.2575854261092079,"391":0.3049809913964479,"392":0.28200467709484556,"393":0.3586753149870718,"394":-0.3419160714344485,"395":-0.17908857468242947,"396":-0.044036884251951396,"397":0.032019734012893056,"398":-0.14047894971709385,"399":0.03748721216088022}},"b1":{"n":100,"d":1,"w":{"0":0.12192858009521473,"1":0.08119402260744629,"2":-0.03412834611053601,"3":0.0456240380401669,"4":-0.001479389186231038,"5":-2.8771032470785776,"6":0.006942402221685436,"7":-0.024182323947527798,"8":-0.14263036127438572,"9":-0.05975292717400935,"10":0.1317493687948745,"11":0.08729923890720324,"12":0.10605532293144483,"13":0.0752432556478247,"14":0.16788787811362066,"15":0.14794826687024507,"16":0.06813554258641873,"17":0.17411430689136467,"18":-0.06757002854307549,"19":0.06501387644061592,"20":-0.02925538735730721,"21":-0.09848471020719882,"22":0.11254530845535851,"23":0.12814098416490083,"24":0.1209902568856841,"25":0.15458349857819265,"26":0.1349532452296251,"27":-0.013404394416712121,"28":-0.06343860293805983,"29":-0.10288052794263451,"30":0.09848930521680652,"31":-1.3750216484520585,"32":0.12035173363778441,"33":-0.1178011224670642,"34":-0.1300721121213152,"35":-0.03899393651964843,"36":0.11020193628995281,"37":0.14732123844822986,"38":-0.029849903425360563,"39":-0.1358754185418531,"40":0.04932389773302201,"41":-0.06614549412297242,"42":0.03245356137857708,"43":-0.10972259619414085,"44":-0.17059015087156099,"45":-0.09913088845513172,"46":-0.1186619268744272,"47":0.06618178812385682,"48":0.18025327763454604,"49":-0.09408065818489371,"50":-0.08869257593701667,"51":0.04561015530536184,"52":0.10639504511425307,"53":0.1564304306520329,"54":0.121660847616819,"55":0.009440473086820802,"56":0.054159940421990835,"57":-0.005836852170153806,"58":-0.06282402737114404,"59":0.04491018937884641,"60":0.10933257905285394,"61":0.1638211746050562,"62":-0.13387792252096284,"63":0.0590072749479548,"64":0.020038723764085088,"65":-0.11626318201992547,"66":0.15723167788997408,"67":-0.08226186142863098,"68":0.13177619367851506,"69":0.1609983360889273,"70":0.05105351920887124,"71":0.09923122655126036,"72":0.11534709526880814,"73":-0.000989220924227167,"74":-0.1036613937575804,"75":-0.025855053444564905,"76":0.16191753439797604,"77":0.1451565086049235,"78":0.12510388604022585,"79":-0.05632019478446234,"80":0.1056148752572301,"81":-1.2779490610749993,"82":-0.11919193217148535,"83":0.14912426644151971,"84":-0.11967662556625389,"85":0.1502819281397872,"86":0.16671422942715658,"87":0.12686918871278724,"88":0.021916199477404242,"89":-0.1259778439530229,"90":0.05529344074475701,"91":-0.148439085055566,"92":-0.15236133171834074,"93":-0.08555237007018524,"94":-0.095873856225888,"95":-0.1452964811717103,"96":-0.12188039864172648,"97":0.07617942254600842,"98":-0.006076630760888248,"99":0.02797346631264843}},"W2":{"n":3,"d":100,"w":{"0":0.1343424172288928,"1":0.09364504630456903,"2":-0.11509749831429879,"3":0.08265279937129183,"4":-0.07303274546980812,"5":-0.3360433535890702,"6":-0.08491718573250762,"7":0.04065035106678047,"8":-0.11459548661030142,"9":-0.01773028513415164,"10":0.06322856558463592,"11":0.07165788916191951,"12":0.01715628070711712,"13":0.07291281601871334,"14":0.148707067203631,"15":0.0818496239533481,"16":0.19621032397240834,"17":0.060738801545545354,"18":0.09195395992959748,"19":-0.04047283635903682,"20":-0.03133242015756236,"21":-0.1087680666085686,"22":0.10834036950326664,"23":0.1702220057783117,"24":0.06978361074220678,"25":0.07504091731250326,"26":0.1100522437479808,"27":0.05947827475814195,"28":-0.11727991464121104,"29":-0.1515257556938455,"30":0.1454153295319736,"31":-1.110275395808099,"32":0.07568811555294336,"33":-0.1295299133510797,"34":-0.12597253457103166,"35":-0.08339763244629175,"36":0.07899412039174403,"37":0.03517478408610473,"38":-0.07194490892078409,"39":-0.11814787217442779,"40":-0.09944964083148225,"41":-0.02415667280984054,"42":0.02920099946710732,"43":-0.12543216061672893,"44":-0.06958342005559362,"45":-0.12014081474390309,"46":-0.10890343586514376,"47":-0.03610527248015471,"48":-0.48170792828408454,"49":-0.13832938824084046,"50":-0.09938145780994047,"51":0.030309498966254584,"52":0.06800118611750856,"53":0.10520727770048724,"54":0.014001684666606437,"55":-0.01851177470188854,"56":0.14254357049794428,"57":0.017358285247054975,"58":-0.03698418771784468,"59":0.06876224944580683,"60":0.04941500160163442,"61":0.12442450608014116,"62":-0.1353927326096152,"63":-0.0639850717366931,"64":0.09198431631417033,"65":-0.0949479150903777,"66":0.12780268902817754,"67":-0.12253778561002243,"68":0.5027214140441056,"69":0.10484861275822013,"70":0.11403183622566522,"71":0.01967665929886041,"72":0.15748703952780962,"73":-0.05466048879757123,"74":-0.1642520283582302,"75":0.060881097494333694,"76":0.050023858305944156,"77":0.14517588374990453,"78":0.13347016296295897,"79":-0.05703582868763118,"80":0.08829587356381499,"81":1.0935524087346797,"82":-0.15327062471369587,"83":0.24104274635364956,"84":-0.025199861140409518,"85":0.06751228750314635,"86":0.125983564637637,"87":0.21015673836290374,"88":-0.05689620144051607,"89":-0.19349471538144566,"90":-0.01862997412687018,"91":-0.18057232726827288,"92":-0.06500507824971292,"93":-0.06044658247054135,"94":-0.013354544000617013,"95":-0.14633142572410876,"96":-0.2338018381564382,"97":0.08088045708316977,"98":-0.09173152502332241,"99":0.024198123338572616,"100":0.012784131176679264,"101":0.018576879007636476,"102":0.10915827111013833,"103":-0.02935285126470942,"104":0.09140020806546292,"105":1.102217491959261,"106":0.12909101549826127,"107":-0.09065180513753926,"108":-0.06458668690287082,"109":-0.08724281349590943,"110":0.09926583760122738,"111":0.059043009619874125,"112":0.13038571526536274,"113":0.023897807136263185,"114":0.040252521980479496,"115":0.09611078258028162,"116":-0.14344732606840857,"117":0.1802245489885126,"118":-0.2428669051084713,"119":0.16322916571002077,"120":0.0016580683788174786,"121":-0.025573219526180132,"122":0.04726083317625657,"123":-0.017011781888274496,"124":0.09139221058549853,"125":0.11992457272167048,"126":0.037940023829861835,"127":-0.10520334352936117,"128":0.04506761681703283,"129":0.017811433729037,"130":-0.028177966578408063,"131":-0.6224044135113814,"132":0.06936978344482105,"133":0.017293374984634468,"134":-0.00474970579429562,"135":0.03600941159890354,"136":0.07322956878972377,"137":0.17223707073751154,"138":0.03521251854457227,"139":-0.030934566614114492,"140":0.22542133155722813,"141":-0.07724333797247271,"142":0.0209934509876322,"143":0.008797571309816376,"144":-0.15800412265119088,"145":0.008957677650643555,"146":-0.04834859903947134,"147":0.16358697322585214,"148":-1.0044377672368627,"149":0.025012803231622124,"150":-0.013463567465659656,"151":0.032799191814821466,"152":0.08334854419505619,"153":0.08330601635973402,"154":0.16600580688878608,"155":0.04026384552982258,"156":-0.0781541937113541,"157":-0.02746421865448698,"158":-0.05626511362844198,"159":-0.017230854499477432,"160":0.11054582920913629,"161":0.06780716851089172,"162":-0.0072682946710191845,"163":0.1837260380293439,"164":-0.0961270376860252,"165":-0.058590544174284,"166":0.06267673828003949,"167":0.008990093257951505,"168":-0.27828152220991,"169":0.08544630325472018,"170":-0.06512158722913064,"171":0.12641983996374676,"172":-0.01875615175642178,"173":0.07317699637899114,"174":0.05001483140446358,"175":-0.13842784103007427,"176":0.17629779798228182,"177":0.009299548780184148,"178":0.031210369645145657,"179":-0.02591849598334391,"180":0.04445346702111341,"181":-0.44987113992330935,"182":0.018321877046261717,"183":-0.11773355324369594,"184":-0.1438758213187525,"185":0.12795260629092398,"186":0.06884366016634963,"187":-0.060724795654084444,"188":0.10953079027153817,"189":0.08259280011078497,"190":0.12270317791148644,"191":0.02848360528244438,"192":-0.1337505573959871,"193":-0.07441011900487603,"194":-0.12627134992353645,"195":-0.009560134181428469,"196":0.0981277993453143,"197":0.018368737198623204,"198":0.11682046222314643,"199":0.025702827741752934,"200":0.000306113186835538,"201":0.0013403431996061295,"202":-0.0021501268724525946,"203":0.0012628902441895597,"204":-0.007197479628327553,"205":0.014946203587194345,"206":-0.0058344173308846154,"207":0.00346145232002997,"208":-0.007436398612116645,"209":-0.004190897825124466,"210":-0.006282497938179486,"211":0.0043513168344795645,"212":-0.004610673585109831,"213":-0.0014024447301294429,"214":-0.0011937847154710555,"215":-0.007893073114093985,"216":0.01827000369117982,"217":0.0025993692835182968,"218":-0.009399117434893883,"219":0.0073891778297968435,"220":0.005384438485321421,"221":-0.007371123281889114,"222":0.007565975113696649,"223":0.003729147919073015,"224":0.006101131500630781,"225":-0.007360479446609298,"226":-0.0062388379385473255,"227":0.0038558805725264138,"228":-0.002891882864668303,"229":-0.006035670946439742,"230":0.001188445243837746,"231":-0.03614438017230115,"232":-0.006872987904629896,"233":0.004454666774420624,"234":0.0072104413290455015,"235":-0.006178655904296061,"236":0.00772281140394424,"237":-0.0028953686464157536,"238":-0.005989427521972133,"239":0.007822143802058408,"240":0.013869247927206917,"241":-0.001191031710057724,"242":0.00083830016161355,"243":0.0038531259439920176,"244":-0.005632319953638864,"245":0.002233697156591576,"246":-0.004623726366627823,"247":0.01660578856815975,"248":0.0019825493781258172,"249":-0.0026556977920904885,"250":-0.00129793290121328,"251":-0.002455679170543118,"252":0.009712379556168148,"253":-0.001870838697124351,"254":0.0215939314594372,"255":-0.0016158802222909874,"256":0.011267054157809257,"257":0.004601995733284086,"258":-0.00023216879259729088,"259":0.0013025529431454914,"260":0.01337013160405088,"261":0.0015646897894145155,"262":0.002417446513420797,"263":0.008108632426842828,"264":0.0021335689889263815,"265":-0.003320149366075849,"266":0.00625996289371716,"267":-0.006304489766756447,"268":0.03469819367057599,"269":-0.004244693922847835,"270":0.0018847357289820824,"271":0.004823254193971957,"272":0.002132410388445433,"273":-0.002269300157521329,"274":-0.005436231232862812,"275":-0.005069002391389312,"276":-0.0021963963411040736,"277":-0.0002375743234947882,"278":0.009137095044210449,"279":0.0010380912377327496,"280":-0.0028051638815471125,"281":-0.01128562642974292,"282":-0.001999480967213542,"283":0.035331146538855954,"284":-0.007493855593193717,"285":0.006329988072287566,"286":0.0018452829002384129,"287":0.01059312848672905,"288":-0.006275123900132667,"289":-0.008528481870565374,"290":0.005334026620342788,"291":-0.008774729774485809,"292":0.0007039333578991089,"293":-0.009488546701593067,"294":-0.00117132691653747,"295":0.00020019408429070484,"296":-0.015209811825713885,"297":-0.0010997426064808496,"298":-0.00364392518510452,"299":0.00018815285742148556}},"b2":{"n":3,"d":1,"w":{"0":-1.1337953375253942,"1":-0.30611956388314127,"2":-0.0025902357965035313}}}}},"weights":{"nh":100,"ns":4,"na":3,"net":{"W1":{"n":100,"d":4,"w":{"0":-0.1215203106713065,"1":-0.1344777136797938,"2":-0.3983617351179747,"3":0.6256585412346545,"4":-0.07747953261267504,"5":-0.046728579685989875,"6":-0.2500576730869545,"7":0.31766079649394446,"8":0.5044820450170822,"9":0.5876580791719787,"10":-0.2411463445021165,"11":-0.5765712495664905,"12":-0.2207639226511731,"13":-0.2344118902706254,"14":-0.017861165388056374,"15":0.3228604083631727,"16":0.41644704017121675,"17":0.4549266543547266,"18":-0.28398008771456107,"19":-0.28047485893544444,"20":3.871066882342754,"21":-1.4990263107124366,"22":4.499373504688351,"23":7.528021185532909,"24":0.5387496756004998,"25":0.6311554579120672,"26":-0.4064441516367706,"27":-0.367417970760163,"28":-0.37751579257994217,"29":-0.4008097982626728,"30":0.3381822030613207,"31":0.14880239543158102,"32":-0.14447376050947544,"33":-0.10505535783719676,"34":0.5813930807138886,"35":-0.5531475436944787,"36":-0.2629107825239225,"37":-0.3269502326688795,"38":0.37417547727308553,"39":0.053074151638979224,"40":0.41173553215425934,"41":0.2560294198184441,"42":-0.6366518623033448,"43":0.6373801044704855,"44":0.11347080719975114,"45":0.13408659139591644,"46":-0.37471742850922685,"47":0.16921541453182293,"48":0.5388891292878945,"49":0.46859873494922666,"50":-0.6460779048115998,"51":0.33725655085330103,"52":-0.0037514643466647216,"53":-0.019815082310446073,"54":-0.26221603439151475,"55":0.324283308533118,"56":0.03500616520502605,"57":-0.07189163858032586,"58":-0.6173469797505055,"59":1.0159524872459713,"60":0.4033426619340851,"61":0.2264120486099545,"62":-0.6570527514732764,"63":0.8426939674865114,"64":-0.7726785015391755,"65":-0.8285542124129649,"66":0.25609805185974244,"67":0.7710932443061517,"68":0.9818183801566908,"69":0.6416397620653833,"70":-0.9093363287428283,"71":0.8916739982220208,"72":-1.1715475070132855,"73":-1.0648168247570393,"74":0.9117795759228885,"75":0.034233890757176866,"76":0.6452901439933681,"77":0.6900194996751676,"78":-0.6262938462692701,"79":-0.16680410455505418,"80":0.03725317149513152,"81":0.0531013110927787,"82":0.0727313566099098,"83":-0.20032122667192587,"84":0.056287460530360246,"85":0.04470568695682293,"86":0.3318477067679874,"87":-0.36103856635204956,"88":0.026432937877407293,"89":0.06665570893229991,"90":-0.4256292446043882,"91":0.340591955165747,"92":-0.2896673776172831,"93":-0.3036141115428297,"94":-0.38335377511380714,"95":0.7292847470794099,"96":0.29936760259142436,"97":0.25819635533522506,"98":-0.5693588090011853,"99":0.3637540817449732,"100":0.5431005412308689,"101":0.3377122735449785,"102":-0.7254469633529317,"103":0.8370209881036091,"104":0.07236995796206826,"105":-0.04293861972546868,"106":-0.501158769730392,"107":0.8051160507109147,"108":-0.4301792717801519,"109":-0.49613010013040904,"110":0.34636813131963695,"111":0.2762321425728506,"112":0.3234108179982801,"113":0.34313639979005695,"114":0.025671881786098385,"115":-0.46642145918241235,"116":0.283431438707695,"117":0.26982694866157536,"118":0.25189137945759726,"119":-0.5294064040916184,"120":-0.3071460539871082,"121":-0.306545374229362,"122":-0.20426474794543967,"123":0.6105388269067424,"124":0.3934094020816716,"125":-1.8627116964557004,"126":4.200316657792775,"127":2.4937904799128408,"128":0.2220158915054929,"129":0.14604705014573718,"130":-0.5251009872839751,"131":0.5670144551637287,"132":0.18150555818642963,"133":0.27662562565902177,"134":0.31088618422692615,"135":-0.8665077291153829,"136":0.08028757181629793,"137":0.2007182859401762,"138":0.4080619370520742,"139":-0.8966896923481453,"140":0.24803327117734172,"141":0.26465395463497493,"142":-0.023665520485650033,"143":-0.2813793081445169,"144":0.1908185970741862,"145":0.17775341056797628,"146":-0.4879644754361997,"147":0.2846438710143794,"148":0.8483357842444511,"149":0.6254515540422013,"150":-0.841843549884512,"151":0.7158637483941969,"152":0.23737869333897757,"153":0.23571841326571596,"154":-0.0499313032100889,"155":-0.23075106030968762,"156":-0.026947619453630518,"157":0.08050223842559687,"158":0.4901703225202461,"159":-0.8115030808596818,"160":0.9809921584415353,"161":1.006503883397158,"162":-0.7961789217942374,"163":-0.33548088631433964,"164":-0.2443004942352239,"165":-0.2658890908027491,"166":0.37910592684154654,"167":-0.07711677190760892,"168":0.028610882170357683,"169":0.03133213546610335,"170":-0.13357587846367852,"171":0.07167374276867612,"172":0.16989276977246193,"173":0.2258993998049227,"174":0.30314626594068833,"175":-0.7110978714560507,"176":-0.7876782940043814,"177":-0.5369821805085001,"178":0.8476315606928342,"179":-0.8181366108822404,"180":0.180797491194104,"181":0.2079112058113728,"182":0.2581447214372534,"183":-0.6100476629092684,"184":-0.032084790737486685,"185":-0.07486772251086066,"186":0.4485151552374825,"187":-0.4250831765249031,"188":0.6292514994112983,"189":0.692761557261395,"190":-0.6188560664194622,"191":-0.2228155377024032,"192":4.067975458464365,"193":3.166918211862027,"194":-7.455680385877909,"195":6.35096811121186,"196":0.2827130646308282,"197":0.2897391561462465,"198":0.19491394991722957,"199":-0.5675387892490413,"200":0.08520978260542905,"201":0.08628695558547679,"202":0.27141223579602874,"203":-0.4168669034607835,"204":0.08375846034472047,"205":0.0708785830406498,"206":-0.21084697486612552,"207":0.136686574501151,"208":0.23213392769124602,"209":0.2459596619968914,"210":-0.49520550723539863,"211":0.2211338655204181,"212":0.2960061451451865,"213":0.15682656846938686,"214":-0.6621987464074612,"215":0.7724032379552563,"216":0.6943098719140107,"217":0.640393275613405,"218":-0.7608363262381761,"219":0.21183515009578302,"220":0.168978523453275,"221":0.17364721458743845,"222":-0.14696284910625643,"223":-0.08828168795187998,"224":-0.48895118051986475,"225":-0.5018393746882827,"226":0.11435978949888773,"227":0.43959018062100597,"228":-0.13333595611622232,"229":-0.11925026225437707,"230":0.10738085458017657,"231":0.04113413750377146,"232":-0.14718470449772839,"233":-0.16660629530602458,"234":0.31035079001639676,"235":-0.12559519100334338,"236":-0.1540463089558215,"237":-0.16636515108359753,"238":-0.05658955696732205,"239":0.29772522028801923,"240":0.3756888637782877,"241":0.3718561326034777,"242":-0.5739159793013698,"243":0.14315988254224826,"244":0.20245550849983646,"245":0.07246866131674042,"246":-0.6553608593949409,"247":0.8681922113855791,"248":0.10409949674667818,"249":0.18911624005190752,"250":0.4341411231757164,"251":-0.8480045090271295,"252":0.7676617496589185,"253":0.7901099578792002,"254":-0.689918422707905,"255":-0.19387092673062864,"256":-0.4365402099161784,"257":-0.5073510968506275,"258":0.2402634201811096,"259":0.4413111271864266,"260":-0.12121015107053049,"261":-0.09093595664711403,"262":0.47716882558676366,"263":-0.39396709328607044,"264":0.13875202076751586,"265":0.07818991292387567,"266":-0.6316040423106374,"267":0.7013973734192631,"268":0.22015669376449287,"269":0.19651282540568377,"270":0.18241938006555172,"271":-0.37593729614418725,"272":-4.713721276029534,"273":-2.2057683947127855,"274":-5.067216628196048,"275":2.47026165695719,"276":0.3404810294287584,"277":0.15264299093164763,"278":-0.6631078064416622,"279":0.946509534590572,"280":-0.37565954868986307,"281":-0.4239722010360849,"282":0.06772441246971683,"283":0.4789159513393697,"284":0.47795545649357674,"285":0.46469265419051803,"286":-0.6018562514722395,"287":0.16105150403790214,"288":-0.28877193017587793,"289":-0.2823157326350049,"290":-0.3054091177864876,"291":0.668858727790878,"292":0.32108709824201737,"293":0.3602855872173548,"294":-0.2198409250354007,"295":-0.25426385462279466,"296":0.40445929205836645,"297":0.4208208694633712,"298":0.17817925946073312,"299":-0.7368873443563257,"300":-0.5309389145453988,"301":-0.6286333247849593,"302":0.45745349594289775,"303":0.371218332270956,"304":0.9306173880305314,"305":0.6345532324130523,"306":-0.8695078977216946,"307":0.9011987362544599,"308":-0.09914544336068519,"309":-0.20514763103036796,"310":-0.4837333369889651,"311":0.9321173876052531,"312":-0.0556417347598098,"313":-0.0350554343744988,"314":-0.44901580117257406,"315":0.4703702175310671,"316":-0.00420296091498067,"317":-0.014818982188542594,"318":0.20298174720069542,"319":-0.1688355180615108,"320":0.06667862472059033,"321":0.04630302954066404,"322":-0.4094411257307371,"323":0.45052379894656247,"324":7.324777348929532,"325":6.765710525566503,"326":5.172021896947867,"327":-11.191893325332384,"328":0.2662617819455288,"329":0.28636173454873,"330":0.3228546888501457,"331":-0.73925112706097,"332":-0.6603195232550682,"333":-0.9013281021402841,"334":-0.12130274664963123,"335":1.6426070255602934,"336":-0.5962522533731611,"337":-0.5202123652057047,"338":0.7059981100243757,"339":-0.3231072838407165,"340":0.5426592603404046,"341":0.4039729621704312,"342":-0.7391090874407583,"343":0.6049462916943519,"344":0.2059977979867387,"345":0.08336277586383932,"346":-0.658269698033232,"347":0.9193776940580367,"348":-0.536687842577135,"349":-0.5083283158460945,"350":-0.3207062123409808,"351":0.8566101537869489,"352":0.46649317670735413,"353":0.4904713100592537,"354":-0.3933862701463506,"355":-0.21368191748475776,"356":0.5181776515294693,"357":0.6230050169147562,"358":0.19699005609043305,"359":-1.1079152357170043,"360":0.4499939117205463,"361":0.5038940853243171,"362":-0.47842240048434276,"363":-0.15433724831060963,"364":0.31207509475467504,"365":0.4022554907597424,"366":0.4421870166723794,"367":-1.0577472612160972,"368":-0.6015028314889486,"369":-0.4141672024461696,"370":0.7602231248418292,"371":-0.6816236191157523,"372":-0.1662062553236848,"373":-0.2378875850680834,"374":0.39778402945614766,"375":-0.08135688623372876,"376":-0.4947863423937615,"377":-0.4620788942193711,"378":0.6024023149415207,"379":-0.1871587696448225,"380":0.11372314670169559,"381":0.18797095433990638,"382":0.4814805355764905,"383":-0.9259387605336088,"384":0.7031212198973666,"385":0.7060042215743955,"386":0.23020456481036713,"387":-0.9682674646679686,"388":-0.039803603338779275,"389":-0.05079917025905216,"390":-0.24667166620497497,"391":0.33284599715421925,"392":0.510126391228217,"393":0.5849420161128466,"394":-0.34226222333621664,"395":-0.41323764822267905,"396":0.028096150892389045,"397":0.07946644990317776,"398":-0.12235013724778744,"399":0.019178078598610995}},"b1":{"n":100,"d":1,"w":{"0":0.11806251665418357,"1":0.06816434922461273,"2":-0.057552567115618215,"3":0.04798481884543066,"4":-0.018862110900492966,"5":-1.914480359324605,"6":-0.020488413985488122,"7":-0.0034936550641041873,"8":-0.11431516373921874,"9":-0.027290894722883038,"10":0.10264056402507711,"11":0.05844889747316584,"12":0.06791355737240369,"13":0.0638673781280844,"14":0.16316681671557962,"15":0.1199205534650888,"16":0.1038901948994878,"17":0.08369843040394677,"18":0.013560200704436328,"19":0.017072123354662197,"20":-0.02900872090969129,"21":-0.08213882748098472,"22":0.08618799180715514,"23":0.14147929437785312,"24":0.08384123513769295,"25":0.11447526023831392,"26":0.12796577112153587,"27":0.010592135788593813,"28":-0.07057974626444455,"29":-0.10551013526785466,"30":0.10670073277460541,"31":-2.6361595738285843,"32":0.09922003702757143,"33":-0.12939536367645482,"34":-0.1359839866528916,"35":-0.04162943452679653,"36":0.07657615734967306,"37":0.0830306940871411,"38":-0.032420089044148316,"39":-0.1314092997382862,"40":-0.014672271188693534,"41":-0.03940776663337695,"42":0.022988597580155614,"43":-0.11543093231309472,"44":-0.10066294466359618,"45":-0.10179867129342424,"46":-0.09473555681715348,"47":0.013990938069631963,"48":0.47714230927317297,"49":-0.09965790155128695,"50":-0.07974076584277363,"51":0.03412019884330972,"52":0.06868380375645308,"53":0.12779900148702414,"54":0.05890049387398828,"55":-0.00016638829459895396,"56":0.06547319744564103,"57":-0.0007673878188359846,"58":-0.04187884581421432,"59":0.04522295719219887,"60":0.061361502528838124,"61":0.1425830053858802,"62":-0.13877188066009008,"63":0.009894061936674284,"64":0.03993913539554409,"65":-0.08966161507469965,"66":0.1331295531433147,"67":-0.07684419719558809,"68":2.5590147252048236,"69":0.13432669983069123,"70":0.06308606930653195,"71":0.0556141913704719,"72":0.12445262190206195,"73":-0.01668893251531296,"74":-0.12324351349295942,"75":0.011225071093134465,"76":0.08460263789123208,"77":0.15200176394951875,"78":0.10743077927348019,"79":-0.04278873759807248,"80":0.08824536673833808,"81":-2.711226891983946,"82":-0.13033645540613212,"83":0.19979010407139375,"84":-0.06997262749139739,"85":0.1012577097451364,"86":0.14556288087908212,"87":0.16828723639643073,"88":-0.0019842734007230267,"89":-0.16866833292092104,"90":0.01711674600239299,"91":-0.1779862978332788,"92":-0.1032695455330342,"93":-0.04979078217722499,"94":-0.0558174906584419,"95":-0.1520751596813364,"96":-0.1841360112786232,"97":0.06565132295343011,"98":-0.030170941226794847,"99":0.016726518965829287}},"W2":{"n":3,"d":100,"w":{"0":0.08121662770258758,"1":0.04949862788325406,"2":-0.050505755071215123,"3":0.040214449644291224,"4":-0.028544270267121065,"5":0.4769057722306019,"6":-0.032103423029131904,"7":0.013488911821352237,"8":-0.06387878431452174,"9":-0.009677627061173161,"10":0.02764671243551485,"11":0.03638048258489298,"12":0.008230995686568019,"13":0.04008192491505548,"14":0.08409345940287258,"15":0.027761111126409537,"16":0.09516627094197723,"17":-0.03598507061070058,"18":0.05240308253304412,"19":-0.014759495436170222,"20":-0.01727460961230378,"21":-0.05918472548672997,"22":0.05828584523887938,"23":0.11038080858176652,"24":0.03590066654968474,"25":0.014606811941783168,"26":0.06249550793907019,"27":0.02228154485250302,"28":-0.05921955229041728,"29":-0.08711909802838548,"30":0.08356485832647038,"31":0.2323205549162503,"32":0.04177967052977937,"33":-0.07676649017901274,"34":-0.0738730026141416,"35":-0.03884205670833935,"36":0.04135836024216309,"37":-0.017262063205896485,"38":-0.03241149660394397,"39":-0.06897197413287498,"40":-0.04279236890740155,"41":-0.014734384117637027,"42":0.015036285911367157,"43":-0.074914977974746,"44":0.008029205964074004,"45":-0.06969462884873266,"46":-0.06039667772073321,"47":-0.013892232971448972,"48":-0.18397819611243538,"49":-0.07804782610277468,"50":-0.05492755843747257,"51":0.01765329882676988,"52":0.034517793104626895,"53":0.049592435765668165,"54":0.0003677466718131745,"55":-0.006532056265293073,"56":0.0665369883961826,"57":0.005881631377946851,"58":-0.02076246612912396,"59":0.034513073555898846,"60":0.02310749675749932,"61":0.06325241033287153,"62":-0.08310901717774109,"63":-0.024219886520520085,"64":0.039226473897311286,"65":-0.05207242395892899,"66":0.0723263770808479,"67":-0.06442224864603244,"68":0.9218041122361824,"69":0.037323781882071305,"70":0.054747159698303606,"71":0.010525773066458494,"72":0.09639466501565791,"73":-0.02216993991225346,"74":-0.09726737883953028,"75":0.0229658384643315,"76":-0.034953209746848755,"77":0.08961620524443527,"78":0.07716980947567706,"79":-0.029256051305245275,"80":0.050177716028183675,"81":0.5657439029357847,"82":-0.09521147992523554,"83":0.11705423019521523,"84":-0.008237210419849985,"85":0.02122590693656679,"86":0.06122303602102426,"87":0.14649037188356018,"88":-0.01987529385924646,"89":-0.1201941426082284,"90":-0.005352322328145468,"91":-0.12237972394157255,"92":-0.014157084992416864,"93":-0.029086384011569592,"94":-0.00840294644079351,"95":-0.09106480937755053,"96":-0.1653237683349224,"97":0.043808956335264514,"98":-0.03636776218282327,"99":0.011769965121431511,"100":-0.02109336886025948,"101":-0.012247616721555466,"102":0.04719460665433816,"103":-0.023032553455237706,"104":0.0365688046947229,"105":2.356478850978635,"106":0.0476144836899789,"107":-0.031562416937955924,"108":-3.512181018976775e-7,"109":-0.02160736190184233,"110":0.02677217584999882,"111":0.004294299200973572,"112":0.04243768035226278,"113":-0.007753526196656074,"114":-0.014448261571078874,"115":0.027129598592462896,"116":-0.05880618751405311,"117":0.11503468741887998,"118":-0.116589178487391,"119":0.05401450531673586,"120":0.007236822974719198,"121":0.012193583979434154,"122":-0.0052952755454844175,"123":-0.030902125799339323,"124":0.016821232684626125,"125":0.04574894231589311,"126":-0.00988968746937634,"127":-0.038216326966852315,"128":0.03197840969940127,"129":0.02848973269237483,"130":-0.031764562433080366,"131":-1.6231365685071093,"132":0.0076998316276584685,"133":0.03099451162867663,"134":0.02440584912259509,"135":0.024295052817218166,"136":0.007941918105288017,"137":0.08932602862729108,"138":0.022272617594021195,"139":0.013959176538081952,"140":0.08380362692579231,"141":-0.01716995843348635,"142":0.000195342583906433,"143":0.026736438334104308,"144":-0.08164057433733019,"145":0.025308698935728267,"146":0.005886012707904642,"147":0.05318584947825529,"148":-0.7287934203944086,"149":0.030109390235602943,"150":0.01518511862810969,"151":0.0028298385810766346,"152":0.013137127478557688,"153":0.013477196683280056,"154":0.058964797841591345,"155":0.014376030314254638,"156":-0.04091275473673481,"157":-0.010542673438132236,"158":-0.008459425569113199,"159":-0.017904774242072954,"160":0.026452832963090707,"161":0.0028502689921661895,"162":0.024499028346971773,"163":0.06427871724509779,"164":-0.04083510521479463,"165":-0.00011381824067273513,"166":-0.0020348699773372184,"167":0.02293597123260176,"168":1.4646803111478852,"169":0.019058366266254137,"170":-0.03625915472967377,"171":0.03656591932159879,"172":-0.030717565543015156,"173":0.02936857055517235,"174":0.03831184180284147,"175":-0.04756026039727553,"176":0.10810396625550052,"177":-0.025476784904834397,"178":-0.013883215504949769,"179":0.0036723705834927796,"180":-0.004438469684832039,"181":-0.3772528178852816,"182":0.03136876275244152,"183":-0.0689563077528369,"184":-0.0484465133576942,"185":0.043531834262816094,"186":0.0037713276860401167,"187":-0.036184633872202845,"188":0.03918270204378335,"189":0.04955084593371177,"190":0.037841309758852436,"191":0.038067103929318585,"192":-0.05143358650525284,"193":-0.011229506983301926,"194":-0.03784400662800358,"195":0.025672475055259297,"196":0.03817868356428041,"197":-0.010556282384353188,"198":0.045582819051363896,"199":0.002373352365622302,"200":-0.01879183285014655,"201":-0.004936684298665804,"202":0.042572907230874625,"203":-0.02285868572002183,"204":0.030301015429675674,"205":0.02069452216687207,"206":0.036978509163808695,"207":-0.026834075791464074,"208":0.0020704974637307323,"209":-0.036936380838981236,"210":-0.01735827828951517,"211":0.01818070714956674,"212":-0.014654579170707683,"213":-0.011988978273245174,"214":0.023633059577813607,"215":-0.0013398169531333762,"216":0.0015707280857512355,"217":-0.023894044517150805,"218":0.11614189627152703,"219":0.029587116025323223,"220":0.01847772510145674,"221":0.0007366074335730861,"222":0.009178683816299098,"223":-0.020144917418807452,"224":0.003215461778113888,"225":-0.0035647956417170193,"226":-0.011779825874470354,"227":-0.037642902380321114,"228":0.02868402720800375,"229":0.015263487241194711,"230":-0.026672582059342653,"231":-0.015857167075507734,"232":-0.017890852996344263,"233":0.017847641218538827,"234":0.008455726233188611,"235":0.017992369873049585,"236":0.011568648975288563,"237":-0.0389804772786238,"238":0.01507736620017919,"239":0.01304476909916902,"240":-0.02724091609691578,"241":-0.01842116894400979,"242":0.005215341731206359,"243":0.028516823792182226,"244":0.013715816829698876,"245":0.029013943656779596,"246":-0.00039944734018748163,"247":0.04259232309757413,"248":0.009140463619417442,"249":0.0252656644861553,"250":0.015051959185662243,"251":-0.0006068164275651161,"252":0.019116983604879886,"253":-0.003512878341092328,"254":0.00023746867751401975,"255":0.016396423257220807,"256":-0.0167753628092347,"257":-0.005952944872426527,"258":-0.010839535160484559,"259":-0.020947595398481966,"260":0.027727017104058522,"261":0.006600769027490471,"262":0.01319023986091878,"263":0.011976937388003298,"264":-0.04212422770999785,"265":0.00039730335014200664,"266":-0.0025866922851901946,"267":0.008156938620033145,"268":0.014862476519534295,"269":0.01780653147237967,"270":-0.03469670621222965,"271":0.012126759243144093,"272":-0.02298977491877343,"273":0.0330502103106403,"274":0.02760749487691683,"275":-0.050027636130554186,"276":-0.0215058729800227,"277":-0.000025628880230597584,"278":0.0003917514821769052,"279":-0.0019964857445483896,"280":-0.013145468544027681,"281":-0.0031090897746463998,"282":0.024290801047800216,"283":0.2442623951243936,"284":0.007755560585186023,"285":-0.011665534316537175,"286":0.0136252096240568,"287":-0.017323995124932066,"288":0.02933844047551748,"289":-0.016166035351209807,"290":0.041600430661468284,"291":-0.012653948971034047,"292":0.01586772086403991,"293":-0.033018113757782935,"294":-0.004503075684230926,"295":0.0017444193876620954,"296":0.006102984892366185,"297":-0.012127092792975924,"298":0.03967691353011715,"299":0.012808309817611888}},"b2":{"n":3,"d":1,"w":{"0":0.04498707602437065,"1":-1.5066966484325937,"2":0.0037563166126171913}}}}}