{"numStates":1,"sensitivity":16.57091459639358,"alpha":0.08027314911423511,"gamma":0.24243057253483236,"epsilon":0.3405915040220403,"cycles":3924,"max":{"lastUpdatedDate":"2018-05-10T01:29:18.964Z","meetsCriterion":false,"cycles":3855,"wealth":3.8869182607191863,"percentSuccess":0.2643810837383543,"odds":1.5,"weights":{"nh":100,"ns":4,"na":3,"net":{"W1":{"n":100,"d":4,"w":{"0":0.005586178786964382,"1":-0.008278083794561568,"2":-0.0028930421173775775,"3":-0.0027702267257820826,"4":0.003264308030863924,"5":-0.004837334507513049,"6":-0.001690561827192042,"7":-0.0016187941154166656,"8":-0.0011023769106051234,"9":0.0016335976322050855,"10":0.0005709131327686148,"11":0.0005466767348426317,"12":0.0032934489610847942,"13":-0.004880518063109724,"14":-0.0017056537069337575,"15":-0.0016332453148484591,"16":0.007462699565012989,"17":-0.011058874892337239,"18":-0.003864878833101159,"19":-0.00370080704013421,"20":-0.0006866405967490105,"21":0.0010175235368547395,"22":0.0003556062635242365,"23":0.00034051007040294224,"24":0.004652185811643124,"25":-0.006894012069018917,"26":-0.002409333822644011,"27":-0.0023070528101616136,"28":-0.007013827727894711,"29":0.010393697707375724,"30":0.0036324113128443822,"31":0.0034782082284430184,"32":0.000016116785300962712,"33":-0.000023883249053166712,"34":-0.00000834676805890789,"35":-0.000007992431154638304,"36":-0.000032853886086794953,"37":0.00004868573534502932,"38":0.000017014793079353532,"39":0.000016292481273876247,"40":0.000930286442272749,"41":-0.0013785790637937106,"42":-0.0004817887076737654,"43":-0.0004613358188449408,"44":-0.0024184799819600526,"45":0.0035839132097550915,"46":0.0012525135185296817,"47":0.0011993418286524403,"48":-0.00009095125690041785,"49":0.00013477945382331098,"50":0.00004710300670001148,"51":0.00004510339038647888,"52":-0.00920773570369325,"53":0.013644820657555274,"54":0.004768620592778745,"55":0.004566183164759709,"56":0.01059629780663505,"57":-0.015702512306420516,"58":-0.005487746994042456,"59":-0.005254781220104063,"60":-0.010998521083541346,"61":0.01629856161243942,"62":0.005696055558013444,"63":0.0054542466712553615,"64":-0.006003226788785554,"65":0.00889610166274021,"66":0.0031090283004854163,"67":0.0029770438658629317,"68":0.001877365370433785,"69":-0.0027820426883158164,"70":-0.000972274123920829,"71":-0.0009309991536883707,"72":-0.001477613115209447,"73":0.002189655156142568,"74":0.0007652452845390712,"75":0.0007327591002800481,"76":0.00041196627026464816,"77":-0.0006104873180661932,"78":-0.00021335439057984176,"79":-0.00020429707237753621,"80":0.005386960550622466,"81":-0.00798286494879293,"82":-0.0027898684148676047,"83":-0.0026714329521358524,"84":-0.004505424249976172,"85":0.006676528069384829,"86":0.002333327057496386,"87":0.002234272683357309,"88":2.8559135061051952,"89":1.2918378170709974,"90":-6.009450994335007,"91":2.90181841335243,"92":-0.0011542461329430767,"93":0.0017104619405739117,"94":0.0005977758327530273,"95":0.0005723990597878063,"96":0.007346212804258797,"97":-0.010886254716162653,"98":-0.003804551171224644,"99":-0.0036430404074838277,"100":-0.0033151035400974652,"101":0.004912607694759256,"102":0.001716868458825351,"103":0.0016439839782182676,"104":0.01664114564858974,"105":-0.024660291647545497,"106":-0.008618330543175248,"107":-0.008252465271619214,"108":0.005365504434555856,"109":-0.007951069416736348,"110":-0.0027787564455181947,"111":-0.0026607927079849553,"112":0.003597211344652362,"113":-0.005330659485483279,"114":-0.001862970077006251,"115":-0.0017838832921389883,"116":0.0030349477461268843,"117":-0.00449744856246782,"118":-0.001571777772992812,"119":-0.0015050526805572388,"120":0.0014377167299996522,"121":-0.002130533235332245,"122":-0.0007445832314360969,"123":-0.0007129741924242516,"124":0.01563416886248658,"125":-0.023168066187883068,"126":-0.008096824453310269,"127":-0.007753098152403826,"128":-0.001815150948491024,"129":0.0026898479667138682,"130":0.0009400537189091461,"131":0.0009001465689498139,"132":-0.004265615897732702,"133":0.006321159272545284,"134":0.002209132023713346,"135":0.0021153499757584687,"136":-0.0018354727356196616,"137":0.002719962551857869,"138":0.0009505782273976816,"139":0.0009102242911217212,"140":-0.007076213552779197,"141":0.010486146428696547,"142":0.0036647204862222437,"143":0.003509145813154672,"144":0.005140696451839775,"145":-0.00761792946732173,"146":-0.002662329996030862,"147":-0.0025493087928278343,"148":0.01084830490042521,"149":-0.016075958255450468,"150":-0.005618259669045638,"151":-0.005379753372492829,"152":0.005914735106964523,"153":-0.008764967020417304,"154":-0.0030631990901546927,"155":-0.0029331601966560254,"156":0.0009848491604446282,"157":-0.0014594348276931886,"158":-0.0005100463499232217,"159":-0.0004883938679817264,"160":0.00299994793976382,"161":-0.004445582816504793,"162":-0.0015536516231202382,"163":-0.0014876960217962197,"164":0.010429049084577233,"165":-0.01545466865728187,"166":-0.005401130074740942,"167":-0.005171841361288701,"168":0.0002373656450110032,"169":-0.0003517489816113938,"170":-0.0001229299731343857,"171":-0.0001177113512899826,"172":0.003413007889274438,"173":-0.005057690843230616,"174":-0.0017675724223836778,"175":-0.0016925354576829493,"176":0.012298711222475,"177":-0.018225296027013418,"178":-0.0063694147500415,"179":-0.0060990204264253535,"180":16.036910794966985,"181":12.970924649865617,"182":-17.926992442228123,"183":15.257524717234004,"184":-0.004957719286530462,"185":0.007346778047967555,"186":0.0025675674282757822,"187":0.002458569084538267,"188":0.003890525147237662,"189":-0.0057653172951369624,"190":-0.0020148752015755637,"191":-0.0019293397420599926,"192":0.003754403675652067,"193":-0.005563600702993518,"194":-0.0019443788631299695,"195":-0.001861836113385208,"196":-0.002550787310410625,"197":0.003779977674093014,"198":0.001321034539470118,"199":0.0012649539959785983,"200":0.0006749475949553071,"201":-0.0010001958335440276,"202":-0.00034955054136487915,"203":-0.00033471142569294895,"204":-0.005288338275589511,"205":0.007836717915584697,"206":0.0027387926426295055,"207":0.0026225254480090497,"208":-0.003916345520195038,"209":0.005803580161238487,"210":0.0020282473884142343,"211":0.001942144252972597,"212":-1.5377242659565722,"213":-0.821859578750751,"214":2.152833245643536,"215":3.197376624406359,"216":-0.004467959184491852,"217":0.006621009088831944,"218":0.0023139241675218802,"219":0.0022156934846509144,"220":0.0015525983531984439,"221":-0.0023007747796125006,"222":-0.0008040796040175066,"223":-0.000769944825662407,"224":0.00031002528221085106,"225":-0.00045942232830869834,"226":-0.00016055988056483492,"227":-0.00015374379431112178,"228":-0.013546938695914999,"229":0.02007502766090756,"230":0.0070158628486113265,"231":0.00671802551758105,"232":-0.014848363711423332,"233":0.022003592022207218,"234":0.007689861574588933,"235":0.007363411657226752,"236":-0.0006157671683101118,"237":0.0009124971490828205,"238":0.0003189014208603092,"239":0.0003053634213091911,"240":-0.003281894527165737,"241":0.00486339570168365,"242":0.0016996697480872798,"243":0.0016275153869559891,"244":0.012196636960217073,"245":-0.01807403354006183,"246":-0.006316551218234025,"247":-0.006048401056676211,"248":0.001791965892806923,"249":-0.0026554903421088555,"250":-0.0009280463440749735,"251":-0.0008886489310577579,"252":0.005894164076276555,"253":-0.008734483084572016,"254":-0.0030525455002046154,"255":-0.0029229588727871297,"256":-0.009145709158662306,"257":0.013552904348264805,"258":0.004736497487867509,"259":0.004535423749537926,"260":0.001117648342644736,"261":-0.0016562281635417453,"262":-0.0005788220984079919,"263":-0.000554249949161166,"264":0.014441535672134388,"265":-0.021400718980449394,"266":-0.0074791682369629905,"267":-0.007161662670798203,"268":32.639547647242956,"269":35.68026320282109,"270":-13.63288745682883,"271":-29.13706474569234,"272":-0.000892529257427757,"273":0.0013226271954553457,"274":0.00046223453116930386,"275":0.00044261175602270514,"276":-0.0032643514498938275,"277":0.004837398849594042,"278":0.0016905843135976509,"279":0.0016188156472296744,"280":-0.003908642663211641,"281":0.005792165400272614,"282":0.0020242581337685957,"283":0.001938324350120582,"284":-0.0004767030961006152,"285":0.0007064199563360968,"286":0.0002468811305613518,"287":0.00023640053556838258,"288":0.0063805681397769145,"289":-0.009455278774951477,"290":-0.0033044506925724378,"291":-0.003164170188749531,"292":0.005323063981139036,"293":-0.007888177475206648,"294":-0.002756776837649013,"295":-0.0026397461781829273,"296":0.003931761588391205,"297":-0.00582642502696414,"298":-0.0020362312600871136,"299":-0.0019497891934146618,"300":0.0032239730703081085,"301":-0.004777562667752009,"302":-0.0016696726390473006,"303":-0.0015987917148533465,"304":0.020750875979870517,"305":-0.030750446173068432,"306":-0.010746730547878731,"307":-0.010290510463373934,"308":-0.024712617787544213,"309":0.03662129847764135,"310":0.012798488353936946,"311":0.012255167070345312,"312":-0.008115876506574205,"313":0.01202680908497388,"314":0.004203154508567265,"315":0.004024722240416143,"316":0.0010287544254445728,"317":-0.0015244974539647875,"318":-0.0005327845732523517,"319":-0.0005101668085084265,"320":0.007283345131871075,"321":-0.010793091951458405,"322":-0.0037719924524639435,"323":-0.0036118638710871368,"324":-0.004136087641579559,"325":0.006129213078364012,"326":0.002142050264474366,"327":0.0020511159706118717,"328":0.015978037537207068,"329":-0.02367764058750857,"330":-0.008274911585454051,"331":-0.007923625131620048,"332":-0.010747496204544248,"333":0.015926571194406172,"334":0.005566051565038724,"335":0.005329761606331163,"336":-0.00427259833080328,"337":0.006331506446928897,"338":0.002212748175957374,"339":0.00211881261514783,"340":20.230678636769873,"341":22.41370782057015,"342":-4.667753355498542,"343":-22.305118992040985,"344":0.0039790715004973986,"345":-0.0058965329543430485,"346":-0.002060732725850326,"347":-0.001973250523227425,"348":-0.01089008135600869,"349":0.016137866227434766,"350":0.005639895397185172,"351":0.005400470620944163,"352":0.007503138373640233,"353":-0.011118800623160858,"354":-0.00388582180342486,"355":-0.0037208609397163636,"356":-0.006684404374171135,"357":0.009905529635837294,"358":0.0034618053094810355,"359":0.0033148447892235506,"360":0.0008598511236177491,"361":-0.001274201905063904,"362":-0.00044531075893946003,"363":-0.0004264064315822462,"364":0.0022244038148384626,"365":-0.0032963143277190306,"366":-0.001152002856973257,"367":-0.0011030980445759925,"368":-0.00710893565464092,"369":0.010534636874749849,"370":0.0036816670291956897,"371":0.0035253729416756118,"372":0.00537788836520531,"373":-0.007969420998296364,"374":-0.0027851699948004964,"375":-0.0026669339893449057,"376":0.003675993521374541,"377":-0.005447405741786592,"378":-0.0019037708039522218,"379":-0.0018229519470812437,"380":-0.0020079947323357744,"381":0.0029756205964201346,"382":0.0010399261379630154,"383":0.0009957792051872969,"384":-0.00766537541114934,"385":0.01135921752389154,"386":0.003969843207054014,"387":0.0038013154676601116,"388":-0.006359986529211115,"389":0.009424779160927025,"390":0.0032937916233788046,"391":0.003153963618241984,"392":0.00009465773864399913,"393":-0.00014027203965478392,"394":-0.0000490225671365714,"395":-0.00004694146166485645,"396":-0.004852180701082866,"397":0.007190381826654813,"398":0.0025129097482462395,"399":0.0024062317317295194}},"b1":{"n":100,"d":1,"w":{"0":0.000014821080178446359,"1":0.000008660763093576165,"2":-0.000002924792995664519,"3":0.0000087380789260524,"4":0.00001979980819900991,"5":-0.000001821774012698061,"6":0.000012343038338365724,"7":-0.000018608875054025624,"8":4.276056610808937e-8,"9":-8.716693445314059e-8,"10":0.0000024682077828037098,"11":-0.000006416637760373218,"12":-2.4130911721411474e-7,"13":-0.00002442968515444403,"14":0.000028113776004051836,"15":-0.000029180942599770364,"16":-0.000015927579290013797,"17":0.0000049809688797657946,"18":-0.000003920358316659037,"19":0.0000010930164176634755,"20":0.000014292520394928728,"21":-0.000011953655013169122,"22":1.3857707372057568,"23":-0.0000030624108437146486,"24":0.000019490749058190357,"25":-0.000008795532198489328,"26":0.00004415178284253633,"27":0.000014235593678401697,"28":0.000009544012071653534,"29":0.000008052231340553002,"30":0.000003814506437072226,"31":0.00004148010260586634,"32":-0.000004815903461807659,"33":-0.000011317402764570283,"34":-0.000004869820611262174,"35":-0.00001877439523260031,"36":0.000013639139955707354,"37":0.0000287823935800126,"38":0.000015692795843313344,"39":0.0000026129719323362895,"40":0.000007959370915536539,"41":0.000027670036768493877,"42":6.297713325417531e-7,"43":0.000009055289049148297,"44":0.000032630567627525696,"45":1.1373114830843978,"46":-0.000013153670489217565,"47":0.000010322223358907068,"48":0.000009961069997933768,"49":-0.0000067676715525870774,"50":0.0000017907504948666088,"51":-0.000014030858765429334,"52":-0.000010390729189522226,"53":0.2607801028572382,"54":-0.000011854253837453937,"55":0.0000041193068765512334,"56":8.225496789585609e-7,"57":-0.00003594232688163216,"58":-0.00003939522823301248,"59":-0.0000016337347812149077,"60":-0.000008707423052317587,"61":0.000032359747292178435,"62":0.00000475438957503864,"63":0.000015638217408523925,"64":-0.000024265118206619568,"65":0.000002965310696126765,"66":0.000038315844427706594,"67":2.1197343550616923,"68":-0.000002368031564756238,"69":-0.000008660878291624235,"70":-0.000010370292202926942,"71":-0.000001264774201183397,"72":0.00001692872991939035,"73":0.000014122991954364702,"74":0.00001043163063419628,"75":0.00000855374759922587,"76":0.00005505559452577936,"77":-0.0000655667674491955,"78":-0.000021532797450132268,"79":0.0000027294600502464874,"80":0.000019323950456463114,"81":-0.000010973742322949844,"82":0.000042392444534260175,"83":-0.000028514931006419773,"84":-0.000011335928344280949,"85":-2.510556128987558,"86":0.00001055715185847952,"87":-0.0000288932336045473,"88":0.000019907099219615716,"89":-0.000017734859002292616,"90":0.0000022813309309189713,"91":0.000005901720758205749,"92":-0.000018861212520895997,"93":0.000014268450347681147,"94":0.000009753034554134239,"95":-0.000005327550742072572,"96":-0.000020337541607131402,"97":-0.00001687412341438763,"98":2.5114304219787614e-7,"99":-0.000012873658714577823}},"W2":{"n":3,"d":100,"w":{"0":0.0000031897850374309803,"1":0.0000018639648517186047,"2":-6.294724012798916e-7,"3":0.000001880604724293861,"4":0.000004261304250974907,"5":-3.9208123926899966e-7,"6":0.000002656462182681236,"7":-0.000004004992248719,"8":9.202906416764653e-9,"9":-1.8760021520293893e-8,"10":5.312063733029211e-7,"11":-0.0000013809853844450319,"12":-5.1934420550469813e-8,"13":-0.000005257743924261105,"14":0.000006050632012696187,"15":-0.000006280307044501282,"16":-0.000003427925191350742,"17":0.0000010720014873670108,"18":-8.43737443016047e-7,"19":2.35238415187146e-7,"20":0.0000030760286802297193,"21":-0.000002572659309315344,"22":0.1053861901073872,"23":-6.590904417374488e-7,"24":0.000004194788705964483,"25":-0.0000018929697872028882,"26":0.000009502323399591733,"27":0.0000030637769423949327,"28":0.0000020540572296633057,"29":0.000001732996969677086,"30":8.209560574856163e-7,"31":0.000008927325783335468,"32":-0.0000010364761954292605,"33":-0.0000024357254368015996,"34":-0.000001048080215814263,"35":-0.000004040615414098839,"36":0.000002935408487513008,"37":0.000006194531534689802,"38":0.000003377395222048042,"39":5.623624369844753e-7,"40":0.0000017130115981185072,"41":0.000005955130688522646,"42":1.35539053030677e-7,"43":0.0000019488745192238607,"44":0.00000702273352418975,"45":-0.6572372572947728,"46":-0.000002830926005593961,"47":0.0000022215434513621345,"48":0.0000021438162160012575,"49":-0.0000014565346915336135,"50":3.8540437417297216e-7,"51":-0.0000030197140026549316,"52":-0.0000022362872399988298,"53":0.006400572311760868,"54":-0.0000025512662408382966,"55":8.865550468353912e-7,"56":1.7702870676377817e-7,"57":-0.000007735488606113968,"58":-0.000008478620217409598,"59":-3.5161153534380143e-7,"60":-0.000001874006983362143,"61":0.000006964447714349572,"62":0.0000010232372092577475,"63":0.0000033656488801579935,"64":-0.000005222325912624841,"65":6.381925993396816e-7,"66":0.000008246315802818892,"67":0.7427788923899533,"68":-5.096465006483501e-7,"69":-0.0000018639896445823879,"70":-0.000002231888802553338,"71":-2.7220403449410845e-7,"72":0.000003643392300682268,"73":0.0000030395428588727613,"74":0.0000022450900272949185,"75":0.0000018409330336236205,"76":0.000011849036031741712,"77":-0.000014111245178845695,"78":-0.00000463427728219692,"79":5.874329480981295e-7,"80":0.000004158890399022676,"81":-0.000002361763018276398,"82":0.000009123679533488084,"83":-0.0000061369683806838655,"84":-0.0000024397125022698494,"85":-0.31784102610587006,"86":0.0000022721046388067103,"87":-0.000006218386466305225,"88":0.000004284395367750324,"89":-0.000003816886975898506,"90":4.9098683609915e-7,"91":0.000001270165219603496,"92":-0.000004059300185013826,"93":0.000003070848337386923,"94":0.0000020990429378024404,"95":-0.000001146592652442668,"96":-0.000004377034951002477,"97":-0.000003631639917535472,"98":5.405087268313078e-8,"99":-0.000002770662019499261,"100":0.0000049019399542639654,"101":0.000002864470074392266,"102":-9.67349172264221e-7,"103":0.0000028900415957475456,"104":0.000006548609799885223,"105":-6.025354908350622e-7,"106":0.000004082349738234517,"107":-0.0000061547192941179955,"108":1.4142675495814974e-8,"109":-2.8829685388592117e-8,"110":8.163376892681082e-7,"111":-0.0000021222456548072724,"112":-7.981083623428115e-8,"113":-0.000008079900270257461,"114":0.000009298380429692185,"115":-0.000009651336254320679,"116":-0.000005267904657214663,"117":0.0000016474109894532715,"118":-0.0000012966235142881347,"119":3.6150542225146886e-7,"120":0.000004727123524550854,"121":-0.0000039535646796244226,"122":0.5131472822510088,"123":-0.0000010128650469239608,"124":0.000006446391248153655,"125":-0.000002909043752697174,"126":0.000014602808017452277,"127":0.000004708295521269947,"128":0.0000031565967887128788,"129":0.0000026632036297283582,"130":0.0000012616139501049365,"131":0.000013719173629398365,"132":-0.000001592817076081028,"133":-0.0000037431299285237954,"134":-0.0000016106496919181628,"135":-0.000006209463615518345,"136":0.00000451102377729004,"137":0.00000951951972399267,"138":0.00000519025212823738,"139":8.642171393462042e-7,"140":0.000002632490873163947,"141":0.000009151617638930556,"142":2.0829124596232942e-7,"143":0.0000029949560120815225,"144":0.000010792268936546678,"145":-0.7922883682361989,"146":-0.0000043504590852507444,"147":0.0000034139832245177412,"148":0.0000032945349745617853,"149":-0.0000022383469477379567,"150":5.92274739273847e-7,"151":-0.000004640581276556325,"152":-0.0000034366409164131005,"153":0.12140849086813796,"154":-0.00000392068862816281,"155":0.0000013624239743605648,"156":2.720509630129851e-7,"157":-0.000011887603745080399,"158":-0.000013029620042462654,"159":-5.403431937395156e-7,"160":-0.0000028799024391921132,"161":0.000010702697528296855,"162":0.0000015724719071978013,"163":0.000005172200798170637,"164":-0.00000802547122141122,"165":9.807500399702596e-7,"166":0.000012672623484656068,"167":-0.5616805575047513,"168":-7.832052994709265e-7,"169":-0.0000028645081751204777,"170":-0.0000034298815655467538,"171":-4.183127757850745e-7,"172":0.000005599026290188384,"173":0.000004671053506287952,"174":0.000003450168704096982,"175":0.0000028290756550153665,"176":0.000018209146394409464,"177":-0.000021685623009547248,"178":-0.000007121780523631242,"179":9.027445443979883e-7,"180":0.0000063912240997061826,"181":-0.000003629467305463808,"182":0.00001402092257767039,"183":-0.000009431058865505206,"184":-0.0000037492570986207835,"185":0.8564236134706786,"186":0.0000034916837284378083,"187":-0.000009556179072613222,"188":0.000006584095347121996,"189":-0.000005865646287704917,"190":7.545298388480254e-7,"191":0.0000019519414532517147,"192":-0.000006238177658564248,"193":0.000004719162571302053,"194":0.0000032257291087523957,"195":-0.0000017620398463069962,"196":-0.000006726460324064731,"197":-0.000005580965676152322,"198":8.306331913043577e-8,"199":-0.000004257847690580653,"200":-7.728740330665233e-7,"201":-4.5163232651363146e-7,"202":1.525190162614118e-7,"203":-4.5566411087251845e-7,"204":-0.0000010324994788236428,"205":9.499994724730761e-8,"206":-6.43651725774947e-7,"207":9.703959563952567e-7,"208":-2.229832842329502e-9,"209":4.545489241591453e-9,"210":-1.287094927872519e-7,"211":3.346080490757132e-7,"212":1.2583532999908575e-8,"213":0.0000012739334050526458,"214":-0.0000014660474753444872,"215":0.000001521696949002952,"216":8.305745792878758e-7,"217":-2.5974230464487447e-7,"218":2.0443470517270407e-7,"219":-5.6997465821618336e-8,"220":-7.453112560632414e-7,"221":6.233465755488562e-7,"222":-0.1766486881977761,"223":1.5969536645916211e-7,"224":-0.0000010163829895432392,"225":4.586601234340338e-7,"226":-0.0000023023804465667216,"227":-7.423427018058766e-7,"228":-4.976910611833824e-7,"229":-4.198992554656494e-7,"230":-1.9891485314972144e-7,"231":-0.0000021630605036356407,"232":2.5113464756544174e-7,"233":5.901679655266138e-7,"234":2.539462621292875e-7,"235":9.790273276661033e-7,"236":-7.112394633753487e-7,"237":-0.0000015009138367481293,"238":-8.183313402646828e-7,"239":-1.362585007700828e-7,"240":-4.1505686811130244e-7,"241":-0.0000014429078314910842,"242":-3.284065035302397e-8,"243":-4.72205649286568e-7,"244":-0.0000017015843406995161,"245":-0.12422011048938787,"246":6.859237146313107e-7,"247":-5.382724012689797e-7,"248":-5.194393573388923e-7,"249":3.5291338849587666e-7,"250":-9.338216560341002e-8,"251":7.316664019189828e-7,"252":5.418447709559272e-7,"253":-0.05037476200900918,"254":6.181631080674493e-7,"255":-2.148092645530935e-7,"256":-4.2893451969878235e-8,"257":0.0000018742824516215004,"258":0.0000020543406881706557,"259":8.519427599263066e-8,"260":4.5406550075389926e-7,"261":-0.0000016874618888272113,"262":-2.4792688636892753e-7,"263":-8.154852417298671e-7,"264":0.0000012653517419866682,"265":-1.5463189051306808e-7,"266":-0.000001998054126915048,"267":-0.014095331531743721,"268":1.234856091660499e-7,"269":4.5163833374039026e-7,"270":5.407790445664583e-7,"271":6.595410932370589e-8,"272":-8.827815240923828e-7,"273":-7.364708660924273e-7,"274":-5.439776562811902e-7,"275":-4.460517955604507e-7,"276":-0.0000028709808119121847,"277":0.000003419106227468534,"278":0.0000011228695695970573,"279":-1.4233300011753861e-7,"280":-0.000001007684952425644,"281":5.72247123894802e-7,"282":-0.0000022106363415918576,"283":0.0000014869664816753542,"284":5.911340178807514e-7,"285":0.0677267600696702,"286":-5.505232044734996e-7,"287":0.0000015066938049831773,"288":-0.0000010380943775134598,"289":9.248186913412656e-7,"290":-1.189644360780233e-7,"291":-3.0775670111029935e-7,"292":9.835545838254394e-7,"293":-7.440560766706795e-7,"294":-5.085909447878011e-7,"295":2.778154895460244e-7,"296":0.0000010605406319661262,"297":8.799339617882382e-7,"298":-1.3096342134492608e-8,"299":6.713219564863575e-7}},"b2":{"n":3,"d":1,"w":{"0":-0.564516006910059,"1":-0.6237049267828446,"2":-0.003314322988377985}}}}},"weights":{"nh":100,"ns":4,"na":3,"net":{"W1":{"n":100,"d":4,"w":{"0":0.00556530585424022,"1":-0.008314140984061283,"2":-0.002851938666039255,"3":-0.0027471653286447865,"4":0.003252110841259364,"5":-0.004858404684017858,"6":-0.0016665428454935756,"7":-0.0016053180870754385,"8":-0.0010982578446165185,"9":0.0016407131604705325,"10":0.0005628017748429902,"11":0.0005421257971464702,"12":0.0032811428854779383,"13":-0.004901776336000781,"14":-0.0016814203044562572,"15":-0.0016196489841340648,"16":0.007434814953340623,"17":-0.011107044487917347,"18":-0.0038099678249135863,"19":-0.003669998810472483,"20":-0.0006840749425692767,"21":0.0010219556058930423,"22":0.00035055391927379123,"23":0.000337675415082187,"24":0.004634802773056218,"25":-0.006924040600443739,"26":-0.002375102749803132,"27":-0.0022878472121131994,"28":-0.006987620339972056,"29":0.01043896996334268,"30":0.0035808031316211532,"31":0.0034492530744317544,"32":0.000016056564425928715,"33":-0.00002398727830145902,"34":-0.000008228179749487626,"35":-0.000007925896301586542,"36":-0.000032731126508415304,"37":0.00004889779780098807,"38":0.000016773052140566326,"39":0.000016156850722118262,"40":0.0009268103977302134,"41":-0.0013845837972120826,"42":-0.00047494360212612253,"43":-0.00045749532146385107,"44":-0.002409443255460406,"45":0.003599523807648692,"46":0.001234718192276806,"47":0.001189357628494771,"48":-0.0000906114146692508,"49":0.00013536651822293428,"50":0.000046433781690558366,"51":0.000044727916717276525,"52":-0.00917333070953211,"53":0.013704253963477468,"54":0.004700869499819276,"55":0.004528170909950537,"56":0.01055670440641784,"57":-0.015770908384573293,"58":-0.005409778774424849,"59":-0.005211036570296333,"60":-0.01095742476336883,"61":0.016369553927106133,"62":0.005615127754393905,"63":0.005408841524798509,"64":-0.005980795543079224,"65":0.008934850778062838,"66":0.0030648561839626523,"67":0.002952260771289878,"68":0.0018703505356959425,"69":-0.0027941605458582093,"70":-0.0009584603526657512,"71":-0.0009232488345783794,"72":-0.0014720919673433753,"73":0.002199192726991835,"74":0.0007543729152624702,"75":0.000726659076628773,"76":0.0004104269453424239,"77":-0.0006131464427376177,"78":-0.00021032311712071265,"79":-0.00020259635385687854,"80":0.005366832003106345,"81":-0.008017636241436452,"82":-0.0027502308237242943,"83":-0.002649193986767967,"84":-0.004488589590581277,"85":0.0067056092968191825,"86":0.0023001758653675335,"87":0.0022156729604165958,"88":2.3975770972608093,"89":1.0774407681252607,"90":-5.023231381702561,"91":1.5882040445845218,"92":-0.001149933255974282,"93":0.001717912269862696,"94":0.000589282817860776,"95":0.0005676339906117261,"96":0.007318763449035217,"97":-0.010933672422943954,"98":-0.00375049727988615,"99":-0.0036127130696096852,"100":-0.0033027165514751605,"101":0.004934005741776847,"102":0.0016924757206071442,"103":0.001630298251001252,"104":0.016578965483522612,"105":-0.024767705494958023,"106":-0.008495883954584385,"107":-0.008183765701299082,"108":0.005345456058492745,"109":-0.00798570221627482,"110":-0.002739276729813805,"111":-0.0026386423198067823,"112":0.0035837702513456084,"113":-0.0053538784578524125,"114":-0.001836501571995774,"115":-0.0017690329405214982,"116":0.0030236075684396224,"117":-0.004517038283805449,"118":-0.0015494464385504552,"119":-0.001492523519263162,"120":0.0014323446562314983,"121":-0.0021398132864040727,"122":-0.0007340044222453648,"123":-0.0007070388728427315,"124":0.01557575129803207,"125":-0.02326898028712885,"126":-0.007981787263118644,"127":-0.007688555680343884,"128":-0.0018083685798971768,"129":0.002701564247922531,"130":0.0009266977252436662,"131":0.0008926530893615123,"132":-0.004249677289789324,"133":0.006348692605515075,"134":0.0021777453563762263,"135":0.002097740252579551,"136":-0.0018286144340291697,"137":0.0027318100044013242,"138":0.0009370727047574404,"139":0.0009026469171899141,"140":-0.007049773058258481,"141":0.010531821367360621,"142":0.0036126532662102647,"143":0.003479933112014466,"144":0.005121488077877022,"145":-0.007651111195495592,"146":-0.0026245044314688565,"147":-0.0025280864784557123,"148":0.010807769867757484,"149":-0.016145980967505896,"150":-0.005538437165487706,"151":-0.005334968362868795,"152":0.005892634513211779,"153":-0.008803144947189338,"154":-0.00301967810094109,"155":-0.0029087424219049135,"156":0.0009811692405899835,"157":-0.0014657917478815368,"158":-0.0005027997684989462,"159":-0.0004843281195738585,"160":0.0029887385399536472,"161":-0.004464946624082954,"162":-0.0015315778194322273,"163":-0.001475311350047592,"164":0.010390080614481977,"165":-0.015521985192643981,"166":-0.005324392481667868,"167":-0.005128787163669921,"168":0.00023647872081498415,"169":-0.0003532811090896776,"170":-0.00012118342194376669,"171":-0.00011673143575375879,"172":0.0034002550779720533,"173":-0.005079720834875262,"174":-0.0017424592978679252,"175":-0.0016784455523747507,"176":0.012252756700839564,"177":-0.018304680698182304,"178":-0.006278920066094684,"179":-0.006048247710483382,"180":16.428915490875607,"181":13.39135035917718,"182":-18.263807329824264,"183":15.19741371483613,"184":-0.0049391946125026545,"185":0.007378778710765331,"186":0.0025310882210947587,"187":0.0024381021539921144,"188":0.003875988077681937,"189":-0.0057904295243773425,"190":-0.001986248475340309,"191":-0.0019132785043688998,"192":0.003740375228256324,"193":-0.005587834306989475,"194":-0.0019167537271594108,"195":-0.0018463368253631399,"196":-0.0025412562134174413,"197":0.0037964422780235804,"198":0.0013022656876574593,"199":0.001254423592063955,"200":0.0006724256320444557,"201":-0.0010045524275937422,"202":-0.000344584234949471,"203":-0.0003319250425394816,"204":-0.0052685782333072645,"205":0.007870852629591148,"206":0.002699880720330444,"207":0.002600693624545673,"208":-0.003901711972003601,"209":0.005828859053616127,"210":0.001999430674266844,"211":0.001925976421149977,"212":-1.636914609561265,"213":-0.7366129236662734,"214":1.6640148078181083,"215":3.3573418098626377,"216":-0.0044512645144926,"217":0.006649848489962218,"218":0.002281048645678373,"219":0.0021972484285746312,"220":0.0015467970206328255,"221":-0.0023107963587675508,"222":-0.0007926554886920344,"223":-0.0007635352407864531,"224":0.0003088668629958093,"225":-0.00046142345300308977,"226":-0.00015827869524106156,"227":-0.00015246391831792055,"228":-0.013496320132926716,"229":0.020162469284463736,"230":0.006916183628799825,"231":0.006662099749336463,"232":-0.01479288233275488,"233":0.02209943397319552,"234":0.0075806063879782165,"235":0.007302113221406216,"236":-0.000613466334924244,"237":0.0009164717503726213,"238":0.00031437056770784684,"239":0.00030282135244778634,"240":-0.003269631625064635,"241":0.004884579394002115,"242":0.001675521363853971,"243":0.0016139667563599756,"244":0.012151063842283419,"245":-0.01815275935097948,"246":-0.00622680760309355,"247":-0.005998049733484807,"248":0.0017852701559026786,"249":-0.0026670569704015483,"250":-0.0009148609474924984,"251":-0.0008812511662318099,"252":0.00587214034682745,"253":-0.00877252823121229,"254":-0.0030091758739167135,"255":-0.0028986260213318426,"256":-0.009111535928640599,"257":0.013611937290535807,"258":0.004669202790097729,"259":0.004497667558648103,"260":0.0011134722144701358,"261":-0.0016634422645415326,"262":-0.0005705983723348414,"263":-0.0005496359664800236,"264":0.014387574419289664,"265":-0.021493934972423856,"266":-0.007372906516563831,"267":-0.0071020437415201055,"268":30.673548858829317,"269":36.571941263527705,"270":-18.03357170664979,"271":-31.34628446308129,"272":-0.00088919429379361,"273":0.0013283882170239722,"274":0.0004556672453379728,"275":0.0004389271314598739,"276":-0.0032521540980526282,"277":0.004858469306356181,"278":0.0016665650124192575,"279":0.0016053394396418246,"280":-0.003894037896987686,"281":0.005817394572907242,"282":0.001995498097722599,"283":0.001922188317968389,"284":-0.00047492187999314807,"285":0.0007094969387380541,"286":0.00024337351950820402,"287":0.0002344325642976294,"288":0.006356726946237478,"289":-0.009496463521002193,"290":-0.00325750207487255,"291":-0.0031378293175297963,"292":0.0053031741851652095,"293":-0.007922536333731203,"294":-0.002717609401444841,"295":-0.002617770996741861,"296":0.003917070437576046,"297":-0.005851803425661811,"298":-0.0020073011135498886,"299":-0.001933557719505764,"300":0.00321192659355216,"301":-0.004798372493599903,"302":-0.0016459504445000914,"303":-0.001585482201151072,"304":0.020673339677159456,"305":-0.030884387159168605,"306":-0.010594044304797939,"307":-0.010204844709003215,"308":-0.024620278310521392,"309":0.03678081137985352,"310":0.012616651363905497,"311":0.01215314607118405,"312":-0.008085551278693322,"313":0.012079194751321968,"314":0.004143437383707364,"315":0.003991217503220842,"316":0.0010249104521867151,"317":-0.0015311377701051987,"318":-0.0005252149341552764,"319":-0.0005059198061903375,"320":0.007256130683684446,"321":-0.010840103865354797,"322":-0.003718401145378674,"323":-0.003581796069551298,"324":-0.004120633020039811,"325":0.006155910343412355,"326":0.00211161667411308,"327":0.002034040978360777,"328":0.01591833509657539,"329":-0.023780774261040798,"330":-0.008157344187976801,"331":-0.007857663067885046,"332":-0.010707337846746559,"333":0.015995943215085795,"334":0.005486970818163338,"335":0.005285392764819034,"336":-0.004256633632779089,"337":0.006359084849511064,"338":0.0021813101314427604,"339":0.0021011740664213354,"340":21.20220208366439,"341":23.100104216072133,"342":-6.925797661106126,"343":-20.267307543920104,"344":0.003964203574707587,"345":-0.005922216725019218,"346":-0.0020314544700335046,"347":-0.0019568237400175476,"348":-0.01084939022429711,"349":0.016208158594593538,"350":0.005559765499856433,"351":0.005355513145755242,"352":0.007475102661085941,"353":-0.01116723123971048,"354":-0.0038306132439614804,"355":-0.003689885766696539,"356":-0.006659427886979055,"357":0.009948675558068089,"358":0.003412621045830638,"359":0.0032872495922059205,"360":0.0008566382628581048,"361":-0.0012797519986073413,"362":-0.0004389839208507653,"363":-0.00042285671201387363,"364":0.002216092260040222,"365":-0.00331067221935428,"366":-0.0011356355552402714,"367":-0.0010939150481973736,"368":-0.007082372892956455,"369":0.01058052302524282,"370":0.0036293590379181595,"371":0.003496025154025037,"372":0.005357793716195588,"373":-0.00800413373257226,"374":-0.0027455991573628958,"375":-0.0026447324766402883,"376":0.0036622580559865603,"377":-0.005471133230618387,"378":-0.0018767226147796755,"379":-0.0018077763593522455,"380":-0.002000491796879471,"381":0.002988581629203946,"382":0.0010251511877311886,"383":0.0009874896094628281,"384":-0.0076367334947963885,"385":0.011408695334221257,"386":0.00391344089735157,"387":0.003769670532183364,"388":-0.006336222239507366,"389":0.009465831058555235,"390":0.003246994446452368,"391":0.0031277077139950918,"392":0.00009430404702725275,"393":-0.00014088302833597334,"394":-0.00004832606960374133,"395":-0.00004655068654356487,"396":-0.004834050375299843,"397":0.007221701268006893,"398":0.002477207100551199,"399":0.002386200495660616}},"b1":{"n":100,"d":1,"w":{"0":0.000012756395033462997,"1":0.000007454255288992174,"2":-0.000002517347885076721,"3":0.0000075208004590878874,"4":0.000017041549734796067,"5":-0.0000015679875344158298,"6":0.00001062356259186641,"7":-0.00001601652230922582,"8":3.6803705703749256e-8,"9":-7.502394132479376e-8,"10":0.0000021243683403177922,"11":-0.00000552275306986137,"12":-2.0769298776669445e-7,"13":-0.00002102645088284983,"14":0.000024197320864916477,"15":-0.00002511582332929063,"16":-0.000013708750705462527,"17":0.000004287083391458247,"18":-0.0000033742236567992663,"19":9.407512160475699e-7,"20":0.000012301467503423789,"21":-0.000010288423219005975,"22":0.9464507415929405,"23":-0.0000026357945578029985,"24":0.00001677554479843872,"25":-0.000007570250069403188,"26":0.00003800111576465365,"27":0.000012252471095922401,"28":0.000008214461207978738,"29":0.00000693049647125841,"30":0.0000032831177201997353,"31":0.000035701620172122935,"32":-0.0000041450127965806804,"33":-0.00000974080557397904,"34":-0.000004191418891760536,"35":-0.00001615898431331668,"36":0.000011739107750278513,"37":0.000024772795110188,"38":0.000013506674314414364,"39":0.000002248965782327336,"40":0.000006850572184343925,"41":0.000023815397758340392,"42":5.420395680670863e-7,"43":0.000007793820886083998,"44":0.000028084890298148132,"45":1.4728489024459457,"46":-0.000011321267740149157,"47":0.000008884261956656508,"48":0.000008573419907044415,"49":-0.0000058248852808509775,"50":0.0000015412858201028774,"51":-0.000012076257257525379,"52":-0.000008943224422758835,"53":0.42478888343882637,"54":-0.000010202869355941754,"55":0.0000035454572234927946,"56":7.079624772637832e-7,"57":-0.00003093529720700179,"58":-0.000033907184084604764,"59":-0.0000014061435466940704,"60":-0.00000749441517334495,"61":0.000027851797221170062,"62":0.0000040920682452959475,"63":0.00001345969905578404,"64":-0.000020884809317503614,"65":0.000002552221172768046,"66":0.00003297816635698424,"67":0.8419371131209954,"68":-0.000002038147403995433,"69":-0.000007454354439111542,"70":-0.000008925634458248883,"71":-0.0000010885818808946821,"72":0.000014570433711327761,"73":0.000012155555617686379,"74":0.00000897842799629714,"75":0.000007362147837705388,"76":0.00004738594654495259,"77":-0.000056432836031231194,"78":-0.00001853312087644982,"79":0.000002349226251251472,"80":0.000016631982464926742,"81":-0.000009445019551759087,"82":0.00003648686618105976,"83":-0.000024542592034122264,"84":-0.000009756750404577502,"85":-3.3705936343492944,"86":0.000009086463193638753,"87":-0.000024868194306607387,"88":0.00001713389432954316,"89":-0.000015264263102126303,"90":0.000001963524804190796,"91":0.000005079567781764943,"92":-0.000016233707316747465,"93":0.000012280750590256201,"94":0.000008394365325992698,"95":-0.000004585383859022467,"96":-0.000017504372936323804,"97":-0.000014523434292881803,"98":2.161569748915204e-7,"99":-0.000011080263658907606}},"W2":{"n":3,"d":100,"w":{"0":8.368386391817385e-7,"1":4.890103199768009e-7,"2":-1.6514179403123577e-7,"3":4.933757829012256e-7,"4":0.0000011179512196025448,"5":-1.0286233219322584e-7,"6":6.969216315345166e-7,"7":-0.0000010507078814028356,"8":2.4143782513646527e-9,"9":-4.9216829881838615e-9,"10":1.393617469192805e-7,"11":-3.623008788323924e-7,"12":-1.3624971263940289e-8,"13":-0.000001379366722029295,"14":0.0000015873805617415218,"15":-0.0000016476357057721416,"16":-8.993146002702515e-7,"17":2.8123909574645996e-7,"18":-2.2135412891947184e-7,"19":6.171468966575717e-8,"20":8.069947106823847e-7,"21":-6.749359860360732e-7,"22":-0.26468599656875935,"23":-1.729120732806323e-7,"24":0.0000011005008963199933,"25":-4.96619751474393e-7,"26":0.0000024929303351415794,"27":8.037804728495831e-7,"28":5.388809680462941e-7,"29":4.5465095629136386e-7,"30":2.1537744293231116e-7,"31":0.000002342079945721236,"32":-2.719190517702058e-7,"33":-6.3901144724493e-7,"34":-2.7496336117372327e-7,"35":-0.000001060053602728962,"36":7.701030672305856e-7,"37":0.0000016251325382813382,"38":8.860580857900913e-7,"39":1.475355258523229e-7,"40":4.4940780326189213e-7,"41":0.0000015623258313476537,"42":3.5558608012188435e-8,"43":5.112863322480294e-7,"44":0.0000018424109704199125,"45":0.8467660595784591,"46":-7.426921357843443e-7,"47":5.828209014963926e-7,"48":5.624291969387725e-7,"49":-3.821212047801562e-7,"50":1.0111065971370188e-7,"51":-7.922205806880037e-7,"52":-5.866889276762796e-7,"53":-0.2971952567012697,"54":-6.693235242996781e-7,"55":2.325873075418425e-7,"56":4.644339952289114e-8,"57":-0.0000020294019611891435,"58":-0.000002224362226632514,"59":-9.224512403875787e-8,"60":-4.916448686031416e-7,"61":0.0000018271197132968292,"62":2.6844580984821846e-7,"63":8.829764383224426e-7,"64":-0.000001370074822403243,"65":1.674295339684433e-7,"66":0.0000021634172606362118,"67":0.2256279491705465,"68":-1.3370552427347532e-7,"69":-4.890168243742114e-7,"70":-5.8553499963754e-7,"71":-7.141260283254754e-8,"72":9.55842298631555e-7,"73":7.974226720819003e-7,"74":5.889983348897824e-7,"75":4.829679330810459e-7,"76":0.0000031085894769656063,"77":-0.0000037020792385390322,"78":-0.0000012158005267643046,"79":1.541127628777021e-7,"80":0.0000010910829916813383,"81":-6.196074406061554e-7,"82":0.0000023935932713238386,"83":-0.000001610030870055674,"84":-6.400574520484928e-7,"85":-0.28699314244121965,"86":5.960856058364352e-7,"87":-0.0000016313908691615006,"88":0.0000011240091636940548,"89":-0.0000010013585481059927,"90":1.28810169886993e-7,"91":3.3322725961204127e-7,"92":-0.000001064955543958797,"93":8.056356500986588e-7,"94":5.506829479353076e-7,"95":-3.008080535280962e-7,"96":-0.0000011483131166761676,"97":-9.527590662318081e-7,"98":1.4180221504497862e-8,"99":-7.268819065430492e-7,"100":-0.0000021331297837067754,"101":-0.0000012465037306182631,"102":4.20951981215478e-7,"103":-0.0000012576314421627853,"104":-0.0000028496951633244296,"105":2.6219954066969107e-7,"106":-0.000001776476640286704,"107":0.0000026782896445362273,"108":-6.154331280740057e-9,"109":1.2545535295149811e-8,"110":-3.5523777504689516e-7,"111":9.235171107863481e-7,"112":3.473050952236916e-8,"113":0.000003516052012607477,"114":-0.0000040462862236610815,"115":0.000004199878591064193,"116":0.0000022923831018974317,"117":-7.168879031891858e-7,"118":5.642391112112112e-7,"119":-1.5731281743268928e-7,"120":-0.0000020570566096895287,"121":0.000001720434492461343,"122":0.11632604897093976,"123":4.4075868407187543e-7,"124":-0.0000028052137056175344,"125":0.0000012659004269587766,"126":-0.000006354562557946706,"127":-0.000002048863409697758,"128":-0.0000013736256865336113,"129":-0.0000011589205591435289,"130":-5.490043378517672e-7,"131":-0.0000059700399535799296,"132":6.931307980692672e-7,"133":0.0000016288616379699106,"134":7.008908449841233e-7,"135":0.000002702112201031229,"136":-0.0000019630185738266076,"137":-0.00000414251726841067,"138":-0.000002258591802345435,"139":-3.760730121536068e-7,"140":-0.0000011455555859997702,"141":-0.000003982420881425649,"142":-9.06400865174736e-8,"143":-0.000001303286033664549,"144":-0.000004696367212896473,"145":-0.6915932244398165,"146":0.0000018931471905096078,"147":-0.000001485630051491097,"148":-0.0000014336509122679171,"149":9.740397871987405e-7,"150":-2.5773446867624704e-7,"151":0.0000020193968570865795,"152":0.0000014954897800496322,"153":-0.291476292915838,"154":0.0000017061281392607188,"155":-5.92872860858347e-7,"156":-1.1838578578026711e-7,"157":0.000005173013446236635,"158":0.000005669973606537906,"159":2.351359203884773e-7,"160":0.000001253219283500193,"161":-0.000004657389291120057,"162":-6.842773877493604e-7,"163":-0.000002250736579741512,"164":0.0000034923666504591755,"165":-4.267835071759484e-7,"166":-0.000005514622876038896,"167":-0.28169193520779995,"168":3.4081987350187773e-7,"169":0.0000012465203105436016,"170":0.0000014925483787269496,"171":1.8203312392110844e-7,"172":-0.0000024364740983596127,"173":-0.00000203265716242336,"174":-0.0000015013765365289678,"175":-0.000001231101483580101,"176":-0.00000792389780977074,"177":0.000009436722318984652,"178":0.0000030991163187558886,"179":-3.928386102953054e-7,"180":-0.000002781207151611584,"181":0.0000015794001740681174,"182":-0.0000061013491164302786,"183":0.000004104022613442652,"184":0.0000016315279392936816,"185":0.46656133407896216,"186":-0.0000015194422279918885,"187":0.000004158469962037577,"188":-0.000002865137065423163,"189":0.000002552496542222632,"190":-3.283414507087566e-7,"191":-8.494074789940744e-7,"192":0.000002714607413206321,"193":-0.0000020535923187036485,"194":-0.0000014037093293689365,"195":7.667698338789821e-7,"196":0.0000029270886543684606,"197":0.000002428614835742701,"198":-3.6145861039798535e-8,"199":0.0000018528463860393116,"200":0.000004055395127745413,"201":0.000002369787897223393,"202":-8.002919565127378e-7,"203":0.0000023909433222357954,"204":0.000005417691881598666,"205":-4.984800945149562e-7,"206":0.00000337734476313201,"207":-0.000005091824641580502,"208":1.1700293717113141e-8,"209":-2.385091752391353e-8,"210":6.753595343287855e-7,"211":-0.0000017557425759015104,"212":-6.602783370275206e-8,"213":-0.000006684534805393085,"214":0.000007692588470803466,"215":-0.00000798459028186776,"216":-0.0000043581592354317595,"217":0.0000013629099003935311,"218":-0.0000010727019765880707,"219":2.9907492552859574e-7,"220":0.00000391076877468591,"221":-0.0000032708003532576187,"222":0.03950940110169429,"223":-8.379474271857081e-7,"224":0.000005333126052133346,"225":-0.000002406663884998481,"226":0.000012080963342760224,"227":0.0000038951922899506664,"228":0.0000026114655320218075,"229":0.0000022032793380296944,"230":0.0000010437384198672774,"231":0.000011349928956123297,"232":-0.0000013177441308766803,"233":-0.0000030967068162211947,"234":-0.000001332497127448181,"235":-0.000005137114844456609,"236":0.0000037319885628520866,"237":0.000007875537922040871,"238":0.000004293916978021468,"239":7.149704006840917e-7,"240":0.00000217787054794375,"241":0.0000075711710080920686,"242":1.7232020611548434e-7,"243":0.0000024777394512818765,"244":0.000008928488602310793,"245":0.0009269390861842046,"246":-0.0000035991527311832526,"247":0.0000028244023912612558,"248":0.0000027255823617248036,"249":-0.0000018517936540280563,"250":4.899913324649594e-7,"251":-0.0000038391720161263576,"252":-0.0000028431471931527767,"253":-0.02470238986916584,"254":-0.000003243601860356961,"255":0.0000011271389683700652,"256":2.250688827742337e-7,"257":-0.000009834663615902824,"258":-0.000010779458420901865,"259":-4.470281508418986e-7,"260":-0.0000023825551562281613,"261":0.000008854385806210225,"262":0.000001300912488814021,"263":0.000004278983038224883,"264":-0.000006639505428662031,"265":8.113785495902048e-7,"266":0.000010484113692148012,"267":-0.0360362268426707,"268":-6.479489717146292e-7,"269":-0.000002369819418112215,"270":-0.0000028375551543251843,"271":-3.4607188320068543e-7,"272":0.0000046320975277734894,"273":0.000003864381817413915,"274":0.0000028543387876655097,"275":0.0000023405059481925643,"276":0.000015064502031731035,"277":-0.000017940605587453662,"278":-0.000005891878385721712,"279":7.468442816501232e-7,"280":0.000005287486042685475,"281":-0.0000030026732596396362,"282":0.000011599567109750245,"283":-0.000007802353888547975,"284":-0.000003101775849299823,"285":0.022368935745348074,"286":0.0000028886843384249434,"287":-0.000007905866352517532,"288":0.000005447049221197119,"289":-0.000004852673351210883,"290":6.24225644973324e-7,"291":0.0000016148492081002525,"292":-0.000005160870090697705,"293":0.000003904182645246662,"294":0.0000026686589853366098,"295":-0.0000014577428260632193,"296":-0.0000055648283538544075,"297":-0.000004617155907305461,"298":6.871862620560472e-8,"299":-0.0000035225349425791305}},"b2":{"n":3,"d":1,"w":{"0":0.23106046283242826,"1":-0.3923630541720396,"2":0.05103810577248864}}}}}