{"numStates":1,"sensitivity":17.791172462327783,"alpha":0.040272520862310084,"gamma":0.752771516195607,"epsilon":0.31833352360233025,"cycles":2830,"max":{"lastUpdatedDate":"2018-02-19T17:42:23.910Z","meetsCriterion":false,"cycles":2438,"wealth":7.511870907299114,"percentSuccess":0.5114162419398228,"odds":1.6842105263157894,"weights":{"nh":100,"ns":4,"na":3,"net":{"W1":{"n":100,"d":4,"w":{"0":-0.00018327935320048484,"1":0.00027239207578793386,"2":0.00009488653221886634,"3":0.00009073871527628721,"4":0.0022393033299012654,"5":-0.0033280807233568716,"6":-0.0011593216789437873,"7":-0.001108643738328015,"8":-0.008184518866965303,"9":0.012163934702986684,"10":0.0042372509236121075,"11":0.004052026129647115,"12":-0.017020391265515224,"13":0.02529591924958747,"14":0.008811717387469028,"15":0.008426527153290043,"16":0.002378032360426074,"17":-0.003534261550284877,"18":-0.001231143825717984,"19":-0.0011773262919586957,"20":-0.013012743521053409,"21":0.01933970282236969,"22":0.006736896805663262,"23":0.006442403974716999,"24":0.005862002289333807,"25":-0.008712181401978996,"26":-0.003034848485190759,"27":-0.0029021848221202962,"28":0.006517551210768963,"29":-0.009686466440323022,"30":-0.0033742362129633805,"31":-0.003226736748115045,"32":10.651894406160002,"33":4.307577611365137,"34":18.341784337364814,"35":-6.6657939470459775,"36":-0.002748690602684778,"37":0.004085138483612052,"38":0.001423039282416112,"39":0.0013608333380924365,"40":-0.006831401813114968,"41":0.010152915146422402,"42":0.0035367214816202624,"43":0.003382119228621674,"44":0.010954417373188006,"45":-0.01628059264829134,"46":-0.005671269829279972,"47":-0.005423359173876146,"48":-0.006008315304377574,"49":0.008929633642078508,"50":0.003110596976472216,"51":0.00297462208693533,"52":-0.01363747366399788,"53":0.02026818460836666,"54":0.007060329167492318,"55":0.0067516980125511585,"56":-0.0038978832231362395,"57":0.005793082984645511,"58":0.0020179939261544292,"59":0.0019297804684564382,"60":0.020291822972234242,"61":-0.030157962166961972,"62":-0.010505387603225662,"63":-0.010046161397744589,"64":0.0010438541182348994,"65":-0.0015513890960606748,"66":-0.000540419287186252,"67":-0.0005167956999662502,"68":-0.0032464080850532766,"69":0.0048248524548870665,"70":0.001680715256227299,"71":0.0016072454088345357,"72":0.01713799504871905,"73":-0.025470703469962275,"74":-0.008872602665143923,"75":-0.008484750931421254,"76":0.01906942002459008,"77":-0.028341211541460253,"78":-0.009872530912698517,"79":-0.009440968975328607,"80":-0.011979525913807194,"81":0.017804121836524904,"82":0.0062019842251879245,"83":0.005930874238424713,"84":-0.007871864240289158,"85":0.011699263470715109,"86":0.004075384830739305,"87":0.0038972357576262657,"88":0.009891424261032601,"89":-0.0147007589349167,"90":-0.005120942007012062,"91":-0.004897088056455164,"92":-0.006821135765656158,"93":0.010137657617781574,"94":0.00353140659145912,"95":0.0033770366705274464,"96":-0.006256058209086698,"97":0.00929783225779936,"98":0.0032388572767609956,"99":0.0030972756894994667,"100":0.012952794918427692,"101":-0.019250606456122452,"102":-0.006705860495985438,"103":-0.006412724367341944,"104":0.01410336522799928,"105":-0.020960598503341223,"106":-0.007301528363686817,"107":-0.006982353576054127,"108":0.007071701997988143,"109":-0.010510052298564788,"110":-0.0036611285713852785,"111":-0.003501088058127323,"112":-0.007730040933086096,"113":0.011488483890647916,"114":0.004001960730539648,"115":0.003827021276198066,"116":0.0015307216988705728,"117":-0.0022749778070248906,"118":-0.0007924781009557664,"119":-0.0007578361554773177,"120":0.003254072779287868,"121":-0.004836243819691315,"122":-0.0016846833859796712,"123":-0.0016110400779893149,"124":-0.0000679447063737626,"125":0.00010098027565440917,"126":0.00003517601659909581,"127":0.000033638351830234806,"128":-0.01434097949804717,"129":0.02131374381649686,"130":0.007424544909209925,"131":0.007099992652662027,"132":0.01996729835736568,"133":-0.029675649605093175,"134":-0.010337376250503445,"135":-0.009885494378407663,"136":20.789231066316404,"137":15.005965850621076,"138":-4.409372267196842,"139":4.353503568870035,"140":-0.00920219535257606,"141":0.01367641827561651,"142":0.004764117638499521,"143":0.004555861699237024,"144":0.015209363749552389,"145":-0.022604347400609324,"146":-0.007874120729445978,"147":-0.007529915996792226,"148":0.003606315706227691,"149":-0.005359751680251545,"150":-0.0018670449512587352,"151":-0.0017854299921906255,"152":-0.010104327104690423,"153":0.015017177814930324,"154":0.005231165071709398,"155":0.005002492895010043,"156":0.0019314392254557037,"157":-0.002870529226064889,"158":-0.0009999357103545443,"159":-0.0009562250788502592,"160":-0.0004521950933254161,"161":0.0006720580249836814,"162":0.00023410833540240587,"163":0.00022387465421625213,"164":-0.011857806078957955,"165":0.017623220289146934,"166":0.0061389680021392366,"167":0.00587061266861672,"168":-0.01848587503101002,"169":0.027473939638018665,"170":0.009570420747232812,"171":0.00915206505199087,"172":0.0058706549540543,"173":-0.00872504110093093,"174":-0.0030393281023874162,"175":-0.002906468619877498,"176":0.0038146412601787073,"177":-0.005669367734154356,"178":-0.0019748982853663452,"179":-0.001888568686272274,"180":-0.01216923959906168,"181":0.018086076698417053,"182":0.00630020190604905,"183":0.0060247984908227015,"184":-0.006611159318565264,"185":0.00982558798552338,"186":0.003422698565547327,"187":0.0032730806450992724,"188":-0.0190207891430281,"189":0.028268935714073334,"190":0.009847353961823587,"191":0.009416892592800584,"192":-0.006648673997034551,"193":0.009881342771719875,"194":0.0034421204897528354,"195":0.003291653570408917,"196":0.013649014131757908,"197":-0.02028533619652054,"198":-0.007066303844363748,"199":-0.006757411516076313,"200":-0.006110594328217458,"201":0.009081642011555358,"202":0.003163548395320712,"203":0.003025258817600631,"204":-0.0030788204383943134,"205":0.004575781590307639,"206":0.0015939525613852578,"207":0.0015242754097697635,"208":-0.0044391652414606025,"209":0.006597543116390882,"210":0.002298223927736585,"211":0.002197760653574738,"212":0.004230912611970748,"213":-0.006288035443698949,"214":-0.002190408347882742,"215":-0.0020946580632101837,"216":-0.0032999871926596433,"217":0.004904482397315275,"218":0.0017084539819327725,"219":0.0016337715794492826,"220":-0.0070569627788395345,"221":0.010488146685988797,"222":0.0036534978516673984,"223":0.003493790903316408,"224":0.0057317227965342,"225":-0.008518558383966824,"226":-0.0029674007941859195,"227":-0.002837685501153657,"228":0.013330917772124818,"229":-0.01981257739101224,"230":-0.006901620487991572,"231":-0.0065999270267654755,"232":0.01708078876553162,"233":-0.025385682773048302,"234":-0.008842986097200536,"235":-0.008456429002912673,"236":-0.0003219739612374462,"237":0.0004785217435553034,"238":0.00016669085804218685,"239":0.00015940422685356963,"240":0.0022641692712334453,"241":-0.0033650367975598143,"242":-0.0011721951581384542,"243":-0.0011209544734541502,"244":-0.013459432464740538,"245":0.020003577541524743,"246":0.00696815451234092,"247":0.006663552623599104,"248":1.1826639828145875,"249":2.2493936405507564,"250":-2.655358121179242,"251":-1.4042363152336208,"252":-0.003849410850422622,"253":0.005721042735724028,"254":0.0019928990354487874,"255":0.001905782561688397,"256":-0.001083332279918331,"257":0.001610062035602191,"258":0.000560857736984357,"259":0.0005363407147773814,"260":-0.024215872014436996,"261":0.035989933191746294,"262":0.012536927713765855,"263":0.01198889621077922,"264":-0.005339838868955455,"265":0.007936135570275801,"266":0.0027645164759442353,"267":0.0026436699528988683,"268":-12.278936620633653,"269":-4.953679987198306,"270":-19.014048319232984,"271":7.948915420335274,"272":0.00011024899250786044,"273":-0.00016385343683469598,"274":-0.00005707759437731675,"275":-0.00005458253625393698,"276":-0.019416371403329555,"277":0.028856855041248918,"278":0.010052152945459676,"279":0.009612739131426622,"280":0.004489580576750996,"281":-0.006672471020698215,"282":-0.0023243247199309877,"283":-0.0022227204904595767,"284":0.007214677261621917,"285":-0.010722543930693067,"286":-0.0037351490572782526,"287":-0.0035718728549623533,"288":-0.11117837910385152,"289":0.1652347197921169,"290":0.05755869006248814,"291":0.05504267522887229,"292":0.005347057087058474,"293":-0.007946863376652454,"294":-0.0027682534581384014,"295":-0.002647243578771067,"296":0.01171441885787069,"297":-0.01741011640021261,"298":-0.0060647342412654,"299":-0.005799623917751878,"300":-0.07485076710736302,"301":1.225371258903219,"302":7.271684580773824,"303":-5.015063279420176,"304":-0.0070542205392903345,"305":0.010484071135137125,"306":0.003652078152211868,"307":0.003492433263789007,"308":0.008923617071920485,"309":-0.013262391736526503,"310":-0.004619893392981311,"311":-0.00441794198825637,"312":-0.008819180801519708,"313":0.013107177239961678,"314":0.00456582513510634,"315":0.004366237238724124,"316":-0.0012601850425974035,"317":0.0018729028318806209,"318":0.0006524171246890482,"319":0.0006238977265178017,"320":0.004427482104608115,"321":-0.006580179491711156,"322":-0.0022921753886278313,"323":-0.002191976516893751,"324":-0.015120661678562478,"325":0.022472517268300234,"326":0.007828198309582184,"327":0.0074860010006909785,"328":-0.01705914899889719,"329":0.025353521479957297,"330":0.008831782858966188,"331":0.008445715495770367,"332":0.01208668002008045,"333":-0.017963375615155097,"334":-0.0062574595473901375,"335":-0.005983924545833824,"336":-0.02044564064432988,"337":0.030386567924762038,"338":0.01058502136261363,"339":0.010122314101668754,"340":-0.023703196945306905,"341":0.035227989056513795,"342":0.01227150800716929,"343":0.011735078865797562,"344":0.017972838441866108,"345":-0.026711458211783567,"346":-0.009304813859391648,"347":-0.008898068728040527,"348":-0.008507479948224076,"349":0.012643923517542873,"350":0.00440445282578083,"351":0.004211919064749967,"352":0.014781415508107831,"353":-0.02196832534775077,"354":-0.007652565374193175,"355":-0.0073180455732631475,"356":-0.007442139946457277,"357":0.011060601829127593,"358":0.003852909976295296,"359":0.003684486040818046,"360":0.01143986211929894,"361":-0.017002066726942655,"362":-0.005922592011651453,"363":-0.00566369520835298,"364":0.002405926577088038,"365":-0.003575718285304017,"366":-0.0012455850894928552,"367":-0.0011911362784097661,"368":-0.012087631052269386,"369":0.017964789051139726,"370":0.0062579519113219835,"371":0.005984395386865833,"372":0.011596611964650744,"373":-0.017235030315858473,"374":-0.006003743807938921,"375":-0.0057412995836313065,"376":0.013329058055462807,"377":-0.01980981345674823,"378":-0.006900657684196938,"379":-0.0065990063103856305,"380":-0.011636820979828535,"381":0.017294789459238288,"382":0.006024560631070943,"383":0.005761206432642034,"384":0.018576653920776308,"385":-0.027608856364866027,"386":-0.009617418366569909,"387":-0.009197008248630062,"388":-0.009410738619675913,"389":0.013986357898096626,"390":0.00487208368398377,"391":0.004659108180139314,"392":-0.010470490080371573,"393":0.015561373827975386,"394":0.005420733255030492,"395":0.0051837744067442446,"396":0.013396170964568507,"397":-0.019909557505302974,"398":-0.006935403064968029,"399":-0.006632232852891642}},"b1":{"n":100,"d":1,"w":{"0":-6.876819390030861e-7,"1":0.000008402083475008185,"2":-0.00003070910159063558,"3":-0.00006386208660295145,"4":0.00000892260824154571,"5":-0.000048825044390870815,"6":0.000021994799029320275,"7":0.000024454481123244147,"8":0.21864711923581198,"9":-0.000010313353865235809,"10":-0.000025632078436353056,"11":0.00004110201823303912,"12":-0.000022543779441165935,"13":-0.00005116908751905878,"14":-0.00001462523563830298,"15":0.00007613676411095694,"16":0.00000391664204645745,"17":-0.000012180838008653798,"18":0.00006430334585781862,"19":0.00007155021110111264,"20":-0.00004494831891468625,"21":-0.000029535991975925404,"22":0.000037113570077827645,"23":-0.00002559355925075221,"24":-0.000023473334463169756,"25":0.00004860011187067926,"26":0.00005291715383969528,"27":0.00002653370754570742,"28":-0.000029003857542681278,"29":0.000005743416471734433,"30":0.000012209596682366308,"31":-2.5493513924917563e-7,"32":-0.0000538087034727486,"33":0.00007491912222729378,"34":-1.8391973390394198,"35":-0.00003452751912072466,"36":0.00005706695689798502,"37":0.000013531246175973964,"38":-0.00003791240126013706,"39":0.000007246947506817392,"40":-0.000001696679920242511,"41":-0.00004449161505791339,"42":-0.00006936070298084868,"43":0.000022027264654381375,"44":0.000014312903762663547,"45":-0.000045660141830861264,"46":-0.000024805707653850646,"47":-0.00007136774411369684,"48":-0.00002494646629683656,"49":0.0000512123883772732,"50":-0.000022927540103838524,"51":-0.000011552032953459128,"52":-0.000016656177927766875,"53":0.0000158747940084294,"54":-0.000012381871999495496,"55":-0.000026478404597092527,"56":0.000021505977915216983,"57":0.000050018862573420786,"58":0.00006408870308967777,"59":-0.000001208077582351843,"60":0.000008495382896896527,"61":-0.000050501061133484075,"62":0.41281675799152145,"63":-0.000014443362619887323,"64":-0.0000040647679424240454,"65":-0.00009086008845213671,"66":-0.000020035591894896635,"67":4.788884407946342,"68":4.1366493073897145e-7,"69":-0.00007285200051957904,"70":0.00001684534111787914,"71":0.000027070164292288704,"72":-0.00041713121408400427,"73":0.000020062675341065052,"74":0.00004395361318284556,"75":-3.020193640142096,"76":-0.000026468115454117622,"77":0.000033482267391390865,"78":-0.000033090412733693566,"79":-0.0000047283366784285745,"80":0.00001661234167375332,"81":-0.00005673413904073842,"82":-0.00006400750887055478,"83":0.00004535037082375751,"84":-0.00007671390004875979,"85":-0.00008893649521403292,"86":0.00006743574763464458,"87":-0.000031920881917286025,"88":0.00005546125791075596,"89":-0.00002792362582680667,"90":0.00004292345130499941,"91":0.000009027270045147824,"92":-0.00004535393918256095,"93":0.000043511591004511596,"94":0.00005001188475091773,"95":-0.0000436624588882532,"96":0.00006970131277239158,"97":-0.0000353099928951417,"98":-0.00003928627855008112,"99":0.00005026369835930571}},"W2":{"n":3,"d":100,"w":{"0":-6.153596591066155e-8,"1":7.518451650777051e-7,"2":-0.0000027479493608529494,"3":-0.000005714594500235049,"4":7.984233812213901e-7,"5":-0.000004369025533400858,"6":0.0000019681650236675224,"7":0.000002188265379567364,"8":0.3503982577130968,"9":-9.228717383116022e-7,"10":-0.0000022936406324745065,"11":0.0000036779424417692873,"12":-0.000002017289573548174,"13":-0.000004578778772916024,"14":-0.0000013087127193913599,"15":0.000006812979987953068,"16":3.504735832560994e-7,"17":-0.0000010899801884897067,"18":0.000005754080031239544,"19":0.00000640255719056871,"20":-0.000004022122637162785,"21":-0.000002642975636474927,"22":0.0000033210425794879063,"23":-0.000002290193809767537,"24":-0.0000021004691797689375,"25":0.000004348897782776191,"26":0.0000047352019577421866,"27":0.0000023743213559547704,"28":-0.000002595358492957444,"29":5.13939171705711e-7,"30":0.0000010925536066270216,"31":-2.281240664539569e-8,"32":-0.000004814981003487237,"33":0.0000067040205623959815,"34":-0.16884996800427776,"35":-0.00000308963406096741,"36":0.0000051065412602670715,"37":0.0000012108190348113512,"38":-0.000003392524688180291,"39":6.484799169316994e-7,"40":-1.5182431287174e-7,"41":-0.00000398125519812936,"42":-0.000006206631543203004,"43":0.0000019710701531023344,"44":0.000001280764261288333,"45":-0.000004085819016168846,"46":-0.0000022196942754434376,"47":-0.000006386229335987287,"48":-0.0000022322898182710598,"49":0.000004582653486945156,"50":-0.000002051629724944836,"51":-0.0000010337127010852284,"52":-0.0000014904479600863422,"53":0.00000142052721457303,"54":-0.0000011079693532054522,"55":-0.00000236937266693233,"56":0.0000019244237245431906,"57":0.000004475852581868838,"58":0.000005734872991911927,"59":-1.0810262237163938e-7,"60":7.6019389484453e-7,"61":-0.000004519001409995826,"62":-0.6857147292275835,"63":-0.0000012924381382865887,"64":-3.637283596121835e-7,"65":-0.00000813048406290357,"66":-0.0000017928488217933823,"67":0.4754784160552738,"68":3.701605295855039e-8,"69":-0.000006519046382987556,"70":0.0000015073748909901177,"71":0.000002422325264142419,"72":-0.00003732956570982192,"73":0.000001795272336156245,"74":0.000003933112934925996,"75":0.6150074208558166,"76":-0.0000023684519607258163,"77":0.0000029961014467464524,"78":-0.000002961036986390406,"79":-4.2310660121944494e-7,"80":0.0000014865253510602431,"81":-0.0000050767595116192425,"82":-0.000005727607429141971,"83":0.0000040580996331201465,"84":-0.000006864624411633606,"85":-0.000007958352678452456,"86":0.000006034379176301171,"87":-0.0000028563834806124206,"88":0.0000049628575088527445,"89":-0.000002498695804325155,"90":0.000003840930506996405,"91":8.077888532702419e-7,"92":-0.0000040584189422497674,"93":0.000003893559268540906,"94":0.00000447522818170744,"95":-0.0000039070594459510405,"96":0.0000062371106174802955,"97":-0.000003159652433366103,"98":-0.0000035154638780360126,"99":0.0000044977613512689444,"100":2.0119474961913215e-7,"101":-0.000002458193277889232,"102":0.000008984548755893335,"103":0.00001868412259415269,"104":-0.0000026104829511041354,"105":0.000014284729143945997,"106":-0.000006435008005652948,"107":-0.000007154636306088774,"108":0.18599076388021427,"109":0.000003017372716650245,"110":0.0000074991655555141395,"111":-0.000012025202879821639,"112":0.0000065956229992444725,"113":0.000014970526312532372,"114":0.000004278897933464852,"115":-0.00002227533595376058,"116":-0.0000011458899456548625,"117":0.0000035637416555533813,"118":-0.00001881322210634981,"119":-0.00002093344333040543,"120":0.000013150515127445114,"121":0.00000864133237654227,"122":-0.000010858302911835797,"123":0.000007487896010046844,"124":0.000006867582572976828,"125":-0.000014218920599584706,"126":-0.000015481958531525226,"127":-0.000007762954894230813,"128":0.000008485645949512247,"129":-0.0000016803484077911573,"130":-0.0000035721555670884524,"131":7.458624197355886e-8,"132":0.000015742799475553928,"133":-0.00002191908910378338,"134":-0.15945326657211356,"135":0.000010101702366896452,"136":-0.00001669606787103506,"137":-0.000003958829939447303,"138":0.000011092016860706853,"139":-0.0000021202357241726614,"140":4.963967681048909e-7,"141":0.00001301689725396349,"142":0.00002029285695187832,"143":-0.000006444506461338439,"144":-0.00000418751913922316,"145":0.000013358773209499103,"146":0.000007257394531811953,"147":0.00002088005879075892,"148":0.0000072985762402680945,"149":-0.000014983194854830012,"150":0.000006707899714967601,"151":0.0000033797724600311952,"152":0.0000048730898125296724,"153":-0.0000046444806636360515,"154":0.0000036225580750932294,"155":0.000007746774927978742,"156":-0.000006291993798510588,"157":-0.000014634004749586823,"158":-0.000018750423928723345,"159":3.534466342566611e-7,"160":-0.00000248548984345896,"161":0.000014775081682701593,"162":-0.1411918374140877,"163":0.000004225687427407008,"164":0.0000011892270631825657,"165":0.00002658296088264333,"166":0.000005861803538143694,"167":-0.2036730140756606,"168":-1.210257350637105e-7,"169":0.000021314309135324672,"170":-0.000004928433204547422,"171":-0.00000791990587798765,"172":0.00012204679528631162,"173":-0.000005869727331123366,"174":-0.000012859494021410795,"175":-0.5120012437678052,"176":0.000007743764636663133,"177":-0.00000979589326162088,"178":0.00000968124842229291,"179":0.0000013833670291190728,"180":-0.000004860264658853792,"181":0.000016598695213312526,"182":0.000018726668882410465,"183":-0.000013268143481949231,"184":0.000022444189284234917,"185":0.000026020171741431364,"186":-0.000019729671176466635,"187":0.000009339079040968908,"188":-0.00001622628788925415,"189":0.000008169602863355417,"190":-0.000012558099535281165,"191":-0.0000026411038033272304,"192":0.000013269187476948551,"193":-0.000012730171578502777,"194":-0.000014631963246656194,"195":0.000012774310999547934,"196":-0.000020392509455089572,"197":0.000010330630588575806,"198":0.000011493972017015591,"199":-0.000014705636405585107,"200":-2.6798851328082706e-7,"201":0.0000032742780802231015,"202":-0.000011967288921886144,"203":-0.000024886975221601914,"204":0.000003477125731677581,"205":-0.00001902705049946773,"206":0.000008571337825349715,"207":0.000009529872260089464,"208":0.10849572923400938,"209":-0.000004019097037291137,"210":-0.000009988780203051213,"211":0.00001601739534092732,"212":-0.000008785274663946346,"213":-0.000019940521967058943,"214":-0.000005699430427545016,"215":0.000029670414638990927,"216":0.0000015263089278863941,"217":-0.000004746852586900396,"218":0.000025058933761052254,"219":0.000027883035091966314,"220":-0.00001751629446586616,"221":-0.000011510129730753587,"222":0.000014463101883711371,"223":-0.00000997376933268061,"224":-0.000009147520863446909,"225":0.00001893939451015449,"226":0.000020621741925020506,"227":0.0000103401437566432,"228":-0.000011302757687582592,"229":0.000002238199910206629,"230":0.000004758059795707979,"231":-9.934780175020112e-8,"232":-0.000020969178095307794,"233":0.00002919589954923782,"234":0.06846052888739426,"235":-0.000013455321120563684,"236":0.00002223891703688415,"237":0.0000052731044806106825,"238":-0.000014774405407020531,"239":0.0000028241234845747723,"240":-6.611933567373025e-7,"241":-0.000017338317457598646,"242":-0.000027029784173191075,"243":0.000008583989630374994,"244":0.000005577715193219217,"245":-0.00001779369111194938,"246":-0.000009666744720940267,"247":-0.00002781192773223824,"248":-0.000009721598156978276,"249":0.000019957396273537027,"250":-0.000008934825617851073,"251":-0.0000045018082715020626,"252":-0.00000649088542354178,"253":0.00000618638134224869,"254":-0.0000048251952093495695,"255":-0.000010318592277573391,"256":0.000008380844977678848,"257":0.000019492280335193246,"258":0.000024975287566836487,"259":-4.7078583417897205e-7,"260":0.0000033106367124679873,"261":-0.000019680192677645545,"262":0.07917486040090543,"263":-0.0000056285548019287035,"264":-0.000001584033345040195,"265":-0.0000354081003345248,"266":-0.000007807837791105867,"267":-0.03297809709734583,"268":1.6120453873963185e-7,"269":-0.000028390342289278096,"270":0.000006564602021349649,"271":0.00001054920017721717,"272":-0.00016256252049858222,"273":0.000007818392168482315,"274":0.000017128658704932324,"275":-0.3912520432277699,"276":-0.00001031458261344643,"277":0.00001304798789287023,"278":-0.00001289528265246683,"279":-0.0000018426249868154727,"280":0.000006473802504309608,"281":-0.00002210921814878652,"282":-0.000024943646215130338,"283":0.000017672973672739507,"284":-0.000029895324559917876,"285":-0.00003465847461553236,"286":0.000026279629586065418,"287":-0.000012439518062228264,"288":0.000021613177289597744,"289":-0.000010881792916101052,"290":0.000016727205749038213,"291":0.0000035179122657905483,"292":-0.000017674364258441658,"293":0.00001695640314263945,"294":0.000019489561084118663,"295":-0.000017015196192338002,"296":0.000027162519734249933,"297":-0.000013760250138567986,"298":-0.000015309803720714062,"299":0.00001958769261848716}},"b2":{"n":3,"d":1,"w":{"0":1.6726612485365087,"1":2.0457136200845114,"2":1.7875086717047342}}}}},"weights":{"nh":100,"ns":4,"na":3,"net":{"W1":{"n":100,"d":4,"w":{"0":-0.0001785303120696056,"1":0.0002779005666150251,"2":0.00009471890173483381,"3":0.00009209797947075562,"4":0.0021812796478947287,"5":-0.003395383352915516,"6":-0.0011572735738444816,"7":-0.0011252512003405593,"8":-0.007972445978290863,"9":0.012409921901988658,"10":0.0042297652533321165,"11":0.004112725418204234,"12":-0.01657936927873432,"13":0.02580747123871675,"14":0.008796150538663897,"15":0.008552756508214673,"16":0.0023164140032986944,"17":-0.003605733704071838,"18":-0.0012289688367679704,"19":-0.0011949626173557977,"20":-0.012675564712042125,"21":0.019730803555380875,"22":0.006724995256869909,"23":0.006538911124572758,"24":0.005710109145397509,"25":-0.008888364891394622,"26":-0.003029487008071784,"27":-0.0029456595002349643,"28":0.006348671843674699,"29":-0.009882352580137374,"30":-0.0033682751639428662,"31":-0.003275073209951023,"32":16.065179361326624,"33":8.153434469173597,"34":28.559883230589353,"35":-17.648504297200517,"36":-0.0026774679407501616,"37":0.0041677508332816394,"38":0.0014205252834317203,"39":0.0013812185956905672,"40":-0.006654390123833198,"41":0.010358234128772221,"42":0.0035304733819081675,"43":0.0034327833182067895,"44":0.010670572553018214,"45":-0.016609829809019046,"46":-0.0056612508078203285,"47":-0.005504601026846617,"48":-0.005852630977578886,"49":0.009110214597255674,"50":0.003105101679856473,"51":0.003019181874315619,"52":-0.013284107281667894,"53":0.02067806179916985,"54":0.007047856249698928,"55":0.006852838390655384,"56":-0.003796883281426006,"57":0.005910234516359066,"58":0.0020144288579275918,"59":0.0019586885441334762,"60":0.019766034504288113,"61":-0.030767838511004383,"62":-0.010486828852410215,"63":-0.010196652940599337,"64":0.0010168063030531987,"65":-0.0015827623019907865,"66":-0.000539464560121429,"67":-0.000524537289557357,"68":-0.0031622888262053304,"69":0.0049224237882898045,"70":0.0016777460369864707,"71":0.0016313219148577586,"72":0.016693925808411298,"73":-0.025985790088266392,"74":-0.008856928260074446,"75":-0.008611852480369577,"76":0.018575305345172956,"77":-0.0289143479749411,"78":-0.009855090107276787,"79":-0.009582394706625275,"80":-0.011669119144390889,"81":0.01816416891278195,"82":0.006191027646008823,"83":0.0060197186688415285,"84":-0.007667892677865609,"85":0.011935853767334458,"86":0.004068185116175458,"87":0.003955616287676392,"88":0.00963512305590919,"89":-0.014998047569070395,"90":-0.005111895196648584,"91":-0.004970446368334551,"92":-0.006644390084462079,"93":0.010342668052007445,"94":0.003525167881165792,"95":0.003427624623449282,"96":-0.006093954504187371,"97":0.009485859174035549,"98":0.0032331353918598565,"99":0.0031436728262697455,"100":0.012617169456511135,"101":-0.019639905415774015,"102":-0.006694013775400183,"103":-0.006508786916384125,"104":0.0137379269944159,"105":-0.02138447821498574,"106":-0.007288629349569212,"107":-0.007086949177750663,"108":0.006888463784956943,"109":-0.010722593551709682,"110":-0.00365466069104319,"111":-0.0035535342994707196,"112":-0.007529744214884604,"113":0.011720811657538579,"114":0.00399489072847974,"115":0.0038843499939352866,"116":0.0014910584200780656,"117":-0.0023209838980987802,"118":-0.0007910780764807287,"119":-0.0007691885264856457,"120":0.0031697549168761196,"121":-0.004934045516795221,"122":-0.0016817071564908606,"123":-0.0016351734280898745,"124":-0.0000661841577921303,"125":0.00010302236487599887,"126":0.000035113873188833435,"127":0.000034142253687997224,"128":-0.013969384374733551,"129":0.021744765103407022,"130":0.007411428577636158,"131":0.007206350489586641,"132":0.01944991866879171,"133":-0.03027577220045935,"134":-0.01031911429177853,"135":-0.010033579121099657,"136":18.269333241963114,"137":13.15266421104203,"138":-3.289853447623857,"139":3.7543938714776015,"140":-0.008963753029987392,"141":0.013952991970759282,"142":0.004755701197523286,"143":0.004624108441488424,"144":0.01481526769386064,"145":-0.02306146827416951,"146":-0.00786021019280799,"147":-0.007642714093413676,"148":0.003512870709047054,"149":-0.00546814009934472,"150":-0.0018637465550118515,"151":-0.0018121757001798766,"152":-0.00984250929182267,"153":0.015320865296304557,"154":0.005221923540549184,"155":0.0050774301711604235,"156":0.0018813927597247605,"157":-0.002928578948691541,"158":-0.0009981691828776017,"159":-0.0009705493121854351,"160":-0.00044047804470556456,"161":0.0006856488222232081,"162":0.0002336947499101379,"163":0.00022722829219536645,"164":-0.011550553233819535,"165":0.017979609041665054,"166":0.006128122746912404,"167":0.005958554380396436,"168":-0.018006880657566875,"169":0.028029537361843247,"170":0.009553513625018908,"171":0.009289162990388445,"172":0.005718537606992807,"173":-0.008901484647841046,"174":-0.003033958711444884,"175":-0.002950007469225203,"176":0.0037157982404725986,"177":-0.005784017414086043,"178":-0.001971409351463066,"179":-0.001916859410145249,"180":-0.011853917094188374,"181":0.018451825673220436,"182":0.00628907181643305,"183":0.00611504990710194,"184":-0.006439854430121277,"185":0.010024287535600225,"186":0.0034166519016527275,"187":0.0033221113379609626,"188":-0.018527934543842398,"189":0.028840610523928,"190":0.00982995763186348,"191":0.009557957658833839,"192":-0.006476397049090804,"193":0.010081169832932092,"194":0.0034360395145788753,"195":0.003340962485473491,"196":0.013295348720950527,"197":-0.02069556023973692,"198":-0.007053820371846259,"199":-0.006858637482537752,"200":-0.0059522598034241255,"201":0.009265296982559946,"202":0.003157959553209741,"203":0.0030705771425477164,"204":-0.0029990436234356536,"205":0.004668316048298533,"206":0.0015911366204180244,"207":0.0015471090266723003,"208":-0.004324139885939365,"209":0.006730962975137981,"210":0.002294163795263331,"211":0.002230683068037237,"212":0.0041212833883051934,"213":-0.006415196232502304,"214":-0.0021865386861790307,"215":-0.002126036002532014,"216":-0.003214479619896902,"217":0.005003664060001224,"218":0.0017054357584118478,"219":0.0016582454470429968,"220":-0.0068741064801719695,"221":0.010700244948893092,"222":0.0036470434519383747,"223":0.0035461278333587826,"224":0.005583205383817095,"225":-0.008690826298385482,"226":-0.002962158472165877,"227":-0.0028801939803144946,"228":0.012985494651675124,"229":-0.020213240948537176,"230":-0.006889427941472788,"231":-0.006698793873642553,"232":0.016638201807819806,"233":-0.025899050033372145,"234":-0.008827364010965356,"235":-0.008583106288478066,"236":-0.0003136311361627685,"237":0.000488198723434426,"238":0.00016639637505883544,"239":0.00016179209907997796,"240":0.002205501275767283,"241":-0.003433086777140939,"242":-0.0011701243102394527,"243":-0.0011377463500508958,"244":-0.013110679361132083,"245":0.020408103648106246,"246":0.006955844428217447,"247":0.006763372582670078,"248":0.78850016998442,"249":1.3134229108773827,"250":-1.4582668286908895,"251":0.053957957687891606,"252":-0.0037496668993573638,"253":0.005836737421777164,"254":0.0019893783007658905,"255":0.0019343311491251877,"256":-0.0010552615267903577,"257":0.0016426217641515117,"258":0.00055986690251427,"259":0.0005443750883150321,"260":-0.02358840761796662,"261":0.03671774907668933,"262":0.01251478031158597,"263":0.012168490051311593,"264":-0.005201475740206937,"265":0.008096625339479756,"266":0.0027596325756088446,"267":0.002683272081875389,"268":-2.172434548020066,"269":-3.681028865113603,"270":-7.403463426234825,"271":11.48470305607419,"272":0.0001073922768382328,"273":-0.0001671669882697236,"274":-0.000056976758731179255,"275":-0.00005540018158803071,"276":-0.018913266830524675,"277":0.029440419260956696,"278":0.010034394835493413,"279":0.009756737987400038,"280":0.004373248885819248,"281":-0.006807406121392551,"282":-0.0023202184768970273,"283":-0.002256016802881299,"284":0.007027734354071725,"285":-0.010939382334704992,"286":-0.003728550410592441,"287":-0.0036253794518181694,"288":-0.10829805809776762,"289":0.168576581137674,"290":0.057457086784207974,"291":0.05586725264261382,"292":0.005208506923737898,"293":-0.008107570090747194,"294":-0.002763362955932241,"295":-0.0026868992406114097,"296":0.011410881368536609,"297":-0.01776219561000028,"298":-0.006054020126884716,"299":-0.005886502217704421,"300":-0.6115078699396117,"301":3.435319736541723,"302":-1.6623047401307607,"303":-2.2311962723233627,"304":-0.006871435295993716,"305":0.010696086979472837,"306":0.0036456262605584783,"307":0.0035447498564060782,"308":0.00869239310384051,"309":-0.01353059269716815,"310":-0.004611731740409693,"311":-0.004484122693941015,"312":-0.00859066292425786,"313":0.013372239344695575,"314":0.004557759000278073,"315":0.004431643407555191,"316":-0.0012275317711260907,"317":0.0019107778992309126,"318":0.0006512645376500426,"319":0.0006332437024134972,"320":0.0043127594763321345,"321":-0.006713248211687284,"322":-0.0022881259417133837,"323":-0.0022248122850813744,"324":-0.014728864004452013,"325":0.022926972169829772,"326":0.00781436889771327,"327":0.0075981412497641366,"328":-0.016617122753215054,"329":0.025866238348363876,"330":0.008816180563697958,"331":0.008572232292663075,"332":0.01177349674426715,"333":-0.01832664323833918,"334":-0.006246404966006107,"335":-0.006073563670163417,"336":-0.01991586659777055,"337":0.031001067336659843,"338":0.010566321939014434,"339":0.010273946416050264,"340":-0.02308901641726773,"341":0.03594039616589149,"342":0.012249829453331241,"343":0.011910870502070058,"344":0.017507137433316656,"345":-0.027251636396641295,"346":-0.009288375938548034,"347":-0.009031361791740274,"348":-0.008287038680146342,"349":0.012899617383033718,"350":0.004396671773745481,"351":0.004275013548312131,"352":0.014398408128777636,"353":-0.02241258408777236,"354":-0.007639046229064936,"355":-0.007427669846756552,"356":-0.0072493031545413315,"357":0.011284276671278065,"358":0.003846103290489814,"359":0.0037396795820661827,"360":0.01114343876583016,"361":-0.0173458940588474,"362":-0.005912129004986884,"363":-0.005748537295703665,"364":0.002343585439410063,"365":-0.0036480288044498876,"366":-0.0012433845880360128,"367":-0.0012089794771497457,"368":-0.011774423133940073,"369":0.018328085257866132,"370":0.006246896460132623,"371":0.0060740415643971086,"372":0.011296127010787057,"373":-0.0175835688070683,"374":-0.005993137438898783,"375":-0.005827304184810581,"376":0.012983683122700065,"377":-0.020210421119915518,"378":-0.006888466838548193,"379":-0.0066978593649213835,"380":-0.011335294156120418,"381":0.017644536443428623,"382":0.0060139174871469605,"383":0.005847509238501142,"384":0.018095307363502684,"385":-0.028167182488735645,"386":-0.009600428222038633,"387":-0.009334779437927616,"388":-0.009166892649114014,"389":0.014269199410019362,"390":0.004863476508973463,"391":0.004728901554228463,"392":-0.01019918447957477,"393":0.0158760664292287,"394":0.005411156831849639,"395":0.005261427279763841,"396":0.013049057048811988,"397":-0.02031218226777838,"398":-0.006923150838851478,"399":-0.006731583641422466}},"b1":{"n":100,"d":1,"w":{"0":2.3935848795470255e-8,"1":-2.924476557622802e-7,"2":0.0000010688764138146567,"3":0.0000022228017036461337,"4":-3.105653286559055e-7,"5":0.0000016994240435471226,"6":-7.655627363698945e-7,"7":-8.511755490261417e-7,"8":-8.5545894884881,"9":3.5897238473991045e-7,"10":8.921635143817375e-7,"11":-0.0000014306153213632724,"12":7.84670803127821e-7,"13":0.0000017810108990944376,"14":5.090540512913978e-7,"15":-0.00000265002832149311,"16":-1.3632486714907988e-7,"17":4.23973050094478e-7,"18":-0.0000022381600399352375,"19":-0.0000024903914549533335,"20":0.0000015644903398566449,"21":0.000001028044718990644,"22":-0.0000012917924208174995,"23":8.908227990576823e-7,"24":8.170253196947e-7,"25":-0.0000016915950275033145,"26":-0.0000018418540855370167,"27":-9.235460000171335e-7,"28":0.0000010095230418866396,"29":-1.9990860797478306e-7,"30":-4.24974039946559e-7,"31":8.873417498139474e-9,"32":0.0000018728853307648422,"33":-0.000002607647858862559,"34":0.2835889017369703,"35":0.0000012017815640940381,"36":-0.000001986291828446783,"37":-4.7097607767562287e-7,"38":0.000001319596754956484,"39":-2.522413510847908e-7,"40":5.905560626565801e-8,"41":0.0000015485942393294872,"42":0.0000024141844953335216,"43":-7.666927500174014e-7,"44":-4.981828642174209e-7,"45":0.000001589266143362912,"46":8.634004942678974e-7,"47":0.0000024840406027828058,"48":8.682998012195436e-7,"49":-0.000001782518029339913,"50":7.980281530450958e-7,"51":4.020865223777161e-7,"52":5.797440785689484e-7,"53":-5.525468291852441e-7,"54":4.309703471203192e-7,"55":9.216211023632411e-7,"56":-7.485485996161321e-7,"57":-0.0000017409761398287191,"58":-0.0000022306892492653305,"59":4.204903552923103e-8,"60":-2.956950871157797e-7,"61":0.000001757759558863409,"62":0.4214046289925467,"63":5.027236836877847e-7,"64":1.4148062086311667e-7,"65":0.0000031624748939595597,"66":6.973696418303182e-7,"67":4.5052250462525985,"68":-1.4398256924412633e-8,"69":0.000002535700838527063,"70":-5.863281889384439e-7,"71":-9.422181369843605e-7,"72":0.000014513773076004039,"73":-6.983123213691122e-7,"74":-0.000001529868463147239,"75":-0.21382883048398574,"76":9.21262974113281e-7,"77":-0.0000011654001941250343,"78":0.000001151761170055491,"79":1.6457716909244238e-7,"80":-5.782182915322715e-7,"81":0.0000019747078093511966,"82":0.0000022278632277500646,"83":-0.0000015784842134750741,"84":0.0000026701157282947822,"85":0.0000030955245110478115,"86":-0.0000023471853148520186,"87":0.0000011110540771775326,"88":-0.0000019304040342939266,"89":9.71924067850002e-7,"90":-0.0000014940124751087938,"91":-3.142082451425883e-7,"92":0.0000015786084142655904,"93":-0.0000015144833670280994,"94":-0.000001740733269490026,"95":0.0000015197344996824078,"96":-0.00000242603960421365,"97":0.0000012290165890497424,"98":0.0000013674162752914849,"99":-0.0000017494979029471753}},"W2":{"n":3,"d":100,"w":{"0":0.000002646911613111719,"1":-0.000032339910352109854,"2":0.00011820039144035874,"3":0.00024580734176968386,"4":-0.000034343428196870776,"5":0.00018792926875817726,"6":-0.0000846587419016687,"7":-0.00009412614286467647,"8":-0.6535530141945362,"9":0.000039696456232233966,"10":0.00009865875536751497,"11":-0.00015820308112538155,"12":0.00008677178639700237,"13":0.00019695156911349538,"14":0.00005629303826265798,"15":-0.00029305297129489887,"16":-0.000015075290948662834,"17":0.000046884467297303934,"18":-0.00024750576304445967,"19":-0.00027539918208499623,"20":0.00017300762224127088,"21":0.00011368505240365065,"22":-0.00014285140895831862,"23":0.00009851049369972671,"24":0.00009034967564697768,"25":-0.00018706349595522736,"26":-0.00020367993463575243,"27":-0.00010212915675253222,"28":0.00011163684875382169,"29":-0.000022106608992842776,"30":-0.00004699516042689052,"31":9.812541851219632e-7,"32":0.00020711153882352654,"33":-0.00028836622889457395,"34":0.058573586183913305,"35":0.0001328976108381128,"36":-0.0002196526642549537,"37":-0.00005208223501890678,"38":0.00014592613730955866,"39":-0.0000278937520168404,"40":0.000006530579806524559,"41":0.0001712497537182264,"42":0.00026697169478527745,"43":-0.00008478370320986503,"44":-0.000055090862082300385,"45":0.00017574745259605937,"46":0.0000954780258473744,"47":0.00027469686078393095,"48":0.00009601981069928662,"49":-0.00019711823556160194,"50":0.00008824889438875538,"51":0.00004446417489357022,"52":0.00006411020526835632,"53":-0.00006110263158715193,"54":0.00004765825407955154,"55":0.00010191629380591404,"56":-0.0000827772526078987,"57":-0.0001925243148825594,"58":-0.00024667959602510994,"59":0.000004649932477169138,"60":-0.00003269902305676859,"61":0.00019438031325260188,"62":0.21662548751792648,"63":0.000055593002731272634,"64":0.000015645432654028364,"65":0.0003497235064580009,"66":0.00007711768617407943,"67":0.044834133922915985,"68":-0.0000015922106529523048,"69":0.00028040981134104753,"70":-0.00006483830091601229,"71":-0.000104193997170919,"72":0.0016055405109309893,"73":-0.00007722193129159154,"74":-0.00016917896637360673,"75":-0.61034672890342,"76":0.0001018766905416219,"77":-0.00012887440130356055,"78":0.00012736613936002513,"79":0.00001819953170697696,"80":-0.00006394147801348131,"81":0.00021837163731757144,"82":0.0002463670768254354,"83":-0.00017455513356971482,"84":0.00029527438586677646,"85":0.00034231953704293134,"86":-0.0002595624793670242,"87":0.0001228645753262312,"88":-0.00021347227570299364,"89":0.00010747899987552632,"90":-0.00016521383856086307,"91":-0.000034746275101604836,"92":0.0001745688683028639,"93":-0.00016747760810629933,"94":-0.0001924974570104801,"95":0.00016805830367838166,"96":-0.00026828271286852875,"97":0.00013590937904295374,"98":0.00015121423760367303,"99":-0.0001934666960048178,"100":-0.0000014166811163075875,"101":0.000017308980030126192,"102":-0.00006326326100227873,"103":-0.0001315610983175629,"104":0.000018381303667099572,"105":-0.00010058357666066634,"106":0.000045311086156855197,"107":0.00005037823225530491,"108":-0.5721731780712395,"109":-0.000021246353510477896,"110":-0.00005280417890770437,"111":0.00008467351574320415,"112":-0.00004644203067185071,"113":-0.00010541249542803472,"114":-0.00003012918287379852,"115":0.00015684791813410062,"116":0.000008068603386479766,"117":-0.000025093523712068583,"118":0.00013247012788640233,"119":0.00014739925206905407,"120":-0.00009259720766378735,"121":-0.00006084655949035537,"122":0.00007645698802731379,"123":-0.00005272482623949405,"124":-0.0000483569899761869,"125":0.00010012019743416396,"126":0.00010901365355552817,"127":0.000054661608502247956,"128":-0.000059750319135475556,"129":0.000011831908302498306,"130":0.000025152768933789965,"131":-5.251872663532716e-7,"132":-0.00011085031792761866,"133":0.00015433947856509448,"134":0.3466728082294136,"135":-0.0000711295124199314,"136":0.00011756258332333355,"137":0.00002787547505843059,"138":-0.00007810264529358256,"139":0.000014929305353451282,"140":-0.0000034952995953082054,"141":-0.00009165636063474152,"142":-0.00014288868983248452,"143":0.00004537796799792705,"144":0.000029485753652584096,"145":-0.00009406362065755004,"146":-0.00005110178759941492,"147":-0.00014702335545754573,"148":-0.00005139176190177729,"149":0.00010550169870253736,"150":-0.00004723260899787826,"151":-0.00002379813382954219,"152":-0.00003431309015219418,"153":0.00003270337535458885,"154":-0.00002550767018749905,"155":-0.0000545476799123236,"156":0.00004430407470787934,"157":0.00010304293886853665,"158":0.00013202794651477804,"159":-0.0000024887387624837526,"160":0.000017501184478219444,"161":-0.00010403630696740121,"162":-0.3415194893804254,"163":-0.000029754509573728594,"164":-0.00000837375486303974,"165":-0.0001871791360244051,"166":-0.00004127495930229756,"167":0.5839398816868968,"168":8.521836369820635e-7,"169":-0.00015008104250763808,"170":0.00003470278179786756,"171":0.0000557667532014551,"172":-0.0008593159051008314,"173":0.000041330753415773934,"174":0.00009054803307830451,"175":-0.30826889519200396,"176":-0.00005452648343763806,"177":0.00006897620867424805,"178":-0.00006816895613833293,"179":-0.000009740760801800921,"180":0.00003422278388288507,"181":-0.00011687695165742545,"182":-0.00013186067989036894,"183":0.00009342546723736675,"184":-0.00015803686425119247,"185":-0.0001832163818632791,"186":0.00013892312732369957,"187":-0.00006575962730428431,"188":0.00011425471368495562,"189":-0.00005752495363558961,"190":0.00008842581592071624,"191":0.000018596915551492113,"192":-0.00009343281834621598,"193":0.00008963743148546164,"194":0.00010302856398881532,"195":-0.00008994823158170222,"196":0.000143590373321342,"197":-0.0000727414721459666,"198":-0.0000809329443146822,"199":0.00010354732042376854,"200":0.000001269629310992778,"201":-0.00001551230425631812,"202":0.000056696525056524226,"203":0.00011790506560923916,"204":-0.000016473320485491938,"205":0.00009014299654643362,"206":-0.00004060778718182896,"207":-0.00004514896299873628,"208":-0.13571328206792369,"209":0.000019040977593229272,"210":0.000047323096185981584,"211":-0.00007588439659219101,"212":0.00004162133953042089,"213":0.0000944706750470804,"214":0.00002700176764693672,"215":-0.0001405671342372656,"216":-0.000007231080623760995,"217":0.00002248881080102848,"218":-0.00011871973849899485,"219":-0.00013209923089304096,"220":0.000082985610673954,"221":0.00005453067722080411,"222":-0.000068520743576166,"223":0.00004725198033087353,"224":0.00004333752585955963,"225":-0.00008972771595200239,"226":-0.00009769803423873813,"227":-0.00004898772445423093,"228":0.00005354822665334801,"229":-0.000010603753696698678,"230":-0.000022541906357814498,"231":4.7067271485824366e-7,"232":0.000099344053554447,"233":-0.00013831906822279127,"234":-0.32100830186202084,"235":0.00006374625964538586,"236":-0.0001053595887004721,"237":-0.000024981995094667992,"238":0.00006999558175106938,"239":-0.000013379640293491422,"240":0.000003132486744304869,"241":0.00008214242337313985,"242":0.00012805686127344572,"243":-0.0000406677266802021,"244":-0.000026425126489261182,"245":0.00008429981031663055,"246":0.000045797413234551824,"247":0.00013176235202663061,"248":0.000046057288179584514,"249":-0.0000945506190516809,"250":0.00004232985574178891,"251":0.00002132788262922022,"252":0.00003075138466348347,"253":-0.000029308758519278154,"254":0.000022859968796160013,"255":0.000048885621659650735,"256":-0.00003970530363807442,"257":-0.00009234707769196183,"258":-0.00011832345526532487,"259":0.0000022304071425280705,"260":-0.00001568455784414325,"261":0.00009323733449643232,"262":0.2810733677613407,"263":0.000026665985499539684,"264":0.000007504557312275381,"265":0.00016775000982127025,"266":0.00003699061078944647,"267":0.02155355063102937,"268":-7.637267917110504e-7,"269":0.0001345026538501474,"270":-0.000031100626255333714,"271":-0.000049978155062546104,"272":0.0007701292253714826,"273":-0.000037040613466636076,"274":-0.00008114913999957333,"275":-0.22411670279366214,"276":0.00004886662538048061,"277":-0.00006181646876840906,"278":0.00006109300903143016,"279":0.0000087296677453916,"280":-0.00003067045219914322,"281":0.0001047451252818229,"282":0.00011817355080810352,"283":-0.00008372789708077348,"284":0.00014163266895354334,"285":0.0001641985836516206,"286":-0.00012450292110081608,"287":0.00005893376851369867,"288":-0.00010239507443836531,"289":0.000051553854192469815,"290":-0.00007924720859718688,"291":-0.000016666551813448267,"292":0.00008373448514612555,"293":-0.00008033305868164585,"294":-0.00009233419492027931,"295":0.00008061159778522882,"296":-0.00012868571057928806,"297":0.00006519089801820783,"298":0.00007253209601164304,"299":-0.0000927991046000532}},"b2":{"n":3,"d":1,"w":{"0":0.03422705306017709,"1":0.2707131003375227,"2":0.5400226255794516}}}}}