{"numStates":1,"sensitivity":17.744865285853866,"alpha":0.08037495560738364,"gamma":0.4005315720426754,"epsilon":0.1684886691534052,"cycles":3047,"max":{"lastUpdatedDate":"2018-03-07T20:35:24.139Z","meetsCriterion":false,"cycles":2509,"wealth":5.207453561647599,"percentSuccess":0.3682721520423047,"odds":1.8823529411764706,"weights":{"nh":100,"ns":4,"na":3,"net":{"W1":{"n":100,"d":4,"w":{"0":0.0587392735298887,"1":0.11528767216597334,"2":-0.09357900741754306,"3":-0.11659328963167181,"4":0.05381742104427416,"5":0.06443306405726702,"6":-0.07291113397813577,"7":-0.08903424854293385,"8":-0.06417894431669137,"9":-0.18470263076339777,"10":0.12054703772017547,"11":0.1527283949288625,"12":0.009091981719729981,"13":0.019264849550523266,"14":-0.014924075551207642,"15":-0.01866641019328112,"16":-0.04715487382114126,"17":-0.10059420135685852,"18":0.07762298684121352,"19":0.09708404914338561,"20":-0.026059061960559852,"21":-0.0006949241903212221,"22":0.02581026432324967,"23":0.02992951550226795,"24":-0.19764891567901166,"25":-0.32284378495025384,"26":0.29504433546712966,"27":0.36325065783905897,"28":-0.06681669603049366,"29":-0.09831954716818124,"30":0.09623136871480534,"31":0.11844401622467891,"32":-0.03754618223953557,"33":-0.1495154418540466,"34":0.08341504338395184,"35":0.10729315595291755,"36":0.09650411061670243,"37":0.17163620847599712,"38":-0.14824757369506114,"39":-0.18379153486771785,"40":0.001645923310585705,"41":0.042843863444443554,"42":-0.014947717171957302,"43":-0.020394023335023218,"44":0.15578725883423625,"45":0.30486374449451314,"46":-0.2481725636760551,"47":-0.3082439149846833,"48":0.06467180942092074,"49":0.16972263502180263,"50":-0.11636375582508515,"51":-0.14682648095042883,"52":-0.056294240843801156,"53":-0.09227931366895648,"54":0.08401291297172422,"55":0.10387860010929399,"56":0.1206283968575775,"57":0.2668522499303583,"58":-0.20168221127253833,"59":-0.25212950582268384,"60":0.13235515430556982,"61":0.2396437223396366,"62":-0.20472191598061976,"63":-0.25372485031729536,"64":-0.027750149589014936,"65":0.01700111071259455,"66":0.021964905598907274,"67":0.024201847065317292,"68":0.013441514451350991,"69":0.09606897926445122,"70":-0.04309678001174512,"71":-0.056810431533280976,"72":0.08953138973822945,"73":0.17448516323410443,"74":-0.14228154136287613,"75":-0.17710501738714227,"76":0.09249792750929149,"77":0.21017654200635605,"78":-0.1563261407268719,"79":-0.19585120923341154,"80":0.028045913537690627,"81":0.15297854263591484,"82":-0.07515943644929914,"83":-0.09799420738205294,"84":0.05166412132851528,"85":0.17513823465378794,"86":-0.10526792118495897,"87":-0.1343905283340026,"88":-0.15998019826115603,"89":-0.33624573546868924,"90":0.26212626027072,"91":0.3264219758096049,"92":0.3720651755573907,"93":0.6999015207508731,"94":-0.587580245762027,"95":-0.71638910814659,"96":0.046384980547592644,"97":0.03579868293133752,"98":-0.05669809323794878,"99":-0.0682120635932289,"100":-0.06690389694867867,"101":-0.15089917339046482,"102":0.11269291569383287,"103":0.14124000271176157,"104":-0.06670248413833893,"105":-1.8233395041166414,"106":4.7465049645882,"107":1.7699081478444743,"108":-0.2080695214257181,"109":-0.38475023825197974,"110":0.32474873324672565,"111":0.4014092325713157,"112":-0.02794840303991667,"113":-0.04317711690953056,"114":0.04088539267179725,"115":0.05044192929984726,"116":-0.13482809017320507,"117":-0.30082428590525556,"118":0.22627348609830092,"119":0.28279534308646453,"120":-0.08608738031742358,"121":-0.17023761872646406,"122":0.13757232412446366,"123":0.17136427469436158,"124":-0.23862920336275048,"125":-0.39265053289309243,"126":0.3573949452196462,"127":0.4391891940582765,"128":0.042587347923387746,"129":0.1396370055856316,"130":-0.08529191256815401,"131":-0.10875546787936904,"132":-0.04553445753550832,"133":-0.11527927231331375,"134":0.08060305263097498,"135":0.10158544514360084,"136":-4.815196103273439,"137":1.5587607459666946,"138":1.251539693233539,"139":-15.399783681678047,"140":0.01516229452828313,"141":0.027728890234627407,"142":-0.02351982371536086,"143":-0.029227315904223262,"144":0.012918887833317745,"145":0.06496417247264084,"146":-0.03290324123863645,"147":-0.04277268452858396,"148":0.11520896865323088,"149":0.2731541689996658,"150":-0.19831840546377322,"151":-0.24869695229044886,"152":0.036307105009356265,"153":0.04680527759726143,"154":-0.05022460519227253,"155":-0.061512579036251964,"156":-0.07001646970996628,"157":-0.15081556512892672,"158":0.11572559998571677,"159":0.1447389919500754,"160":0.1024241724147335,"161":0.20553422388468454,"162":-0.16463807941150874,"163":-0.2051134017657785,"164":0.2625948275317497,"165":1.611323460283248,"166":2.0764425699388664,"167":-6.672229642755941,"168":0.09483648338594128,"169":0.15959587107874681,"170":-0.14285520879295324,"171":-0.17670830757019879,"172":0.00420699412422589,"173":-0.08326861497287887,"174":0.021778267173575897,"175":0.031214751920477072,"176":0.03834399168043267,"177":0.06332033393468485,"178":-0.057365232748711435,"179":-0.0709654314664504,"180":-0.07182359040726337,"181":-0.15615308168759645,"182":0.11916440384061351,"183":0.14909414144036434,"184":0.05864514967339871,"185":0.022211994630382807,"186":-0.0645121785893492,"187":-0.0762772059861305,"188":0.12222532040381484,"189":0.166192176720023,"190":-0.17183677692727584,"191":-0.21063453231766985,"192":-0.005556541619533848,"193":0.03143420487362523,"194":-0.004323507280563146,"195":-0.007272298532163994,"196":-0.09721791791420983,"197":-0.16326931668758762,"198":0.14634105738004022,"199":0.18099525592198776,"200":-0.07633116643192618,"201":-0.1498414679373639,"202":0.1216277664747359,"203":0.15149013899483543,"204":0.1115079428410497,"205":0.16447861289755794,"206":-0.16076564057331916,"207":-0.19773523855321495,"208":0.07208893990889419,"209":0.144972016581685,"210":-0.11594177902232933,"211":-0.14457136248410352,"212":-3.466837129068458,"213":9.932828899474913,"214":-29.91827454895273,"215":-7.220707982704896,"216":-0.17954800582244054,"217":-0.3372514278093531,"218":0.28172141033982545,"219":0.34896298791284536,"220":-0.005967738263326259,"221":-0.06647154582434212,"222":0.0265448651359211,"223":0.03552161713736301,"224":-0.050836101092803294,"225":-0.13951868006347776,"226":0.09335969020425453,"227":0.11807611768978007,"228":0.12533231844106582,"229":0.2018100552172464,"230":-0.18600332174211584,"231":-0.22949314552372835,"232":-0.0457537824054101,"233":-0.06978067122795244,"234":0.06665459940435287,"235":0.08217958014974724,"236":0.10694101848586368,"237":0.2883951473045728,"238":-0.19494403746321637,"239":-0.24587785417636615,"240":-0.052367331877711414,"241":-0.09330125735146878,"242":0.0804732442080346,"243":0.09985744198927185,"244":0.04858282509302596,"245":0.11702216066562239,"246":-0.08414057510464225,"247":-0.10580208099467318,"248":-0.07172347338979232,"249":-0.14716265863664213,"250":0.11626508396810523,"251":0.14510152288007228,"252":0.04578954948856352,"253":0.1202485823087004,"254":-0.08240088686984463,"255":-0.10402146029098405,"256":0.11334458136463237,"257":0.10604495035294409,"258":-0.14435755416581336,"259":-0.17462858971005965,"260":0.05741958852691111,"261":0.1623239649700103,"262":-0.10693184749477921,"263":-0.13539792517701174,"264":0.12148909736087074,"265":0.24153115940534642,"266":-0.19462153564261095,"267":-0.2422216054427473,"268":0.05007474448530169,"269":0.05563220661999921,"270":-0.06649528274354916,"271":-0.08097746463901924,"272":-0.007015014949151797,"273":0.019084222791661446,"274":0.0009516887230724919,"275":-0.00027469577909838236,"276":2.0895369686916503,"277":-8.79791827412845,"278":2.253219867928939,"279":28.83041889729147,"280":-0.05540127009353826,"281":-0.06984650696731971,"282":0.07615211175149773,"283":0.09317325570236885,"284":0.021760079249207337,"285":0.04349373438166895,"286":-0.034905714861568925,"287":-0.043543409447619204,"288":0.33329387046830816,"289":0.6312686397160265,"290":-0.5268750484442737,"291":-0.6452278778017186,"292":0.06703188409262409,"293":0.13892058282993652,"294":-0.10908729699818659,"295":-0.13621609338900834,"296":-0.006022811815364493,"297":0.02606412058864295,"298":-0.0021946279776194227,"299":-0.004420490015034056,"300":0.13419996157744168,"301":0.27315750324154753,"302":-0.21700685064618735,"303":-0.27021101001796344,"304":-0.030414603119793156,"305":-0.14430055483095555,"306":0.0747845334043789,"307":0.09693811177283167,"308":-0.014755678600636474,"309":-0.008619658588461653,"310":0.017174383082651106,"311":0.020503790680146423,"312":-0.06069900024436763,"313":-0.13494732185085076,"314":0.10162696809340252,"315":0.1273073796236536,"316":-0.059346462969414863,"317":-0.14667350681855112,"318":0.10395024240896354,"319":0.1308323863553063,"320":-0.007461148938272894,"321":0.014679304390826006,"322":0.0027604636485971546,"323":0.0021369702460316596,"324":0.1702929132421174,"325":0.3232790030029663,"326":-0.26822469380484804,"327":-0.33253051617925217,"328":-0.006844641828847275,"329":-0.09221801527808526,"330":0.03541846986016289,"331":0.04764698558881658,"332":-0.0028530099261746657,"333":-0.017644453946285783,"334":0.008292227857074078,"335":0.010872204662138788,"336":0.06622836040939323,"337":0.0344894740610459,"338":-0.07578219764923756,"339":-0.09020275213344961,"340":-0.05720073469440822,"341":-0.06001072864125389,"342":0.07485810038703876,"343":0.09096898126200072,"344":0.12432186080050654,"345":0.29388592642513467,"346":-0.21376331439265706,"347":-0.2679231626347184,"348":-0.01344945725705382,"349":-0.11393842346714284,"350":0.04866635579897589,"351":0.06454139786592077,"352":0.07971127863514099,"353":0.15164510766657563,"354":-0.1255115873278823,"355":-0.15610663541513126,"356":0.13906160852761573,"357":0.22753025684526218,"358":-0.20753693512269203,"359":-0.2561182983121205,"360":-0.15309767383515188,"361":-0.28773143596336526,"362":0.24016465780186574,"363":0.29785783008719713,"364":0.036363574642675894,"365":0.066313762216211,"366":-0.05635158655180027,"367":-0.07000784811049153,"368":0.09843712536567005,"369":0.12411872826273199,"370":-0.13533824547769724,"371":-0.16549687880698502,"372":-0.015685526106983837,"373":-0.05806592946373661,"374":0.0334739742588246,"375":0.04293625401133581,"376":-0.13720891282993794,"377":-0.23883587684340443,"378":0.20924501118767042,"379":0.258877598065173,"380":-0.05835962742772579,"381":-0.10451050811175856,"382":0.08985021611082994,"383":0.1115081009002454,"384":-0.06297336276759538,"385":-0.059791752357344526,"386":0.08046062277124061,"387":0.09743533689527073,"388":-0.0593318813909592,"389":-0.15467818971017502,"390":0.10642928458582294,"391":0.13427048183737983,"392":-0.16712009391434407,"393":-0.3325050115003085,"394":0.26798862254548855,"395":0.3328914605792177,"396":-0.25568199733846225,"397":-0.4580488285328758,"398":0.39485861648477577,"399":0.48606283302402176}},"b1":{"n":100,"d":1,"w":{"0":0.0016948464622460317,"1":0.0012531191968070167,"2":-0.002294620963905892,"3":0.00026920972178117125,"4":-0.0014127269373001706,"5":-0.0003897610861023593,"6":-0.0057567436704932745,"7":-0.001693859687235102,"8":-0.00162237340347649,"9":0.0027033627200315274,"10":0.0003245070201350216,"11":0.004814487378469948,"12":0.0021892205760884005,"13":-0.0014906246565050943,"14":0.0038675643800488682,"15":0.003836317957101174,"16":-0.00029071049142007045,"17":0.0008749144811347528,"18":0.0026149641128841144,"19":0.0029403620145097105,"20":0.0015032086610142533,"21":0.002028187162080601,"22":-0.005181877909128587,"23":0.015314737540218408,"24":0.0009383216365748142,"25":-0.002082804347242069,"26":-0.26625345048990195,"27":-0.006590886078432628,"28":-0.0007164437638041629,"29":-0.004406464251703905,"30":-0.0025280394353347055,"31":-0.007304139967133665,"32":0.0016269217287754188,"33":-0.0014944367851028788,"34":-0.1054550343450351,"35":0.000418321384055751,"36":0.0006470542588865305,"37":0.0038290444883949957,"38":0.0008662784762818457,"39":-0.002130315360300064,"40":0.0030637433857985718,"41":-2.0072227479308578,"42":0.002584310884909177,"43":-0.0005220183287135171,"44":0.0010137447043467491,"45":-0.0021983254359437,"46":0.0010246050173498113,"47":0.003071713468295521,"48":0.00013808455198655208,"49":-0.0026501130238912565,"50":-0.0022209021609828827,"51":0.0028864687996606473,"52":0.002118703689236555,"53":-2.028608529026232,"54":-0.005555478628444043,"55":-0.0005545658384750943,"56":-0.0017517942577986753,"57":0.0034071573166563787,"58":-0.0011705261594029189,"59":0.0038179006046363123,"60":-0.0014387294982924426,"61":0.0015532477105442814,"62":-0.002129418689251466,"63":0.001534349120002758,"64":0.002466870526012485,"65":0.0020215141389097655,"66":0.0036696128084025667,"67":0.0011342456341563456,"68":0.000030051807028078852,"69":2.591915916255233,"70":-0.0013156648840763722,"71":0.0006268713805063569,"72":0.012905944326032096,"73":0.0019956509296637902,"74":0.00009358267882424441,"75":0.004153457356556399,"76":-0.0014760320650188724,"77":-0.00027827972943722876,"78":-0.001869024093184811,"79":-0.0019349271434392198,"80":-0.000007378409846378736,"81":0.005249347206168781,"82":-0.000749355413093118,"83":-0.00016568944897338254,"84":0.001225090329361243,"85":-0.0012722055550039384,"86":0.004162684178087111,"87":-0.0010021947707205563,"88":0.0022870196242540434,"89":0.0038476065948910517,"90":-0.004611638361807695,"91":0.0010054677656292828,"92":0.002371015804189396,"93":-0.0006394637519706742,"94":-0.003911507798175834,"95":-0.0016105519309556524,"96":-0.0013572785597106216,"97":-0.0019941013994470027,"98":-0.0052781918422464226,"99":-0.00843934266224739}},"W2":{"n":3,"d":100,"w":{"0":0.0076157394386999165,"1":0.005459845520900806,"2":-0.010478296695398157,"3":0.0012326841929194523,"4":-0.006413008646121195,"5":-0.001517635072271916,"6":-0.022993183092124527,"7":-0.007451573111028538,"8":-0.007667346042323638,"9":0.011835577657353545,"10":0.0016779383561653113,"11":0.020019839606885102,"12":0.00995621861006082,"13":-0.006628357720046947,"14":0.016673625883297846,"15":0.016345176746915203,"16":-0.0009603459936011021,"17":0.004319259635921552,"18":0.011544135077741395,"19":0.013019246987295058,"20":0.007252858181140088,"21":0.009414805741385701,"22":-0.021382264343890737,"23":0.04508965501328978,"24":0.0039778502450984665,"25":-0.009391538606358335,"26":-0.5290412219589609,"27":-0.025770434693771382,"28":-0.0031956347380975537,"29":-0.018701891407336635,"30":-0.011192781555147958,"31":-0.02772138375449064,"32":0.0075911051095378336,"33":-0.00686183773859531,"34":1.042903081585005,"35":0.0018930277360883479,"36":0.0031405401645160837,"37":0.016597550670977727,"38":0.0038078697179527374,"39":-0.009565685987116587,"40":0.013411711273147622,"41":0.4306110186473604,"42":0.011299537222586697,"43":-0.002836814511154661,"44":0.004534207830544189,"45":-0.009864687399918765,"46":0.00417735834536007,"47":0.01309484148406215,"48":0.000843868405435226,"49":-0.011569466339653719,"50":-0.009889325406336627,"51":0.012424677083031379,"52":0.009468895345832744,"53":-0.25163399626358657,"54":-0.02250524424284681,"55":-0.002798461338443938,"56":-0.008057238795743327,"57":0.014571475932816751,"58":-0.005196299527187724,"59":0.016685857423950595,"60":-0.006441790885249337,"61":0.007100077227949764,"62":-0.00952860846947292,"63":0.0070595376951601355,"64":0.010386536975121636,"65":0.009271460402155993,"66":0.015801615364615055,"67":0.00492112251702851,"68":0.0003038362019451556,"69":0.6462146529765007,"70":-0.005750077767500693,"71":0.0028532188497089866,"72":0.04088974589287325,"73":0.008958365281171403,"74":0.0006186649893031051,"75":0.017665237120814782,"76":-0.007068289845069854,"77":-0.0011634482106681724,"78":-0.008451296079938253,"79":-0.008805659389332705,"80":0.00011545753128506781,"81":0.021490466166664064,"82":-0.003799734946339524,"83":-0.000815597383685562,"84":0.0050642242542885225,"85":-0.005490027909912716,"86":0.017861735457792103,"87":-0.0049793818702213504,"88":0.010147908027801106,"89":0.016282542379102823,"90":-0.019251582602193097,"91":0.004531477098404076,"92":0.010202266552703228,"93":-0.0030439986704141582,"94":-0.016589068548040962,"95":-0.0071970532642242156,"96":-0.0058118139741027055,"97":-0.009099241040575013,"98":-0.021645092519921753,"99":-0.03093166110022535,"100":-0.004031626992661827,"101":-0.0028724794901440137,"102":0.005571796255108457,"103":-0.0006533110253907576,"104":0.003398663180004268,"105":0.0007813273772562008,"106":0.012120497508088295,"107":0.0039303123148220955,"108":0.0040922951753182835,"109":-0.006255883173163686,"110":-0.0009058920616407717,"111":-0.01058348691133229,"112":-0.00528867100769607,"113":0.0035010819247942044,"114":-0.008832551023479242,"115":-0.008637238886758339,"116":0.000476993467491832,"117":-0.002317537378740636,"118":-0.006109055448322012,"119":-0.0069019130402174465,"120":-0.0038826911141191744,"121":-0.0050158948259510444,"122":0.011310988899255775,"123":-0.023560063917597032,"124":-0.002081768496921201,"125":0.004979782927932995,"126":0.06752284653207914,"127":0.013596867389939598,"128":0.0016868400860398528,"129":0.00990508152233795,"130":0.00592438203188389,"131":0.014596596193584057,"132":-0.004043252658714859,"133":0.0036440662518995937,"134":-0.3146500004472367,"135":-0.001001424383351698,"136":-0.001680266391576904,"137":-0.008799807773784819,"138":-0.002005341339275219,"139":0.0050691809939563326,"140":-0.007098733051205584,"141":-0.775791085270388,"142":-0.005968616997326498,"143":0.0015423379718916227,"144":-0.0023953740320774254,"145":0.005228125504337281,"146":-0.0021708040550799702,"147":-0.006896984873322295,"148":-0.0004654739444518267,"149":0.00611090094076423,"150":0.005234495382255248,"151":-0.00655124216809715,"152":-0.00501362433161516,"153":0.6344441833860631,"154":0.011885583460525389,"155":0.0015058329334384569,"156":0.004282727766117445,"157":-0.007690130859269499,"158":0.002742299101067798,"159":-0.008860166784181427,"160":0.0034061828448991877,"161":-0.0037682801611674,"162":0.0050464895995357695,"163":-0.0037506588866166035,"164":-0.005446311275614767,"165":-0.004929468481802138,"166":-0.008360449707498843,"167":-0.0025866680611703074,"168":-0.00017535490431467608,"169":-0.9289675656642176,"170":0.003027120445957103,"171":-0.0015110431634118963,"172":-0.021436604982696846,"173":-0.004745251871715123,"174":-0.00034426952240177225,"175":-0.009346862316803858,"176":0.0037791550567410964,"177":0.0006070622702146879,"178":0.004480699432878146,"179":0.0046745058518891216,"180":-0.00007405583450887609,"181":-0.011353502471069117,"182":0.0020465133316160265,"183":0.0004371541897914886,"184":-0.002639146288154353,"185":0.002883584586753968,"186":-0.00946802513273619,"187":0.0026748430527635085,"188":-0.005369142292796272,"189":-0.008593122963294831,"190":0.010173495582204584,"191":-0.0023969589034278193,"192":-0.005369647075915239,"193":0.0016237226311024036,"194":0.008761449147995662,"195":0.003805649940550044,"196":0.003048827543784803,"197":0.0048333521114790785,"198":0.011441596495096311,"199":0.016287147572195515,"200":-0.005039623652371657,"201":-0.0035666014672135907,"202":0.0069804912663969645,"203":-0.0008217064388390545,"204":0.004260902109861273,"205":0.0009412459902533148,"206":0.014472033849688124,"207":0.0048879827936911145,"208":0.005175250122194575,"209":-0.00775081607607374,"210":-0.0011691582836449359,"211":-0.012832968326245668,"212":-0.006621582707729216,"213":0.00436723630600989,"214":-0.010854246913540401,"215":-0.010585391380653316,"216":0.0005423997613205392,"217":-0.0029619992925583863,"218":-0.007586150285556236,"219":-0.008567454047092447,"220":-0.00493336520204456,"221":-0.006311983192824523,"222":0.013661892945723194,"223":-0.02372425336636533,"224":-0.002567754324792017,"225":0.00622427676088206,"226":-0.01883787049819374,"227":0.016062796739312688,"228":0.00210789739574521,"229":0.012095756040915938,"230":0.007363883271059834,"231":0.01702742355063211,"232":-0.005098772085067435,"233":0.004579960775309103,"234":-0.006086654875103481,"235":-0.0012559888940059478,"236":-0.0021404251865610115,"237":-0.010829911668253872,"238":-0.002496595898072031,"239":0.0063290346324461275,"240":-0.008784057757843938,"241":-0.014429242591044594,"242":-0.007395289005323438,"243":0.0020088223128552508,"244":-0.002994348133953401,"245":0.006525309038652421,"246":-0.0026491901791557203,"247":-0.008478917050338809,"248":-0.0006183103242257151,"249":0.0075672299545315675,"250":0.006520959027361146,"251":-0.008078342112230248,"252":-0.00625292200138765,"253":-0.0029409321926827667,"254":0.014259602626059041,"255":0.0019338402343669389,"256":0.005381855395131807,"257":-0.009449962159628279,"258":0.0034211039605114295,"259":-0.010925911831041501,"260":0.004256278092001801,"261":-0.004730674049670431,"262":0.006295583969288206,"263":-0.004715770811663345,"264":-0.006686678337500545,"265":-0.006186539722681538,"266":-0.01027998863512993,"267":-0.0032088518778515675,"268":-0.00024636521885918584,"269":0.024460752312994834,"270":0.003761153917010229,"271":-0.001897479322008814,"272":-0.02265338913427133,"273":-0.005926213358919024,"274":-0.00046253816352868053,"275":-0.011433823173297402,"276":0.004794382012972236,"277":0.0007463475006979996,"278":0.005607084796587166,"279":0.005857409967075941,"280":-0.00011631326034993921,"281":-0.013681166642552898,"282":0.0026302205377623194,"283":0.0005586832157697681,"284":-0.0032322959187132305,"285":0.003571635898138014,"286":-0.0116062723961604,"287":0.003422554021685176,"288":-0.006681883687499529,"289":-0.010513213432495193,"290":0.01236064931293644,"291":-0.0030018031507638705,"292":-0.006630942359542244,"293":0.0020597700633564176,"294":0.010721972306901443,"295":0.004751708536565012,"296":0.0037683425758073424,"297":0.0060592845650959135,"298":0.013790941062024095,"299":0.018667274457541645}},"b2":{"n":3,"d":1,"w":{"0":-0.11701903600119737,"1":0.41376362593546445,"2":0.10291718029362142}}}}},"weights":{"nh":100,"ns":4,"na":3,"net":{"W1":{"n":100,"d":4,"w":{"0":0.08226147363905005,"1":0.12679915221652885,"2":-0.08834689276012377,"3":-0.11534078067860266,"4":0.07074252182251646,"5":0.07280602284775105,"6":-0.0692514333215549,"7":-0.0883102906004038,"8":-0.09670629954478704,"9":-0.20073899337010623,"10":0.11347114325690412,"11":0.1511244663131993,"12":0.012841223574699592,"13":0.0210419007819263,"14":-0.014017915200070572,"15":-0.01837604105626033,"16":-0.06684647949645167,"17":-0.11011197733801711,"18":0.07309509609086424,"19":0.09584389137501587,"20":-0.03090119862159709,"21":-0.003252249206625675,"22":0.024958864521904607,"23":0.030008571193535703,"24":-0.2778441493828403,"25":-0.37116564788226686,"26":0.28861817840372656,"27":0.3730380295185226,"28":-0.08995845027501145,"29":-0.10979236761179348,"30":0.09126266715404363,"31":0.11747026542051932,"32":-0.06090796902084787,"33":-0.16058085832634011,"34":0.07777199892779302,"35":0.10541064070784502,"36":0.13387813832946133,"37":0.19074064771163693,"38":-0.14095292752389826,"39":-0.18307656055539034,"40":0.00658838347411169,"41":0.044999389749010375,"42":-0.013525767431899054,"43":-0.019686937629545192,"44":0.22314255927331478,"45":0.3432501091485733,"46":-0.24001149978726202,"47":-0.3130302900991516,"48":0.09555197343301314,"49":0.18493044067332978,"50":-0.10962300193697319,"51":-0.1452902845795629,"52":-0.07677479621269055,"53":-0.10232322774243739,"54":0.07948017439288435,"55":0.10283730119247321,"56":0.1748837637029538,"57":0.29608587993929286,"58":-0.19298974440088668,"59":-0.2533556720544084,"60":0.18560141998635857,"61":0.2684247517321189,"62":-0.1962957754727067,"63":-0.2551152023713495,"64":-0.030983985963844985,"65":0.015105292249058294,"66":0.02162470994170065,"67":0.024580250368775335,"68":0.02635491135638338,"69":0.10192068160463096,"70":-0.039650792205324976,"71":-0.055334461787996836,"72":0.12585616147533302,"73":0.19291813002046926,"74":-0.13502509737225668,"75":-0.17618641810400337,"76":0.13370617739127202,"77":0.23129878481732286,"78":-0.1483653139025829,"79":-0.19510756692885853,"80":0.049998479656618536,"81":0.16321217570331606,"82":-0.06965578954465419,"83":-0.09594644299410698,"84":0.08064770202597375,"85":0.18917598004330735,"86":-0.09865139254092942,"87":-0.13255263959921626,"88":-0.2328732623038985,"89":-0.3786360651218709,"90":0.2543686155904295,"91":0.3328853571224137,"92":0.6165141357108177,"93":0.9252527218764762,"94":-0.6681878734051647,"95":-0.8643291309671476,"96":0.05878357462611111,"97":0.042016238045868015,"98":-0.054117555732104326,"99":-0.06783464652736759,"100":-0.09604244544560703,"101":-0.16527381617980785,"102":0.10635912639586867,"103":0.13984760489849232,"104":-0.004808266140967537,"105":-1.5289220055576147,"106":4.597945343110309,"107":1.3318065316563814,"108":-0.3009917951794025,"109":-0.4433742067875141,"110":0.32064481484826735,"111":0.41674411290448243,"112":-0.037754789824279225,"113":-0.04792234945139598,"114":0.03863427389065984,"115":0.04984712456877893,"116":-0.1967884707011456,"117":-0.33524041229140006,"118":0.21764497197812577,"119":0.28578363957897146,"120":-0.12122694226389252,"121":-0.18799078112641826,"122":0.13045469681435526,"123":0.17035222275763234,"124":-0.3415844683570842,"125":-0.46019364523120065,"126":0.35611872543152645,"127":0.4601961173121676,"128":0.06579149219410274,"129":0.15071568898720794,"130":-0.07979358130212932,"131":-0.10703945297827844,"132":-0.06656075596673047,"133":-0.1253868865267435,"134":0.07570223872574634,"135":0.1001597474682615,"136":-5.364136274429159,"137":1.1779349930923442,"138":1.693567288644847,"139":-15.854930871956416,"140":0.020941051085552827,"141":0.030491832462434507,"142":-0.022152373800825922,"143":-0.028820719060391874,"144":0.022335144348807467,"145":0.06926644059119123,"146":-0.03043261756768484,"147":-0.04176135218425208,"148":0.16911208533393254,"149":0.3020880606286478,"150":-0.18954747244272327,"151":-0.24972953068258996,"152":0.048049720372440825,"153":0.052551543640125514,"154":-0.04760741332941906,"155":-0.060909192091722276,"156":-0.09974735565059197,"157":-0.16553785886152791,"158":0.10933136822979174,"159":0.14341011287843414,"160":0.14508905046217996,"161":0.22762633055871792,"162":-0.1566714312062863,"163":-0.20471167705589113,"164":0.3581094662873514,"165":1.6160727582000813,"166":1.634318278084079,"167":-6.445750872200523,"168":0.13044985264713335,"169":0.17774206353010666,"170":-0.13582914875146726,"171":-0.1759458893076246,"172":-0.00405432034430972,"173":-0.08675623212099452,"174":0.019261652102719583,"175":0.029831055484611978,"176":0.05227279543075214,"177":0.0700715347983588,"178":-0.05418268018865939,"179":-0.07013357923429704,"180":-0.10252179373487369,"181":-0.17139036264114713,"182":0.11260756666490512,"183":0.14777642343117922,"184":0.07182078338776744,"185":0.0289942372143942,"186":-0.06198289202710602,"187":-0.07617848519251202,"188":0.16412335990320073,"189":0.18817290707523085,"190":-0.16435692328683466,"191":-0.210753947901746,"192":-0.003169013520731707,"193":0.03235814225462839,"194":-0.0034939246028436394,"195":-0.006727777885434683,"196":-0.13373875026112,"197":-0.18193259005613,"198":0.13920460999203477,"199":0.18029824889965573,"200":-0.10717432005344991,"201":-0.1652280141685015,"202":0.11513407935617317,"203":0.15029983427612395,"204":0.1510306902407134,"205":0.18498357875766058,"206":-0.15342424480902772,"207":-0.19747908495886074,"208":0.10154727811989611,"209":0.159593917604942,"210":-0.10964766171674675,"211":-0.14331716780494572,"212":-3.634681838669183,"213":11.004278213244902,"214":-32.494526017366006,"215":-8.06116491964679,"216":-0.25740370715124883,"217":-0.38357099678725204,"218":0.27474440298209746,"219":0.3575081204620096,"220":-0.014270135765152701,"221":-0.07016176185369692,"222":0.024240950542314538,"223":0.034452030838069345,"224":-0.07559415340077819,"225":-0.15148128539714306,"226":0.08766748298490039,"227":0.11648340093987629,"228":0.1722662818139352,"229":0.22670028038476925,"230":-0.17796842436376648,"231":-0.23000431314113431,"232":-0.061768607765284644,"233":-0.07759872757548308,"234":0.06306417257168431,"235":0.0813152567209365,"236":0.16104271729439495,"237":0.3173308090378303,"238":-0.18601517484904154,"239":-0.24672327792861562,"240":-0.07222443324016845,"241":-0.10298758200395113,"242":0.07601502068060169,"243":0.09876009751290599,"244":0.0703789632824763,"245":0.12754283909870195,"246":-0.0791132661832157,"247":-0.10439548707167658,"248":-0.10136354772729504,"249":-0.16186876419901622,"250":0.10992516197100562,"251":0.14382764248203625,"252":0.06742034390768017,"253":0.1306428066633045,"254":-0.07735489741410768,"255":-0.10254518885808225,"256":0.14631281742900132,"257":0.12313246122724623,"258":-0.13819841355280973,"259":-0.17445479373928177,"260":0.08604072078717613,"261":0.17628031121357465,"262":-0.10051175456944145,"263":-0.1337500317016192,"264":0.17264742460929755,"265":0.26887197361124965,"266":-0.18613822277856024,"267":-0.2430556284805561,"268":0.06533322479731109,"269":0.06318794128312286,"270":-0.0632040018457775,"271":-0.08034111898024002,"272":-0.006231561464631203,"273":0.01929243897001378,"274":0.0013393814251596208,"275":0.00006843131991837296,"276":2.021512127177438,"277":-8.814090493247436,"278":1.9928986615116469,"279":28.914399410369366,"280":-0.07322062642367647,"281":-0.07865332717113709,"282":0.07228920744113664,"283":0.09239371059155645,"284":0.03046298864035765,"285":0.04764509535364135,"286":-0.032834906600746734,"287":-0.042912551495546555,"288":0.530196072840211,"289":0.7981970916884964,"290":-0.5728096753720817,"291":-0.7425864283045077,"292":0.0948204472924684,"293":0.1526315663583419,"294":-0.10304767011515506,"295":-0.1349022421182034,"296":-0.004302155236011958,"297":0.02669296667705072,"298":-0.0015517420486777002,"299":-0.003963973058890912,"300":0.19226861233259743,"301":0.3050094929445437,"302":-0.20840848632300976,"303":-0.27241381444423596,"304":-0.05184072159091389,"305":-0.15432884493122992,"306":0.06946104571596608,"307":0.09501156263561712,"308":-0.01838780141399309,"309":-0.010449642242468927,"310":0.016428372529081994,"311":0.020410332917588647,"312":-0.08682013307817696,"313":-0.1477370840312232,"314":0.09582783676907093,"315":0.12591179026315513,"316":-0.08654525212918607,"317":-0.15996380151064618,"318":0.09788046746746142,"319":0.1293245999721562,"320":-0.007236160836890481,"321":0.014639601373351373,"322":0.002992771179632298,"323":0.0024078192080302253,"324":0.2437743546411195,"325":0.366231557799011,"326":-0.26067511748220695,"327":-0.33941628008973407,"328":-0.018117423559840123,"329":-0.09722508815058031,"330":0.03228682585671019,"331":0.04618539576869327,"332":-0.005285205804053326,"333":-0.018741123767875185,"334":0.007636119584098228,"335":0.01058671451646633,"336":0.08215785192856018,"337":0.042635665084816254,"338":-0.07266025964640771,"339":-0.08998491302646441,"340":-0.07426731059711703,"341":-0.06850809078804555,"342":0.07123401117630324,"343":0.09033304966804379,"344":0.18297670066856497,"345":0.32597570805504406,"346":-0.20498083293003988,"347":-0.2699815824286991,"348":-0.028328523285543795,"349":-0.12066760641719476,"350":0.04468055290217469,"351":0.06281358302186943,"352":0.1114216732375259,"353":0.1675266896931356,"354":-0.11891271615980792,"355":-0.15498381339815787,"356":0.19218135179665172,"357":0.25633321693713085,"358":-0.19923936430192815,"359":-0.2576683657900093,"360":-0.21742096776746955,"361":-0.32399343379780154,"362":0.2318688211932663,"363":0.30182932564918064,"364":0.0502543217516427,"365":0.07301241129281257,"366":-0.0531362626810927,"367":-0.06911918070491899,"368":0.1305988594678032,"369":0.14054502247985262,"370":-0.12903306089690195,"371":-0.16491017165623567,"372":-0.024858870841795545,"373":-0.06231224742924149,"374":0.031133946365858735,"375":0.042046598879795664,"376":-0.1913995974968958,"377":-0.2682742625449028,"378":0.20085224108733507,"379":0.26052852874473276,"380":-0.08059802610292435,"381":-0.11541011241331535,"382":0.08492230835428627,"383":0.11035857753873342,"384":-0.08109235080212812,"385":-0.06886973206782308,"386":0.07668249795251297,"387":0.09685548089300985,"388":-0.08744399752089231,"389":-0.16841607420298946,"390":0.10015867829809245,"391":0.13270760843921742,"392":-0.24119577241122614,"393":-0.37585241541825115,"394":0.26044120996206765,"395":0.33989128066800955,"396":-0.3764359811972829,"397":-0.542118733045336,"398":0.3995358127950286,"399":0.5180722990202422}},"b1":{"n":100,"d":1,"w":{"0":-0.003012819573560395,"1":-0.002115101072716649,"2":0.004223313910582758,"3":-0.0004860146393844411,"4":0.002539854723336006,"5":0.0005499261375473905,"6":0.009540407080399606,"7":0.0029165977473565616,"8":0.003103923279182881,"9":-0.004707972706640602,"10":-0.0006966588332940516,"11":-0.008231746022938148,"12":-0.003996163813490596,"13":0.0026013020803513434,"14":-0.0067876199841232195,"15":-0.006599611430301388,"16":0.00031120326045817203,"17":-0.0017662036747317996,"18":-0.0046035266941062535,"19":-0.00524055541284908,"20":-0.0029585491364041996,"21":-0.0038054710634491196,"22":0.008872483725850054,"23":-0.023636012560366088,"24":-0.0015151940970571777,"25":0.003745760615086496,"26":-0.43787887003712933,"27":0.0109202005493475,"28":0.0012468591802615259,"29":0.0076785004467780195,"30":0.004461782417398325,"31":0.011857655100434976,"32":-0.0030550146246889937,"33":0.0027354299991849966,"34":-0.3350264329115384,"35":-0.0007426237598108568,"36":-0.0012727671496738815,"37":-0.006770570837653361,"38":-0.0014766379307637459,"39":0.003810498811925873,"40":-0.005381533895924701,"41":-1.8971972745676386,"42":-0.004479684335294838,"43":0.001201241935179342,"44":-0.001775424481747733,"45":0.003933370535883554,"46":-0.0015590779467887436,"47":-0.005176930256581623,"48":-0.0003711122123477694,"49":0.004589498209935053,"50":0.003929288669960884,"51":-0.004916980479982888,"52":-0.00376210523685061,"53":-2.095252777286075,"54":0.009357877880779195,"55":0.0011519731877687952,"56":0.0032267886213023854,"57":-0.005822584715633726,"58":0.002030206116230052,"59":-0.006837866999341268,"60":0.0025350453343509485,"61":-0.0028266390272443935,"62":0.0037889795288030895,"63":-0.002818530313646665,"64":-0.00402324854491791,"65":-0.003725102353197845,"66":-0.006388389493245769,"67":-0.0019001079766610988,"68":-0.00014996743601889965,"69":2.6148017879581285,"70":0.0022325053888864344,"71":-0.0011234211339035034,"72":-0.020083801783549626,"73":-0.003559388616782576,"74":-0.00027842243360843113,"75":-0.007198758342165425,"76":0.0028723971293481334,"77":0.0004385689562143331,"78":0.003362937367704472,"79":0.003519010843039747,"80":-0.00007262893564627005,"81":-0.008891331277925588,"82":0.0015693204709357647,"83":0.00033185459370730323,"84":-0.0019077326082556762,"85":0.002116806419389852,"86":-0.00732185736528727,"87":0.002044122978706001,"88":-0.004029831890656084,"89":-0.006549234107497347,"90":0.00787685984460448,"91":-0.0017807347640945274,"92":-0.003992228597229282,"93":0.001223244532153114,"94":0.006694918375875003,"95":0.002835953813256731,"96":0.0022338954577114612,"97":0.0036449296586341545,"98":0.008976897142182036,"99":0.013605168523619956}},"W2":{"n":3,"d":100,"w":{"0":0.0143067665720129,"1":0.010239247569361929,"2":-0.019764293304836793,"3":0.0023040081332123116,"4":-0.01202797496463731,"5":-0.0028469215403547467,"6":-0.045142253747977805,"7":-0.014001454047677482,"8":-0.014390577920487606,"9":0.022400051277451902,"10":0.00312928393507588,"11":0.038811715252844374,"12":0.01876398020908525,"13":-0.012439939056661832,"14":0.031947468495330665,"15":0.03129439091062665,"16":-0.0018089689762131387,"17":0.008072780145387117,"18":0.021832292353006634,"19":0.024697342531090384,"20":0.013600260526070914,"21":0.017720954945795148,"22":-0.04167635967125773,"23":0.10693551260156545,"24":0.007455756634492666,"25":-0.017686317697765103,"26":-0.40609661801125313,"27":-0.051284447050799854,"28":-0.00598043930288025,"29":-0.03607559619610848,"30":-0.021152234026446108,"31":-0.05577320278382532,"32":0.014249559937038695,"33":-0.012873266087831178,"34":0.790717079201336,"35":0.0035397061574473816,"36":0.005867302612265979,"37":0.03179155921498318,"38":0.007130880305078958,"39":-0.01802075578584238,"40":0.02547004296767413,"41":0.29650221119700804,"42":0.021363500897763572,"43":-0.005288256944941769,"44":0.008492243218146485,"45":-0.01859339857016763,"46":0.00783748894145769,"47":0.024862716895110826,"48":0.0015691349896185592,"49":-0.021885983231974805,"50":-0.018643398576122027,"51":0.02355138662587004,"52":0.017837274763463307,"53":-0.16802195288763283,"54":-0.044082014974693606,"55":-0.005223521200671181,"56":-0.015138012763437852,"57":0.027762545351395725,"58":-0.009738966322453696,"59":0.031964607578642334,"60":-0.012085664486160577,"61":0.013325089633888914,"62":-0.017951042564802042,"63":0.013246679517313786,"64":0.01961926618374573,"65":0.017451172081203344,"66":0.030201317840523212,"67":0.009225515831717193,"68":0.0005615195797286194,"69":0.8722178679832302,"70":-0.010785737250285426,"71":0.0053365042829762056,"72":0.09182365462721094,"73":0.016860737576354527,"74":0.0011490166094369333,"75":0.033958638503182745,"76":-0.013253080947694347,"77":-0.002178773444878853,"78":-0.015892311385164858,"79":-0.01656512208222305,"80":0.00021010621752459103,"81":0.04191038155946864,"82":-0.007095768672646525,"83":-0.0015221635185180972,"84":0.009504810428630585,"85":-0.010298207808699573,"86":0.034352908920525,"87":-0.009310247103470658,"88":0.01914057009175357,"89":0.031172567699585527,"90":-0.0372166725463722,"91":0.00848579431747355,"92":0.019256583338280696,"93":-0.00568878412953249,"94":-0.03178654920454934,"95":-0.013514736030810935,"96":-0.010906865688072417,"97":-0.017124108651907805,"98":-0.04223741986993841,"99":-0.06351342428376755,"100":0.0018998364837771594,"101":0.0013720377850252278,"102":-0.002598539753304365,"103":0.00030742106619974333,"104":-0.0015983377469645235,"105":-0.00039052123617283445,"106":-0.005698050467569769,"107":-0.0018664747338124382,"108":-0.0018953101628400115,"109":0.0029528950231038614,"110":0.0004097660634430575,"111":0.004963924615819437,"112":0.002472427155572364,"113":-0.001658034274799293,"114":0.004137619251088436,"115":0.004068037933252148,"116":-0.0002562454745958771,"117":0.0010620409758876949,"118":0.002876837395280765,"119":0.0032357447695375487,"120":0.0017869898996906624,"121":0.0023307369715397357,"122":-0.005289951663606721,"123":0.010122458471905044,"124":0.0010056299316051301,"125":-0.0023373198391839507,"126":0.236879154534976,"127":-0.006352154384523038,"128":-0.0008004113051031098,"129":-0.004633920082012617,"130":-0.002789066385468348,"131":-0.006821572129636332,"132":0.001880852979779172,"133":-0.0017060874282136898,"134":-0.43877802229014634,"135":0.0004730633372355984,"136":0.0007748429795284353,"137":0.00411511667607462,"138":0.0009561289584848857,"139":-0.0023820417502378823,"140":0.003338367654223471,"141":-0.7124615821341401,"142":0.002821890837664592,"143":-0.000687072710727704,"144":0.0011344542111001723,"145":-0.0024559728764775948,"146":0.0010640728894305306,"147":0.0032776230565497327,"148":0.00020091279934665712,"149":-0.0028891004577870833,"150":-0.0024655567696683584,"151":0.0031072533341410385,"152":0.0023602363212190005,"153":0.7166922836014487,"154":-0.005569662429573926,"155":-0.0006859749150740842,"156":-0.0020006703079692547,"157":0.003636100824348573,"158":-0.001301449909580027,"159":0.004129807311295106,"160":-0.0016095353950272622,"161":0.0017664196148332576,"162":-0.002374421207575987,"163":0.0017543214788267477,"164":0.002615664797719917,"165":0.0023005902575686877,"166":0.003928968658868299,"167":0.00123802905168488,"168":0.0000682771089355485,"169":-0.8496960210581966,"170":-0.0014438703853722368,"171":0.0007120826222031848,"172":0.009549185393676255,"173":0.002232363503993534,"174":0.00014571657647897092,"175":0.004385776351010356,"176":-0.0017440608386134916,"177":-0.0002951561886640356,"178":-0.0021042465211757117,"179":-0.002189145733983436,"180":0.000022060296488760256,"181":0.005323441374286135,"182":-0.0009303195750395644,"183":-0.00020084353986564004,"184":0.0012858757318118226,"185":-0.0013821072506014448,"186":0.004425052843355991,"187":-0.0012226058316722583,"188":0.002530928401663863,"189":0.004058280195762621,"190":-0.004779138586323755,"191":0.0011321892902845356,"192":0.0025590950593562564,"193":-0.0007535902159355964,"194":-0.0041303601299828695,"195":-0.0017978508077983663,"196":-0.001464988434570931,"197":-0.002260353870932061,"198":-0.005357510733517743,"199":-0.007550923475020105,"200":-0.00047223925371315715,"201":-0.00026384645015052117,"202":0.0007456605537097284,"203":-0.00008135474843881011,"204":0.0004166117215307369,"205":-6.950165234792191e-7,"206":0.0009049108450228271,"207":0.00039926304873912793,"208":0.0006216666113269047,"209":-0.0006680218881707162,"210":-0.0001834506382268374,"211":-0.0009986359621677265,"212":-0.000686835467146158,"213":0.00037879579388425035,"214":-0.0009678140041716541,"215":-0.0008593756942133475,"216":-0.00007677059979691774,"217":-0.0004077541304495287,"218":-0.0006852576603667744,"219":-0.0008149801466195645,"220":-0.0006400958778868223,"221":-0.0007169326476837369,"222":0.0010636942530713523,"223":0.0031506094445662345,"224":-0.00014523351286949558,"225":0.0006110902659181236,"226":0.07143499627465252,"227":0.0009562408141916365,"228":0.0001803860705680536,"229":0.0010407868535890282,"230":0.0006721345930792265,"231":0.0007952087479653996,"232":-0.0005790395396244599,"233":0.00047789468510914495,"234":-0.08971219393977045,"235":-0.00011668294834600907,"236":-0.00027597283981510177,"237":-0.0009978538285405412,"238":-0.00019408350931216645,"239":0.0006087421888576916,"240":-0.00078659476660843,"241":0.04172498610599436,"242":-0.0006239311403189663,"243":0.00035711368746647355,"244":-0.000263436492460893,"245":0.00062856099526866,"246":-0.000084944309434251,"247":-0.0006210025272090495,"248":-0.00013561405532239369,"249":0.0006357661762362823,"250":0.0006006334968684073,"251":-0.0006263893877038986,"252":-0.000584271836218592,"253":0.044550855587107904,"254":0.0010000211541285181,"255":0.0002836827920863838,"256":0.0005745858260835929,"257":-0.0007436563890808935,"258":0.0002886182249902876,"259":-0.001061615599896089,"260":0.0003844960059720357,"261":-0.000483815169723871,"262":0.000593179174285671,"263":-0.0004982374919501098,"264":-0.00040260412275091207,"265":-0.0006624338103250561,"266":-0.0008841327974593471,"267":-0.00022800969355249787,"268":-0.00008284267006647615,"269":-0.07158414964114133,"270":0.00028596789053147466,"271":-0.0001828931072697747,"272":0.0011945883392227054,"273":-0.0005633300102022739,"274":-0.00011264846626186234,"275":-0.0009607832666947552,"276":0.000603476179417912,"277":0.0000349147876925193,"278":0.000550969949568728,"279":0.0005988337289891889,"280":-0.00006400459969480988,"281":-0.0010008721247437282,"282":0.0003929653993747635,"283":0.00007529844055108442,"284":-0.00013474694096543013,"285":0.0002443232270075935,"286":-0.0010440292813437557,"287":0.0004830300824424406,"288":-0.0006053009536136687,"289":-0.0008083617584069764,"290":0.0009597334970302903,"291":-0.0002765556235839351,"292":-0.00048411935678491225,"293":0.00024608649996282414,"294":0.000848058570863833,"295":0.0004283188840125125,"296":0.00024159546698910637,"297":0.0006308275784413785,"298":0.0010321678497685267,"299":0.0006618107745730573}},"b2":{"n":3,"d":1,"w":{"0":-0.10266583248900965,"1":0.5308266557273152,"2":0.1265491628744974}}}}}