{"numStates":1,"sensitivity":13.283123436393545,"alpha":0.022866604162628024,"gamma":0.2510618125038746,"epsilon":0.2032095283963239,"cycles":3354,"max":{"lastUpdatedDate":"2018-03-18T02:52:10.367Z","meetsCriterion":false,"cycles":842,"wealth":6.4840730071798,"percentSuccess":0.4110622069509426,"odds":1.3181818181818181,"weights":{"nh":100,"ns":4,"na":3,"net":{"W1":{"n":100,"d":4,"w":{"0":-0.011826200625647187,"1":-0.04584360092411865,"2":0.03928676657233025,"3":0.029623291636805358,"4":-0.1496426681101091,"5":-0.17107236027870432,"6":0.2528453151853576,"7":0.2475319352397042,"8":0.0012401413538986159,"9":0.042198162297352376,"10":-0.027996720429345572,"11":-0.012965018044376136,"12":0.03627503286257771,"13":0.05632070372642656,"14":-0.0718652566113953,"15":-0.06350135938819088,"16":0.025939831217905898,"17":-0.016256649826189604,"18":-0.017208838234647604,"19":-0.028658518389678308,"20":-0.088218129053878,"21":-0.08239210881315019,"22":0.1418747264331337,"23":0.13779667438171767,"24":-0.36728731617215105,"25":-0.5655311485929378,"26":0.6055225105150348,"27":0.694080735287842,"28":-0.18293456916171374,"29":-0.2573518652467829,"30":0.32955513410937043,"31":0.3219563219215703,"32":-0.06832492518283559,"33":-0.051954985753793904,"34":0.10204494243122487,"35":0.10404426141237422,"36":-0.09369708950867382,"37":-0.16947669642900406,"38":0.19650243171957413,"39":0.17351250795199283,"40":0.006161633680285044,"41":0.05429404954009924,"42":-0.04139805466485444,"43":-0.021963633595138823,"44":-0.06944169592213481,"45":-0.16120012692383354,"46":0.1680316965098063,"47":0.13848559984128342,"48":0.07671097283736078,"49":0.12248552482040022,"50":-0.15358421939598024,"51":-0.13523372019421045,"52":-0.035257949503383075,"53":-0.03301031601660231,"54":0.056767170213234984,"55":0.05523993607434664,"56":-0.09246975903387687,"57":-0.06039159585693774,"58":0.13174007920540876,"59":0.1380799276706578,"60":0.05103010302983715,"61":0.06170420395383321,"62":-0.0903690696007003,"63":-0.08421733335528393,"64":-0.0071725888589244885,"65":-0.06755213780132555,"66":0.04584774144226777,"67":0.0317416263947137,"68":-0.0750450639217528,"69":-0.06311145586973382,"70":0.11460005768262209,"71":0.11712605342060615,"72":0.07684228377099138,"73":0.08975393552755158,"74":-0.13480693637487864,"75":-0.1250312471773592,"76":0.035617793957202215,"77":0.06920102864832935,"78":-0.07593737608870524,"79":-0.06943697004258294,"80":0.013414261880352812,"81":-0.008216574610512487,"82":-0.011128374779532558,"83":-0.012797305508689131,"84":-0.21230168505367794,"85":-0.29551364086046505,"86":0.37819505263403896,"87":0.37234633380015714,"88":0.13774421897512446,"89":0.21421525922683726,"90":-0.26608107693694366,"91":-0.24489512921024173,"92":-0.050957205674606064,"93":-0.060703315589592195,"94":0.0908463368183151,"95":0.0826904022047494,"96":-0.025284775541564962,"97":-0.06821978574088942,"98":0.0672341620242703,"99":0.05322133260802607,"100":0.034694145793650724,"101":0.06470961124462427,"102":-0.07477537041052038,"103":-0.06444833090399163,"104":-0.06163136211333683,"105":-0.11193008858363347,"106":0.13033675434011935,"107":0.1139830912419067,"108":0.2327112389046693,"109":0.336410444506668,"110":-0.4130420661470831,"111":-0.41746402167204083,"112":0.05120796007650872,"113":0.0445553879594622,"114":-0.0804851569813142,"115":-0.079096344791082,"116":-0.06289891266208703,"117":-0.193777330553228,"118":0.17995896684160698,"119":0.1404336647436446,"120":0.15386374671729264,"121":0.29853107696535824,"122":-0.3323664089773983,"123":-0.2889430860933818,"124":-0.013888933570986462,"125":-0.029837965171103206,"126":0.03073162237863091,"127":0.028547039414539743,"128":0.04841069788833805,"129":0.010327476644215327,"130":-0.05747268071803327,"131":-0.06478423500969012,"132":-0.014854843348146645,"133":-0.016987556569739035,"134":0.023938845551887727,"135":0.02600860716680257,"136":-0.007762271352836601,"137":0.018629473719532226,"138":-0.0028329167563107315,"139":0.004151773984058121,"140":-0.06867086846710763,"141":-0.09791072236613418,"142":0.13006506686433714,"143":0.11806853593859924,"144":-0.040408483331373694,"145":-0.09092193489576064,"146":0.09586918752637852,"147":0.08022766608040612,"148":0.14661676873283205,"149":0.1471851030582515,"150":-0.23922586677197447,"151":-0.23321051111391863,"152":3.1974033272412132,"153":2.1596633759626087,"154":-1.9105962982122529,"155":0.48397600519306383,"156":0.12743576125273817,"157":0.15288946658228506,"158":-0.2194317951227449,"159":-0.2137524076574794,"160":0.19817381207915227,"161":0.2923795084985505,"162":-0.3710830386093795,"163":-0.3452456477448059,"164":0.13566544887069235,"165":0.24911300728825178,"166":-0.2836441667014714,"167":-0.25312360045608195,"168":0.27634275313101225,"169":0.3314912149355207,"170":-0.4461343311372781,"171":-0.476919288912461,"172":-0.012912673744794644,"173":0.009759106471193733,"174":0.004826901061287409,"175":0.016458267169311737,"176":0.030503491129879254,"177":0.07720936794153217,"178":-0.07681602434271899,"179":-0.06387050462076195,"180":-0.030967435219890982,"181":-0.023547034881762657,"182":0.04704860275820771,"183":0.04643535151930087,"184":0.28481134271400166,"185":0.44584046180176734,"186":-0.5175683677320887,"187":-0.5172430067874324,"188":20.994256225718804,"189":1.8844877285830668,"190":43.204750867665375,"191":-7.394092213152192,"192":0.022092970852233346,"193":0.04559752018319243,"194":-0.04820222551921873,"195":-0.04440362191605889,"196":0.11583701859831635,"197":0.13471602086597986,"198":-0.20001009167457082,"199":-0.19033411179809098,"200":0.02669732615927791,"201":0.04184820013521498,"202":-0.05444143773846542,"203":-0.04558589624952381,"204":-0.22716621452319344,"205":-0.46519544208036895,"206":0.48567374828995546,"207":0.4395844998128918,"208":-0.09829984631908004,"209":-0.09919952002315298,"210":0.15968325374101455,"211":0.15837338984021507,"212":-0.07989001873696128,"213":-0.08335015353859203,"214":0.13171296994694495,"215":0.12942624642160375,"216":0.0542626564138471,"217":0.09272450350960558,"218":-0.10893191853745146,"219":-0.10098663353167547,"220":-0.09386141548305285,"221":-0.10978746674685792,"222":0.1621689666835752,"223":0.15506362101238982,"224":0.17123296590812262,"225":0.25829231320572243,"226":-0.32317082776274725,"227":-0.3027025516559934,"228":0.026206647202550157,"229":-0.026144829405925194,"230":-0.011076226551002091,"231":-0.026490657167645936,"232":0.0007700606197206318,"233":-0.0026083554060233405,"234":-0.0000028671060276923457,"235":0.0005453746627028632,"236":0.060927128806664795,"237":-0.018055426862894564,"238":-0.05225850104609391,"239":-0.07360050699127234,"240":-0.1967994990189998,"241":-0.2899373236686446,"242":0.364549292240035,"243":0.3464539751084523,"244":0.0908697004207444,"245":0.1453804168847859,"246":-0.1789695307393411,"247":-0.16305284432221856,"248":0.022803573282728386,"249":0.046278373087846214,"250":-0.048780786995853226,"251":-0.04608596021221209,"252":0.11269093695318651,"253":0.20913684720006318,"254":-0.2409297287675509,"255":-0.20807994440584376,"256":0.00188110409887243,"257":0.03660627106162973,"258":-0.02462079942526125,"259":-0.012784061422361225,"260":-0.061771937276052645,"261":-0.026482138653249516,"262":0.07997379590628279,"263":0.08795248967292534,"264":0.1469996558122195,"265":0.2231262747450835,"266":-0.2778925828484573,"267":-0.26203511740832874,"268":-0.030045905953525978,"269":-0.0875546310896692,"270":0.08649021808754113,"271":0.06250526052215268,"272":-0.08701551638406456,"273":-0.13904959230829325,"274":0.17265773327504355,"275":0.15482191398788112,"276":1.0552506113779743,"277":0.6367127771446343,"278":-2.560590070616603,"279":1.7874043657226042,"280":-0.027688773975760615,"281":-0.009458944810787998,"282":0.035273872614379115,"283":0.03786854332774004,"284":0.03427303304024103,"285":-0.021344674570528153,"286":-0.024594185530752776,"287":-0.03615777001730195,"288":-0.06733471022165335,"289":-0.022625681738523414,"290":0.07955324189871991,"291":0.09780040800096594,"292":-1.0987536909240667,"293":-0.5059759205857755,"294":4.393035343444595,"295":-3.05905619034159,"296":0.3795036556669573,"297":0.5641044360137016,"298":-0.6085654947585147,"299":-0.7148149226149334,"300":0.05202462053803744,"301":0.11763103743388999,"302":-0.12503056472944415,"303":-0.10209084602574932,"304":0.013839077654585035,"305":-0.02071423867993907,"306":-0.0017840899134277184,"307":-0.011826821482458597,"308":0.048209932988451366,"309":0.11144008392168535,"310":-0.11631175979768643,"311":-0.09636593577590875,"312":0.028528816133690724,"313":0.021615690457384058,"314":-0.043075580825726136,"315":-0.04297588851930594,"316":0.08741425581557453,"317":0.08254255588806275,"318":-0.1382319880463788,"319":-0.13965304973569892,"320":0.023834838833520257,"321":0.09766843425715731,"322":-0.08432951124935521,"323":-0.05926232633789907,"324":0.01747559247541787,"325":0.031860619639898564,"326":-0.036685760784462854,"327":-0.032799057593405276,"328":-0.06267770181861664,"329":-0.14446910303745572,"330":0.15061446682243418,"331":0.12525834290745502,"332":0.1454614178579754,"333":0.1201799119432827,"334":-0.21714245146449704,"335":-0.22863890349316815,"336":0.009460093029763443,"337":-0.00031962960819954806,"338":-0.012867682111822874,"339":-0.008970212543778796,"340":0.22564434726984817,"341":0.2880605301461421,"342":-0.3868812384128703,"343":-0.3873247696425158,"344":0.013240610315011912,"345":-0.004970801174162485,"346":-0.0127792155848122,"347":-0.013665900021273197,"348":0.12589932596503492,"349":0.2396083422473772,"350":-0.27018935610169764,"351":-0.23593464798483074,"352":0.33280474804732085,"353":0.3456664419252262,"354":-0.46182899341584305,"355":-0.5946301095935417,"356":0.3145272884462323,"357":0.4164568004395117,"358":-0.5192819175947859,"359":-0.5558748022934692,"360":0.06098983748359472,"361":0.1427579505032178,"362":-0.14847191312068028,"363":-0.1219651029152059,"364":-0.05752688945089777,"365":-0.061351332115166156,"366":0.09799084715632457,"367":0.09142712144239629,"368":0.0918528432108124,"369":0.0657272320261215,"370":-0.13481672690555255,"371":-0.1383594428223319,"372":0.08057137057713096,"373":0.11464714517961881,"374":-0.1527346324620454,"375":-0.1380314950349723,"376":0.11319784504614694,"377":0.13540551426709588,"378":-0.19977341318302538,"379":-0.1851245335642997,"380":0.02278299386062591,"381":0.006887448021503512,"382":-0.03115908637511212,"383":-0.028262600337331484,"384":0.04112734049298489,"385":-0.01887776039944345,"386":-0.03256937211867015,"387":-0.046387339598001995,"388":-0.6615262304526998,"389":-1.0374824858750957,"390":0.35252415099385603,"391":1.7640419889653098,"392":-0.020715696328562773,"393":-0.051131918283802404,"394":0.054004027132956565,"395":0.04044115738826803,"396":-0.03237708908769539,"397":0.08128263591157953,"398":-0.01726405363377936,"399":0.01948569845564027}},"b1":{"n":100,"d":1,"w":{"0":-0.000584209159913326,"1":0.008779599134473702,"2":0.0022994200813128683,"3":-0.0009147499905849756,"4":-0.003186870133878402,"5":0.004532142148064166,"6":0.04702736092500954,"7":0.011603126467712173,"8":0.004386021344088854,"9":0.0026186887595351363,"10":0.002803689085001685,"11":0.000004605681725221956,"12":-0.001856466196933914,"13":0.0018407806177714275,"14":0.0065065070683027445,"15":-0.002118351142314147,"16":-0.001226557075343615,"17":0.005041716508963334,"18":-0.002989078678430441,"19":-0.0016331384353548283,"20":-0.0006900002119740891,"21":0.013996469460759674,"22":-0.005794056539288526,"23":0.0016367980372389765,"24":-0.0004904079757878241,"25":-0.0006189666709717706,"26":0.001468030748181378,"27":-0.018030531022413972,"28":-0.0027753663338972506,"29":-0.0016970988971530033,"30":-0.003413631745192072,"31":0.000788292179101229,"32":-0.0037820341927537783,"33":0.0014672677508895835,"34":0.0014147985504880066,"35":0.002375701349789475,"36":0.0002902295560484185,"37":-0.007921149271599313,"38":-0.1181983312225704,"39":-0.007410074861064326,"40":-0.00888361443977503,"41":-0.004454601720268599,"42":-0.025451756870640777,"43":0.002887828419291622,"44":-0.00017694297129343408,"45":0.0016455721647431704,"46":-0.02136799319844821,"47":-7.682576059826741,"48":-0.0011336030214976907,"49":-0.005616930263670386,"50":-0.0000723983583866645,"51":0.009425969118516748,"52":0.005962252827484342,"53":0.004642050506441038,"54":-0.0026103239998885096,"55":0.004743196209482422,"56":-0.0082804917515282,"57":-0.0038473795207890015,"58":0.00015971337858561616,"59":-0.006731749133399034,"60":0.010524530844994762,"61":-0.0035161467099384877,"62":-0.0014279559354844183,"63":-0.002085008020210549,"64":0.0016912168566920844,"65":0.004851776591466649,"66":-0.007564687233897789,"67":-0.0020816804585795227,"68":0.002777889142136203,"69":0.9600069016019015,"70":0.0018929553041194928,"71":-0.0034069319149210345,"72":0.007294656082953533,"73":-1.4245804958945165,"74":-0.05141516422901243,"75":0.00024975482546668224,"76":-0.002289613949269562,"77":-0.00012729539619766938,"78":-0.0016194682839320185,"79":-0.00574992153970296,"80":0.002313316533649767,"81":-0.0005918891087056263,"82":0.00027910292363396926,"83":-0.01117661542971816,"84":0.0005253430749291636,"85":-0.015731565185992273,"86":-0.0005874272696201592,"87":-0.003011297223773062,"88":-0.05084669846923885,"89":-0.030085190538839273,"90":0.00008849977483128445,"91":0.002266311293456802,"92":-0.0059823374395297805,"93":-0.002635297501575188,"94":-0.004408006584507784,"95":-0.00039593634236674904,"96":-0.004243660649860653,"97":0.3719803062331476,"98":-0.0009919317292188337,"99":0.0075361244050442325}},"W2":{"n":3,"d":100,"w":{"0":0.00008052449565783639,"1":0.0020005911095231643,"2":0.00021914858739675364,"3":-0.0003988073303524913,"4":-0.0005020329285719912,"5":0.0011282745424577496,"6":0.003711952078797464,"7":0.0024334982952538145,"8":0.00098630128468314,"9":0.0010495330759119595,"10":0.0002473418704521077,"11":0.0006073658601697845,"12":-0.0008044790284190035,"13":0.0004685557176138825,"14":0.0013791615224291016,"15":-0.0006312430498030949,"16":0.00003717241092616406,"17":0.0011308284317036472,"18":-0.0008927936249725052,"19":-0.0005452640266507503,"20":-0.0001132960516269385,"21":0.0026640838181333296,"22":-0.0016123554290281654,"23":0.0005545671849776657,"24":0.0001941379231349096,"25":-0.00037481560233087834,"26":0.0006926488923046846,"27":-0.0030692813447066388,"28":-0.0006822388421692058,"29":0.00041728273833557296,"30":-0.0012995040274021235,"31":0.000246850635413051,"32":-0.0007283032735392109,"33":0.0003138083316214186,"34":0.00017836372809694332,"35":0.0008063261477009138,"36":0.00041326837581267455,"37":-0.0018372765736577369,"38":0.017810610118277163,"39":-0.0017636127859410261,"40":-0.0019810058218065153,"41":-0.0014509018861404669,"42":-0.0038414750444648884,"43":0.00044437743262367883,"44":-0.0003346735378901527,"45":0.0003999067090193803,"46":-0.002679675806332357,"47":-0.015462248741522286,"48":-0.0003673950903208852,"49":-0.0014507502801755694,"50":-0.00020430201416138507,"51":0.0015080219946087639,"52":0.0014034563213534187,"53":0.0011331531127358474,"54":-0.0008008018752467304,"55":0.00123740909667522,"56":-0.0019716441287454902,"57":-0.0005734418183838417,"58":0.00003067942015388946,"59":-0.001124089409653371,"60":0.0022243103447155536,"61":-0.001130088551545458,"62":-0.0004162248573348615,"63":-0.0010540354055431622,"64":0.00014158071651395213,"65":0.0009704130084449763,"66":-0.0018792120368629627,"67":0.00001869050784526153,"68":0.0009990724886268037,"69":0.21744862297534673,"70":0.0003869793179764703,"71":-0.0005404004972601139,"72":0.0013453349920450265,"73":0.002107144602742167,"74":-0.0040230002110585965,"75":-0.0004286242836335466,"76":-0.000320993611237499,"77":-0.0004618586810319601,"78":-0.000384227870464641,"79":-0.0013127776965601648,"80":8.053794642383415e-7,"81":-0.00023157064307423412,"82":0.0005978658746213398,"83":-0.002282004803099935,"84":0.000058354194548315016,"85":-0.002868357753364408,"86":-0.000107179360180374,"87":-0.0012331202897739738,"88":-0.006756693459619189,"89":-0.0036943284965390445,"90":-0.0005349970339828893,"91":0.0006666423227764268,"92":-0.00131215244790722,"93":-0.0009092582382302268,"94":-0.0012671834052240688,"95":-0.00013769854219234713,"96":-0.0006929274573127098,"97":0.016810231503967564,"98":0.000055301444573598805,"99":0.000983536725784654,"100":0.004933432615718204,"101":0.030622979945534506,"102":-0.0033644884883618047,"103":-0.00862941127935305,"104":-0.001842630931944117,"105":0.016754964273124128,"106":0.07997381419863152,"107":0.04077245890430743,"108":0.012104193320804807,"109":0.02401429798452963,"110":-0.004862392984639626,"111":0.020538425794302987,"112":-0.01844622011879553,"113":0.006724728937756523,"114":0.01560610946092052,"115":-0.010792668525276506,"116":0.006068692534066352,"117":0.01376632616566985,"118":-0.015968957835868793,"119":-0.009581871410478128,"120":-0.0009350380667597876,"121":0.04673943702537892,"122":-0.03244621925404904,"123":0.010690042893326942,"124":0.008239956555874459,"125":-0.009090797132589366,"126":0.01589039660987297,"127":-0.05187089898323973,"128":-0.009499876897906072,"129":0.022241138128673586,"130":-0.04039450695872872,"131":0.003968370711961494,"132":-0.006541274514235367,"133":0.0030990151132740396,"134":-0.0005092107362553536,"135":0.015642663159989374,"136":0.011779989964949993,"137":-0.02845373575749445,"138":0.10609260377858969,"139":-0.026714843353076657,"140":-0.044870331937607075,"141":-0.03478295158870283,"142":-0.05618693948984001,"143":0.0008314331709844795,"144":-0.00956615267717082,"145":0.005482843249996645,"146":-0.06454922286072676,"147":-0.18513983842389384,"148":-0.00616070356007003,"149":-0.023961839459333167,"150":-0.006364404554352227,"151":0.05991183138285224,"152":0.019253155740076477,"153":0.015878132594031334,"154":-0.01359317222726167,"155":0.01952178629369632,"156":-0.039473591354776426,"157":-0.0011229536407841465,"158":0.00012021790943435389,"159":-0.005873733151158809,"160":0.04459442757181271,"161":-0.021877122719625317,"162":-0.006306089167031955,"163":-0.02915301253016086,"164":-0.00302235216744429,"165":0.009381627550596664,"166":-0.03419286326385941,"167":0.010242915819488004,"168":0.02092813521255878,"169":0.16388827033235104,"170":0.004011134258607077,"171":-0.0024175418616609774,"172":0.009806442052510567,"173":-0.09412120181914885,"174":-0.08101803685521619,"175":-0.015172112789127029,"176":-0.00006163807026669446,"177":-0.014266379778331879,"178":-0.005048894898155397,"179":-0.016715316102129275,"180":-0.010306160097972987,"181":-0.00453493274832651,"182":0.018486163878890623,"183":-0.026380823786095808,"184":-0.0010529537633903296,"185":-0.04766521889315338,"186":-0.0011652188735388257,"187":-0.03294802053961886,"188":-0.06338183898446069,"189":-0.06569504767590478,"190":-0.018148908589932226,"191":0.011519180893297152,"192":-0.015930823179255264,"193":-0.018308490395419305,"194":-0.023676190082283482,"195":-0.003191013525736508,"196":-0.003432751121846728,"197":0.13523862637808792,"198":0.0063611528490116155,"199":-0.002347841315770658,"200":-0.001114152565438232,"201":-0.009302437362775865,"202":0.0003521263848421362,"203":0.0024735173846287045,"204":0.0012765605776085486,"205":-0.0054150780664079575,"206":-0.011683975021002865,"207":-0.011357580606212501,"208":-0.004197374262375275,"209":-0.0065234096965517355,"210":0.0006541727123871331,"211":-0.0051485350218199505,"212":0.005150291120819766,"213":-0.0022140933833619085,"214":-0.005570556832837053,"215":0.0033210772414332818,"216":-0.0011840304013256873,"217":-0.004730590158017878,"218":0.004856272972729411,"219":0.0027805328126633854,"220":0.0004975897275764896,"221":-0.012465011990391227,"222":0.008944610828504064,"223":-0.0032199304346351067,"224":-0.002010007559668164,"225":0.0024991016147107225,"226":-0.004385755036616035,"227":0.013344883938015613,"228":0.0031652511596814057,"229":-0.005102724058677273,"230":0.009761974362883133,"231":-0.0011652316545781975,"232":0.00267670496817903,"233":-0.0011065063287469914,"234":-0.0002325888631315239,"235":-0.004580764170715455,"236":-0.003077839705175422,"237":0.008805527882060305,"238":0.02193583671617259,"239":0.008189781702124248,"240":0.011484695629812363,"241":0.00902777912013397,"242":0.014685894445905696,"243":-0.0008331021055880665,"244":0.0024675781037935525,"245":-0.0018616429673823274,"246":0.013360932830594977,"247":0.013053823795045959,"248":0.0017981431175900702,"249":0.007289804011563025,"250":0.0017287723549647214,"251":-0.011858671391888021,"252":-0.006258375035521002,"253":-0.005148518754121747,"254":0.004014357521277038,"255":-0.006051931534296854,"256":0.010603892646020713,"257":0.0012366059244310432,"258":-0.00004153774046842059,"259":0.0031959751474566946,"260":-0.011674725828764476,"261":0.006247241188599928,"262":0.001887136128822668,"263":0.007551732421224676,"264":0.0003889326495237018,"265":-0.003627446634784916,"266":0.00956969502832882,"267":-0.002230291194311355,"268":-0.005903986738062064,"269":0.0647899580231942,"270":-0.0015464898531416466,"271":0.0015495376342198372,"272":-0.004193202807452928,"273":0.03831896019103242,"274":0.011600807879894853,"275":0.0038332012213475463,"276":0.0005826306373426491,"277":0.0036614767922301967,"278":0.0017322783717715793,"279":0.005593643695486044,"280":0.002120201309966034,"281":0.0013019284784789198,"282":-0.004711933782500495,"283":0.008970208998892028,"284":0.0002669444683714165,"285":0.012910346486359636,"286":0.0005272201178412039,"287":0.008433682780376414,"288":0.01741082288693196,"289":0.014460114893866479,"290":0.004564889278102672,"291":-0.0035830722416203093,"292":0.005540190113273038,"293":0.00530229197855989,"294":0.007013337065867801,"295":0.0010572529154727723,"296":0.00199763402880949,"297":0.06020888510945757,"298":-0.0014701936002687347,"299":-0.0011929952640138783}},"b2":{"n":3,"d":1,"w":{"0":0.36240464653369137,"1":0.48851179501192077,"2":0.14767820887692537}}}}},"weights":{"nh":100,"ns":4,"na":3,"net":{"W1":{"n":100,"d":4,"w":{"0":0.010186866213980295,"1":-0.03179218719316891,"2":0.0017028693302660856,"3":0.0037848367971858848,"4":0.055435048504234544,"5":0.2025574189920849,"6":-0.19117328893890745,"7":-0.14671727729648212,"8":-0.012685810870427503,"9":0.04807232117955522,"10":-0.007238329446529322,"11":-0.008093281886587573,"12":-0.014331679065920058,"13":-0.015415886791587443,"14":0.03049126652041018,"15":0.02094081690108347,"16":0.0014433764514503386,"17":-0.08840134351226596,"18":0.04605056919533324,"19":0.037218892163340137,"20":0.022578284626605598,"21":0.11217319209695518,"22":-0.0959562948715034,"23":-0.07146222513163066,"24":-0.07866724243419913,"25":0.031132408731177907,"26":0.09232079644091659,"27":0.072322146486407,"28":0.07795400126273103,"29":0.21976620686299916,"30":-0.23095679378008446,"31":-0.17943727223840006,"32":0.008765737821022612,"33":0.0873410516078622,"34":-0.062499526031567665,"35":-0.04599167940747848,"36":0.08468562111198112,"37":0.13747888825462726,"38":-0.1941794876758327,"39":-0.15164238271872812,"40":-0.023129823936315415,"41":0.03550004797015189,"42":0.014344676155960325,"43":0.008674526871145661,"44":0.09312553098480983,"45":0.11046251144752409,"46":-0.19043831852134105,"47":-0.14953655481614722,"48":-0.05818940693798363,"49":-0.10308058301747366,"50":0.1394647945123128,"51":0.1070688819208313,"52":0.004776806765209863,"53":0.032927143884805866,"54":-0.026309651243524565,"55":-0.01847370674830195,"56":0.01001241792405861,"57":0.13360804325329395,"58":-0.09000904526563001,"59":-0.06723455654421613,"60":-0.015261239611919039,"61":-0.04319601912031405,"62":0.04728417808249615,"63":0.033878561720756116,"64":0.023805187980599874,"65":-0.04679840786871165,"66":-0.008966763257309452,"67":-0.004571460044249265,"68":0.011149857367651445,"69":0.09109481820422632,"70":-0.06807879612775113,"71":-0.05009117604159105,"72":-0.031164090171564872,"73":-0.09220151845153876,"74":0.09666726800647624,"75":0.07232191350940828,"76":-0.017476712310359764,"77":-0.0037718639828191037,"78":0.02841180047122902,"79":0.019347190905353386,"80":-0.0006799482516937892,"81":-0.0443355898305641,"82":0.025316454572810055,"83":0.020017965666015384,"84":0.07456482949172102,"85":0.23366586225508565,"86":-0.2341695485327229,"87":-0.18158427409548306,"88":-0.09070757482974197,"89":-0.19471073859296797,"90":0.23400596051470318,"91":0.18308618498498563,"92":0.01662212762324474,"93":0.04590323710478581,"94":-0.050707262962468067,"95":-0.03651262081517801,"96":0.02463744994833519,"97":-0.006911011134480973,"98":-0.032389696477444024,"99":-0.02259277447561261,"100":-0.019350522421362586,"101":-0.009423353451088265,"102":0.03417835320032094,"103":0.023813411000066263,"104":0.051291836656263794,"105":0.06958231814949382,"106":-0.11146834044956555,"107":-0.08497123197391548,"108":-0.06334756987440932,"109":-0.20982280897297678,"110":0.20586127899915532,"111":0.15871787738164628,"112":-0.007735391247877335,"113":-0.05627655191492226,"114":0.04373461089830495,"115":0.0315342864826919,"116":0.11962405444621231,"117":0.11164815370935104,"118":-0.22625128029018426,"119":-0.18011155744958546,"120":-0.1298540807280218,"121":-0.2127735395378455,"122":0.29568338280159334,"123":0.23545395548764747,"124":0.002906141369836731,"125":-0.012449832695978364,"126":0.00170825207191811,"127":0.002977923177354679,"128":-0.0030004310412799677,"129":-0.10062596188175027,"130":0.060293846578248246,"131":0.046478447224826136,"132":0.0012046611784103203,"133":0.009881330243230247,"134":-0.007678970000473176,"135":-0.005225441783227826,"136":-0.001520221973366358,"137":0.04897333019482854,"138":-0.024093186026677135,"139":-0.02011316948365046,"140":0.03778939365050196,"141":0.07643437988780749,"142":-0.09693739882261893,"143":-0.07288642406394417,"144":0.03930874760537294,"145":0.025519211077291465,"146":-0.07060642972113478,"147":-0.05271753773912971,"148":-0.0476003592681415,"149":-0.2088106770057469,"150":0.1840750510573728,"151":0.14064115198457255,"152":-2.6729117301793264,"153":-3.8850295102413184,"154":1.8532008788685967,"155":2.5696792785384766,"156":-0.05184694837612283,"157":-0.16797169515586619,"158":0.16705533816851292,"159":0.12785046555170668,"160":-0.09727694128864257,"161":-0.2508478515479749,"162":0.2739393077327149,"163":0.2146747817654668,"164":-0.11173211138485982,"165":-0.19225158952276464,"166":0.26047386409257695,"167":0.2059148920175463,"168":-0.023453324336569124,"169":-0.2427850534113784,"170":0.1699277513792687,"171":0.12853844859542649,"172":-0.0016326913154217514,"173":0.050625662125112686,"174":-0.024826782219297513,"175":-0.02072107815037536,"176":-0.02818607096611751,"177":-0.00025430033320380103,"178":0.041278549752273234,"179":0.029571811078280115,"180":0.0032830676190698225,"181":0.0358304390190659,"182":-0.025514329588759464,"183":-0.018316987565539112,"184":-0.04191071353043051,"185":-0.15664736268616922,"186":0.14726020969206344,"187":0.11191622526992302,"188":28.06785816386358,"189":3.4312439364583867,"190":59.27290736023311,"191":-14.234065606309048,"192":-0.006916219353424429,"193":0.011527859940642784,"194":0.004859043962472036,"195":0.001474384872056625,"196":-0.04976877485447418,"197":-0.15926034933974548,"198":0.15939029108327196,"199":0.1217870576433744,"200":-0.009516408602334919,"201":-0.005118976527944865,"202":0.017898745041619802,"203":0.011366368541873319,"204":0.11991481562913264,"205":0.16038609754561245,"206":-0.25357293617953736,"207":-0.20151752569149894,"208":0.02641858399132928,"209":0.12124075249419844,"210":-0.10632773630317374,"211":-0.0795648028815308,"212":0.020977662860578176,"213":0.09038404745223713,"214":-0.08158629987743764,"215":-0.060355089099109194,"216":-0.03047396548776208,"217":-0.038510810563616334,"218":0.0657718289132496,"219":0.04851171132184779,"220":0.037059950457065526,"221":0.11691781634350165,"222":-0.11851686633361724,"223":-0.08945919256118597,"224":-0.09411235358703829,"225":-0.22459524955687574,"226":0.2551406605516173,"227":0.1998001027382768,"228":0.005698572283713649,"229":-0.09834154653186479,"230":0.04525993003954668,"231":0.03712241750924035,"232":-0.00008484053386655682,"233":-0.005298226583347001,"234":0.003029201651432508,"235":0.002396918989876972,"236":0.005319474613112698,"237":-0.1661106272719088,"238":0.08364054854050561,"239":0.06659043110759948,"240":0.09062757539608433,"241":0.23746418869489377,"242":-0.2576748544040581,"243":-0.20138028610753403,"244":-0.06535289535988566,"245":-0.12163190014637063,"246":0.15945034282086729,"247":0.12306909191993146,"248":-0.006495477008689268,"249":0.010953932049895107,"250":0.004560014750186766,"251":0.0012844194471847916,"252":-0.10644075888835612,"253":-0.1766093950608025,"254":0.24481016363434693,"255":0.19314951968037478,"256":-0.008245838162316907,"257":0.045461089747131055,"258":-0.012102572005702077,"259":-0.011720685738103717,"260":0.0042875656933909065,"261":0.10766180249335984,"262":-0.06654653464371654,"263":-0.050540945529347354,"264":-0.08619254651833805,"265":-0.19609471348761587,"266":0.22876883482820673,"267":0.17857107241708112,"268":0.04898707268808275,"269":0.024084938866341582,"270":-0.08297095414009635,"271":-0.06286628132429455,"272":0.06496975653951718,"273":0.11958085799412418,"274":-0.15779298804928857,"275":-0.12175745663662814,"276":2.7167034071113796,"277":0.5133818365707953,"278":-3.1245735674996316,"279":3.7575737223047225,"280":0.0019729115908707264,"281":0.050946905323966334,"282":-0.0314082237497848,"283":-0.023859048604314804,"284":0.0017559949312008325,"285":-0.11323341728990437,"286":0.05937085890998275,"287":0.04760206269178887,"288":0.003148433034466355,"289":0.13333394018689892,"290":-0.07838421029531893,"291":-0.06092261048221632,"292":-1.442674960630325,"293":0.4204308774628052,"294":7.7807131732342665,"295":-2.3968263786907644,"296":0.11436787151767618,"297":0.011311429081309271,"298":-0.16385959752996493,"299":-0.13071808686840203,"300":-0.06425642735338849,"301":-0.06641884462326841,"302":0.12722583474316196,"303":0.09810805794031052,"304":0.0024587352287745207,"305":-0.06596307517548718,"306":0.03204152654964871,"307":0.02653277229326584,"308":-0.05698176893467014,"309":-0.05158309718102751,"310":0.10913531788976351,"311":0.08359512926122149,"312":-0.0028524913597337514,"313":-0.033175806389259196,"314":0.0233310702058987,"315":0.016777252880455687,"316":-0.017836530829802733,"317":-0.10375400649599023,"318":0.08464328384044684,"319":0.0626871773083825,"320":-0.05762390718477498,"321":-0.015527768071414495,"322":0.08990109270699577,"323":0.06882893100203075,"324":-0.004066614846798114,"325":0.006999757322559691,"326":0.0031136137135479793,"327":0.0005153840724308093,"328":0.0810626027561562,"329":0.09139500946852269,"330":-0.163718973682526,"331":-0.1277201567940632,"332":-0.022276765263355165,"333":-0.19619327847340892,"334":0.14234485690325754,"335":0.10723369692273006,"336":-0.0011796463016023441,"337":-0.019097622765957584,"338":0.012636957498553788,"339":0.009254555865965169,"340":-0.06189970549615246,"341":-0.24732508933432523,"342":0.22481913615064406,"343":0.17318914924131876,"344":-0.0008374794218374402,"345":-0.038478233826967544,"346":0.022442424414904634,"347":0.017557974003608562,"348":-0.11477255076591532,"349":-0.18771846460931693,"350":0.2619668325435614,"351":0.2074275073805064,"352":0.08182981511420806,"353":-0.2019509421879959,"354":-0.001118354683207734,"355":-0.0026572316122558423,"356":-0.010623510719589939,"357":-0.2155835404997533,"358":0.1362595515393823,"359":0.10330331407101159,"360":-0.08179886719129725,"361":-0.0910367254724566,"362":0.16450649782682164,"363":0.12839468502816892,"364":0.015892135125640455,"365":0.05879616943371174,"366":-0.05686526217181205,"367":-0.041262982213657845,"368":-0.01233259751958797,"369":-0.12717844759492383,"370":0.08984411293431137,"371":0.06687613242697545,"372":-0.04915992903079293,"373":-0.1037309990602696,"374":0.12761622005944823,"375":0.09725844027610261,"376":-0.05598994194457055,"377":-0.1639583205966001,"378":0.17041377321065937,"379":0.13076109100947206,"380":-0.0022654815674667582,"381":-0.03957130303097551,"382":0.025790987158693355,"383":0.019078344754859273,"384":0.0019188104975018728,"385":-0.1258121700289125,"386":0.06612591358246898,"387":0.05284731137962838,"388":1.118983324789995,"389":2.3286339014629713,"390":-3.0463983395677525,"391":-1.97680314703202,"392":0.01609340766285392,"393":-0.010740785939560963,"394":-0.018381058642684883,"395":-0.011614733884194746,"396":-0.06963343393955242,"397":0.06372106016608622,"398":0.06192258039724856,"399":0.04823839570314652}},"b1":{"n":100,"d":1,"w":{"0":0.00047243395055678484,"1":0.008217008005782568,"2":-0.00024764787215886654,"3":-0.0018616535896386819,"4":-0.0015777410304955192,"5":0.00462400161585894,"6":-0.003705691312664616,"7":0.009425377793676047,"8":0.003133003546720205,"9":0.007805287125155119,"10":-0.0011410003911344496,"11":0.00748957175339819,"12":-0.0060265070215764285,"13":0.0015141635742084334,"14":0.004286874446834623,"15":-0.0025761483761466506,"16":0.0009036312870481834,"17":0.003414332585644812,"18":-0.004591775565930058,"19":-0.0017729286973083914,"20":-0.0009656137519867886,"21":0.009622650938286697,"22":-0.009284284687791073,"23":0.0027230090877371623,"24":0.001906308656896088,"25":-0.002014087044216565,"26":0.0049583426212801394,"27":-0.008681627657760394,"28":-0.0023360366290624307,"29":0.008349462925397805,"30":-0.010779116149392766,"31":0.0002915261478904738,"32":-0.0025587185139023644,"33":0.0004782417965755521,"34":0.0006859116152913276,"35":0.0045297821656829825,"36":0.0033896837409279367,"37":-0.008047479064978295,"38":0.7905407211943504,"39":-0.007276921356098784,"40":-0.01072932999676485,"41":-0.009859266322029606,"42":-0.007697471945052495,"43":0.0007077270952951483,"44":-0.0022577093680785313,"45":0.0013800093157148004,"46":-0.006591646855215224,"47":-10.294144470649726,"48":-0.000705648642455039,"49":-0.006990375578279881,"50":-0.001295627169807114,"51":0.009390863542738785,"52":0.005039613438279651,"53":0.004023515261250568,"54":-0.0032845572174114105,"55":0.005450792993265397,"56":-0.010053355849883568,"57":-0.0014298498751692018,"58":-0.0001152024474896135,"59":-0.003076371330387709,"60":0.010231157392517764,"61":-0.006737853784721152,"62":-0.0006838883090765557,"63":-0.009367497035798238,"64":-0.000012195970262752711,"65":0.00298923226733202,"66":-0.009169019810641771,"67":0.003783815409618694,"68":0.0066758544204058735,"69":1.2374728096086411,"70":0.0014113997858845144,"71":-0.002116109638374072,"72":0.0032137807010969447,"73":-1.7646642683100557,"74":0.0060358947326986465,"75":-0.0054143320922570804,"76":-0.0009587692401291622,"77":-0.0047716837585045245,"78":-0.0012558429864795338,"79":-0.00415583330541365,"80":-0.003946579501033,"81":-0.0005457299630099415,"82":0.0066330147796650136,"83":-0.006563444476857977,"84":-0.0006435512278217047,"85":-0.009483619323502545,"86":-0.0008970938785146371,"87":-0.009845374278972066,"88":-0.0003024389747227379,"89":-0.006132662107149637,"90":-0.006651800131627729,"91":0.0029827788449312775,"92":-0.004332062898368905,"93":-0.005670546722991425,"94":-0.0073502013078998426,"95":-0.001271569689472194,"96":-0.002393132313251551,"97":0.13487078880446465,"98":0.0013463341498610457,"99":-0.0025540928581078088}},"W2":{"n":3,"d":100,"w":{"0":-0.0025989926005527643,"1":0.05365082949064165,"2":0.004902099155985522,"3":-0.007393106231841558,"4":-0.0157645484931955,"5":0.02774948808514869,"6":-0.016683594465532182,"7":0.06295373275411262,"8":0.019110702247770017,"9":0.0495857685546426,"10":-0.00042522624748716944,"11":0.046882500992333515,"12":-0.03597723586995021,"13":0.007782330999246088,"14":0.02806268370393064,"15":-0.012830091402868688,"16":-0.0014892032915801495,"17":0.020525926950658444,"18":-0.02645999890001899,"19":-0.006130942759679041,"20":-0.00836749078739892,"21":0.06460059983969976,"22":-0.061773693278213304,"23":0.013726225034017898,"24":0.006177867499944716,"25":-0.007718874468170035,"26":0.02785452751804068,"27":-0.05715391284653705,"28":-0.013035637576635485,"29":0.05423575348699796,"30":-0.07552221833490803,"31":-0.001222444346786787,"32":-0.01958300973077285,"33":0.0022930903881652398,"34":0.00843601941222887,"35":0.02538077244855988,"36":0.016332534163139664,"37":-0.05265723789139669,"38":0.3173299378798241,"39":-0.04626358643942903,"40":-0.0738667575424887,"41":-0.06694986964592672,"42":-0.05221128214092084,"43":0.008704476970713856,"44":-0.008513387340086387,"45":0.007821672123853398,"46":-0.041418560364704954,"47":0.39525697334197873,"48":-0.00019858494722372342,"49":-0.04407741256744114,"50":-0.004069820421160771,"51":0.0632679922424085,"52":0.030521320070134784,"53":0.023244738600626515,"54":-0.01627945822781761,"55":0.032700359001043275,"56":-0.06819151173607957,"57":-0.01630880063416749,"58":-0.0010007467135147432,"59":-0.029031715797551646,"60":0.0696255643239468,"61":-0.04138352654048308,"62":-0.00017791765548739254,"63":-0.06266099068945759,"64":0.005713922369663291,"65":0.021378662783651282,"66":-0.06081252109147271,"67":0.01875622512946461,"68":0.04089851897930877,"69":-0.07548798839678603,"70":0.01010214186621403,"71":-0.02027411711424057,"72":0.025627828406318345,"73":-0.2954039636536129,"74":0.03433668718658375,"75":-0.03084151101698896,"76":-0.011281192877062456,"77":-0.026081466974673857,"78":-0.007181583064445806,"79":-0.024829680620550038,"80":-0.019554966390098495,"81":-0.00016056647552463855,"82":0.04007601551700755,"83":-0.04325293971922169,"84":-0.003968722436086007,"85":-0.06368615361666105,"86":-0.007360931256564559,"87":-0.0669262605153648,"88":-0.01428466182719949,"89":-0.043385538122711995,"90":-0.04021051629263949,"91":0.015913535588320545,"92":-0.0275712414780153,"93":-0.03360824149568036,"94":-0.04665852003869447,"95":-0.008139774142996867,"96":-0.022559634520558123,"97":0.640055258865339,"98":0.003032175651731129,"99":-0.008121002859381759,"100":0.0005524104346803813,"101":-0.007066249864623032,"102":-0.0008819878330576899,"103":0.000791800975487054,"104":0.0022703529732173468,"105":-0.0035476971360165195,"106":0.0019916217466090505,"107":-0.008366723811081467,"108":-0.002446155940211123,"109":-0.006528638570436287,"110":-0.00019266611716378546,"111":-0.006164722661532385,"112":0.00463688974009733,"113":-0.0009349985367298292,"114":-0.003670205782660743,"115":0.0015320845919837619,"116":0.00045549103461962854,"117":-0.0026170116799234034,"118":0.003349896325228696,"119":0.0006048737115876453,"120":0.001173515123247827,"121":-0.00858959470002441,"122":0.008223125883951132,"123":-0.0016483186967636268,"124":-0.0005889663310415335,"125":0.0008150362538492027,"126":-0.0035228546201208147,"127":0.007552705453390367,"128":0.0016187233979617728,"129":-0.007231977459377314,"130":0.010227136101235008,"131":0.00028117416624490264,"132":0.002669412737580274,"133":-0.00026668245919659787,"134":-0.0012557323066726834,"135":-0.0031926998326560004,"136":-0.0019527697171416963,"137":0.0069293516264345,"138":0.11775499227317571,"139":0.006050134207453366,"140":0.009908814613745664,"141":0.008984831561989962,"142":0.006907320548724148,"143":-0.0012955917655645243,"144":0.0009002061802328918,"145":-0.0009748407721286383,"146":0.005389515493308439,"147":-0.42685929970245035,"148":-0.00014189162057367199,"149":0.005749908855154277,"150":0.0003667780821552474,"151":-0.00849486650770772,"152":-0.003916749591175985,"153":-0.0029354194974345535,"154":0.001957481424102646,"155":-0.004196647787185475,"156":0.00911737618474771,"157":0.002395561076680684,"158":0.00014043561782447908,"159":0.004130749768397348,"160":-0.009308909534203942,"161":0.00538209348433548,"162":-0.0001403280193877594,"163":0.008376764581655713,"164":-0.0009652706308675604,"165":-0.0028639565749550436,"166":0.008082876681929889,"167":-0.002277475765595024,"168":-0.005315181176130355,"169":0.7896434862270358,"170":-0.0013536207366190555,"171":0.0028967677797966025,"172":-0.003527527652557614,"173":0.26996573027794296,"174":-0.004443696740566457,"175":0.003932410771287238,"176":0.0016675393081346172,"177":0.0032787635272101745,"178":0.000897779569412136,"179":0.003165832761095973,"180":0.0023844402958617316,"181":-0.00011058164341546642,"182":-0.005211759736106878,"183":0.00567841006441055,"184":0.0005088599973087106,"185":0.008450769992296615,"186":0.0010201264874380822,"187":0.008989204762777175,"188":0.002227520346008997,"189":0.005795960554790509,"190":0.005230892845123335,"191":-0.0019516909278903909,"192":0.0035781440085779596,"193":0.004312625299393411,"194":0.00610465168819108,"195":0.0010562070463261686,"196":0.0032130940464133676,"197":-0.054939662287555376,"198":-0.00018672082726141326,"199":0.0008206939811300335,"200":0.0001660268587454701,"201":0.006026508795990705,"202":0.000012175557785217504,"203":-0.0011869763485329538,"204":-0.0012954917599592491,"205":0.003243982485914476,"206":-0.0026130786057398164,"207":0.007045922595712545,"208":0.0021820232946078272,"209":0.005778245831735386,"210":-0.0006331135877624096,"211":0.005555661011831314,"212":-0.004332459262578842,"213":0.001003604225728496,"214":0.0030522707072285745,"215":-0.0017190600352939545,"216":0.0004563047345235837,"217":0.0023735086624082167,"218":-0.0032124672687784237,"219":-0.0011117601296879395,"220":-0.0007522771843181525,"221":0.007193869139228579,"222":-0.006976783098226826,"223":0.0018248172442841065,"224":0.0012015725609150563,"225":-0.0012879934266911781,"226":0.0035071293229086437,"227":-0.006411407246524761,"228":-0.0015868297858233006,"229":0.006339097116848232,"230":-0.008388450810720071,"231":0.00010390248530222773,"232":-0.001908760947160313,"233":0.000309989743310882,"234":0.0006155680437758137,"235":0.0031677377798683096,"236":0.0023118271849646194,"237":-0.00588006468191302,"238":0.06002726998859707,"239":-0.005285445340581998,"240":-0.00818049226994939,"241":-0.007532632285078351,"242":-0.005612245069907821,"243":0.0006349403852596166,"244":-0.0014620784084616208,"245":0.0009367013864809224,"246":-0.004743879909867042,"247":-0.023564816443401963,"248":-0.00036291176180757817,"249":-0.005059942904024247,"250":-0.000786249962885671,"251":0.007190463612513437,"252":0.0035542726446728366,"253":0.002792688517528804,"254":-0.002229073099229404,"255":0.0038654711237328257,"256":-0.007613261614048423,"257":-0.0012303379316030384,"258":-0.00008981935943500567,"259":-0.0024642536183998275,"260":0.007744279542563995,"261":-0.004894607924968898,"262":-0.00035046538734171827,"263":-0.007107361648747472,"264":0.00016730903270846618,"265":0.002180120996150783,"266":-0.006867838673217163,"267":0.0026182545667101506,"268":0.004845826543198313,"269":0.06167024942367838,"270":0.001027781727374956,"271":-0.0017087872240603276,"272":0.0024351219309930944,"273":0.08874751840555044,"274":0.00447590192976718,"275":-0.0038767747939114114,"276":-0.0008414294148141386,"277":-0.003375170060330974,"278":-0.0008541621490913601,"279":-0.0029010251805301856,"280":-0.002754157179842426,"281":-0.0002763400409247138,"282":0.004851951754662175,"283":-0.004730182206819183,"284":-0.000446862336749342,"285":-0.007046389164298295,"286":-0.0006849441397218045,"287":-0.007535819599807967,"288":-0.00035733374068016476,"289":-0.004491126999562345,"290":-0.004868450935825821,"291":0.002022309098010313,"292":-0.003063847657839456,"293":-0.0040452948303305435,"294":-0.005349739240924871,"295":-0.000893464359798034,"296":-0.001920607751056034,"297":0.04831587299932608,"298":0.0007967391484517501,"299":-0.0017350950712953467}},"b2":{"n":3,"d":1,"w":{"0":-0.4349848081300115,"1":0.11835955512619586,"2":0.013006744730392822}}}}}