{"numStates":1,"sensitivity":17.13465485650671,"alpha":0.0982230934055171,"gamma":0.14137615278534388,"epsilon":0.09754586477450655,"cycles":3426,"max":{"lastUpdatedDate":"2018-04-04T10:23:37.131Z","meetsCriterion":false,"cycles":814,"wealth":3.6959257806609,"percentSuccess":0.2536051215529396,"odds":1.0952380952380953,"weights":{"nh":100,"ns":4,"na":3,"net":{"W1":{"n":100,"d":4,"w":{"0":0.2681572462188388,"1":0.533564792185701,"2":-0.13741126478308327,"3":-0.878700468278188,"4":-0.1643437529246304,"5":-0.486099808061914,"6":0.3267899575202449,"7":0.6469313713798313,"8":-0.056890543571953694,"9":0.07581276728598271,"10":-0.3569750737989281,"11":0.14374982662930433,"12":-0.16411680707797835,"13":-0.17368993339253652,"14":-0.17587765824991083,"15":0.41398234218517166,"16":-0.16168225165482672,"17":-0.5140422012357251,"18":0.5406320418558541,"19":0.5079674515283767,"20":-0.1702301398009957,"21":-0.17681529558484363,"22":-0.21845262055306813,"23":0.4556166204260735,"24":0.11107337410050652,"25":0.06763293006442038,"26":0.17083396535191286,"27":-0.23658409439397385,"28":-0.16444875759474442,"29":-0.23734024567337464,"30":-0.04280456963435035,"31":0.4268696185444215,"32":0.16374454539856365,"33":0.30849992534935416,"34":-0.11120337903449391,"35":-0.48986332322499115,"36":-0.1577701287420576,"37":-0.12507230986227547,"38":-0.2701439894001087,"39":0.42984387072337804,"40":0.11484727107938204,"41":0.0891845080811389,"42":0.1298985218101987,"43":-0.24700480564253788,"44":5.018030496742617,"45":2.8066500359651263,"46":2.233456928629746,"47":-0.7174634444076539,"48":0.2556695252547597,"49":0.427601290590198,"50":0.05310763692159746,"51":-0.7477158546965114,"52":0.18323181993946666,"53":0.18888059703885102,"54":0.13814579101358343,"55":-0.4461154083055424,"56":-0.21063973354609933,"57":-0.2344480603849185,"58":-0.24593703324793467,"59":0.6080486443663428,"60":-0.09704353230926702,"61":-0.1264634091763821,"62":-0.10105989345554839,"63":0.23918256461698217,"64":-0.19328557078022243,"65":-0.19278405636356,"66":-0.397899340051896,"67":0.7197391944772815,"68":-0.09744420920778538,"69":-0.10916088317073666,"70":-0.07602875369300732,"71":0.22487751495289116,"72":0.21031092811146523,"73":0.29926084990922475,"74":0.05410552424744691,"75":-0.5553730053488709,"76":-0.09398310624776839,"77":-0.0020613844435058686,"78":-0.35577891448764665,"79":0.27993925969340866,"80":0.2625981062448496,"81":0.31467522314891533,"82":0.21615958060657092,"83":-0.7621225643080971,"84":0.17676754250864382,"85":0.21584242153999467,"86":0.07124310209399741,"87":-0.4345230526934871,"88":0.23619236064518953,"89":0.28005882321724407,"90":0.2598635128070875,"91":-0.7167422969625041,"92":-0.08550336596311937,"93":-0.1475427412572786,"94":0.1262692957912466,"95":0.24555644482682262,"96":0.23697226198696084,"97":0.39674227536224255,"98":-0.07390823256906019,"99":-0.6794696031236449,"100":0.023572435596752282,"101":0.18273512809462952,"102":-0.26745417583100456,"103":-0.15027404699164323,"104":-0.1058082668212307,"105":-0.39115800524460453,"106":0.42614981390787565,"107":0.38553847843637573,"108":5.930787522665006,"109":-2.5100821610000907,"110":4.9129525650041295,"111":14.683080417823849,"112":0.05778324473625061,"113":-0.050544008165892045,"114":0.3084294698970557,"115":-0.12435340444547913,"116":-0.1407897749797574,"117":-0.13640585276848957,"118":-0.1808173179982429,"119":0.3436828189495871,"120":-0.1508949838378021,"121":-0.18724242326021454,"122":-0.07323118885921505,"123":0.37013809639018913,"124":0.19768732459583982,"125":0.225122068035772,"126":0.291917129728064,"127":-0.618242060534243,"128":0.126363143029736,"129":0.3784817858049905,"130":-0.45023259556175976,"131":-0.3987704289684463,"132":0.09033355449138689,"133":0.21442398570903168,"134":-0.1581793892680016,"135":-0.30408988847077956,"136":-0.0821605025615957,"137":-0.07565458839873077,"138":0.9671986523339235,"139":-0.8904432459470645,"140":0.0016269030496707134,"141":-0.08140278059415564,"142":0.12926301619081054,"143":0.062102407223570286,"144":-0.04731154021426489,"145":-0.06362939852915395,"146":0.02018488229075619,"147":0.11828157776966536,"148":-0.11096928575942065,"149":-0.37548878413682507,"150":0.3997858969729231,"151":0.4027116061742523,"152":-0.21127180531825213,"153":-0.3629037896228503,"154":0.043565255143684686,"155":0.6041703654913415,"156":-0.054211338030967546,"157":-0.20836603800312753,"158":0.2750723825658503,"159":0.22328250918237882,"160":0.24005835364856964,"161":0.32263359883856835,"162":0.14783007426968045,"163":-0.6637809425982228,"164":-0.10200949083818354,"165":-0.1424843639665695,"166":-0.006273511007248145,"167":0.25710983794431364,"168":0.13793029279743915,"169":0.3687594198595183,"170":-0.3034938626140763,"171":-0.4970913355743167,"172":0.055344659385611256,"173":-0.012325539721510872,"174":0.2374376975710681,"175":-0.1059275662977842,"176":0.1350611814979835,"177":0.1753452842602609,"178":0.03143607359276979,"179":-0.3326403477781208,"180":0.01166911292923437,"181":-0.02902539464887753,"182":0.006620898667216759,"183":0.0032505074635204145,"184":-0.12234340913591486,"185":-0.40076642507142557,"186":0.6291866208528273,"187":0.20261451052082508,"188":0.2998470858367574,"189":0.5190473486590506,"190":0.013222240635796235,"191":-0.9169690233611212,"192":0.058967844230099216,"193":0.21923255425446758,"194":-0.2927365964856598,"195":-0.23313992355589322,"196":0.07584052946960773,"197":-0.005593704207617521,"198":0.3952697183068238,"199":-0.2762773942078521,"200":0.16566621421443561,"201":0.20610096519154425,"202":0.05438816136730233,"203":-0.40664477048024045,"204":-0.06390727508449011,"205":0.010929056217844645,"206":-0.1904739454403104,"207":0.10388590854153304,"208":5.444129589283803,"209":-1.5731954468917089,"210":-7.9840616982820585,"211":23.37943379202898,"212":0.31017344771193905,"213":0.45590272152170896,"214":0.24278815841104226,"215":-1.0390780283548986,"216":-0.10078151792537018,"217":-0.031198410517194936,"218":-0.35559911995984583,"219":0.3165188968218888,"220":-0.12934561715593676,"221":-0.399008790089821,"222":0.6535131589800739,"223":0.18367988180176686,"224":0.10852738821076102,"225":0.3484499928857566,"226":-0.6265860185993636,"227":-0.1295046292999452,"228":-0.07298221500567327,"229":-0.017726546177121782,"230":-0.2532788580627794,"231":0.16843507929537985,"232":0.10654728391953942,"233":0.37867343732630343,"234":-0.6380137967856837,"235":-0.133263472044148,"236":-0.10929787657283092,"237":-0.07262119245217026,"238":-0.4070477669743225,"239":0.4265856515997062,"240":-0.26836318766801914,"241":-0.4667553646232912,"242":0.03761379738506339,"243":0.7977409473139895,"244":0.10577433032059548,"245":0.03223583826637448,"246":0.4028793569887315,"247":-0.38195112785328944,"248":-0.13765619645187738,"249":-0.265023282379869,"250":0.051031913759741095,"251":0.40776422511276417,"252":0.02871946254646067,"253":-0.0543126071040176,"254":0.2724192062304611,"255":-0.04323793408848376,"256":-0.14596230463290963,"257":-0.13271580239826086,"258":-0.16169706587974111,"259":0.3447996222854359,"260":-0.22997961854206556,"261":-0.6677032110257891,"262":0.5971415145444888,"263":0.7639949152269718,"264":0.21466105666828858,"265":0.37740835259568656,"266":-0.0022993149964420346,"267":-0.6203756209234628,"268":-0.11762901735662863,"269":-0.3820619280120155,"270":0.3754468796370788,"271":0.43791393904667014,"272":0.12410376084172349,"273":0.3435512716518935,"274":-0.2464096794237308,"275":-0.46019142323606566,"276":0.09925708442325418,"277":0.3602855847159892,"278":-0.4304271550955362,"279":-0.3420258496399169,"280":0.06554668203790308,"281":0.25170027855665583,"282":-0.2851881785759568,"283":-0.2735090247893701,"284":0.010395883768727819,"285":-0.09525040931003827,"286":0.23577510882862493,"287":0.037437159555248886,"288":-0.06868900532631397,"289":-0.07056295372787047,"290":-0.09461484270301937,"291":0.15235693527861016,"292":-0.010349481795559244,"293":-0.14347953648943762,"294":0.2167422864621756,"295":0.11417048848828823,"296":0.25394027905205946,"297":0.3760119661687623,"298":0.1400620312864616,"299":-0.7361910885748991,"300":0.17173730590174804,"301":0.15156301174946699,"302":0.2102310678365677,"303":-0.43267723860163376,"304":0.0761770446685938,"305":0.04616570756998263,"306":0.10892936592822307,"307":-0.14744512978715182,"308":0.1971199222186093,"309":0.3134414757420685,"310":0.05068665501162915,"311":-0.5428066007698444,"312":0.25810765148553805,"313":0.7638615090038828,"314":-0.47279333025998743,"315":-1.1445656611833048,"316":-0.16345113159683156,"317":-0.13122909167925273,"318":-0.2021665961729936,"319":0.3965834268368128,"320":0.072960409496291,"321":-0.04936618391970199,"322":0.38403247194010853,"323":-0.2242510958232836,"324":0.14426787313363595,"325":0.16884639175248936,"326":0.16530446711189334,"327":-0.36894725259096095,"328":-0.17321371009204067,"329":-0.23644523276237206,"330":-0.035254709557377216,"331":0.441449465852113,"332":0.09840998511843088,"333":0.22957962423171577,"334":-0.09423326374296681,"335":-0.32406661571851864,"336":-0.12490750185952969,"337":-0.3095086576100051,"338":0.21038317717122948,"339":0.4353761570556015,"340":-0.09519589316312077,"341":-0.0388945175214134,"342":-0.23062220137690456,"343":0.21354369718041832,"344":0.021365926499945006,"345":0.1747337813949746,"346":-0.6441316734910737,"347":0.2553998906377762,"348":0.03895567430751494,"349":-0.06741318202773777,"350":0.2489831902859844,"351":-0.040570926239516955,"352":0.03136415462756563,"353":0.13125199327891202,"354":-0.14353082920676974,"355":-0.14874146789556097,"356":0.14655445076933743,"357":0.17515491038813177,"358":0.08392213830471004,"359":-0.35547382722696486,"360":-0.28418175956929886,"361":-0.49149722792358885,"362":-0.02481108583794459,"363":0.8561166850927243,"364":0.0683846917616771,"365":0.24457648170790544,"366":-0.23686707530434276,"367":-0.28603834314031873,"368":-0.12569244971675966,"369":-0.1058941192228387,"370":-0.17763182933029792,"371":0.2938255921450826,"372":0.05167191574182042,"373":0.061715140769187236,"374":0.04993619659261623,"375":-0.11922511333825832,"376":-0.02374722384078516,"377":-0.15885419431882258,"378":0.23017833374376884,"379":0.1453945817928065,"380":-0.09698859640632572,"381":-0.3290166193703989,"382":0.3679237853339825,"383":0.3566048481202308,"384":-0.06459572132474845,"385":-0.3041439895358166,"386":0.6154731635507987,"387":0.002592543655625921,"388":-0.030729295096268983,"389":-0.16443625509989657,"390":0.2974127845101156,"391":0.13746648349610804,"392":-0.10891559188950341,"393":-0.09537643619758973,"394":-0.13151615245359555,"395":0.24251631528322548,"396":-0.08537352764179819,"397":-0.025681926117296455,"398":-0.3599730088304014,"399":0.28350702140703743}},"b1":{"n":100,"d":1,"w":{"0":-0.12084537400679958,"1":0.06306757418444787,"2":0.06642350899055632,"3":0.08508605448743412,"4":0.014266452224093465,"5":0.09748809832809431,"6":-0.05633047300574832,"7":0.07022493809839185,"8":-0.06220641104001872,"9":0.10037732292878673,"10":-0.05277102333577887,"11":0.06684072619022136,"12":-0.12275021864841304,"13":-0.08509341174952806,"14":0.12591320407348527,"15":0.04826753182100679,"16":0.1656968671890549,"17":0.04288996545277708,"18":-0.0918030802186809,"19":0.0881468429643343,"20":-0.14689707328070786,"21":-0.07476544191613743,"22":-0.14565573028159978,"23":0.022752422463741238,"24":-0.09598132090165834,"25":0.008215325864750283,"26":0.009049709505883203,"27":0.4531320254687088,"28":-0.05679582364012036,"29":0.0745929041472205,"30":0.06501069114131182,"31":-0.1340959565950255,"32":-0.00782922794253906,"33":-0.02836840352910079,"34":-0.2716057657126606,"35":-0.005143406333596558,"36":0.015504336400201919,"37":0.015047344971660472,"38":0.08778668275499535,"39":0.0021058702946299118,"40":-0.12152449606160454,"41":0.039648528672353835,"42":-0.04166043349996053,"43":-0.04459472742264736,"44":-0.05413038364197726,"45":0.000012910832040951317,"46":-0.047783188996014095,"47":-0.14511190879923386,"48":-0.0014446437519764278,"49":-0.09316277328003009,"50":-0.06832992546913798,"51":0.03814040636805979,"52":5.322422423255498,"53":-0.19680580557659139,"54":0.09407059428719607,"55":-0.054284055038897334,"56":0.05954165113537582,"57":0.05652818783053709,"58":0.060363028602404646,"59":0.11922278611167621,"60":0.11934778496145049,"61":-0.11127384298451344,"62":0.056464481933006815,"63":-0.039351461435067424,"64":0.07218579670578802,"65":0.04945919550407127,"66":-0.09540032472441967,"67":0.023710493317190228,"68":-0.04265949084919213,"69":-0.0014201970709573875,"70":-0.00882191171040553,"71":-0.02193520940041638,"72":0.03404414867895764,"73":-0.0075588008877096385,"74":-0.13234577514649434,"75":-0.09258325895414214,"76":-0.03483949293546582,"77":-0.08956240208155301,"78":-0.12680851139884963,"79":0.08568981172316872,"80":-0.08308099399583278,"81":-0.07664541202645173,"82":0.07149607814729812,"83":-0.03881326611387923,"84":0.04279861980781291,"85":0.060564670038515275,"86":0.1249614482311026,"87":-0.03573726688857965,"88":-0.0063704526316083155,"89":-0.06403842762133934,"90":0.13669729145813714,"91":-0.01664935942399759,"92":0.06627355353342916,"93":-0.023749602699405993,"94":-0.00442000892877271,"95":0.011637935158528168,"96":-0.07864781321817553,"97":-0.014183005066805613,"98":0.05235705897822769,"99":0.08943768356135717}},"W2":{"n":3,"d":100,"w":{"0":0.059445816927736456,"1":-0.0038712502148374604,"2":-0.06396569519914855,"3":-0.06974720546957655,"4":0.029734870822616145,"5":-0.07741240505187923,"6":0.05332243166518075,"7":-0.052201160541608574,"8":0.02987872213543548,"9":-0.07988734158269888,"10":0.048680100917808854,"11":-0.36782477139098796,"12":0.08215623922983054,"13":0.06803113988866744,"14":-0.09183833366041942,"15":-0.04298767340188576,"16":-0.10819066410600113,"17":-0.03781356294779062,"18":0.06613575269299192,"19":-0.0744372009039779,"20":0.10137990143432293,"21":0.0578263617982916,"22":0.10107812414406703,"23":-0.002726030295337107,"24":0.05566545258210175,"25":-0.030164918536739915,"26":0.028713053025044778,"27":-0.17399463618583327,"28":0.05842869076012722,"29":-0.06426967698495394,"30":-0.05173096913636492,"31":0.09575123640226993,"32":-0.029658420145196953,"33":0.002207731325633599,"34":0.1278134944038017,"35":0.017883079757216924,"36":-0.009129781043850567,"37":0.02455416806492393,"38":-0.053859618046079485,"39":0.024473027407545766,"40":0.08774996728476755,"41":-0.02868396350372362,"42":-0.00440665495204924,"43":0.04934543725248174,"44":0.04109990507520614,"45":0.0015170525543811595,"46":0.05546772030385871,"47":0.08980400860462485,"48":-0.02583173201186443,"49":0.07661184265555078,"50":0.05241554092374583,"51":-0.04344092957764251,"52":0.36128623740996696,"53":0.12342537894065336,"54":-0.07723485101708509,"55":0.05780905786511293,"56":-0.06007090426114666,"57":-0.056655379237662264,"58":-0.06030890958320306,"59":-0.08827586304769083,"60":-0.07213844086896802,"61":0.08473921822721224,"62":-0.0328585589940741,"63":0.047723595979841334,"64":-0.06184786350544186,"65":0.017484998360248225,"66":0.0625187494521598,"67":0.019077217343573594,"68":0.001179945385953963,"69":-0.032320481446217436,"70":-0.02149875156635867,"71":0.036322820324181944,"72":-0.03338597577352398,"73":0.026600851178666046,"74":0.09223893791850551,"75":0.07495190976688845,"76":0.035690760008675056,"77":0.06406302013997996,"78":0.017502409842013983,"79":-0.0710700931226461,"80":0.0720290207065733,"81":0.06434284713278196,"82":-0.05239205038494569,"83":0.015838175039370503,"84":-0.005378826628338771,"85":-0.05822380401996018,"86":-0.08516957318555507,"87":0.04505022744173202,"88":-0.011163110811609527,"89":0.05197421967388447,"90":-0.08709583244877588,"91":-0.013418981235167167,"92":-0.05924184950191613,"93":0.022060289840178944,"94":0.02549438074317666,"95":0.02470433322984028,"96":0.06774496473124937,"97":0.03483546636617371,"98":-0.04821780238727769,"99":-0.07500066929261391,"100":-0.14099304811618693,"101":0.11372516125768382,"102":0.007449079735459226,"103":0.06064172407416865,"104":0.10470121439150512,"105":0.06471333442124162,"106":-0.03260572173378727,"107":0.06845254602214329,"108":-0.08209969604394499,"109":0.05708825206342214,"110":-0.035979244853993536,"111":0.6173224458179659,"112":-0.11721703839710076,"113":-0.06649744763207886,"114":0.08522644480615346,"115":0.03735637784599511,"116":0.08993023130609744,"117":0.0350110904630553,"118":-0.08763520421813549,"119":0.028818593016142032,"120":-0.10838340985388481,"121":-0.06788390861138684,"122":-0.0997604932331022,"123":0.04208120846677732,"124":-0.10985171203459153,"125":-0.033479024262119586,"126":0.07908193096723583,"127":-0.16323133342542914,"128":-0.007990103588225307,"129":0.04967967821736901,"130":0.058103155714831906,"131":-0.08421685184087846,"132":-0.08087115669254208,"133":-0.0535502877559569,"134":-0.07369084726439251,"135":0.0139738721977981,"136":0.019520850923571337,"137":0.07958768810526656,"138":0.09849639193032425,"139":0.04455659484242372,"140":-0.099588621776826,"141":0.04192218737681712,"142":-0.08871320694000319,"143":-0.009728836217269346,"144":-0.053276451246935044,"145":0.0019031859615325961,"146":0.06449728377324336,"147":-0.14196810446991334,"148":-0.04682071036600527,"149":-0.02643252437494514,"150":-0.06412372083474734,"151":0.010700282105323571,"152":-0.7009685836020599,"153":-0.1447399501713658,"154":0.03493880867266035,"155":0.06306547590534833,"156":-0.052428371780703434,"157":0.018971029037284808,"158":-0.05504161949196308,"159":0.04861013806328491,"160":0.12682368740646136,"161":-0.04118743655476389,"162":0.0685733600186676,"163":0.0015966907123139886,"164":0.050151249632131883,"165":0.1453754552521558,"166":-0.10047627994414635,"167":0.08364349615991126,"168":-0.08164591934843687,"169":-0.07213173125486674,"170":-0.05356479453726307,"171":0.013364456012433443,"172":0.023081571415246735,"173":0.02556968449181171,"174":-0.11101095617946728,"175":-0.0608229536403323,"176":-0.020994678255604332,"177":-0.08681016576750303,"178":-0.18891502974602464,"179":0.055510934117290175,"180":-0.018013555621008637,"181":-0.054972658016869534,"182":0.0704535469498847,"183":-0.05618259328187931,"184":0.07623786633383671,"185":0.026555433911678052,"186":0.004124766881987627,"187":0.001983971204611448,"188":-0.02834567478835584,"189":-0.05539984764713181,"190":0.13342019258297996,"191":-0.05383459451407929,"192":0.04181315807532068,"193":-0.01877332338797616,"194":0.030770553220749303,"195":0.07039902723662737,"196":0.03372383515044358,"197":0.03162157679561292,"198":0.03567567951373648,"199":0.0303722896841151,"200":0.0010678814802401464,"201":0.003314438972449165,"202":-0.0009601980279458814,"203":-0.006150028912401963,"204":-0.00039371437296635385,"205":-0.008203202099251742,"206":0.004730458357244306,"207":-0.0070974659648231405,"208":0.006983228836222276,"209":-0.006361752385497297,"210":0.005154462969293547,"211":-0.001409279327963546,"212":0.009634587389345072,"213":0.010287089336414649,"214":-0.009213943221914522,"215":-0.004148868672880566,"216":-0.00343660271130678,"217":-0.004070522729316242,"218":0.009524257910447404,"219":-0.0018412274760522004,"220":0.009524561401663443,"221":0.007892883455838986,"222":0.007974583792381964,"223":-0.006048507022204229,"224":0.005442569682117566,"225":-0.00003510945298598561,"226":-0.001586844788442509,"227":-0.015996364475577753,"228":0.0010552942532457718,"229":-0.0036306249117604474,"230":-0.007734209562544242,"231":0.007767086951900339,"232":0.0016456859902521668,"233":0.004137968333225559,"234":-0.011904808025668345,"235":-0.002440722839430113,"236":-0.0027038182295752613,"237":-0.0005541226967747853,"238":-0.009040120763485872,"239":-0.0019762982463576786,"240":0.006775698818774584,"241":-0.006003613076189479,"242":0.0017846817541117188,"243":0.0022849959867080934,"244":0.00724260070127504,"245":0.001787734395208865,"246":-0.007320542484392088,"247":0.007229695202698501,"248":0.0012517522136505656,"249":0.0006220175120759743,"250":0.008408913389644754,"251":-0.0032480918616353215,"252":0.0007972939554930789,"253":-0.003152543532698734,"254":-0.0017045902402665059,"255":-0.007650799220673429,"256":0.007399720152366528,"257":-0.0021567075394831364,"258":0.0073956793484905095,"259":-0.0004707704163501357,"260":-0.005996764468104632,"261":0.0015171506612743997,"262":-0.0065405998063018615,"263":0.0008444609451197371,"264":-0.007895334004257381,"265":0.010186716826761314,"266":0.0050419808146804366,"267":0.00004907510054158354,"268":0.002376328499666487,"269":0.0023038756584906708,"270":0.0014800730287701377,"271":-0.0010380132439592952,"272":-0.0025547177882505566,"273":-0.00033628541109563157,"274":0.010438278788773599,"275":0.007214195125636701,"276":0.0024957368637505434,"277":0.008994405003318065,"278":-0.04641656544399325,"279":-0.007878184637359047,"280":0.0007759738666984651,"281":0.00580166969287054,"282":-0.010295559383237271,"283":0.0037575810582710484,"284":-0.0046528414045119175,"285":-0.003806628987514915,"286":0.00495864413196264,"287":0.00138666038654671,"288":0.0008039308783820012,"289":0.007854437536484881,"290":-0.002391212496304059,"291":0.002244379197640542,"292":-0.005631210302481723,"293":0.0024360243133419,"294":-0.0007241648914094201,"295":-0.0016063970799014627,"296":-0.0066857567792366155,"297":-0.001659276716510668,"298":-0.006293626377132246,"299":-0.0010937997603026547}},"b2":{"n":3,"d":1,"w":{"0":0.011708844113683559,"1":-0.49181815693134073,"2":0.02374208189172757}}}}},"weights":{"nh":100,"ns":4,"na":3,"net":{"W1":{"n":100,"d":4,"w":{"0":-0.12002737182873599,"1":0.17807009452060601,"2":-0.3483439860347757,"3":0.07163984889058057,"4":0.23525027528524073,"5":-0.07711472539966158,"6":0.2977618253188126,"7":-0.2697263408360983,"8":-0.2750978834317228,"9":-0.12442123137829696,"10":-0.1262657956833504,"11":0.39323390832021426,"12":-0.15426454837953085,"13":-0.22297632107977908,"14":0.13966370359235206,"15":0.3401068048974882,"16":0.31726128251171365,"17":0.03228273484445488,"18":0.2503251551289388,"19":-0.4273569273882864,"20":-0.17627938419145342,"21":-0.24366471891909566,"22":0.14053413625119893,"23":0.37942007268739997,"24":0.19440257167599634,"25":0.12630052300230543,"26":0.045284569061907996,"27":-0.2973303152404432,"28":-0.015842359709270674,"29":-0.19176896227008278,"30":0.2631348749241898,"31":0.15164257681315313,"32":-0.12144374164555771,"33":0.10138246735502486,"34":-0.29840104598525774,"35":0.0929105277127982,"36":-0.21774562035398543,"37":-0.22585530454977995,"38":0.08522453413333053,"39":0.40915215507741437,"40":0.15915538006496815,"41":0.1291913839875683,"42":-0.006717087080525427,"43":-0.2653423032445256,"44":4.970246797919892,"45":1.9756786292113588,"46":4.298821794320583,"47":-0.6088426660001608,"48":0.004381028525776508,"49":0.2638369775523835,"50":-0.3235534862926879,"51":-0.1613799695057531,"52":0.1312100424267055,"53":0.2170172017698334,"54":-0.19835177487816782,"55":-0.3160413779008904,"56":-0.18034270699892255,"57":-0.2905631937065073,"58":0.22007211202026455,"59":0.42248427861035887,"60":-0.10026126864915187,"61":-0.15381759863702107,"62":0.05952434179395393,"63":0.21907242329706536,"64":-0.24237395257582744,"65":-0.32878978883792925,"66":0.2172950626673685,"67":0.5247291585793543,"68":-0.08430317049986845,"69":-0.13068833755932147,"70":0.08486450937953294,"71":0.19202425115554536,"72":0.028244116919857825,"73":0.21927891428637966,"74":-0.2929323437194915,"75":-0.1784673705600404,"76":-0.2679430248423159,"77":-0.175400580751775,"78":-0.05598503725937748,"79":0.41619165412572157,"80":0.16316625897528514,"81":0.30876338805257186,"82":-0.2894848386305323,"83":-0.4110660703989788,"84":0.060773440612848346,"85":0.19837820911875606,"86":-0.24852773232299194,"87":-0.2161726802120726,"88":0.18191024907601075,"89":0.3174482108887273,"90":-0.2585217637193066,"91":-0.4418294211855664,"92":0.13224602652745987,"93":-0.0180190090070628,"94":0.2611541664301399,"95":-0.14060114267511867,"96":-0.07820455470423597,"97":0.15352744350608022,"98":-0.32751904601132625,"99":0.014612847705942502,"100":-0.23113266644616423,"101":-0.026483468065995625,"102":-0.2225025973401507,"103":0.29224496819264556,"104":0.27919778622212016,"105":0.014165686593899527,"106":0.24483091621399583,"107":-0.3602983932232317,"108":5.336964384468184,"109":-9.10506832259833,"110":16.23049407985998,"111":21.982902471032315,"112":0.2547134934988256,"113":0.11467196833582002,"114":0.13925500332624036,"115":-0.3611607029845921,"116":-0.17047106915763408,"117":-0.1928411160627816,"118":0.06444477220508638,"119":0.32760735529961155,"120":-0.06096565859207918,"121":-0.18786082479325733,"122":0.21688648170971753,"123":0.21120386305890296,"124":0.1956188667599493,"125":0.30662306900391817,"126":-0.20446064604235062,"127":-0.44984742381397386,"128":-0.2683463091800762,"129":-0.0424382487662929,"130":-0.2514228937366527,"131":0.3617230636534802,"132":-0.16246257774491618,"133":0.03696234369823683,"134":-0.2656546387526043,"135":0.17402909076761086,"136":0.3804496238986081,"137":0.5300612338497692,"138":-0.21302708109990676,"139":-0.8348724731946406,"140":0.1720192222432844,"141":0.004219114109748385,"142":0.2076897727810292,"143":-0.19669343773041442,"144":0.04854755812454592,"145":-0.051570962660183226,"146":0.17956126719072857,"147":-0.003641415757641262,"148":0.26289996479582156,"149":0.010493001607488492,"150":0.25369938391446495,"151":-0.3378887358202294,"152":0.06992620721823005,"153":-0.16674031806899176,"154":0.31412536878859315,"155":0.008639299678885883,"156":0.21934986522989908,"157":0.02377656986026811,"158":0.2403706104128528,"159":-0.2787413308716232,"160":0.10645999473805218,"161":0.2875564832722005,"162":-0.28477775745636524,"163":-0.3229638444137162,"164":0.01932298833731385,"165":-0.11886129047326836,"166":0.22612550482208732,"167":0.06951283571918303,"168":-0.21424770852564654,"169":0.03104304351496304,"170":-0.28372767299717166,"171":0.256886867514495,"172":0.22081346428236517,"173":0.10286224655804463,"174":0.15086790332496208,"175":-0.31019698499445886,"176":0.014834986292403941,"177":0.1537047818737813,"178":-0.23712247408761522,"179":-0.1323223496510258,"180":0.043978775593077,"181":-0.026731194577045855,"182":0.05131030579966389,"183":-0.027416295827340505,"184":0.3352193988756183,"185":0.12253910920385787,"186":0.18673528004355755,"187":-0.4820862629492379,"188":-0.020660953154525253,"189":0.2602964743191886,"190":-0.3500705650658641,"191":-0.11476376747960104,"192":-0.2240669100653501,"193":-0.028355807211994082,"194":-0.24075874832532523,"195":0.2878919727475655,"196":0.2696921099472175,"197":0.19438059905910296,"198":0.060032733501781226,"199":-0.4288197658376601,"200":0.04289724194171949,"201":0.183076192319549,"202":-0.24962929241292398,"203":-0.184275634504113,"204":-0.21096346507486832,"205":-0.07677105203296336,"206":-0.14687822545016518,"207":0.2828553727167898,"208":13.44476094464273,"209":0.1673963824281829,"210":-9.7108972650579,"211":36.16285475705747,"212":0.15718089601380675,"213":0.37422042256636756,"214":-0.33692334399607743,"215":-0.43357667892188,"216":-0.2593011983338454,"217":-0.19728198219718468,"218":-0.03210416347530878,"219":0.4209330041171551,"220":0.33765808716291024,"221":0.13885457228441989,"222":0.18077048239696616,"223":-0.4932081186519544,"224":-0.3265717712370181,"225":-0.14556773352331753,"226":-0.1749671337993904,"227":0.48012502834199455,"228":-0.22495911352077053,"229":-0.130804875384972,"230":-0.12064183938288632,"231":0.3310116836976499,"232":-0.3413594267376985,"233":-0.13321156316927094,"234":-0.169310817454654,"235":0.4930289247143224,"236":-0.25438842990964455,"237":-0.2594079563303891,"238":0.042060905388868745,"239":0.4647355942526483,"240":0.058072948398181674,"241":-0.20679186244051848,"242":0.33873415439351673,"243":0.037438434138647406,"244":0.2700680782056066,"245":0.22608509065545185,"246":-0.011332825384342575,"247":-0.45863626514712025,"248":0.09384228833232469,"249":-0.1298455532754051,"250":0.2814391485393694,"251":-0.03431545615632799,"252":0.22775265448640586,"253":0.09838894031308357,"254":0.17569027085462452,"255":-0.31859451780270515,"256":-0.16300865914326704,"257":-0.18338065391787006,"258":0.08459776456663268,"259":0.3174496495892528,"260":0.3709045720149554,"261":0.0474137770189896,"262":0.2969269498844822,"263":-0.5393051534062677,"264":-0.04507423055856604,"265":0.20801266108591804,"266":-0.31060978154671165,"267":-0.06623932773504881,"268":0.2527723288841145,"269":-0.004772447044868194,"270":0.2625208131002994,"271":-0.3184091055592035,"272":-0.20201855634526397,"273":0.05311727849167556,"274":-0.28028712087704455,"275":0.22659914077693283,"276":-0.2759399278500008,"277":-0.032211480345642175,"278":-0.2393988444473512,"279":0.3633101573700509,"280":-0.22689323628112357,"281":-0.006113600789902265,"282":-0.24594013948779822,"283":0.2816559432398244,"284":0.21842377126624501,"285":0.05533305310943813,"286":0.2006194673684605,"287":-0.2858598238581016,"288":-0.12277510695388753,"289":-0.09588396611063851,"290":-0.048016914009128206,"291":0.19164194548331762,"292":0.2141263299163916,"293":0.01912980472909033,"294":0.21886018220899678,"295":-0.2639661361843238,"296":0.08674885651846372,"297":0.30459598711941865,"298":-0.30431330512330407,"299":-0.3026634184421629,"300":0.18687752065627494,"301":0.21928521330278608,"302":-0.12481438581089889,"303":-0.37558391178208556,"304":0.1536569528128984,"305":0.07905743315147654,"306":0.07969300869970787,"307":-0.21533482741058696,"308":0.009543907125512004,"309":0.2280783539031051,"310":-0.28879816100600136,"311":-0.15825362462919038,"312":4.160707110219675,"313":4.831320629821496,"314":-6.665418399837024,"315":1.7350159133076153,"316":-0.1914503986698574,"317":-0.19917468812494593,"318":0.09697988109305644,"319":0.363949786279835,"320":0.2820839753395066,"321":0.15593789273685732,"322":0.08686274311602207,"323":-0.4207318140662173,"324":0.14270992292569687,"325":0.2155731234859339,"326":-0.11132721213691145,"327":-0.31634244185006405,"328":-0.015101004357520438,"329":-0.18207839459045044,"330":0.272365279743652,"331":0.1442543667213443,"332":-0.13503590726008705,"333":0.08664048718954097,"334":-0.26708755269698403,"335":0.11029395895020729,"336":0.18233147340448624,"337":-0.052929081088643845,"338":0.2820029715372957,"339":-0.19905561618158896,"340":-0.22227541657072306,"341":-0.13300421483778724,"342":-0.08828521767755697,"343":0.3307233767719731,"344":-0.32970822454227305,"345":-0.23879054138920705,"346":-0.04585292690796188,"347":0.5336379419368577,"348":0.23224884003125035,"349":0.07432742792864676,"350":0.17397225796310142,"351":-0.3114126808414782,"352":-0.17193098504455342,"353":0.010864069533537286,"354":-0.23220265061870923,"355":0.19274137161704002,"356":0.07506895159035656,"357":0.1864216059369317,"358":-0.19615768308483503,"359":-0.22759711441997715,"360":0.01624199889501303,"361":-0.26191820422077633,"362":0.34046526071383826,"363":0.1254957849860963,"364":-0.20993651161635346,"365":0.015818423975708484,"366":-0.25223822070515894,"367":0.24804369709874682,"368":-0.18175891662718374,"369":-0.16421607844220756,"370":0.01191438174672214,"371":0.313823364999747,"372":0.0640293629057772,"373":0.07521814464183608,"374":-0.011528982439915332,"375":-0.1211154676076035,"376":0.21343715263462995,"377":0.02070679451768189,"378":0.22633868200173432,"379":-0.2654454496771488,"380":0.24978648354023666,"381":0.01539155447912231,"382":0.25158122106701586,"383":-0.32086950439151674,"384":0.33847139462112746,"385":0.15027293373242823,"386":0.14008123826344904,"387":-0.49420367645362534,"388":0.22855897559207733,"389":0.05653585592443658,"390":0.22192894198521299,"391":-0.3044780591663503,"392":-0.1537850740806174,"393":-0.1354697819156345,"394":0.003216436254823017,"395":0.2616099790300569,"396":-0.25489043659207056,"397":-0.19632420529803174,"398":-0.055917891602543596,"399":0.4115022246329237}},"b1":{"n":100,"d":1,"w":{"0":0.05425073610600983,"1":-0.07650937447650365,"2":0.07236030254596215,"3":0.032338055406720696,"4":-0.09376375374900893,"5":0.038018536793691056,"6":-0.048202662465430736,"7":-0.010381341839892599,"8":0.050627018935859205,"9":0.04895234032064429,"10":-0.03727390166136083,"11":-0.6476963053269911,"12":0.016764126661121828,"13":-0.021563238396588486,"14":0.034667505232895635,"15":0.024478271535712626,"16":0.05027147249035711,"17":0.017424494553648258,"18":0.010351909090564363,"19":0.0670557116508088,"20":-0.024227027977065874,"21":-0.0007871823343776024,"22":-0.03277925142237518,"23":-0.05275236916784454,"24":0.04311935424630768,"25":0.06980677284468108,"26":-0.08287847121435851,"27":0.07122010470494977,"28":-0.06928953548041811,"29":0.03954450378878228,"30":0.004085438348970959,"31":-0.04073062028569042,"32":0.08411138712147825,"33":0.05814816326985721,"34":-0.10003297349333137,"35":-0.0538111769292057,"36":-0.02232636744245309,"37":-0.0807579968322598,"38":-0.037875678814820686,"39":-0.07023766693262261,"40":-0.01189738123648295,"41":-0.01759938969169474,"42":0.07279016512786184,"43":-0.06329637789360333,"44":0.00992127833291017,"45":-0.009882077266159011,"46":-0.09364612503250211,"47":0.02715893828884785,"48":0.07165414592378991,"49":-0.06954989732128278,"50":0.00399083530827791,"51":0.05866696746045787,"52":8.503248751482298,"53":-0.021656742778011228,"54":0.0649071892913226,"55":-0.0946016147358948,"56":0.09187587685833158,"57":0.0625804727016807,"58":0.09298906846610343,"59":0.06258732713888192,"60":-0.03696934695793249,"61":-0.06522542607773116,"62":-0.03974942246156944,"63":-0.06774834010010022,"64":0.03556751364760512,"65":-0.1175706457915057,"66":0.02894535382298317,"67":-0.07903336824850768,"68":0.06778751476739159,"69":0.08264660103457416,"70":0.07135861011710859,"71":-0.06605803263442063,"72":0.03332145491919757,"73":-0.06514220489370548,"74":-0.006460566986767511,"75":-0.039220115710048416,"76":-0.04048167807161325,"77":0.012675891627662672,"78":0.8441046724066594,"79":0.0408118083766656,"80":-0.07151157538739826,"81":-0.03237419350400654,"82":-0.012695906071576168,"83":0.048925106899982376,"84":-0.063987449880626,"85":0.05843096493020242,"86":0.08358797066657883,"87":-0.06634857286321542,"88":0.0564430064716153,"89":-0.009037795865644913,"90":-0.024276716061995107,"91":0.06720234889977288,"92":0.04378425556041712,"93":-0.016015930945136408,"94":-0.06637301323454602,"95":-0.0779579949742298,"96":-0.08933943685869002,"97":-0.07165419404547493,"98":0.037216720636798366,"99":0.06651165818715678}},"W2":{"n":3,"d":100,"w":{"0":0.035236709622061275,"1":-0.04184347998870334,"2":0.03566849255183707,"3":0.0025156171099513336,"4":-0.046506479701889834,"5":0.004493962594325376,"6":-0.022090916424056816,"7":-0.019477147255014177,"8":0.033669125188663294,"9":0.012816823438668799,"10":-0.014303284317094468,"11":0.5847738349816431,"12":0.02334914395549254,"13":0.00490272113558702,"14":-0.0018707533887689846,"15":0.004909711852272082,"16":0.003630851653906742,"17":0.0007244838287088291,"18":0.02037508359432584,"19":0.029661883077697567,"20":0.008829416346322961,"21":0.014903977955399855,"22":0.004698387490582515,"23":-0.033501927476086046,"24":0.0316114423284374,"25":0.038446214496554915,"26":-0.04315839917033193,"27":-0.730336709935444,"28":-0.035116192415495046,"29":0.010624179841891021,"30":-0.012373763967555173,"31":-0.0009897250443070711,"32":0.04349973992485609,"33":0.03553798274103842,"34":-0.0169922730383201,"35":-0.032608283108296665,"36":-0.019975619450106303,"37":-0.04260305255788105,"38":-0.029830008360732907,"39":-0.038920018100982764,"40":0.012851683540197221,"41":-0.020473601367532273,"42":0.04050396726393054,"43":-0.03340004699061038,"44":0.018190653815191457,"45":-0.008021631004092884,"46":-0.044942068753409316,"47":0.026941336823014115,"48":0.03937462800385487,"49":-0.030529403865752203,"50":0.01660135563933557,"51":0.031804391491335036,"52":0.6627777407251644,"53":0.011747164521830342,"54":0.02711670147380893,"55":-0.0449738409976413,"56":0.043874072067893385,"57":0.03157656733863988,"58":0.0442113220759246,"59":0.020539660670097777,"60":-0.02984621658578276,"61":-0.024207129699269497,"62":-0.029923848887739544,"63":-0.03593675750641596,"64":0.007868431199628713,"65":-0.0534446942462542,"66":0.026989007573632907,"67":-0.042208146966083694,"68":0.0389497577562566,"69":0.04293184028326192,"70":0.03947836369722987,"71":-0.036430414501347735,"72":0.016221747324593506,"73":-0.036812440797636084,"74":0.015433734909268537,"75":-0.006400342504840528,"76":-0.021350781204971594,"77":0.02118080417423933,"78":-0.6553723557558415,"79":0.009135515559926753,"80":-0.03324797408052994,"81":-0.004252366849875864,"82":-0.02046786322413762,"83":0.03266215671266315,"84":-0.037734202147026774,"85":0.028444057751782013,"86":0.03449511210305913,"87":-0.03563089359953288,"88":0.03423077948755842,"89":0.009499766310464699,"90":-0.025960341683844944,"91":0.03829690762641034,"92":0.016202694294432045,"93":-0.005340936029355542,"94":-0.037375927313104254,"95":-0.0416628285266278,"96":-0.04194919980408448,"97":-0.03885454049465121,"98":0.014348146541338973,"99":0.029053303445262562,"100":0.02103319656464279,"101":-0.055636148092627714,"102":0.07883610772061779,"103":0.05640194735984256,"104":-0.08361783429825846,"105":0.06360617864021464,"106":-0.058833429551836354,"107":0.0170780045947409,"108":0.027177803709006392,"109":0.07185252939812471,"110":-0.05000041167904359,"111":0.4109087881590322,"112":-0.019811085326017677,"113":-0.04848588026091623,"114":0.06729745179707353,"115":0.03901232800186599,"116":0.08518933254277065,"117":0.03180494655120965,"118":-0.021533803301029983,"119":0.08072462324452222,"120":-0.06262282238939747,"121":-0.02857626096813833,"122":-0.06928277380276707,"123":-0.037545247585165024,"124":0.012996105884882665,"125":0.06240526289128268,"126":-0.07277309411419423,"127":0.4093474070685729,"128":-0.07393713510944272,"129":0.058545390411371585,"130":0.028857638649001226,"131":-0.0731760696176242,"132":0.07429270491315795,"133":0.04215173208579356,"134":-0.1375375879902122,"135":-0.04589770836624462,"136":-0.010546621243089072,"137":-0.06935457543011486,"138":-0.008501949548875055,"139":-0.06059929362693017,"140":-0.04788823550990557,"141":0.0021078166573099506,"142":0.05559963330371476,"143":-0.06582849209673615,"144":-0.013446966003971049,"145":-0.007639046449409731,"146":-0.09438306159952464,"147":-0.011777054439047283,"148":0.06222016155847278,"149":-0.08359931506979518,"150":-0.02266506625214761,"151":0.06027546002381005,"152":-0.6156398722903923,"153":-0.06679724269171927,"154":0.0807790000491686,"155":-0.09652786969098455,"156":0.0946894880717951,"157":0.06881666805054096,"158":0.09599629023253078,"159":0.08499787546894633,"160":-0.0025894403638585333,"161":-0.0850701785580136,"162":-0.016269149914750185,"163":-0.06798203864124923,"164":0.055110389944370265,"165":-0.10043296361881343,"166":-0.0025384365181458017,"167":-0.06586164743894762,"168":0.04991715473755617,"169":0.0739114562289351,"170":0.06042134867818675,"171":-0.06196032031251332,"172":0.039990751718709444,"173":-0.057573770078349636,"174":-0.04456875984557249,"175":-0.06328303257992218,"176":-0.045538462433551224,"177":-0.018745567127418372,"178":0.09983777043454796,"179":0.062634208660355,"180":-0.08247157520646789,"181":-0.054044627930299356,"182":0.01514872970513361,"183":0.029941850564705153,"184":-0.04568005067759954,"185":0.06716887199770626,"186":0.10082689934631021,"187":-0.06586354242383705,"188":0.04540366622200918,"189":-0.03266679773853287,"190":0.01370014716610525,"191":0.054391158332472,"192":0.059008075750417915,"193":-0.022880234865448143,"194":-0.05806585472515006,"195":-0.06694428192037376,"196":-0.09593750209096354,"197":-0.06552882606836476,"198":0.04979457006507405,"199":0.08062409738835444,"200":-0.004910942569119723,"201":0.0022251038979309696,"202":0.0026279288857142323,"203":-0.0015753518952748681,"204":0.0003347298560609321,"205":-0.001370000702861826,"206":-0.0018723790148997153,"207":-0.0016325968197924783,"208":0.00033899021466207897,"209":-0.000769465724024984,"210":-0.000616376782382814,"211":0.010521822749803551,"212":-0.0022405671130265453,"213":0.0020915322608851964,"214":-0.000929632780815766,"215":-0.0006043311787287009,"216":-0.00039712366900842026,"217":-0.0014281527419765792,"218":0.00035561627520893144,"219":0.0017325042129153504,"220":-0.0005257221286968425,"221":0.002001782098737768,"222":-0.000012714418028802377,"223":-0.003008691245986421,"224":-0.0015181564277121332,"225":0.002657420891200754,"226":-0.0008538807876524024,"227":0.004499581381139729,"228":-0.003017609089099877,"229":-0.000485521856140156,"230":-0.0024440002486280045,"231":0.000771588758596465,"232":0.001207961093097031,"233":0.002060518275936562,"234":-0.004764161091343172,"235":-0.0035868363701284448,"236":-0.003912809293146237,"237":-0.0008973617279327904,"238":0.0008364824774564358,"239":-0.002484363013179257,"240":-0.0002505286198177446,"241":-0.003213179178795287,"242":0.00018144283824778968,"243":-0.003537150632202215,"244":0.0027224719534445063,"245":-0.0014259370786567792,"246":-0.0015477091716655485,"247":-0.004275190756561267,"248":0.0024271396096355027,"249":-0.0018426680947841246,"250":0.002186416611184616,"251":0.003494668647981518,"252":0.0073050543942190065,"253":-0.0035136493980827597,"254":0.001377439746383738,"255":-0.0016059408879647997,"256":0.0019093692745069306,"257":0.003226997240976677,"258":0.001572852205217431,"259":0.00013042992180326693,"260":0.003049019637429231,"261":-0.00047766876532619965,"262":-0.0010612693375338413,"263":-0.0035584578651940107,"264":-0.0009955501982550437,"265":0.007561552223296499,"266":-0.0011079869523863343,"267":-0.0005930549611206565,"268":0.0003182759332131808,"269":0.0013185977169175556,"270":0.0019738123627995627,"271":-0.0033877665331831933,"272":0.002048244966931352,"273":-0.0029599274515453946,"274":-0.001347636461016745,"275":0.0014365093900857555,"276":-0.002707502413591442,"277":0.00012729316510601046,"278":0.010437238516250275,"279":-0.0011532788553033355,"280":-0.002087311449005979,"281":0.0012181046565001043,"282":-0.0015960523917830306,"283":0.0017068196526352252,"284":-0.0007111504324015358,"285":0.002689208337490789,"286":0.0010176170507609434,"287":-0.0033575326606667425,"288":0.0031198763520426456,"289":0.002490004840658172,"290":0.0035627820444891585,"291":0.0018637048599787363,"292":0.0006083128167892499,"293":-0.0001994941240843452,"294":-0.0028644270980810044,"295":-0.0013718659481397099,"296":-0.0016982831077108817,"297":-0.002985962261661714,"298":0.0007573918776321789,"299":0.001914060719855909}},"b2":{"n":3,"d":1,"w":{"0":-0.5729634686497385,"1":-0.19674711468513673,"2":0.015860632947184747}}}}}