{"numStates":1,"sensitivity":16.083755986930726,"alpha":0.008725053280070495,"gamma":0.5087568831277702,"epsilon":0.05524535867150282,"cycles":6919,"max":{"lastUpdatedDate":"2018-03-05T23:24:24.310Z","meetsCriterion":false,"cycles":6007,"wealth":5.03555199595484,"percentSuccess":0.3365348938410558,"odds":1.7272727272727273,"weights":{"nh":100,"ns":4,"na":3,"net":{"W1":{"n":100,"d":4,"w":{"0":0.1393422729937508,"1":0.12073482571242858,"2":-0.32529899596914463,"3":0.13687337073139452,"4":-0.05778135778828264,"5":0.232881517673915,"6":0.14757052230119957,"7":-0.7198432524780894,"8":0.006151103927160919,"9":-0.07031854557941922,"10":-0.022636362149157353,"11":0.19143213469039844,"12":-0.034603716440839774,"13":0.12327732980406571,"14":0.09230471997218839,"15":-0.39622790725055157,"16":-0.08183577795544696,"17":-0.28052780619761086,"18":0.170906864028718,"19":0.42467269326066803,"20":-0.1202034987473661,"21":-0.13366137023644897,"22":0.28588386149545514,"23":-0.07392977079832147,"24":0.05862258930275612,"25":-0.06584338600361592,"26":-0.14391652992867865,"27":0.32760704601953794,"28":0.04273179565911375,"29":-0.26068951791471406,"30":-0.10266964781331192,"31":0.6925155441600696,"32":0.04201208517746811,"33":-0.1566272807480004,"34":-0.10256917482103187,"35":0.464381250692796,"36":0.0862335648879508,"37":-0.1808273943813127,"38":-0.22234237620706618,"39":0.7335221083909583,"40":-0.05971422997398988,"41":-0.01869735190819573,"42":0.14761798930201753,"43":-0.15573048157595135,"44":0.12919569067801748,"45":0.1267214511567288,"46":-0.30854041807813604,"47":0.12017076100515488,"48":0.0495097979500804,"49":-0.1230440734519476,"50":-0.11537686641293333,"51":0.3966865092601169,"52":-0.1823414744950333,"53":-0.2851520370334158,"54":0.4319432409243792,"55":0.06994845915670861,"56":0.08966618910644994,"57":-0.06142025452364623,"58":-0.22498328729754674,"59":0.44511839139781156,"60":0.02817315841576694,"61":0.09375971311740877,"62":-0.08056565420749474,"63":-0.0641319315312573,"64":-0.17252505848729977,"65":-0.2759697694279668,"66":0.43055800633720365,"67":0.001185484759397249,"68":0.060808380766898776,"69":0.0966524546273567,"70":-0.12482038895203285,"71":-0.09253358088663935,"72":-0.07236274083448069,"73":0.14436239975762644,"74":0.2136734605783121,"75":-0.6964050720011892,"76":0.13012693022989089,"77":-0.37882271562551706,"78":-0.3024954137904704,"79":1.4507352327652838,"80":-0.04749294342040407,"81":-0.25669409091144607,"82":0.10649735384035497,"83":0.4151774535137454,"84":0.10397335758457442,"85":0.14911392366355347,"86":-0.2576065757396391,"87":0.030291191726511665,"88":22.05798169942555,"89":15.68960047140325,"90":-3.116842168502024,"91":0.25015159322721225,"92":16.892928142366106,"93":13.135030635834067,"94":-12.723082655641942,"95":6.489238466069134,"96":-0.08127165135483358,"97":-0.06390775903561854,"98":0.19729385984623865,"99":-0.11933507897426854,"100":-0.11115760661876739,"101":0.002425306939120687,"102":0.2751711902592622,"103":-0.38075893734480837,"104":0.012402080110181742,"105":-0.09464527864331922,"106":-0.04024389805002342,"107":0.270448056710501,"108":0.10393945533591391,"109":0.047145363218770504,"110":-0.27487357863144973,"111":0.31174709748282137,"112":-0.012505094487592884,"113":-0.11888397051856736,"114":0.019468145610893377,"115":0.24542477356560272,"116":0.013881825896102078,"117":0.16965569821047793,"118":-0.034995004128892004,"119":-0.3034758773405388,"120":0.09314157472199902,"121":0.5411181501102229,"122":-0.2136180196519483,"123":-0.8822518961023095,"124":0.34002684930358357,"125":0.664669508085743,"126":-0.7980480742255528,"127":-0.4704451098154839,"128":0.06745491156203688,"129":-0.03331999928819335,"130":-0.1650744432167021,"131":0.2858761587129282,"132":0.15376825947488262,"133":0.19846086873398533,"134":-0.37259544495343644,"135":0.060932499159707776,"136":0.04584199843643831,"137":0.1864769724880644,"138":-0.108738244993796,"139":-0.25266867166471413,"140":0.044389134528699324,"141":0.10956174772725095,"142":-0.10409775804872633,"143":-0.10244603573798913,"144":0.15642256940091,"145":0.40958592477878775,"146":-0.3644152874056977,"147":-0.4203202985362243,"148":-0.04051012596365809,"149":-0.26444979498536514,"150":0.1043130784399444,"151":0.4007338255488477,"152":-0.08873480542787068,"153":-0.33792253177185877,"154":0.20839278166057312,"155":0.44910226390847907,"156":-0.17636446294868233,"157":-0.5009916906724371,"158":0.4258483139499953,"159":0.5034709399479985,"160":0.17082652110872218,"161":0.4151766021163385,"162":-0.4033418407106951,"163":-0.3754560172695613,"164":-0.09032110254066342,"165":-0.17988127423418046,"166":0.21336416161113214,"167":0.11476286088243587,"168":-0.0016290984984025658,"169":0.24023642654372607,"170":-0.0008500621226632899,"171":-0.48927933062932205,"172":0.12491938777710529,"173":0.3484227707468388,"174":-0.2996310174402683,"175":-0.3488521108295393,"176":0.10492932947144064,"177":-0.06759794190904021,"178":-0.2731495124268203,"179":0.5593430040966115,"180":0.04447566307100893,"181":0.05044289959400111,"182":-0.09738864889693508,"183":-0.0044851290264709045,"184":-0.24804168343408772,"185":-0.5013439180876149,"186":0.6077689963359909,"187":0.27255636136245254,"188":-0.07037482410606542,"189":-0.4071665130738479,"190":0.1598143983838046,"191":0.6661537299390855,"192":0.047979657738354435,"193":-0.042310408895106025,"194":-0.12476564281816138,"195":0.2672142435868168,"196":0.37663280399702287,"197":0.8995544196306549,"198":-0.8826771042460412,"199":-0.8550518046867074,"200":-0.2681426588759502,"201":-0.5942492234371336,"202":0.6360164595942952,"203":0.47456530840904354,"204":0.021459348377939017,"205":0.2972593146256001,"206":-0.0479030457523428,"207":-0.5679693597195398,"208":-0.05008735505559029,"209":-0.2463085920372498,"210":0.10029861570326921,"211":0.429882249876596,"212":0.03425196717018881,"213":0.25936353785669003,"214":-0.07250576134350518,"215":-0.4694108232102783,"216":0.02361500187173884,"217":0.07878741867052642,"218":-0.04336069382225097,"219":-0.13890171557693157,"220":0.06976955443198546,"221":0.08504365738347658,"222":-0.16756297573814957,"223":0.032809520558410944,"224":0.10405350405401786,"225":0.08228458780197949,"226":-0.26457268868300826,"227":0.1965180580897217,"228":0.10897167156217731,"229":0.2621645038212569,"230":-0.26240891809095845,"231":-0.21452014624665186,"232":0.13894591545978507,"233":0.23843456646741837,"234":-0.33184064580384975,"235":-0.086045754188527,"236":-0.061312687442188936,"237":-0.005082152339433803,"238":0.17085923159410474,"239":-0.25958437422819225,"240":-0.0034203544283076142,"241":0.016149421053852264,"242":0.0001748318954304928,"243":-0.015303955869659732,"244":0.4855426070385698,"245":1.2291026771916416,"246":-1.1330735904442972,"247":-1.2776081283906886,"248":0.028800260703052097,"249":-0.21323463025797357,"250":-0.07677366824426896,"251":0.5667179155556762,"252":0.10800570439360703,"253":0.40032297989775273,"254":-0.2542011356621122,"255":-0.5221429805296394,"256":0.04815373243916296,"257":-0.11762785424816556,"258":-0.13220251314904063,"259":0.45582270078843473,"260":-0.053526582735976165,"261":0.00032149336564262925,"262":0.135513157901284,"263":-0.1865352805299896,"264":-0.11891540740141437,"265":-0.04852110987339568,"266":0.3014727924266473,"267":-0.3226257932603097,"268":0.009396093142890131,"269":0.16821956480717928,"270":-0.00015990862005871596,"271":-0.40061221642486583,"272":0.019421656798493777,"273":-0.13468391828397958,"274":-0.0491665407918564,"275":0.34789663336384813,"276":-0.0583096872601656,"277":-0.27265843517811367,"278":0.12595588186336285,"279":0.43865535136603634,"280":0.07153917504833031,"281":-0.22417398713574693,"282":-0.17760292171835657,"283":0.7395333157010708,"284":0.010607964225112565,"285":0.47251559241353586,"286":-0.020645441431199753,"287":-1.0033024401670725,"288":-0.0694281506752542,"289":-0.26257697443284567,"290":0.15624821599289077,"291":0.37144460615341746,"292":0.12902220628114827,"293":0.17358524855304375,"294":-0.3204567673933385,"295":0.06445613463588058,"296":-0.0740748933969226,"297":0.11066279415835896,"298":0.19252798650477745,"299":-0.5213731353738138,"300":-12.490467105443999,"301":-15.039239670415075,"302":-1.5774152080403707,"303":21.479176609717246,"304":0.08836730177488224,"305":0.045881849146697844,"306":-0.24113387185526966,"307":0.27758647987414387,"308":-0.03795933854536324,"309":0.1507255557622775,"310":0.09096131961810582,"311":-0.4312836729785532,"312":-0.15031171901628604,"313":-0.32900442835303567,"314":0.35845580397957905,"315":0.24258510634637326,"316":0.07913925515237483,"317":-0.006014492854551497,"318":-0.19091515095403988,"319":0.25636344053568233,"320":0.3037654575429047,"321":-0.3587959798306093,"322":-0.5011379228318158,"323":1.9808794542085637,"324":0.08138338999602417,"325":0.27880705830686975,"326":-0.2100839452508347,"327":-0.28143701704903623,"328":0.06780829533228386,"329":-0.012260851383669643,"330":-0.16962797862655768,"331":0.2555797779528979,"332":-0.1666342637945826,"333":-0.3352825753902198,"334":0.4013122410085453,"335":0.1955308469242721,"336":0.08671723201064928,"337":-0.2651401252544309,"338":-0.22434020909720634,"339":0.9541352447842804,"340":-0.06230738343761087,"341":-0.24644948036828696,"342":0.16076653494676962,"343":0.2835444740561102,"344":-0.01862200094262952,"345":0.1971750764893627,"346":0.051322337719365146,"347":-0.49391673744241904,"348":-0.07411718865204457,"349":0.24543154295028682,"350":0.18463380482690583,"351":-0.8049660916865679,"352":0.017389920247837008,"353":-0.05172187245650057,"354":-0.03660125614802688,"355":0.14070004135079886,"356":-0.11628535009602535,"357":-0.10985321406185475,"358":0.2873853739660892,"359":-0.15184425452028072,"360":0.16249990158858976,"361":0.1821845522402542,"362":-0.4038785735218564,"363":0.1605613245961193,"364":-2.728373887402225,"365":2.2286345735484985,"366":-24.55072176389828,"367":11.63722008106398,"368":-0.08806602804097921,"369":-0.1806574327878638,"370":0.22092689890332223,"371":0.07759584072632597,"372":-9.2326876031783,"373":-5.550971156322015,"374":10.652436497619043,"375":-12.041106419057982,"376":-0.32596659231396735,"377":-0.8637162607763004,"378":4.038322842117216,"379":-1.9499137516735838,"380":-0.0030206542956600748,"381":0.283805404816762,"382":0.020674073988069194,"383":-0.6569109912446872,"384":0.07510815236223671,"385":-0.20719230483111042,"386":-0.2029951288030708,"387":0.785308895837553,"388":-0.10710076344998154,"389":-0.07099259824235815,"390":0.2772450249087105,"391":-0.25033731623397976,"392":0.0405462956914941,"393":0.23566145604308597,"394":-0.07461872195529452,"395":-0.4468846208449521,"396":0.1803025284070966,"397":0.28141145713259175,"398":-0.44890123506057983,"399":0.00923864760775529}},"b1":{"n":100,"d":1,"w":{"0":0.05786417016496366,"1":-0.10655896673731273,"2":0.02587030602227357,"3":-0.0594306604238907,"4":0.0302453110234929,"5":-0.04517898554010266,"6":0.05753457538503842,"7":0.09762961750588092,"8":0.06906952304561598,"9":0.11747323817201612,"10":-0.03727765723245855,"11":0.05368348052621321,"12":0.06236007461965215,"13":-0.04725606837616055,"14":0.08206145401564911,"15":0.002420535592372892,"16":-0.055457311710621335,"17":0.004539998600102033,"18":-0.11170091590619861,"19":0.22266647791141783,"20":0.03710277672451982,"21":0.036296058492034725,"22":1.4337257843642486,"23":-1.1847708709655913,"24":-0.03921869387477494,"25":-0.08067326990858092,"26":0.037628641756996616,"27":0.07234453115870758,"28":0.027140707856246702,"29":-0.0322602374463732,"30":-0.0847728615514748,"31":0.04945983044490295,"32":0.055154053079080084,"33":0.05506537877822845,"34":-0.016851463334273967,"35":0.0007537047667771309,"36":-0.005003982875035183,"37":0.03558752106944085,"38":0.028606805906913942,"39":0.007536393018677462,"40":0.005781682861719948,"41":-0.013118729370585313,"42":-0.05938497731667856,"43":-0.004447277708815476,"44":0.10218176444677526,"45":0.011682630535707216,"46":-0.046962701321526024,"47":0.06238072324146887,"48":0.04782419491853773,"49":0.008298910140890617,"50":-0.025078485365954015,"51":-0.06347780567001149,"52":0.03969406379719625,"53":-0.048063205062531915,"54":-0.01127725050428406,"55":0.025046571510632817,"56":0.0571474612302753,"57":0.00730494319547904,"58":0.031946870690594015,"59":-0.05273949871083917,"60":-0.0018519486323872896,"61":-0.022480658744092642,"62":0.07858006276459147,"63":-0.03208747491752873,"64":0.07170434723285753,"65":-0.039453612167439055,"66":-0.07709049733126028,"67":-0.04848722007684294,"68":0.048155562158560684,"69":0.03760065182617587,"70":0.11273915396338578,"71":-0.1241224544920989,"72":0.025472125070010062,"73":0.048599851435024835,"74":-0.08730560674554512,"75":4.368934890010871,"76":0.06388611058844561,"77":-0.06355804663518251,"78":-0.016371545672588934,"79":0.05486768743782512,"80":0.3118889859189487,"81":-0.007570866225591227,"82":0.0520799360781654,"83":-0.02785154319117084,"84":0.14610881167326503,"85":0.014075080571952312,"86":-0.06638005416729711,"87":-0.12196305379004531,"88":0.021494147599524935,"89":-0.05474009475533688,"90":0.0712468282152628,"91":6.582405489388192,"92":-0.01859390348083628,"93":-2.0325399302361946,"94":-1.0383481469379114,"95":-0.08311428091477206,"96":0.12165694654275745,"97":-0.06526001121756234,"98":-0.0449884931076084,"99":0.05921987154837802}},"W2":{"n":3,"d":100,"w":{"0":0.07453524195586962,"1":-0.1304397996973797,"2":0.03193711359376002,"3":-0.07377273402008092,"4":0.033591720333479236,"5":-0.05880945049022781,"6":0.07247398684929122,"7":0.11867016742019222,"8":0.08543638934122501,"9":0.14536720785936455,"10":-0.04787905671692392,"11":0.06936150713224577,"12":0.07769239167204789,"13":-0.06057018820908632,"14":0.10351106070023391,"15":0.004339281441328868,"16":-0.07066947349427116,"17":0.007433851588182305,"18":-0.1386197065987182,"19":0.2633679206739868,"20":0.04281857720029572,"21":0.04776699877426017,"22":-0.11542336428562312,"23":0.18231649047367132,"24":-0.05086540139859055,"25":-0.10245951913523144,"26":0.04651379327457467,"27":0.09230028735568517,"28":0.032705440205257105,"29":-0.038487819344646804,"30":-0.09311057138588073,"31":0.04830896023506487,"32":0.069937719057511,"33":0.070877308637442,"34":-0.018634109028888703,"35":0.0025999075890954307,"36":-0.001956259211720203,"37":0.04099109342671452,"38":0.03091906983925599,"39":0.005022796666246274,"40":0.010641110210174269,"41":-0.019030182515994764,"42":-0.07138083280672167,"43":-0.0014897629704490839,"44":0.12852393205830576,"45":0.01579586428161394,"46":-0.055254274197976086,"47":0.07054593000706799,"48":0.0604059965707629,"49":-0.0027633704730054753,"50":-0.028370937547444817,"51":-0.07491120784513358,"52":0.04607587541484862,"53":-0.056451764518371327,"54":-0.013075895623451742,"55":0.03314360006784986,"56":0.07351162584445024,"57":0.01236847128993433,"58":0.042529856480184175,"59":-0.06717492266520675,"60":-0.0022215931354423396,"61":-0.05162241470692344,"62":0.0959874921373721,"63":-0.03422763257681047,"64":0.0893444537980235,"65":-0.05037363776424693,"66":-0.09827068731976941,"67":-0.058742323518397865,"68":0.05930957104842856,"69":0.043033604923631404,"70":0.1384650672652048,"71":-0.14230039322722543,"72":0.02814961809236054,"73":0.06307808051308517,"74":-0.1092211433047614,"75":-0.20464889003474931,"76":0.08165690946151559,"77":-0.07860612731748808,"78":-0.02349045784269584,"79":0.06995215886912562,"80":0.38142581934335995,"81":-0.0059505477470729795,"82":0.06627964698130655,"83":-0.037129571841869415,"84":0.17782477847650938,"85":0.014407223035856497,"86":-0.081022012905632,"87":-0.14920061589603006,"88":0.026797860901405856,"89":-0.0706340822768801,"90":0.09070577196215154,"91":-0.5494642781533765,"92":-0.025815730425072722,"93":0.620224451064828,"94":-0.3748348439359692,"95":-0.09953543091353804,"96":0.14963343090348666,"97":-0.08358950550326617,"98":-0.05288906477994503,"99":0.07503327508259276,"100":-0.03920700316863176,"101":-0.052000088188848215,"102":0.017022852641273515,"103":-0.027590426220828582,"104":0.07475472696004813,"105":0.04000633704512006,"106":0.011681767721671857,"107":0.0578711581940935,"108":0.033752710753846664,"109":0.039520690953129496,"110":0.007984171688805577,"111":-0.03878718526444769,"112":0.02461526569337066,"113":0.08029536676120652,"114":0.009868341121775957,"115":-0.02187463461055423,"116":0.07403494463952945,"117":-0.030004854410975796,"118":-0.03554274522005529,"119":0.08540631327214361,"120":0.06403086603560278,"121":-0.04089662508923377,"122":-0.9966140130035109,"123":-1.4566279316282835,"124":0.020321278452742342,"125":0.005526609512299589,"126":0.022614393566459536,"127":-0.014148439660165112,"128":0.030030590786580092,"129":-0.04007397801399949,"130":-0.13318042998256271,"131":-0.1840837702263425,"132":0.0034922079043898774,"133":-0.056498073160903904,"134":-0.046761386710649486,"135":-0.029014663844530886,"136":-0.10818557333010226,"137":0.06315693526474149,"138":0.0854642406388172,"139":0.12891348003695915,"140":-0.10996036262510175,"141":0.04883869845571329,"142":-0.054873799031698076,"143":-0.09002654253196335,"144":0.012553006043666647,"145":-0.01634158417141474,"146":0.13332710305735707,"147":0.10064895825207762,"148":0.007858254776717168,"149":-0.2420084347772139,"150":0.15951098000405137,"151":-0.07094269852259637,"152":0.06365525596090374,"153":-0.06400149295956067,"154":-0.02196754371362592,"155":-0.024778597964124474,"156":-0.024155851954958542,"157":-0.06867906848699729,"158":-0.06569278811675792,"159":0.0019249649599558452,"160":-0.0022977202687982827,"161":-0.3304686881044336,"162":0.0487316041977637,"163":-0.1013947914434603,"164":0.02657398203606001,"165":0.0027071033229139623,"166":0.016824846493342236,"167":-0.04301743857910533,"168":0.030236567849028232,"169":0.0694792510754865,"170":0.04883060272714679,"171":-0.11098083557949327,"172":0.06745837585206561,"173":-0.047890821252718374,"174":-0.023181275853120912,"175":-0.7981283926015312,"176":-0.012361487991082646,"177":-0.03233450639471561,"178":0.08774604112414854,"179":-0.003998146367913064,"180":0.06615753126055293,"181":-0.06842069952972059,"182":-0.0008899374412659768,"183":0.08985959007318024,"184":0.06011459648778288,"185":0.060020388475311215,"186":-0.04546176019982093,"187":-0.053962525708809515,"188":0.009954896043515434,"189":0.03245011038432841,"190":-0.051545204907621975,"191":0.6255633044108541,"192":0.04691311576375943,"193":-1.4408249161507214,"194":0.5612060662937255,"195":-0.06768018349790235,"196":0.04753858359566135,"197":0.020822898222950827,"198":-0.06090554339030626,"199":-0.07589747536798644,"200":-0.016704014841831552,"201":0.015187017359100049,"202":-0.003706631294510339,"203":0.009425780948855978,"204":0.0011277962639968,"205":0.014064900176879294,"206":-0.010758234717255568,"207":-0.013052796395581979,"208":-0.010580066163173907,"209":-0.018394558412179244,"210":0.00876499885620384,"211":-0.015793367137365937,"212":-0.01024061684216488,"213":0.019329991591754844,"214":-0.01586140694667826,"215":-0.002916652288529975,"216":0.020624646641653397,"217":-0.003981781556696178,"218":0.01814992358896755,"219":-0.011481707384463215,"220":-0.001214636014614837,"221":-0.012290243573888998,"222":0.052531229796186,"223":-0.008281321249176224,"224":0.010541416890663124,"225":0.017461447499006185,"226":-0.005569538805464006,"227":-0.01695413976613362,"228":-0.0026285410602237495,"229":0.0025635764121833314,"230":0.004238376902951804,"231":-0.032373054326886155,"232":-0.011195113383846138,"233":-0.018284028628919126,"234":-0.0013148000058526177,"235":-0.003203456708270858,"236":-0.010104867915558159,"237":-0.000887577189785924,"238":0.00265919343412059,"239":0.011698820243088593,"240":-0.01285919788761326,"241":0.007985770809668327,"242":0.006467996827846739,"243":-0.008450667475254603,"244":-0.019339640875278875,"245":-0.004138919445214922,"246":0.02583511443071744,"247":-0.0028194628200436138,"248":-0.009248501331166241,"249":-0.02745532394331,"250":0.023142310630869318,"251":0.00572210930400936,"252":-0.001867110726317122,"253":0.0034450471768576654,"254":0.0001672058094192842,"255":-0.00797951167560824,"256":-0.014906720870886963,"257":-0.00886378012520528,"258":-0.014094151788495806,"259":0.011456026011339611,"260":0.00009068111703711792,"261":-0.02741471209935933,"262":-0.010783380932865898,"263":-0.003426417799445303,"264":-0.01197759632124148,"265":0.008658949305206571,"266":0.018194871604339295,"267":0.005722452896746796,"268":-0.006849377605320384,"269":-0.0008288534526515231,"270":-0.016488197903650276,"271":0.011543099200446051,"272":0.0015196070649458001,"273":-0.015850121076087267,"274":0.015292301556165507,"275":0.04971683015267872,"276":-0.015016718727836793,"277":0.009657142353124978,"278":0.012981030113405186,"279":-0.011973629329686227,"280":0.07410827645238811,"281":-0.005643373695755651,"282":-0.011084035434056012,"283":0.01594162554887082,"284":-0.019281869846969422,"285":0.003350349066111608,"286":0.008850262362696544,"287":0.017206716099648807,"288":-0.003444321351027868,"289":0.015333612422465882,"290":-0.021328421178012858,"291":-0.02884136380808338,"292":0.00907458673112568,"293":0.001633510459405913,"294":-0.15575780548481025,"295":0.009671826529940015,"296":-0.018043655372558625,"297":0.016260310926745757,"298":0.0032255121037968373,"299":-0.021719534881940613}},"b2":{"n":3,"d":1,"w":{"0":0.21566039586044866,"1":-0.3855796866959818,"2":0.21016078661914359}}}}},"weights":{"nh":100,"ns":4,"na":3,"net":{"W1":{"n":100,"d":4,"w":{"0":0.18891075224782797,"1":0.24533838274923267,"2":-0.45892024464771236,"3":-0.00965587302100942,"4":-0.03865040583551801,"5":0.18211452335361752,"6":0.2767930527021408,"7":-0.6035086346172397,"8":-0.0031275963977731628,"9":-0.06667938886654333,"10":-0.04778088826764019,"11":0.1714917700146444,"12":-0.02561274006374995,"13":0.09385944659313966,"14":0.16712716115653467,"15":-0.33357176282048806,"16":-0.15747736735876877,"17":-0.3841443543381164,"18":0.2323522599473073,"19":0.4845867011831354,"20":-0.17034134253586355,"21":-0.24965830939657016,"22":0.406011542892541,"23":0.054601408280649404,"24":0.06506744632967137,"25":-0.012279943142819693,"26":-0.23695534394731702,"27":0.24801701648786012,"28":0.014006042474954206,"29":-0.23391163363620496,"30":-0.2026114937541969,"31":0.6003527172599809,"32":0.029808631732361212,"33":-0.125096868410286,"34":-0.18694456891138728,"35":0.3930463275433772,"36":0.08167943255760043,"37":-0.09538669327920213,"38":-0.3912584269914796,"39":0.5831901315072426,"40":-0.07974731116670734,"41":-0.07928378935053422,"42":0.22787745614732574,"43":-0.08379751713023807,"44":0.17846581144886284,"45":0.24771569496544651,"46":-0.4375359444552899,"47":-0.019538539702863154,"48":0.0446341647439339,"49":-0.08458821473292173,"50":-0.20032524507482188,"51":0.32533455850725895,"52":-0.26565224310998087,"53":-0.4569692969271884,"54":0.5682294720553522,"55":0.26751227167098196,"56":0.10299940660800212,"57":0.02326814187192646,"58":-0.3626472010365682,"59":0.3230893731685994,"60":0.05227744561716306,"61":0.13550272891867088,"62":-0.11636788252699966,"63":-0.09818612156982276,"64":-0.24871685315933376,"65":-0.4422404413162729,"66":0.569098075774515,"67":0.19932344635084712,"68":0.09445196953467798,"69":0.15543991200638915,"70":-0.17569991850598726,"71":-0.1413451868093215,"72":-0.06981318236460075,"73":0.06053783983382834,"74":0.3766876153387924,"75":-0.5521332705502404,"76":0.11020431699023737,"77":-0.20895370050544007,"78":-0.6079155776826807,"79":1.112578439517858,"80":-0.10732904795149671,"81":-0.32901970657864116,"82":0.13789849554849393,"83":0.4444702218006185,"84":0.15427714498399736,"85":0.25886054643164447,"86":-0.3676452577774619,"87":-0.08587828710831848,"88":25.454332681435357,"89":17.809747603947898,"90":-3.0467851233613024,"91":0.6420724467915382,"92":18.387435728218954,"93":15.328028090390461,"94":-13.640795511208808,"95":3.839882387865815,"96":-0.1133906362955614,"97":-0.14586062136529074,"98":0.29387106005040486,"99":-0.02775635854662489,"100":-0.1361301293259911,"101":-0.10029684249392071,"102":0.42171291876056455,"103":-0.24302758020882742,"104":0.001205552475454588,"105":-0.08544728908733955,"106":-0.079890269325763,"107":0.23826446191193676,"108":0.13466216360677655,"109":0.1526334937351043,"110":-0.41454410918593015,"111":0.17635544693441746,"112":-0.03563875561773155,"113":-0.1372753953851647,"114":0.011856542201700985,"115":0.24115419460265664,"116":0.04648409316347377,"117":0.20012995373471723,"118":-0.03368840464310015,"119":-0.3047416903834223,"120":0.24812813699615893,"121":0.739319276095301,"122":-0.33995111817764057,"123":-0.9641364462172427,"124":0.5445223069158467,"125":1.03852136736639,"126":-0.9617603773168862,"127":-0.955474654008922,"128":0.08102694747410832,"129":0.030197423696613525,"130":-0.2634737102470036,"131":0.19987361351242602,"132":0.21663547877680747,"133":0.3426911536746637,"134":-0.508714378702614,"135":-0.10742161189956631,"136":0.09139747942844019,"137":0.2497123200084957,"138":-0.14636644304838026,"139":-0.2903905002435849,"140":0.07572014660455931,"141":0.16192835642463577,"142":-0.14688306909428955,"143":-0.14370534976283547,"144":0.2771357833926737,"145":0.6068585524961425,"146":-0.49831936112845276,"147":-0.5936602349032162,"148":-0.09964336767667085,"149":-0.3368199985081107,"150":0.1366712529780778,"151":0.43143190071499804,"152":-0.17850354683579456,"153":-0.4665812316367025,"154":0.2901805956451689,"155":0.5320576404240157,"156":-0.32514142101089716,"157":-0.7439942318643733,"158":0.5832623741817465,"159":0.7248399010255235,"160":0.2923905505928775,"161":0.6214362759880603,"162":-0.5427229305336002,"163":-0.5711461448309709,"164":-0.14542691058692675,"165":-0.28055028594485115,"166":0.3004749490444275,"167":0.205952590352841,"168":0.0384016088900162,"169":0.2629072004617225,"170":0.026819537109549325,"171":-0.46397081425302317,"172":0.223242045948197,"173":0.5085679917379852,"174":-0.4129114290809831,"175":-0.4837747525816269,"176":0.11850460574497049,"177":0.03476216423706911,"178":-0.44067325751804554,"179":0.407409201268895,"180":0.06580542394558347,"181":0.09415985090541434,"182":-0.1426567510261408,"183":-0.04595943301012858,"184":-0.3820735467464401,"185":-0.7566366873525688,"186":0.7505202410721047,"187":0.5885652420752943,"188":-0.1735276401516503,"189":-0.5339451905911731,"190":0.22673764518725736,"191":0.7151580584738935,"192":0.0553908471053285,"193":0.005431676956500638,"194":-0.2047308898381275,"195":0.19871352319742017,"196":0.767761984197124,"197":1.5649146180406006,"198":-1.2424306468872555,"199":-1.6035246396747609,"200":-0.44865287822786243,"201":-0.9129902980289224,"202":0.8081491203390491,"203":0.8399994569429496,"204":0.08070050219633704,"205":0.3490838416854939,"206":-0.045167643547944225,"207":-0.5597664096528009,"208":-0.10866794386306378,"209":-0.31454068070460495,"210":0.12657983201318646,"211":0.4537880568674962,"212":0.09024158035797385,"213":0.3171825802621461,"214":-0.08437426116200514,"215":-0.4786940224956164,"216":0.043452739718440686,"217":0.10328665583164422,"218":-0.0538438679768116,"219":-0.15010651444322526,"220":0.10321943260593064,"221":0.15865055388574853,"222":-0.2463169441578197,"223":-0.04222969063751001,"224":0.14168808161881305,"225":0.18703724976929753,"226":-0.3898453544439736,"227":0.07163752721842362,"228":0.18396629086613486,"229":0.3916974603383059,"230":-0.3633218293135299,"231":-0.32899547538029456,"232":0.21154696187556807,"233":0.38164384669862345,"234":-0.4537396571492885,"235":-0.23477742233953222,"236":-0.0791780207923523,"237":-0.07399082333722849,"238":0.2708668142196653,"239":-0.17046570580195788,"240":-0.0016666790087893429,"241":0.01776614792888704,"242":0.0004692437919309263,"243":-0.015416883177419204,"244":1.8305939717535997,"245":3.320644242283989,"246":-2.5849408180124622,"247":-3.23067188865518,"248":0.003465051273496867,"249":-0.19616678823650258,"250":-0.1548864094614354,"251":0.4978295209158332,"252":0.21888776190173725,"253":0.5620317518474046,"254":-0.35931209220829874,"255":-0.6314953595513457,"256":0.044022959914916907,"257":-0.07039303799150988,"258":-0.23222685970967116,"259":0.37087430320412423,"260":-0.06898116496672098,"261":-0.0543610889058024,"262":0.21335926752930082,"263":-0.11801567835350964,"264":-0.15175457903093548,"265":-0.1612184367233115,"266":0.4485375894903688,"267":-0.1767385212408102,"268":0.03958906515562738,"269":0.18243019122258675,"270":0.027550452847379163,"271":-0.37759257224341997,"272":0.0037201240128207887,"273":-0.12513120686313475,"274":-0.09770384092141693,"275":0.3080679947630259,"276":-0.1249645934744968,"277":-0.3559925238718542,"278":0.16645757636984226,"279":0.47608903247566925,"280":0.05751211604451596,"281":-0.15929696372029556,"282":-0.32448147783162823,"283":0.6080037511220643,"284":0.10682906109944053,"285":0.5394280241399406,"286":-0.010570581163034108,"287":-0.9420487954698453,"288":-0.13707721431486938,"289":-0.356366277076365,"290":0.21255966069813284,"291":0.427309736293982,"292":0.1855829545208667,"293":0.3027639814385945,"294":-0.44824755720602616,"295":-0.08108747791165422,"296":-0.07717206934315844,"297":0.03861930014395135,"298":0.3258333778733361,"299":-0.4058938791959853,"300":-15.318084418126485,"301":-18.33851519437749,"302":-0.47548505543279507,"303":24.539222978887437,"304":0.11702514677796673,"305":0.1412898225301772,"306":-0.36791112411594157,"307":0.15750439978138994,"308":-0.025409801657535265,"309":0.12411227737236254,"310":0.16667279331221516,"311":-0.36770172154010367,"312":-0.24552017767968726,"313":-0.4985928616293432,"314":0.4839605129844534,"315":0.4074881773486269,"316":0.09949234228862154,"317":0.06846249867889029,"318":-0.29672551163466426,"319":0.1613439877811068,"320":0.6928488549049231,"321":0.15057006623503336,"322":-1.1015853332009335,"323":1.726113471815598,"324":0.15402377394936428,"325":0.3939388680853744,"326":-0.29299690172105736,"327":-0.3704649964751119,"328":0.08469273003312565,"329":0.05438638247679733,"330":-0.26749058272221826,"331":0.1689645843591591,"332":-0.2624970554178114,"333":-0.5140888378969661,"334":0.5336365954186714,"335":0.3827223228840832,"336":0.07072202752092334,"337":-0.17258602195340522,"338":-0.41864748764028015,"339":0.7700415593936419,"340":-0.1238597053645322,"341":-0.33841943191175317,"342":0.22279755982124008,"343":0.34710275064386875,"344":0.00752323400181872,"345":0.19107772831955247,"346":0.11058920550702954,"347":-0.4426460235397094,"348":-0.05768102430332462,"349":0.17644442930416368,"350":0.3414285119727782,"351":-0.661780967599592,"352":0.014262920647392978,"353":-0.04122193894436215,"354":-0.0637392131042451,"355":0.1186185773521381,"356":-0.1604769369275718,"357":-0.22343136527112176,"358":0.4144102517697747,"359":-0.019400261691026464,"360":0.21919479147570517,"361":0.32870079075480213,"362":-0.5507190070572909,"363":-0.02344966644526551,"364":-2.796621443273365,"365":2.88053357033361,"366":-25.539566261958164,"367":10.456575006937435,"368":-0.14199861457204765,"369":-0.28345168427475803,"370":0.3133965451873882,"371":0.17478128105009821,"372":-9.408540939206222,"373":-5.8282027978731925,"374":11.046389011907028,"375":-12.085959851018416,"376":-0.7068331327103337,"377":-1.388363629422892,"378":3.979303961907448,"379":-1.1246471956122959,"380":0.04386744380872928,"381":0.29953084945269554,"382":0.06954568656517887,"383":-0.606048040409044,"384":0.06451104641780683,"385":-0.12827713474856278,"386":-0.3690864194507496,"387":0.6356410774430382,"388":-0.14254580523007604,"389":-0.17852758717520603,"390":0.4111402551503795,"391":-0.11737312648322833,"392":0.09380538651480566,"393":0.29106897331223053,"394":-0.08628460687334376,"395":-0.4567614260449429,"396":0.2569734021230048,"397":0.45117086052231065,"398":-0.5887757402320434,"399":-0.1974414217003798}},"b1":{"n":100,"d":1,"w":{"0":0.08117059337354003,"1":-0.13189557266826626,"2":0.03200679479288611,"3":-0.07552296672003578,"4":0.02463093434201111,"5":-0.06561005964906023,"6":0.07639210864002594,"7":0.11806310798263156,"8":0.08707737679916762,"9":0.14976511837083376,"10":-0.05246547465178093,"11":0.0760693922463691,"12":0.08022134241126856,"13":-0.06555975460638724,"14":0.10928204290494309,"15":0.007753152950511199,"16":-0.07532984298060202,"17":0.01214648305898888,"18":-0.14323242044664003,"19":0.2600905524618783,"20":0.035847003666145225,"21":0.05457532578905602,"22":1.4392587752585193,"23":-1.5421437919296521,"24":-0.05670254957216341,"25":-0.1090361236946094,"26":0.04689316275925173,"27":0.09889987497413395,"28":0.030784307844549802,"29":-0.03537103128004813,"30":-0.07192607171226491,"31":0.038178326882709876,"32":0.0746276282690431,"33":0.07693043690355639,"34":-0.013203535380184117,"35":0.006864703875891705,"36":0.007968337976710933,"37":0.0341137949066325,"38":0.020575715992903077,"39":-0.004876570580370624,"40":0.019047979590674773,"41":-0.025984724572157464,"42":-0.0679041698083795,"43":0.008064893711948358,"44":0.13490051007922524,"45":0.019320059960109777,"46":-0.05368021738195353,"47":0.05722430258182894,"48":0.06397391945510505,"49":-0.012336786031861665,"50":-0.028112260201624942,"51":-0.06819309505566,"52":0.03929509137816331,"53":-0.050148133694560504,"54":-0.01087677371155696,"55":0.03859814954912382,"56":0.08009529503668783,"57":0.020484447269736115,"58":0.0495821701560537,"59":-0.07221323564101145,"60":-0.002083064106999258,"61":-0.38703536103866704,"62":0.0956392157951225,"63":-0.02197846369477555,"64":0.09238504897068582,"65":-0.05453432885834419,"66":-0.10495838533316736,"67":-0.05658290495908517,"68":0.059492741331849494,"69":0.035134075019517236,"70":0.14102638053694785,"71":-0.1269863501616881,"72":0.02014815219551049,"73":0.06975025886298838,"74":-0.11395024990820879,"75":4.747840038082828,"76":0.08798829592628735,"77":-0.07996673569259588,"78":-0.031260897193446706,"79":0.07535481544310504,"80":0.39955164162238066,"81":0.0023514008967199466,"82":0.07119813868416282,"83":-0.043595898243426225,"84":0.18003257934944017,"85":0.00708088560843653,"86":-0.08016541008215973,"87":-0.15137846688675272,"88":0.027535173654395173,"89":-0.07732994354201993,"90":0.09606073335694398,"91":7.0160622156143555,"92":-0.03271498776530666,"93":-2.1448763069548407,"94":-1.0129816144353208,"95":-0.0951653009495815,"96":0.1529844845270812,"97":-0.09021038963020854,"98":-0.046957983488343374,"99":0.07910804860560494}},"W2":{"n":3,"d":100,"w":{"0":0.035597413061293916,"1":-0.06895337960765491,"2":0.01703629539663441,"3":-0.03912166575894255,"4":0.019197712057853956,"5":-0.02792030773371585,"6":0.03812569291257799,"7":0.06263014575809842,"8":0.04531371101707837,"9":0.076806516717335,"10":-0.024665644955106543,"11":0.03314561681901434,"12":0.04115388466976395,"13":-0.02323656505276699,"14":0.0541203762877823,"15":0.0017123891594751025,"16":-0.028776189053212487,"17":0.0030654519015890893,"18":-0.07319976528410932,"19":0.13704909964678716,"20":0.023395662315727154,"21":0.022464726352299295,"22":-0.0015160364772536811,"23":0.30962042936633205,"24":-0.02555758976339541,"25":-0.05260430351885358,"26":0.024755408217614086,"27":0.04678827271124482,"28":0.017643969161313482,"29":-0.02080394108070693,"30":-0.04927679350555013,"31":-0.010131971462892943,"32":0.03652285898227214,"33":0.03164187718002103,"34":-0.01078634576687768,"35":0.0006084023923293698,"36":-0.00818096719997729,"37":0.02247989046296339,"38":0.018533295462705872,"39":0.013082337748859125,"40":-0.0032345667547060523,"41":-0.007827381974102885,"42":-0.03790917403248566,"43":-0.0055651833964864734,"44":0.0670757593254603,"45":0.00782729514803875,"46":-0.00928074722618211,"47":0.03770962582773226,"48":0.03171951052615534,"49":-0.06222449590549515,"50":0.008562332169785084,"51":-0.0396081664170904,"52":0.0250036642016182,"53":-0.03024332532054067,"54":-0.007280414621886408,"55":0.016344271600266688,"56":0.03658921987553163,"57":0.00299037535042675,"58":0.01731154956766798,"59":-0.034841765007383826,"60":-0.0012204632293539713,"61":-0.41784910398306907,"62":0.05082562771800636,"63":-0.021253170357151095,"64":0.047275349825428116,"65":-0.026159785302077895,"66":-0.049524093078275995,"67":-0.031316620255592426,"68":0.03156190473434956,"69":0.02362695227642536,"70":0.07322331366169338,"71":-0.07211253850025785,"72":0.01625924589996028,"73":0.029093565704203857,"74":-0.05759684037141888,"75":-0.1860003389847169,"76":0.041590722395984187,"77":-0.04171505841971281,"78":-0.005761013996537254,"79":0.03619195302270235,"80":0.23009364582151237,"81":-0.005642899716987692,"82":0.03444596395278273,"83":-0.011373659902095087,"84":0.09373610735620148,"85":0.00922216765692422,"86":-0.04298594497938974,"87":-0.07881799460620525,"88":0.014229242280892077,"89":-0.0344102744757071,"90":0.0415726465332762,"91":-0.2445387459383644,"92":-0.011267505818830787,"93":0.7458043132006935,"94":-0.48958649723326186,"95":-0.05231785577308614,"96":0.0790840236400723,"97":-0.04187302606873392,"98":-0.02839727489179014,"99":0.03038752983620633,"100":-0.04191832701462771,"101":-0.0027116146103650816,"102":0.003605594856826881,"103":-0.0002967601153354715,"104":0.044170109648158,"105":0.03965811079525149,"106":-0.009978750047247317,"107":0.009812561615101377,"108":0.0015665188250292745,"109":-0.008968208430597443,"110":0.017086367976964306,"111":-0.040789629360268365,"112":-0.002679053847498306,"113":0.06435579506892859,"114":-0.018105684206804005,"115":-0.016022481611483542,"116":0.06183533875969136,"117":-0.02229333412865668,"118":0.00994032338952191,"119":-0.007063921076200333,"120":0.03410884133473841,"121":-0.038155839790651486,"122":-0.7254866697234832,"123":-1.4013926158016072,"124":0.025735237499664658,"125":0.02712721297348576,"126":0.0037588948954147255,"127":-0.030288321256644473,"128":0.012404147809516505,"129":-0.017978219946944568,"130":-0.07847273574074644,"131":-0.13344735205876826,"132":-0.014703834401389587,"133":-0.0515547771238961,"134":-0.02762522384803596,"135":-0.020468026227956324,"136":-0.07453645100945329,"137":0.03392021028026549,"138":0.05267538966831918,"139":0.08942041781283089,"140":-0.07751782069759422,"141":0.0375524284880065,"142":-0.020101135254968174,"143":-0.06168184850212867,"144":-0.02161576425150504,"145":-0.015050184162711375,"146":0.09707159567130154,"147":0.055548745945899314,"148":-0.009626714218850573,"149":-0.19617231643270422,"150":0.1147399572056665,"151":-0.031114059415657782,"152":0.03302750383941202,"153":-0.030676043617608065,"154":-0.011769135529582472,"155":-0.02473405740076723,"156":-0.032726177591016786,"157":-0.04950053761762725,"158":-0.0528272345012284,"159":0.017561129250204074,"160":-0.0010130909130816432,"161":-0.4612573029593117,"162":0.009244264183548727,"163":-0.06399489511554292,"164":-0.004220566655117746,"165":0.014207566982989521,"166":0.032942978231592306,"167":-0.014865314398767754,"168":0.0057644903220562945,"169":0.0380620683560088,"170":-0.0013876977241925896,"171":-0.045483578831151485,"172":0.040104665342554364,"173":-0.04520965356503192,"174":0.011081499439303292,"175":-0.7668528695679537,"176":-0.02715681224058134,"177":-0.0023158108479746295,"178":0.06413752296146442,"179":-0.019495064887491,"180":-0.04587177728488725,"181":-0.045681230497791006,"182":-0.01669223032981875,"183":0.0674141703471548,"184":-0.003379814640160297,"185":0.03794257184766987,"186":-0.010820399503143856,"187":0.0005903389394153474,"188":0.00006421762552833384,"189":0.03720541273501165,"190":-0.05146297657094603,"191":0.512262468944913,"192":0.03768396809468266,"193":-1.2885985890779585,"194":0.22743568122361588,"195":-0.02208938416934309,"196":-0.0048802174093176935,"197":0.032619471898225776,"198":-0.029297651929865057,"199":-0.06342189074174169,"200":0.0045456976387317225,"201":0.038469048996297786,"202":-0.010969815744286565,"203":0.020792446520467085,"204":-0.03539373166141884,"205":-0.007372647467856216,"206":-0.014386133937679369,"207":-0.03923503164547733,"208":-0.024834383932793483,"209":-0.03580541864292225,"210":0.0033283558982351844,"211":0.005220209224328234,"212":-0.020139546776939885,"213":-0.022894435044871365,"214":-0.018285585287821975,"215":0.008073573101032969,"216":-0.018529132628427942,"217":0.010949833465580979,"218":0.033315719406856514,"219":-0.06899682512689935,"220":-0.03186770010572776,"221":0.009417557316020826,"222":0.029437021316342567,"223":-0.11979847115028198,"224":-0.0010056652803845322,"225":0.01245292562736877,"226":-0.015135358764452671,"227":-0.007691285064524784,"228":-0.016289319195134728,"229":0.021130662661097328,"230":0.07413998661868951,"231":0.07460824627689848,"232":-0.010878330211796334,"233":0.011705781273685895,"234":0.02126796796160047,"235":0.011180855644133096,"236":0.04611651852602597,"237":-0.031220105059280457,"238":-0.039869301604398194,"239":-0.057021407687982396,"240":0.04477544810616448,"241":-0.01687758267919964,"242":0.031649985086663404,"243":0.037541124585677085,"244":-0.023241056941956495,"245":0.004373233647624269,"246":-0.046867209301290944,"247":-0.052804927794548644,"248":-0.011220355427285045,"249":0.13093118178469645,"250":-0.06631633450562864,"251":0.03916606761740778,"252":-0.03215628243209599,"253":0.033665888440704415,"254":0.010462728172744287,"255":0.005285462041886238,"256":-0.0009787939908275907,"257":0.026062098720826696,"258":0.020086767020533143,"259":0.008440546120104921,"260":0.001189453621921719,"261":-0.3333752522522619,"262":-0.03235941801064014,"263":0.04795413917826546,"264":-0.022571517600836984,"265":0.00572414976621675,"266":0.007667801157232462,"267":0.025048974561235993,"268":-0.019882697091603237,"269":-0.03430799023868551,"270":-0.03835081123572805,"271":0.06760472887043444,"272":-0.03138628706693328,"273":0.009697617308200648,"274":0.0241522853912703,"275":-0.023131340584285055,"276":-0.006680272128676606,"277":0.02332739788108845,"278":-0.032476220280574356,"279":-0.008021585419678996,"280":0.14907862519663512,"281":0.02864148848783825,"282":-0.008681047125692275,"283":-0.03104592213474163,"284":-0.0485533850790491,"285":-0.026245466601682914,"286":0.02899250605736246,"287":0.041942061807109056,"288":-0.007467620833680811,"289":-0.0026060459713865727,"290":0.006338568491231019,"291":0.007548716570098006,"292":-0.015089782293664972,"293":-0.06943833198382927,"294":-0.20748853636379794,"295":0.04093529734363016,"296":-0.039520736279792565,"297":0.003825193718989039,"298":0.03186350184446186,"299":0.018455757541159926}},"b2":{"n":3,"d":1,"w":{"0":0.5446987267359763,"1":-0.48655800215468953,"2":0.08687775230324322}}}}}