{"numStates":1,"sensitivity":17.450486492518113,"alpha":0.025627988727150153,"gamma":0.6891129385736161,"epsilon":0.3351624747125319,"cycles":3262,"max":{"lastUpdatedDate":"2018-05-08T23:06:43.667Z","meetsCriterion":false,"cycles":142,"wealth":6.763159879516533,"percentSuccess":0.42112899307781304,"odds":1.3,"weights":{"nh":100,"ns":4,"na":3,"net":{"W1":{"n":100,"d":4,"w":{"0":-0.05892899251484398,"1":-0.11018346891781884,"2":0.1400047286718934,"3":0.11173081803939607,"4":-0.07478328678839044,"5":-0.199375255746118,"6":0.2046901425185759,"7":0.18721398047914797,"8":-1.5514903765961552,"9":-1.68530210124279,"10":-4.386633261536099,"11":6.17549212030079,"12":0.04965155240487298,"13":0.1250927461085711,"14":-0.13571881841320826,"15":-0.10855465221138769,"16":0.02710871729506382,"17":0.05400161605061338,"18":-0.069888724449378,"19":-0.041262140924658366,"20":-0.028204712875316493,"21":-0.03766753122325683,"22":0.06522315676449741,"23":0.02614438488203754,"24":-0.01596162409608947,"25":-0.01700645543786091,"26":0.03304369529636904,"27":0.01759009199743998,"28":-0.0032419554991848618,"29":0.021371049918135692,"30":-0.005404119901299127,"31":-0.012376543380799425,"32":0.17377482563994578,"33":0.3977295626360738,"34":-0.45214171715809987,"35":-0.3714152137645514,"36":-0.10692905497551333,"37":-0.20315296346952988,"38":0.2665819350085197,"39":0.1706254344260407,"40":-0.10994846280693352,"41":-0.18341830317317465,"42":0.26739571217518326,"43":0.1405481227945598,"44":-0.07532807050210248,"45":-0.2338530252880639,"46":0.21372528477170116,"47":0.23772513066407833,"48":0.019114623785395954,"49":0.07887500265849708,"50":-0.06488925809391556,"51":-0.06890718051556707,"52":0.39313446826816034,"53":0.9184543636382371,"54":-1.047350027649733,"55":-0.8775458918878697,"56":0.17980660121380407,"57":0.43647029380169666,"58":-0.4801145840229618,"59":-0.4018304613321267,"60":0.06260462623504891,"61":0.15865121975244606,"62":-0.1638478142994951,"63":-0.16216513282483525,"64":-0.02622074561388494,"65":-0.07321568960860621,"66":0.0737131039657463,"67":0.06643533305922114,"68":0.025955971669750458,"69":0.0927144789243543,"70":-0.07923876043646914,"71":-0.0901994429331871,"72":-0.16737024446473434,"73":-0.4096054190611347,"74":0.44370639807729156,"75":0.3910629999384589,"76":0.14511468413031944,"77":0.37682377851617493,"78":-0.3808993605039145,"79":-0.3994195021176165,"80":0.08262966268764353,"81":0.1657967148089894,"82":-0.19975230641364913,"83":-0.17088399789049485,"84":0.00455280332411596,"85":0.042415693893014625,"86":-0.02522574366598918,"87":-0.03714266527683167,"88":-0.04232065637979529,"89":-0.1447574025839197,"90":0.12858220687597338,"91":0.13521808239439237,"92":0.16234169970276802,"93":0.3720263566578414,"94":-0.41397271103112365,"95":-0.37482006475166646,"96":-0.011515915556668886,"97":0.01699992406241871,"98":0.010333533550457802,"99":-0.008567665043455902,"100":-0.013208291819109702,"101":-0.01103798620706941,"102":0.02152408935938624,"103":0.02628474411184495,"104":5.714467182549724,"105":2.2240108912304666,"106":2.8483059411215526,"107":2.0411909692194303,"108":0.03673912948573824,"109":0.07975268203233331,"110":-0.08755571090493494,"111":-0.09290530305184974,"112":-0.19678306990845487,"113":-0.470323166650764,"114":0.5210982397464141,"115":0.43928522098544875,"116":0.05081140077825013,"117":0.13712388961356797,"118":-0.141660749103501,"119":-0.12229523524346897,"120":0.06408072424397548,"121":0.14875607940453164,"122":-0.16361491405040193,"123":-0.14902447042518457,"124":0.03298401804739288,"125":0.0462718757917247,"126":-0.07017879837612044,"127":-0.05466531539621174,"128":-0.11679154947054397,"129":-0.25123532322662634,"130":0.29101934718687655,"131":0.2522861029133087,"132":-0.10804317161313576,"133":-0.29678934232660437,"134":0.2916808564606242,"135":0.30480105508635946,"136":0.05857660717742254,"137":0.08974555151547979,"138":-0.1322708811505116,"139":-0.0895692752230568,"140":0.07764678359022428,"141":0.15950970335916503,"142":-0.1882791768564787,"143":-0.16685341347864938,"144":0.22550687605182337,"145":0.49259232326030244,"146":-0.5739499207040879,"147":-0.47649378507612994,"148":-0.0927762021965167,"149":-0.16584711988010908,"150":0.2197891217297683,"151":0.16156328713524584,"152":0.0830952856623638,"153":0.20776296926240442,"154":-0.22741556819931066,"155":-0.1778891627033617,"156":0.048881944806440314,"157":0.1404963235710165,"158":-0.13540016287713197,"159":-0.1392507345259541,"160":-0.22230279319281712,"161":-0.554408065725329,"162":0.589375587548249,"163":0.5540089759327038,"164":0.0058786342931347775,"165":-0.036321202606607816,"166":0.006743534080671537,"167":0.026778839284584216,"168":0.036378575328850735,"169":0.07104375059621326,"170":-0.09173256164947892,"171":-0.05876120799799236,"172":-0.01914889361823773,"173":-0.014185630117136772,"174":0.038612059584729325,"175":0.010787056528442206,"176":-0.0844879796684302,"177":-0.17788391637069076,"178":0.2098535719262055,"179":0.17534148986219195,"180":-0.08371649658200774,"181":-0.17879502651007262,"182":0.2063692224854376,"183":0.18431225649817334,"184":0.009895255706105019,"185":0.017932107012619138,"186":-0.020569279513151087,"187":-0.026756984341634895,"188":-0.02112277513198706,"189":-0.09922616778839345,"190":0.07546459381918785,"191":0.09066979783075162,"192":0.01686887445946137,"193":0.08294472802159954,"194":-0.052673886811081726,"195":-0.1045102634053908,"196":0.10197167668887168,"197":0.21665523833161884,"198":-0.25260551869695663,"199":-0.2185615531206831,"200":0.010350099133608836,"201":0.07450325387238774,"202":-0.03777984203690806,"203":-0.09846980820699923,"204":-0.06259613916965026,"205":-0.142454113049469,"206":0.16606377455857574,"207":0.1194949937839652,"208":0.042759711836079246,"209":0.11716427219595965,"210":-0.11349937199882366,"211":-0.12480964090825382,"212":0.03622350435113798,"213":0.13794926672736518,"214":-0.11356292697571829,"215":-0.1353682432780459,"216":-0.04955214056679226,"217":-0.11188913924148669,"218":0.129832657398915,"219":0.09772999397311918,"220":0.14595371971161128,"221":0.3187360459177271,"222":-0.3699911106796375,"223":-0.30717338505005454,"224":-0.05475342281458327,"225":-0.12043867703111023,"226":0.13460606429812655,"227":0.12905854362200528,"228":0.06755858092932347,"229":0.0988825846002158,"230":-0.15421231949575248,"231":-0.08795054956438413,"232":0.03691863158017848,"233":0.06531817966939722,"234":-0.08773792929552034,"235":-0.061734702859175,"236":0.018018376471785665,"237":-0.030528726858104368,"238":-0.02252615139663888,"239":0.042089118376628265,"240":-0.06519122704188877,"241":-0.1903911531245873,"242":0.18240523523957455,"243":0.1869516286958978,"244":-0.05783996069712714,"245":-0.13520546353251717,"246":0.14951456929694976,"247":0.1306754747912484,"248":-0.18088415852652817,"249":-0.40325852546863067,"250":0.46080378051110704,"251":0.3950780715682049,"252":0.2551042699089433,"253":0.5270401637848078,"254":-0.6404693291771082,"255":-0.5013609325571164,"256":0.07638281200034337,"257":0.175641234233581,"258":-0.1955710834264999,"259":-0.17244480803133344,"260":-0.014537552289448445,"261":-0.03142432409057995,"262":0.02955091228802641,"263":0.052510545331928414,"264":0.0005580585949362791,"265":-0.04764475933919407,"266":0.017583973573460927,"267":0.04553875020555955,"268":-0.03285185745659332,"269":-0.11576970573376971,"270":0.09612644482717707,"271":0.12398284752620835,"272":-0.01860402294665752,"273":-0.09442805075338426,"274":0.07013483289336125,"275":0.08362380543392729,"276":-0.060818130539241747,"277":-0.17303181036696083,"278":0.16283382099855587,"279":0.18754433808788784,"280":0.1456129821078754,"281":0.3552136588251779,"282":-0.3773597864356071,"283":-0.36414776708754676,"284":0.06801726186807781,"285":0.15217277645272279,"286":-0.17725781840527619,"287":-0.1342609337877559,"288":-0.0775099067732315,"289":-0.16288273139850767,"290":0.19160192877068072,"291":0.16298752293268273,"292":0.04727269961497198,"293":0.18416788696003575,"294":-0.14972752664953548,"295":-0.1812807568578353,"296":-0.01919226306881861,"297":-0.06004050639354562,"298":0.06139076171911669,"299":0.03923079121173561,"300":-0.20671978804129648,"301":-0.4858932744569794,"302":0.5385759024390884,"303":0.47347349973343217,"304":-0.0071814710130217035,"305":-0.0933875189887968,"306":0.032329073213602705,"307":0.14050514463997532,"308":-0.06817679254885765,"309":-0.1555783247206635,"310":0.18157901800549492,"311":0.12888258805131375,"312":-0.04003670192846599,"313":-0.07920015058171487,"314":0.09642989071442065,"315":0.08118992277962293,"316":-0.02940384926695453,"317":-0.08491964364535232,"318":0.07825154918945654,"319":0.09460671579226722,"320":-0.0363142021063653,"321":-0.053899733511396826,"322":0.07866123740013391,"323":0.062236022801430896,"324":0.07578870852444354,"325":0.1751844922207369,"326":-0.19641157839412288,"327":-0.1655847798480018,"328":-0.011753348777415334,"329":-0.013078570837173488,"330":0.026521171090784248,"331":0.007261267744568761,"332":0.06278471059582025,"333":0.16917371405706386,"334":-0.1702895273301452,"335":-0.16582431930575806,"336":0.035860804056973825,"337":0.09154634926679357,"338":-0.08899188220409782,"339":-0.1095063915322476,"340":-0.10442967911172217,"341":-0.2710424064859915,"342":0.28278512179257614,"343":0.2560879467447036,"344":-0.022575049912868152,"345":-0.03662899080285144,"346":0.053022096047901764,"347":0.03249001617821101,"348":-0.10315187397475287,"349":-0.26506023059537165,"350":0.28118694789008597,"351":0.24095877309524,"352":-0.06997993892360871,"353":-0.16556169429279827,"354":0.1694960044764341,"355":0.1989508808315447,"356":-0.1262558271765273,"357":-0.2982241028405384,"358":0.33086017462817385,"359":0.2803779437697285,"360":-0.2419788429944228,"361":-0.5456982892834935,"362":0.632436667556916,"363":0.4980610766047613,"364":0.09607930348394443,"365":0.19319906649410243,"366":-0.2372237708192141,"367":-0.18408911152518936,"368":0.019795451344441335,"369":0.10957240464722175,"370":-0.08476779558612234,"371":-0.07683823650586984,"372":-0.06107925228381855,"373":-0.1275886911722591,"374":0.15875560719824688,"375":0.1019582125798381,"376":0.015765945646720552,"377":-0.04066585915880719,"378":-0.009754450512856415,"379":0.03584170188021659,"380":-0.050020148838624545,"381":-0.07923285412522402,"382":0.1145962865792054,"383":0.0769377154050716,"384":0.0494290926718467,"385":0.09691280665575226,"386":-0.1196762757818929,"387":-0.09641239641274832,"388":-23.022466589867825,"389":-7.355871684793588,"390":-22.774955457953247,"391":-1.205987437489919,"392":-0.07821547749804503,"393":-0.22214593787692768,"394":0.21378197361604523,"395":0.22707247498003513,"396":0.06323756329850638,"397":0.14849377740720632,"398":-0.15988008786376876,"399":-0.1558005210410285}},"b1":{"n":100,"d":1,"w":{"0":-0.012623662580356262,"1":-0.014458143056592774,"2":1.2193721674068423,"3":0.012450162923591591,"4":0.009032355433085804,"5":-0.010580697697688799,"6":-0.004512401037354154,"7":-0.0007894972182393362,"8":0.03866953819278261,"9":-0.03176857508922267,"10":-0.03734485500451175,"11":-0.007486770222540756,"12":0.0030240121642925704,"13":0.07880368062018026,"14":0.03974337662455826,"15":0.009261365820296148,"16":-0.005435317989947044,"17":0.0024984053523110484,"18":-0.03323551623797435,"19":0.01705148203880228,"20":0.015937308484999052,"21":-0.0006095618193051584,"22":-0.006064468149345067,"23":0.029090823839776524,"24":-0.003747427247696857,"25":-0.0001423725346731465,"26":0.5622395269237983,"27":0.003713176541145631,"28":-0.042323372633084166,"29":0.011391101090219739,"30":0.011546040903011093,"31":0.006461629440315459,"32":-0.02262323951847645,"33":-0.013510704786569537,"34":0.014740642577564744,"35":0.013983642586243544,"36":0.047407084447244625,"37":-0.022276249538069233,"38":0.021525758373217897,"39":0.006807075274369441,"40":-0.0370699912193343,"41":0.002985800958022702,"42":0.010987043422236798,"43":-0.007034029599210303,"44":-0.017576399845696086,"45":-0.01510190650318819,"46":-0.00006798615157746227,"47":-0.0016357980115753261,"48":-0.006436858210607533,"49":0.01973947312827032,"50":-0.008837165336691384,"51":-0.017584475682414193,"52":0.004178699425584675,"53":0.0024961116593221963,"54":-0.012955446613066586,"55":0.031151106045654298,"56":-0.008263817795183013,"57":0.020203355662186784,"58":0.009428590958204724,"59":0.01267721821859646,"60":-0.009283614292509264,"61":-0.01158407047092997,"62":-0.03624719441724729,"63":0.057894249180655104,"64":0.014824120998259775,"65":0.0026709870662506557,"66":0.0038736431221992997,"67":-0.00032950060847371427,"68":-0.001673259834555024,"69":-0.00444715660677582,"70":0.022593961281321476,"71":0.017500748635691718,"72":-0.01551983345285796,"73":0.0027819193383471557,"74":-0.007550428365140096,"75":-0.040012136414461885,"76":0.01774699778246726,"77":-0.019551174742529317,"78":-0.007950940525139257,"79":-0.0013302142345173458,"80":-0.007089103876322183,"81":0.016302783675811557,"82":-0.0049068694737143285,"83":0.010194599913229862,"84":0.001079242101146996,"85":-0.020303033315248607,"86":-0.00656821779255639,"87":-0.022705345908577285,"88":-0.0037181226374221037,"89":-0.027037952919698755,"90":-0.0569574339825028,"91":0.022396154796509683,"92":0.006525651796085866,"93":-0.01900739470709639,"94":0.008422067771368984,"95":-0.012920697682189158,"96":0.010663636909011273,"97":1.6017560121921417,"98":-0.009343886091986706,"99":0.00940952215738381}},"W2":{"n":3,"d":100,"w":{"0":-0.018934055547510764,"1":-0.0325883328395938,"2":0.008936493542430802,"3":0.019182255320216716,"4":0.007453040722688307,"5":-0.004741303923242444,"6":-0.002895047662220195,"7":0.002557180233222984,"8":0.06487925258392882,"9":-0.030168736759376515,"10":-0.025259136840460963,"11":-0.04085127958381442,"12":0.012279567589097028,"13":0.15778425531536386,"14":0.07060307823598388,"15":0.02768371170076443,"16":-0.011646497743275377,"17":0.01565383917092854,"18":-0.06810624779497249,"19":0.06809763206122113,"20":0.028953723483556945,"21":0.006674609246689509,"22":-0.023667517812337613,"23":0.06437572588437865,"24":0.001954151687102274,"25":-0.003875761599633019,"26":0.6910786280752181,"27":0.01540213828724367,"28":-0.07703317715097291,"29":0.02151716512659784,"30":0.02548566619062219,"31":0.008915870848582433,"32":-0.04313088585229697,"33":-0.052220589368581975,"34":0.015113490751203367,"35":0.028205197153047583,"36":0.08289810419079255,"37":-0.027585188613161817,"38":0.031567572313167876,"39":0.023982600025483865,"40":-0.09622483396217682,"41":-0.005133173120616383,"42":0.0104094946042028,"43":-0.0018238309372866426,"44":-0.030021616854744214,"45":-0.03128906086907625,"46":0.004244697332953879,"47":-0.016023789428337695,"48":0.01732044593866814,"49":0.03728706872693433,"50":0.016235097909406557,"51":-0.021225990331099325,"52":0.021158911529141962,"53":0.02348403035596392,"54":-0.017188525151696252,"55":0.05308740414064306,"56":-0.021743001516188465,"57":0.015160862490753659,"58":0.010584709273579029,"59":-0.007123224509507884,"60":-0.032293602865855316,"61":-0.022512749614790255,"62":-0.06829117754807984,"63":0.08763573816567961,"64":0.029618089844727188,"65":-0.00823484394922322,"66":-0.008077917749705368,"67":-0.021095034308959974,"68":-0.014901125218723976,"69":-0.031734970301557086,"70":0.06236843432915153,"71":0.02356763846603789,"72":-0.027812512226587188,"73":0.031457502319852185,"74":-0.007495389281747469,"75":-0.08231372970886881,"76":-0.022754326939814284,"77":-0.02296750718969987,"78":-0.013748633741871626,"79":-0.015913514657056337,"80":-0.010211879969694903,"81":0.02867019997965136,"82":-0.0013776705840388786,"83":0.028596117008886125,"84":0.018138222757492762,"85":-0.044558306471200536,"86":-0.005624537234953508,"87":-0.0422647837204251,"88":-0.032905414618326065,"89":-0.04876884369908064,"90":-0.0880535408495516,"91":0.031709023155340056,"92":0.01455676331073762,"93":-0.018265499007870757,"94":-0.006643412151494025,"95":-0.013066974885368555,"96":0.016421765461118003,"97":0.7064327766969994,"98":-0.038901085798663866,"99":0.02640845375419934,"100":-0.0016348665186060333,"101":-0.002701528877874797,"102":-0.41391169039720566,"103":0.0016642009963023835,"104":0.0007423377180809904,"105":-0.0005849877820400042,"106":-0.0003057804985222003,"107":0.0001699182129905789,"108":0.006087819821592739,"109":-0.00297864608868229,"110":-0.0027658047774071818,"111":-0.0031563144694869757,"112":0.0009449994728076458,"113":0.020647619524234235,"114":0.0066736453492648685,"115":0.0021950251242490535,"116":-0.0009523321413154158,"117":0.0011674862715802328,"118":-0.006210581245595221,"119":0.005701926699198988,"120":0.002448892266280778,"121":0.00046122113902532103,"122":-0.0018352411223369488,"123":0.0057188295797052785,"124":0.00005995016420675951,"125":-0.000263239934569551,"126":-0.30282378798405024,"127":0.001163843917360366,"128":-0.007396880733418253,"129":0.0018074477828563006,"130":0.0020892672363683838,"131":0.0007689797760504201,"132":-0.0037199139196400985,"133":-0.00422222892922778,"134":0.0014106699972141026,"135":0.0023434839958352753,"136":0.008179916800053146,"137":-0.002511739305657662,"138":0.00281520769720966,"139":0.001868503810577392,"140":-0.009267405650248896,"141":-0.0003022567063903361,"142":0.0009968836319586543,"143":-0.00029101114900538625,"144":-0.0025759426534691368,"145":-0.0026037910805250496,"146":0.0002899723892411212,"147":-0.0011794704724563529,"148":0.001063932278003052,"149":0.003182503304106189,"150":0.0009299938733726136,"151":-0.0019411896558471059,"152":0.0015941141561780366,"153":0.0017334815660686848,"154":-0.0015299208910923364,"155":0.004792088047436873,"156":-0.0017304562638103184,"157":0.0015537372062503795,"158":0.0009658774887481571,"159":-0.00020534907548005823,"160":-0.0025468220191313265,"161":-0.0018758980224991516,"162":-0.0063148330826487365,"163":0.009125943354702733,"164":0.0024786139359426903,"165":-0.0005023037174770596,"166":-0.0004838203126810556,"167":-0.0015008232092930107,"168":-0.0011018988718548327,"169":-0.002375369693240563,"170":0.0053436598051729055,"171":0.0021066879427978752,"172":-0.002357642121487819,"173":0.002330685043863465,"174":-0.0007182406293501887,"175":-0.007845658123841933,"176":-0.0011821903837498872,"177":-0.0021201226203914664,"178":-0.0011525270476895005,"179":-0.0011490167027325602,"180":-0.0008753606527875277,"181":0.002449138041347039,"182":-0.00021326436152040986,"183":0.002290909581627907,"184":0.0012959676945805362,"185":-0.0037874654091671605,"186":-0.0005492364016975426,"187":-0.003674143557226803,"188":-0.002430519708885173,"189":-0.004316136318500428,"190":-0.00915170980771462,"191":0.00283041503447637,"192":0.0012071092821151071,"193":-0.0017621685570067336,"194":-0.00028184073937695126,"195":-0.0012229347589826274,"196":0.0014092523172428133,"197":-0.5286697932518016,"198":-0.003047691645899763,"199":0.0021007829999180705,"200":0.002589352146561863,"201":0.002865040685132828,"202":-0.021103294015369162,"203":-0.002507937829387662,"204":-0.0018462615197864546,"205":0.002186203517683722,"206":0.0009422854913107019,"207":0.00019745746000898558,"208":-0.007588327819979919,"209":0.006485706145776837,"210":0.0076762959060606975,"211":0.0013708280789913889,"212":-0.0005670618694649718,"213":-0.013382831433039928,"214":-0.007701156691704933,"215":-0.0018389785767162034,"216":0.001085682611759617,"217":-0.0004599473764515153,"218":0.00640764563293685,"219":-0.003093684745278852,"220":-0.0032420371829732695,"221":0.00016579710905665246,"222":0.0011561907564201935,"223":-0.005644532834021982,"224":0.000817628354418424,"225":0.00005266442985518203,"226":0.3220106150794358,"227":-0.000754975299289693,"228":0.008137058287329017,"229":-0.002277324573230482,"230":-0.0023253198990652816,"231":-0.0013494849466899495,"232":0.004533795466571236,"233":0.002536496898401677,"234":-0.003049203902105261,"235":-0.00284031235308993,"236":-0.00913099304773691,"237":0.00456456012945241,"238":-0.004318886919046506,"239":-0.0013310713675943578,"240":0.0066483105456222906,"241":-0.0006714256055877605,"242":-0.002248014441686006,"243":0.0014684281831316365,"244":0.00356237945092675,"245":0.0030521088928080805,"246":0.000008537625547844565,"247":0.0002618445076838549,"248":0.0013752997241819297,"249":-0.003977616361769114,"250":0.0018718637749244934,"251":0.0035650785451471533,"252":-0.0008130293729594626,"253":-0.0004215161858362106,"254":0.0026295641129732024,"255":-0.006197083855289144,"256":0.001673619322307213,"257":-0.0041763343478585895,"258":-0.0019396142479593537,"259":-0.002674619434908108,"260":0.0017976490630364672,"261":0.0023377634055651306,"262":0.007065681169777289,"263":-0.011239684858922228,"264":-0.0029832760426143543,"265":-0.0005429212812735475,"266":-0.0008519681057396074,"267":0.000002865593056642756,"268":0.00026922842417196957,"269":0.0008249646054491518,"270":-0.004319966110599226,"271":-0.0035472757083469192,"272":0.0031489645934507154,"273":-0.00043344096256550614,"274":0.0015140987400466413,"275":0.007583871002728537,"276":-0.003740137652322302,"277":0.003961855690662388,"278":0.001628498784069509,"279":0.00024190705829801905,"280":0.0014765581938105364,"281":-0.003285348407397734,"282":0.0010155889566375018,"283":-0.0020136051844865622,"284":-0.00019885293589995585,"285":0.003992874588815561,"286":0.0013542830229669174,"287":0.0044981141430471844,"288":0.0007087544214584691,"289":0.005362910122759433,"290":0.010975584342426946,"291":-0.004551678141235826,"292":-0.0012408156631081948,"293":0.0038736391576675265,"294":-0.0018129958013380384,"295":0.002669019784354234,"296":-0.0021827748828100314,"297":0.38698952614375237,"298":0.0017814013393283414,"299":-0.0018868019950828842}},"b2":{"n":3,"d":1,"w":{"0":-0.08031164395420096,"1":0.3350588460577518,"2":0.22280003676164767}}}}},"weights":{"nh":100,"ns":4,"na":3,"net":{"W1":{"n":100,"d":4,"w":{"0":-0.013275102649910657,"1":0.026292136533271105,"2":0.004822577645497207,"3":0.0020982011289182533,"4":-0.00706311096451246,"5":0.016802381783492474,"6":0.0017436164438324824,"7":-0.0005683651714301906,"8":-0.17613951097009395,"9":-1.6192679945644142,"10":-3.271665522962109,"11":3.019622866368475,"12":0.0046573733530786525,"13":-0.010753769618042556,"14":-0.0012448968451453457,"15":0.00017978806461843732,"16":0.004247666353559339,"17":-0.008637413637881595,"18":-0.0014774332014880793,"19":-0.0005368445494803997,"20":-0.007350543677143476,"21":0.013974079464270494,"22":0.0028410184029204278,"23":0.0015115698032788884,"24":-0.005495012300834708,"25":0.010308709259096924,"26":0.0021641294004040865,"27":0.001212531117407417,"28":-0.005692819577546357,"29":0.01001068172822687,"30":0.002437590175259956,"31":0.00165685140146064,"32":0.03148502705341439,"33":-0.06912455073483252,"34":-0.00946027943656169,"35":-0.0009240686728782063,"36":-0.02069597361835054,"37":0.041607385396652014,"38":0.007337881646250179,"39":0.0029011469526497185,"40":-0.02408150203991221,"41":0.04726662225057005,"42":0.008873484074990041,"43":0.00406259372494639,"44":-0.004289983128359473,"45":0.012786903902917182,"46":0.0003045624849491441,"47":-0.0018910347322790865,"48":-0.0031711232497295704,"49":0.004337445920186296,"50":0.0017199152194867042,"51":0.00166479087430361,"52":4.548445422388879,"53":1.4442303959043565,"54":2.1404580092183636,"55":2.3865333143303307,"56":0.03019920410350375,"57":-0.06946464045599467,"58":-0.008149484600304562,"59":0.0010079020930720104,"60":0.008306762643911456,"61":-0.018293857933651514,"62":-0.0024793865918979184,"63":-0.00021003453179324326,"64":-0.0015347498344607988,"65":0.0041290561837353775,"66":0.0002391557103646463,"67":-0.0004097592620795618,"68":-0.0010575550419447942,"69":0.00016201379580292792,"70":0.0009489957311568037,"71":0.0013243708872305712,"72":-0.028044118925575682,"73":0.06364700258373787,"74":0.00781940072220301,"75":-0.0004205867814222337,"76":0.02489581890237659,"77":-0.05671708868293747,"78":-0.006878664070469334,"79":0.0005021917909538674,"80":0.017478712109652506,"81":-0.03519655151596573,"82":-0.006180470296241596,"83":-0.0024159274469567373,"84":-0.004571072134574437,"85":0.007542185912334403,"86":0.0021022144764813893,"87":0.0016273425761186555,"88":0.0011719177787309217,"89":0.0006264764337111419,"90":-0.0012871851788662542,"91":-0.0019502318879667736,"92":0.03159007395012714,"93":-0.06843169989268348,"94":-0.009761739283979949,"95":-0.0014801862743089509,"96":-0.009119714703687958,"97":0.01631529055349196,"98":0.0038235467978441308,"99":0.0024874548566181575,"100":-0.006447406122234031,"101":0.012047684197743774,"102":0.00255316453264081,"103":0.001451265931285379,"104":-0.09492574132216168,"105":0.09589509406555427,"106":0.061405137013804435,"107":0.07016311348905284,"108":0.007796242211061177,"109":-0.01580960583423545,"110":-0.0027244663274056907,"111":-0.0010114734424468237,"112":-0.037023412960297014,"113":0.08719390172401299,"114":0.009397154529383146,"115":-0.0024531098064456075,"116":0.0036556295418697224,"117":-0.009195773400031908,"118":-0.0007564747755650698,"119":0.000593222192149514,"120":0.010134325825039448,"121":-0.02137422982053322,"122":-0.0033008989888146166,"123":-0.0008217831933629235,"124":0.010407613703342629,"125":-0.019862706342337617,"126":-0.004000130341146749,"127":-0.0020942084088416326,"128":-0.02251664338745286,"129":0.046588688101405054,"130":0.007597330923417898,"131":0.002365299679873093,"132":-0.013123508024926211,"133":0.030892025252430795,"134":0.0033353852686513535,"135":-0.0008600398950305368,"136":0.01592950265202091,"137":-0.030697126743284172,"138":-0.006035935907549795,"139":-0.0030280507105760546,"140":0.016103632967911535,"141":-0.03256465812996718,"142":-0.005654179814809789,"143":-0.002143783238430809,"144":0.051729539117253844,"145":-0.1263750193989334,"146":-0.011801067083428683,"147":0.006153073843416972,"148":-0.02162245940579745,"149":0.042683796642172964,"150":0.007896150401874462,"151":0.003501812273719898,"152":0.008262578975009068,"153":-0.01900899487817484,"154":-0.0022287528751570736,"155":0.00027758247496583653,"156":0.0035626481866623282,"157":-0.009222508234070887,"158":-0.0006610613926483545,"159":0.0007342012089159274,"160":1.2524659556626543,"161":2.0554649951618496,"162":-2.044428960629716,"163":-1.7819593267916227,"164":0.009294932423688812,"165":-0.016276085235926614,"166":-0.004000081538500354,"167":-0.002746429471567956,"168":0.006397322950673115,"169":-0.01287755634958132,"170":-0.0022634399625837934,"171":-0.0008870181427673202,"172":-0.007119964000492701,"173":0.013174881631437227,"174":0.0028573593117873497,"175":0.0016802297741046418,"176":-0.01592957517246165,"177":0.03257060652599541,"178":0.005488457649692245,"179":0.0019062800012575988,"180":-0.016232694358505637,"181":0.03322686985406868,"182":0.005582232219229774,"183":0.0019207038345143783,"184":0.003133402538835632,"185":-0.0061044402522904915,"186":-0.0011679523367275706,"187":-0.0005560038188354555,"188":0.005032898954842281,"189":-0.007308398579107223,"190":-0.002605638993603594,"191":-0.0023880453446736617,"192":-0.0017849208031755377,"193":0.001468279703902434,"194":0.00125249131620081,"195":0.0015197707706454734,"196":0.01977893340221059,"197":-0.040613775841516625,"198":-0.006764312010496747,"199":-0.0022635933150190577,"200":-0.0035693146762340888,"201":0.0048569488007772785,"202":0.0019432292808703184,"203":0.0018888900272786445,"204":-0.007982380284335453,"205":0.017107770127799894,"206":0.002520427096571139,"207":0.0004842955698157844,"208":0.004775142773943851,"209":-0.011022471087802788,"210":-0.001277318811352405,"211":0.00018240299209670578,"212":-0.0025398471298125323,"213":0.0019382831456490996,"214":0.0018263600992147022,"215":0.0022529731220470727,"216":-0.006776847986963751,"217":0.01436086477950742,"218":0.0021874842757201494,"219":0.0005088936193008715,"220":0.02744943517998924,"221":-0.05782350544554451,"222":-0.00896111731680915,"223":-0.0022675145808085666,"224":-0.0103953846361922,"225":0.02132466271366327,"226":0.0035613348606434313,"227":0.0012023371233053273,"228":0.018037260188881386,"229":-0.034634338574980814,"230":-0.006871004057768455,"231":-0.003503302485253001,"232":0.008370403676697868,"233":-0.016426555413104903,"234":-0.003085085713200875,"235":-0.0014137302528007998,"236":0.012449135114618799,"237":-0.02194699427587012,"238":-0.0053143349526430135,"239":-0.0035899895795754367,"240":-0.004404838126809786,"241":0.011839037387405427,"242":0.0006897952683793066,"243":-0.001169072651695023,"244":-0.008483014885646846,"245":0.01803269352771135,"246":0.0027217661588195222,"247":0.000603311951756266,"248":-0.03677647916240134,"249":0.08011515355984071,"250":0.01123334617035977,"251":0.001454455385220357,"252":0.04740039827324104,"253":-0.19041109011740018,"254":0.0109914190183037,"255":0.050376437630262616,"256":0.012115488964828629,"257":-0.025551169865192506,"258":-0.003946636257213626,"259":-0.0009833361529468516,"260":-0.004645201638551507,"261":0.009210369641378354,"262":0.0016845067798436748,"263":0.0007280537026207263,"264":0.00759421936861416,"265":-0.0129080538226574,"266":-0.003382149497166313,"267":-0.0024774223425412015,"268":-0.00007753146816663004,"269":0.002459023095634522,"270":-0.0006456349694603563,"271":-0.001368276819284337,"272":0.0058080297741223965,"273":-0.00883091618894578,"274":-0.0028909329430772943,"275":-0.00251814983677539,"276":-0.006494764771451661,"277":0.015428036260531689,"278":0.001609833768384225,"279":-0.0005092691134668882,"280":0.025568082216657535,"281":-0.056366563241722685,"282":-0.00761446242668613,"283":-0.0006113022073096382,"284":0.009795941898220716,"285":-0.020662634668277568,"286":-0.00319007215183785,"287":-0.0007930944323857002,"288":-0.014824689636154704,"289":0.0302359578087507,"290":0.005129849278367061,"291":0.001819292035069945,"292":-0.0036466811525850394,"293":0.0029489952061785294,"294":0.0025737403786250655,"295":0.003135369845509543,"296":0.0014027692895386072,"297":-0.0015799433357825575,"298":-0.0008598228030186066,"299":-0.0009392825791992841,"300":-0.043469460874980506,"301":0.10560859820032328,"302":0.010088240996969061,"303":-0.0048176886781834604,"304":0.005715900583263563,"305":-0.008190263664269951,"306":-0.002991374387856086,"307":-0.00277795285302438,"308":-0.008512626002048433,"309":0.018318969738293236,"310":0.002665995807258344,"311":0.0004716850111847467,"312":-0.008422851770937656,"313":0.01684136185490133,"314":0.0030132660798648683,"315":0.0012358322092625666,"316":-0.003024252392716559,"317":0.0072070963212864,"318":0.0007428550537480883,"319":-0.0002509764445214885,"320":-0.010933314922615523,"321":0.02096607654340615,"322":0.004172932008394613,"323":0.002140059592206119,"324":0.01123380158880625,"325":-0.02386983880424919,"326":-0.0036073680419855913,"327":-0.0008051178221198771,"328":-0.003351108707370493,"329":0.006286394567694659,"330":0.0013198798381933066,"331":0.0007396519272621172,"332":0.006202037350688153,"333":-0.014628160968000447,"334":-0.0015678218785412214,"335":0.0004237310641699649,"336":0.00609874127548652,"337":-0.013000701280164326,"338":-0.001946148934549535,"339":-0.000411974406104067,"340":-0.012009739045127572,"341":0.027695927964034826,"342":0.00322017601671504,"343":-0.0004431119618460413,"344":-0.005410989291122398,"345":0.010490260658440826,"346":0.0020319088717543035,"347":0.0009908871478737505,"348":-0.011172422601341535,"349":0.025874935310046532,"350":0.002963528334425102,"351":-0.00047806025033749497,"352":-0.014067003956005044,"353":0.029252315865753283,"354":0.004703497876929678,"355":0.0013899508549619717,"356":-0.0192721000259933,"357":0.04185521697401427,"358":0.005923987738829036,"359":0.0008389751308880619,"360":-0.03492407386836405,"361":0.175526576090711,"362":-0.01839544334857993,"363":-0.05823685713320778,"364":0.018934986124724166,"365":-0.038362739413512585,"366":-0.006627102467182836,"367":-0.0024772544823477385,"368":-0.009616503854081877,"369":0.015642244503793166,"370":0.004488288714665909,"371":0.0035581803106501985,"372":-0.009128369129144186,"373":0.0188619478081121,"374":0.0030874092541035504,"375":0.000974124281404224,"376":0.014425636819057354,"377":-0.02548119965555144,"378":-0.006143527340417972,"379":-0.004130157906185718,"380":-0.012990754507251626,"381":0.0251165444590826,"382":0.004898267728315599,"383":0.002419985503688406,"384":0.01026452959810078,"385":-0.020522977340506336,"386":-0.0036723555402808556,"387":-0.0015065214087385077,"388":-40.839163746939214,"389":-11.966990047385721,"390":-42.694909390158784,"391":-3.3161985156942886,"392":-0.007428503880712534,"393":0.018217283984791676,"394":0.001674339174450831,"395":-0.0009245244144395897,"396":0.010459462838770186,"397":-0.022028028607370694,"398":-0.0034161372937091274,"399":-0.000867276713882471}},"b1":{"n":100,"d":1,"w":{"0":-0.0004922256420656792,"1":-0.00040592476736673515,"2":1.0910780786992595,"3":0.00025099369402138276,"4":0.00016899882311765163,"5":-0.00024264555501594745,"6":-0.0001743372999577755,"7":-0.00014635835609322283,"8":0.001513927610577944,"9":-0.0007990170500846234,"10":-0.0008710016821384358,"11":-0.00037870734872070036,"12":-0.000018103539987639793,"13":0.7760279008811429,"14":0.0016140630008584077,"15":0.00040229496278628346,"16":-0.00011267661623644262,"17":0.0000597212307491477,"18":-0.0014548017130620254,"19":0.001302486334194418,"20":0.000677731419006694,"21":-0.00009213041180791683,"22":-0.00010744219899747879,"23":0.001471692071612587,"24":-0.00024871900026332967,"25":-0.00020211008189761342,"26":0.001196387636101316,"27":0.00030794900277649417,"28":-0.0020829562870440946,"29":0.00023565979386462583,"30":0.0004424539288476008,"31":0.00034749571993695843,"32":-0.0009369435956201156,"33":-0.0007374707284402226,"34":0.0005470202186757397,"35":0.0006314298832649408,"36":0.003143717614757909,"37":-0.0007945361564324937,"38":0.0004417479066173957,"39":0.00024300848372105384,"40":0.08892528135442164,"41":0.00023544296429701687,"42":0.00024781562991873834,"43":-0.00021656091941350196,"44":-0.0006429292084881506,"45":-0.0006570315590917002,"46":0.000110988678681174,"47":0.00005046013476419131,"48":0.00003962812122876919,"49":0.0008071296462015532,"50":-0.000019089686432711483,"51":-0.00036243630975869466,"52":0.0002571753872212928,"53":0.00006411901632610285,"54":-0.00029934349805155164,"55":0.0011948745954539278,"56":-0.0004231263406273982,"57":0.0006130246908516242,"58":0.0003026064384395726,"59":0.0003229001019697586,"60":-0.0003227948547795057,"61":-0.000377589119413961,"62":-0.0017363140629410646,"63":0.0067129550338908975,"64":0.0005288729823581153,"65":-0.00017276363799888545,"66":0.0001723997263673767,"67":-0.00012090047717498146,"68":0.00007855203397361533,"69":-0.0003721187826173826,"70":0.0012412944043220066,"71":0.0004277871837364318,"72":-0.0005944675629285125,"73":0.00008356150333780107,"74":-0.000009334036730770417,"75":-0.0026114009549389906,"76":0.000051679770177220134,"77":-0.00039034046951621,"78":-0.00032046897592661553,"79":-0.0001744578195140077,"80":-0.00037017182181721116,"81":0.0004995032918517224,"82":-0.00010630210727635521,"83":0.0003499962407835907,"84":0.0002733229737983605,"85":-0.0006454766978419049,"86":-0.00018903548222694956,"87":-0.0006061027450658113,"88":-0.0005928409528531724,"89":-0.0009032873838487176,"90":-0.006754365127609019,"91":0.0007461648533219613,"92":-0.00018231264661344905,"93":-0.00037853658964602863,"94":0.00037671360594441236,"95":-0.0004503293285194498,"96":0.00039050030807553606,"97":3.5059892859350446,"98":-0.00045486015153115743,"99":0.00045501379117531}},"W2":{"n":3,"d":100,"w":{"0":-0.00008284939081701985,"1":-0.000054517837015166894,"2":0.05577298100826382,"3":0.00003474025258608115,"4":0.00002734244825260898,"5":-0.00004370690558915781,"6":-0.00003216241420111043,"7":-0.00003083800307679986,"8":0.0002216541479541159,"9":-0.00013145914105966374,"10":-0.00014870894658210531,"11":-0.00004268976807782039,"12":-0.0000125821705738315,"13":0.9312359310150741,"14":0.0002243566803650629,"15":0.000058674667531365586,"16":-0.000013619350712600611,"17":5.688957353764223e-7,"18":-0.0002051374124658075,"19":0.00018289733385460318,"20":0.00011123378979762525,"21":-0.00002292178247006195,"22":-0.000003620424954421203,"23":0.00021896150563856085,"24":-0.00005043470797113591,"25":-0.00003755976679158317,"26":-0.00025029463230558303,"27":0.0000500231624599452,"28":-0.00028267217449282935,"29":0.000030068857156413113,"30":0.00006808013762195944,"31":0.00006216982021180836,"32":-0.00014792897630179594,"33":-0.00010008687817759258,"34":0.00009625415369532664,"35":0.00010299088406944668,"36":0.0004122079393719528,"37":-0.00013442680358651736,"38":0.00006137688346817828,"39":0.000030270925569502026,"40":-0.0046109370836890096,"41":0.000050095408116875534,"42":0.00004069377676489154,"43":-0.00004099722269821939,"44":-0.00010320580850268961,"45":-0.00010530523453178018,"46":0.00001917873300181863,"47":0.000021543642845184775,"48":-0.0000034721892725453635,"49":0.00012878834911911625,"50":-0.000014068824033515046,"51":-0.00005463326559602673,"52":0.00003560676728493978,"53":-0.000004380574852919097,"54":-0.00004577661417197188,"55":0.00018416334732850972,"56":-0.00006760722795426963,"57":0.00010852873644853306,"58":0.00005167658418079175,"59":0.0000676430698074028,"60":-0.00003904595983723157,"61":-0.00005751062479685216,"62":-0.0002566005200096027,"63":0.0006626214056704101,"64":0.00008138423308856168,"65":-0.000029028116398141025,"66":0.00003948269627899643,"67":-0.000009036250643948965,"68":0.000026334088726811477,"69":-0.00005004799749807336,"70":0.00018084602007926214,"71":0.00006581460838536076,"72":-0.00009576662737717598,"73":-0.000006905461283551438,"74":0.000004309164685513372,"75":-0.0003440370188862844,"76":0.000024059447597907317,"77":-0.000058539950337829674,"78":-0.00005315741868941852,"79":-0.00002338996070737719,"80":-0.00006568144235989022,"81":0.00007612219048001048,"82":-0.00001961287330559568,"83":0.00004740443521450985,"84":0.00004148100636310166,"85":-0.00008946005482428663,"86":-0.00003292886870619672,"87":-0.00008363034133732802,"88":-0.00009295601090718558,"89":-0.000133958838863914,"90":-0.0006219351610739359,"91":0.00012136966186890079,"92":-0.0000473883141657108,"93":-0.00005987286450855401,"94":0.00007856723513878851,"95":-0.00007880251152841378,"96":0.00006477776113309025,"97":0.8614392314113937,"98":-0.000059362937427562243,"99":0.0000701459039791513,"100":-0.000122238514664122,"101":-0.0001132252336706732,"102":0.5317688413879956,"103":0.0000690828791917928,"104":0.000042960590650729236,"105":-0.00005768004754216091,"106":-0.00004075893491922206,"107":-0.00003076594322055457,"108":0.0004058249238175687,"109":-0.000201152682467445,"110":-0.00021441201207703274,"111":-0.00011298492663628273,"112":0.0000040811964908081285,"113":0.13730642169428275,"114":0.0004434313480687001,"115":0.0001080350129486484,"116":-0.00003279051690460231,"117":0.000023361250709061152,"118":-0.0003970453307344084,"119":0.0003561564305839993,"120":0.00017086167857127907,"121":-0.00001620963884010543,"122":-0.00003969235425242984,"123":0.00039136066263471467,"124":-0.00005405604180871888,"125":-0.000047005823298761374,"126":0.0007036150734796662,"127":0.0000781029890097201,"128":-0.0005784585275526934,"129":0.00006715530411411981,"130":0.00011562788154084223,"131":0.00008298528221994731,"132":-0.0002414751369950548,"133":-0.00020477041069621248,"134":0.00013208446120484353,"135":0.000159767356937361,"136":0.0008861942808004532,"137":-0.00019669177440697456,"138":0.00012137548217632806,"139":0.0000699111242891289,"140":0.015140862025665308,"141":0.00004905426628916313,"142":0.00006245712648641733,"143":-0.00004969035288734866,"144":-0.0001641709257578305,"145":-0.00016791986245776546,"146":0.000027114999602938805,"147":7.920154782059787e-7,"148":0.00001896425941329152,"149":0.00020679836661929624,"150":0.000005024268122583124,"151":-0.00009573705634040286,"152":0.00007077451454944714,"153":0.000029571375448210924,"154":-0.00007848288127203873,"155":0.000311994141265484,"156":-0.00010832713569206237,"157":0.0001474282576899568,"158":0.00007448003709396805,"159":0.00006823001773133658,"160":-0.00009391184945897071,"161":-0.0000992060452206205,"162":-0.0004633011077869217,"163":0.0020917586718455514,"164":0.00013820623477342838,"165":-0.00004294924673433847,"166":0.000033399658114613244,"167":-0.00004020052788421331,"168":0.000007712377372115341,"169":-0.0001037321812081885,"170":0.00033353708817418927,"171":0.00011180281700282063,"172":-0.00015149013467985646,"173":0.000039614523263527706,"174":-0.000007607368222990355,"175":-0.0007345917192719747,"176":-9.834629859436378e-7,"177":-0.00010337743134123536,"178":-0.00008028841776170736,"179":-0.00004869812817767013,"180":-0.00008889111508179166,"181":0.00013119913401528355,"182":-0.00002485106881085561,"183":0.00009726676023407024,"184":0.00007194536663986294,"185":-0.0001775543974499741,"186":-0.00004594496131685578,"187":-0.00016705857360006202,"188":-0.00015336818138102592,"189":-0.0002405877998492947,"190":-0.002145287643253818,"191":0.00018910062918582927,"192":-0.00003025098868151093,"193":-0.00009745988168624836,"194":0.00007991501810138088,"195":-0.00010913089048968699,"196":0.00009783021173464028,"197":-0.4607934855298714,"198":-0.00012842871188614404,"199":0.00011879042286027858,"200":-0.0008229663000846798,"201":-0.0006881208831723523,"202":0.10160354457483106,"203":0.00042477811066938783,"204":0.000283308538637251,"205":-0.0004037261414828107,"206":-0.00028955177937155853,"207":-0.0002404576182787412,"208":0.002553842515357358,"209":-0.0013379690123125753,"210":-0.0014548099799386821,"211":-0.0006475723559901303,"212":-0.000023745700848592842,"213":0.1921794762149054,"214":0.0027309359855159985,"215":0.0006787908838073478,"216":-0.00019204415849123605,"217":0.00010633638456796991,"218":-0.0024594808307074265,"219":0.002202502596237005,"220":0.0011350598763421353,"221":-0.00014896379389499792,"222":-0.00018952938439295244,"223":0.0024802090103480823,"224":-0.0004099778239569774,"225":-0.00033549154629284613,"226":0.0023091001963170352,"227":0.0005161068885952134,"228":-0.0035289525571674486,"229":0.0004005708229388098,"230":0.000744123788111637,"231":0.0005784707093929777,"232":-0.0015731844408194968,"233":-0.0012494414863047643,"234":0.0009117182435660735,"235":0.001057954845900014,"236":0.0053358240670506474,"237":-0.001327931569584755,"238":0.0007474471981247852,"239":0.00041356515567055334,"240":-0.07132189408472271,"241":0.0003864848324013933,"242":0.0004150264079074607,"243":-0.00035896479003036115,"244":-0.001078357726715977,"245":-0.001102123333266425,"246":0.0001852249905793555,"247":0.00007543911533951132,"248":0.00007319293849138867,"249":0.0013542934130067819,"250":-0.00002449110635460256,"251":-0.0006103255349347638,"252":0.00043523245681086276,"253":0.00011758102911318499,"254":-0.0005036330470336323,"255":0.002009332097620404,"256":-0.0007099077609207514,"257":0.001021275873458616,"258":0.0005054284418393418,"259":0.000530773098492004,"260":-0.0005501458844679063,"261":-0.0006354363332740776,"262":-0.0029273448437609007,"263":0.011540190028356117,"264":0.0008894593091862567,"265":-0.00028888346518144147,"266":0.0002810820133702981,"267":-0.00020987562709741202,"268":0.0001223643157865349,"269":-0.0006307650689631907,"270":0.0020945543956756175,"271":0.0007194631297673893,"272":-0.0009968426778554213,"273":0.00015405301919318165,"274":-0.000019628048949177156,"275":-0.00443127383062546,"276":0.0000758978211519823,"277":-0.0006575196623746164,"278":-0.0005363369424928017,"279":-0.00029576767007843025,"280":-0.0006165922328394588,"281":0.0008405733455152904,"282":-0.00017655283979038536,"283":0.0005930390323200863,"284":0.0004600710839173339,"285":-0.00109231239915311,"286":-0.00031529405773938904,"287":-0.00102593667480974,"288":-0.0009958583228555343,"289":-0.0015225948873494716,"290":-0.011641856915905996,"291":0.001250420841611509,"292":-0.00029338942327724606,"293":-0.0006355137117721674,"294":0.0006194687163913082,"295":-0.0007508633369466376,"296":0.0006535385528429841,"297":-0.02340086405761868,"298":-0.0007722570857814383,"299":0.0007651559642821604}},"b2":{"n":3,"d":1,"w":{"0":-0.05863527916443974,"1":-0.07477714684206183,"2":0.3382970760509672}}}}}