{"numStates":1,"sensitivity":12.545806658480368,"alpha":0.005081483000498977,"gamma":0.06750687898700969,"epsilon":0.29278281546687956,"cycles":3315,"max":{"lastUpdatedDate":"2018-04-03T16:47:11.837Z","meetsCriterion":true,"cycles":2029,"wealth":7.806277886685201,"percentSuccess":0.5086532494199807,"odds":2.1875,"weights":{"nh":100,"ns":4,"na":3,"net":{"W1":{"n":100,"d":4,"w":{"0":0.03525055117023399,"1":-0.008284143330547524,"2":-0.09226347162129898,"3":0.018130937562672225,"4":-0.02279379905921052,"5":0.005393452020317865,"6":0.05955125031383608,"7":-0.011638164032660884,"8":-0.01920721306030375,"9":0.004551235138122931,"10":0.050161936644871785,"11":-0.009791926522275124,"12":-0.010911310142971734,"13":0.0025915475643228333,"14":0.028478336997393678,"15":-0.005548546451357076,"16":0.030703345693232253,"17":-0.007236056834326432,"18":-0.08030114923435595,"19":0.01574412189077038,"20":-0.043544944451256395,"21":0.010169799112185397,"22":0.11416088443506446,"23":-0.022546106903608667,"24":-0.009296765446806967,"25":0.0022087522395419054,"26":0.024262415499838905,"27":-0.004725962517905776,"28":-0.01604002422821042,"29":0.003804740387514047,"30":0.04187870889507614,"31":-0.0081680173664185,"32":-0.0009222271898075162,"33":0.00021928212633244242,"34":0.0024062819915726917,"35":-0.00046840125449380224,"36":-0.009810920860326902,"37":0.002330691423206138,"38":0.025604875099935746,"39":-0.004987829016094829,"40":-7.965451705277353,"41":-17.587620642316747,"42":14.22043637372208,"43":22.856379805039314,"44":-0.01481577770617972,"45":0.003515589754571765,"46":0.03867867373352789,"47":-0.007541705799262269,"48":-0.003053840050489352,"49":0.0007260639381317473,"50":0.007968277770549969,"51":-0.0015511887563727073,"52":-0.015139773555700243,"53":0.0035921429796085705,"54":0.03952547267843206,"55":-0.0077073892993471445,"56":0.01730524821765811,"57":-0.004103231000701531,"58":-0.04518685023934224,"59":0.008816078579206323,"60":0.0012397918543431486,"61":-0.00029478787123577316,"62":-0.0032348815467700184,"63":0.0006296983629451717,"64":-0.0004625977514480164,"65":0.00010999251886182669,"66":0.0012070150445693444,"67":-0.0002349545835926701,"68":-0.038125642821273294,"69":0.00894185273274397,"70":0.09984168189647843,"71":-0.01965174404990017,"72":-0.017792249535946214,"73":0.004218026980689475,"74":0.0464604832291439,"75":-0.009065751771970193,"76":0.02467733705005307,"77":-0.005834219653652609,"78":-0.06448667802126486,"79":0.012611309430728313,"80":-0.024599401210957474,"81":0.005816002573298378,"82":0.06428239946732194,"83":-0.012570991971210893,"84":-0.050403118598397995,"85":0.011698785824155072,"86":0.13235620311683755,"87":-0.02626812605658419,"88":-0.0010483862338381024,"89":0.0002492765026513635,"90":0.0027354629045929484,"91":-0.0005324810120199009,"92":-0.0011476845844466685,"93":0.0002728872230084579,"94":0.0029945534977635514,"95":-0.0005829157154446212,"96":-0.046029287266226473,"97":0.010727089409384705,"98":0.120741879918653,"99":-0.023886268961222548,"100":-0.04456955650862802,"101":0.010400091643026462,"102":0.11687373071388865,"103":-0.023097758996251733,"104":-0.023863441900898594,"105":0.005643898496450174,"106":0.06235362234191209,"107":-0.012190480356224343,"108":0.003358892615233649,"109":-0.0007985764541866445,"110":-0.008764284495040854,"111":0.001706173537462434,"112":0.0035534419681930896,"113":-0.0008448200211929979,"114":-0.009271948929537734,"115":0.0018050208401146994,"116":-0.010143007769236895,"117":0.002409432729070688,"118":0.02647200686316331,"119":-0.005157007540231975,"120":-0.0294290743992289,"121":0.006940771863970341,"122":0.07695359777455042,"123":-0.015078965997902226,"124":0.027831621382734727,"125":-0.006569687211564321,"126":-0.07275971420644466,"127":0.01424722898392129,"128":0.012201172179537464,"129":-0.002897093993208963,"130":-0.03184723640944403,"131":0.0062063365609482755,"132":0.00012552669160605453,"133":-0.00002984710267509988,"134":-0.00032752478445497135,"135":0.00006375488999946879,"136":-0.01609877044543571,"137":0.0038186086037017937,"138":0.04203228602824887,"139":-0.00819808881254135,"140":0.0668731591115042,"141":-0.015231055876227983,"142":-0.17646937790934616,"143":0.035540687453684654,"144":0.3135039862152879,"145":0.8444663081405042,"146":3.521361795421075,"147":-4.0915064294872385,"148":0.002391455490922063,"149":-0.0005685971399170068,"150":-0.006239886425458391,"151":0.001214688949464486,"152":0.04255261791830021,"153":-0.009946175629190366,"154":-0.11153526472963876,"155":0.0220132276782916,"156":0.008520124925185472,"157":-0.0020244964595384288,"158":-0.02223479364811306,"159":0.004330554084894779,"160":0.012522601273061394,"161":-0.002973194435503679,"162":-0.03268687453561461,"163":0.006370350612158299,"164":0.0178699624925971,"165":-0.004236340165668371,"166":-0.04666373797503075,"167":0.00910560538881335,"168":0.028822506972763097,"169":-0.006799983135347957,"170":-0.07536080082251538,"171":0.014762877580963285,"172":0.03579203760360518,"173":-0.008408323989841624,"174":-0.09368981379262545,"175":0.01841663465103289,"176":-0.0130020402532005,"177":0.0030866735214665703,"178":0.03393935983159669,"179":-0.0066150656845392845,"180":0.030990966589879237,"181":-0.007302615931662168,"182":-0.0810570078666934,"183":0.015894470662852454,"184":0.006535774619441299,"185":-0.0015534226205675562,"186":-0.01705499753730874,"187":0.003320953578285919,"188":3.774200267116539,"189":2.6408072554676685,"190":-2.670413661081353,"191":1.0875457465050593,"192":-0.022066447524136442,"193":0.005222949847933364,"194":0.057646242113581714,"195":-0.011263058641017955,"196":-0.029771121180927958,"197":0.007020094296703793,"198":0.07785198237800026,"199":-0.015257363649592041,"200":-0.052642028217541326,"201":0.012191211461911856,"202":0.138316243159416,"203":-0.027499211024016004,"204":0.02346239587264813,"205":-0.00555003840127455,"206":-0.06130279429798214,"207":0.011983300881037074,"208":0.0009874152082989163,"209":-0.0002347797782149651,"210":-0.0025763754090573315,"211":0.0005015127219446312,"212":0.01791042873478784,"213":-0.004245875613793243,"214":-0.04676957715580345,"215":0.009126358995927333,"216":0.003884163359252943,"217":-0.0009234258527931503,"218":-0.010134959917916766,"219":0.0019730654406014477,"220":0.010376586543018264,"221":-0.0024648075337462536,"222":-0.027081944902011896,"223":0.005276022944557512,"224":0.022692271729959832,"225":-0.005369660116248206,"226":-0.059285314855762564,"227":0.011585784199916273,"228":0.0032025819347569423,"229":-0.000761421031137856,"230":-0.008356404783728247,"231":0.0016267573685290972,"232":-0.018114639219005586,"233":0.00429399046355705,"234":0.04730370466056413,"235":-0.009231104178626482,"236":-0.008300593554932633,"237":0.0019724015634428817,"238":0.021661685674239952,"239":-0.004218813486592619,"240":-0.04980219797494139,"241":0.011566032872850521,"242":0.1307582856053878,"243":-0.0259391052108057,"244":0.018144130228682883,"245":-0.004300936955286393,"246":-0.04738084497324541,"247":0.009246233801979798,"248":0.04302045382995121,"249":-0.010051674502272403,"250":-0.1127729119351968,"251":0.0222642875006381,"252":0.005741538648736092,"253":-0.0013647733896399279,"254":-0.014982084986933758,"255":0.0029170978962338888,"256":-0.01291981329757431,"257":0.0030672131587360053,"258":0.033724543337618554,"259":-0.006573089532334486,"260":0.030270015682672142,"261":-0.007135713353137457,"262":-0.07916256354521951,"263":0.015517757661333646,"264":-0.02944893127822655,"265":0.006945373529874767,"266":0.07700575562959734,"267":-0.0150893231996979,"268":-0.03135002307090184,"269":0.007385659855668212,"270":0.082000736312611,"271":-0.016082272652898598,"272":0.03147366946643695,"273":-0.007414242702872427,"274":-0.08232576354758987,"275":0.016146976010144524,"276":-0.01984416933446778,"277":0.004701066670765826,"278":0.051828659463036754,"279":-0.010119204048789642,"280":0.04655137258812965,"281":-0.010843722809274021,"282":-0.12212630735990776,"283":0.024169043966739495,"284":0.00548852825297075,"285":-0.0013046673008386706,"286":-0.014321772222301599,"287":0.002788470524993068,"288":-0.011257137957412656,"289":0.0026734936415513167,"290":0.029381506085859835,"291":-0.0057248497564983776,"292":-0.05671974784715127,"293":0.013078768163762477,"294":0.14919897827761566,"295":-0.029763595382361358,"296":-0.04304024010632785,"297":0.010056133620529645,"298":0.11282526423191182,"299":-0.022274912197283888,"300":-0.032032003879553565,"301":0.0075432361463974055,"302":0.08379367625540857,"303":-0.016439333047292764,"304":-0.006173070878505231,"305":0.001467278496195664,"306":0.016108341836312472,"307":-0.003136509984079331,"308":0.004169039379937004,"309":-0.0009911321033432524,"310":-0.01087834916981223,"311":0.002117824635326651,"312":0.012714085076871958,"313":-0.003018522228725734,"314":-0.03318709168384694,"315":0.006468076381803626,"316":-0.02000561150681141,"317":0.004739027483425955,"318":0.0522511522520386,"319":-0.010202193595592494,"320":-0.8080321634474027,"321":-11.223548302425066,"322":0.9481769063465788,"323":35.38852682946533,"324":0.004252684873521925,"325":-0.0010110096106384745,"326":-0.011096628801785146,"327":0.0021603321659365315,"328":0.003454343208470259,"329":-0.0008212652631872447,"330":-0.009013355595890381,"331":0.0017546695901767355,"332":0.035304893085694504,"333":-0.008296617153390291,"334":-0.09240658765530754,"335":0.018159590290323258,"336":-0.006569452913669996,"337":0.0015614202403743335,"338":0.017142900453123538,"339":-0.0033380815987329405,"340":-0.005245849038689369,"341":0.0012470102255156769,"342":0.013688436491942912,"343":-0.0026651063366589928,"344":-0.024570496813865896,"345":0.005809247940134918,"346":0.06420663575131134,"347":-0.01255603874928847,"348":0.00000820514853684073,"349":-0.0000019507937837608453,"350":-0.000021409218031582736,"351":0.000004167534294599683,"352":0.0016751520567387912,"353":-0.00039829895908114247,"354":-0.00437084427428536,"355":0.0008508321523699922,"356":0.03928466211979021,"357":-0.009205812026503448,"358":-0.10290013791959977,"359":0.020267596125209116,"360":-0.0239692552500818,"361":0.005668653327505028,"362":0.0626309032402853,"363":-0.012245164000578871,"364":-0.0352965067570064,"365":0.00829468662492188,"366":0.09238451037614495,"367":-0.01815517275149121,"368":-0.03227654625742266,"369":0.007599690068616178,"370":0.08443672723692588,"371":-0.016567480810564243,"372":-9.200222374043744,"373":-15.213019976888534,"374":14.365722975429863,"375":15.623988150497013,"376":0.07392320890403399,"377":-0.01667095084033851,"378":-0.1955685919941409,"379":0.03968450396907229,"380":-0.008239552087274676,"381":0.001957914947539599,"382":0.021502334625430206,"383":-0.004187746229881567,"384":0.0017780092623776523,"385":-0.00042275410942571004,"386":-0.004639225201483764,"387":0.0009030777087181105,"388":0.011429693009483557,"389":-0.002714374157076362,"390":-0.02983217446764509,"391":0.0058128346349905,"392":-0.016941835814533963,"393":0.004017531268686991,"394":0.044236539938964314,"395":-0.008629849877176353,"396":-0.03733765204750869,"397":0.008761999479461541,"398":0.09776347471244524,"399":-0.01923396875368113}},"b1":{"n":100,"d":1,"w":{"0":0.023663062156026846,"1":-0.015261911283867561,"2":-0.012853609959794947,"3":-0.0072954824589686745,"4":0.020588694214377843,"5":-0.029298890238356367,"6":-0.006215253917237769,"7":-0.010729866155700835,"8":-0.0006163581233813041,"9":-0.006559215327414286,"10":-4.2408404771809245,"11":-0.009909591475393838,"12":-0.0020410560455324284,"13":-0.010126644801474086,"14":0.011577956350233034,"15":0.0008286008102746169,"16":-0.0003091713945585078,"17":-0.02561223368717734,"18":-0.011904500688751856,"19":0.01652829150670956,"20":-0.016475868927717206,"21":-0.033991261253768064,"22":-0.0007006767385748524,"23":-0.0007670417239381225,"24":-0.03099499539196477,"25":-0.029997926309185005,"26":-0.015980928439874604,"27":0.002244955894272354,"28":0.0023749965044089815,"29":-0.006781395099478745,"30":-0.019728847639707895,"31":0.018651892924359495,"32":0.00815876522771051,"33":0.00008389392161960664,"34":-0.010769235373017449,"35":0.045411154293174105,"36":-1.5873464252760288,"37":0.0015983267724171922,"38":0.028622512338388733,"39":0.005695761377655489,"40":0.00837393570033829,"41":0.01195661439892858,"42":0.019319794809479165,"43":0.024029832234662186,"44":-0.008694914596852336,"45":0.020782871041620028,"46":0.004368748290335241,"47":0.8008325610397686,"48":-0.014773196598070245,"49":-0.019959585805444793,"50":-0.03553037840589856,"51":0.015711299928368977,"52":0.0006599270765286746,"53":0.01198375131249329,"54":0.002596062188200633,"55":0.006937678503583074,"56":0.015193684902509838,"57":0.002140475965344592,"58":-0.012120702103076125,"59":-0.00554893045903367,"60":-0.03357879825384574,"61":0.012140481328143873,"62":0.028941316863506025,"63":0.0038377198554886763,"64":-0.008639862017869307,"65":0.02029621643072573,"66":-0.019742243763720514,"67":-0.021025325537661736,"68":0.021108832783639453,"69":-0.013281034193469092,"70":0.031351949804623726,"71":0.003668567428014057,"72":-0.007526912411224069,"73":-0.03834361863998673,"74":-0.028954803109747112,"75":-0.02148599888539379,"76":-0.004126236766919118,"77":0.002786487258504545,"78":0.008502126639620798,"79":-0.01338938580449651,"80":3.8347542948472277,"81":0.0028424017475919103,"82":0.0023087565104638543,"83":0.023699860583506812,"84":-0.004391267242282826,"85":-0.0035063271631048444,"86":-0.01645642615386597,"87":0.000005483888689046848,"88":0.0011195742402484894,"89":0.026399256462979734,"90":-0.01605207777118194,"91":-0.023694184551283776,"92":-0.021651237805985202,"93":0.47982579934157604,"94":0.05037806289883086,"95":-0.005508104883112531,"96":0.001188319339631426,"97":0.007642394773765765,"98":-0.011334319189760833,"99":-0.025077577198141646}},"W2":{"n":3,"d":100,"w":{"0":-0.0004152450784922074,"1":0.00026848048828303616,"2":0.00022623020989742898,"3":0.0001285127464839286,"4":-0.0003616658751973104,"5":0.0005129893494713244,"6":0.00010949615283695798,"7":0.00018892254118939268,"8":0.000010861714951388284,"9":0.00011555200388299396,"10":0.12661085896385466,"11":0.00017450210111279846,"12":0.00003596729551064208,"13":0.0001783184359401993,"14":-0.00020382593092405012,"15":-0.000014601908014938092,"16":0.000005448355348801036,"17":0.0004491245310039552,"18":0.0002095625160463549,"19":-0.0002906698438717044,"20":0.00028975170757650605,"21":0.0005938181511450035,"22":0.000012347600443487183,"23":0.00001351710082819673,"24":0.0005422684587638145,"25":0.0005250647460940325,"26":0.0002810815057158456,"27":-0.00003956013829141438,"28":-0.00004185149687964122,"29":0.00011946341746678227,"30":0.000346652156953774,"31":-0.0003278312764992751,"32":-0.00014370534919114252,"33":-0.0000014784170634641036,"34":0.00018961451208358263,"35":-0.0007879282804809356,"36":0.05036325665443932,"37":-0.000028165904008123173,"38":-0.0005012946309102843,"39":-0.0001003487648787602,"40":-0.00014749132300532304,"41":-0.00021047793362569134,"42":-0.0003395056251370781,"43":-0.0004216256814315051,"44":0.00015313844450752295,"45":-0.00036505473166659696,"46":-0.00007697700477534688,"47":-0.08152571839780545,"48":0.00025991200298502385,"49":0.00035068221288553293,"50":0.0006202064600534483,"51":-0.00027635692808162366,"52":-0.000011629498867144358,"53":-0.0002109546042984758,"54":-0.00004574667239088518,"55":-0.00012221458425116193,"56":-0.0002672844667912927,"57":-0.00003771914546160115,"58":0.0002133600923255335,"59":0.00009776309353982362,"60":0.0005867356030590473,"61":-0.00021370749130079393,"62":-0.0005068081282317421,"63":-0.0000676225474328222,"64":0.00015216993008114585,"65":-0.0003565602691321199,"66":0.0003468861531628607,"67":0.0003692852795873017,"68":-0.000370742156421359,"69":0.00023373341429022373,"70":-0.0005484216049813284,"71":-0.00006464261593926195,"72":0.00013258604529269784,"73":0.0006682676398905626,"74":0.0005070413123989767,"75":0.0003773207832045008,"76":0.00007270510010700494,"77":-0.000049101880547868795,"78":-0.00014974672619083563,"79":0.0002356351657859467,"80":-0.690616550086526,"81":-0.000050087053990484646,"82":-0.00004068433035761532,"83":-0.00041588536798100326,"84":0.00007737367154656981,"85":0.00006178437577710507,"86":0.0002894111761171502,"87":-9.663950244745875e-8,"88":-0.000019729464040156588,"89":-0.0004627826934809449,"90":0.0002823280692831505,"91":0.00041578660422953275,"92":0.0003802021618554922,"93":0.013824740071969828,"94":-0.0008709894722246222,"95":0.00009704414371723257,"96":-0.000020940885358500285,"97":-0.0001346184806428108,"98":0.00019954518049265704,"99":0.0004398388218449811,"100":0.002795767246941359,"101":-0.001803495503369878,"102":-0.0015189623106418501,"103":-0.0008621879030741658,"104":0.0024327110563664082,"105":-0.003461080801430285,"106":-0.0007345310739254546,"107":-0.0012680250280958888,"108":-0.00007284391705497976,"109":-0.0007751792977485664,"110":0.452413773834262,"111":-0.0011710979129181678,"112":-0.0002412205105303362,"113":-0.0011967461042266144,"114":0.0013682360597636997,"115":0.00009792767870295172,"116":-0.000036539246724156415,"117":-0.003025904149159149,"118":-0.0014068199756385323,"119":0.0019531011805537064,"120":-0.0019469083609791559,"121":-0.004014751235827964,"122":-0.00008280906248082078,"123":-0.00009065236199849554,"124":-0.0036612410123736446,"125":-0.003543579213284398,"126":-0.001888438834471924,"127":0.0002653181214635128,"128":0.0002806867652481789,"129":-0.0008014356130620645,"130":-0.002331156913936681,"131":0.0022039529456208706,"132":0.0009642047000481127,"133":0.00000991495542148891,"134":-0.0012726769914585651,"135":0.005360956990173145,"136":-0.08786839198259962,"137":0.0001888970848920434,"138":0.0033812512587995096,"139":0.0006731386431315941,"140":0.0009896317103457195,"141":0.0014129775978129785,"142":0.0022828428416058885,"143":0.0028390741504056337,"144":-0.001027561980638946,"145":0.002455643960460101,"146":0.0005163127642888445,"147":0.2236224125235898,"148":-0.0017457579521378034,"149":-0.0023584093333427385,"150":-0.0041962972683972566,"151":0.0018565857926479603,"152":0.0000779930899044231,"153":0.0014161840207874141,"154":0.00030681303022985716,"155":0.0008199044843473013,"156":0.0017954352133805183,"157":0.00025297031545137415,"158":-0.0014323656961748139,"159":-0.0006557863935404565,"160":-0.003966094032143284,"161":0.001434702742635694,"162":0.0034188788111209996,"163":0.00045355516772894625,"164":-0.0010210564094416787,"165":0.0023981679416832592,"166":-0.0023327391466843646,"167":-0.002484278188985025,"168":0.0024941404119029342,"169":-0.001569463351349886,"170":0.003703361540777614,"171":0.00043356443564135773,"172":-0.0008895369086109309,"173":-0.004528048182464619,"174":-0.0034204705281189185,"175":-0.00253868309288428,"176":-0.00048765250757106025,"177":0.00032931804588025955,"178":0.0010047801500106483,"179":-0.0015822651654961435,"180":-0.20848875997983646,"181":0.00033592618694386545,"182":0.0002728582974036586,"183":0.002800112318394387,"184":-0.0005189740731329916,"185":-0.0004143905595469247,"186":-0.0019446115252736659,"187":6.481106557634732e-7,"188":0.00013231615641778478,"189":0.003118816876957806,"190":-0.0018968441155897383,"191":-0.002799442118292725,"192":-0.0025581971688342507,"193":0.3843421298088399,"194":0.005945797503838861,"195":-0.0006509616833898934,"196":0.00014044073888342594,"197":0.000903183867269986,"198":-0.0013394480077915027,"199":-0.002962781309028422,"200":-0.0017489947614257118,"201":0.0011255422081047233,"202":0.0009474939479779523,"203":0.0005373666057011866,"204":-0.0015203611375998705,"205":0.0021698855436980543,"206":0.0004577536305541461,"207":0.0007906716504412673,"208":0.0000453828028482238,"209":0.00048310104649173954,"210":-0.013432474499180213,"211":0.0007301414669972888,"212":0.00015028805415152676,"213":0.0007461563539286915,"214":-0.000853277450677884,"215":-0.00006101048047005603,"216":0.000022764417674118203,"217":0.0018942864316477518,"218":0.000877389496774008,"219":-0.0012192713203647517,"220":0.0012153898039097496,"221":0.002522347278295008,"222":0.0000515912646602429,"223":0.00005647780018045065,"224":0.0022970577930418058,"225":0.0022222683598084342,"226":0.0011787496975832542,"227":-0.0001653027067871056,"228":-0.00017487870599071598,"229":0.0004994753052340453,"230":0.0014565233671296595,"231":-0.0013766278696868684,"232":-0.0006010091017584877,"233":-0.000006177141307039306,"234":0.0007935773464053026,"235":-0.0033894475905571343,"236":0.0027491379444810346,"237":-0.0001176874783846208,"238":-0.0021192400118419737,"239":-0.0004194750674322566,"240":-0.0006168745955179955,"241":-0.0008812379276543019,"242":-0.0014261693316110935,"243":-0.0017763130411949791,"244":0.0006405440266482005,"245":-0.001534783650462206,"246":-0.0003217150147046409,"247":0.007791859831523624,"248":0.0010893907960914766,"249":0.0014736497593541952,"250":0.002638405323826822,"251":-0.0011587942509294908,"252":-0.00004859082347694524,"253":-0.0008832419410540993,"254":-0.00019115794011966884,"255":-0.0005109937257042382,"256":-0.0011204946811966725,"257":-0.00015760904334095188,"258":0.0008933559270701886,"259":0.0004086567706024458,"260":0.0024912843437457062,"261":-0.0008948167012792904,"262":-0.0021431065445474485,"263":-0.0002826015247427624,"264":0.0006364841802334267,"265":-0.0014986416533864814,"266":0.001457517589111842,"267":0.0015527952705832698,"268":-0.0015589997550524235,"269":0.0009790762427169717,"270":-0.0023238540419998704,"271":-0.0002701431302478587,"272":0.0005544262640012813,"273":0.0028511563615201455,"274":0.0021441163469333707,"275":0.0015870282103711971,"276":0.0003038521196389914,"277":-0.0002051811182838194,"278":-0.0006263272550268589,"279":0.000987083481879223,"280":-0.0033366590345996934,"281":-0.000209298796085804,"282":-0.0001700008763168782,"283":-0.0017517352198188217,"284":0.00032337375162522626,"285":0.0002581941285693053,"286":0.0012139502454508301,"287":-4.037803411902916e-7,"288":-0.00008243538726161754,"289":-0.0019530309105098647,"290":0.00118401610062439,"291":0.0017513124939181435,"292":0.0015993105025954755,"293":-0.0005146853310762714,"294":-0.003771301202591821,"295":0.000405648863268467,"296":-0.00008749725542113076,"297":-0.0005629394008971578,"298":0.0008352897145207415,"299":0.0018544055045530592}},"b2":{"n":3,"d":1,"w":{"0":-0.3033723455837892,"1":0.2820086637775019,"2":-0.004876297566217349}}}}},"weights":{"nh":100,"ns":4,"na":3,"net":{"W1":{"n":100,"d":4,"w":{"0":0.02202213263799087,"1":-0.03541800044381643,"2":-0.009947472046943164,"3":-0.011661430437180135,"4":-0.014250689678273138,"5":0.022919143953199543,"6":0.0064371561279557435,"7":0.007546184242480506,"8":-0.01201022549887119,"9":0.0193158231908425,"10":0.0054251321761365524,"11":0.006359785803902603,"12":-0.006824577467672799,"13":0.010975822667714477,"14":0.0030827378398379543,"15":0.00361382213175891,"16":0.019187325980221177,"17":-0.03085874255837682,"18":-0.008667020024637262,"19":-0.010160299736321545,"20":-0.02718538024198104,"21":0.0437222015793494,"22":0.012279605869873669,"23":0.014395564627943846,"24":-0.0058149419571660735,"25":0.009352045269672506,"26":0.0026266755210347,"27":0.0030791890053338,"28":-0.010030946916449906,"29":0.016132573731570742,"30":0.004531081117944158,"31":0.005311694828264797,"32":-0.000576886031284151,"33":0.0009277927697544684,"34":0.0002605863337203308,"35":0.00030547865940049794,"36":-0.0061364734722029425,"37":0.009869158111699711,"38":0.002771914551432404,"39":0.0032494498375656928,"40":0.4638388305474656,"41":-5.974460715955745,"42":-1.8000277691238502,"43":21.577399986383835,"44":-0.009265701383357357,"45":0.014901840590503146,"46":0.004185414322558456,"47":0.004906473238374843,"48":-0.0019102682614562288,"49":0.0030722414627190283,"50":0.0008628909541744863,"51":0.0010115450377366627,"52":-0.009468231636041947,"53":0.015227566925764489,"54":0.00427689872179291,"55":0.00501371936704501,"56":0.010821708161375452,"57":-0.017404344465457702,"58":-0.004888272883383187,"59":-0.0057304279395021945,"60":0.0007755332156083893,"61":-0.0012472725538792292,"62":-0.00035031764378191076,"63":-0.00041066837236285793,"64":-0.0002893710488078848,"65":0.0004653889175893143,"66":0.00013071237185286448,"67":0.00015323075112966795,"68":-0.023813065087655606,"69":0.03829839660947576,"70":0.010756407617249934,"71":0.01260979488233945,"72":-0.011126054364218,"73":0.017893820694510548,"74":0.005025747764507355,"75":0.005891588931045089,"76":0.015426850344560535,"77":-0.02481075856390293,"78":-0.00696842822822094,"79":-0.008169000130957019,"80":-0.015378189995907366,"81":0.024732498244980923,"82":0.0069464483790502496,"83":0.008143232860500327,"84":-0.03144576596803583,"85":0.05057439580442142,"86":0.01420387770180394,"87":0.01665161251924094,"88":-0.0006558022057694632,"89":0.0010547118718975288,"90":0.0002962337143520946,"91":0.0003472671687849465,"92":-0.0007179168791996978,"93":0.0011546094996456773,"94":0.00032429165552502347,"95":0.00038015877353235423,"96":-0.02872968755759225,"97":0.046205978851226556,"98":0.012977123673168096,"99":0.015213336813274943,"100":-0.02782242731938282,"101":0.044746790992249666,"102":0.012567341999179044,"103":0.014732906213462748,"104":-0.01491866021047263,"105":0.023993437925245588,"106":0.006738878871723464,"107":0.007899896622719206,"108":0.002101083399609258,"109":-0.0033791252014205805,"110":-0.0009490843991303792,"111":-0.001112587452752726,"112":0.0022227765268495315,"113":-0.0035748415554955307,"114":-0.00100405461357127,"115":-0.0011770276631476258,"116":-0.006344141706642602,"117":0.010203146925153382,"118":0.0028657203532071675,"119":0.003359416566700958,"120":-0.018392463353028975,"121":0.02958035912230747,"122":0.00830798597439803,"123":0.009739392467653867,"124":0.017395742490796784,"125":-0.027977328378224555,"126":-0.007857772187706814,"127":-0.009211594673421261,"128":0.007631098497153135,"129":-0.012272935787218258,"130":-0.003447050818220757,"131":-0.004040899998502722,"132":0.00007852144758311555,"133":-0.0001262842692804771,"134":-0.000035469079327864985,"135":-0.00004157948915636421,"136":-0.010067665671541519,"137":0.01619162799006351,"138":0.004547667222827256,"139":0.005331138568000817,"140":0.04163616102760637,"141":-0.06696454573454383,"142":-0.018806269970061545,"143":-0.02204790195220224,"144":-0.055256659970494726,"145":-0.17093586917208406,"146":5.116131137561137,"147":-1.972803499994763,"148":0.0014959321837002923,"149":-0.002405874011970619,"150":-0.0006757304441676992,"151":-0.0007921414973677438,"152":0.02656823474135139,"153":-0.04272962249890937,"154":-0.012000857594918018,"155":-0.014068761968544041,"156":0.005329244459900582,"157":-0.008570907683358707,"158":-0.002407280939654221,"159":-0.00282199726058572,"160":0.00783206889209311,"161":-0.012596152949984242,"162":-0.003537830916942893,"163":-0.004147320065733981,"164":0.011174618694250519,"165":-0.017971926121150863,"166":-0.005047684533799942,"167":-0.005917305290254233,"168":0.018014033007505724,"169":-0.028971727501356855,"170":-0.008137051119315139,"171":-0.009539000602933672,"172":0.022359521956973053,"173":-0.035960630178758536,"174":-0.010099866005721292,"175":-0.011840090326148167,"176":-0.008131824325827179,"177":0.013078244458930507,"178":0.0036732330256277358,"179":0.004306049893985888,"180":0.019366711139318853,"181":-0.031147249317304202,"182":-0.008748046905965036,"183":-0.0102552904261005,"184":0.004088181264172538,"185":-0.006574931450714687,"186":-0.0018466792840823986,"187":-0.002164816305922579,"188":3.3693119482689804,"189":3.2198367519684727,"190":-3.554314110042627,"191":-3.9015760419741023,"192":-0.013796415078696547,"193":0.022188536798973247,"194":0.00623195959387419,"195":0.007305630979629822,"196":-0.01860584237733091,"197":0.029923537985940437,"198":0.008404367954261043,"199":0.00985238401726591,"200":-0.03283463480269884,"201":0.05280820436083432,"202":0.014831169880720871,"203":0.017387078082282632,"204":0.014668226929984804,"205":-0.023590667088240407,"206":-0.006625758069874981,"207":-0.007767283940291003,"208":0.0006176628269480702,"209":-0.000993373169723572,"210":-0.0002790057004716802,"211":-0.00032707121020957166,"212":0.011199906687790334,"213":-0.01801259649813344,"214":-0.005059107255494771,"215":-0.005930696088343381,"216":0.002429645522549032,"217":-0.003907544380262581,"218":-0.0010974997597716011,"219":-0.0012865710871157402,"220":0.006490205906470575,"221":-0.010438059186417636,"222":-0.002931698984015614,"223":-0.003436762065208088,"224":0.014187282054002652,"225":-0.022817165816093644,"226":-0.006408514825297385,"227":-0.007512607826723515,"228":0.0020033087506289727,"229":-0.003221876408609257,"230":-0.0009049184397544507,"231":-0.001060812804273951,"232":-0.011327519504087365,"233":0.01821783468001722,"234":0.005116750634281973,"235":0.0059982711421271255,"236":-0.005191949929819448,"237":0.008350099671689029,"238":0.002345263556108984,"239":0.0027492955950299035,"240":-0.031072823214380707,"241":0.04997456937479167,"242":0.014035434419290884,"243":0.01645412360390478,"244":0.011345948130052541,"245":-0.01824747322358165,"246":-0.005125074939730046,"247":-0.006008029687337242,"248":0.026859210909069814,"249":-0.04319761055429233,"250":-0.012132283958386544,"251":-0.014222845189192299,"252":0.0035914162672604807,"253":-0.005775994912802861,"254":-0.0016222849684164934,"255":-0.0019017640777786492,"256":-0.008080414902845025,"257":0.012995563559385007,"258":0.0036500109523532405,"259":0.004278827003814589,"260":0.018917045039930455,"261":-0.030424047498038426,"262":-0.008544936101804554,"263":-0.010017176592623018,"264":-0.01840484985166242,"265":0.029600280404141182,"266":0.008313580881370913,"267":0.009745951545139638,"268":-0.019590636145546937,"269":0.031507390060437915,"270":0.008849191996605206,"271":0.010373866537440176,"272":0.019667743843361202,"273":-0.03163140315167965,"274":-0.00888402088779289,"275":-0.010414697761887049,"276":-0.012408193809507771,"277":0.019955871664374018,"278":0.005604896080576568,"279":0.006570522815937878,"280":0.029054083360919768,"281":-0.04672772033261692,"282":-0.013123642716753934,"283":-0.015385117510079137,"284":0.0034331646941320945,"285":-0.0055214823192040255,"286":-0.0015508009391294719,"287":-0.0018179650442760808,"288":-0.0070408229823141506,"289":0.011323606322736428,"290":0.0031804179793709724,"291":0.0037283308188423734,"292":-0.035361448668923524,"293":0.05687227243174451,"294":0.01597240516638028,"295":0.01872513830018584,"296":-0.026871516412173037,"297":0.04321740197223546,"298":0.0121378420286015,"299":0.014229361433863476,"300":-0.02001590745083226,"301":0.032191358456284506,"302":0.009041283271740077,"303":0.010599062611735065,"304":-0.003861325429971956,"305":0.006210084036273092,"306":0.0017442059742272147,"307":0.0020446892147715236,"308":0.002607836927865667,"309":-0.004194125685568383,"310":-0.0011779908939725664,"311":-0.001380928856914395,"312":0.007951790135126615,"313":-0.012788698551639725,"314":-0.0035919100416987293,"315":-0.004210716186655648,"316":-0.012509057884516605,"317":0.02011809040505247,"318":0.005650456760522747,"319":0.006623933593120114,"320":-4.821252452718006,"321":-17.20321834321509,"322":4.817077471393346,"323":43.620757655960674,"324":0.002660156944876901,"325":-0.004278270817073305,"326":-0.0012016244536955016,"327":-0.0014086338978965384,"328":0.0021607891398662364,"329":-0.0034751486169037416,"330":-0.0009760541834646308,"331":-0.0011442034572022404,"332":0.022055995179907088,"333":-0.03547246220235912,"334":-0.009962767287808545,"335":-0.01167936187932279,"336":-0.004109245291099491,"337":0.006608808279105008,"338":0.001856194138807628,"339":0.0021759703516131385,"340":-0.003281373498908011,"341":0.0052773598258258345,"342":0.001482235127184902,"343":0.00173758697981609,"344":-0.015360143534163212,"345":0.024703474166589277,"346":0.00693829680252474,"347":0.00813367665997282,"348":0.000005132566120314829,"349":-0.000008254590073950708,"350":-0.0000023184416566707925,"351":-0.0000027178495032397672,"352":0.0010478647158402275,"353":-0.001685257169319638,"354":-0.00047333303555064,"355":-0.0005548761681257366,"356":0.024534689291022208,"357":-0.03945900435730054,"358":-0.011082351470346561,"359":-0.012991921890938531,"360":-0.01498473263471519,"361":0.02409970196559838,"362":0.0067687237927244745,"363":0.00793488415447034,"364":-0.02205076789213584,"365":0.035464055057473735,"366":0.009960406194585427,"367":0.01167659384111086,"368":-0.020168385473855507,"369":0.03243659064340958,"370":0.009110156148275117,"371":0.010679805094949849,"372":-9.944704595134327,"373":-18.338347148004996,"374":16.647262908892085,"375":22.431283433743694,"376":0.0459769044825653,"377":-0.0739463778218956,"378":-0.020766589645595215,"379":-0.024346558633170232,"380":-0.005153774297617903,"381":0.00828870257867493,"382":0.002328019219588414,"383":0.0027290804270603316,"384":0.0011122050798208641,"385":-0.001788734328745842,"386":-0.0005023963454044569,"387":-0.0005889463441065752,"388":0.007148719195854055,"389":-0.011497133824859637,"390":-0.0032291557041626874,"391":-0.0037854652033990368,"392":-0.010594587023160785,"393":0.01703906846266042,"394":0.004785680926031538,"395":0.005610160090963095,"396":-0.02332233441208262,"397":0.037509142385955645,"398":0.010534753196967367,"399":0.012349934805603783}},"b1":{"n":100,"d":1,"w":{"0":-0.0003878710674863221,"1":0.0002509750341991678,"2":0.0002115138646528587,"3":0.00012018545078336401,"4":-0.00033793146433378906,"5":0.0004788434354960897,"6":0.00010240472701538807,"7":0.00017665439690384222,"8":0.000010159227490812926,"9":0.00010806720905105587,"10":2.4237028934956277,"11":0.0001631770481907256,"12":0.00003364073022626361,"13":0.00016674395409119774,"14":-0.00019058130091324397,"15":-0.000013657496475307895,"16":0.000005095956485553105,"17":0.000419423766953722,"18":0.00019594150389965522,"19":-0.00027169149003961426,"20":0.00027083439291157493,"21":0.0005539236974727524,"22":0.000011548977804697329,"23":0.000012642846004884732,"24":0.0005060568081506918,"25":0.0004900690761928194,"26":0.00026274034563799427,"27":-0.00003700108303063718,"28":-0.000039144162779591994,"29":0.00011172445784889522,"30":0.0003239295287169577,"31":-0.0003063722227616002,"32":-0.00013438926119933368,"33":-0.0000013827985677117505,"34":0.00017730108430145112,"35":-0.0007335792150363876,"36":-1.1849753964464078,"37":-0.000026344065233637198,"38":-0.00046796879222444433,"39":-0.0000938511551821475,"40":-0.0001379286144686225,"41":-0.0001967968308042554,"42":-0.00031726339188193877,"43":-0.0003938150412681321,"44":0.00014320771932489106,"45":-0.0003410914788929511,"46":-0.00007199506730860173,"47":-0.05393310943140835,"48":0.00024297376522056994,"49":0.0003276882822664205,"50":0.0005784030302119735,"51":-0.000258329312366824,"52":-0.000010877325697246882,"53":-0.0001972422094560046,"54":-0.000042787236410413756,"55":-0.00011429680164783506,"56":-0.0002498582124749936,"57":-0.00003527922087044158,"58":0.0001994897623828841,"59":0.00009143328114051911,"60":0.0005473507446574044,"61":-0.00019981433297806627,"62":-0.0004730960098083444,"63":-0.00006324670328768054,"64":0.00014230232730972646,"65":-0.0003331702807001357,"66":0.0003241477209808742,"67":0.00034503612410555944,"68":-0.0003463944537549984,"69":0.00021852312203265471,"70":-0.0005117734731533518,"71":-0.000060459792708193966,"72":0.0001239937825812738,"73":0.000622943836895005,"74":0.00047331284341605324,"75":0.00035252774807971666,"76":0.00006799998087307867,"77":-0.000045925284730641874,"78":-0.00014003706750621758,"79":0.00022029960974011278,"80":6.105625364812943,"81":-0.00004684666935056289,"82":-0.00003805253229357034,"83":-0.000388467639294874,"84":0.0000723660195338061,"85":0.00005778665580467842,"86":0.00027051652512405795,"87":-9.038683390696989e-8,"88":-0.000018453381890543356,"89":-0.00043213797717764227,"90":0.00026390412379642187,"91":0.0003883755477290185,"92":0.0003552138422637746,"93":-1.2396925390979028,"94":-0.0008101424910001355,"95":0.00009076097612527301,"96":-0.000019586446175045103,"97":-0.00012589396230653385,"98":0.0001865812192412606,"99":0.00041077784738741336}},"W2":{"n":3,"d":100,"w":{"0":-0.00006543517194023442,"1":0.00004234013365813647,"2":0.00003568289586420682,"3":0.000020275538669178895,"4":-0.00005701007302724678,"5":0.00008078288318272545,"6":0.000017275889236646313,"7":0.00002980199719526705,"8":0.0000017138816775136464,"9":0.000018231162901493525,"10":-1.54670259662675,"11":0.000027528330752255216,"12":0.0000056752577470489685,"13":0.00002813007758761062,"14":-0.00003215150681598585,"15":-0.000002304046552901119,"16":8.596978873861529e-7,"17":0.00007075832250264135,"18":0.0000330557893652641,"19":-0.000045835081244574,"20":0.00004569048545814217,"21":0.0000934496489578233,"22":0.0000019483352946768424,"23":0.0000021328730170103637,"24":0.00008537402285143004,"25":0.00008267674674986844,"26":0.000044324987181986524,"27":-0.000006242155997748582,"28":-0.000006603697857561794,"29":0.000018848149240079286,"30":0.00005464787480360621,"31":-0.00005168587255165116,"32":-0.00002267175605909879,"33":-2.3328083925345866e-7,"34":0.00002991109521425487,"35":-0.00012376004996570347,"36":-0.3447692351645249,"37":-0.0000044442958158748035,"38":-0.00007894823926626344,"39":-0.000015832882468094076,"40":-0.000023268853806895263,"41":-0.00003320008564568321,"42":-0.000053523264686226884,"43":-0.00006643795815152462,"44":0.000024159452183686284,"45":-0.000057543184183794804,"46":-0.000012145713092325694,"47":-0.013144591698581537,"48":0.00004099028979704606,"49":0.00005528199540511577,"50":0.00009757958676249074,"51":-0.00004358082857598885,"52":-0.0000018350262601522804,"53":-0.000033275222397785,"54":-0.000007218291723252171,"55":-0.000019282109645165207,"56":-0.000042151721621042615,"57":-0.000005951674398640239,"58":0.00003365439154266659,"59":0.00001542498176300572,"60":0.00009234072144800305,"61":-0.000033709147612807616,"62":-0.0000798132436565494,"63":-0.00001066984571648313,"64":0.000024006710238610268,"65":-0.000056206836552306665,"66":0.00005468468492706699,"67":0.00005820866695383021,"68":-0.00005843782451061591,"69":0.00003686538069776623,"70":-0.00008633847814204566,"71":-0.00001019968811144401,"72":0.000020918013369471192,"73":0.00010509417206650367,"74":0.00007984982531127735,"75":0.00005947254488863485,"76":0.000011471733586732527,"77":-0.000007747686827041161,"78":-0.00002362455515428504,"79":0.00003716508012950177,"80":0.06274140985013475,"81":-0.00000790312628236646,"82":-0.00000641953759987085,"83":-0.00006553581736581902,"84":0.000012208293518176321,"85":0.000009748724387305157,"86":0.00004563685986696906,"87":-1.524843672626687e-8,"88":-0.0000031131218948488946,"89":-0.00007290330115597089,"90":0.00004452132116866457,"91":0.00006552028093741597,"92":0.00005992570394355806,"93":-0.1236328605591887,"94":-0.00013667774392849778,"95":0.000015311562423637464,"96":-0.000003304272080904822,"97":-0.000021238578281042906,"98":0.00003147668107563447,"99":0.00006929969596623255,"100":0.0003310076021365619,"101":-0.00021418721699852303,"102":-0.0001805113281283842,"103":-0.00010257034695324564,"104":0.0002883927719938142,"105":-0.00040863248886876695,"106":-0.00008739578640487141,"107":-0.00015076203688835595,"108":-0.000008670270590029026,"109":-0.00009222831124076933,"110":-0.049956150387721804,"111":-0.00013926028150523757,"112":-0.00002871026719544648,"113":-0.00014230433322864983,"114":0.0001626473923986415,"115":0.00001165582588918109,"116":-0.000004349082921319779,"117":-0.0003579315597096711,"118":-0.00016722182555750441,"119":0.0002318662410943677,"120":-0.00023113481470394097,"121":-0.000472691996657943,"122":-0.000009856336195008127,"123":-0.000010789884759292758,"124":-0.0004318518734225447,"125":-0.0004182106654360074,"126":-0.0002242275301261648,"127":0.000031578116487671344,"128":0.00003340709959839404,"129":-0.00009534950935894029,"130":-0.0002764442740967203,"131":0.00026146166450637093,"132":0.0001146922255915893,"133":0.00000118013285586057,"134":-0.0001513139275175269,"135":0.000625953833789013,"136":-0.21535143589600464,"137":0.00002248302147849183,"138":0.0003993537008695549,"139":0.00008009591214811355,"140":0.00011771278920933665,"141":0.00016795176640482573,"142":0.00027075571413041276,"143":0.0003360796535318217,"144":-0.000122218090522892,"145":0.0002910893430426582,"146":0.0000614432226834781,"147":-0.5428607019117911,"148":-0.0002073590390921618,"149":-0.0002796518026412842,"150":-0.0004935769966277131,"151":0.0002204632376892828,"152":0.00000928312282826593,"153":0.00016833185498476625,"154":0.00003651623197942711,"155":0.00009754481779962289,"156":0.00021323413760069866,"157":0.000030108615758370352,"158":-0.00017024992795450108,"159":-0.00007803242392861914,"160":-0.0004670840629375354,"161":0.00017052691799408827,"162":0.00040372851035596567,"163":0.0000539770698752273,"164":-0.00012144541002666479,"165":0.0002843298465051599,"166":-0.0002766304684582897,"167":-0.0002944554638299272,"168":0.0002956145778229051,"169":-0.00018649302314632186,"170":0.0004367294494017352,"171":0.0000515986233939204,"172":-0.00010582047448825363,"173":-0.0005315763021082376,"174":-0.0004039135236410281,"175":-0.00030084833609324947,"176":-0.00005803368047569368,"177":0.000039194356514626094,"178":0.00011951218904124772,"179":-0.00018800907359219673,"180":0.3601309952534601,"181":0.00003998069950994686,"182":0.000032475462012278997,"183":0.00033151666378090667,"184":-0.00006175980579294406,"185":-0.0000493172745879923,"186":-0.00023086355377615657,"187":7.713955968591623e-8,"188":0.00001574881574652293,"189":0.0003687804156762991,"190":-0.00022522067499092664,"191":-0.0003314380809981332,"192":-0.0003031404688438393,"193":-0.6322919948028649,"194":0.0006912574021416465,"195":-0.00007745865795008523,"196":0.000016715815529917047,"197":0.0001074421352325331,"198":-0.00015923368989014439,"199":-0.000350554053385302,"200":-0.0005885941814211748,"201":0.0003808556334518588,"202":0.0003209733460641058,"203":0.0001823822081661099,"204":-0.0005128114827155293,"205":0.000726642773561778,"206":0.0001553998642077858,"207":0.0002680740519807568,"208":0.000015416701660438105,"209":0.00016399271231579994,"210":0.03742420402901952,"211":0.0002476221369027152,"212":0.000051050051201442596,"213":0.00025303492768773627,"214":-0.0002892081581387233,"215":-0.000020725350248445764,"216":0.00000773315107812917,"217":0.0006364748414550522,"218":0.00029734227447561615,"219":-0.00041229278865606117,"220":0.0004109921472098608,"221":0.0008405745275959841,"222":0.000017525657859898937,"223":0.000019185610796295523,"224":0.0007679382480365712,"225":0.0007436773593160223,"226":0.00039870946001379276,"227":-0.00005614941041443204,"228":-0.00005940154906633266,"229":0.0001695426072263367,"230":0.0004915636791476784,"231":-0.00046492060752117986,"232":-0.0002039365585748098,"233":-0.0000020984068983125043,"234":0.0002690554017072872,"235":-0.0011131915076280133,"236":0.0042135287044919555,"237":-0.000039977309940532244,"238":-0.0007101407984777789,"239":-0.00014241976929614845,"240":-0.0002093075428695157,"241":-0.00029864023421989063,"242":-0.00048144787324629485,"243":-0.000597614065273941,"244":0.00021731860692864288,"245":-0.0005176067718363906,"246":-0.00010925301994830999,"247":0.027743669691130974,"248":0.00036871372445779476,"249":0.0004972675537160012,"250":0.0008777208830390054,"251":-0.000392015730885879,"252":-0.000016506420907590456,"253":-0.0002993160969137876,"254":-0.00006492993889791037,"255":-0.00017344615263587836,"256":-0.0003791608591074691,"257":-0.00005353647238983339,"258":0.00030272676127278723,"259":0.0001387506310111142,"260":0.0008306003310874875,"261":-0.00030321929752917716,"262":-0.0007179212137195077,"263":-0.0000959773199721805,"264":0.00021594467078312827,"265":-0.0005055864342723907,"266":0.000491894783978077,"267":0.0005235927283125953,"268":-0.0005256539784935483,"269":0.00033160989543055367,"270":-0.0007766131007066305,"271":-0.00009174816450487583,"272":0.00018816137069585837,"273":0.0009453094004259493,"274":0.0007182502528224872,"275":0.0005349611821567461,"276":0.00010319045018757918,"277":-0.00006969194913266072,"278":-0.0002125071294603313,"279":0.00033430571533372706,"280":-0.013630642272622777,"281":-0.00007109015670077983,"282":-0.00005774499210206592,"283":-0.0005894994696594117,"284":0.00010981594235559677,"285":0.00008769166121754842,"286":0.00041050978410405825,"287":-1.371626788659904e-7,"288":-0.000028003141107103676,"289":-0.0006557683933779277,"290":0.00040047548945149595,"291":0.0005893597221764437,"292":0.0005390372979344187,"293":0.0059139308863198625,"294":-0.001229369764612869,"295":0.00013773040410978185,"296":-0.000029722574348762948,"297":-0.0001910449027171313,"298":0.00028313802690513117,"299":0.0006233548247503992}},"b2":{"n":3,"d":1,"w":{"0":-0.4952476072007633,"1":-0.37086760954182457,"2":0.07321790619645266}}}}}