{"numStates":1,"sensitivity":15.468754476135203,"alpha":0.048968731572610724,"gamma":0.9788710993391208,"epsilon":0.005595175994199342,"cycles":2935,"max":{"lastUpdatedDate":"2018-04-03T00:17:36.030Z","meetsCriterion":false,"cycles":255,"wealth":4.171082079745046,"percentSuccess":0.3219109130103349,"odds":1.736842105263158,"weights":{"nh":100,"ns":4,"na":3,"net":{"W1":{"n":100,"d":4,"w":{"0":-0.13107220067202652,"1":-0.006838931891379694,"2":-0.4713240492348698,"3":0.2389635923946366,"4":0.209662785046124,"5":0.11275315086051375,"6":0.1773603589689466,"7":0.023343169707702834,"8":0.01150319001020679,"9":-0.011271033364737351,"10":0.12512040012214945,"11":-0.08708494530553629,"12":-0.18132265918569762,"13":-0.1272791916904164,"14":-0.09149496538721848,"15":0.015457086354745731,"16":-0.19690973728582967,"17":0.16246021534668836,"18":-0.6223033032800371,"19":-0.13660811613083265,"20":0.20483262140112532,"21":0.00870040951341687,"22":0.7132126581341589,"23":-0.358056873285096,"24":-0.677364658779532,"25":-0.1399699333638252,"26":-0.3731155496662673,"27":-0.5670826362076044,"28":0.02243951499830428,"29":-0.08574467997057665,"30":0.17556742624464838,"31":0.16708888268942895,"32":0.0032460086268325254,"33":0.0415811436054912,"34":0.017247462409269183,"35":-0.16247887435295202,"36":-0.03758892877522038,"37":0.06759010055027025,"38":-0.200759332564522,"39":-0.04507913961853414,"40":-0.00685096392582083,"41":-0.06699197742568326,"42":0.17711981943473484,"43":-0.099299418066917,"44":1.7993645548130375,"45":0.09310011805988927,"46":0.018522584867526184,"47":3.1283838617212947,"48":0.642675027220756,"49":0.024763891647711107,"50":0.810204058254598,"51":0.3285283674192803,"52":-0.1525562407519917,"53":0.09568484255461039,"54":-0.2520383583675351,"55":-0.3715928068082443,"56":-0.16691229670161292,"57":0.12724967844585885,"58":-0.26596717804050685,"59":-0.4276974691930258,"60":0.15762599623087842,"61":0.20231670199431073,"62":0.12322853272356593,"63":-0.44922816878288696,"64":0.2030893015740325,"65":0.1718179625871818,"66":0.10950030516042032,"67":-0.10326242678066394,"68":-0.5721359873511157,"69":-0.002173270731034541,"70":-0.3229355976819536,"71":-0.770982131401571,"72":0.12397686320872632,"73":0.11060628233399879,"74":0.005932132222495266,"75":0.03392270077821434,"76":0.2913072950703785,"77":0.21929100521901002,"78":-0.07704982859118717,"79":-0.017919741738352438,"80":0.02322103144040464,"81":0.05202199635017145,"82":-0.3970881299597558,"83":0.25473166858411916,"84":-0.22275565455868107,"85":-0.1871029288820448,"86":-0.12717966529608948,"87":0.1107158097757383,"88":-0.24631590342852397,"89":-0.15896103832042577,"90":0.1436998647238466,"91":-0.1271715149971515,"92":-0.11489370734531153,"93":0.15229539052070884,"94":-0.38563824930026863,"95":-0.26459893021302183,"96":0.08599416373862526,"97":-0.06915000165074689,"98":0.26487113625901815,"99":-0.03109570927121354,"100":-0.8560366380559014,"101":-0.09126610676526163,"102":-0.6168588189221459,"103":-0.7644048462134533,"104":-0.0900393483602097,"105":-0.05360949825594611,"106":0.21715395146020494,"107":-0.16737784580598822,"108":-0.03381567753358404,"109":0.003369520815691189,"110":0.02855714312084552,"111":-0.09024808562589245,"112":0.5111996962601163,"113":-0.006166476123686626,"114":0.331437397508702,"115":0.6748361925233705,"116":0.08058857016018242,"117":0.06204873113100149,"118":-0.2927431014096417,"119":0.24927375850329558,"120":-0.1343485700341826,"121":-0.06517399789747537,"122":0.1483596785624368,"123":-0.14661533242049068,"124":0.15199677766968359,"125":0.008901818981131597,"126":0.5579682876085053,"127":-0.2627669968859774,"128":0.26227371956728013,"129":0.1555711869873581,"130":0.2560745356834155,"131":-0.06816155244837513,"132":0.22584968430070365,"133":0.014221809934798423,"134":-0.022124501904775235,"135":0.38542681243073845,"136":0.2675219035425629,"137":0.1865912928407762,"138":-0.06063927236018283,"139":-0.04007009474673902,"140":0.01533787236278811,"141":0.03397238365006216,"142":0.08938027590565635,"143":-0.15507748273827332,"144":-0.15979051667184518,"145":-0.15032737740064128,"146":-0.04049015600089127,"147":0.04480550290208178,"148":0.00289195939098816,"149":-0.07199672970521209,"150":0.23325704604643105,"151":0.008611788594982349,"152":-0.08972930512071592,"153":-0.04850521372429873,"154":0.16950586526116768,"155":-0.16684187596159944,"156":0.33225392271972665,"157":-0.09065731537505625,"158":0.6867626551869103,"159":0.26838604623461765,"160":-0.0872706876335927,"161":-0.13276829381046784,"162":0.061203958772320606,"163":0.006847607194546599,"164":-0.7713141574238963,"165":-0.12960701976741354,"166":-0.45897857353229704,"167":-0.6173781222693966,"168":-0.03069388032757042,"169":-0.028464505227598698,"170":0.3634874851405245,"171":-0.2658643593299008,"172":-0.5851270118275933,"173":0.11641285809333615,"174":-0.42025371881085777,"175":-1.1093501986250756,"176":-0.013385750110293774,"177":0.03092588084687069,"178":-0.2915757427254979,"179":0.2029758770264212,"180":0.2280599362561406,"181":0.11385688353807095,"182":0.2509590943254562,"183":-0.06234822298684685,"184":0.2482119977813416,"185":0.19560657601404058,"186":-0.05622759268266883,"187":-0.03223060605918892,"188":-0.10176269511678776,"189":-0.10927516142464029,"190":0.05197586753137485,"191":0.0014945504088099953,"192":-0.010319468219245379,"193":-0.021812023650275656,"194":0.2771909112642983,"195":-0.1733068698303018,"196":-0.16736746907048802,"197":-0.14728326689641044,"198":0.23714586035011165,"199":-0.07054711330570657,"200":0.3389759705476392,"201":-0.14112480666338767,"202":0.2149536536901081,"203":0.7737458788050405,"204":0.007031551845912698,"205":0.06808559152357468,"206":-0.20808594280534937,"207":0.08565826799568016,"208":0.19915544165654325,"209":0.18649624233363227,"210":-0.14635555616678927,"211":-0.04362845252144383,"212":-0.12241391448539739,"213":0.05819836930880847,"214":-0.26717111923694564,"215":-0.03251064630461481,"216":0.1810458469916064,"217":-0.042241814669125695,"218":0.07613791896267413,"219":0.4281661168297746,"220":0.10949858175225494,"221":0.008882416088367744,"222":0.19107080810026209,"223":0.10579327881905044,"224":-0.14939217508855843,"225":-0.09586281754901914,"226":0.005276584242648073,"227":-0.01795955450319957,"228":0.009843889449947487,"229":-0.04960842332825989,"230":0.12657616896829416,"231":0.05041302906746123,"232":-0.11540893722002302,"233":-0.04662301907998393,"234":-0.43427485486781137,"235":0.2993360591024576,"236":-0.024143456891903687,"237":0.03741378991739322,"238":-0.42612323782014067,"239":0.2791069013068242,"240":-0.06372974383169236,"241":0.17128606366685015,"242":-0.607316413792317,"243":-0.0017777392870983741,"244":-0.04123612215816894,"245":-0.04062221815836746,"246":0.3840912197535325,"247":-0.21372275816376796,"248":0.9313411519093244,"249":0.12042636769356979,"250":0.6812831936253791,"251":0.8356849161540039,"252":0.2597832250394104,"253":0.08198570984711381,"254":0.5722049710605531,"255":-0.33559889368314166,"256":0.2864911186694436,"257":-0.12261433460484014,"258":0.3361521205101696,"259":0.5346343532171532,"260":0.36594226919552714,"261":0.15182737693111764,"262":-0.2075211080503295,"263":0.41096219587004773,"264":-0.4699511295033988,"265":0.04828747066615308,"266":-0.39247226168910637,"267":-0.6630675812843553,"268":0.6005572752103108,"269":0.09788905051559765,"270":0.5432337343146291,"271":0.32253607394680467,"272":0.14577600380598543,"273":0.05769561014510091,"274":0.46894149051797046,"275":-0.32871841426631093,"276":-0.061050933837664356,"277":0.12264674465352145,"278":-0.33952065559305616,"279":-0.10558793055276386,"280":0.1017668272746246,"281":0.08105980633442841,"282":-0.26709993782708696,"283":0.19882978276776114,"284":-0.11763621179632998,"285":-0.12456106116370436,"286":0.30880155724572517,"287":-0.12719292087960277,"288":0.05821484785707975,"289":-0.06953316490998668,"290":0.09111558824469317,"291":0.26135146755044286,"292":0.061476775049930245,"293":-0.1437003956453278,"294":0.5359917898953683,"295":0.021748494046944854,"296":0.16199300114912643,"297":0.0606091231851394,"298":0.4851062778443215,"299":-0.28883468333234485,"300":0.21622031781247936,"301":0.17432283547738975,"302":0.09584849634919082,"303":-0.10874477735063853,"304":-0.5310842407660884,"305":0.0000966152024861288,"306":-0.7779144123282702,"307":-0.29506079018265197,"308":0.17188732667877812,"309":0.07629320853344063,"310":-0.29147809201689934,"311":0.3577055059888719,"312":0.043656663429368296,"313":-0.007710941090491667,"314":-0.05032320068920305,"315":0.08269256266586494,"316":-0.12661485706322373,"317":-0.20410794476716634,"318":-0.02273078893278546,"319":0.3457765474927815,"320":0.026582636760438212,"321":0.12165586755626027,"322":-0.11791840503995332,"323":-0.2752219110322256,"324":-0.5502922399150313,"325":0.02134631536896051,"326":-0.3171419445269654,"327":-0.8119816556983444,"328":-0.77172761900986,"329":0.22482996269408245,"330":-0.07049297000372214,"331":-2.0540127883777353,"332":-5.158589576296279,"333":-0.9164963230984088,"334":-2.799856485680569,"335":-4.63963095757418,"336":-0.42319026948308724,"337":0.08916582652840468,"338":-0.29325406803078913,"339":-0.7817722545012815,"340":0.2507384412063041,"341":0.2001567787715004,"342":0.0000596915365007652,"343":-0.1529025441217241,"344":-0.29635735372781385,"345":-0.03618085272127626,"346":0.11710330571900472,"347":-0.531529557042155,"348":-0.22747019221391093,"349":-0.1709803849521179,"350":0.13948923519168485,"351":-0.049058234797088755,"352":-0.0750977787412836,"353":-0.11364973099086889,"354":0.1892667062620586,"355":0.06443537583849189,"356":0.2826959347943037,"357":0.1549950825455376,"358":0.2909278174448798,"359":-0.08492264734679997,"360":0.2775466814713889,"361":-0.08096270731602924,"362":0.2619041276312133,"363":0.493019312929372,"364":-0.15727773049045346,"365":-0.10259380222139611,"366":0.23394675047247182,"367":-0.21047567413159732,"368":-0.1872253675661108,"369":-0.21071153226711226,"370":-0.11623962747560167,"371":0.3954973831651347,"372":-0.015249233043183716,"373":0.019068717702017367,"374":-0.08475976396297137,"375":0.01987504216897815,"376":-0.20453755386406877,"377":-0.21756947985053793,"378":-0.12408542107739996,"379":0.39254358271644874,"380":0.00042497336695667125,"381":-0.05800934380261014,"382":0.21276864681094132,"383":-0.07838774271405967,"384":-0.0719847055767171,"385":0.12889041131664833,"386":-0.2099329825494433,"387":-0.3328629429891028,"388":-0.06507387706588176,"389":-0.16691410900172535,"390":0.3777585397881991,"391":0.021529555617614264,"392":-0.026331625831518685,"393":0.0730516896647213,"394":-0.16507819135967156,"395":-0.18441306854017325,"396":0.09400876634384271,"397":0.10421227699380967,"398":-0.07430149106016909,"399":0.016587838769576917}},"b1":{"n":100,"d":1,"w":{"0":-0.73679209795709,"1":-0.4969388488458281,"2":0.024880833112257906,"3":0.6780159483863073,"4":-0.37723472867083474,"5":0.1701736080488781,"6":-0.37248204580941763,"7":-0.0030719061215881338,"8":-0.053309034004968905,"9":-0.11384677180454159,"10":1.321730645364277,"11":1.5485049337091212,"12":0.45074877865688195,"13":-0.2570937461702211,"14":-0.20107363953011032,"15":-0.13195984568525956,"16":-0.6075739255201077,"17":-1.9096619831234012,"18":-0.9202406868084769,"19":0.10124186199625741,"20":-0.5852141345011018,"21":0.5255686382408413,"22":0.15292727365658135,"23":-0.2996949928718696,"24":1.4822110686296073,"25":-0.3925736159012104,"26":0.2786286388001956,"27":-0.0660939043004059,"28":0.2047070289313951,"29":-0.3859584661193041,"30":0.14599396561237024,"31":0.8878446068619247,"32":-0.3154439813499158,"33":0.06224423152883173,"34":-0.09327541648681678,"35":-0.0018013674361877022,"36":0.7533606743866904,"37":-0.03155509408244033,"38":0.18718940427611622,"39":0.3971994694834779,"40":1.047333524942933,"41":-0.40670645649755005,"42":0.5089232468073601,"43":0.07781618368234712,"44":-0.41533652443867153,"45":-0.0034983212479170207,"46":-0.0020138745527782387,"47":1.0300526501268212,"48":0.3834416905534746,"49":0.3874957067074656,"50":1.4733129524488024,"51":-1.3553629064472579,"52":-0.3083030713767351,"53":-1.5155746760437159,"54":0.10177947521567407,"55":-0.006307711719408257,"56":0.8810422993257437,"57":0.06315991649649645,"58":-0.6355377313932596,"59":-0.6278077493836927,"60":-0.37152376052849617,"61":0.5596497580023021,"62":0.41693806478516,"63":0.9502632506517833,"64":0.21608839604822264,"65":-0.1491417315916615,"66":-0.2137693900001467,"67":0.43381815204619106,"68":0.7208876537152463,"69":-0.2329915078401644,"70":-0.3683378927866313,"71":0.48001767641257476,"72":0.16444073567246206,"73":0.36815696472327014,"74":0.7653525809151004,"75":-0.5749309925578975,"76":-0.4238060759255514,"77":-0.36602202777291715,"78":0.08875231876027075,"79":0.02741118000466966,"80":0.014627605381413422,"81":-1.8834082199348017,"82":-1.8753727257758697,"83":0.5828781589277425,"84":-0.08367097742142143,"85":0.060573206881583595,"86":0.03446231732517929,"87":0.22129235594435007,"88":-0.060162134197600886,"89":-0.07416722846485091,"90":0.19232699219299024,"91":0.30940460430498606,"92":0.06373367784990233,"93":-0.041437263226620585,"94":0.0601060713199216,"95":1.3662431670005974,"96":-0.1854312239003197,"97":0.6308509051810084,"98":0.006492429592221802,"99":-1.0408251631983148}},"W2":{"n":3,"d":100,"w":{"0":0.19190714554405836,"1":-0.4118889177743154,"2":0.08905915890642997,"3":0.405096903158587,"4":-0.030709319036961974,"5":0.4759229557283174,"6":0.09748290703191848,"7":-0.26078707821398167,"8":0.11451195396019541,"9":-0.04290551275753804,"10":0.4734177415286627,"11":2.0245163814425946,"12":0.02545533239118898,"13":0.18754084242344268,"14":0.15437692081462723,"15":0.6617376185159277,"16":-0.3677455144887285,"17":-0.6706358543598401,"18":-0.44183157904854914,"19":0.3350784693275564,"20":0.2817223572060791,"21":0.35430963453543296,"22":-0.297425430178104,"23":0.11857627689777084,"24":0.44547493674737143,"25":0.17133117080943422,"26":-0.15202998277944865,"27":0.06380504854838814,"28":-0.1759862503428214,"29":0.18864318892766374,"30":-0.13518704529153064,"31":-0.3155019205287373,"32":-0.3501349027899186,"33":-0.046702940957061026,"34":0.4163246524864488,"35":0.12764673317774072,"36":0.38990587538380106,"37":-0.1374929384483449,"38":-0.10433881271684312,"39":0.001960480312239499,"40":0.4388296447161679,"41":0.1210103815648341,"42":-0.20245904356326422,"43":0.3018205953769396,"44":0.12277035586097489,"45":-0.22984803012686889,"46":0.3458515496747842,"47":0.4569730014649206,"48":-0.12707489704926142,"49":-0.4014276158161021,"50":0.5742715723716852,"51":-0.4387639101402626,"52":0.4645397235316027,"53":-0.46846230120757537,"54":-0.11422254205461661,"55":-0.2842877040259891,"56":0.44178946761522325,"57":0.015257990389100947,"58":0.11191556733707689,"59":0.2587154210514265,"60":-0.023978634096627947,"61":-0.279053223469681,"62":-0.18471086418950253,"63":-0.19509842137566327,"64":-0.19483554308395176,"65":0.19553804934142402,"66":0.19420665942209478,"67":0.004526778160786889,"68":-0.1382092048489099,"69":0.009643651768705807,"70":0.22273803594519676,"71":-0.38230129075311975,"72":-0.14669898912426163,"73":-0.006231919421425264,"74":-0.149894652423991,"75":-0.3646194227998103,"76":-0.046923908932441805,"77":0.19783389369419047,"78":-0.09021376348963958,"79":-0.4872452617314316,"80":0.38320283357821944,"81":-0.6689052237160504,"82":-1.0933134729288239,"83":-0.6419012586852324,"84":0.2385717410524668,"85":0.4110445903455695,"86":0.06298044217878426,"87":-0.3807899474591457,"88":-0.20517329936719847,"89":-0.2793862992450248,"90":-0.1425478574558655,"91":-0.2329447074296371,"92":-0.6047000755655263,"93":-0.03439579089766508,"94":-0.6245961719140259,"95":0.4518099774609506,"96":0.1433971410312755,"97":-0.5278375458179481,"98":0.2936468094863112,"99":-0.4406422881807389,"100":0.3246814042673337,"101":-0.2284391318646898,"102":-0.07606904639899464,"103":0.23401104058020963,"104":0.46522037574308706,"105":-0.5658076908233913,"106":0.46880110898094624,"107":0.14563616990764813,"108":-0.0413634875734747,"109":0.1196231798688916,"110":0.4604924975862551,"111":1.6800088635542234,"112":-0.767197989322882,"113":0.14387492757046746,"114":0.1366622712788895,"115":-0.26040038013613204,"116":-0.18167410746612453,"117":-1.1069771154338999,"118":-0.30124311998957026,"119":-0.18792068535778175,"120":0.18815564414687624,"121":0.156405552484514,"122":0.037199232347716826,"123":0.24083468671934066,"124":0.5388468147579976,"125":0.6578315151104484,"126":-0.09191137099347955,"127":-0.014546646295837885,"128":-0.30781509480538793,"129":0.13643459915430853,"130":-0.015061748862446251,"131":-0.31716831728872164,"132":-0.23111154170442627,"133":-0.03883882463949917,"134":-0.13553137045612457,"135":-0.07838525103584583,"136":0.2012600141581274,"137":0.09011379424289,"138":-0.051942146544716,"139":-0.5426180903709463,"140":0.31328719553997786,"141":0.5570441386010837,"142":-0.18073475937387684,"143":0.40408866034566066,"144":0.18877859574113265,"145":-0.08979994983722765,"146":-0.15421480211555932,"147":0.31421189365744245,"148":-0.1749391271611218,"149":-0.08076783452168385,"150":0.5070022278402962,"151":-0.4749821860661512,"152":0.006046852653607795,"153":-0.5609631596998296,"154":-0.04731111399480428,"155":0.058779371838053304,"156":0.2723787609749993,"157":-0.06006752328629952,"158":0.27054061399412466,"159":0.2111191144422308,"160":0.43976393764415156,"161":-0.19456831772474834,"162":-0.7324091610358934,"163":-0.32307858737861794,"164":-0.20950713920677042,"165":-0.04588229943074551,"166":0.31706225956694567,"167":-0.5733788091193606,"168":-0.2636564539664429,"169":0.2126873450354916,"170":0.1179753850114588,"171":-0.14111327663442993,"172":-0.02554282452470032,"173":-0.39238306992924876,"174":-0.3041910028319884,"175":-0.1458096347212323,"176":0.6916236515211955,"177":0.08490119360847585,"178":0.027074210802024403,"179":0.2722122737127991,"180":-0.20781494594029162,"181":-1.079785751423856,"182":-1.2703179552415618,"183":-1.2229702770003643,"184":0.2260884187632145,"185":-0.23943492978911968,"186":0.02316722772051665,"187":0.03215206344567773,"188":0.14881384065364253,"189":-0.17904828394743888,"190":-0.1734705254791717,"191":-0.07333256942525038,"192":0.2906055506753722,"193":0.04755452609684826,"194":0.30083539591635144,"195":0.47823558274143235,"196":0.08457988928549905,"197":-0.2822441074267753,"198":-0.14889091168659707,"199":-0.29482521631100134,"200":0.6090583344376538,"201":-0.6105536521926507,"202":-0.029576989495603598,"203":0.6233528893714559,"204":0.08481336956170127,"205":-0.1728879110683973,"206":-0.032414948198089974,"207":-0.20278558521690146,"208":0.03738360717113887,"209":0.06534697172335086,"210":0.7507861568544499,"211":1.0809746102199,"212":-0.00699064047384285,"213":0.10564545713856419,"214":0.03631860403548602,"215":0.18976430768437474,"216":-0.524465879277277,"217":-0.6261827772915016,"218":-0.6857208767925015,"219":0.03524475120186351,"220":0.5519300832056913,"221":0.49739425373673335,"222":-0.23662110148959878,"223":0.11052718681669031,"224":0.7371289865889549,"225":-0.07504240067971539,"226":-0.348137583635148,"227":0.06036723219388404,"228":0.03922200841870797,"229":0.42539141213010606,"230":-0.2425480572334673,"231":-0.68679607839798,"232":-0.5486855941448303,"233":0.05911323319007628,"234":0.18800117537073863,"235":-0.012859554798016473,"236":0.566840653701859,"237":-0.14394299944124153,"238":-0.2784215866523663,"239":-0.03782064514467202,"240":0.6746295793327899,"241":-0.04345940296722354,"242":-0.5182382457268296,"243":-0.12446656934130348,"244":0.43782254905489915,"245":-0.388059843054227,"246":0.09846741377061831,"247":0.6697868233983032,"248":-0.40580996917375234,"249":-0.3902314516494502,"250":0.47941296828883384,"251":-0.7856812191225611,"252":0.32481205584505224,"253":-0.7086185056172506,"254":0.018192821534908265,"255":-0.30542735166104734,"256":0.6863440770839561,"257":-0.036449067550943494,"258":0.5822638226878349,"259":0.5729470695662839,"260":0.15822089091604416,"261":-0.5225767803860171,"262":0.08978675248641485,"263":-0.7667934391623583,"264":-0.01886572437357089,"265":0.20829340765484358,"266":-0.02475307708615656,"267":-0.054715534682852195,"268":-0.6475900102284918,"269":0.12621117653334654,"270":0.41005365898659385,"271":-0.45066797561202726,"272":-0.10458871666660405,"273":-0.1891497392995698,"274":-0.6550182810352451,"275":-0.490557973141765,"276":0.008110101028449033,"277":0.4446243253104573,"278":-0.099354980072082,"279":-0.10646868926126447,"280":0.18328761629078927,"281":-0.6325442360132749,"282":-0.8660049962268666,"283":-0.9862195649524607,"284":-0.059144719071856644,"285":0.04194366973456102,"286":-0.11374788389069462,"287":-0.2925260767797911,"288":-0.09129497516420484,"289":-0.44382803353868167,"290":-0.005705503832592897,"291":-0.38486039338394873,"292":-0.11984549193519793,"293":0.0399622614954717,"294":-0.11931694510559626,"295":0.7619406846640244,"296":0.06891987568376652,"297":-0.43209503382933523,"298":0.22427765045811937,"299":-0.6487857142443052}},"b2":{"n":3,"d":1,"w":{"0":0.5315305813428216,"1":4.240094524646906,"2":2.0543889757531884}}}}},"weights":{"nh":100,"ns":4,"na":3,"net":{"W1":{"n":100,"d":4,"w":{"0":-0.07722784305675925,"1":-0.06551959474276584,"2":-0.09543020895971413,"3":0.10079428190538413,"4":0.04290607413496967,"5":0.053321661038536604,"6":0.07383053347968777,"7":0.012833084089508113,"8":0.04169097325770404,"9":-0.010530672882051603,"10":0.15499612961304565,"11":-0.05492075369817331,"12":-0.09166922866234266,"13":-0.08924386983718925,"14":-0.10543346838310655,"15":0.07921942254121535,"16":1.5573571199962006,"17":1.104056013364092,"18":-1.12800924361402,"19":0.9808215744588268,"20":7.087728540881343,"21":2.6551339715031324,"22":1.5800756350147485,"23":4.711515996751042,"24":-0.00006711912206160904,"25":0.12940149054040653,"26":-0.5633521212115389,"27":0.11552954175586122,"28":-0.012433846958754905,"29":0.006207108774631761,"30":-0.025972425624038023,"31":0.009952485244647032,"32":0.027471698643372375,"33":-0.011770880556229588,"34":0.10217557325236125,"35":-0.03861845720343367,"36":-0.0552263435168844,"37":0.00514301302944054,"38":-0.1556666507212621,"39":0.05038407994036508,"40":0.6535797736161757,"41":-0.04603659123331841,"42":1.378065791323703,"43":0.019249539418334537,"44":0.7635142670720992,"45":-2.6402961804699228,"46":0.5219326686056511,"47":8.404577237468576,"48":1.8351718803176864,"49":0.5189980316868184,"50":8.927517121617555,"51":-6.887547912706822,"52":0.007408928499418997,"53":-0.014952799913359122,"54":-0.04036308908078854,"55":0.05659080327787687,"56":-0.0031161674833667173,"57":0.0013910499616133787,"58":-0.10814345303580683,"59":0.10889467708657864,"60":-0.27221275239750836,"61":-0.07467929800274252,"62":-0.07095964015415519,"63":-0.20574708457526822,"64":0.1001344148112676,"65":0.12943898489851074,"66":0.031879814042804155,"67":-0.08738361500774333,"68":0.6492918420151814,"69":-1.7501905751946116,"70":1.451864982898066,"71":5.133382344192628,"72":0.4207201033080561,"73":0.23851339520820095,"74":-0.1356319682392566,"75":0.40921596389348347,"76":-0.2281208585433933,"77":-0.011065284104621842,"78":-0.4195237039239546,"79":0.06575749146955705,"80":-0.051869460512338324,"81":-0.02595798019389111,"82":-0.05249913540498042,"83":-0.006766777313132417,"84":-0.07905477255978138,"85":-0.08077256891416654,"86":-0.057982716346727,"87":-0.013694901843635851,"88":-0.006214310294846998,"89":-0.011456806806681357,"90":0.07845429799003605,"91":-0.05424338583219044,"92":-0.10776540450579943,"93":-0.0181578887095733,"94":-0.2527658166683731,"95":0.11806411523758603,"96":1.841146554027392,"97":0.7735056709010647,"98":1.046938522823032,"99":0.33865348242220666,"100":0.2471618348486305,"101":0.4571628709793134,"102":-1.4450404525898328,"103":0.5572207881883816,"104":0.004146433833350514,"105":0.012669290112883782,"106":0.055672674260115435,"107":-0.017428743965247667,"108":0.01375817133251416,"109":-0.01394542881201847,"110":0.13193456891980188,"111":-0.05743627283406455,"112":0.20428228503407947,"113":0.029051669845113315,"114":0.3984933941010976,"115":-0.13755063854284044,"116":-0.02620705116008548,"117":-0.005274859961398881,"118":-0.08019520385416283,"119":0.029196443874924937,"120":-0.002094174876180025,"121":0.005033590821217266,"122":0.07281259834836988,"123":-0.02953894969957857,"124":0.27546238178411225,"125":0.25997570279533755,"126":0.004772343689909518,"127":-0.18630177160149092,"128":0.02284729925152735,"129":0.028389416139645244,"130":0.09907023120083215,"131":0.01384672860793525,"132":-0.034356707229050196,"133":0.010128898027822623,"134":-0.17350469756656225,"135":0.054121918159412495,"136":0.048470588302621104,"137":0.01674104714288524,"138":-0.05515184892496953,"139":0.06426327784842809,"140":0.03973462206844857,"141":-0.0005726680713290616,"142":0.1338189636118107,"143":-0.04021037959666415,"144":-0.15377259464236445,"145":-0.1910151643482277,"146":0.01749088209771192,"147":0.13087177545835696,"148":0.021436817719595505,"149":-0.013423404304899137,"150":0.14440575763493624,"151":-0.05925164399104591,"152":0.008053251425954575,"153":0.002832214343862511,"154":0.0643450766894833,"155":-0.023020561208072197,"156":0.7716687038160606,"157":-0.1575790866665499,"158":2.4419538230720037,"159":-0.41052061232783577,"160":0.16545169007028146,"161":-0.1288899252719772,"162":0.28995505320964604,"163":0.21751668498619822,"164":-0.64861939771929,"165":0.07364143263474589,"166":-2.6986071309680186,"167":1.2102793039393502,"168":0.04267570050093968,"169":0.0318595177746863,"170":0.06605819051238596,"171":0.003750299330605174,"172":2.2255528657184556,"173":2.816849572450218,"174":-0.6374614078798826,"175":-3.2398542317739736,"176":-0.03916375750158336,"177":-0.005965404001790397,"178":-0.05211859220665899,"179":0.007063506999311058,"180":0.02793252007441563,"181":0.033413935687184905,"182":0.0026639490712365914,"183":0.05357777868485393,"184":0.007893822336115344,"185":0.04075675691045747,"186":-0.1301987367908461,"187":0.07596156456828392,"188":-0.2637927182366716,"189":-0.25295183829532697,"190":0.4151521740990812,"191":-0.27550259341229155,"192":0.01947256994413133,"193":0.019672620759356607,"194":0.059415866427832406,"195":-0.00818585159272993,"196":-0.022989026220192058,"197":0.017217072009119625,"198":-0.03497731532181816,"199":-0.012229273520406666,"200":-0.3896388056324065,"201":0.2906244319741332,"202":-1.5985337388625944,"203":-0.22424719820357808,"204":-0.20564135302840786,"205":0.1351569873047746,"206":-0.17286151753031156,"207":-0.6147457120920637,"208":0.05071257054608433,"209":0.011479415593853593,"210":0.007198154468593295,"211":0.048347820831292465,"212":1.6096049898554234,"213":0.7244980813138296,"214":2.9219640986995605,"215":-1.7810392067093186,"216":-0.026813012789681134,"217":0.012347066127153748,"218":-0.06919577400581896,"219":0.008812968853876862,"220":-0.01552990464236974,"221":0.031094432609388475,"222":-0.06743949977211612,"223":0.050311349547546895,"224":-0.06823914234010096,"225":-0.07709639031988934,"226":0.18877273865866923,"227":-0.14190496343460215,"228":0.017561120694661973,"229":-0.007047086297864805,"230":0.11484649278549425,"231":-0.04630081582317096,"232":0.08388378433436457,"233":-0.06901828634344148,"234":0.26183499777595864,"235":-0.013033215310795961,"236":-0.09209761981066693,"237":-0.03156782465065184,"238":-0.05519233238391261,"239":-0.0328235389014731,"240":0.5166455640925645,"241":0.478052389466439,"242":-0.9691432060259639,"243":0.5314220455952743,"244":0.026435228675591286,"245":0.041204340631105514,"246":0.05876412176202236,"247":0.0017029765806468027,"248":-0.020924755862111122,"249":0.1590969375897528,"250":1.2006210546498084,"251":-1.6352336283912385,"252":0.9556499542094749,"253":0.2840996016026906,"254":1.5516330736063833,"255":-0.4754594827918499,"256":0.24949838899016924,"257":0.05400349464290403,"258":0.4223264728088321,"259":-0.18614155198594376,"260":-0.044226964981573726,"261":0.014866158205434948,"262":-0.2528261828262058,"263":0.08459816051726357,"264":-0.3303779030850106,"265":-0.07619903856367022,"266":-0.5753227062920961,"267":0.20599582672787548,"268":0.3311650794390851,"269":-0.45038595707713086,"270":1.7586179241812743,"271":0.1906669746513507,"272":0.2340027676772824,"273":0.08692939713654345,"274":0.5688837741083178,"275":-0.3000792414560313,"276":-0.12332674338215642,"277":-0.016254987582557404,"278":-0.2197981435381661,"279":0.05107743816773725,"280":-0.01213117139896258,"281":-0.006585720536389645,"282":-0.05200904981835006,"283":0.024875213234366065,"284":-0.00662688652276587,"285":0.016956886601463297,"286":-0.01359513314399373,"287":-0.018994372879208802,"288":-0.019492627809517153,"289":0.015620030302541178,"290":-0.07411385208534958,"291":0.025148517722320417,"292":0.20833571342445018,"293":0.05826664963204127,"294":0.3485667732177194,"295":-0.08030864389640631,"296":-0.4807710737876594,"297":0.0762577435329457,"298":-0.07127461905119159,"299":-0.9701710218779904,"300":0.10031820402946205,"301":0.09894348034968173,"302":0.0235722953139213,"303":-0.024162746273142754,"304":-1.4792647867707889,"305":-0.1772585963173047,"306":-4.0585437403163676,"307":1.5316202678709354,"308":-0.03870735291760723,"309":-0.010279415662349644,"310":-0.10593826953312424,"311":0.025267858769982176,"312":-0.016924378669654298,"313":0.006834721196885357,"314":-0.19245409277602019,"315":0.07458571566625605,"316":-0.09712498278732148,"317":-0.05560959123862782,"318":-0.04037038814253654,"319":-0.0657036498166175,"320":0.05255620142917366,"321":-0.002843833999975678,"322":0.05732726960715381,"323":-0.0002690561007569732,"324":0.17444877641821283,"325":0.274606837852255,"326":0.1452541446064506,"327":-0.5970517532001153,"328":1.2914406119017097,"329":1.8193009775447724,"330":-0.24613258242886696,"331":-2.320283258811453,"332":-15.227568548887268,"333":-5.019898463892724,"334":3.0150283210617688,"335":-18.15822943823215,"336":0.0018300604745043626,"337":0.2984362832536514,"338":-1.0016216689877118,"339":0.12804093784575357,"340":0.021992880363981785,"341":0.03410053506995221,"342":-0.11201052564197483,"343":0.05836615752675043,"344":-0.03680724066104584,"345":0.0063081358273875026,"346":0.04131979260381757,"347":-0.05303323689692198,"348":-0.029758422925121972,"349":-0.004574965502041307,"350":0.0026398882786980477,"351":-0.036845729713485736,"352":0.0015088905257210467,"353":-0.01576921993239242,"354":0.1424825119058198,"355":-0.06844800230098363,"356":0.047422230059877994,"357":0.04499517150917629,"358":0.04758552071027897,"359":0.05261534691667302,"360":0.09963438654410761,"361":-0.0015633906597102268,"362":0.28630523450720236,"363":-0.13664421105021138,"364":0.00784000172401331,"365":0.0033786689318997514,"366":0.05368004639734843,"367":-0.02913321594113844,"368":-0.00025130999102213124,"369":-0.03288202512593264,"370":-0.00006976649101011842,"371":0.06477722976328093,"372":-0.018059121749924488,"373":0.00998057832630415,"374":-0.08069504294081789,"375":0.03262291456881864,"376":0.0191138884067708,"377":-0.042358217797704434,"378":0.11726696579936899,"379":0.005658580149678241,"380":-0.5634270061286583,"381":-0.8066471718465066,"382":0.0870921302829822,"383":1.316606349324588,"384":0.0076254422834167515,"385":0.0023024183825548668,"386":-0.081787929496,"387":0.07274022001086614,"388":-0.04748286189390485,"389":-0.010253503212603047,"390":0.020197679455155437,"391":-0.06722099393643166,"392":0.023112899488471617,"393":-0.016083908299301727,"394":0.05402245558300238,"395":-0.025195029471839357,"396":-0.23971851713742756,"397":0.07378349188715139,"398":-0.07443090221546084,"399":-0.5526044976477154}},"b1":{"n":100,"d":1,"w":{"0":-0.3128225970489706,"1":0.1746716577160907,"2":0.1406187788942354,"3":-0.29879411906074343,"4":2.8106815867270347,"5":-1.1913863572277912,"6":-0.18930029268727525,"7":-0.031727337860178936,"8":0.08979160485845303,"9":-0.17982727977647853,"10":2.0348403242527,"11":3.7468464274323505,"12":2.86870420965765,"13":-0.07944270405161441,"14":-0.11220005652770386,"15":-0.40031821123897116,"16":0.3438494999822583,"17":3.8224232928558313,"18":0.5914287461339645,"19":-0.4281095057277993,"20":-0.1681565175993705,"21":-0.24859594954495487,"22":0.027252277125157997,"23":-0.327608732950468,"24":3.7997596449280575,"25":2.048610858079145,"26":0.0592188946022106,"27":0.07588499257746299,"28":0.4112725765964513,"29":-0.10967456423348439,"30":0.04199263545804565,"31":0.8389232094305357,"32":0.09898983277211171,"33":-0.12823990542551655,"34":0.0887602170401228,"35":0.13896540299306367,"36":-0.47370387020916166,"37":0.09649402285367875,"38":0.054924332411644454,"39":0.8124758236751529,"40":0.12253127526276321,"41":-1.2699342495389585,"42":0.16090750824526937,"43":-2.390868640678159,"44":-0.11904185893237865,"45":0.08005298472181874,"46":0.00030946912295513505,"47":-0.4325493548513161,"48":0.10067713289930993,"49":-0.012831189520260687,"50":-2.52648233550921,"51":-0.5660360124161785,"52":0.10519683692266063,"53":0.8089089079421576,"54":-0.06065240047987415,"55":-0.03889852226868021,"56":-0.1152713307887638,"57":0.09289916973899118,"58":0.1261251952361552,"59":-0.23321925674391347,"60":0.34230183745645654,"61":0.146243035884453,"62":-3.003357877702278,"63":1.724722822615438,"64":0.47434849955692143,"65":-0.17639859922945056,"66":-0.6211579413379467,"67":0.6208018541899126,"68":0.5022060093553281,"69":-0.3319622243351318,"70":-0.07541613838708848,"71":0.04353004971008539,"72":-0.046317064180755194,"73":0.5584552204569034,"74":-0.13231848472036015,"75":0.30381635502746024,"76":1.851727523911332,"77":-0.14490908667145727,"78":-0.111258204089071,"79":-0.2614606335280948,"80":0.13311092281673917,"81":-3.5075295742395336,"82":-3.909021521176776,"83":-0.8437808380003109,"84":0.01857273953822048,"85":0.03819829952953618,"86":0.009952270793155107,"87":-0.0510807600777942,"88":0.05834207666187833,"89":0.1504112845288073,"90":0.2487670103877954,"91":0.0630452655777366,"92":-0.07525676017210753,"93":-0.07039997583774871,"94":-0.002513624559118065,"95":2.8730269914083104,"96":-0.06538705615469759,"97":-0.04063562056546495,"98":0.05870113037094258,"99":-0.11942777553875418}},"W2":{"n":3,"d":100,"w":{"0":0.2372848696828756,"1":-0.07861858765774163,"2":-0.08918308851664943,"3":0.18544433863865942,"4":0.7743672260597937,"5":-0.4587378591082497,"6":0.11663509310283207,"7":0.018231121460804425,"8":-0.055891167420924,"9":0.11268516850768587,"10":2.98168418495281,"11":-0.5355670019555188,"12":-0.13986140013935233,"13":0.09316716762562073,"14":0.13213569781277767,"15":0.032376176139094534,"16":-0.2267482353686674,"17":-0.7453357140817288,"18":-0.05105051317246635,"19":0.16606830536356082,"20":0.08589173948186339,"21":0.10775767971833862,"22":-0.04199412086058809,"23":0.23557845473828046,"24":3.082239405393039,"25":1.1863844431931578,"26":-0.04071260745213335,"27":-0.05829767273455743,"28":-0.22316625424059633,"29":0.07149179000230703,"30":-0.034430909070926476,"31":-0.5383437248228083,"32":-0.02542003827298536,"33":0.07884845468354347,"34":-0.015278172952242638,"35":-0.08238665613308874,"36":0.31958562518269484,"37":-0.0692689958883596,"38":-0.03700346496438956,"39":-0.7737254517973424,"40":0.13399595955407909,"41":-0.7296214781497606,"42":-0.08313172690194508,"43":1.7952401731800034,"44":0.06379991328150018,"45":-0.009379135636112172,"46":0.0262400775541862,"47":0.08116542604369031,"48":-0.0579756532201811,"49":-0.019556122060472816,"50":1.538138164674617,"51":-2.7860790961780784,"52":-0.02167569150044032,"53":-0.42831913917836933,"54":0.02269255506730111,"55":0.04069432337984017,"56":0.0004101529510753946,"57":-0.06808821324789972,"58":-0.0064708673180184795,"59":0.09803023769204224,"60":0.2638239578794894,"61":-0.08340291461856958,"62":-0.18312500378985758,"63":-1.6106273354423202,"64":-0.27795701853260407,"65":0.12517745507429906,"66":0.36456850259535295,"67":-0.2848255227693368,"68":-0.39928358047399454,"69":0.1879862762310419,"70":0.055996337400894526,"71":-0.055057868208183945,"72":0.023026912983932602,"73":-0.3269853246157119,"74":-0.5413815945516254,"75":-0.16406486203066922,"76":-0.5664584043053444,"77":0.08495885994034093,"78":0.08291500047820702,"79":0.10082716427496155,"80":-0.06380614829113883,"81":-3.30245039229956,"82":-2.988296741020836,"83":-0.27984250782718684,"84":0.01854337144609261,"85":-0.001639341107332755,"86":-0.060306757850295614,"87":0.0008575407635563999,"88":-0.05657586373619857,"89":-0.042900534230746155,"90":-0.16564412567215375,"91":-0.051120295672480366,"92":0.08291256204839195,"93":0.048122404326358934,"94":0.03319065790196426,"95":2.380740014987603,"96":0.08434667220783207,"97":-0.04340064472358815,"98":-0.03759985522331193,"99":-0.285121347164974,"100":0.21949510235863423,"101":-0.13406439438179,"102":-0.10335690758702458,"103":0.22126658402169438,"104":-1.3616466965821352,"105":0.24730154758547931,"106":0.22887482030996806,"107":0.02095659066678932,"108":-0.060172943089030415,"109":0.13913765822153654,"110":0.2566375052425801,"111":1.9649980898502855,"112":6.047174637719297,"113":0.03210284955414948,"114":0.0453543577509242,"115":0.45145133986499847,"116":-0.23797946510813672,"117":-1.3864764429808765,"118":-0.7144208869314899,"119":0.5164515703571844,"120":0.1301104940006582,"121":0.19447396603692735,"122":-0.004106869180067816,"123":0.28291804384872266,"124":3.84595749650822,"125":-0.6917558445311554,"126":-0.03655113483049609,"127":-0.04506997717192387,"128":-0.45245985582821885,"129":0.07428587925961261,"130":-0.021523919446100725,"131":-0.7343243959771675,"132":-0.08160964850910504,"133":0.09631967011621344,"134":-0.08285233184244674,"135":-0.10263029232285573,"136":0.34226939059469064,"137":-0.06256736669740674,"138":-0.033470666748149386,"139":-1.638636676015421,"140":-0.2674087572005014,"141":0.11958217498885083,"142":-0.12334010409871907,"143":2.4032966249434278,"144":0.0875550601794038,"145":-0.073692849179704,"146":-0.014813510785744048,"147":0.3955010445662073,"148":-0.07091472257232247,"149":0.01922668702543948,"150":0.9240075575783587,"151":1.1637264629036363,"152":-0.09416354826602247,"153":-1.4592648767644922,"154":0.04779535819536543,"155":0.016568460012361622,"156":0.11771859951872961,"157":-0.059857196916025125,"158":-0.14886499709560577,"159":0.19773897095033396,"160":-0.48304715336104126,"161":-0.10767209528931301,"162":0.6141078228327582,"163":-1.641777649710899,"164":-0.5305009166149158,"165":0.14318709148012249,"166":0.7858668102793351,"167":-1.307952313506536,"168":-0.5788680502693795,"169":0.30525946931679343,"170":0.04641569197794006,"171":-0.0195917088540888,"172":0.03055744769129281,"173":-0.6072196756146568,"174":0.6690215363897608,"175":-0.2227873443645744,"176":-0.3660427059289449,"177":0.10788200846803059,"178":0.07482317405619224,"179":0.2292137178761636,"180":-0.10400617677104569,"181":-4.312531441123505,"182":-5.972489095559628,"183":-1.201866440997784,"184":0.08397671690549197,"185":-0.035449813347832565,"186":0.010692368146877974,"187":0.050483584446790804,"188":-0.02797950389751016,"189":-0.12945414504870578,"190":-0.21493532438084934,"191":-0.03615917051276841,"192":0.01315798303404258,"193":0.044924411471995176,"194":-0.02338362310872555,"195":-1.2287955046340053,"196":0.02172904351378994,"197":0.049793605653756276,"198":-0.037978535787230316,"199":0.37775774555991315,"200":0.251090954241062,"201":-0.18282320390717202,"202":-0.22198346506287608,"203":0.2738924755396695,"204":2.3171904907077447,"205":6.103945745077456,"206":0.45938323526700275,"207":0.048240067005416463,"208":-0.15344025752292118,"209":0.23874451053124032,"210":1.162590706684613,"211":1.0221191355349684,"212":0.42685258736545234,"213":0.08336487619760184,"214":0.1640577371253068,"215":0.2732407522585262,"216":-0.23952476142505622,"217":-3.393399510430522,"218":-0.06695860139856605,"219":0.45044141313957325,"220":0.15570939537137976,"221":0.22262267458942442,"222":-0.08347861144887708,"223":0.34216944401898836,"224":1.3408941553886091,"225":0.6984586540240046,"226":-0.08732272662055716,"227":-0.1648325194090994,"228":-0.44359292180950566,"229":0.1434070018047442,"230":-0.09001492497481976,"231":-0.008015349038052344,"232":-0.15672783873683807,"233":0.22684834285608133,"234":-0.02360255585419557,"235":-0.20509495891967863,"236":0.21653858392526676,"237":-0.18777803947197108,"238":-0.09438966733176872,"239":-1.3748954980802457,"240":-0.2556972651886529,"241":-1.05403498770416,"242":-0.16075572648280842,"243":-1.4688474789434929,"244":0.129800110591167,"245":-0.06155820806675575,"246":0.10690271860699302,"247":-0.05502190675697269,"248":-0.1188593250226305,"249":0.048883576728038614,"250":0.9155720437106477,"251":-0.5136408694122002,"252":-0.0876586259153246,"253":2.234660805443883,"254":0.10627948366127227,"255":0.09010166437189342,"256":-0.06334698190784842,"257":-0.15855781706158287,"258":-0.2943400506403122,"259":0.19428172530774043,"260":0.25250531097893647,"261":-0.14138004457027062,"262":-1.9236051500371847,"263":0.1386042613813613,"264":-0.44523312077161664,"265":0.29713397811907705,"266":0.42691808392234626,"267":-0.9194737942869963,"268":-0.4520398058613637,"269":0.3271174848782094,"270":0.09603748205222755,"271":-0.009869630160924259,"272":0.10328500665997123,"273":-0.3451879655369403,"274":0.09378262695327558,"275":-0.2253540766070112,"276":2.013909998274952,"277":0.18283035897227923,"278":0.22975960887767713,"279":0.1891292466328574,"280":-0.1439679490027841,"281":-1.6611509358078378,"282":-1.203562518290319,"283":4.630139615721541,"284":0.6497071735860881,"285":0.05757931140220656,"286":-0.015196530288844266,"287":0.0393347352814761,"288":-0.15863039054955186,"289":-0.14417222335942664,"290":-0.36865623860434127,"291":-0.08882154127240795,"292":0.07906209150083829,"293":0.1196438761439918,"294":-0.08604170908581152,"295":1.7234394237201507,"296":0.10977345423558774,"297":0.04185944435418763,"298":-0.0930072824303368,"299":0.10153506658151916}},"b2":{"n":3,"d":1,"w":{"0":2.8395793363807584,"1":8.87122272179085,"2":2.78153280766289}}}}}