{"numStates":1,"sensitivity":10.563279820201235,"alpha":0.04537265684505696,"gamma":0.7486956811158825,"epsilon":0.03979740838465806,"cycles":2956,"max":{"lastUpdatedDate":"2018-04-09T18:25:27.130Z","meetsCriterion":false,"cycles":1194,"wealth":3.4779898292929525,"percentSuccess":0.37907634987979316,"odds":1.4761904761904763,"weights":{"nh":100,"ns":4,"na":3,"net":{"W1":{"n":100,"d":4,"w":{"0":-0.18155705201113403,"1":-0.20925367092781588,"2":0.33258362417973314,"3":-0.01818742127128031,"4":-2.312545946749786,"5":3.805216197008985,"6":-10.028259189079273,"7":-6.098244051213801,"8":0.13396062346211082,"9":0.5100168823360767,"10":-0.820179462623264,"11":-0.49486289004952505,"12":-0.40426028863192576,"13":-0.9167224253879154,"14":0.4815446993310517,"15":1.5238383986323882,"16":0.09967458403768101,"17":0.3271459210066025,"18":-0.5447137554988728,"19":-0.2603612419638642,"20":0.1756655922066387,"21":0.4793887366115047,"22":-0.1848663296593923,"23":-0.9059230397585001,"24":-0.11356042080107097,"25":-0.25260301022048864,"26":0.6568674680153423,"27":-0.005998215600282426,"28":0.33513482169860337,"29":-0.37218341748506406,"30":-0.7574768245924405,"31":2.488554311619646,"32":0.3027396061872688,"33":0.605487882843303,"34":-0.31981208612195033,"35":-0.9428844920952724,"36":0.21997947268785717,"37":0.2612674256303014,"38":-0.8891616617820945,"39":0.3951894894787759,"40":-0.17615587508436717,"41":-0.06494479794650049,"42":-0.40092267753645167,"43":0.2226573349935454,"44":-0.29156107790178226,"45":-0.4767280972830493,"46":0.8432340835544048,"47":0.08119740616695902,"48":0.44427189915289883,"49":0.8966656494911286,"50":-1.378895712988825,"51":-0.6143386222383487,"52":0.11081855420028282,"53":0.2173205771036035,"54":-0.3936386553399329,"55":-0.05043843921797942,"56":-0.25089140365748924,"57":-0.33828430859507724,"58":0.5032763288498153,"59":0.1020794506037426,"60":6.511314260225497,"61":2.8884118282737474,"62":10.918753816906378,"63":-6.62746661442196,"64":0.10255200288684362,"65":0.4257150877622889,"66":0.2080157733667246,"67":-1.204408682221277,"68":-0.17764257050180135,"69":-0.47672313596817695,"70":1.566259358864572,"71":-0.3997992017628997,"72":-0.05494423555033675,"73":-0.22392276583165868,"74":0.33996899053083257,"75":0.24975339640343885,"76":-0.010627378805523773,"77":0.14223476907449062,"78":-0.5346028956370428,"79":0.07681908213954014,"80":-0.036091438654130635,"81":-0.15293942940404914,"82":0.12360187743756812,"83":0.28876327037733485,"84":-1.9080905473092806,"85":-0.8597816986107,"86":-6.282721719390018,"87":5.146681731399217,"88":0.2528740158924604,"89":0.4045019803382537,"90":-1.2337594188337881,"91":0.41292770336490664,"92":0.4821324323782942,"93":0.44200503279538234,"94":-1.1556892277226747,"95":0.7203338706516903,"96":-0.2189032936823909,"97":-0.6710615005772511,"98":1.3923940417883698,"99":0.3291467603580333,"100":0.5606478152337574,"101":-2.076178916072521,"102":1.4414763222640716,"103":6.112707517071182,"104":0.3613783397376114,"105":-1.3816388011715472,"106":-0.5177145218861494,"107":5.41331445949324,"108":-0.3408436144065657,"109":-0.5869573627281073,"110":1.2055787592650138,"111":-0.018832258207924002,"112":-0.5326226355099987,"113":-0.9914074591853731,"114":1.433745423093793,"115":0.6098018989035626,"116":-0.12105621023247877,"117":-0.2407613975650893,"118":0.29173739284046507,"119":0.2042305827745572,"120":0.42651552150845357,"121":0.801473158846552,"122":-0.2005311815357452,"123":-1.3452365908066926,"124":-0.4949092070389375,"125":-0.5070613317341032,"126":0.5104911032985531,"127":0.09261438780579112,"128":-0.2678572124364377,"129":-0.33087565902440386,"130":-0.08450285343734298,"131":0.5181788441015125,"132":0.07660745939053233,"133":0.11417521865677234,"134":-0.1412563538473335,"135":-0.014101485846915719,"136":0.4081039883083204,"137":0.6370589300657179,"138":-0.8008374824428112,"139":-0.32183002563186125,"140":0.06355471575881594,"141":0.07791473723879244,"142":-0.15426626056313267,"143":0.10784050657008061,"144":-0.15312567621516718,"145":-0.6860959801119184,"146":-0.3218308979993728,"147":2.062202238221044,"148":0.685371149763096,"149":0.677431011191888,"150":-1.5131028779419953,"151":0.71450415663245,"152":0.1529425348130595,"153":-0.5104863596447217,"154":0.9528578570433157,"155":0.9595105373103016,"156":-0.3242325966764454,"157":-0.7807329712548797,"158":0.30992246342826657,"159":1.4061006821378381,"160":0.31446455717290434,"161":0.3215363102807303,"162":-0.36235308744235445,"163":-0.010880338753350432,"164":0.10127144997720931,"165":0.07120470029929023,"166":-0.08127114265151454,"167":0.06251291605257685,"168":0.4756957440608193,"169":0.9153985059341652,"170":-1.1652358720765763,"171":-0.6849689712550544,"172":-0.28233339407982094,"173":-0.3196051184349181,"174":0.41836673290684523,"175":0.012643313016464867,"176":-0.27888908957091124,"177":-0.6546301432679549,"178":0.4652320412659208,"179":0.9885321956432388,"180":-0.10945070126108415,"181":-0.24190857930866103,"182":-0.71807629168078,"183":1.1555808183424683,"184":0.12176900724417122,"185":0.12601331267562121,"186":0.05317580587176145,"187":-0.22973731728055513,"188":-0.11155773991282121,"189":-0.062312453737453435,"190":0.009258882883777762,"191":0.057854647309503654,"192":0.17537356350705285,"193":0.1495308196057756,"194":0.307718087586156,"195":-0.40681163023386574,"196":0.05416524094539288,"197":0.8400681470821433,"198":-1.9610987819275418,"199":-0.5786401257933892,"200":0.009889148197329216,"201":0.06651379617497777,"202":0.47879123769682835,"203":-0.5928315379078495,"204":-0.26872331523003296,"205":-0.5106112336321597,"206":0.47358158576645165,"207":0.6335005111442981,"208":-0.11175928043319036,"209":-0.20202650440440575,"210":0.21997774809193513,"211":0.17504298454931455,"212":-0.24185221336794402,"213":-0.5764597830229171,"214":0.5356125719718753,"215":0.7455466289532215,"216":0.11830058650304345,"217":0.338388093493453,"218":1.0004946271051338,"219":-1.7540721314956633,"220":0.09691739046275512,"221":0.06616716564421982,"222":-0.3777253514576126,"223":0.3341489694480983,"224":0.008906222133843822,"225":0.15700968672590482,"226":-0.4898643584239073,"227":-0.007576062498105435,"228":-0.5235416102241416,"229":-0.9133693218060481,"230":1.347572406449501,"231":0.46378306288319987,"232":-0.13411573231310628,"233":-0.19097509895789677,"234":0.39457004726423145,"235":-0.0651525755433422,"236":-0.4940407134311126,"237":-0.8003343739120461,"238":1.4277053586439137,"239":0.12638414423660588,"240":7.296231637738878,"241":2.9266998039230385,"242":-1.2604831840380766,"243":6.928860471884564,"244":-0.6674250049645095,"245":-0.9401930788626214,"246":1.06418139062036,"247":0.5226825910030698,"248":0.5643258552766064,"249":0.624473558592334,"250":-0.6706927273705916,"251":-0.15116383380644458,"252":-0.18898758615814476,"253":-0.3521987276620472,"254":0.7721923051683836,"255":-0.019511377926087287,"256":0.42379602119860865,"257":0.538326037909807,"258":-0.9221209785375095,"259":0.044657134975600206,"260":0.06142769421882271,"261":0.01549294999512063,"262":-1.1713324088504262,"263":1.2111030165892283,"264":0.20520137313943265,"265":0.48492745699877865,"266":-0.2804885238112155,"267":-0.8084044271006505,"268":-0.4160283941889229,"269":-0.504380558311923,"270":0.7094658860340156,"271":0.00793817264638297,"272":-0.04317121564212578,"273":-0.0009209595809341424,"274":0.4003920559499689,"275":-0.41965349629691345,"276":-8.18537927907841,"277":3.8330731137567002,"278":-21.13474269615454,"279":-6.985764181873443,"280":-0.20174962782188788,"281":-0.3649894879907926,"282":0.1596771907521638,"283":0.4949377306120303,"284":-0.5662861595219922,"285":-1.1091191137407428,"286":1.072102607212091,"287":1.2657281928477995,"288":-0.3431906507507337,"289":-1.0477159526364657,"290":0.06822116204312814,"291":2.3994626215428547,"292":-0.6359265908901105,"293":-0.5635444219421508,"294":1.430063011326085,"295":-0.8992225118341313,"296":1.4003983652715863,"297":0.8475066794723333,"298":2.4662892393090377,"299":-2.1634061618942386,"300":0.05941729302193887,"301":0.3374250924982836,"302":-0.6311254114486778,"303":-0.3355603844391929,"304":0.21005400373566002,"305":0.4009677851587641,"306":-0.6749295482211835,"307":-0.15548996024110828,"308":-0.3855775984682757,"309":-0.6267743052442848,"310":0.34002619352769203,"311":0.8218508947256531,"312":0.355734810292702,"313":0.33663054273324566,"314":-0.24796901158973583,"315":-0.03913262438596422,"316":0.4597003176097622,"317":0.8077369289773856,"318":-1.0082499602892088,"319":-0.5579323005795424,"320":0.24465533921425445,"321":0.33317708523010686,"322":-0.731732967845291,"323":0.12171701278314793,"324":-0.5173203776729778,"325":-0.6803550481964429,"326":0.08302948757592735,"327":0.87986320296236,"328":0.22282549365473095,"329":0.12626480722064978,"330":1.2497609463450332,"331":-1.118662396220388,"332":-0.5433794946973663,"333":-0.4929743752794771,"334":1.2983429805420117,"335":-0.7914643164001216,"336":-0.5569543988546873,"337":-1.2045456808662027,"338":1.1189908411157463,"339":1.4899053436910987,"340":-0.08517909664089696,"341":-0.07972051070950903,"342":0.07654788048745682,"343":-0.035181775195326254,"344":-0.19522138670619751,"345":-0.5320413883976738,"346":0.6046296986172195,"347":0.6174189368327949,"348":-0.1138649620202792,"349":-0.20257798719843775,"350":1.793106960066912,"351":-1.2695323981260571,"352":-0.22216188027034012,"353":0.804412135677063,"354":-2.9840608031919116,"355":0.051001607240596165,"356":0.3464437802956281,"357":0.7218496076190439,"358":-0.6630829777731575,"359":-0.909450952930716,"360":0.014736634565446655,"361":0.05748828165229421,"362":-0.39377260781325385,"363":0.234678039302909,"364":0.13856847960993954,"365":0.16242676336493797,"366":-0.4705164763244081,"367":0.19937488233277317,"368":-0.05569320196589544,"369":0.1561577537793489,"370":-0.4228869297142222,"371":-0.18827477333017406,"372":-7.279225068371586,"373":-5.450759819716764,"374":14.382218860385361,"375":-12.540719735455106,"376":-0.45251943942905737,"377":-0.9237231929161817,"378":0.38725702384818383,"379":1.574670401654692,"380":-0.2196886758477103,"381":-0.05156643653531438,"382":-0.6617792372995515,"383":0.33182798766259386,"384":-0.03830212065255165,"385":-0.07052656467186183,"386":1.0205703442449028,"387":-0.7988912152979244,"388":-0.1358320434646796,"389":-0.259150170799808,"390":0.17457812777355033,"391":0.41134737395913223,"392":-0.13012550082231966,"393":-0.09171814343878185,"394":0.6124142479707957,"395":-0.5775951143846223,"396":0.1327856384446847,"397":0.17015152423824112,"398":-0.13157032327509888,"399":-0.08891920794546326}},"b1":{"n":100,"d":1,"w":{"0":-0.04544860655215412,"1":0.5675296844096201,"2":0.0839423155622412,"3":0.07082108871040647,"4":0.06051532838865922,"5":-0.05693005071329373,"6":-0.10167440848608836,"7":0.2904375519193921,"8":-0.04668222850818559,"9":0.16709648319088444,"10":0.0954570440136505,"11":-0.11330464981221394,"12":0.1437601234141044,"13":0.05345164096136031,"14":-0.058639479052561935,"15":-2.2144336350818254,"16":-0.1388926529483095,"17":-0.2848921549389867,"18":-0.030594722432911323,"19":0.09489293637971803,"20":0.0070556906555049705,"21":0.4978838197172377,"22":0.22366197643940797,"23":0.21630879222990176,"24":-0.18800111485523877,"25":-0.5466795749042989,"26":0.09235486388982665,"27":-0.17846456978072436,"28":-0.1453942747889018,"29":-0.022711464435604112,"30":-0.10702935194858493,"31":-0.045269083993303615,"32":0.07510585407709418,"33":0.017316883135701896,"34":0.077189151528045,"35":0.030818868803407062,"36":0.21625370608144495,"37":0.2556928932351083,"38":-0.09346159801435476,"39":0.08434684085082465,"40":0.03973476780857483,"41":0.012930151413671882,"42":0.09936984284961488,"43":-0.05062717409495192,"44":0.024576381218415502,"45":0.22153340868652957,"46":-0.03577820637041775,"47":0.009723450588407418,"48":-0.09627942988937183,"49":0.2836461431579822,"50":-0.1304016189005043,"51":-0.006451509864893834,"52":-0.01409870571504808,"53":-0.008898350978301257,"54":-0.30910093442217657,"55":0.08521675688345659,"56":0.07905949785672564,"57":-0.1450163656795215,"58":-0.06241482366761225,"59":-0.19089679245926375,"60":-4.406699630526606,"61":-0.08287544563880408,"62":0.06117516026526936,"63":-0.11705049746920487,"64":0.12854149397904382,"65":0.28899209193988873,"66":-0.03545626122624551,"67":-0.08975501230250678,"68":-0.09958002485147883,"69":2.4508512950848043,"70":0.029156095322106192,"71":-0.029461114171727757,"72":0.18819607502892846,"73":-0.25952006432704733,"74":-2.3412329790397224,"75":0.07095389591748384,"76":0.08428911532999143,"77":0.03946898687617587,"78":0.01605993376061112,"79":0.08627445473198975,"80":0.11596418663432409,"81":0.09594215083691005,"82":-0.3197973344352763,"83":-0.23958868203827183,"84":-0.021614523139168954,"85":-0.01060717305430654,"86":-0.033907444881501554,"87":-0.3996893459195199,"88":0.5826302435609243,"89":0.009154492770534315,"90":0.0841365652152581,"91":0.0863695836179116,"92":0.05612957337501913,"93":-0.34780414075614297,"94":0.09401912319266933,"95":0.1509746837574993,"96":-0.23473627491853408,"97":0.015121366640272691,"98":-0.14193104684174146,"99":0.005932118508156892}},"W2":{"n":3,"d":100,"w":{"0":0.03125570165643428,"1":-0.8378321885589423,"2":0.04035976590729278,"3":0.021741954214072032,"4":0.020581030441566187,"5":-0.006702075249109939,"6":-0.019961488465978207,"7":-0.23030795029905282,"8":-0.035630070455629693,"9":-0.0075170328867661534,"10":0.08289495333408489,"11":0.02163548482105194,"12":-0.010210369884361315,"13":-0.002338315629153128,"14":0.03463017339316889,"15":0.6340386314723361,"16":0.0018057281870462753,"17":-0.06370922598767216,"18":-0.018752242066166193,"19":0.04424286925956169,"20":-0.008957204971772622,"21":-0.524791927472963,"22":0.009680540552426526,"23":-0.09125312941226911,"24":-0.05515551053027159,"25":1.1363019585510699,"26":0.383312175111241,"27":0.009642981639835404,"28":0.037190452222673274,"29":0.00868073059847404,"30":-0.06623376528736667,"31":0.1149270379035836,"32":0.07709796963537567,"33":-0.014359272487055277,"34":-0.05755092663525558,"35":-0.01410550579838854,"36":-0.050805212553711114,"37":-0.1263814202124014,"38":-0.17458661914634277,"39":0.016614500709419004,"40":-0.07174357777657711,"41":-0.028307816071656687,"42":-0.039606038647350635,"43":0.05665485233143837,"44":0.013982629494331362,"45":0.047825329821322614,"46":-0.034694272956127335,"47":0.02995377169254886,"48":-0.06802423705958051,"49":0.16104806302573155,"50":-0.02286418731585976,"51":0.023858503333397306,"52":0.012478155209697637,"53":0.00820551132074909,"54":-0.028362286091610765,"55":-0.011427710853577787,"56":0.038241857360783144,"57":0.045021411009050445,"58":0.013247536188028075,"59":0.035931531409589795,"60":0.12616965144510278,"61":0.11297222924425912,"62":-0.12255078994211546,"63":-0.00274936317180464,"64":-0.0609795226031393,"65":0.025541357597111815,"66":-0.012591800915222271,"67":0.07691478797482666,"68":-0.005787699314023174,"69":1.5311771800724583,"70":0.03724263874431951,"71":0.04964004177669909,"72":-0.049256525823737934,"73":0.12985472043995863,"74":-2.0310923178477296,"75":0.04508361200332086,"76":-0.007517554406385185,"77":0.06753057275920969,"78":-0.09531559564891817,"79":-0.049930790552981545,"80":-0.021001296938471112,"81":0.13243559600340143,"82":-0.13743884907974163,"83":0.1021746374190755,"84":0.031237268821465807,"85":0.023767164309935588,"86":-0.006645065034319835,"87":-0.07061630176331805,"88":0.33302042930875025,"89":-0.023867020995772044,"90":0.019582957789428923,"91":-0.011796676198464126,"92":0.059626193443861754,"93":-0.1391757151026895,"94":0.0408906711915504,"95":0.11553947667174494,"96":-0.0451524017834788,"97":0.013285607838214197,"98":0.013590445425603849,"99":-0.030592621214348876,"100":-0.024680120703915006,"101":0.06371244127434617,"102":0.09582058553222868,"103":-0.0664462842650698,"104":0.06115742806657147,"105":0.029086955686809177,"106":-0.06791514971979133,"107":0.005592288038836423,"108":0.03545638224108512,"109":0.0802596389651134,"110":0.05562891672746003,"111":-0.07763229530368328,"112":0.1364697801448144,"113":0.0384481318465636,"114":-0.041629602417111576,"115":-2.570404410794888,"116":-0.0021026238542874807,"117":-0.1615961137716195,"118":-0.040593240277508894,"119":0.06161099648192014,"120":-0.01760836508032429,"121":0.22438176768674506,"122":0.11804351496370363,"123":0.09105740602133756,"124":-0.15105709115446567,"125":0.021283297945462916,"126":0.1440670236207803,"127":-0.11436955905629978,"128":-0.13492539491417768,"129":-0.02884932873309061,"130":0.024707312464489636,"131":-0.024457101932536317,"132":0.019597023492388045,"133":0.010852945665649068,"134":0.06788458955922098,"135":0.010914858985894536,"136":-0.015534491047787138,"137":0.12522216445011397,"138":-0.15186595918674456,"139":-0.04863643499080463,"140":0.01876709306508442,"141":0.0004937885671290989,"142":0.11077671191715652,"143":-0.02770919258733404,"144":-0.055797398618386375,"145":0.06451279185322528,"146":-0.010849526911799122,"147":0.006179340344638689,"148":-0.04084825576930108,"149":0.2392578720362988,"150":-0.044354073963687735,"151":-0.04785290549227841,"152":-0.020609449763781294,"153":-0.06002937111669995,"154":-0.07727152784526228,"155":0.030139596140474515,"156":0.05665930077516064,"157":-0.1236208202453598,"158":-0.03457104447131882,"159":-0.13080847516246372,"160":-1.8757502769199403,"161":-0.08155795076782073,"162":0.03910190007402436,"163":-0.07531073175020227,"164":0.07543634678199802,"165":0.10603808667827143,"166":0.035096242989408784,"167":-0.051897438051479484,"168":-0.03504397489974809,"169":-1.9858425041242471,"170":-0.013296024204626758,"171":-0.10845682616210976,"172":-0.06741675163916454,"173":-0.11582246682119471,"174":2.9666863560036614,"175":0.07617432933284357,"176":0.06559307462710182,"177":-0.027494258071349,"178":0.0028371797373496405,"179":0.09179003335660611,"180":0.06476159292808085,"181":0.010975340675357806,"182":-0.13458249273371137,"183":-0.10449132846456383,"184":-0.12319647021070418,"185":-0.0016705774634298554,"186":-0.06859232492161645,"187":-0.17548473019960015,"188":0.3885635539126728,"189":0.07053982638481204,"190":0.04014802626930319,"191":0.04059125147966392,"192":0.057622513281525505,"193":5.689637713813718,"194":-0.05342891130544419,"195":0.08671647424734802,"196":-0.09979046604742424,"197":-0.018512554766158255,"198":-0.05034766064710246,"199":0.006917654408517141,"200":-0.0047980311842366575,"201":-0.2595157878070521,"202":0.03194381465458773,"203":0.05137915724855438,"204":0.020973532035750433,"205":-0.028706299990898215,"206":-0.0353919369672277,"207":0.0609223097497339,"208":-0.035885414944095716,"209":0.05155091344768548,"210":0.05265640871605809,"211":-0.025674907775440927,"212":0.030709772566670464,"213":0.014474599108659949,"214":-0.006220690646226968,"215":-0.11396365483173275,"216":-0.056647531670653395,"217":-0.10594912217578266,"218":-0.011792525897337485,"219":0.040645716500931975,"220":0.0023997007367932057,"221":-0.25781844634450163,"222":0.07325724129651875,"223":0.044934830346268606,"224":-0.06767591765654615,"225":-0.5879707685534677,"226":-0.023346165193202557,"227":-0.048783027568384096,"228":-0.020425234620714952,"229":-0.0021625904676249425,"230":-0.07468075781004557,"231":0.021604111827529734,"232":0.0496581435808825,"233":0.0009360923582413559,"234":0.0008664130790212421,"235":0.006172300616371917,"236":0.09330769856521881,"237":0.041268246053633266,"238":-0.07585329118269463,"239":0.050282537366085595,"240":-0.008779036592704488,"241":-0.0033920008959645257,"242":0.006699827468154443,"243":0.001371675467556754,"244":0.022632160852057964,"245":0.09725828245901845,"246":-0.02239250904873802,"247":0.011604411744798572,"248":-0.05132948863607462,"249":0.12972453498269973,"250":-0.05152504828855255,"251":0.011948742802263186,"252":0.0011096762581218065,"253":0.0075998408711517645,"254":-0.14151481157944482,"255":0.025364168611476664,"256":0.03359586045093798,"257":-0.019875338673060957,"258":-0.015264994480806867,"259":-0.04087221660928863,"260":-0.025604694136296697,"261":0.022721373371630833,"262":-0.02138361141850802,"263":-0.03512449271350629,"264":0.01956116254231882,"265":0.1137863488319026,"266":-0.022822409372579542,"267":-0.003293170377616924,"268":-0.03538899740227368,"269":0.0966979862443841,"270":0.02455384710051884,"271":0.02720324525614169,"272":0.10167379672136309,"273":-0.04549018163570205,"274":-0.02161425212158114,"275":0.03047085979549047,"276":0.020765127861645534,"277":0.04254343347857122,"278":-0.022578211628544984,"279":0.0017108416206942708,"280":0.02926133866497709,"281":0.08119086786359908,"282":-0.15001279838717296,"283":-0.048742028191439225,"284":0.026461090066153513,"285":0.0031187858046412553,"286":-0.005844993927644947,"287":-0.16473725175881038,"288":0.26176278682961307,"289":-0.01512154063494067,"290":0.032495811909886395,"291":0.02415520004209795,"292":0.031116265522686624,"293":-0.11571116285870177,"294":0.0683521338146491,"295":0.07822373880382975,"296":-0.09274265589852212,"297":0.01231559817052467,"298":-0.04455789604271136,"299":-0.007668218674768784}},"b2":{"n":3,"d":1,"w":{"0":0.421895823713514,"1":-3.6688955585457683,"2":0.4313237983842651}}}}},"weights":{"nh":100,"ns":4,"na":3,"net":{"W1":{"n":100,"d":4,"w":{"0":-0.13236442241312402,"1":-0.19685637336945944,"2":0.30829388414446407,"3":0.0753910245367827,"4":-4.901855622391264,"5":3.625379719375039,"6":-13.467218788295916,"7":-7.3073804686441965,"8":0.2361088617765174,"9":0.49359847974212656,"10":-0.6879678956894107,"11":-0.3945179966059639,"12":-0.21253488182964936,"13":-0.6811492873241481,"14":0.536733672616421,"15":1.1444452250883677,"16":0.16200474741036835,"17":0.3203900025972713,"18":-0.45365158317129,"19":-0.2205444398392283,"20":0.06755430774753333,"21":0.32994445605259587,"22":-0.2164761854450571,"23":-0.6377033033269806,"24":-0.21454552237797214,"25":-0.29486964351609574,"26":0.5354726801344709,"27":0.06019433778727192,"28":4.349847200418496,"29":2.086560389180699,"30":-2.3684633127297703,"31":4.724137330053425,"32":0.1332233400722833,"33":0.4329871033606082,"34":-0.36135711283861655,"35":-0.7204276488529767,"36":0.32283463731341816,"37":0.35897719613201695,"38":-0.7485736255893789,"39":0.1377602083504315,"40":0.08454375394326985,"41":0.05774405710440121,"42":-0.24362294949041022,"43":0.2004197710165875,"44":-0.2930214342103799,"45":-0.47621305921970425,"46":0.7470566040938814,"47":0.1953608581104125,"48":0.4451274193306802,"49":0.8546564412211053,"50":-1.2694650104155873,"51":-0.6308063262507496,"52":0.1296938702774492,"53":0.22019745739330895,"54":-0.3352429567249084,"55":-0.09038565484405955,"56":-0.19199780558912788,"57":-0.3091561595390089,"58":0.4643752612031076,"59":0.18294195586532824,"60":8.542694572685624,"61":2.764572269722985,"62":21.451233626003898,"63":-12.732928855840175,"64":-0.0578734250946536,"65":0.21530763924508797,"66":0.1063631294091672,"67":-0.7737669792202169,"68":-0.5195866595326026,"69":-0.6764692881318638,"70":1.3080651892317527,"71":-0.1740834665354693,"72":-0.09854439059378887,"73":-0.20994668474611533,"74":0.28138058309109,"75":0.18729783754557514,"76":0.14916508173910034,"77":0.21188372275940323,"78":-0.4017222954467649,"79":0.036052527716444266,"80":-0.03443362601739749,"81":-0.11650689705768662,"82":0.11164580547904346,"83":0.19560379119276203,"84":-2.6220066295489683,"85":-1.874717352547304,"86":-9.21399871067147,"87":9.878977001407645,"88":0.43273610423686915,"89":0.5396961283827062,"90":-1.0480642039475963,"91":0.14098564910091685,"92":0.488140057599877,"93":0.563520053738202,"94":-1.0890091395926094,"95":0.26518968154137107,"96":-0.42115201209375874,"97":-0.7254535864928584,"98":1.1818245770086853,"99":0.3386440196174336,"100":2.1518023724419173,"101":-0.9224499490211175,"102":-0.7453595603135754,"103":7.932275552517343,"104":0.8243003628907709,"105":-2.024431343375442,"106":-3.3391092811764795,"107":11.075490342195877,"108":-0.4145052950557182,"109":-0.6333355257316702,"110":1.061744654337014,"111":0.15151169402323486,"112":-0.4705978437707082,"113":-0.9336274049720503,"114":1.358880612799748,"115":0.6707405996193829,"116":-0.09868020334534386,"117":-0.2088701367234067,"118":0.2643978814707526,"119":0.18637188444953912,"120":0.13338694261929462,"121":0.5387525772308461,"122":-0.3168094005430997,"123":-1.0156235242307181,"124":-0.24018471289154683,"125":-0.41132322352425127,"126":0.5515788001455969,"127":0.2814186847151937,"128":-0.0147801983084986,"129":-0.1753901642158063,"130":0.031774624063466816,"131":0.4293788409351433,"132":0.05055941393037995,"133":0.10374783547383103,"134":-0.13213493322384612,"135":-0.04721267223945506,"136":0.2870997070958458,"137":0.5638950655723091,"138":-0.7620808642331695,"139":-0.40015473591413675,"140":0.053282719391995144,"141":0.08849914150215756,"142":-0.13554033683039832,"143":0.031893610532805886,"144":0.04570678888554714,"145":-0.3643536736817286,"146":-0.20829984932096685,"147":1.3550591507062755,"148":0.700787429742744,"149":0.8333447344970032,"150":-1.5390204262638103,"151":0.2595522101188986,"152":-0.2048871375152192,"153":-0.5413071803326062,"154":0.720600519683423,"155":0.5977519678697776,"156":-0.14297718202262333,"157":-0.5533137396620347,"158":0.3702756778436743,"159":1.0206006242991488,"160":0.16457980672807243,"161":0.2704089896870469,"162":-0.3749172687564425,"163":-0.1512061901838383,"164":0.04500641791636925,"165":0.05994018490220518,"166":-0.09135377939664428,"167":-0.007655790057154269,"168":0.38163754533860517,"169":0.8239523628102752,"170":-1.104329372053383,"171":-0.6857714563511783,"172":-0.17354988909146948,"173":-0.2831385475312826,"174":0.40796801738176564,"175":0.14012597945472596,"176":-0.1653406568502939,"177":-0.49946853405630415,"178":0.46931745349645854,"179":0.7489434019729162,"180":0.20052981660840347,"181":0.023315975772485547,"182":-0.5023477826975794,"183":0.7280171330475167,"184":0.005996735087428065,"185":0.05600483456848605,"186":-0.002243715270626282,"187":-0.18989748437097795,"188":-0.031640827915636986,"189":-0.027719475926050684,"190":0.04067050209416925,"191":0.08045820322144426,"192":-0.061186431717929556,"193":0.012543562555387742,"194":0.16948324613300228,"195":-0.31380024523815053,"196":0.5218145158014842,"197":0.9919563637983485,"198":-1.6411415970926375,"199":-0.4800573862195407,"200":-0.15283338242145791,"201":-0.07090213126037409,"202":0.3481294744139913,"203":-0.35384824258960357,"204":-0.17311024914080747,"205":-0.40307954078624886,"206":0.46114765584577627,"207":0.5203512263763028,"208":-0.07791173330067779,"209":-0.1692450050999124,"210":0.20601206658743682,"211":0.16211628655189436,"212":-0.1754588600861857,"213":-0.466553198745609,"214":0.5065013037984075,"215":0.5852637821174866,"216":-0.2732773413122869,"217":-0.04044027611964207,"218":0.7552317553801035,"219":-1.1052480091968724,"220":0.13808007740723557,"221":0.1263929191579244,"222":-0.3092909855418352,"223":0.1534460576277498,"224":0.14056286607811525,"225":0.20592289970968292,"226":-0.3747920334026795,"227":-0.022072165771182737,"228":-0.45378492002010157,"229":-0.8625498752485288,"230":1.2723900532284782,"231":0.5593149573410267,"232":-0.1396982219718419,"233":-0.20407200790261334,"234":0.3402482922452166,"235":0.028664905545394748,"236":-0.5010913325388406,"237":-0.8167415073191628,"238":1.3207026407681373,"239":0.3073079867826441,"240":7.506963477601894,"241":2.831088334809773,"242":-0.6535881420269654,"243":7.028885448358522,"244":-0.4022206254732306,"245":-0.8068561564396229,"246":1.0856106399753658,"247":0.6521853618789136,"248":0.29498932684645585,"249":0.5194900364255994,"250":-0.7056714241030089,"251":-0.3513255051832462,"252":-0.2580466683764935,"253":-0.3863876185395068,"254":0.6524298290471575,"255":0.08732435519356174,"256":0.35182747045741386,"257":0.5310316307110473,"258":-0.855525528713383,"259":-0.16800437023381815,"260":0.3859466148661278,"261":0.3080671230042041,"262":-0.9413659568012015,"263":0.7036785311161621,"264":0.1023575046990172,"265":0.35062826022195537,"266":-0.2968139628877801,"267":-0.5938158656388081,"268":-0.28070207704396066,"269":-0.4635425785784775,"270":0.6827877375699982,"271":0.199186718927822,"272":-0.13795491789447878,"273":-0.09136129289200808,"274":0.3073125885125193,"275":-0.22840111132808477,"276":-4.9476454956704625,"277":9.511989220963388,"278":-26.883426148273976,"279":-11.931356176301813,"280":-0.0665140851007384,"281":-0.2555518700928641,"282":0.19745004709994232,"283":0.39659865080969203,"284":-0.3869110223728637,"285":-0.9343819486560407,"286":1.0828046992349218,"287":1.107971195811294,"288":-0.1438384465976461,"289":-0.7222267745304277,"290":0.17298250285116895,"291":1.703352343444158,"292":-0.6738512534008915,"293":-0.7501148946310013,"294":1.4520993704432885,"295":-0.3939351741405773,"296":1.0637548925441618,"297":1.9033247245168015,"298":-1.4009847425231798,"299":-2.1931397442299483,"300":0.1793255588588675,"301":0.34307419626603236,"302":-0.5087001651466301,"303":-0.2521824511947274,"304":0.22486757378789635,"305":0.3925950226657382,"306":-0.5879212381587027,"307":-0.20522876105978793,"308":-0.1548102254788471,"309":-0.44760796073259146,"310":0.4009060092410646,"311":0.6825817400490785,"312":0.13587262495061797,"313":0.2559992268681911,"314":-0.30172699576465417,"315":-0.18486578353138736,"316":0.3439651737730481,"317":0.7156230626233684,"318":-0.9589123470702721,"319":-0.5840325857429075,"320":0.2649496164700366,"321":0.36326604158928794,"322":-0.636396211929126,"323":-0.04458628248933414,"324":-0.10748185600309795,"325":-0.4279791754920235,"326":0.24582331725346204,"327":0.7655218504572892,"328":-0.3328485520083662,"329":-0.22969131847229013,"330":0.8922047729244048,"331":-0.749412236726206,"332":-0.5686547119150068,"333":-0.6416042877455682,"334":1.253103735921384,"335":-0.3107906582758417,"336":-0.4053186462094143,"337":-1.0281374692072167,"338":1.1358991779446364,"339":1.2672559430237307,"340":-0.0365800148948747,"341":-0.0673375898459641,"342":0.08428330464580341,"343":0.018479299655058335,"344":-0.1847321144289435,"345":-0.45762920907800647,"346":0.5423840978730738,"347":0.48904671847907777,"348":-0.641000565870209,"349":-0.6082891486250288,"350":1.5327570883435195,"351":-0.7764702563081606,"352":0.9588264569192152,"353":1.3478666065193674,"354":-2.57053914021936,"355":0.27522355610510507,"356":0.2329077209984339,"357":0.5808803504303262,"358":-0.6458328284996299,"359":-0.7399835120222851,"360":0.12073331062443234,"361":0.1274464776424257,"362":-0.29794307892046273,"363":0.12602641017721855,"364":0.16988776160122285,"365":0.20279710048924002,"366":-0.39624436653823647,"367":0.05155558208597047,"368":0.10198777264810703,"369":0.19076438823010142,"370":-0.30828556944701563,"371":-0.10461603968020534,"372":-6.331829341262198,"373":-4.127778192096449,"374":18.891143819905057,"375":-19.16819156178347,"376":-0.20487830664257414,"377":-0.6605659425014081,"378":0.47637162448330844,"379":1.1857303257690686,"380":0.15366047528014368,"381":0.1269280550965782,"382":-0.42680648485225736,"383":0.27964672247191763,"384":-0.32859018548177,"385":-0.2889334640845667,"386":0.7924861171011488,"387":-0.4556677993415296,"388":-0.06948739673851523,"389":-0.1853500643236667,"390":0.18330091921840602,"391":0.31370909969895777,"392":-0.21794065177616803,"393":-0.202699787344932,"394":0.49982140307703166,"395":-0.2844383593902616,"396":0.05731375476930532,"397":0.1328278478809348,"398":-0.1439795773347319,"399":-0.11668901127743128}},"b1":{"n":100,"d":1,"w":{"0":-0.031512103060181144,"1":2.6778095925324927,"2":0.05744698184213188,"3":0.023847642800011195,"4":0.04021662241574508,"5":-0.02282301762560479,"6":-0.061868033228273916,"7":0.23655992137582935,"8":-0.011729315620763833,"9":0.10106315784353048,"10":0.04748493174264944,"11":-0.0773556469143888,"12":0.11490531742432206,"13":0.034598031667268596,"14":-0.042676305959669286,"15":-3.3979149010087264,"16":-0.0744460513488513,"17":-0.17013068400449713,"18":-0.0211158477233066,"19":0.05349564739259099,"20":0.0009120302635584356,"21":2.3611725941791257,"22":0.13689192891554125,"23":0.14594559760766532,"24":-0.12416110367522437,"25":0.16065713286827982,"26":0.3325171198239853,"27":-0.11920338873385723,"28":-0.12374699446633046,"29":-0.01839440764541297,"30":-0.04285469281495771,"31":-0.044276528653535416,"32":0.031063240312005462,"33":0.012503190356158699,"34":0.06405453432699755,"35":0.019010699805939786,"36":0.13756059600125697,"37":0.18957641780320503,"38":-0.04986843213982945,"39":0.03522328185931261,"40":0.033074776473422954,"41":0.009972113149572272,"42":0.08902264579615751,"43":-0.03840722013807938,"44":-0.0005404536819010387,"45":0.11978254212119993,"46":-0.015234280382338651,"47":0.0021621525025575976,"48":-0.04678910676836109,"49":0.17807628422752145,"50":-0.07039583878243522,"51":-0.017110632011622332,"52":-0.012871039785639145,"53":-0.01854853811102512,"54":-0.18059799895935533,"55":0.049413801779204,"56":0.04558014004496586,"57":-0.11920430898798824,"58":-0.039512420622276626,"59":-0.14049529539983785,"60":-3.722519735149136,"61":-0.08681399615095536,"62":0.05842884770054828,"63":-0.07397712030033879,"64":0.09138148092464067,"65":0.1664485644171052,"66":-0.009269774177809017,"67":-0.06769269824271391,"68":-0.055278810194895694,"69":2.5696715701642106,"70":0.006680066476936966,"71":-0.0539333173549892,"72":0.12144496279942843,"73":-0.18830487840397658,"74":-0.025156877752757784,"75":0.04525741512316637,"76":0.05731664268925288,"77":0.004268716363316858,"78":0.020978458553159284,"79":0.07660533860249348,"80":0.07431672239581447,"81":0.032277232989885114,"82":-0.1685731746287607,"83":-0.1656084519539149,"84":-0.04908486991859209,"85":-0.008493750486363312,"86":-0.031001559816642484,"87":-0.23084435733779846,"88":0.3055178388698101,"89":0.02411160641588546,"90":0.04683762816301104,"91":0.05232483895239885,"92":0.03175807542903845,"93":-1.3771953757159867,"94":0.036111736766119874,"95":0.07672981799746442,"96":-0.13126916967615843,"97":0.0017730721361160567,"98":-0.08242325081723584,"99":0.008247923649224376}},"W2":{"n":3,"d":100,"w":{"0":0.01099513438704557,"1":-0.6365422823096619,"2":-0.056951853125232474,"3":0.11544264909379762,"4":-0.032326349801359636,"5":-0.0661358863917706,"6":0.01603440033540584,"7":-0.6495531062743984,"8":-0.07560007707749898,"9":0.003026017815318875,"10":0.011594386587514358,"11":0.03279866619814376,"12":-0.0960436792244394,"13":-0.015038929238424316,"14":0.02480383176138361,"15":0.3354302239507586,"16":-0.06957596144624854,"17":0.006208913020058103,"18":0.025322435624809878,"19":-0.00573025581060222,"20":0.022450981448385008,"21":-0.6289637499676325,"22":-0.00269702163710784,"23":0.015533690242991543,"24":0.06306217563566827,"25":0.5943251032667276,"26":1.0724652621157047,"27":0.0347575905061399,"28":0.10281716266338471,"29":0.023383172728511013,"30":-0.09638621032876203,"31":0.032601939841651405,"32":0.03936507767396445,"33":-0.006551711572495361,"34":-0.05425205131829009,"35":0.0013939666336357335,"36":0.1034013688218482,"37":0.013271133809809824,"38":0.08551649952952745,"39":0.10063263803410646,"40":-0.017886662278819142,"41":-0.0006171285311953355,"42":-0.09639835876570463,"43":0.018246058944302906,"44":0.0824690724653409,"45":0.054801787888579374,"46":-0.017215953021098716,"47":0.006513582511196743,"48":-0.024779617050352417,"49":-0.09834174713970704,"50":-0.028382945798442968,"51":0.06008937229572733,"52":0.019577722702144723,"53":0.06899372790289446,"54":-0.0730182681509191,"55":0.011411031824025884,"56":-0.010749566558236594,"57":0.08673204952508153,"58":0.007911680218051616,"59":0.05739017287781925,"60":0.802109434604067,"61":0.08813037026393473,"62":-0.04331698840029645,"63":0.020462716614425155,"64":-0.02936087724269285,"65":0.046641717910954145,"66":-0.06378118163134859,"67":0.028912584030685008,"68":-0.018069900634427392,"69":1.4456910712503608,"70":0.042045216000101485,"71":0.13494433347208126,"72":0.13473888419263017,"73":-0.02730540976372577,"74":-0.1752573038698459,"75":-0.03785072724531328,"76":-0.0316222297278751,"77":0.07188430542974397,"78":-0.018995871443516863,"79":-0.0800729138577988,"80":-0.013917451250084877,"81":0.07202294606716601,"82":-0.04481918977747906,"83":-0.01904534582218348,"84":0.1513294275635887,"85":0.002135713287218067,"86":0.0614539389811743,"87":-0.04346686964857687,"88":-0.012920419125098493,"89":-0.08654443361369944,"90":0.006827990350747747,"91":-0.00032987511502632807,"92":-0.019586412590217775,"93":0.09520219864972368,"94":0.11479232389222913,"95":0.01460802262658291,"96":-0.028959601446070106,"97":0.0340816908360467,"98":-0.02109989199754704,"99":-0.01293651993697885,"100":-0.019442564031724573,"101":1.159431740432509,"102":0.03089727844777075,"103":0.01965707797397232,"104":0.022541044451559633,"105":-0.01723897292805156,"106":-0.03724181229772586,"107":0.5623578160595786,"108":-0.010478146682412742,"109":0.06545111212697187,"110":0.028623722663410935,"111":-0.04646334315607577,"112":0.0623596286626232,"113":0.020585409994082243,"114":-0.02555119891498378,"115":-1.717290040566687,"116":-0.04989086998345431,"117":-0.11517958685332033,"118":-0.011287342857487196,"119":0.03215480332560287,"120":0.001904671539891099,"121":-1.3636610541470366,"122":0.09062360110460708,"123":0.10444776417279976,"124":-0.07163213738127622,"125":0.25053635629598264,"126":0.05015778355529793,"127":-0.07367080797369065,"128":-0.06720018443202011,"129":-0.010201417110691821,"130":-0.029276171403154222,"131":-0.027375929550836835,"132":0.019798905237598738,"133":0.007606808052865154,"134":0.03674213922761025,"135":0.01205324457723042,"136":0.09225230730153859,"137":0.1500485888907631,"138":-0.021865504970864157,"139":0.02583802847929071,"140":0.02070184307739856,"141":0.006623973342535741,"142":0.0471772433491094,"143":-0.0237223773752996,"144":0.003935822061120209,"145":0.07957233192026902,"146":-0.0096774518290192,"147":0.0011214129006561326,"148":-0.029129513057809052,"149":0.09853437448542238,"150":-0.04549686823943834,"151":-0.007457825508263977,"152":-0.0070918546606551554,"153":-0.007464718304343264,"154":-0.126429899457694,"155":0.0316850253188508,"156":0.026975618864249807,"157":-0.06685314958819047,"158":-0.024289434297983453,"159":-0.08535688132042492,"160":-1.10110288217038,"161":-0.04792719825970971,"162":0.03538643676352526,"163":-0.04494703239484548,"164":0.05669808783442,"165":0.11839673037106999,"166":-0.008798478622559846,"167":-0.04168343064077645,"168":-0.03547786505677735,"169":-1.5329191883105755,"170":0.005684255684515623,"171":-0.0232971648686035,"172":0.07879679213806987,"173":-0.15256068447400628,"174":0.007363383838705353,"175":0.024851045438519553,"176":0.0336652304077486,"177":0.005307247162079279,"178":0.013555308178346534,"179":0.04170795346073867,"180":0.04619775879233773,"181":0.020957358115266257,"182":-0.1144790085504737,"183":-0.12375325860851884,"184":-0.018934835302028045,"185":-0.005539454677020681,"186":-0.01516240906970105,"187":-0.18628792887973905,"188":0.25386643906559997,"189":0.009811624538062598,"190":0.02916776508699784,"191":0.03284147493904571,"192":0.017462698050007733,"193":3.2863068751601703,"194":0.026330847671307854,"195":0.046911855290200644,"196":-0.08811018570127731,"197":0.0026486611581218377,"198":-0.05404333444427241,"199":0.004923339910039739,"200":-0.002163800970595106,"201":0.016472561603115794,"202":-0.019676429101837797,"203":0.017976719500667888,"204":-0.008996306094890215,"205":-0.014699252395181772,"206":0.00236113448283827,"207":0.05463594368069979,"208":-0.014807425081726071,"209":0.009600118356308099,"210":-0.0016647418326698066,"211":0.0038650038761868645,"212":-0.03879524425962414,"213":-0.0015552191475826445,"214":0.0013495477497153193,"215":-0.015387394644372868,"216":-0.010861894688919542,"217":-0.007851893945160178,"218":0.007511401692998024,"219":-0.0018694925879379353,"220":0.006991112781493428,"221":-0.029823776067500442,"222":0.01015618515162232,"223":0.02846500492620531,"224":0.024632118121140346,"225":-0.40837870814661226,"226":0.28155089432623476,"227":0.0036164342002290464,"228":0.041786709195340374,"229":0.0044667787566102166,"230":-0.00865805748598772,"231":-0.003381997644086709,"232":0.0037048448528865666,"233":0.0006137840937304785,"234":-0.010356499731031686,"235":0.0033108729476243955,"236":-0.01091206410171009,"237":0.043972489384902995,"238":0.04127420336569553,"239":0.014526718290150478,"240":0.004037140514602505,"241":0.0033283316314102283,"242":-0.034013053441158396,"243":-0.0028082264529501267,"244":0.019409935298307562,"245":0.0055193526500415015,"246":-0.0023365514897565483,"247":-0.0007824740761927161,"248":-0.0025376092985410987,"249":-0.058078652136564254,"250":-0.008790234432748668,"251":0.014355745349653008,"252":0.0033097109032667557,"253":0.018245825026321612,"254":0.007654658732413848,"255":0.0077536038725840375,"256":-0.0034369511009011144,"257":0.030763417967864363,"258":-0.0019741256527351335,"259":0.013203304251466997,"260":0.01835616676012581,"261":0.02412276439535463,"262":0.000024682051333901894,"263":0.0013834911266515293,"264":0.001967424087249705,"265":0.012487436213063948,"266":-0.014771029115742811,"267":-0.0024464280554867272,"268":-0.007861090549618935,"269":-0.11864895906564052,"270":0.007667332223647616,"271":0.04384396097779048,"272":-0.02032490819522695,"273":-0.04723395993988658,"274":0.09651302326489274,"275":-0.01304982986359059,"276":-0.005516550927302449,"277":0.01225081991847782,"278":0.005312662162335897,"279":-0.023750777282157694,"280":0.003227212414247176,"281":0.0037289428364209753,"282":0.001491824883475199,"283":-0.034634511692785135,"284":0.04883257109913511,"285":-0.002433488765042028,"286":0.01774332104208273,"287":-0.019039749344067387,"288":0.006709714184289054,"289":-0.022934886875117983,"290":0.0033973968151640144,"291":0.004947999735272887,"292":-0.009069908598898103,"293":-0.012149165362925563,"294":0.012763996322293502,"295":-0.002210469248342594,"296":-0.010715641348010159,"297":0.008038352967306829,"298":-0.012599604582601289,"299":0.00008660110866953014}},"b2":{"n":3,"d":1,"w":{"0":1.5517276837507599,"1":-4.253097268135833,"2":0.24505651216041016}}}}}