{"numStates":1,"sensitivity":12.504906488122336,"alpha":0.09953952737824315,"gamma":0.7407861944033538,"epsilon":0.4616028246676296,"cycles":3156,"max":{"lastUpdatedDate":"2018-03-13T09:42:02.814Z","meetsCriterion":false,"cycles":1248,"wealth":4.280191080679745,"percentSuccess":0.42926644210295173,"odds":1.5,"weights":{"nh":100,"ns":4,"na":3,"net":{"W1":{"n":100,"d":4,"w":{"0":-0.001347980931888928,"1":0.0020039731392364007,"2":0.0006839502914908643,"3":0.0006784517655028204,"4":0.0032459112547085864,"5":-0.004825527433580952,"6":-0.001646938689034333,"7":-0.001633698347896723,"8":0.0065798418817197965,"9":-0.009781908689793633,"10":-0.0033385374128632813,"11":-0.003311697692291164,"12":-0.00022302118689773257,"13":0.0003315539986144308,"14":0.00011315842989977046,"15":0.00011224870798673747,"16":-0.0004415059219200852,"17":0.0006563638901790912,"18":0.0002240151153837931,"19":0.00022221417612107067,"20":0.004425234960501732,"21":-0.006578766647098433,"22":-0.002245314209972724,"23":-0.0022272633096612703,"24":-4.408884191664619,"25":18.970517242757563,"26":28.435247895676856,"27":-96.36904074225286,"28":-0.0009350339102620318,"29":0.0013900662806964087,"30":0.000474425639375688,"31":0.0004706115585279906,"32":-0.03291241389563463,"33":0.04892917386663003,"34":0.0166993868691678,"35":0.016565134407396757,"36":0.006076216157453433,"37":-0.00903319452049958,"38":-0.003083003411781104,"39":-0.0030582180222903693,"40":0.0045757783680787315,"41":-0.006802571700964055,"42":-0.002321698233705964,"43":-0.00230303325435365,"44":0.010313433792092302,"45":-0.01533244558838975,"46":-0.0052329197553084,"47":-0.0051908504038432265,"48":-0.0016923923616475505,"49":0.00251599169807067,"50":0.0008587007588034121,"51":0.0008517973500369497,"52":0.00008373088609981636,"53":-0.00012447835329050665,"54":-0.000042484105375676496,"55":-0.000042142560148775844,"56":0.010346215775573044,"57":-0.015381180858147398,"58":-0.005249552963261073,"59":-0.005207349891368005,"60":0.0038686162795469304,"61":-0.00575127060539954,"62":-0.0019628921815305553,"63":-0.001947111774967699,"64":0.008398187311467357,"65":-0.012485148262985926,"66":-0.004261145335018726,"67":-0.004226888432701019,"68":1.234017798307795,"69":7.5373724395925965,"70":-0.1778756852601189,"71":-18.41433768581845,"72":0.012614151433527562,"73":-0.018752802839077154,"74":-0.006400277886404824,"75":-0.006348823717004809,"76":0.004167580281479776,"77":-0.006195724837128835,"78":-0.002114583137558595,"79":-0.0020975832320448014,"80":-0.0006809457181560861,"81":0.0010123265813195784,"82":0.00034550416211731735,"83":0.0003427265280727412,"84":0.00855080843532884,"85":-0.012712042149579252,"86":-0.004338583568512894,"87":-0.004303704111979779,"88":0.016236257933238917,"89":-0.0241376001760333,"90":-0.008238093791248754,"91":-0.008171864749330026,"92":0.006466116890518324,"93":-0.009612839660527332,"94":-0.0032808346375194646,"95":-0.003254458810614484,"96":-0.005755803870628553,"97":0.008556854239209011,"98":0.0029204298383844877,"99":0.0028969514371753745,"100":0.004551903102539324,"101":-0.006767077585505376,"102":-0.00230958419378252,"103":-0.0022910166036177373,"104":-0.016751098224715832,"105":0.024902986459031128,"106":0.008499317936971632,"107":0.008430988818856231,"108":0.010793401947267132,"109":-0.016045989280192283,"110":-0.005476450173176761,"111":-0.005432422991825678,"112":-0.015735428200938317,"113":0.023393042662628368,"114":0.007983978444917914,"115":0.007919792328966349,"116":-0.0017451768309988903,"117":0.0025944636231895733,"118":0.000885483002042132,"119":0.0008783642810486141,"120":0.0007383130875679024,"121":-0.001097611665589142,"122":-0.0003746117170560107,"123":-0.0003716000767550488,"124":-0.004383443919025895,"125":0.0065166380794041,"126":0.0022241099078029046,"127":0.0022062294766144828,"128":0.011268410214364097,"129":-0.016752159364363698,"130":-0.005717463999884481,"131":-0.0056714992204435774,"132":-0.005224079599243155,"133":0.007766367421394192,"134":0.002650638952031036,"135":0.0026293294982077343,"136":-0.005049698306137273,"137":0.007507123822987733,"138":0.0025621598545695306,"139":0.0025415617164981537,"140":-0.006364873269165111,"141":0.00946232603462346,"142":0.003229464768186223,"143":0.00320350192240619,"144":0.0015533037122732556,"145":-0.002309215837430068,"146":-0.0007881287499329056,"147":-0.0007817926952995729,"148":0.005929823973036426,"149":-0.00881556087419088,"150":-0.0030087256717673846,"151":-0.002984537428133214,"152":1.0333774272777554,"153":1.1852096843531827,"154":1.9952740540871372,"155":-2.7786379038858335,"156":0.001061374699314032,"157":-0.0015778905604474196,"158":-0.0005385295279805494,"159":-0.000534200092578856,"160":0.0035473202252352507,"161":-0.005273616472949997,"162":-0.0017998701944969147,"163":-0.0017854003811783924,"164":0.0007159746830620599,"165":-0.0010644023214922964,"166":-0.00036327746305302584,"167":-0.00036035694295620687,"168":-0.010617254416928897,"169":0.015784119908767463,"170":0.0053870749069071504,"171":0.005343766245931844,"172":-0.010885500606944175,"173":0.016182907567222907,"174":0.005523179992300003,"175":0.005478777132882876,"176":0.0007054772381871626,"177":-0.0010487963161978041,"178":-0.00035795117815369987,"179":-0.0003550734780049245,"180":-0.0016697706241749115,"181":0.002482361137589093,"182":0.0008472227448549836,"183":0.0008404116120313003,"184":0.008723941214650734,"185":-0.012969429647476967,"186":-0.004426429184187765,"187":-0.004390843504696327,"188":-0.010361359112593319,"189":0.015403693669647769,"190":0.005257236521331962,"191":0.005214971678512098,"192":-0.008202723472775994,"193":0.01219456234062397,"194":0.00416196919218012,"195":0.004128509603063327,"196":0.00020312790742969431,"197":-0.0003019796947335827,"198":-0.00010306480470893805,"199":-0.00010223622913229345,"200":-0.006495454905011547,"201":0.009656454960722689,"202":0.0032957204145280805,"203":0.0032692249154298502,"204":0.007602794113652378,"205":-0.011302678566414674,"206":-0.003857571815089702,"207":-0.003826559387560857,"208":0.005685093421791071,"209":-0.0084517326927694,"210":-0.002884552155734095,"211":-0.0028613621883077887,"212":-0.0026453261299308733,"213":0.003932668766663938,"214":0.0013422085838542348,"215":0.0013314180792363163,"216":-0.0021021927405974242,"217":0.003125220606607814,"218":0.0010666288399838303,"219":0.0010580538214936305,"220":0.0006147527933813429,"221":-0.0009139210029333817,"222":-0.0003119186201238676,"223":-0.00030941099250779734,"224":0.0048992650740405,"225":-0.007283482561278487,"226":-0.002485831732629954,"227":-0.002465847224184392,"228":-6.977907607458176,"229":-7.8198992266984435,"230":11.984514757955099,"231":2.2514477836922415,"232":0.0029859762455180685,"233":-0.00443909557535495,"234":-0.001515050602861868,"235":-0.0015028705581783962,"236":0.014215245815019635,"237":-0.021133066578549048,"238":-0.0072126550817567196,"239":-0.007154669915703972,"240":0.0017091942695083736,"241":-0.0025409702205738374,"242":-0.0008672258569759007,"243":-0.0008602539118341649,"244":-0.00032088811640512406,"245":0.00047704767238441174,"246":0.00016281500395094514,"247":0.00016150607471786905,"248":0.005781914695689707,"249":-0.008595671844731508,"250":-0.002933678175945415,"251":-0.0029100932665159897,"252":0.01120016010764786,"253":-0.01665069548058971,"254":-0.005682834667023895,"255":-0.0056371482854245866,"256":0.0033977593972212058,"257":-0.0050512721690133084,"258":-0.0017239847205296087,"259":-0.0017101249782287599,"260":-0.0019843835295627363,"261":0.0029500797801445635,"262":0.0010068537776508212,"263":0.000998759312700401,"264":-0.005996825918719123,"265":0.008915169181880218,"266":0.0030427217018262837,"267":0.00301826015170099,"268":-0.006773615080699183,"269":0.010069981226033684,"270":0.003436855744218812,"271":0.0034092256067039172,"272":0.0007490004425432302,"273":-0.0011135000003522101,"274":-0.00038003436019414633,"275":-0.0003769791252860923,"276":-0.026747981995258147,"277":0.03976483359252257,"278":0.013571623787602252,"279":0.01346251655308706,"280":0.004259953645171037,"281":-0.006333051512334838,"282":-0.0021614523383963148,"283":-0.002144075634273347,"284":0.013715878765561856,"285":-0.020390683559631525,"286":-0.006959281884163682,"287":-0.006903333677682099,"288":-0.0013538232039072087,"289":0.002012658541173357,"290":0.0006869145942901948,"291":0.0006813922371902049,"292":0.0018776478037098973,"293":-0.0027914013281385075,"294":-0.000952697276559126,"295":-0.0009450381954842837,"296":-0.007248032786986309,"297":0.010775273354185677,"298":0.003677569927053474,"299":0.003648004600385143,"300":-0.004056200103552654,"301":0.006030141719795787,"302":0.0020580700939710496,"303":0.002041524517437534,"304":-0.01472653568559221,"305":0.0218931746354743,"306":0.007472077784043008,"307":0.007412007024245723,"308":-0.0006420347501942505,"309":0.0009544796691173817,"310":0.0003257611767010493,"311":0.00032314226372106295,"312":0.003721095021611653,"313":-0.005531958424215629,"314":-0.0018880415623724201,"315":-0.0018728629072516446,"316":-0.005623311603018337,"317":0.008359884876243603,"318":0.0028532047590772054,"319":0.002830266804811752,"320":0.0023652275015611885,"321":-0.003516260704569281,"322":-0.0012000897051764358,"323":-0.001190441746087287,"324":0.016341821374060407,"325":-0.02429453585284161,"326":-0.008291655488157116,"327":-0.008224995844218295,"328":-0.008744671511506664,"329":0.013000248301572285,"330":0.0044369475025419075,"331":0.004401277262450988,"332":0.013568018582773964,"333":-0.02017086751651158,"334":-0.006884259298371389,"335":-0.006828914225827167,"336":0.004850573659044796,"337":-0.007211095567179731,"338":-0.002461126258916449,"339":-0.0024413403667895733,"340":-0.004694390779733222,"341":0.0069789066040110434,"342":0.002381880830956124,"343":0.0023627320217426816,"344":-0.006303653783288807,"345":0.0093713142091666,"346":0.00319840269288625,"347":0.0031726895664643683,"348":-0.0003266105566279888,"349":0.00048555492662385585,"350":0.0001657185054515038,"351":0.00016438623391029397,"352":0.0013440947839638128,"353":-0.001998195805245441,"354":-0.000681978503950478,"355":-0.0006764958298820379,"356":0.0020404495255946877,"357":-0.0030334301802980848,"358":-0.0010353010304431707,"359":-0.0010269778676463628,"360":-0.0028984586066850477,"361":0.004308987653735744,"362":0.0014706451419430984,"363":0.0014588220889647265,"364":0.009742416616687805,"365":-0.01448354405392482,"366":-0.0049431920935091465,"367":-0.004903451968431332,"368":0.0059435833353246,"369":-0.008836016202442036,"370":-0.0030157070166995435,"371":-0.0029914626474860065,"372":0.013539844615833439,"373":-0.020128982745269544,"374":-0.006869964145937162,"375":-0.00681473399733874,"376":0.0018958725115954553,"377":-0.0028184950534346806,"378":-0.0009619442873852847,"379":-0.0009542108662159136,"380":0.003017339509694704,"381":-0.004485721708916416,"382":-0.001530963968673056,"383":-0.0015186559906345666,"384":0.014115488096586717,"385":-0.020984761967240244,"386":-0.007162039142776995,"387":-0.007104460896723064,"388":-0.005819113118340513,"389":0.008650972804893051,"390":0.002952552235223919,"391":0.0029288155903444985,"392":-0.0006648827377787394,"393":0.0009884465838724725,"394":0.0003373539873994033,"395":0.0003346418755836458,"396":-0.0017964770438626714,"397":0.0026707289813886303,"398":0.0009115121503124335,"399":0.0009041841714971793}},"b1":{"n":100,"d":1,"w":{"0":0.0000015539454358615695,"1":-0.0000037418696814185335,"2":-0.000007585207643238258,"3":2.570976690190598e-7,"4":5.089657398157631e-7,"5":-0.000005101387941588779,"6":-15.811122032800801,"7":0.0000010779022483439832,"8":0.00003794126090420457,"9":-0.000007004630515968858,"10":-0.000005274933602200534,"11":-0.00001188927307253786,"12":0.0000019509811481033036,"13":-9.652453177478197e-8,"14":-0.000011927063973442537,"15":-0.000004459720808915053,"16":-0.000009681386841314442,"17":-1.5628093134060674,"18":-0.00001454152846857522,"19":-0.000004804364961991299,"20":7.849906966345433e-7,"21":-0.000009857327682968364,"22":-0.00001871707412060404,"23":-0.00000745410606219975,"24":0.000006635260890842374,"25":-0.000005247410319716743,"26":0.00001931057934936437,"27":-0.00001244257787851846,"28":0.00001813972019247025,"29":0.000002011830810954646,"30":-8.51123502938621e-7,"31":0.000005053211445402261,"32":-0.00001299016495149506,"33":0.000006022291904171377,"34":0.000005821266052504342,"35":0.000007337392939731417,"36":-0.0000017906404735499194,"37":-0.0000068358703637493084,"38":-0.8131730548245844,"39":-0.0000012235472555291358,"40":-0.000004089332381553711,"41":-8.253719059330721e-7,"42":0.000012239515916922952,"43":0.000012548748736919022,"44":-8.132705058595076e-7,"45":0.000001924902926314507,"46":-0.000010056914254859857,"47":0.000011944521134016263,"48":0.000009456057139822109,"49":-2.3416479949386157e-7,"50":0.000007487926773416528,"51":-0.000008764461680194118,"52":-0.000006553746251513408,"53":0.000003049518260295083,"54":0.000002423396902284009,"55":-7.086838358297651e-7,"56":-0.000005647847401586531,"57":-0.08114793256719738,"58":-0.0000034422179491337076,"59":-0.00001638726179377076,"60":-0.0000019703503004537153,"61":3.699181584100775e-7,"62":-0.0000066653613147221665,"63":-0.000012911486581505974,"64":-0.000003916919433630809,"65":0.0000022875870540243147,"66":0.000006913109859804953,"67":0.000007808588383748528,"68":-8.634438303914234e-7,"69":0.000030834935439837275,"70":-0.000004910852497236371,"71":-0.000015811594040465593,"72":0.0000015606803767846965,"73":-0.0000021645426621264723,"74":0.00000835549465934951,"75":0.0000046759664697172,"76":0.000016976674113965652,"77":7.40134334323225e-7,"78":-0.000004289659066787065,"79":0.000006482524490760684,"80":-0.000002726622012294116,"81":-0.000018838767109842057,"82":0.000010080812033733568,"83":-0.00001564114158614758,"84":-0.0000055917161905393955,"85":0.0000054116693760815024,"86":0.000007266819433392196,"87":3.7651495785871e-7,"88":-0.0000015494655046620288,"89":-0.00000235221964385413,"90":0.000003341328068391571,"91":-0.00001123100742740442,"92":-0.000006851732085371004,"93":-0.000015608662782740424,"94":-0.0000021855520109784116,"95":-0.0000034783733576219672,"96":-0.000016272261611549612,"97":0.000006708243463730986,"98":7.66473376061211e-7,"99":0.0000020709694306242193}},"W2":{"n":3,"d":100,"w":{"0":0.0000012476167965722259,"1":-0.000003004236414549999,"2":-0.000006089938705794869,"3":2.0641610884911187e-7,"4":4.0863352807127217e-7,"5":-0.00000409575338588702,"6":0.6415254364738728,"7":8.654158113121319e-7,"8":0.0000304619149997971,"9":-0.00000562381051495061,"10":-0.000004235088060070392,"11":-0.000009545545437858561,"12":0.00000156638501839488,"13":-7.749668961785293e-8,"14":-0.000009575886633557945,"15":-0.0000035805778375139026,"16":-0.000007772898937621016,"17":0.564223913783445,"18":-0.000011674962783616016,"19":-0.000003857282427041575,"20":6.302457960812944e-7,"21":-0.00000791415663148846,"22":-0.000015027384774445687,"23":-0.000005984681126901599,"24":0.000005327254575935434,"25":-0.000004212990431227169,"26":0.00001550389255141282,"27":-0.000009989777488062767,"28":0.000014563844398347823,"29":0.000001615239411661037,"30":-6.833418688531946e-7,"31":0.0000040570739030631535,"32":-0.000010429418939495033,"33":0.000004835119919817897,"34":0.00000467372221365426,"35":0.0000058909756154854026,"36":-0.0000014376522365935124,"37":-0.000005488317983910584,"38":-0.13696199194358077,"39":-9.823498767610034e-7,"40":-0.0000032832039321334065,"41":-6.626666738178935e-7,"42":0.000009826745049975667,"43":0.000010075018927458914,"44":-6.529508178761875e-7,"45":0.0000015454475859928801,"46":-0.000008074398782247928,"47":0.000009589902471027155,"48":0.000007591988390072751,"49":-1.8800398667736385e-7,"50":0.000006011834774861695,"51":-0.000007036726866677268,"52":-0.00000526180888481083,"53":0.0000024483679509918804,"54":0.0000019456736447685786,"55":-5.689812760804604e-7,"56":-0.000004534489511815067,"57":0.7067731511406965,"58":-0.000002763654907910063,"59":-0.00001315684743070568,"60":-0.0000015819359375261623,"61":2.96996340507484e-7,"62":-0.0000053514213153552164,"63":-0.000010366250405261207,"64":-0.000003144778679406668,"65":0.0000018366359373323668,"66":0.000005550331289069268,"67":0.000006269284490427818,"68":-6.932334951086276e-7,"69":0.0000247564567991703,"70":-0.000003942778117221038,"71":-0.00001269466083349269,"72":0.0000012530240812971522,"73":-0.0000017378472369705549,"74":0.000006708379350961279,"75":0.0000037541950780133854,"76":0.000013630069133583922,"77":5.942319504461424e-7,"78":-0.000003444040298346967,"79":0.000005204627041189955,"80":-0.00000218912411065948,"81":-0.000015125088472733065,"82":0.000008093585601554616,"83":-0.00001255780960389295,"84":-0.00000448942342388106,"85":0.0000043448691657187536,"86":0.000005834314236168378,"87":3.0229271553112925e-7,"88":-0.0000012440199924111493,"89":-0.0000018885275306892264,"90":0.00000268265340883015,"91":-0.000009017043436700441,"92":-0.000005501052890697422,"93":-0.000012531733334106407,"94":-0.000001754715021324465,"95":-0.000002792683015248736,"96":-0.000013064517188879345,"97":0.000005385850123521394,"98":6.15378787471128e-7,"99":0.0000016627200589948164,"100":9.999142366057566e-7,"101":-0.000002407773579842517,"102":-0.000004880838751186142,"103":1.6543413528604643e-7,"104":3.2750319120952516e-7,"105":-0.0000032825801400623303,"106":0.14972980253043242,"107":6.935956558983059e-7,"108":0.000024413988303641753,"109":-0.000004507255921602431,"110":-0.0000033942512273682633,"111":-0.0000076503673142237,"112":0.0000012553940313799078,"113":-6.211045206665341e-8,"114":-0.000007674684551265484,"115":-0.0000028696878432302183,"116":-0.000006229663081632522,"117":0.745660132531111,"118":-0.000009357008896959987,"119":-0.0000030914553434185455,"120":5.051164314312603e-7,"121":-0.000006342875390853893,"122":-0.000012043839057044631,"123":-0.000004796479073046183,"124":0.0000042695783705873325,"125":-0.0000033765408745525916,"126":0.000012425740698870449,"127":-0.000008006401274225036,"128":0.000011672330260371708,"129":0.0000012945488451631988,"130":-5.476707792219694e-7,"131":0.0000032515801041427756,"132":-0.00000835875605541295,"133":0.00000387515241421874,"134":0.000003745798702122251,"135":0.000004721377908196539,"136":-0.000001152219930502697,"137":-0.0000043986641562204335,"138":0.3226317423971922,"139":-7.873135643987113e-7,"140":-0.0000026313547250923904,"141":-5.311004493605996e-7,"142":0.000007875737391449093,"143":0.000008074718828537044,"144":-5.233135850730159e-7,"145":0.0000012386135289122158,"146":-0.000006471302971848962,"147":0.000007685917676188965,"148":0.000006084670619311468,"149":-1.50677566492982e-7,"150":0.000004818241619988618,"151":-0.000005639651041247642,"152":-0.000004217126304914384,"153":0.000001962267562550529,"154":0.000001559378474581238,"155":-4.560154046439305e-7,"156":-0.0000036342093415281905,"157":0.6994687710315439,"158":-0.000002214957264691506,"159":-0.00001054467929788334,"160":-0.0000012678574620359227,"161":2.3803051539402817e-7,"162":-0.000004288947031564346,"163":-0.000008308129038839041,"164":-0.0000025204125021296374,"165":0.0000014719891766226837,"166":0.000004448365303822112,"167":0.0000050245771197219785,"168":-5.555985162834951e-7,"169":0.000019841295296509503,"170":-0.000003159976669784366,"171":-0.000010174255498817085,"172":0.0000010042479558925492,"173":-0.000001392814041948721,"174":0.000005376493831898961,"175":0.000003008835016324417,"176":0.000010923947285973367,"177":4.762527955258968e-7,"178":-0.0000027602585461017204,"179":0.00000417129737765718,"180":-0.0000017544941442013232,"181":-0.000012122144605485055,"182":0.000006486680428909259,"183":-0.000010064574792576116,"184":-0.0000035980907007846533,"185":0.0000034822363287456515,"186":0.000004675966111980585,"187":2.4227534505838066e-7,"188":-9.970315440208855e-7,"189":-0.0000015135781830293844,"190":0.0000021500378500870623,"191":-0.000007226794408216974,"192":-0.000004408870667221118,"193":-0.000010043675720671286,"194":-0.0000014063328866431664,"195":-0.0000022382221148128856,"196":-0.000010470680356472056,"197":0.000004316540324218421,"198":4.932011273029254e-7,"199":0.000001332602657322881,"200":0.0000014173649818230273,"201":-0.000003412986666170609,"202":-0.000006918523289886097,"203":2.345006617168758e-7,"204":4.6423136869815056e-7,"205":-0.000004653013200482865,"206":0.49471704983003384,"207":9.831625135506886e-7,"208":0.000034606500839774784,"209":-0.000006388974652234783,"210":-0.000004811305464991875,"211":-0.00001084429279628274,"212":0.0000017795041548246062,"213":-8.804073043309754e-8,"214":-0.000010878762152939787,"215":-0.000004067743922406018,"216":-0.000008830463643648687,"217":0.13271402098228258,"218":-0.000013263434305820812,"219":-0.000004382096371518866,"220":7.159957478587391e-7,"221":-0.000008990940570024713,"222":-0.000017071979970367132,"223":-0.000006798944580418252,"224":0.000006052069919652632,"225":-0.000004786201278034783,"226":0.000017613320420346976,"227":-0.000011348966149514256,"228":0.000016545371239363752,"229":0.000001835005576746493,"230":-7.76315963509645e-7,"231":0.000004609071066460357,"232":-0.000011848424316573291,"233":0.000005492976430363103,"234":0.000005309619282936796,"235":0.000006692489689068957,"236":-0.0000016332562544722107,"237":-0.000006235047284974521,"238":-0.12577127094756607,"239":-0.0000011160063883726243,"240":-0.0000037299099326759413,"241":-7.528277437965097e-7,"242":0.000011163751851781679,"243":0.00001144580536460489,"244":-7.41789968401317e-7,"245":0.0000017557180182641717,"246":-0.000009172984939618495,"247":0.000010894684956550025,"248":0.000008624938777536443,"249":-2.1358342392472118e-7,"250":0.000006829792698097404,"251":-0.000007994129508586452,"252":-0.000005977719821847769,"253":0.000002781487878275429,"254":0.0000022103980146343784,"255":-6.463957027839168e-7,"256":-0.000005151442864907981,"257":0.7614544853010252,"258":-0.000003139672132611413,"259":-0.000014946941144228811,"260":-0.0000017971709001515857,"261":3.3740505411525033e-7,"262":-0.000006079524736117519,"263":-0.000011776661200921711,"264":-0.0000035726508236528537,"265":0.0000020865248601108807,"266":0.000006305497993394634,"267":0.000007122270494595177,"268":-7.875534241667122e-7,"269":0.000028124769641606072,"270":-0.0000044792244301442,"271":-0.000014421870384732468,"272":0.000001423507970626135,"273":-0.000001974295171573653,"274":0.000007621107702429937,"275":0.000004264983168960186,"276":0.000015484548423321458,"277":6.750819321710803e-7,"278":-0.000003912629365374265,"279":0.000005912757933725713,"280":-0.000002486971852144693,"281":-0.000017182977033900998,"282":0.000009194782278256437,"283":-0.000014266399457003328,"284":-0.000005100245177366658,"285":0.000004936023162977806,"286":0.0000066281190785524544,"287":3.434220430732839e-7,"288":-0.0000014132788038547394,"289":-0.0000021454767173505312,"290":0.0000030476497355192434,"291":-0.000010243883895180633,"292":-0.000006249514877086294,"293":-0.000014236775303330276,"294":-0.0000019934579521075363,"295":-0.0000031726497447672996,"296":-0.000014842048638701652,"297":0.000006118637857408968,"298":6.991059645147467e-7,"299":0.0000018889463436801265}},"b2":{"n":3,"d":1,"w":{"0":1.8203539348664306,"1":1.3266106045480928,"2":1.5900782313409272}}}}},"weights":{"nh":100,"ns":4,"na":3,"net":{"W1":{"n":100,"d":4,"w":{"0":-0.0013632558062509164,"1":0.002037179049922185,"2":0.0006881323882551903,"3":0.0006778258276003975,"4":0.0032826928481475906,"5":-0.004905486605602804,"6":-0.0016570090948060086,"7":-0.0016321911018822534,"8":0.006654402474998352,"9":-0.009943995286609131,"10":-0.003358951303594811,"11":-0.003308642328245148,"12":-0.00022554838927086186,"13":0.00033704786090728924,"14":0.0001138503508031235,"15":0.00011214514760947109,"16":-0.0004465089210932187,"17":0.0006672398646561012,"18":0.00022538488289596833,"19":0.00022200916187794275,"20":0.004475380260357231,"21":-0.006687777059173927,"22":-0.0022590434552275146,"23":-0.002225208442090968,"24":-2.9207350613093235,"25":26.46134688456012,"26":32.02600358081741,"27":-118.84908977146223,"28":-0.0009456294054696946,"29":0.0014130997315251789,"30":0.00047732657231786923,"31":0.0004701773734810123,"32":-0.033285366485598225,"33":0.04973993212462966,"34":0.01680149729029228,"35":0.016549851451063052,"36":0.006145069830501297,"37":-0.009182874895227061,"38":-0.0031018548089613803,"39":-0.00305539651796216,"40":0.004627629576067317,"41":-0.006915290571243357,"42":-0.002335894538310861,"43":-0.002300908481620678,"44":0.010430302214681067,"45":-0.015586504791407494,"46":-0.005264917075967957,"47":-0.005186061338096099,"48":-0.001711569992490529,"49":0.0025576817756353884,"50":0.00086395138843203,"51":0.0008510114839314753,"52":0.0000846796968249407,"53":-0.00012654096431098443,"54":-0.00004274387957541011,"55":-0.00004210367952818335,"56":0.010463455672763527,"57":-0.015636047606430056,"58":-0.005281651989683159,"59":-0.005202545603234751,"60":0.003912454160496411,"61":-0.005846569376777869,"62":-0.001974894523139341,"63":-0.0019453153745060117,"64":0.0084933527940765,"65":-0.012692027641710018,"66":-0.004287200623462842,"67":-0.0042229887159252995,"68":1.3566961875735735,"69":8.287196515610665,"70":-0.9008332246235811,"71":-14.324274792501905,"72":0.01275709082781672,"73":-0.019063537490987163,"74":-0.006439413159539443,"75":-0.006342966307854148,"76":0.004214805923679036,"77":-0.00629838823193164,"78":-0.002127513011862026,"79":-0.002095648006991584,"80":-0.000688661969956435,"81":0.0010291008710475507,"82":0.0003476167890968832,"83":0.0003424103294350945,"84":0.008647703370061814,"85":-0.012922681168580596,"86":-0.004365112362400775,"87":-0.004299733525246193,"88":0.016420241840787834,"89":-0.024537561123221224,"90":-0.00828846661201819,"91":-0.008164325406777903,"92":0.00653938878978906,"93":-0.00977212477713635,"94":-0.003300895697653056,"95":-0.003251456255019533,"96":-0.0058210267375560665,"97":0.00869864163746916,"98":0.0029382871597905774,"99":0.0028942787169999942,"100":0.004603483763910448,"101":-0.006879208316949101,"102":-0.002323706425625207,"103":-0.0022889029174168528,"104":-0.016940916132209428,"105":0.025315629885833066,"106":0.008551288044377464,"107":0.008423210409030215,"108":0.010915709210321405,"109":-0.016311871929153225,"110":-0.005509936590030233,"111":-0.005427411051793241,"112":-0.015913736871565727,"113":0.023780666263703492,"114":0.008032797446666518,"115":0.007912485547851423,"116":-0.0017649525980013173,"117":0.0026374539835204757,"118":0.0008908973949357226,"119":0.0008775539043590203,"120":0.0007466794074364888,"121":-0.001115799132388232,"122":-0.0003769023257001594,"123":-0.00037125723945363303,"124":-0.00443311565661292,"125":0.006624619018763441,"126":0.0022377094967877655,"127":0.0022041940148061425,"128":0.011396100114063498,"129":-0.017029743278301014,"130":-0.005752424124928123,"131":-0.005666266709255976,"132":-0.005283277142488593,"133":0.007895056423197825,"134":0.002666846604436481,"135":0.0026269036853701073,"136":-0.005106919818210542,"137":0.007631517148564627,"138":0.0025778264908337236,"139":0.0025392168779980956,"140":-0.006436997909184656,"141":0.009619117134760415,"142":0.0032492117210412394,"143":0.0032005463795100487,"144":0.0015709052365157235,"145":-0.002347479631166043,"146":-0.0007929478584793376,"147":-0.00078107141531369,"148":0.005997018778240669,"149":-0.008961635051170957,"150":-0.0030271228887237393,"151":-0.0029817839013390234,"152":0.753873972969643,"153":0.8326956198070968,"154":2.451541398976155,"155":-2.271536822616031,"156":0.0010734018465826986,"157":-0.0016040362666928964,"158":-0.0005418224319013248,"159":-0.0005337072409092849,"160":0.003587517285500083,"161":-0.005361000497295603,"162":-0.0018108757184524334,"163":-0.0017837531752461508,"164":0.0007240878715142602,"165":-0.0010820395082037529,"166":-0.0003654987670303768,"167":-0.0003600244785418315,"168":-0.010737565634402412,"169":0.01604566337234896,"170":0.0054200148278861805,"171":0.005338836100399618,"172":-0.01100885150156126,"173":0.016451058957371808,"174":0.0055569521442830425,"175":0.005473722426630739,"176":0.0007134714730638981,"177":-0.0010661749108115937,"178":-0.0003601399139179774,"179":-0.0003547458881021198,"180":-0.0016886919129664871,"181":0.0025234939554954214,"182":0.0008524031907794683,"183":0.0008396362503794462,"184":0.008822798032805132,"185":-0.013184333587045459,"186":-0.004453495120715802,"187":-0.00438679252337126,"188":-0.010478770609073115,"189":0.015658933456068582,"190":0.005289382529799324,"191":0.00521016035853655,"192":-0.008295674023780378,"193":0.01239662669963215,"194":0.004187418056105627,"195":0.004124700650355721,"196":0.00020542968573538983,"197":-0.0003069835096929935,"198":-0.00010369500692049909,"199":-0.0001021419062429927,"200":-0.006569059252964342,"201":0.009816462784504265,"202":0.0033158724955452443,"203":0.0032662087366628627,"204":0.00768894646347451,"205":-0.011489964377570635,"206":-0.0038811594044407707,"207":-0.003823029013381376,"208":0.005749515021284703,"209":-0.008591778223028958,"210":-0.0029021900987102906,"211":-0.0028587223026849363,"212":-0.002675302091254108,"213":0.003997833236817977,"214":0.0013504156805479325,"215":0.0013301897162438499,"216":-0.0021260140938802155,"217":0.003177005630221825,"218":0.0010731508710089337,"219":0.001057077663683145,"220":0.0006217189688372894,"221":-0.0009290647085067172,"222":-0.00031382588424552624,"223":-0.00030912553069990345,"224":0.0049547819264522015,"225":-0.007404170142692579,"226":-0.0025010316513618424,"227":-0.0024635722396866232,"228":-7.6283449847737375,"229":-5.3370800778104455,"230":11.891673733025907,"231":0.9407067434876321,"232":0.0030198123413526534,"233":-0.004512651556876462,"234":-0.001524314562982043,"235":-0.0015014840135566916,"236":0.014376328281486455,"237":-0.02148324229054948,"238":-0.007256757733508255,"239":-0.007148069034751211,"240":0.0017285622940176604,"241":-0.0025830741932009326,"242":-0.0008725286143482582,"243":-0.0008594602437259875,"244":-0.00032452431447482923,"245":0.0004849523703527349,"246":0.00016381055598110365,"247":0.00016135706961727277,"248":0.0058474334418543985,"249":-0.008738102452180088,"250":-0.0029516165059129324,"251":-0.00290740842172082,"252":0.011327076619702444,"253":-0.01692659813414055,"254":-0.005717583046824227,"255":-0.005631947466327865,"256":0.0034362616836191217,"257":-0.005134971939836345,"258":-0.001734526233577902,"259":-0.0017085472211957004,"260":-0.002006869907806653,"261":0.002998962713642192,"262":0.0010130103068289925,"263":0.000997837859855612,"264":-0.006064779967824381,"265":0.009062893872284775,"266":0.0030613267916197763,"267":0.003015475512405488,"268":-0.006850371447814467,"269":0.01023684119566275,"270":0.0034578708142767507,"271":0.0034060802636441596,"272":0.0007574878679856585,"273":-0.0011319507374587684,"274":-0.00038235812624541247,"275":-0.0003766313252878783,"276":-0.027051081283064958,"277":0.04042373838705532,"278":0.013654609122801439,"279":0.013450096066432632,"280":0.004308226031793435,"281":-0.006437990415336369,"282":-0.0021746688000957365,"283":-0.0021420975154452355,"284":0.013871302569727217,"285":-0.020728557956960863,"286":-0.007001835254852313,"287":-0.0068969646789522965,"288":-0.0013691642809646673,"289":0.002046008369297669,"290":0.0006911148166425042,"291":0.000680763586415956,"292":0.0018989246879881068,"293":-0.0028376549536860544,"294":-0.000958522659262093,"295":-0.0009441663056077165,"296":-0.007330165098725349,"297":0.010953820041038509,"298":0.003700056873091958,"299":0.0036446389604135794,"300":-0.004102163622391326,"301":0.0061300613960833,"302":0.002070654412435265,"303":0.0020396410120147204,"304":-0.014893411919820868,"305":0.02225594536668852,"306":0.007517766707284355,"307":0.007405168724676634,"308":-0.0006493100757671976,"309":0.0009702954333230447,"310":0.0003277530828088696,"311":0.0003228441334767412,"312":0.0037632612404287567,"313":-0.005623623184460539,"314":-0.0018995862208190139,"315":-0.001871135008610629,"316":-0.005687033111363938,"317":0.008498408484711424,"318":0.0028706510246058526,"319":0.002827655607712828,"320":0.0023920294778118577,"321":-0.0035745252773911667,"322":-0.0012074277988006494,"323":-0.0011893434475080853,"324":0.016527001491615876,"325":-0.024697097230121718,"326":-0.008342355818401353,"327":-0.008217407483040397,"328":-0.008843763238532826,"329":0.01321566290740451,"330":0.00446407775459981,"331":0.004397216654966916,"332":0.01372176688423435,"333":-0.02050509955370263,"334":-0.006926353934385433,"335":-0.006822613886308827,"336":0.004905538756437298,"337":-0.007330583693365976,"338":-0.0024761751130420876,"339":-0.00243908799225791,"340":-0.004747586064362779,"341":0.007094547350298873,"342":0.0023964451293292384,"343":0.0023605521710747647,"344":-0.006375084704331529,"345":0.009526597239916475,"346":0.0032179597129258462,"347":0.003169762450972065,"348":-0.00033031159949883205,"349":0.0004936005901166033,"350":0.0001667318112927031,"351":0.00016423457158203057,"352":0.0013593256217823123,"353":-0.0020313059852889435,"354":-0.0006861485439816127,"355":-0.000675871696521073,"356":0.0020635712251734313,"357":-0.0030836942330775222,"358":-0.0010416315037884236,"359":-0.001026030380433107,"360":-0.0029313029815637767,"361":0.004380387742075729,"362":0.0014796375795023383,"363":0.0014574761833504933,"364":0.009852814461416259,"365":-0.014723536926437807,"366":-0.004973417839342541,"367":-0.004898928055786118,"368":0.006010934057074479,"369":-0.008982429324985206,"370":-0.0030341469219340206,"371":-0.0029887027315016724,"372":0.013693273659214855,"373":-0.020462520750218257,"374":-0.006911971372512458,"375":-0.006808446740465283,"376":0.0019173559122395137,"377":-0.002865197623034875,"378":-0.000967826212054181,"379":-0.00095333051365626,"380":0.0030515310036717683,"381":-0.004560050287233299,"382":-0.0015403252329926898,"383":-0.0015172548824121462,"384":0.014275440141571677,"385":-0.021332480266229532,"386":-0.007205832297247744,"387":-0.007097906338494027,"388":-0.005885053384735007,"389":0.00879431975134279,"390":0.0029706059729094057,"391":0.002926113472379885,"392":-0.0006724169691948588,"393":0.0010048251811398243,"394":0.0003394167791500979,"395":0.0003343331358261694,"396":-0.0018168341279205585,"397":0.0027149830615884147,"398":0.0009170857015807061,"399":0.0009033499734411479}},"b1":{"n":100,"d":1,"w":{"0":-4.5284627145226536e-7,"1":0.0000010904448087945822,"2":0.0000022104592104699325,"3":-7.492265695146324e-8,"4":-1.483213195586731e-7,"5":0.000001486631676886942,"6":-20.009379533529557,"7":-3.1411914658398547e-7,"8":-0.000011056732350060277,"9":0.000002041269107833553,"10":0.0000015372058499465365,"11":0.00000346473747669551,"12":-5.685492670589412e-7,"13":2.812889906437111e-8,"14":0.00000347575039146038,"15":0.0000012996389022180457,"16":0.000002821321673371111,"17":-1.460331496871554,"18":0.000004237650054790367,"19":0.0000014000741016780845,"20":-2.2875971182046957e-7,"21":0.0000028725938432069653,"22":0.0000054544754665416375,"23":0.000002172253967929868,"24":-0.0000019336284829447185,"25":0.000001529185094787523,"26":-0.000005627433040530121,"27":0.0000036259799589967156,"28":-0.000005286224657864325,"29":-5.862818993050443e-7,"30":2.480319424034917e-7,"31":-0.0000014725922221030577,"32":0.0000037855561961460053,"33":-0.0000017549988386698065,"34":-0.000001696416468038087,"35":-0.0000021382417682737433,"36":5.218232527705578e-7,"37":0.0000019920895137267927,"38":-0.5540599547529165,"39":3.565625921116851e-7,"40":0.000001191701381041637,"41":2.405274867012624e-7,"42":-0.00000356680423087034,"43":-0.0000036569199627008544,"44":2.370009317932625e-7,"45":-5.609496273072173e-7,"46":0.0000029307567832266702,"47":-0.000003480837706584689,"48":-0.0000027556567451952155,"49":6.823962663516994e-8,"50":-0.000002182109901505946,"51":0.000002554114001942741,"52":0.0000019098737231872546,"53":-8.886817658613047e-7,"54":-7.062192958389705e-7,"55":2.0652258778497446e-7,"56":0.0000016458793077542996,"57":-0.9240993926907123,"58":0.0000010031211701336052,"59":0.000004775528310258279,"60":5.741937692506968e-7,"61":-1.0780047671532621e-7,"62":0.0000019424002611913433,"63":0.0000037626279736851725,"64":0.000001141457299851195,"65":-6.666419837981175e-7,"66":-0.000002014598423663278,"67":-0.0000022755561780299214,"68":2.516222964938657e-7,"69":-0.000008985827525805214,"70":0.0000014311063903367678,"71":0.000004607768882178096,"72":-4.5480894840450045e-7,"73":6.307847440126521e-7,"74":-0.000002434934018765728,"75":-0.0000013626565854770285,"76":-0.000004947293140293331,"77":-2.1568780083003848e-7,"78":0.00000125008000260179,"79":-0.0000018891184842281737,"80":7.945842778639206e-7,"81":0.000005489938884837889,"82":-0.0000029377210046679357,"83":0.000004558096121985911,"84":0.000001629521713037995,"85":-0.0000015770529925874259,"86":-0.0000021176754417389065,"87":-1.0972289687501341e-7,"88":4.5154074289960884e-7,"89":6.854770256477794e-7,"90":-9.737201337175053e-7,"91":0.000003272907611052213,"92":0.00000199671189064045,"93":0.0000045486312432639015,"94":6.369072275160916e-7,"95":0.0000010136574744070635,"96":0.000004742015290494195,"97":-0.0000019548968526799414,"98":-2.2336344797050552e-7,"99":-6.035159043078552e-7}},"W2":{"n":3,"d":100,"w":{"0":-2.9159430314996e-7,"1":7.021532782988133e-7,"2":0.0000014233468464164398,"3":-4.8243788945895864e-8,"4":-9.55062557584386e-8,"5":9.572637669329092e-7,"6":0.8565504701077202,"7":-2.0226588895527143e-7,"8":-0.000007119590626583511,"9":0.0000013144028779509434,"10":9.89829212768273e-7,"11":0.0000022309948671658694,"12":-3.6609714549792985e-7,"13":1.8112607386946824e-8,"14":0.0000022380862431704357,"15":8.368563987238072e-7,"16":0.0000018166900725891414,"17":-0.21777712443580755,"18":0.0000027286845168103035,"19":9.015280849077542e-7,"20":-1.4730170692400868e-7,"21":0.0000018497049685885137,"22":0.000003512216090979659,"23":0.0000013987459349492942,"24":-0.0000012450915136011187,"25":9.846645318324734e-7,"26":-0.0000036235859869670365,"27":0.0000023348212466660295,"28":-0.0000034038769494769277,"29":-3.7751544541161635e-7,"30":1.5971137660965523e-7,"31":-9.482235577354366e-7,"32":0.000002437574706594968,"33":-0.000001130069286848792,"34":-0.000001092347246095488,"35":-0.0000013768449847847773,"36":3.360095850349224e-7,"37":0.0000012827354218363536,"38":0.03430435923189004,"39":2.295958410864091e-7,"40":7.673538584080824e-7,"41":1.548791483919917e-7,"42":-0.000002296717134673652,"43":-0.0000023547439650466713,"44":1.5260834837508035e-7,"45":-3.612036268909563e-7,"46":0.0000018871569317064416,"47":-0.0000022413620393597534,"48":-0.000001774407470154409,"49":4.394048848599919e-8,"50":-0.0000014050923139632413,"51":0.0000016446311659685173,"52":0.0000012297954781933058,"53":-5.722351193718074e-7,"54":-4.547448801243234e-7,"55":1.329828992050891e-7,"56":0.0000010598056333392674,"57":-0.11939832677980047,"58":6.459243168343156e-7,"59":0.0000030750321465921,"60":3.6973172258910984e-7,"61":-6.941429546853789e-8,"62":0.0000012507397892205908,"63":0.0000024228108907026924,"64":7.350009634966944e-7,"65":-4.292604730507914e-7,"66":-0.0000012972292363987533,"67":-0.000001465263730848349,"68":1.620232578483653e-7,"69":-0.000005786104975856057,"70":9.215102270736482e-7,"71":0.0000029670094116532497,"72":-2.9285809939365854e-7,"73":4.061714746352526e-7,"74":-0.0000015678894410538988,"75":-8.774344018324472e-7,"76":-0.0000031856340179452994,"77":-1.388845132382098e-7,"78":8.049447022047013e-7,"79":-0.0000012164308778745876,"80":5.116443777462875e-7,"81":0.000003535051501532174,"82":-0.0000018916412952013673,"83":0.0000029350243991206047,"84":0.0000010492727401133674,"85":-0.000001015487367648972,"86":-0.000001363602027917833,"87":-7.065216978087848e-8,"88":2.90753654317284e-7,"89":4.4138863054300674e-7,"90":-6.269925617179988e-7,"91":0.0000021074728265543048,"92":0.0000012857118375727714,"93":0.000002928929826064117,"94":4.101138308434073e-7,"95":6.527087964591003e-7,"96":0.000003053452625893699,"97":-0.0000012587865262946889,"98":-1.438269741148488e-7,"99":-3.8861267198721847e-7,"100":8.692375442039482e-7,"101":-0.0000020931067057183276,"102":-0.00000424297218376959,"103":1.4381389544794216e-7,"104":2.8470248669128997e-7,"105":-0.00000285358663354871,"106":-0.04689625167134798,"107":6.029510957279295e-7,"108":0.0000212233757309027,"109":-0.000003918212109390253,"110":-0.000002950663660971156,"111":-0.000006650556880035099,"112":0.0000010913292209569045,"113":-5.3993367477066195e-8,"114":-0.000006671696148512252,"115":-0.0000024946543639448154,"116":-0.000005415521496741839,"117":-0.08383067264798588,"118":-0.000008134161064936574,"119":-0.0000026874395352193653,"120":4.391038254204843e-7,"121":-0.000005513938327231924,"122":-0.00001046985505145462,"123":-0.000004169637294743757,"124":0.000003711596138262657,"125":-0.000002935267836974459,"126":0.000010801846773039718,"127":-0.000006960061510622526,"128":0.000010146897956216032,"129":0.000001125366974329774,"130":-4.760968348361535e-7,"131":0.000002826637927227138,"132":-0.000007266367786652868,"133":0.000003368716881686384,"134":0.000003256268134539208,"135":0.000004104350943357869,"136":-0.0000010016387267175239,"137":-0.0000038238119737155275,"138":-0.35860421849866664,"139":-6.844212075152064e-7,"140":-0.000002287468500559151,"141":-4.6169204659629395e-7,"142":0.000006846473815864819,"143":0.000007019450787463266,"144":-4.5492283125587425e-7,"145":0.0000010767417271292573,"146":-0.000005625581977609345,"147":0.000006681461239963587,"148":0.0000052894777945909305,"149":-1.309858316512485e-7,"150":0.000004188555740146965,"151":-0.000004902616889973889,"152":-0.0000036659989228754656,"153":0.0000017058229344236806,"154":0.00000135558657548214,"155":-3.964197087435388e-7,"156":-0.000003159262153131025,"157":-0.3879699965247504,"158":-0.000001925489149943677,"159":-0.000009166617321907863,"160":-0.000001102163832027299,"161":2.069228070441645e-7,"162":-0.0000037284335496159566,"163":-0.0000072223571083714345,"164":-0.0000021910250837614753,"165":0.000001279618001397987,"166":0.0000038670177827397985,"167":0.000004367925686895855,"168":-4.829885125838602e-7,"169":0.0000172482782317575,"170":-0.000002747005953336039,"171":-0.000008844603428994529,"172":8.730048988152103e-7,"173":-0.000001210790098851118,"174":0.000004673851143351765,"175":0.0000026156166851792435,"176":0.000009496319575596448,"177":4.1401231749584237e-7,"178":-0.0000023995261518694507,"179":0.0000036261592818601993,"180":-0.000001525202987886675,"181":-0.00001053792701286266,"182":0.000005638949787124872,"183":-0.000008749256663285677,"184":-0.00000312786378169172,"185":0.0000030271501742199527,"186":0.000004064873919387867,"187":2.1061288883135722e-7,"188":-8.667315846607877e-7,"189":-0.0000013157718278744827,"190":0.0000018690539173283854,"191":-0.0000062823398264193374,"192":-0.0000038326846172356015,"193":-0.000008731088847069047,"194":-0.0000012225421941160862,"195":-0.00000194571356564812,"196":-0.000009102289146283914,"197":0.000003752420732810098,"198":4.287457073747762e-7,"199":0.000001158447613671929,"200":5.811212347841524e-7,"201":-0.0000013993283670812101,"202":-0.0000028366023197830923,"203":9.61455347385393e-8,"204":1.903353826767759e-7,"205":-0.0000019077406389481685,"206":0.5309187998153755,"207":4.0309773502302706e-7,"208":0.000014188704065179984,"209":-0.00000261948678371915,"210":-0.0000019726406451815475,"211":-0.000004446172224008998,"212":7.295987025256155e-7,"213":-3.609679838129697e-8,"214":-0.0000044603046989218295,"215":-0.0000016677795775771768,"216":-0.0000036205000113314046,"217":-0.36034170413774264,"218":-0.000005438022956579574,"219":-0.0000017966644347885545,"220":2.9355906096034803e-7,"221":-0.000003686295731271816,"222":-0.000006999530947590438,"223":-0.0000027875749146289847,"224":0.0000024813554650269867,"225":-0.0000019623479003355487,"226":0.000007221481138377741,"227":-0.000004653088865090523,"228":0.00000678362077797434,"229":7.523543478616891e-7,"230":-3.182904171396249e-7,"231":0.0000018897243146472918,"232":-0.000004857867273896404,"233":0.0000022521265065589683,"234":0.000002176949870192214,"235":0.0000027439282896403604,"236":-6.696368990947273e-7,"237":-0.00000255637639029356,"238":-0.0860326567874248,"239":-4.5756387293331145e-7,"240":-0.0000015292672623314554,"241":-3.0866022067058483e-7,"242":0.000004577150795200642,"243":0.0000046927930519195395,"244":-3.041347203591342e-7,"245":7.198463598169989e-7,"246":-0.0000037609341271399274,"247":0.00000446683306626891,"248":0.0000035362345855196764,"249":-8.756944374576236e-8,"250":0.00000280022267751414,"251":-0.0000032776020770917286,"252":-0.000002450871841445498,"253":0.0000011404131546930004,"254":9.062656690888912e-7,"255":-2.6502296429226954e-7,"256":-0.0000021120973611563323,"257":0.21738109222005378,"258":-0.000001287269101320697,"259":-0.0000061282626477775584,"260":-7.368420879549508e-7,"261":1.3833645122312907e-7,"262":-0.0000024926119706179165,"263":-0.0000048284443159828235,"264":-0.000001464790850993356,"265":8.5547753658358e-7,"266":0.0000025852612598618884,"267":0.0000029201389024885797,"268":-3.2289778863350985e-7,"269":0.000011531187064522547,"270":-0.0000018364870479197738,"271":-0.000005912983047816017,"272":5.836398670953612e-7,"273":-8.094632382113283e-7,"274":0.0000031246627177840256,"275":0.0000017486478902044193,"276":0.0000063486822347444535,"277":2.767843505665306e-7,"278":-0.0000016041824349717414,"279":0.000002424237394359576,"280":-0.0000010196612531521086,"281":-0.000007045039867960705,"282":0.000003769871060457891,"283":-0.000005849239793142722,"284":-0.0000020911062517660567,"285":0.0000020237750414281137,"286":0.0000027175362670456807,"287":1.4080342345522673e-7,"288":-5.794458972275976e-7,"289":-8.796478642737003e-7,"290":0.0000012495398151415557,"291":-0.000004200003900824193,"292":-0.000002562308119306252,"293":-0.000005837093856925049,"294":-8.17319999757986e-7,"295":-0.000001300789959346249,"296":-0.000006085256602951053,"297":0.000002508648394267801,"298":2.8663423081578115e-7,"299":7.744701228989248e-7}},"b2":{"n":3,"d":1,"w":{"0":1.9982692760656526,"1":0.5068651209532153,"2":1.3501733093386734}}}}}