{"numStates":1,"sensitivity":12.821957517884172,"alpha":0.024876868511228813,"gamma":0.5101730169071319,"epsilon":0.3096319241364338,"cycles":3332,"max":{"lastUpdatedDate":"2018-03-24T11:24:31.182Z","meetsCriterion":true,"cycles":577,"wealth":4.0936674109279,"percentSuccess":0.39875654300793845,"odds":2.7,"weights":{"nh":100,"ns":4,"na":3,"net":{"W1":{"n":100,"d":4,"w":{"0":0.018849829359083997,"1":-0.028259044340404257,"2":-0.009486741251092213,"3":-0.009364526258336964,"4":0.01575778643649025,"5":-0.023623980554469275,"6":-0.007930478810319422,"7":-0.007828279878155264,"8":0.011152555185046743,"9":-0.016718535266334825,"10":-0.005613092780752723,"11":-0.005540858810174323,"12":-0.007273628355354444,"13":0.010907206550386865,"14":0.003660012987516546,"15":0.0036126441408264967,"16":0.021755476414126503,"17":-0.03261776766967597,"18":-0.010948471638383576,"19":-0.0108072191771752,"20":-0.009688516807905426,"21":0.014521842158070357,"22":0.00487670434040458,"23":0.00481410029825381,"24":-0.006371892624423811,"25":0.009550526536549689,"26":0.0032073136549163575,"27":0.003166149595449589,"28":-0.024731099246710693,"29":0.03707549682897305,"30":0.012446795706221907,"31":0.012286489970781278,"32":0.03150956824294684,"33":-0.04723799918489575,"34":-0.015858159571268734,"35":-0.015653871867496012,"36":-0.0040300616608097166,"37":0.006040816092277565,"38":0.002028463824528355,"39":0.002002402749582055,"40":-0.03126915165333827,"41":0.046881686324869346,"42":0.015736203502309035,"43":0.015533169379836528,"44":0.004916780538045688,"45":-0.007371621109518587,"46":-0.0024743898357121935,"47":-0.002442470882267122,"48":0.011736382461166442,"49":-0.017593950030826686,"50":-0.005906884013790298,"51":-0.005830852802790498,"52":-0.027241621196911522,"53":0.040838225873635836,"54":0.013710515703562394,"55":0.013534004202381652,"56":-0.01129058327802974,"57":0.016932344983435488,"58":0.005680953960382609,"59":0.005607314225706549,"60":0.004960933327554401,"61":-0.007432658710353386,"62":-0.0024978136055715545,"63":-0.002465990949101993,"64":0.012533277619201198,"65":-0.01878824113223765,"66":-0.00630803585098267,"67":-0.00622686671073273,"68":0.3299193405245342,"69":12.390861325705593,"70":-15.423684926520574,"71":-20.591261285039614,"72":-35.62503020324648,"73":-16.454501173297114,"74":12.805900849536851,"75":-34.215808510760844,"76":0.004873232810957075,"77":-0.007321355101518413,"78":-0.0024489694698971937,"79":-0.0024162178183663786,"80":0.008973729723678592,"81":-0.013452137796683047,"82":-0.0045165275348482865,"83":-0.004458418291165759,"84":-11.81870494673723,"85":-15.579762165449566,"86":24.67484855505846,"87":-0.21150033381412203,"88":0.02682507875060994,"89":-0.040216983140371705,"90":-0.013500126144196207,"91":-0.013326076010015661,"92":0.0038152862297670957,"93":-0.005721010851090684,"94":-0.0019198633230031832,"95":-0.0018950330333685757,"96":-0.014265501553083084,"97":0.021378586710578847,"98":0.007181356876549477,"99":0.007089442669447058,"100":0.0050373991553306855,"101":-0.00755195673144014,"102":-0.002535209519493504,"103":-0.0025025449990456537,"104":0.0014475215036471424,"105":-0.002168463788648151,"106":-0.0007288848144287703,"107":-0.0007196193447170876,"108":-0.008960635567030681,"109":0.013433954041246966,"110":0.004509600039228166,"111":0.004451468336185056,"112":-0.010172507693984005,"113":0.015248960500555053,"114":0.005119929130193007,"115":0.005054073138169504,"116":0.03524412960221689,"117":-0.05283051855032823,"118":-0.01773913864836277,"119":-0.01751109860962893,"120":-0.0035962170793442,"121":0.0053842236385462615,"122":0.001811561861341031,"123":0.0017887728750799765,"124":-0.011335202255116592,"125":0.01699617344043223,"126":0.005704124304053997,"127":0.0056304226324080395,"128":0.010723547953716469,"129":-0.016078301855281918,"130":-0.0053965008191954,"131":-0.005326831627541922,"132":0.00862971688017791,"133":-0.012938125714045134,"134":-0.004342991367426244,"135":-0.004286984845857851,"136":0.0021549205940400587,"137":-0.0032299060267928187,"138":-0.0010846869895709216,"139":-0.0010707657893264623,"140":-0.005076238283865699,"141":0.007610651146842292,"142":0.002554647276384478,"143":0.0025216962058756376,"144":-0.020047886480372094,"145":0.030059912438240306,"146":0.0100885842412904,"147":0.009958246658885167,"148":0.007438384834848048,"149":-0.011149053483802396,"150":-0.003744133175368874,"151":-0.0036960783887874334,"152":0.0012850349974343075,"153":-0.0019259438855953595,"154":-0.0006468579367928692,"155":-0.0006385662263767318,"156":-0.0014291578748382152,"157":0.0021462306209449854,"158":0.0007184070533386584,"159":0.0007088675092651024,"160":0.0012797454467803422,"161":-0.0019188371888961971,"162":-0.0006440037651840356,"163":-0.000635685250573643,"164":0.007261344259920304,"165":-0.010885850743710786,"166":-0.003654516494560439,"167":-0.0036074454707997645,"168":0.017109215989028984,"169":-0.02565079793881039,"170":-0.008610439902344471,"171":-0.008499419548743852,"172":0.011386035917358935,"173":-0.01707141396942819,"174":-0.005729933602540992,"175":-0.005655974158791208,"176":-0.006351963503938366,"177":0.009528710617203612,"178":0.003195403174528249,"179":0.003153770016731958,"180":0.006033792310608478,"181":-0.00904573251568182,"182":-0.0030366705044795285,"183":-0.0029975445744218,"184":-0.023887172877640195,"185":0.035811156724024254,"186":0.012021866982720038,"187":0.011866970129356837,"188":-0.011857232610088808,"189":0.01777283432379938,"190":0.005968239738439673,"191":0.005891595020053573,"192":-0.005957321303950121,"193":0.00892792154219821,"194":0.0029989232657964483,"195":0.002960528286815024,"196":0.004326310510988171,"197":-0.00648789263176588,"198":-0.002176871744240333,"199":-0.002148670939116885,"200":-0.0034221968636979076,"201":0.005127993468214711,"202":0.001722894984826665,"203":0.0017008887512319595,"204":0.002296837113562019,"205":-0.003442035520264271,"206":-0.0011562570204314226,"207":-0.0011414622285754877,"208":0.010164705147376626,"209":-0.015242023601456411,"210":-0.005114891725372233,"211":-0.005048732999926845,"212":-0.006569747046359555,"213":0.009849487640357249,"214":0.00330634293708196,"215":0.003263722071519042,"216":-0.008808717067616947,"217":0.013200382530451015,"218":0.004434500306940626,"219":0.004377785545294399,"220":0.016077924724068163,"221":-0.024104386601538415,"222":-0.008091489460389038,"223":-0.007987180333421544,"224":-0.014128649857249594,"225":0.021181567619261484,"226":0.007110582179599129,"227":0.007018950756459312,"228":0.01873714417106203,"229":-0.028064854032762238,"230":-0.009435920763167505,"231":-0.009316311516629603,"232":0.01199584080984653,"233":-0.017984678321584725,"234":-0.006037054324266044,"235":-0.005959210544763737,"236":-0.014826848689946022,"237":0.02222656577250115,"238":0.007462372568090211,"239":0.007366341867105579,"240":0.014516367195895835,"241":-0.021760735002923835,"242":-0.007306199111565989,"243":-0.0072122086748363425,"244":0.008884464522767536,"245":-0.013318045978366002,"246":-0.00447166474538931,"247":-0.004414154201996807,"248":0.0040321746121096584,"249":-0.006041944634771648,"250":-0.0020300029319331035,"251":-0.0020040794973653895,"252":0.009839838425836097,"253":-0.01475234574533378,"254":-0.0049520106307556185,"255":-0.004888154798435368,"256":-0.02549327160966248,"257":0.03821978145848314,"258":0.012829994314822204,"259":0.012664623681577478,"260":-0.004908201134307066,"261":0.0073551075812808625,"262":0.002470923863832417,"263":0.0024393315330804867,"264":0.003926384024272159,"265":-0.00588742244895027,"266":-0.0019758098767363587,"267":-0.0019502698459619022,"268":0.008519837326220574,"269":-0.012771183857889638,"270":-0.004288207689262412,"271":-0.0042330779266365115,"272":-0.006184170300293066,"273":0.0092674891971433,"274":0.003113212408676331,"275":0.0030733849822027473,"276":0.0037751365600451553,"277":-0.005658082477819875,"278":-0.0019002953764538876,"279":-0.001875928562613831,"280":-0.0124143872141482,"281":0.018612369498725773,"282":0.00624764897408529,"283":0.006167075166504944,"284":-0.00946725160043912,"285":0.01419675248958623,"286":0.004763800740103304,"287":0.0047021396796938725,"288":-0.012006090270367064,"289":0.017999275711049513,"290":0.006042391893107823,"291":0.005964538691987365,"292":-0.0071057970010494935,"293":0.010652802222158912,"294":0.003576199348084245,"295":0.003530126262786974,"296":-0.024198951216722497,"297":0.03627875868789849,"298":0.012178733506195215,"299":0.012021800739518149,"300":0.003159767977585469,"301":-0.00473511972414885,"302":-0.0015906912488464486,"303":-0.0015703455935863026,"304":0.008430102695988229,"305":-0.012638615101262704,"306":-0.0042425891670889605,"307":-0.004187895857816096,"308":-0.021186780442961246,"309":0.031764813374657926,"310":0.010662347931992796,"311":0.010524811187248974,"312":0.0006111317372707224,"313":-0.0009190887994300129,"314":-0.0003068937692820379,"315":-0.0003027161937255025,"316":-0.026097187695902954,"317":0.03912555604953071,"318":0.013133839068000362,"319":0.01296452290143264,"320":-0.012362006984006246,"321":0.01853522054560033,"322":0.006220965643008047,"323":0.006140629184925037,"324":-0.008196557474721174,"325":0.012281840645001934,"326":0.0041266021366217565,"327":0.004073916743414951,"328":-0.024290846173389585,"329":0.0364177801383775,"330":0.012224689482377463,"331":0.012067067741152774,"332":-0.02400680640477174,"333":0.035993938521530384,"334":0.012081275709492086,"335":0.01192534851457953,"336":0.009491104934734334,"337":-0.014229628986969084,"338":-0.004776478354539312,"339":-0.00471487666997338,"340":0.004229530723977271,"341":-0.006348618611494273,"342":-0.0021268078638694158,"343":-0.002098802904215641,"344":-0.007728565520549618,"345":0.011581909354449391,"346":0.0038906823273550254,"347":0.0038409074630219395,"348":4.1635815992588405,"349":5.539233759613125,"350":-2.7930114035734817,"351":-5.69843940233872,"352":-0.003049484192223761,"353":0.00458691354739258,"354":0.0015311920853228235,"355":0.0015102900173200437,"356":0.35718857392355147,"357":0.8283379431405969,"358":-11.052158495025102,"359":10.319653575611417,"360":-0.00013370693338129642,"361":0.00020077765792261037,"362":0.00006721535062468189,"363":0.00006632407094305502,"364":-0.02040479063285438,"365":0.03059050392872207,"366":0.010269249120382594,"367":0.010136929151708864,"368":-0.010929424571848223,"369":0.01638729224800494,"370":0.005500033448981986,"371":0.005429003706097553,"372":0.03297345592270365,"373":-0.04943431128554862,"374":-0.016594508357649203,"375":-0.016380603191625317,"376":0.012280919117629326,"377":-0.018410150613904913,"378":-0.006180973579088239,"379":-0.006101423031752928,"380":0.001063676275729457,"381":-0.0015940227275807468,"382":-0.0005354682679373444,"383":-0.0005286167547545596,"384":0.01297329945890076,"385":-0.019451009662895022,"386":-0.006528766313973475,"387":-0.006444513979120329,"388":-0.008047393275305063,"389":0.012061452211306967,"390":0.004050776449921938,"391":0.0039988181182247715,"392":0.012765257590029886,"393":-0.019140360144776936,"394":-0.006423773722068011,"395":-0.00634077824564203,"396":-0.016894266817437106,"397":0.02532665685544123,"398":0.00850270269191365,"399":0.008393216719633566}},"b1":{"n":100,"d":1,"w":{"0":-0.000014041816141446654,"1":-0.000011737251256706736,"2":-0.000008310752235003013,"3":0.000005410318815794316,"4":-0.000016198716272397263,"5":0.00000722542281576304,"6":0.000004752321993239944,"7":0.000018424533971758813,"8":-0.000023472757186599643,"9":0.000003004736186981747,"10":0.000023281962371202192,"11":-0.0000036611133567045804,"12":-0.000008745199615255772,"13":0.000020297441740844247,"14":0.000008393986814545893,"15":-0.0000037086674160798775,"16":-0.000009339941592263191,"17":-0.20573015443684775,"18":-0.027950349226871566,"19":-0.0000035858860060426575,"20":-0.000006687603850192202,"21":-3.2467154488787724,"22":-0.000019977965179422614,"23":-0.0000028385419096120646,"24":0.000010648965277069571,"25":-0.0000037523607717177664,"26":-0.0000010828911682846045,"27":0.000006673734933175015,"28":0.000007581593898117031,"29":-0.000026272429560273926,"30":0.00000269915849663109,"31":0.000008435944868264408,"32":-0.000007982861780259027,"33":-0.00000642643948797502,"34":-0.0000016072007571869774,"35":0.0000037799627538458946,"36":0.000014920673989498822,"37":-0.000005547706524812053,"38":-9.587944194757378e-7,"39":0.0000010541406191189853,"40":-9.525117272478791e-7,"41":-0.000005409529448683615,"42":-0.000012741700056365791,"43":-0.000008476565062356736,"44":0.0000047145374566421415,"45":-0.0000044945592788179755,"46":0.000017793462255235938,"47":0.000008841750253362666,"48":0.00000444660854839549,"49":-0.000003217024242009234,"50":0.000002556276960353294,"51":-0.0000017147026361759718,"52":-0.000007562235897791034,"53":0.000004893038980775677,"54":0.000006577123337884659,"55":-0.000011974406430091618,"56":0.000010523841928780825,"57":-0.000014029838965493788,"58":-0.00000893348818281386,"59":0.000011048844973094171,"60":-0.000010818598122212802,"61":-0.000006621874622558239,"62":-0.0000030121115502341395,"63":-0.000007327771970541977,"64":0.000018987574327926796,"65":0.0000036651085408720093,"66":-0.0000029217065219447888,"67":-0.000006350889279233268,"68":0.000004617064268293912,"69":-0.000002816421414562455,"70":0.000009244650744534965,"71":0.0000070417494831176875,"72":0.000008943311194018014,"73":0.000005293256187872218,"74":0.000018025153915188755,"75":-0.0000023592156707929966,"76":-0.0000062784715623115405,"77":0.000015776171801339156,"78":-4.4700180596866037e-7,"79":0.000019436296768502366,"80":0.000009201709901516436,"81":0.0000061234300157296586,"82":0.00001809004081298082,"83":0.000017872814060781293,"84":-0.000007067724861537438,"85":-0.000003128376818575203,"86":0.0000057700597176871965,"87":-0.42402480274955223,"88":0.000002228288252784954,"89":3.0825332612796426,"90":9.866978465898931e-8,"91":0.000015199265376661775,"92":0.000008135242232309212,"93":-0.00002455841198066885,"94":-0.00000915127616051178,"95":-7.940873184432522e-7,"96":-0.000009658898042069698,"97":0.00000600310193870426,"98":-0.000009500397895183235,"99":0.000012586971391976501}},"W2":{"n":3,"d":100,"w":{"0":-0.000027956824312150935,"1":-0.000023375748500101366,"2":-0.00001652925830408813,"3":0.00001081987291840491,"4":-0.00003229669680987345,"5":0.000014336789873923705,"6":0.000009427556365379087,"7":0.00003667323384542797,"8":-0.000046731669446238004,"9":0.000005966656908272566,"10":0.00004642187893826822,"11":-0.000007298449692989894,"12":-0.000017396974220778177,"13":0.000040385719394270005,"14":0.000016812274692677368,"15":-0.000007305288443275201,"16":-0.000018574463112624488,"17":-1.2391472158396153,"18":0.28889423530208397,"19":-0.000007404737647448783,"20":-0.000013298064004558876,"21":-0.41620944226769996,"22":-0.00003980461059790706,"23":-0.0000056729067594879435,"24":0.000021069091910446896,"25":-0.0000074717477488656846,"26":-0.0000021285192301331054,"27":0.000013295101133607559,"28":0.000015072078223990527,"29":-0.00005219984831317095,"30":0.0000052528189992106435,"31":0.00001684360470233525,"32":-0.000015926205107086368,"33":-0.000012807422731502143,"34":-0.000003188299122624838,"35":0.000007534676553539349,"36":0.000029788088555477215,"37":-0.000011005631296384443,"38":-0.0000018997546793254328,"39":0.0000021615468259861982,"40":-0.0000019012753190010078,"41":-0.000010768207104560263,"42":-0.00002538918576193685,"43":-0.00001690798925072801,"44":0.000009489710093303287,"45":-0.000008949713632497664,"46":0.00003543120901322718,"47":0.000017550154635182832,"48":0.00000880025301046786,"49":-0.000006439595740548844,"50":0.000005047685788443092,"51":-0.0000033916460513714724,"52":-0.000015114664976728573,"53":0.000009747671490785095,"54":0.000013003568717955876,"55":-0.000023855849707877384,"56":0.000020958781649211673,"57":-0.000027502354220937696,"58":-0.0000178017732114658,"59":0.000021974751901386948,"60":-0.0000215100896084897,"61":-0.000013162618478519487,"62":-0.000005946591753032013,"63":-0.000014602713889513427,"64":0.00003782253338154937,"65":0.000007244181782746093,"66":-0.000005836057797223148,"67":-0.000012619267555346087,"68":0.000009130819798813894,"69":-0.00000558221727591525,"70":0.00001842503848499883,"71":0.00001408398296027141,"72":0.00001780823399212771,"73":0.000010539134303752657,"74":0.000035895826955648836,"75":-0.000004664737452645243,"76":-0.000012508460181690298,"77":0.00003144887569982287,"78":-9.393855123943008e-7,"79":0.00003872281209907585,"80":0.000018363026341502906,"81":0.000012086411543025574,"82":0.000036046403712639626,"83":0.00003564767759272203,"84":-0.00001408655369693975,"85":-0.000006362215975487894,"86":0.000011411280616163806,"87":0.12281582575850403,"88":0.000004696032889127293,"89":-0.6303568098866446,"90":2.0204392530592456e-7,"91":0.000030266598778097364,"92":0.000016235494697107913,"93":-0.000048922150000274134,"94":-0.000018202878546365258,"95":-0.0000015706827998722328,"96":-0.000019262368713119196,"97":0.000011901970083155186,"98":-0.000018967922093500662,"99":0.00002504881271801922,"100":-0.000007732445076266158,"101":-0.000006446345901143884,"102":-0.0000046169138224447365,"103":0.0000028662623963469743,"104":-0.000008813119057902048,"105":0.0000040935601366463415,"106":0.000002697309355561176,"107":0.00001016807735531823,"108":-0.000012930188929507946,"109":0.0000016914734631053586,"110":0.00001266040678069868,"111":-0.0000019942245557038515,"112":-0.000004849741449145353,"113":0.000011238009267969282,"114":0.000004387037133050958,"115":-0.000002226913583616702,"116":-0.00000519278671555279,"117":0.9119495710941017,"118":-0.7183968864099695,"119":-0.0000013511498029096394,"120":-0.000003722048264460769,"121":0.1645684115669342,"122":-0.000010932932494993131,"123":-0.0000015126641603016604,"124":0.000006175922444190882,"125":-0.000002064177040740013,"126":-6.60929596238124e-7,"127":0.000003656461017058964,"128":0.000004228197440077632,"129":-0.000014720749594841178,"130":0.0000017710460814303118,"131":0.000004532837182382594,"132":-0.000004319374352699371,"133":-0.0000035093040056071503,"134":-9.122853068339418e-7,"135":0.0000020606253029912584,"136":0.000008024916162477523,"137":-0.0000031482484520455125,"138":-5.495469153845605e-7,"139":4.329010761625083e-7,"140":-5.131090189766101e-7,"141":-0.0000029836008230826114,"142":-0.0000069674752256116256,"143":-0.000004593968768210385,"144":0.000002353574606440008,"145":-0.0000024722473541096483,"146":0.000009786648941155088,"147":0.000004994653535211123,"148":0.000002572757718275475,"149":-0.0000016901993304722116,"150":0.0000015058792896196656,"151":-9.966047555527548e-7,"152":-0.000004026836163277482,"153":0.0000026808879902805126,"154":0.000003836420920184353,"155":-0.0000065583035938685325,"156":0.000005780756344098678,"157":-0.000008737572761175635,"158":-0.000004883043376443985,"159":0.000006138705706114382,"160":-0.000006026623698709377,"161":-0.000003696602115317719,"162":-0.0000017772220876520708,"163":-0.000004003814082951172,"164":0.000010411593334664472,"165":0.0000021427072697161594,"166":-0.0000015641721595249136,"167":-0.0000035563935327096093,"168":0.0000026873307414675974,"169":-0.0000016101392190686399,"170":0.0000050455717091780525,"171":0.00000372706544815956,"172":0.000004919228390869471,"173":0.0000029138491184435637,"174":0.000009906462237107395,"175":-0.0000013752904435933605,"176":-0.000003438059582927712,"177":0.00000859581729147432,"178":-1.2996917694582586e-7,"179":0.00001064253246015509,"180":0.000004966732745052585,"181":0.0000036191222358762578,"182":0.000009891894795190212,"183":0.00000969289639774069,"184":-0.0000038568867652667,"185":-0.0000014084367166283448,"186":0.0000033577593010356833,"187":-0.7018560198149975,"188":6.170784326514845e-7,"189":0.38731874839376124,"190":4.116929414458945e-8,"191":0.000008357290614068885,"192":0.0000043893863180442215,"193":-0.0000134599360687665,"194":-0.000005079398236075907,"195":-4.6154976433757237e-7,"196":-0.000005244152445316724,"197":0.000003423326560507382,"198":-0.000005107194118528119,"199":0.000006958238846803689,"200":-0.000004022644168137933,"201":-0.000003348190866179475,"202":-0.0000024146290159664888,"203":0.0000014553718230641414,"204":-0.00000455099136751369,"205":0.0000021658576233682065,"206":0.0000014286176128454838,"207":0.000005296746117082157,"208":-0.0000067280475710654465,"209":8.916031024465031e-7,"210":0.000006535623682630281,"211":-0.0000010305454360555457,"212":-0.000002533726708864322,"213":0.00000586555051103021,"214":0.0000022078739896339983,"215":-0.0000012168835106787816,"216":-0.0000027171003864798,"217":-0.28672691987537324,"218":-0.011091955997890007,"219":-5.057912956606424e-7,"220":-0.0000019487643701384005,"221":0.19394539209391484,"222":-0.000005666010425399579,"223":-7.709842952039563e-7,"224":0.000003311479882022464,"225":-0.0000010731669502092503,"226":-3.642618971227131e-7,"227":0.000001896322843503066,"228":0.0000022164577448013896,"229":-0.000007738225623748205,"230":0.0000010113558264682127,"231":0.0000023225132009425954,"232":-0.0000022228571993461203,"233":-0.0000018162970595342513,"234":-4.832107258572856e-7,"235":0.0000010653908240201416,"236":0.000004114256541952757,"237":-0.000001667300917738681,"238":-2.927081364422195e-7,"239":1.7854843924273743e-7,"240":-2.633259600312843e-7,"241":-0.0000015536492107899184,"242":-0.0000036091828753826483,"243":-0.0000023665707355680243,"244":0.0000011477026782433022,"245":-0.0000012852553144655392,"246":0.000005087593469872591,"247":0.0000026381185385964297,"248":0.000001377668290718882,"249":-8.535791678737088e-7,"250":8.144507160948357e-7,"251":-5.35018284352182e-7,"252":-0.0000020514131842095216,"253":0.0000013903848552365217,"254":0.0000020636579368805718,"255":-0.000003400542514239775,"256":0.0000030027543190003823,"257":-0.000004865390064143316,"258":-0.000002528798689760964,"259":0.00000321073506769648,"260":-0.0000031570772746984652,"261":-0.000001938924583016393,"262":-9.620376673539084e-7,"263":-0.0000020729768927221014,"264":0.000005402395032191115,"265":0.000001154038357832969,"266":-7.995860752391439e-7,"267":-0.000001868834612012192,"268":0.0000014438194721209874,"269":-8.563617190547885e-7,"270":0.0000026105620112036746,"271":0.0000018913051238086006,"272":0.0000025573528349088787,"273":0.0000015155524890054429,"274":0.0000051474672250612314,"275":-7.395364831897295e-7,"276":-0.0000017824699072987897,"277":0.000004442807489514108,"278":-3.0882177293523556e-8,"279":0.000005517427735878257,"280":0.000002552098515965725,"281":0.0000019608986633452994,"282":0.000005123986371465725,"283":0.000004995366125443642,"284":-0.00000199536288595522,"285":-6.333520735775696e-7,"286":0.0000018038205957077943,"287":-0.27471245991921683,"288":1.281797642100417e-7,"289":-0.34245359452104923,"290":1.7254970293439293e-8,"291":0.0000043437455716332866,"292":0.0000022548846894231087,"293":-0.000006982109961421513,"294":-0.0000026551104596549955,"295":-2.477840471272976e-7,"296":-0.0000027045328125128388,"297":0.0000018180884351971089,"298":-0.000002617577294701574,"299":0.0000036283956131483713}},"b2":{"n":3,"d":1,"w":{"0":0.2759201575830132,"1":0.6911052614458258,"2":0.36082616351766855}}}}},"weights":{"nh":100,"ns":4,"na":3,"net":{"W1":{"n":100,"d":4,"w":{"0":0.018880886582261384,"1":-0.028382098345083196,"2":-0.00951940971464398,"3":-0.009325239297635662,"4":0.01578388940179419,"5":-0.023726634833657174,"6":-0.007957958406911029,"7":-0.007795637406989229,"8":0.011170597585786292,"9":-0.016791849147387836,"10":-0.005632018110730219,"11":-0.0055171400521444565,"12":-0.00728654312656171,"13":0.01095326655965608,"14":0.003673746416736183,"15":0.003598811846569426,"16":0.02179220249104073,"17":-0.0327584423303872,"18":-0.010987243802956502,"19":-0.01076313350901918,"20":-0.009703535325342322,"21":0.014586533990551591,"22":0.004892351216740138,"23":0.004792560378222349,"24":-0.006381729683772321,"25":0.00959313423717728,"26":0.0032175554513484486,"27":0.0031519259529005947,"28":-0.024771663925841576,"29":0.03723722393219231,"30":0.012489435662495654,"31":0.012234684685366197,"32":0.031561447978065725,"33":-0.04744375305068264,"34":-0.015912724922660416,"35":-0.015588148030498638,"36":-0.004036398284337144,"37":0.006067588646834664,"38":0.002035080761353106,"39":0.001993570573973097,"40":-0.03132199125496187,"41":0.04708379727033775,"42":0.015791995069966543,"43":0.015469880742829982,"44":0.004925061334227698,"45":-0.007403443399643342,"46":-0.002483128983742508,"47":-0.0024324798147485195,"48":0.01175543958382605,"49":-0.017670994468891945,"50":-0.005926885122054377,"51":-0.005805992567585768,"52":-0.02728600474601773,"53":0.041016827612985,"54":0.0137571219188004,"55":0.013476513543621525,"56":-0.011311122823936093,"57":0.017003089287608682,"58":0.005702868455144156,"59":0.0055865452396284005,"60":0.004967586913069269,"61":-0.0074673686372445265,"62":-0.0025045696299000448,"63":-0.0024534831292502774,"64":0.012553519791229739,"65":-0.01887068341543453,"66":-0.00632926307429125,"67":-0.00620016308920693,"68":0.7617674563413825,"69":10.689159309063973,"70":-13.288460099117554,"71":-14.722501467858574,"72":-55.58684439791148,"73":-26.169521550415585,"74":22.520146745528898,"75":-54.18684412985191,"76":0.004886394931160493,"77":-0.007345319346530458,"78":-0.0024636340658851794,"79":-0.002413382540910219,"80":0.008988190844254305,"81":-0.013511214919885349,"82":-0.004531687157192151,"83":-0.004439252897809804,"84":-18.703525410270416,"85":-24.426810442574784,"86":38.16946869438487,"87":-0.9219527347882559,"88":0.026869839203675288,"89":-0.040391239863300135,"90":-0.013547298598852018,"91":-0.013270970056377247,"92":0.0038219875868047305,"93":-0.005745282515858247,"94":-0.0019269786726001184,"95":-0.0018876734777907227,"96":-0.014286438497639612,"97":0.021475638904915505,"98":0.00720297009522132,"99":0.007056048831143216,"100":0.005045716483081868,"101":-0.007584814453686285,"102":-0.002543961179896948,"103":-0.0024920711973156384,"104":0.001449374565373413,"105":-0.0021787266861163484,"106":-0.0007307490703863228,"107":-0.0007158437499595063,"108":-0.008975552165783433,"109":0.013492216224365883,"110":0.004525314958614946,"111":0.004433010674986505,"112":-0.010188829893993053,"113":0.01531603777279301,"114":0.005137028171456537,"115":0.0050322465795440635,"116":0.035300113912664195,"117":-0.0530637849146869,"118":-0.017797694288710444,"119":-0.017434669079764906,"120":-0.00359979856879835,"121":0.005411283869506777,"122":0.0018149548919730082,"123":0.0017779346817266152,"124":-0.011354805248778271,"125":0.01706875351753819,"126":0.005724892362633396,"127":0.00560811991849659,"128":0.010741846516798225,"129":-0.016147342600909553,"130":-0.005415849390394805,"131":-0.005305380593709476,"132":0.008644178641500244,"133":-0.012994089406312914,"134":-0.004358242277334025,"135":-0.004269345828140276,"136":0.0021582467866734863,"137":-0.0032443165360349765,"138":-0.0010881499308078044,"139":-0.0010659545917398312,"140":-0.005084773964304098,"141":0.007643526382723698,"142":0.0025636532724564783,"143":0.002511361624021214,"144":-0.020082494084661843,"145":0.03018837699385784,"146":0.010125239005614127,"147":0.009918711296613926,"148":0.007449872504226756,"149":-0.011198786304685031,"150":-0.003756094205738197,"151":-0.0036794799616178633,"152":0.0012869747025049088,"153":-0.0019346042049397593,"154":-0.0006488699263353737,"155":-0.0006356347207643617,"156":-0.0014327275227474308,"157":0.002153702543371853,"158":0.0007223559253607164,"159":0.0007076218025734831,"160":0.0012819479200540434,"161":-0.0019270478524738752,"162":-0.0006463355113602836,"163":-0.0006331520010548877,"164":0.007273269270680094,"165":-0.010933313053690566,"166":-0.003667053972920987,"167":-0.003592255910651951,"168":0.017137808969942627,"169":-0.025761871800198722,"170":-0.008640580752709402,"171":-0.008464336088495603,"172":0.011405403560802885,"173":-0.017144813837149234,"174":-0.00575040313835528,"175":-0.005633110342840825,"176":-0.00636442614375272,"177":0.009567123235394041,"178":0.0032088313119259994,"179":0.0031433797625152406,"180":0.0060437565589096425,"181":-0.009085086777318238,"182":-0.0030471553679554523,"183":-0.002985001574020464,"184":-0.02392662625699487,"185":0.03596694766017359,"186":0.012063382587162181,"187":0.011817321949557629,"188":-0.011875733559143686,"189":0.01785182260018204,"190":0.005987535220886203,"191":0.0058654055671300085,"192":-0.00596611476147972,"193":0.008968374189655435,"194":0.0030080097442842946,"195":0.002946654416043343,"196":0.004334108091253277,"197":-0.006515111541564999,"198":-0.0021851807905972193,"199":-0.002140608965341934,"200":-0.003427026835604452,"201":0.0051515702007918366,"202":0.0017278464339964177,"203":0.0016926030025791615,"204":0.0023001903281983285,"205":-0.003457688696158479,"206":-0.0011597153587479781,"207":-0.0011360602769611252,"208":0.01018258438724165,"209":-0.015306649411390856,"210":-0.005133879297203075,"211":-0.005029161933876696,"212":-0.006580683184514653,"213":0.009892204823701938,"214":0.0033178642943417535,"215":0.003250188764628375,"216":-0.008821463943154336,"217":0.013260587954715608,"218":0.004447626396850246,"219":0.004356906751439957,"220":0.016104708586297454,"221":-0.02420889617268995,"222":-0.008119709776383292,"223":-0.007954089482522743,"224":-0.014152047211831205,"225":0.021273619435445347,"226":0.007135212381297572,"227":0.0069896731927830144,"228":0.018759686676523234,"229":-0.028199908402418553,"230":-0.009458302861688481,"231":-0.009265378860520668,"232":0.01201590480129507,"233":-0.018062530607062005,"234":-0.006058207086766585,"235":-0.005934635916564081,"236":-0.014850829654746881,"237":0.022324042143609876,"238":0.0074875261535573565,"239":0.007334800709382043,"240":0.014539715535627171,"241":-0.021856369638573625,"242":-0.007330667906729013,"243":-0.007181141949922018,"244":0.008898690067976979,"245":-0.013376675695616444,"246":-0.004486562445730321,"247":-0.0043950486093900926,"248":0.00403784225288066,"249":-0.006069759247088714,"250":-0.002035808784802645,"251":-0.0019942837476975735,"252":0.009856309037044035,"253":-0.014816186263033495,"254":-0.004969377025299737,"255":-0.004868015066951637,"256":-0.025535639795945687,"257":0.03838564660724822,"258":0.012874618809869962,"259":0.01261201113008765,"260":-0.0049152635777078265,"261":0.007388715230608528,"262":0.0024781891278627334,"263":0.0024276407186749733,"264":0.003933221412572865,"265":-0.005912491262574971,"266":-0.001983060803967181,"267":-0.001942611684147298,"268":0.008533387900680757,"269":-0.0128275467130979,"270":-0.004302383541576973,"271":-0.004214626460721183,"272":-0.006193167052323339,"273":0.00930968339779229,"274":0.003122485501225116,"275":0.0030587951746843256,"276":0.00378086905443663,"277":-0.005683472376571748,"278":-0.0019062474344361095,"279":-0.0018673651012629901,"280":-0.01243521341672748,"281":0.01869284308249693,"282":0.0062696150887038785,"283":0.006141731762485317,"284":-0.009484089978420639,"285":0.014256659681386912,"286":0.004781710746642163,"287":0.004684176676860349,"288":-0.012025917790290616,"289":0.01807758231754047,"290":0.006063255459060995,"291":0.005939581315608786,"292":-0.007117512828434869,"293":0.010699177085419894,"294":0.003588524324274246,"295":0.0035153280561398925,"296":-0.024238982310539153,"297":0.03643648706399815,"298":0.012220866995393945,"299":0.01197159409843242,"300":0.0031643472823598144,"301":-0.004756705432068204,"302":-0.0015954080402722705,"303":-0.00156286599675257,"304":0.008444151281917294,"305":-0.012693404575295485,"306":-0.004257392013670441,"307":-0.004170552639269723,"308":-0.021222442887979844,"309":0.03190196914436858,"310":0.010699981068951087,"311":0.010481730164002142,"312":0.0006130950718921704,"313":-0.0009216158653328506,"314":-0.0003091117124221507,"315":-0.0003028066628393148,"316":-0.026140683964446132,"317":0.03929516020538959,"318":0.013179671398887172,"319":0.012910841464834559,"320":-0.01238320124456989,"321":0.01861465742215335,"322":0.006243391469661508,"323":0.006116043034911688,"324":-0.008208027852108824,"325":0.01233845946309018,"326":0.004138342748594862,"327":0.004053931659787678,"328":-0.02433144273380195,"329":0.03657547528440773,"330":0.01226748390861577,"331":0.012017260151709702,"332":-0.02404758842170883,"333":0.03614878022612075,"334":0.012124369575287607,"335":0.011877064966769038,"336":0.009507031645994968,"337":-0.014291146020916695,"338":-0.004793277530448987,"339":-0.004695507529311684,"340":0.004239086540839827,"341":-0.006372273387379661,"342":-0.002137272602272406,"343":-0.0020936779755203476,"344":-0.007739814526288931,"345":0.011634632521375872,"346":0.003902277854980876,"347":0.0038226818566320705,"348":3.651368269568502,"349":5.218465603718406,"350":-2.130667103350759,"351":-5.386500833683916,"352":-0.0030595301559425176,"353":0.004599142386639669,"354":0.0015425610954453006,"355":0.0015110969878108437,"356":1.2583191945663952,"357":4.65700171787401,"358":-12.367296048651802,"359":11.6509344614742,"360":-0.00013403560293208245,"361":0.0002014848003922503,"362":0.00006757838489877661,"363":0.00006619996716048673,"364":-0.020438512993612646,"365":0.030723551210487695,"366":0.010304737454774513,"367":0.010094548459039215,"368":-0.010948176753361476,"369":0.016457502033316845,"370":0.005519877453367801,"371":0.005407286763311618,"372":0.033028308196720216,"373":-0.049648764494127355,"374":-0.01665228995062678,"375":-0.01631262791648099,"376":0.012300823674223284,"377":-0.018490825932948415,"378":-0.006201858152886211,"379":-0.006075356886361395,"380":0.001065229027138863,"381":-0.0016012719994540478,"382":-0.0005370696712410841,"383":-0.0005261148909124652,"384":0.012995289681855267,"385":-0.01953476009567386,"386":-0.0065519956546761585,"387":-0.006418352522561659,"388":-0.008059684275465722,"389":0.012115466651664793,"390":0.004063550535927207,"391":0.00398066500758779,"392":0.01278731397235093,"393":-0.01922212715787365,"394":-0.006447137973294483,"395":-0.0063156336565383395,"396":-0.016921880262910804,"397":0.025437283769250734,"398":0.008531713310369138,"399":0.008357689249872851}},"b1":{"n":100,"d":1,"w":{"0":-4.076977332831238e-7,"1":-3.408238133700152e-7,"2":-2.412083268169774e-7,"3":1.5733937526143827e-7,"4":-4.705622149947193e-7,"5":2.095298380172605e-7,"6":1.3780160785858175e-7,"7":5.348981793142289e-7,"8":-6.815110467698979e-7,"9":8.715852876476707e-8,"10":6.763404196882661e-7,"11":-1.063475580412206e-7,"12":-2.5383690535074157e-7,"13":5.891907286497656e-7,"14":2.4424270875639566e-7,"15":-1.072658190068331e-7,"16":-2.7106996781008107e-7,"17":0.13823960794001625,"18":-0.4294360173250121,"19":-1.0551262883325977e-7,"20":-1.94083300838064e-7,"21":-4.337842839141882,"22":-5.802044015792159e-7,"23":-8.25287276981664e-8,"24":3.084891354716798e-7,"25":-1.0895288207272572e-7,"26":-3.129655337002822e-8,"27":1.9381039199653088e-7,"28":2.200088741660728e-7,"29":-7.622406630566977e-7,"30":7.773096825108289e-8,"31":2.451859497354005e-7,"32":-2.319502425179286e-7,"33":-1.8665499545192973e-7,"34":-4.6603333190555256e-8,"35":1.0979625587805639e-7,"36":4.3364422389646767e-7,"37":-1.608661701449299e-7,"38":-2.7789829778410528e-8,"39":3.09370913820971e-8,"40":-2.7681285741403475e-8,"41":-1.5705275097296516e-7,"42":-3.7005919899487e-7,"43":-2.462785264485498e-7,"44":1.3742797002179858e-7,"45":-1.305037053721028e-7,"46":5.166511516331586e-7,"47":2.5643443072912475e-7,"48":1.2882717482519441e-7,"49":-9.358701950089523e-8,"50":7.400028333540119e-8,"51":-4.9668340500340464e-8,"52":-2.1987401400993286e-7,"53":1.4209763951574316e-7,"54":1.904831426776222e-7,"55":-3.477513094634212e-7,"56":3.0558720468977646e-7,"57":-4.0508064558237034e-7,"58":-2.594611688109962e-7,"59":3.2067611672417487e-7,"60":-3.139581837584022e-7,"61":-1.9215069759598522e-7,"62":-8.718970859154502e-8,"63":-2.128287029623301e-7,"64":5.51394827632066e-7,"65":1.0613599367302969e-7,"66":-8.493061571616441e-8,"67":-1.84262674925029e-7,"68":1.3372994773030174e-7,"69":-8.164084931515464e-8,"70":2.685153609801539e-7,"71":2.0479132277405735e-7,"72":2.5967738072827684e-7,"73":1.5368947959489693e-7,"74":5.233959036259542e-7,"75":-6.832820594205803e-8,"76":-1.8233577568030002e-7,"77":4.5825930988534585e-7,"78":-1.3238650026769465e-8,"79":5.644596396630323e-7,"80":2.673922545833314e-7,"81":1.772371282812839e-7,"82":5.253924156594977e-7,"83":5.192631061607154e-7,"84":-2.052867055232308e-7,"85":-9.153520547983456e-8,"86":1.6712693016361492e-7,"87":-0.4599182733457533,"88":6.606487464752301e-8,"89":4.115709944666623,"90":2.8942500429618382e-9,"91":4.413317936875963e-7,"92":2.364055613675794e-7,"93":-7.131851941961854e-7,"94":-2.6561346363998524e-7,"95":-2.300164352932645e-8,"96":-2.806091697183094e-7,"97":1.7403392392864856e-7,"98":-2.761183197632839e-7,"99":3.6539661837933665e-7}},"W2":{"n":3,"d":100,"w":{"0":0.000029000245136683535,"1":0.00002424338814098855,"2":0.000017157566563198366,"3":-0.000011191822796333885,"4":0.000033471903533656495,"5":-0.000014904220831886548,"6":-0.00000980206752561178,"7":-0.000038048230583401045,"8":0.0000484770524027288,"9":-0.000006199737454233738,"10":-0.00004810925697957594,"11":0.000007564686402902819,"12":0.000018055859195576593,"13":-0.00004191015199423553,"14":-0.000017373407399717143,"15":0.000007630003897694653,"16":0.00001928167672022259,"17":-0.5384109431304666,"18":-0.0439669356466428,"19":0.0000075052964392712295,"20":0.000013805481891947074,"21":-0.184856902934953,"22":0.00004127093928068674,"23":0.000005870411669599263,"24":-0.00002194336673511042,"25":0.000007750007620658128,"26":0.000002226178177962048,"27":-0.000013786069415079138,"28":-0.0000156496128129827,"29":0.000054219485531099033,"30":-0.0000055291387129149395,"31":-0.000017440501761166567,"32":0.000016499023011808993,"33":0.000013277093663650087,"34":0.000003314975999948891,"35":-0.000007809998263834855,"36":-0.00003084586356018861,"37":0.00001144268982895861,"38":0.000001976738840844628,"39":-0.0000022006090228878435,"40":0.0000019690179150981563,"41":0.000011171434713765827,"42":0.00002632295147090092,"43":0.00001751821863350252,"44":-0.000009775490018240088,"45":0.00000928295506614762,"46":-0.00003675028837919887,"47":-0.000018240625666024146,"48":-0.000009163700541284706,"49":0.000006657007156182051,"50":-0.000005263768620602574,"51":0.00000353299529061161,"52":0.000015640019978128766,"53":-0.000010107651708164094,"54":-0.000013549396406673952,"55":0.00002473615287187885,"56":-0.000021736947390574997,"57":0.000028814087195300976,"58":0.000018455922779624067,"59":-0.000022810247738706082,"60":0.00002233238957877665,"61":0.0000136680124759507,"62":0.000006201955328988057,"63":0.000015138874806973724,"64":-0.000039221665285021256,"65":-0.000007549637462291674,"66":0.000006041262132612987,"67":0.000013106923760417783,"68":-0.000009512443279851414,"69":0.000005807255338824529,"70":-0.000019099963120759975,"71":-0.000014567162038224137,"72":-0.000018471302308228502,"73":-0.000010932199390416373,"74":-0.00003723005409802607,"75":0.000004860303910239365,"76":0.000012969860079213501,"77":-0.00003259677682355314,"78":9.416881616863963e-7,"79":-0.00004015098759888547,"80":-0.000019020074618922614,"81":-0.000012607184453952029,"82":-0.000037372069406914915,"83":-0.00003693608116038902,"84":0.00001460239947161821,"85":0.000006511058064056767,"86":-0.000011888028541127627,"87":0.033218495894345966,"88":-0.0000046993092266820464,"89":-0.4381274411226793,"90":-2.058730306477095e-7,"91":-0.00003139269358262486,"92":-0.0000168159375493482,"93":0.00005073008780667188,"94":0.00001889354614667735,"95":0.000001636146839749041,"96":0.000019960216632336556,"97":-0.00001237933497937414,"98":0.000019640774717795857,"99":-0.000025991294087701046,"100":-4.793372651354221e-7,"101":-4.007124395151887e-7,"102":-2.835927901211e-7,"103":1.8498661624905736e-7,"104":-5.532481267398498e-7,"105":2.4634784389717993e-7,"106":1.6201572610701115e-7,"107":6.288890380917259e-7,"108":-8.012643442408484e-7,"109":1.0247378473043871e-7,"110":7.951851475319837e-7,"111":-1.2503465730827813e-7,"112":-2.984404280235078e-7,"113":6.927217338932698e-7,"114":2.87160365380716e-7,"115":-1.2611427253792346e-7,"116":-3.1870163728436444e-7,"117":0.6359827838373829,"118":-0.4644877404112769,"119":-1.2405301663384432e-7,"120":-2.281870835282783e-7,"121":0.39549618709702666,"122":-6.821563524326598e-7,"123":-9.703044779318748e-8,"124":3.6269599944454717e-7,"125":-1.280977816854227e-7,"126":-3.67958972514524e-8,"127":2.2786621991771598e-7,"128":2.586682275968494e-7,"129":-8.961795693028671e-7,"130":9.13896392843823e-8,"131":2.882693500781e-7,"132":-2.7270790056519154e-7,"133":-2.1945349669718387e-7,"134":-5.479234214134688e-8,"135":1.2908935082363766e-7,"136":5.098430040168419e-7,"137":-1.8913312982437426e-7,"138":-3.2672981880699544e-8,"139":3.637327159971425e-8,"140":-3.254536478748386e-8,"141":-1.8464962713726103e-7,"142":-4.350849883649567e-7,"143":-2.895539113786783e-7,"144":1.6157643365647915e-7,"145":-1.5343545628851118e-7,"146":6.074356902671266e-7,"147":3.014943834721989e-7,"148":1.5146433042277383e-7,"149":-1.1003187213291122e-7,"150":8.700340872191977e-8,"151":-5.839592406654016e-8,"152":-2.585096701847567e-7,"153":1.6706664463703424e-7,"154":2.2395431545062383e-7,"155":-4.0885721652084906e-7,"156":3.5928414924097324e-7,"157":-4.762603097848344e-7,"158":-3.050529717337692e-7,"159":3.7702444403084597e-7,"160":-3.6912605409716426e-7,"161":-2.259148885493961e-7,"162":-1.0251044338818451e-7,"163":-2.502263763491286e-7,"164":6.482844346352689e-7,"165":1.247859174243443e-7,"166":-9.98543889470414e-8,"167":-2.1664080418804255e-7,"168":1.5722860506487225e-7,"169":-9.598655386719108e-8,"170":3.1569814190303255e-7,"171":2.407766897316455e-7,"172":3.053071758082156e-7,"173":1.8069537095343893e-7,"174":6.15365612497856e-7,"175":-8.033464954011335e-8,"176":-2.1437531549881584e-7,"177":5.387833876426581e-7,"178":-1.556490902952084e-8,"179":6.636449616038305e-7,"180":3.143776862598274e-7,"181":2.0838074775804263e-7,"182":6.17712946427221e-7,"183":6.105066106139159e-7,"184":-2.413591197962136e-7,"185":-1.0761951900588784e-7,"186":1.964940133889872e-7,"187":-0.39977108374006315,"188":7.767361191863116e-8,"189":0.8701076680259436,"190":3.4028196632284232e-9,"191":5.188814131176281e-7,"192":2.7794609586230754e-7,"193":-8.38504194056909e-7,"194":-3.1228633104043654e-7,"195":-2.7043428771850558e-8,"196":-3.2991704177580753e-7,"197":2.0461468514456653e-7,"198":-3.24637071885206e-7,"199":4.2960311166021564e-7,"200":0.000024852177772647045,"201":0.000020775720732702273,"202":0.0000147034239124112,"203":-0.000009590993846972562,"204":0.000028684229725138504,"205":-0.000012772386830108927,"206":-0.000008400023041551674,"207":-0.00003260597893187307,"208":0.000041543107368754375,"209":-0.000005312954371646841,"210":-0.000041227919811891696,"211":0.00000648266704517677,"212":0.000015473228721178647,"213":-0.00003591550791688059,"214":-0.000014888391825978666,"215":0.000006538641813688136,"216":0.000016523710701728236,"217":-0.016710358369015382,"218":-0.1601757046683676,"219":0.0000064317719599202585,"220":0.000011830806666830034,"221":-0.08583654642073962,"222":0.000035367725410271784,"223":0.0000050307338940472105,"224":-0.000018804684282815952,"225":0.000006641480733552164,"226":0.0000019077554776820427,"227":-0.000011814170865116373,"228":-0.000013411161225821294,"229":0.0000464641676358061,"230":-0.000004738275115116656,"231":-0.000014945889305328254,"232":0.000014139075530831076,"233":0.000011377996762057398,"234":0.000002840816464886312,"235":-0.000006692890579790976,"236":-0.00002643380702094181,"237":0.000009805977965381323,"238":0.0000016939948423521956,"239":-0.0000018858436216919096,"240":0.0000016873782837451834,"241":0.000009573521985851086,"242":0.00002255783245279543,"243":0.000015012489898406114,"244":-0.000008377247063620863,"245":0.00000795516213870418,"246":-0.00003149368872014627,"247":-0.000015631567008954583,"248":-0.000007852965255071888,"249":0.000005704818233121551,"250":-0.000004510862389748755,"251":0.0000030276512384596066,"252":0.00001340294050781873,"253":-0.000008661897810358822,"254":-0.000011611350520818696,"255":0.000021198002560344754,"256":-0.000018627790253890012,"257":0.00002469264704743738,"258":0.000015816068971021273,"259":-0.00001954757043767888,"260":0.000019138063008864997,"261":0.000011713000270285106,"262":0.000005314855011389729,"263":0.000012973476934378712,"264":-0.0000336115706470342,"265":-0.000006469770638638658,"266":0.00000517714666074653,"267":0.000011232167211766069,"268":-0.00000815182537052729,"269":0.000004976611166133901,"270":-0.0000163679886159893,"271":-0.000012483539441261421,"272":-0.000015829248679562156,"273":-0.000009368505828261029,"274":-0.000031904830843401265,"275":0.0000041651074910337885,"276":0.000011114708515404696,"277":-0.00002793427731297647,"278":8.069932436761566e-7,"279":-0.00003440796674376471,"280":-0.000016299527013909026,"281":-0.000010803908412949282,"282":-0.00003202653290189916,"283":-0.000031652906512438155,"284":0.000012513736667447045,"285":0.000005579745055148983,"286":-0.000010187617391608297,"287":0.1557498556323145,"288":-0.000004027140776517588,"289":0.09153791026486943,"290":-1.7642586107534442e-7,"291":-0.000026902420870642994,"292":-0.000014410660008453143,"293":0.00004347387832352777,"294":0.00001619109661755176,"295":0.0000014021196177502637,"296":0.000017105195250041852,"297":-0.000010608649522848859,"298":0.000016831444901656296,"299":-0.000022273613886347326}},"b2":{"n":3,"d":1,"w":{"0":0.022296454428383253,"1":-0.13219718189807278,"2":0.07146951015531705}}}}}