{"numStates":1,"sensitivity":19.122978565820773,"alpha":0.038394659307720395,"gamma":0.35543237630076807,"epsilon":0.0643903117154806,"cycles":3180,"max":{"lastUpdatedDate":"2018-01-26T00:34:55.386Z","meetsCriterion":false,"cycles":116,"wealth":1.5555561677173737,"percentSuccess":0.20249539155647392,"odds":1.0416666666666667,"weights":{"nh":100,"ns":4,"na":3,"net":{"W1":{"n":100,"d":4,"w":{"0":-0.10883684136298274,"1":-0.20827942827426751,"2":-0.16169736651908667,"3":0.5453239965289866,"4":-0.14530567115005003,"5":-0.425840800534814,"6":0.46143359894707703,"7":0.5257717496401789,"8":-0.024711464948705606,"9":0.13912976582524067,"10":-0.3932579457526216,"11":-0.07262662746234433,"12":0.2889655250412937,"13":0.5642985659737069,"14":-0.4428208497845893,"15":-0.6387210715644089,"16":-0.21350091352713793,"17":-0.5969435026310003,"18":0.08053109466823179,"19":1.2471095797807916,"20":0.028421170388544637,"21":-0.07887725973489855,"22":0.32336588243273107,"23":-0.05688412639961111,"24":-0.05517074184568786,"25":-0.0612172953905227,"26":-0.13770822532256408,"27":0.22219024405385923,"28":0.03252766296267472,"29":0.0708593042745509,"30":-0.3920030520364603,"31":0.346447902581604,"32":0.004736595993188757,"33":0.0850181048199135,"34":-0.08180831148585718,"35":-0.16108768405317903,"36":-0.08443539757777163,"37":0.18860120116684803,"38":0.18154385808830656,"39":-0.9227303184886437,"40":0.17082413596814927,"41":0.19013078373048753,"42":0.03263169374020955,"43":-0.27418105644783525,"44":0.4732489656811988,"45":0.7454830345610006,"46":-1.2273388877353038,"47":0.015323359032019463,"48":-0.0603975808490118,"49":-0.31109550433898797,"50":0.478188649958526,"51":0.3034596904005871,"52":-0.074359714076474,"53":-0.07325416016973263,"54":-0.22860311589440832,"55":0.2217256839417554,"56":0.14089121682650502,"57":0.29520246815008055,"58":-0.07527691836335759,"59":-0.4766488489600664,"60":-0.033830412835194335,"61":0.020980594557085255,"62":0.5523513042894952,"63":-0.7047769315555552,"64":-0.03960981452458972,"65":-0.05655534522181765,"66":-0.08527665511907906,"67":0.2560326608651516,"68":-0.08939689202579448,"69":-0.12784551873774883,"70":0.10948978833046702,"71":0.12616095759417034,"72":-0.0018949402398153313,"73":0.005811600777267956,"74":-0.10281715216970647,"75":0.08737489131040069,"76":0.0954597031273219,"77":0.2498221762181992,"78":-0.44136305850044505,"79":-0.04349508640890731,"80":-0.07722153742847507,"81":-0.1284217029873355,"82":0.09091484754511248,"83":0.13903216074107455,"84":0.010731600572642108,"85":0.332526086560699,"86":-0.6486325812713752,"87":-0.2995242829837436,"88":0.2935155979389473,"89":0.3557955315572035,"90":-0.21557438399194523,"91":-0.3587471788658086,"92":0.05775730660499206,"93":0.11360581582245091,"94":0.00022456467736915224,"95":-0.1627396365922759,"96":-0.07875043333356709,"97":-0.0096347779418551,"98":-0.24597454444754072,"99":0.17069038766326367,"100":-0.04612109309439565,"101":-0.30075228123722314,"102":0.6270180040251723,"103":0.11645011919323045,"104":-0.03779862430436919,"105":-0.18910932902636252,"106":0.4104697341576006,"107":0.13190568474091457,"108":-0.09655713785225811,"109":-0.16311647396635529,"110":0.39709959554448215,"111":-0.12400672749915008,"112":0.13636285003641463,"113":0.2402950931565661,"114":-0.4275754634197622,"115":0.03295173469979361,"116":-0.5280417902877724,"117":-0.857787377884864,"118":1.4407019395857201,"119":0.03588923484993117,"120":-0.22220690826659795,"121":0.28295944030990117,"122":-0.5314787080106299,"123":-0.7104637540155558,"124":-0.24333908987469938,"125":-0.2848416084069748,"126":0.15955979769506368,"127":0.3017779558809827,"128":0.0861646157248859,"129":-0.04765352628852683,"130":0.33004025193788006,"131":-0.10474105356041516,"132":-0.03197726262143148,"133":0.24191559884040623,"134":-0.45763391334136866,"135":-0.24568843886463984,"136":0.3309127761420267,"137":0.593278691014115,"138":-1.2968174731579376,"139":0.2757308545212776,"140":-0.24459956780777972,"141":-0.20932336296330487,"142":0.03050490856159078,"143":0.10772647012810913,"144":0.07098805953738802,"145":0.18522922781084358,"146":-0.2686471297839035,"147":-0.0994594667514269,"148":0.10395323863565509,"149":0.15699321007843012,"150":0.23037102272329282,"151":-0.5208358002694548,"152":-0.16642969906075838,"153":-0.28348169618972924,"154":0.5788544621239134,"155":-0.14110086581725645,"156":-0.16872753915716246,"157":-0.3074386035515789,"158":0.4579141765635347,"159":0.08387934746921515,"160":0.39762334435951846,"161":0.5585866909082454,"162":-0.8165990194567534,"163":-0.06706614450922761,"164":0.2083698180808154,"165":0.45778696450371476,"166":-0.03567937575155264,"167":-0.9387128953878029,"168":-0.15001529874404929,"169":-0.233913260932259,"170":0.21055880868211926,"171":0.2038251754969381,"172":0.04799419154883314,"173":0.2393678619215883,"174":-0.24805763293771763,"175":-0.3111399339216748,"176":-0.1905789773691413,"177":-0.2400439409990456,"178":0.13585590076919282,"179":0.2187818950961792,"180":0.005491126556501602,"181":0.059020771105936835,"182":-0.20748066981406726,"183":0.04783686147797066,"184":-0.13769368132456708,"185":-0.20631818041450076,"186":-0.030257953463114957,"187":0.38874607161775526,"188":-0.3686022239026195,"189":-0.48164335952204235,"190":0.8783681402452231,"191":-0.1574450407571736,"192":0.025800257760877965,"193":-0.07606550851625692,"194":0.14771938879857452,"195":0.023055558378001693,"196":-0.26801340059633333,"197":-0.4208732630125427,"198":0.8791107405953514,"199":-0.21112631038495175,"200":-0.2186484767802293,"201":-0.35948738856590345,"202":0.29642267014872975,"203":0.3815112157162674,"204":-2.981429298307207,"205":-0.9196314421501904,"206":-1.2565911597360027,"207":-1.8542675082853939,"208":0.11145572702296422,"209":0.20373797157598167,"210":-0.29975044862913724,"211":-0.11964991514603428,"212":-0.026852405001714708,"213":-0.06722909800931043,"214":-0.03585859789549789,"215":0.13688602987981413,"216":-0.16718769582547885,"217":-0.16787144032896584,"218":0.1977091619152986,"219":-0.019367281590016782,"220":-0.030899066206049916,"221":-0.08911552234515284,"222":0.2955712756761873,"223":-0.12916286798108223,"224":0.2540876796378336,"225":0.31981222363257633,"226":-0.15416876368429658,"227":-0.3177987325102723,"228":-0.16252509252438063,"229":-0.20763688509958642,"230":0.08112646893721263,"231":0.21485116001873936,"232":-0.184803204969667,"233":-0.27140586054634896,"234":0.10497985456059299,"235":0.36138681028016006,"236":-0.020866699139611505,"237":0.3242520571445972,"238":-0.7834153218267089,"239":-0.16275898557195922,"240":-0.31173733465608633,"241":-0.39217083702364575,"242":0.15635839631336748,"243":0.43414760374696665,"244":-0.13485598462597084,"245":-0.6970764938634182,"246":0.06799558670343715,"247":1.7433478780792324,"248":2.7229520029893326,"249":-2.110335230752097,"250":8.266558439325692,"251":3.697529243770034,"252":0.016450997367034252,"253":-0.09834033890390098,"254":0.14051233161711682,"255":0.2067589248204822,"256":-0.293485299820401,"257":-0.6279120770541445,"258":0.4034753010903874,"259":0.874230949001534,"260":0.29424756214643943,"261":0.44476749909277397,"262":-0.7659292631893513,"263":0.036568688430238125,"264":0.08765936224011778,"265":-0.04034203034799843,"266":-0.10557875798547302,"267":0.3704883302640422,"268":0.0016674966392959106,"269":-0.2607689587534947,"270":0.04522047166776525,"271":0.7241941650257484,"272":-0.27515650027899746,"273":-0.3160366714383195,"274":0.1315270370789801,"275":0.3296031772967297,"276":-0.05194946649763582,"277":-0.5873626573820079,"278":0.8958389970456058,"279":0.6784618157401062,"280":0.07869119460159342,"281":-0.04481308726285915,"282":0.19161850700380104,"283":0.08274950110908436,"284":-0.07039947473140142,"285":0.03447933200827469,"286":-0.16179149256243175,"287":-0.0643631686213055,"288":0.24350219492740194,"289":0.3672817942805606,"290":-0.5624712223800667,"291":-0.025874929868448145,"292":-0.16545398902419295,"293":-0.2385965317604935,"294":0.6776638986321363,"295":-0.38046992908749794,"296":-0.2387722465177972,"297":-0.3710775737094386,"298":0.0019224506706336908,"299":0.5776331136967826,"300":-1.369231873030898,"301":-0.7095704276106309,"302":1.3142468186551792,"303":-2.0217622237738624,"304":0.1962828225180274,"305":0.2111935444595593,"306":-0.44695580150597497,"307":0.2154160791491259,"308":-0.020199650266455985,"309":0.16736460674386416,"310":-0.06306274493484042,"311":-0.4038692230474924,"312":-0.23880470715801114,"313":-0.3170971051038347,"314":0.13930481358827135,"315":0.31510182422655325,"316":-0.1472432867435571,"317":-0.414076146551494,"318":0.2668764275837506,"319":0.6749529939213748,"320":0.051476196801232894,"321":0.38153152259272727,"322":-0.6165199865960023,"323":-0.3899694781216586,"324":0.23571251821544428,"325":0.3254671299738192,"326":-0.19068645625003805,"327":-0.34068847089000653,"328":0.18525417951432874,"329":-0.10208919774539763,"330":0.20171569929798405,"331":0.3959055066102652,"332":0.10335451584313501,"333":0.12886119719716332,"334":-0.2732404590125449,"335":0.09587488972071506,"336":0.14735941650288953,"337":0.2492316399824241,"338":-0.102912422810565,"339":-0.3619590263291898,"340":0.42492615773454256,"341":0.6876852876376791,"342":-0.5330669421906081,"343":-0.6963669009126058,"344":-0.03243595460574905,"345":0.08236149882964396,"346":-0.3475736674071921,"347":0.06194490687864822,"348":-0.19879473863785466,"349":-0.254603568039951,"350":0.6294976996812407,"351":-0.279326630701097,"352":-0.08739268544144335,"353":-0.28175450737185737,"354":-0.20062925383743369,"355":0.940629840106108,"356":-0.025845987815347693,"357":0.04594264148788689,"358":-0.2671038095794539,"359":0.07091756158238423,"360":0.11397635699468742,"361":-0.43204704815941125,"362":0.8761420702757626,"363":0.5857824201422768,"364":-0.12033676879152785,"365":-0.09505362560395071,"366":0.29408306840797654,"367":-0.2710960102260745,"368":-0.05232933424114985,"369":-0.2685506582642576,"370":0.19917131535798915,"371":0.5928963237897298,"372":-0.02793130404830824,"373":-0.13069803806956373,"374":0.3253356492999549,"375":0.017801148030143855,"376":0.23533697534734557,"377":0.31389828062634073,"378":-0.22511206123200328,"379":-0.1795267624868182,"380":0.028945998852562285,"381":0.03142011280877122,"382":0.1495346121420565,"383":-0.18286738009359027,"384":0.10187599647455284,"385":0.25645417852261676,"386":0.21913292662336617,"387":-0.8291150729855492,"388":-0.02329350447495402,"389":-0.054546104661825294,"390":-0.05373078963493143,"391":0.10983244701394299,"392":-0.12930211015854215,"393":-0.15545885218168626,"394":0.4299295928972928,"395":-0.2712225424283645,"396":-0.23541914717040982,"397":-0.4264809086789952,"398":0.3241902989378044,"399":0.48738908499507694}},"b1":{"n":100,"d":1,"w":{"0":0.13425624577143483,"1":0.04361246722759982,"2":0.03688592291808603,"3":-0.06925177512240789,"4":0.2353901317482395,"5":-0.05381689935283557,"6":0.06396613803888755,"7":0.12615011520385994,"8":-0.022623720026034022,"9":-0.21385480174108046,"10":-0.05900339861150265,"11":0.1499424590660298,"12":-0.0023122124691151375,"13":0.07574770183370297,"14":-0.08696903162512243,"15":-0.22720636988300866,"16":0.06414848369315725,"17":0.010677402855139784,"18":0.031741521148492546,"19":0.04896250033355621,"20":0.016083016570808358,"21":0.027079023097782526,"22":-0.04236132096429392,"23":-0.03347517756817713,"24":0.06674755002471339,"25":-0.0581789891176106,"26":-0.027516154028642083,"27":-0.07920426567536465,"28":0.06373495470225297,"29":-0.14887111787719948,"30":-0.060728801331836724,"31":0.038458432143429096,"32":-0.06380706844160208,"33":0.011425057654343342,"34":0.2287801409363799,"35":0.01589846468946944,"36":0.015159559746180542,"37":-0.13876681258984386,"38":-0.10682821047789956,"39":-0.0430887973600295,"40":0.08922699577956855,"41":-0.1821031071376201,"42":0.012993463794926363,"43":-0.030554264146437478,"44":0.025296682031915485,"45":0.03725439401243473,"46":0.08319945022892153,"47":-0.152698689109084,"48":-0.013926529675926985,"49":-0.16282957331806408,"50":0.03733877034818459,"51":0.5163479272107455,"52":0.01563834743893845,"53":0.0331648445085232,"54":-0.031895297481983026,"55":-0.06617734040206229,"56":-0.04252614595305285,"57":0.03202149186466515,"58":0.05879005023227536,"59":0.07111612383467919,"60":0.06524127561509106,"61":0.3452347026662998,"62":-1.9700210097694113,"63":0.02409244987801354,"64":0.11950898725834831,"65":0.10716671862586874,"66":0.09308257424114458,"67":0.14066782317135174,"68":0.04744584314439649,"69":0.01193612197610258,"70":-0.007644446975686636,"71":0.0073879786857377755,"72":0.0686113460052283,"73":-0.17605770189891742,"74":0.11615637152707,"75":-1.4456636017555886,"76":0.10806736570078526,"77":-0.07532355855626692,"78":0.044197446624276965,"79":0.09897332474478397,"80":0.004694287685962045,"81":-0.042672857022162926,"82":0.053755405888479206,"83":0.0572735543776209,"84":-0.05966407349638847,"85":-0.07025742324225762,"86":0.05799105960587731,"87":-0.14681952262357212,"88":0.21848442871413418,"89":0.04952113517373849,"90":-0.010559946194969624,"91":-0.09839841766914975,"92":0.09233487336655193,"93":-0.0392418244358272,"94":-0.005744747719316229,"95":-0.05766146043837957,"96":-0.19948955881450564,"97":0.029927126174253704,"98":-0.11677184908388562,"99":0.05485029137429897}},"W2":{"n":3,"d":100,"w":{"0":-0.014186034826734197,"1":0.08454548395229745,"2":-0.08991064378650548,"3":-0.04546953489951842,"4":0.04985105919706326,"5":0.0659625162678378,"6":-0.022531388257370763,"7":-0.03174545089689294,"8":-0.028580154030150982,"9":-0.06287210750175858,"10":0.03190781837946972,"11":-0.10301285546993427,"12":0.09773873295944088,"13":-0.04754195105056615,"14":-0.012290604633938012,"15":0.02850033748611835,"16":-0.0036371787990418505,"17":0.006744904636477909,"18":-0.012685647226890596,"19":-0.060666925244838917,"20":0.007307576232918647,"21":-0.14319461230195327,"22":0.012266451855796652,"23":0.0038256508286486014,"24":-0.05447562114285823,"25":0.11660828948214008,"26":0.08095967646430285,"27":0.03741943613497535,"28":-0.03959153511598296,"29":0.13544506917213864,"30":-0.20981661813256766,"31":-0.01261618207046892,"32":0.07832874138910866,"33":-0.11485415828525808,"34":-0.13074144996949458,"35":-0.05583844549515202,"36":-0.03938159997886674,"37":0.0260600528761313,"38":0.04991907470100962,"39":0.046633676147266906,"40":-0.05121014345156339,"41":-0.021908052823401396,"42":0.014774295640800744,"43":-0.0578396935419355,"44":-0.010329209521660028,"45":-0.03457542144986939,"46":-0.011448443453174417,"47":0.0517282365354934,"48":0.03644343240001935,"49":0.07310379848518686,"50":0.025075721228289362,"51":-0.23889767408911813,"52":-0.036881619704412096,"53":-0.003528695718767806,"54":-0.01187159056968049,"55":0.03600888807052329,"56":0.017128465349239057,"57":-0.013206937181612767,"58":-0.0022847455342065713,"59":-0.16699034927751016,"60":-0.023781276603526268,"61":0.11976156234239925,"62":-0.7587715483308607,"63":0.049889713497494874,"64":0.05106323573015717,"65":-0.06138596504539895,"66":0.03520977660248976,"67":0.06397856402015557,"68":-0.025707660543790506,"69":0.19473589156324134,"70":0.06693185518992681,"71":-0.057304817137433434,"72":-0.04096546162550096,"73":0.045521254877132954,"74":-0.020454131694425483,"75":-0.7296566369552124,"76":-0.010649150416341225,"77":-0.04919476241120433,"78":-0.016527508835153075,"79":0.058042119354672635,"80":-0.13101824413054897,"81":0.0029272157260888517,"82":0.11938405835079918,"83":-0.014359592106867323,"84":-0.008017124355371271,"85":-0.02580282297816101,"86":-0.07141484206414397,"87":0.03835242102536821,"88":0.018651885713008617,"89":-0.05366422230100384,"90":0.23299511068724876,"91":-0.002362417774675912,"92":0.0697196513534485,"93":0.05723556461520307,"94":0.011054486946161717,"95":0.021110533407064577,"96":-0.002262572814911672,"97":-0.008753009379480618,"98":0.020031605688177263,"99":0.03172923136204465,"100":0.096893405907388,"101":-0.022776421744703186,"102":0.05305085512942737,"103":0.006789703833215573,"104":-0.014090363652172373,"105":-0.06440810134617138,"106":0.06252932932846664,"107":0.12208752416069568,"108":-0.01502438574112207,"109":-0.03122021884780447,"110":-0.050253614232290036,"111":0.24030889949505116,"112":-0.040008110344526115,"113":0.07712698694805242,"114":-0.051788634628928194,"115":-0.14794880415094255,"116":0.058543406289985264,"117":0.002268181920632908,"118":0.0341446278735692,"119":0.0708360005380954,"120":0.008226877715727415,"121":0.07487175402381281,"122":-0.017890373265967343,"123":-0.02837421169870684,"124":0.07131442041896195,"125":-0.08916440844581093,"126":-0.047678252670902706,"127":-0.09411160913555744,"128":0.08471139132098787,"129":-0.28858306144467577,"130":0.11437933173431547,"131":0.0201367287187999,"132":-0.07275459378584555,"133":0.044507990164067965,"134":0.27181178229402597,"135":0.00649708954632433,"136":0.029560084552991233,"137":-0.10907333704174854,"138":-0.13000221699633976,"139":-0.0689373405136288,"140":0.14557293560165038,"141":-0.04519104287842854,"142":-0.003120445571677427,"143":-0.0031381165676950275,"144":0.011088241481762828,"145":0.04451046235419823,"146":0.06546259427255122,"147":-0.18161017248799752,"148":-0.01986916999738811,"149":-0.1908392974956943,"150":0.006103522799200566,"151":1.771172658896028,"152":0.032215870968322846,"153":0.030928443563168064,"154":-0.042993412043435576,"155":-0.0758934932080293,"156":-0.022878716736272668,"157":0.020763584550671513,"158":0.03871368278821446,"159":0.11237660522384794,"160":0.038517399052351714,"161":-0.15177999804207376,"162":1.4413780246257288,"163":0.010643466979967056,"164":-0.010918051121055991,"165":0.14944163595561727,"166":0.06390486964425221,"167":0.028720041543498553,"168":0.02839843723535154,"169":-0.1349709868670194,"170":-0.015808178946106644,"171":0.013637324024548196,"172":0.10116667348057823,"173":-0.16744984099601967,"174":0.0763633756597459,"175":-1.2179710159558208,"176":0.11312835416638871,"177":-0.038605225695943844,"178":0.02521337592459019,"179":0.011990673656621969,"180":0.06303047584225946,"181":-0.020221455573206218,"182":-0.00847957108399832,"183":0.06790015565876138,"184":-0.0385859879658086,"185":0.015783067759284137,"186":0.06925678704885913,"187":-0.15200258935965208,"188":0.07034177178284887,"189":0.057586315639613035,"190":-0.1472962163057109,"191":-0.09309846753627074,"192":0.0168604888291205,"193":-0.05254876535181278,"194":0.013508156512485476,"195":-0.058456133844823545,"196":-0.09106095349611973,"197":0.029002733356766165,"198":-0.11819762851958825,"199":0.009919645715816237,"200":0.007996900072250119,"201":0.0006800226512803632,"202":0.01600588728505656,"203":1.333569082517935e-7,"204":-0.03163885640134622,"205":-0.02177709651820082,"206":0.010849827699646881,"207":0.00671618610534917,"208":0.001435385349638843,"209":-0.018132906348098193,"210":-0.015995259197836665,"211":0.009929281958983583,"212":-0.0020189114376028784,"213":0.02131854608945109,"214":-0.006840568872911031,"215":-0.02001641569606347,"216":0.006515762166833487,"217":0.0005782233085599819,"218":0.006678779889791246,"219":0.01752142900490402,"220":-0.00011485470239408282,"221":0.004985968496919386,"222":-0.007877311208078613,"223":-0.004705343960783621,"224":0.022087326589376486,"225":-0.022828084956098574,"226":-0.012222972995253423,"227":-0.010572390616640568,"228":0.009022840916560231,"229":-0.017882977645899214,"230":-0.004490698671635337,"231":0.006560445309975675,"232":-0.024902895295780877,"233":0.0014254821588661779,"234":0.024821945232375214,"235":0.01090280074457591,"236":0.00949051805298741,"237":-0.01291656944200647,"238":-0.007192459617348063,"239":-0.013238623961740381,"240":-0.002189489423614724,"241":0.007809885413914153,"242":-0.002011458883078082,"243":-0.0032269765345252673,"244":0.0058613021733554295,"245":0.01247642333996861,"246":0.010780400086298382,"247":-0.0026212492377642267,"248":-0.00967532853183275,"249":-0.009019492208325684,"250":0.0003345464957442406,"251":0.016287340626065287,"252":0.00983328161664704,"253":0.0036618154429138767,"254":0.0022218296161138746,"255":-0.013497096048664838,"256":-0.009604401377516994,"257":0.006365087653926281,"258":0.006522469176962184,"259":0.014841382102066604,"260":0.013190269947265217,"261":-0.0789078892408687,"262":-0.021733448571324334,"263":0.000556506935932616,"264":-0.009311615198377645,"265":0.006224382329196246,"266":0.010256091430289742,"267":0.00605847830553685,"268":0.01280676388698829,"269":-0.0023012840124952074,"270":-0.006585932426210211,"271":0.006916984773611152,"272":0.004694267576209422,"273":-0.010057991467501196,"274":0.01467464192274311,"275":-0.122320681967862,"276":0.003942837189468428,"277":-0.0070529767375874484,"278":0.009770763481789605,"279":0.0006702354354560533,"280":-0.0012738200878548134,"281":-0.00627585937500389,"282":0.021201734683583922,"283":0.005103836012355995,"284":-0.004819701844503816,"285":-0.0017939359647228751,"286":0.023841839882874243,"287":-0.004818607478222878,"288":0.0003787229736875267,"289":0.019124086088357757,"290":0.0058450294791494274,"291":-0.0039411508223144934,"292":0.0044695780620565345,"293":-0.01738058470459803,"294":-0.004106164288021533,"295":-0.010658417509659873,"296":-0.006082139344781008,"297":0.00549182866512153,"298":-0.003262374751072873,"299":0.0019834266142232586}},"b2":{"n":3,"d":1,"w":{"0":-0.46655161788359145,"1":-0.3396331454421906,"2":0.08132522813011366}}}}},"weights":{"nh":100,"ns":4,"na":3,"net":{"W1":{"n":100,"d":4,"w":{"0":0.028736305107080393,"1":-0.0009704721502348019,"2":-0.03915269962337776,"3":0.03544190337962887,"4":0.015244176200552746,"5":0.010352970168093728,"6":0.0025199167772697803,"7":0.1032485081016553,"8":0.006157213573812055,"9":-0.005852090303609636,"10":-0.022265531959874997,"11":-0.042696588763687655,"12":-0.050895123477137656,"13":-0.014650824052885836,"14":0.03943218997355546,"15":-0.153858705193415,"16":-0.38701117186031586,"17":-0.35686197851891893,"18":-1.41932382883972,"19":2.120449660336276,"20":-0.0035329047266863755,"21":-0.0007192302966617679,"22":0.017407677823154166,"23":0.025359194526174734,"24":0.007775399524827829,"25":0.0015450292785747603,"26":-0.013727592339050767,"27":0.007039450252416749,"28":-0.004107935879236677,"29":0.0218311023751119,"30":-0.02657266121574706,"31":-0.02994723932104915,"32":-0.0032484879694100986,"33":-0.002085662978696068,"34":0.0008007920919906663,"35":-0.019365874175681943,"36":-0.039908815623588674,"37":-0.023293804128073574,"38":0.0851466208208367,"39":-0.031222664221538944,"40":-0.01669080194501223,"41":-0.004396814603894523,"42":0.020626765934340745,"43":-0.0393069343019221,"44":0.22074265781526717,"45":0.49647144434002805,"46":-1.3862926988914201,"47":0.33528148014094966,"48":0.005306159259309411,"49":0.0015145681735468193,"50":0.017120165347642644,"51":0.073396276060982,"52":0.02371098962923245,"53":-0.01741081240087004,"54":-0.02841798242316028,"55":-0.003463634881870918,"56":-0.029820372879822934,"57":0.003911766932104899,"58":0.026854197082112383,"59":-0.06237645146663305,"60":-0.10505159317545024,"61":-0.1030122581614504,"62":0.24074594620160075,"63":-0.026630240800817738,"64":-0.0029704857912955804,"65":0.016324608199768675,"66":-0.0053575201018262394,"67":0.015527240554385232,"68":0.002241848453580125,"69":0.008792777337940857,"70":-0.0010085931416224073,"71":0.03171533932607449,"72":0.0019395453591798375,"73":0.00007879765761773606,"74":-0.005656527907614848,"75":-0.004751524187557128,"76":-0.011250027387566726,"77":0.009260205967772663,"78":-0.010532619982272833,"79":-0.056890406925673424,"80":0.006504953760583544,"81":0.0023401699620251744,"82":-0.003941055194261867,"83":0.027784472346460035,"84":0.0066632014912821015,"85":0.0031788235932332853,"86":-0.04700568806560662,"87":-0.08199128673805656,"88":-0.018053340945984417,"89":-0.027882714553766504,"90":0.02070498980496893,"91":-0.09950083763252218,"92":-0.01562228839773848,"93":0.01120745851949936,"94":0.01217317333766247,"95":-0.015075699514062504,"96":0.0041017356957650936,"97":0.0077414773018884345,"98":-0.017129288663822927,"99":-0.0029605043763739377,"100":-0.001424390202927158,"101":-0.008194404800743913,"102":0.037620930343313444,"103":0.0690133650961242,"104":-0.009139926189443993,"105":0.016747330408114505,"106":0.021904716295120787,"107":0.05622480186641821,"108":0.0020039336309098177,"109":-0.001990087250738519,"110":0.017317661959383328,"111":0.04886010303672049,"112":-0.009820402857189534,"113":0.0072041408512954555,"114":-0.012394848914797998,"115":-0.060188881328041156,"116":-2.547832449907724,"117":-3.1233943001789863,"118":13.351081887643856,"119":-8.063520449464294,"120":-0.010689789986980055,"121":0.00902050098404511,"122":-0.023447287970906557,"123":-0.0884203249975973,"124":0.009680607141737617,"125":0.024535661308850612,"126":-0.012510187212202201,"127":0.07649666144734006,"128":0.00025903345005262406,"129":-0.013497606074051788,"130":0.019147938270300622,"131":0.014065108203921992,"132":-0.008040430639522075,"133":0.010735457806578443,"134":-0.0183083011951978,"135":-0.05764327807444504,"136":1.0419554510689601,"137":3.711429472098579,"138":-6.370900022137695,"139":-2.154859199948947,"140":0.016518884163347628,"141":0.0018950820132227117,"142":-0.017074770449506053,"143":0.04094622995687806,"144":-0.009611490545290187,"145":0.0040669439965366596,"146":-0.0017962291942563522,"147":-0.04035297581682464,"148":-0.019991839506918147,"149":-0.008195487278038418,"150":0.03708039808513573,"151":-0.023666893313229184,"152":-0.0031321623492909286,"153":-0.02930188938346783,"154":0.06291342432118706,"155":0.07275477275055209,"156":0.012453874314047389,"157":-0.0035340778654816343,"158":0.00894428013394911,"159":0.07320314905239239,"160":0.21307199880390984,"161":0.16156423236031442,"162":-0.3884735462424933,"163":0.12828485853207822,"164":-0.09505968768490596,"165":-0.04700314363340915,"166":0.13648831648820126,"167":-0.17415479650611843,"168":0.0096012030868193,"169":0.007532056335568216,"170":-0.004291971166954641,"171":0.05481706645556985,"172":-0.015893543692966843,"173":0.006005879477764313,"174":0.004137876894644982,"175":-0.05007271624742367,"176":0.013518410861224994,"177":0.007298862230697478,"178":-0.011288861572512073,"179":0.054909567282821196,"180":0.0018764926708916378,"181":-0.001748697542260355,"182":-0.00914448449954404,"183":-0.01888087038931755,"184":0.01730842732352052,"185":0.00597292724175975,"186":-0.021464426256515824,"187":0.04399340137729551,"188":-0.31250527838863035,"189":-0.2756594705290787,"190":0.550735115122232,"191":-0.19275483438024815,"192":0.013030035753957175,"193":-0.018757515886342103,"194":-0.001711252782877327,"195":0.008987368810420013,"196":-0.31394477850507657,"197":-0.31289589702387255,"198":0.5726202437646012,"199":-0.20195343910846028,"200":0.016235319306910283,"201":0.016397416300387442,"202":-0.01058430121018813,"203":0.09000946193792675,"204":0.020353523859114073,"205":7.7705761811796,"206":-7.650495895354092,"207":-15.59902753336295,"208":-0.001251628074300856,"209":-0.011503937830023087,"210":-0.006572249126626352,"211":-0.05315131621981784,"212":0.011287300426352505,"213":-0.008870113878037668,"214":-0.009800470231232695,"215":0.0063166508022609895,"216":0.005371654875451102,"217":0.004645980752838734,"218":0.0009787113953499114,"219":0.04081178792982641,"220":0.0018489927330239471,"221":-0.004635993521041315,"222":0.011626623329958683,"223":0.026352931844096893,"224":-0.02285116950022296,"225":-0.010889734590824252,"226":0.022219525088750625,"227":-0.07792837997275058,"228":0.01442054285441525,"229":0.0027583340237525996,"230":-0.012764735062352555,"231":0.04407301770168974,"232":0.01760075557133652,"233":0.009766834129672176,"234":-0.017626951948165586,"235":0.06373497661213977,"236":0.01653097212442646,"237":0.018582827387184333,"238":-0.07715967128992665,"239":-0.07326291287270305,"240":0.03877708391101156,"241":0.02018528195969391,"242":-0.04400251154112674,"243":0.11114968868439275,"244":-2.077588848104638,"245":-11.177058490661064,"246":-0.9409007842966669,"247":29.245969670014322,"248":-1.5218449349753784,"249":-7.957088552417941,"250":19.211132287209264,"251":2.2486846998792362,"252":-0.00033728217109547844,"253":0.007636843808223139,"254":0.003427563723398061,"255":0.027492875449372466,"256":0.09211926778887947,"257":0.03632759557270346,"258":-0.09561150048216688,"259":0.2215955293142762,"260":0.16347239928451304,"261":0.1258076796256861,"262":-0.3065777271304431,"263":0.08418532199552704,"264":0.010328072012830654,"265":-0.005461167365945765,"266":-0.013666626461152333,"267":0.0009127011262710766,"268":0.02890724585845154,"269":0.004428951285319741,"270":-0.03211210053425639,"271":0.06552622244081711,"272":0.020129468827294484,"273":0.019591626839114182,"274":-0.023677795917293968,"275":0.0829130481166376,"276":-0.024935555624384355,"277":-0.043741814120857814,"278":0.11948781344625295,"279":0.08730557600299398,"280":-0.0019380797622415475,"281":0.0002969039793201559,"282":0.009750154823043816,"283":0.016235296356853203,"284":0.0015022189767206462,"285":0.0003390017996141676,"286":-0.008093757249275513,"287":-0.012421229265251618,"288":-0.0037420271210716616,"289":0.00833526276308014,"290":-0.03615582570743282,"291":-0.09055922689966658,"292":-0.09674545362241896,"293":-0.11065923430930702,"294":0.2364212982716984,"295":-0.015885136953766282,"296":0.05758848962893547,"297":0.0018557214667079094,"298":-0.06563277643076372,"299":0.09729730856626101,"300":3.5033931204346147,"301":9.752306496845534,"302":4.6473361464039735,"303":-28.21411640612744,"304":0.002144901903629917,"305":0.004363028772311441,"306":-0.033818464537419296,"307":-0.06550790468655467,"308":-0.019795670250954554,"309":0.011132257800640682,"310":0.014155894919312276,"311":-0.030197428904446297,"312":0.027251047434752772,"313":0.0025466859283686093,"314":-0.024521793114425424,"315":0.07192825098608897,"316":0.03513052890388472,"317":0.012465168032493312,"318":-0.029970138216960315,"319":0.11257813292512847,"320":-0.0006601561345592134,"321":0.0027148745128280404,"322":-0.03580075875491863,"323":-0.08924407330266779,"324":-0.02023211951699133,"325":-0.01253362533990707,"326":0.018207757198377764,"327":-0.08007584168119283,"328":0.012957221883728566,"329":-0.011722690020253593,"330":-0.0008669558673328975,"331":0.029532172912804355,"332":-0.0016414429397893912,"333":-0.0024352003103323807,"334":-0.008697024670442395,"335":-0.03669216872454158,"336":-0.015541310162857432,"337":-0.007447042629218798,"338":0.014466714198265791,"339":-0.05664026921684485,"340":-0.07859949392586751,"341":-0.03458381681216017,"342":0.06655190797207584,"343":-0.22726041897985616,"344":0.004580523470804835,"345":0.00039041889178950505,"346":-0.019760306370140698,"347":-0.02716621342633195,"348":-0.050068129596713674,"349":-0.053255125986049714,"350":0.1580597834402887,"351":0.04972906392538891,"352":0.05640897487496219,"353":0.052196997522711314,"354":-0.1221095482953491,"355":0.07113784885071864,"356":0.007259850785767396,"357":-0.005125494964140675,"358":-0.016456172039026606,"359":-0.020333845622512912,"360":-0.02837715532794954,"361":-0.03737258661265871,"362":0.11761018936499554,"363":0.0795712200115324,"364":0.0002729935394292882,"365":-0.0030615268758019372,"366":0.015345602157627829,"367":0.03243429416522097,"368":0.007172822215731534,"369":0.025861807578330887,"370":-0.00790450096147286,"371":0.07975343222464253,"372":-0.0032537973372795933,"373":0.006443387784219257,"374":0.01428262061546314,"375":0.03787918162993444,"376":-0.026575843292615756,"377":0.007526694678538915,"378":0.016243659132103714,"379":-0.06500712570830046,"380":-0.007323636876852018,"381":0.0017130216151659762,"382":0.012521211984606305,"383":0.0007833605006081533,"384":-0.04074392524323476,"385":-0.0295080931005779,"386":0.0839108491307586,"387":-0.05098866625217777,"388":0.012691170960673162,"389":-0.012140664876774902,"390":-0.010847578195653004,"391":0.0017445631018157513,"392":0.0009016673617518316,"393":-0.011957118451871059,"394":0.030855105750870842,"395":0.052199441830798506,"396":0.027799619443378776,"397":0.012772732586210065,"398":-0.02014690455807622,"399":0.10691470780385981}},"b1":{"n":100,"d":1,"w":{"0":0.018303792266115768,"1":0.031842002559054394,"2":-0.009237595372682471,"3":-0.05554450214221109,"4":0.7030773664860349,"5":0.004905503938311389,"6":0.004633687766129138,"7":-0.005573398674561471,"8":-0.0061776447685715045,"9":-0.02425376938529177,"10":-0.015964150740299752,"11":0.302492018126582,"12":0.020067555393133422,"13":0.00474654395047846,"14":-0.024749553191275902,"15":-0.04778489984316946,"16":0.005195841559792674,"17":0.009841763474561591,"18":-0.00048542640428066944,"19":-0.016474109040043518,"20":0.009394703379701556,"21":-0.017563556544460176,"22":-0.03412710255872344,"23":-0.007421641305856492,"24":0.001830597064381787,"25":0.015364488081815448,"26":0.013131719605202912,"27":0.012404828266555782,"28":-0.017097156218355513,"29":-4.651114658516826,"30":-0.024123362993304948,"31":0.025457502370048925,"32":0.0015516126562149363,"33":-0.01536723645010928,"34":-0.41217507264094866,"35":0.015946476765979916,"36":-0.012601288254962173,"37":-0.01382310939096582,"38":0.012817308549701041,"39":0.021696326544624486,"40":0.10207117288816486,"41":-0.07797376438329222,"42":0.017799674362334667,"43":-0.016830427879435433,"44":0.019102140203355596,"45":-0.00424585797105921,"46":0.017534102959049083,"47":-0.14237863852102872,"48":0.0039246845718207465,"49":-0.14653432074518632,"50":0.029748024823458705,"51":-0.15012820755337175,"52":-0.015145255993279854,"53":0.004128949645579153,"54":0.012532913957699569,"55":0.006424065435119987,"56":-0.02823815763873028,"57":0.016123328176766153,"58":0.022943989045985172,"59":-0.009950046277783385,"60":0.0423958936058259,"61":3.612167460822549,"62":-4.071956193057116,"63":0.007754683676286871,"64":0.08669484167671287,"65":0.07634559762312697,"66":0.002976803197844671,"67":0.026352120837344912,"68":0.029724707070854034,"69":0.007640496551461518,"70":0.003360770428904835,"71":-0.0024804149478300074,"72":-0.0224633220068843,"73":-0.04342061092674563,"74":0.042646252608959434,"75":-5.343001046752003,"76":-0.014786389761539568,"77":-0.012558186169036744,"78":0.027094305882522197,"79":0.04063642188605405,"80":-0.02187943889548482,"81":-0.028127110709717313,"82":0.009975708321249147,"83":-0.009928743160477102,"84":-0.02021858518233153,"85":-0.0834842905143075,"86":-0.0050386631490465916,"87":-0.010844103668158923,"88":0.042340500107472846,"89":-0.0032473416194405366,"90":0.005302554141295605,"91":0.007610443836378337,"92":0.02560449941856722,"93":0.009130514607177023,"94":-0.023818083852590908,"95":-0.0020793740993343616,"96":-0.030031342849762215,"97":0.003008277781955152,"98":0.011425448000010956,"99":0.03702840426397072}},"W2":{"n":3,"d":100,"w":{"0":0.007347429002896308,"1":0.029379783998986313,"2":-0.013616510896483913,"3":-0.04138510137487655,"4":-0.0807472670232924,"5":0.008924788766523306,"6":0.0007448258498693808,"7":-0.013449093527555382,"8":-0.005351838218593589,"9":0.00016202636330774794,"10":-0.009332506230219724,"11":-0.19547212493780264,"12":0.022673171139310472,"13":-0.001330392550913212,"14":-0.016653150972391305,"15":0.01552472831200642,"16":0.002196966984972157,"17":0.008170672478972567,"18":-0.001865100153224483,"19":-0.018562970334253748,"20":0.007529470801438059,"21":-0.028002346674940577,"22":-0.02458672568002527,"23":-0.00470870135487121,"24":-0.0031795932419965162,"25":0.024097159441399136,"26":0.016277792986045907,"27":0.015920395030331904,"28":-0.019438528848791343,"29":-0.19048547983138073,"30":-0.028743805117795673,"31":0.018671027128159243,"32":0.007255559978044927,"33":-0.019567681355546443,"34":-0.09696561445088545,"35":0.010389670410385427,"36":-0.012422133397633697,"37":-0.0029634220303542706,"38":0.029474459686033405,"39":0.022563187534815406,"40":0.0017734907942063402,"41":-0.03614964481858258,"42":0.014842784203212018,"43":-0.015024020783486478,"44":0.014345729967372427,"45":-0.00606782372099327,"46":0.010468419129565988,"47":-0.007083249764785177,"48":0.004667799116445609,"49":-0.005265437519460599,"50":0.023787097010317167,"51":-0.6401857315491134,"52":-0.014756496486093578,"53":0.0020691663363457385,"54":0.011480549799792166,"55":0.00919525612264086,"56":-0.019942305043687013,"57":0.011555310873133865,"58":0.016184369737229646,"59":-0.029493943193212607,"60":0.02736968870055221,"61":-1.2009784431285426,"62":-0.12196759480136572,"63":0.007431003812451221,"64":0.055587167563743725,"65":-0.001970886874829822,"66":-0.00022655092486007126,"67":0.01623147418293725,"68":0.02032714265777734,"69":0.03904301798212467,"70":0.00551383510581143,"71":-0.004337207792252585,"72":-0.03023816709048173,"73":0.0187925718027714,"74":0.023725172417043194,"75":-0.5657737267853772,"76":-0.02234847280237757,"77":-0.008972517841553592,"78":0.018936025209865308,"79":0.02965675063930698,"80":-0.029198778318683363,"81":-0.020695024984741746,"82":0.009925523665374431,"83":-0.011156362122896358,"84":-0.014591890823422158,"85":-0.06010600413973198,"86":-0.009606504599146437,"87":0.03150550317135188,"88":0.006142828253432176,"89":-0.006701643469478974,"90":0.036095239751105,"91":0.011091620214483526,"92":0.019837562838168604,"93":0.011493311976103609,"94":-0.018664988518235146,"95":0.0010640402255916784,"96":-0.005164958708245281,"97":0.0010268019186817398,"98":0.019120656193748763,"99":0.028591651437658554,"100":0.015991832529062885,"101":0.03906259883097971,"102":-0.014815880519773013,"103":-0.061264149942360444,"104":0.3256904752529522,"105":0.00903674173869173,"106":0.003275009508230816,"107":-0.012567689482996096,"108":-0.007348276826021952,"109":-0.014467088341063904,"110":-0.0159259091347772,"111":0.0642453139073195,"112":0.027469565564494928,"113":0.0019626524402697417,"114":-0.026213853014803175,"115":-0.020036846067824028,"116":0.0045735627993960665,"117":0.011452795301425614,"118":-0.0015664915855673979,"119":-0.022546117791899394,"120":0.010760430908360886,"121":-0.029579956356502762,"122":-0.0371929761508826,"123":-0.007679928937804933,"124":-0.0010981221890631855,"125":0.025633973254327588,"126":0.018937574413993855,"127":0.018296744370015716,"128":-0.023510456658069726,"129":-0.46818276489739175,"130":-0.03402404884758628,"131":0.027957424733648203,"132":0.0059184743314650715,"133":-0.02256875838019386,"134":0.7207060183390365,"135":0.01664114570962988,"136":-0.01603374807365254,"137":-0.010286601057197793,"138":0.027773713582308582,"139":0.02838234952559266,"140":0.0645713876932332,"141":-0.07049551853059186,"142":0.02077723013731136,"143":-0.020345519688670106,"144":0.02122209241092719,"145":-0.006684293619869729,"146":0.01764105673522873,"147":-0.08920211044997475,"148":0.00557781692593186,"149":-0.0901510853726306,"150":0.03402379355519864,"151":0.92489391428999,"152":-0.0191179276820486,"153":0.003901218478292054,"154":0.015332652347218586,"155":0.010137142642461473,"156":-0.030523146190976774,"157":0.017540362240729176,"158":0.024780880497298895,"159":-0.026045894427607432,"160":0.04408331299202528,"161":1.4175645202657237,"162":1.1796369311255814,"163":0.00970118527291366,"164":0.08775190674697178,"165":0.047375479802965643,"166":0.0016347920647632667,"167":0.026881036836582505,"168":0.031667611865112535,"169":0.031025394753424997,"170":0.005779665839696422,"171":-0.004450212898936562,"172":-0.03403205730048788,"173":-0.015218543659088929,"174":0.041822511415709876,"175":0.9633755403761013,"176":-0.024095838869711422,"177":-0.013667916476317172,"178":0.029165528646723893,"179":0.04455832300834197,"180":-0.03297247059636459,"181":-0.030962233533598227,"182":0.012774017754889257,"183":-0.013557291779812065,"184":-0.02206098417241892,"185":-0.08905900995698916,"186":-0.009581413598884588,"187":0.014654180197426054,"188":0.02982204899927738,"189":-0.0065141175569107005,"190":0.027654010943725653,"191":0.012138274301393713,"192":0.02883418428937888,"193":0.01330171426848934,"194":-0.02702360061766701,"195":-0.0005176315783680519,"196":-0.021593219543647707,"197":0.002525250956462354,"198":0.019908231898181285,"199":0.04166284958323539,"200":-0.0009910823385895252,"201":-0.016150052065962678,"202":0.008813203715125527,"203":0.022099531745594016,"204":-0.28336774974649803,"205":-0.00613265038211688,"206":0.0007376114893580474,"207":0.009845109915918925,"208":0.0027201280117719637,"209":-0.006976859610816466,"210":0.0032947243036623485,"211":0.19931062617074155,"212":-0.013450979631543212,"213":0.0024467563611184863,"214":0.00719529830279078,"215":-0.020239915873810084,"216":-0.0002641730047309689,"217":-0.004019925595982202,"218":0.0014413226984440759,"219":0.011013797180914608,"220":-0.0036333468905185976,"221":0.018529323204646238,"222":0.011565553711014098,"223":0.001871259933376536,"224":0.0032728754495854715,"225":-0.015921580842410958,"226":-0.009905670159895161,"227":-0.009888963019274522,"228":0.011570641780070438,"229":-0.0006579012302830971,"230":0.017498050726564664,"231":-0.008614841203468615,"232":-0.00575815753205994,"233":0.012164496703947527,"234":-0.030588895642842423,"235":-0.004206942984810596,"236":0.006891163731530204,"237":-0.0015255388934587836,"238":-0.02105461269817146,"239":-0.012955810528529682,"240":0.0028137741903123854,"241":0.014322461562272576,"242":-0.007446524046280395,"243":0.007921181621915258,"244":-0.006674891381448636,"245":0.0038942729391083218,"246":-0.0038197142557227274,"247":0.047091576718933,"248":-0.002893456909284831,"249":0.053696999365504476,"250":-0.011923090070233597,"251":-0.0788295443683705,"252":0.008085078167784102,"253":-0.0005821605982816518,"254":-0.0060756331104518,"255":-0.005936890360061962,"256":0.009057706155404023,"257":-0.005142641215799495,"258":-0.007207711936082702,"259":0.02178220733129679,"260":-0.012251701104349975,"261":-0.1504428086771589,"262":-0.08462625242137614,"263":-0.004000491668274961,"264":-0.03268566256238767,"265":0.009463890406514932,"266":0.00104435888087108,"267":-0.006402282894806956,"268":-0.008996025609636537,"269":-0.02967742276042104,"270":-0.0036905244571288527,"271":0.002953777621881163,"272":0.01913026670247109,"273":-0.021464874155787305,"274":-0.009136894024168502,"275":-0.14829897758816568,"276":0.01461443554546696,"277":0.004011702603544641,"278":-0.008516528513702543,"279":-0.014553113810397431,"280":0.01840480544868514,"281":0.009714768596041735,"282":-0.005559959586723308,"283":0.00655274030451765,"284":0.0065840105438479965,"285":0.03718480672068209,"286":0.006668819443567059,"287":-0.028035898501268267,"288":0.005896761010999116,"289":0.004708983505785585,"290":-0.028035326566049686,"291":-0.007189628067646002,"292":-0.009558632060968407,"293":-0.007049078265716018,"294":0.009148652620926208,"295":-0.001508440655689291,"296":-0.003950434112649681,"297":-0.00004108658473996144,"298":-0.012886368220842104,"299":-0.014374574262095464}},"b2":{"n":3,"d":1,"w":{"0":0.005601206742151011,"1":0.9025317772384722,"2":0.11003063905787351}}}}}