{"numStates":1,"sensitivity":16.765602362963577,"alpha":0.04402542994221226,"gamma":0.14958102899573755,"epsilon":0.23252581115133797,"cycles":3594,"max":{"lastUpdatedDate":"2018-02-17T12:05:22.429Z","meetsCriterion":true,"cycles":1377,"wealth":5.5055540940582315,"percentSuccess":0.34196419749992724,"odds":4,"weights":{"nh":100,"ns":4,"na":3,"net":{"W1":{"n":100,"d":4,"w":{"0":0.04619013240905067,"1":0.0059357535175772825,"2":-0.0643513604466521,"3":-0.003061854015138311,"4":-0.014376968441710521,"5":0.010874543373169118,"6":0.012963536770930985,"7":0.004214378396294167,"8":-0.043122515832002224,"9":-0.011678747367260604,"10":0.06349179744791052,"11":0.0012814421117887333,"12":0.009849407080129343,"13":-0.006951634610566847,"14":-0.009158534462782066,"15":-0.0027590094498980964,"16":-0.008410692965565533,"17":0.0015609464909818716,"18":0.01024820324465787,"19":0.0012363943864089897,"20":0.04663708322846964,"21":0.017281093340530688,"22":-0.07123739312148333,"23":-0.0002015802493258548,"24":0.04972755379368116,"25":0.010036154343194758,"26":-0.07130250404813805,"27":-0.0023627882761476605,"28":-0.027430075380517668,"29":-0.010543035801244703,"30":0.04210760638841663,"31":0.000023638451981338173,"32":0.015675826152606435,"33":0.0045018839583781806,"34":-0.023217389306960077,"35":-0.0004043976321356214,"36":0.011249171010389901,"37":0.003119540840549995,"38":-0.01660156316582168,"39":-0.0003172022573354821,"40":0.014971273993360797,"41":0.006540058466291323,"42":-0.02342083347271244,"43":0.00018981372361819335,"44":0.10099486200123847,"45":0.023979173794935214,"46":-0.14674982813234408,"47":-0.003907620328561508,"48":-0.2146968905371056,"49":-0.11295704819128378,"50":0.34509959248035454,"51":-0.006701852200613078,"52":0.004342035348704944,"53":0.0033539105810423873,"54":-0.007603619497871732,"55":0.00042967257678931805,"56":-0.038020799129513796,"57":-0.0024999221917863562,"58":0.05163847015770725,"59":0.0031367127481850485,"60":-1.9131681743562263,"61":-4.389568799728973,"62":4.32878605813053,"63":4.252810083655616,"64":0.011456569735904316,"65":0.00895353249342339,"66":-0.020113354426687848,"67":0.0011557285294753873,"68":-0.02916359945735851,"69":0.00866584066400861,"70":0.03374726622659345,"71":0.005107608294543059,"72":0.08225219365257896,"73":0.026152317758033675,"74":-0.12322182080265374,"75":-0.0014679311475857032,"76":-0.05003458376171266,"77":-0.0032681222371934737,"78":0.06794974222157418,"79":0.004128154095575544,"80":-0.006681347635427224,"81":-0.010070691554616224,"82":0.01442516573827501,"83":-0.001918258352521746,"84":0.013609422786632562,"85":0.015512252344630658,"86":-0.02660243958733827,"87":0.0026236482706008305,"88":-0.02781263716708322,"89":-0.008282229526843135,"90":0.041363092833334864,"91":0.0006373262358714216,"92":-0.9166912066604372,"93":-0.5667567928902725,"94":-2.954275295353384,"95":4.053708468514624,"96":0.0018117160825624136,"97":-0.008103837775639956,"98":0.002109198947063654,"99":-0.002258945417116483,"100":0.03759865781285761,"101":0.004965412500865579,"102":-0.05245280755968721,"103":-0.002460749853672183,"104":-0.047078335908363175,"105":-0.0189604612665704,"106":0.07272300967709856,"107":-0.00016422967454298663,"108":-0.0834893154934613,"109":-0.028096429100539597,"110":0.12593437942599478,"111":0.0010933538319027843,"112":0.008045902589279976,"113":-0.010699402737608684,"114":-0.0046949115542178985,"115":-0.0035393114710965297,"116":-0.026909173179086004,"117":0.005137542656500004,"118":0.03271405314628869,"119":0.00398847407562576,"120":-0.02718755067054339,"121":0.011600801802124715,"122":0.02949222772755407,"123":0.005672757926433609,"124":-0.01539449728484008,"125":-0.0012013872681851088,"126":0.02102224865933066,"127":0.0012156153004849969,"128":0.020265525190217577,"129":0.021496189480466187,"130":-0.03872280663533866,"131":0.0034962167070606833,"132":-0.04854992642109126,"133":-0.015045422043175308,"134":0.07252208829245214,"135":0.0009658385915046318,"136":-0.03170789082881334,"137":0.000672991713722987,"138":0.041531543882507814,"139":0.0033238582765057873,"140":0.018040558495003068,"141":-0.005626774233405105,"142":-0.020717713205193295,"143":-0.0032350805339334907,"144":0.0021646994615051192,"145":0.010995974080287494,"146":-0.008970351658293877,"147":0.002604685133063398,"148":-0.01292666781318578,"149":0.001039421517384814,"150":0.016523565579216495,"151":0.0015395639033491608,"152":-0.019645124303204305,"153":0.0019617991198117453,"154":0.024882500068785254,"155":0.002449213341888181,"156":-19.987320947350902,"157":-13.286054606858238,"158":39.96026638287386,"159":-39.80106173195192,"160":-0.033923700887365224,"161":-0.012785086777101565,"162":0.05194036424781852,"163":0.00009019570858495039,"164":0.052000954393125624,"165":0.033277653726207064,"166":-0.08721613250905765,"167":0.0033716024174742735,"168":-0.0019150841158756095,"169":0.0007672412362961161,"170":0.002101478419832886,"171":0.00038934014136783146,"172":-10.03358283074822,"173":-6.072554828302398,"174":10.689684409957932,"175":-13.292313390150207,"176":-0.04094963117708118,"177":-0.01423000223706998,"178":0.06203373303304908,"179":0.00041389596721570787,"180":-0.016792956072667148,"181":0.003971108070772342,"182":0.019990525984971773,"183":0.0026852767874312993,"184":-0.02499696157173128,"185":0.005119600067127341,"186":0.03018802040954648,"187":0.003799935643233445,"188":0.5866378826521641,"189":0.507154813863005,"190":-1.0362704192917744,"191":0.07526135516858173,"192":0.037698521484089226,"193":0.011191646507691819,"194":-0.0560464210006346,"195":-0.0008720893175240101,"196":-0.007745065915048011,"197":0.0106712127534794,"198":0.004309567092821063,"199":0.0035045479643655572,"200":-0.022025366476360376,"201":0.0007755466287776441,"202":0.028678951797673765,"203":0.00238736091615718,"204":0.005032496458126585,"205":0.008226621932484171,"206":-0.011223925832806727,"207":0.001610947649363203,"208":-0.01744031516476652,"209":-0.013681258061232791,"210":0.03064918305733415,"211":-0.0017741643535056837,"212":-0.00977589595996756,"213":-0.00874850755194311,"214":0.017780118606304716,"215":-0.0012714795358259399,"216":0.034759666699616505,"217":-0.014051379306996459,"218":-0.03813739468482554,"219":-0.007054199040209777,"220":0.021801640475316495,"221":-0.005796840349812354,"222":-0.02559780926152693,"223":-0.0036497950585631087,"224":-0.01025538425465725,"225":0.0012403399182576212,"226":0.012866639746416235,"227":0.001335904138520125,"228":-0.0111794770543375,"229":0.0165372848918695,"230":0.005595436284139301,"231":0.005345954051658343,"232":-0.017887481116344306,"233":-0.007139956146150175,"234":0.02759333962446286,"235":-0.00004353918506986732,"236":0.00703833070522848,"237":-0.006929885901506653,"238":-0.005453424799438404,"239":-0.0024754423910485607,"240":-0.011042853952276676,"241":-0.017169375978331226,"242":0.024130961305465957,"243":-0.0033035511480696543,"244":-0.006516635834203061,"245":0.007469990846618717,"246":0.004466936225627494,"247":0.002559963807289004,"248":0.01432479396104556,"249":0.016515669410915666,"250":-0.028097462355192164,"251":0.0028044105391298803,"252":-0.0318486165735447,"253":-0.00420195011982242,"254":0.04442730848645737,"255":0.002086706209386368,"256":0.0014665096381043582,"257":0.011170018846546354,"258":-0.00814100878002226,"259":0.002716420314408093,"260":0.04693232482067243,"261":-0.004881539668202318,"262":-0.05932041530156356,"263":-0.005911369947955137,"264":0.005741457702639547,"265":-0.010228738892235311,"266":-0.0019107620075752636,"267":-0.003189615878609385,"268":-0.004541214422010579,"269":-0.0009905575551003066,"270":0.0065510726857341516,"271":0.00019804887039024652,"272":-0.012532764574457548,"273":-0.0040765142977191365,"274":0.01882265775385487,"275":0.00020422229735094736,"276":-0.009737914681747154,"277":0.006236344025301875,"278":0.009406213501836586,"279":0.0025661542705679133,"280":-0.03132261322932756,"281":0.0018160153780265784,"282":0.04039239093642027,"283":0.003575186966579061,"284":0.01156466135959663,"285":0.0007625707481717344,"286":-0.015702714103384675,"287":-0.0009573251045376963,"288":0.006792296801630038,"289":-0.0019615079846806863,"290":-0.007891044006286504,"291":-0.001175289164899815,"292":-0.02780363474979476,"293":0.01148442558431015,"294":0.030372350849224745,"295":0.005703283089477489,"296":0.16060316889983775,"297":0.05595451416348621,"298":-0.24285787525499036,"299":-0.001905169266322803,"300":-0.0849980101599334,"301":-0.024277171197724216,"302":0.12581369466694192,"303":0.0022180829195493873,"304":0.019036715344145357,"305":-0.00038052435648037894,"306":-0.024953387243935962,"307":-0.0019857227336162863,"308":0.018491612406496296,"309":0.012961453340474934,"310":-0.031639899494666814,"311":0.001485955247985356,"312":0.030582665878607453,"313":0.005413816700858745,"314":-0.043427117190782995,"315":-0.001650406275131725,"316":-0.02706818250396946,"317":-0.0029338335772973625,"318":0.03740623548119738,"319":0.0019360067756607677,"320":0.0278970516620321,"321":-0.00043826267222738386,"322":-0.03663056356630105,"323":-0.0028814949755118324,"324":0.03589652875726939,"325":0.019334228814162864,"326":-0.05816279582307746,"327":0.0013773715867798565,"328":0.09566137710742527,"329":0.006928465327884078,"330":-0.13026087067376327,"331":-0.007732632178523907,"332":-0.07233922979814014,"333":-0.019630387766919253,"334":0.10651432618490404,"335":0.0021469036517801137,"336":-0.0031041355625812763,"337":-0.011111202571956115,"338":0.010268676938591568,"339":-0.0025358324792666307,"340":-0.2374422275828996,"341":-0.1308674829975696,"342":0.3847164222589695,"343":-0.008741657930326037,"344":-0.0580584391135121,"345":-0.0325554289205599,"346":0.09482285209433879,"347":-0.0025869975554977218,"348":0.0020894846412151057,"349":0.01973021578406849,"350":-0.013716343068773982,"351":0.004846895577344968,"352":-0.13629640731395035,"353":-0.05139737937182703,"354":0.20847694673971295,"355":0.0004758358211214446,"356":0.016956818530517614,"357":0.0008778382337422362,"358":-0.022900422591618733,"359":-0.0014585976568105554,"360":-0.02846549368170978,"361":-0.003401368174302988,"362":0.039511785059787405,"363":0.001955577153754643,"364":-0.0010348422357639216,"365":-0.011394554007883695,"366":0.007695458594222844,"367":-0.002817038312800239,"368":0.02802809949809709,"369":0.0012655587409688644,"370":-0.03774813957280595,"371":-0.002459123814491664,"372":0.014466979145840315,"373":0.0003449513998067457,"374":-0.019315313009857085,"375":-0.0013467174167601538,"376":-0.04327684966369765,"377":-0.018622884183833004,"378":0.0675498388966205,"379":-0.00048169185708696164,"380":0.011550402872812018,"381":-0.0016942479409936416,"382":-0.014325801342607993,"383":-0.0015811267643897143,"384":-0.04864635759123788,"385":0.031160937784808055,"386":0.04698945605429038,"387":0.012818299535899429,"388":-0.006330637494649501,"389":-0.003258500551212627,"390":0.01017773265299035,"391":-0.00020683677431167748,"392":-0.0148830553465034,"393":0.008025682480282403,"394":0.015277019259621659,"395":0.0034913221166632505,"396":-0.012209085523018547,"397":0.017210530647346137,"398":0.006581558726205236,"399":0.0056213266549527945}},"b1":{"n":100,"d":1,"w":{"0":0.014943177639473417,"1":-0.0021259075481914287,"2":-0.01517081605819011,"3":0.0015555543566978178,"4":-0.002195773187882497,"5":0.017326424324671803,"6":0.01681073863099999,"7":-0.010264768494717635,"8":0.005563582564429821,"9":0.003971187881386128,"10":0.005759085409509058,"11":0.03484227771163131,"12":-0.0860074704273925,"13":0.001960044268384566,"14":-0.011824276414920785,"15":-0.005776931924840179,"16":0.005189956290265969,"17":-0.006974759923289219,"18":0.029698483121936608,"19":-0.015558893341730632,"20":-0.003989810687299362,"21":0.007133458796952891,"22":-0.00993195202778133,"23":1.637049937876059,"24":-0.0010694985271257876,"25":0.012188873033883912,"26":-0.017780775337251475,"27":-0.030452609401340678,"28":0.00027494965316171485,"29":-0.006998714786269403,"30":-0.005798882996623288,"31":-0.004828117273851927,"32":0.010304290957616032,"33":-0.017452054694454013,"34":-0.009313082898594413,"35":0.00425808638126863,"36":0.002828006777655074,"37":-0.003650721701453494,"38":-0.005466508899280717,"39":-8.655496982609307,"40":-0.012646477469189836,"41":0.022102471226309508,"42":-0.00041710069929537703,"43":-4.16126742662113,"44":-0.015028621521835754,"45":-0.004215714224685361,"46":-0.006429509937690167,"47":0.2744162304988477,"48":0.01345571328147184,"49":-0.00018973321713849065,"50":-0.0064082601624306425,"51":0.0031333202305092183,"52":-0.007911672267846085,"53":-0.0046491810560663,"54":0.007568088387962015,"55":0.005346206818972169,"56":-0.0028098161775899876,"57":-0.00005043942922431159,"58":-0.006741848921495503,"59":0.0007216778309491059,"60":-0.0066977361844771,"61":-0.00046009151233853996,"62":0.0075430632875825914,"63":-0.010323357782423853,"64":0.002653404019482819,"65":0.013015803726892886,"66":-0.0003181798641622648,"67":-0.001549242562514807,"68":-0.004541162951874735,"69":-0.0016635175798786525,"70":-0.008973121218993347,"71":0.0035950629840936937,"72":0.001635577569094019,"73":-0.006005969029348023,"74":0.05882880170675156,"75":-0.030146169450395395,"76":0.0055979407800449575,"77":0.008082410069544254,"78":0.010186644766651879,"79":-0.00864775430817172,"80":0.00822603989072894,"81":0.01452653444475395,"82":0.029876073078234006,"83":-0.025454024310896342,"84":-0.003128242154070332,"85":-0.0962357838039355,"86":-0.023765203516389385,"87":0.004537094833115128,"88":-0.05076503334425689,"89":0.00522696469117499,"90":-0.009156579275705196,"91":-0.002569444905670658,"92":0.008602581297016817,"93":0.00437991681694337,"94":-0.016594301357076686,"95":0.0031054635728835827,"96":-0.008310325084440798,"97":-0.002533195033021139,"98":-0.002863739651046926,"99":-0.0002233265957488444}},"W2":{"n":3,"d":100,"w":{"0":0.008011244871786751,"1":-0.0011579101346654531,"2":-0.00812411802550356,"3":0.0008456778848755331,"4":-0.0011815331837428545,"5":0.00927248660948915,"6":0.009006614394664733,"7":-0.005495009966644174,"8":0.0029806228702547667,"9":0.0021275148402892918,"10":0.0030822418214033116,"11":0.018636586563716688,"12":-0.04553814045514806,"13":0.0010471970562488425,"14":-0.006344034739560914,"15":0.26490642770215733,"16":0.0027732672678814014,"17":-0.003756637597274986,"18":0.015883370408590475,"19":-0.008345608949948312,"20":-0.0021269498231906822,"21":0.0038066072241651535,"22":-0.005319308700707616,"23":0.21481589721324518,"24":-0.0005617226204434757,"25":0.006535638502187807,"26":-0.009516354597889005,"27":-0.01628358236309253,"28":0.0001635742267122309,"29":-0.0037653858651272563,"30":-0.003131068989874968,"31":-0.002589843627312656,"32":0.005499489643878792,"33":-0.009343399535497744,"34":-0.005001331906813842,"35":0.0022950401612947045,"36":0.001501648148336839,"37":-0.001960366172823833,"38":-0.0029374782451842417,"39":-0.3666248980604916,"40":-0.006769125234848551,"41":0.011806858234718534,"42":-0.000225468765607426,"43":0.5011476671948731,"44":-0.008044282474991922,"45":-0.002269570192429835,"46":-0.003460603161245071,"47":0.13447330571696714,"48":0.007205495063980192,"49":-0.00011809238307318582,"50":-0.0034420591704106443,"51":0.00166966037874097,"52":-0.004227093171042546,"53":-0.002483051549193558,"54":0.004084733601890149,"55":0.0028791763649542237,"56":-0.001510544777608532,"57":-0.00005175666464915713,"58":-0.0036103475455734873,"59":0.00039805289987430385,"60":-0.003570149791818444,"61":-0.00025812525153343086,"62":0.004025698008203705,"63":-0.0055359255109172015,"64":0.001407934920916299,"65":0.006994201439036164,"66":-0.00015565194896901034,"67":-0.0008304996316232969,"68":-0.0024327447163971193,"69":-0.0009027756002635754,"70":-0.004820138421596876,"71":0.0019297774509045738,"72":0.0008809303120685933,"73":-0.0032419557479364757,"74":0.031353394446875946,"75":-0.01612505152981084,"76":0.003005946196116184,"77":0.00431973950415075,"78":0.005460723969673192,"79":-0.00463840336010536,"80":0.004417001942353963,"81":0.007769812054876335,"82":0.01600815202950275,"83":-0.013622012495349773,"84":-0.0016633728096692607,"85":-0.05080481098449129,"86":-0.012698068174707774,"87":0.00240658245512148,"88":-0.02707424744165542,"89":0.0028051372452674956,"90":-0.004910887270922074,"91":-0.0013624866219269908,"92":0.004616711817001927,"93":0.002351008149271794,"94":-0.008877146445214121,"95":0.0016700127990642137,"96":-0.004509044214355524,"97":-0.001355212295246378,"98":-0.0015438887537952792,"99":-0.00014568692578028554,"100":0.006226064863987229,"101":-0.0008782817273221929,"102":-0.006324282354789232,"103":0.0006432771716497709,"104":-0.0009136126142831965,"105":0.007225561383717042,"106":0.007006021941096847,"107":-0.004281935303266202,"108":0.002320271482448146,"109":0.0016560223076797968,"110":0.002402885671426962,"111":0.014510754585233559,"112":-0.03568997962749415,"113":0.0008184748337159416,"114":-0.004925941208466696,"115":-0.4606887431280193,"116":0.002167575150791188,"117":-0.002898470259416281,"118":0.01237530723905366,"119":-0.006480634050314457,"120":-0.0016683183262931522,"121":0.0029812086874988655,"122":-0.0041415882639865105,"123":0.5956386758980154,"124":-0.0004506156710254402,"125":0.00507918167278178,"126":-0.007417315553916532,"127":-0.01268983436065506,"128":0.00010734916106082186,"129":-0.0029114571189127404,"130":-0.0024075513709070936,"131":-0.00201128519387101,"132":0.004305495744121088,"133":-0.0072764685937920445,"134":-0.0038783700842589873,"135":0.001769909386355445,"136":0.0011849853400878415,"137":-0.001519040984826994,"138":-0.002275140892929715,"139":0.23261221012654867,"140":-0.00527470507007442,"141":0.009222368963931289,"142":-0.00017341612213016218,"143":-0.2752901965842478,"144":-0.006266938454088907,"145":-0.0017532281268972927,"146":-0.0026748831523078667,"147":0.1088625701008627,"148":0.00561042224515685,"149":-0.00007205410293711234,"150":-0.0026685686549698016,"151":0.0013102659728330324,"152":-0.0033040627586852973,"153":-0.0019421133398322607,"154":0.0031428323762222035,"155":0.0022227923874270686,"156":-0.0011694556529668614,"157":-0.000009948109609347886,"158":-0.002813359217343439,"159":0.0002960661556722907,"160":-0.002800818282249449,"161":-0.00018659751688763796,"162":0.0031528544964630925,"163":-0.004302096437974741,"164":0.0011125476119761538,"165":0.005416962466641411,"166":-0.00013940218902941864,"167":-0.0006459941568235637,"168":-0.0018944066957903446,"169":-0.0006888325610887807,"170":-0.0037358024077784988,"171":0.0014981858389326046,"172":0.0006797916753453049,"173":-0.002493807256362354,"174":0.024471627880123987,"175":-0.012559761802672244,"176":0.002331085351150031,"177":0.0033746374218891944,"178":0.004245970306705721,"179":-0.003603488733849951,"180":0.0034255849911869933,"181":0.006062754530075694,"182":0.012436889116511828,"183":-0.010606882910261538,"184":-0.0013104998255749317,"185":-0.03987684083471312,"186":-0.009913105468846268,"187":0.0019028291996890882,"188":-0.021128198209582946,"189":0.002177560248241726,"190":-0.003815720122564984,"191":-0.001077710449833143,"192":0.003583600019331547,"193":0.0018243420603880464,"194":-0.00692135310759425,"195":0.001292315690025713,"196":-0.003440681616867956,"197":-0.00105719972071394,"198":-0.0011841373814164358,"199":-0.00008155945428346775,"200":-0.002800887102498269,"201":0.0004372180298267086,"202":0.0028252017025481523,"203":-0.00031675203672789054,"204":0.0004212421437869724,"205":-0.0032096089335715188,"206":-0.003136347764622679,"207":0.0019087784376214134,"208":-0.0010400960230927748,"209":-0.0007428834761778652,"210":-0.0010706031181191742,"211":-0.006359218582446001,"212":0.013446046635398433,"213":-0.0003610093311741353,"214":0.0022274237115405553,"215":-0.0005133043408910579,"216":-0.0009553825220539472,"217":0.0013479294616503474,"218":-0.005441952953680361,"219":0.002924297965892522,"220":0.0007245441505195055,"221":-0.001302321098054843,"222":0.0018530448597828392,"223":0.03400703478061798,"224":0.00017721598982153435,"225":-0.002288070389651684,"226":0.0032896088187641275,"227":0.005570504493263248,"228":-0.00008569280475840533,"229":0.001341734512432975,"230":0.0011351679328641285,"231":0.0009109904214949272,"232":-0.001881737567401635,"233":0.0032400468014893167,"234":0.0017647462390730064,"235":-0.000824794610935825,"236":-0.0005014856801527573,"237":0.0006948372408888161,"238":0.0010418031799592272,"239":-0.008958876421704717,"240":0.002349325499960262,"241":-0.0040417872378612964,"242":0.00008160036463061584,"243":0.0033182002409773473,"244":0.0027907023326831943,"245":0.0008115000314978983,"246":0.0012343117512663183,"247":-0.0046588379032025075,"248":-0.0025060277901982715,"249":0.00006954259958510095,"250":0.0012164667012444215,"251":-0.0005680148047177085,"252":0.0014550832465256949,"253":0.0008535957322062843,"254":-0.0014774104413308126,"255":-0.001031238171804696,"256":0.0005365513494740164,"257":0.0000614472417470085,"258":0.0012550120968951447,"259":-0.00015863695097222892,"260":0.0012147376448717986,"261":0.00011065159206471223,"262":-0.0013767799962056816,"263":0.001939710710128136,"264":-0.00046793933233348886,"265":-0.0024742132241831745,"266":0.000028256981243945684,"267":0.00029065599735583547,"268":0.0008480169135345526,"269":0.0003350335996757888,"270":0.0017040911681284068,"271":-0.0006792375019890482,"272":-0.0003161848985241417,"273":0.0011739445658621175,"274":-0.010162306886040228,"275":0.005527700445775187,"276":-0.0010617930734114903,"277":-0.0014895579913310466,"278":-0.0019101554044686478,"279":0.0016278026716246233,"280":-0.001558768319298248,"281":-0.0026815628952410256,"282":-0.005534403514670112,"283":0.004696969716880633,"284":0.0005582264485557864,"285":0.014360806526567004,"286":0.004348522179892925,"287":-0.000797946655257375,"288":0.008935165032447496,"289":-0.0009877097601678731,"290":0.001722341487264628,"291":0.0004513128669257466,"292":-0.001624532866692529,"293":-0.0008289700207423787,"294":0.0030689226018677926,"295":-0.0005940150904033859,"296":0.0016713624143984205,"297":0.00046998380250210425,"298":0.000566330008980117,"299":0.00009636806503626488}},"b2":{"n":3,"d":1,"w":{"0":0.11596144396191493,"1":-0.38271109255972335,"2":0.028141519361256122}}}}},"weights":{"nh":100,"ns":4,"na":3,"net":{"W1":{"n":100,"d":4,"w":{"0":0.020434449511974952,"1":-0.028760539884021614,"2":-0.011564568938677341,"3":-0.009161583374031185,"4":-0.011087520463651725,"5":0.015603486782565235,"6":0.00627598848279197,"7":0.004970265195471149,"8":-0.016797096226659605,"9":0.023641930022219728,"10":0.009505508540548187,"11":0.0075311501132678755,"12":0.007410724861506594,"13":-0.010429161426651021,"14":-0.004194747542546272,"15":-0.0033220624131308696,"16":-0.004702456947532691,"17":0.0066181434389939306,"18":0.0026615260494690153,"19":0.0021081529453274295,"20":0.01643763513012671,"21":-0.02313672648535218,"22":-0.009301574264491502,"23":-0.007370295552269871,"24":0.020644575948725326,"25":-0.0290567761510391,"26":-0.01168314323587601,"27":-0.009256000835226165,"28":-0.009527254925449867,"29":0.013410104846024364,"30":0.005391154212377688,"31":0.004271847803652917,"32":0.00601069147028567,"33":-0.008460100208684483,"34":-0.0034014295761646677,"35":-0.002694974579517868,"36":0.004354686936213243,"37":-0.006129235743284574,"38":-0.0024643188767274242,"39":-0.001952472524208236,"40":0.004908116084969877,"41":-0.006908549877953792,"42":-0.0027772531560648827,"43":-0.002200761880975749,"44":0.04058700413636937,"45":-0.057125828137510506,"46":-0.022968561684176027,"47":-0.01819741872011646,"48":-0.06309365493016891,"49":0.08878705500635439,"50":0.03571691855812602,"51":0.02828132299165689,"52":0.0008821069083392617,"53":-0.001241886453196725,"54":-0.000498962876587275,"55":-0.00039563758163806704,"56":-0.017706812086994816,"57":0.024921213268312124,"58":0.010021114915141495,"59":0.007938545299456036,"60":-3.4987433644062946,"61":-7.246278165290491,"62":4.373741665073432,"63":6.626136654448464,"64":0.002288545805801343,"65":-0.0032220117407127527,"66":-0.0012944782317036347,"67":-0.0010264671253708438,"68":-0.017514888577604026,"69":0.024649710655825174,"70":0.009913459842498376,"71":0.007851912683632355,"72":0.03059568178616304,"73":-0.04306412529216594,"74":-0.017313687846003713,"75":-0.013718172163105833,"76":-0.02330993776388368,"77":0.032807244556036945,"78":0.013192195395733686,"79":0.010450605230652294,"80":0.0004670389302219355,"81":-0.0006561253212224768,"82":-0.0002651571014078809,"83":-0.0002088783822432534,"84":0.0009067763786151715,"85":-0.0012780628356273626,"86":-0.000511910020588136,"87":-0.0004073158055328158,"88":-0.010554981389630257,"89":0.014856260571980327,"90":0.005973004641966878,"91":0.004732482248260895,"92":-0.9326790156547998,"93":0.0007670603857629379,"94":2.1966791977153477,"95":-0.8589965623592758,"96":0.0038990400723944133,"97":-0.00548662676400147,"98":-0.0022073633754921182,"99":-0.001747632726206891,"100":0.016583881453595625,"101":-0.023341065485162103,"102":-0.00938538268952463,"103":-0.007435228463647434,"104":-0.016028970189369458,"105":0.022561853772658652,"106":0.009070084456618537,"107":0.0071872038521837,"108":-0.03047940904214941,"109":0.0429007108855889,"110":0.017247721872215876,"111":0.0136661418305489,"112":0.007919329721576409,"113":-0.011144531480811173,"114":-0.0044829107309250155,"115":-0.003549891787854814,"116":-0.01509848895953739,"117":0.021249282002419802,"118":0.008545557244125371,"119":0.006768773854438265,"120":-0.01763647504082127,"121":0.02482052211465988,"122":0.009982489993541566,"123":0.007906290658365882,"124":-0.007099450763665666,"125":0.009992019149731725,"126":0.004017916533516926,"127":0.0031829140420120867,"128":0.0019457591310829954,"129":-0.002741066150371157,"130":-0.0010994304358713594,"131":-0.0008734235858370562,"132":-0.01820585240468508,"133":0.025625087987616767,"134":0.010302494895953905,"135":0.008162921412433903,"136":-0.015791528703600632,"137":0.022225226723376092,"138":0.008937407890856557,"139":0.007079713617340917,"140":0.010933250991272275,"141":-0.015386996642186616,"142":-0.006188238079230522,"143":-0.00490137047300861,"144":-0.0030246460194709355,"145":0.00425564220966419,"146":0.00171273312462636,"147":0.0013554728350256876,"148":-0.006722686726850093,"149":0.009461465613893327,"150":0.0038048846993223905,"151":0.0030138785746944897,"152":-0.010358196165258586,"153":0.0145780653891475,"154":0.005862493582025435,"155":0.004643733648658298,"156":-22.091742182752004,"157":-12.816929442146696,"158":46.06976637141438,"159":-52.13704244112339,"160":-0.011877104618604055,"161":0.016717586763586742,"162":0.006720892560286874,"163":0.005325455035272804,"164":0.013122590079419641,"165":-0.018472984612503785,"166":-0.007424059454834878,"167":-0.005884889975855975,"168":-0.0012236522929520023,"169":0.0017221100883503561,"170":0.0006925937824931609,"171":0.0005485598687424336,"172":-6.278091950468386,"173":1.2195320982584121,"174":12.00972184393475,"175":-30.9383301239065,"176":-0.014784009136121478,"177":0.02080898585980568,"178":0.008365965556059179,"179":0.006628764870050661,"180":-0.009706615479559816,"181":0.013660797293714137,"182":0.005493879651386424,"183":0.004351519603735854,"184":-0.014154298300156765,"185":0.01992043690872836,"186":0.008011165297835559,"187":0.006345480563352852,"188":-1.0088494522467069,"189":-0.6654215943300111,"190":-2.6108035194410952,"191":2.4340302783395513,"192":0.014319424674754904,"193":-0.02015476140223517,"194":-0.008103280268835188,"195":-0.006420327222180436,"196":-0.007761298476934844,"197":0.010922128516145204,"198":0.004393462312010685,"199":0.003479047973799872,"200":-0.011083841199659134,"201":0.015599517755383542,"202":0.006273063443857864,"203":0.004969129141537155,"204":-0.0005899587457154289,"205":0.0008293509250361441,"206":0.00033456723508393005,"207":0.0002640823880397578,"208":-0.003464825269408723,"209":0.004878090783580788,"210":0.00195981326217031,"211":0.001554061307610169,"212":-0.0015410067648820775,"213":0.0021698809306529266,"214":0.0008714227851950213,"215":0.0006913135627918497,"216":0.02225842594544982,"217":-0.03132525873998673,"218":-0.012598523909513621,"219":-0.009978307651469839,"220":0.012840036231180886,"221":-0.018070611942399024,"222":-0.0072674217090618375,"223":-0.005756217812158938,"224":-0.0054875721116338745,"225":0.007723160804278283,"226":0.003105847207089008,"227":0.0024601533498435305,"228":-0.011624448962020117,"229":0.016358488108829332,"230":0.006580343352417117,"231":0.005210694284470608,"232":-0.006114132209720489,"233":0.008606035248737676,"234":0.0034597284772181713,"235":0.0027414985509236246,"236":0.006024741436340621,"237":-0.008478510337914167,"238":-0.00341033190276756,"239":-0.0027006943446652703,"240":0.0009669421002740612,"241":-0.0013588480849320266,"242":-0.000548674498545875,"243":-0.00043263657112778566,"244":-0.005969808060659374,"245":0.008401123198344658,"246":0.0033792926411548006,"247":0.002676035377725774,"248":0.0008843400825964841,"249":-0.001246628037317946,"250":-0.0004991127075826473,"251":-0.0003973175380519658,"252":-0.014049183756305397,"253":0.019773593318793053,"254":0.007950910527963411,"255":0.0062988206757746,"256":-0.00343162901363943,"257":0.004828407703401529,"258":0.0019430898037216956,"259":0.0015379208746945493,"260":0.024817554062259356,"261":-0.03492812168316028,"262":-0.014046121189980023,"263":-0.011126095716408132,"264":0.006614930318999726,"265":-0.009308750767141542,"266":-0.003744635219657137,"267":-0.002965120068090668,"268":-0.0018577813709027295,"269":0.002614797189899567,"270":0.001051344228212808,"271":0.0008329417366597964,"272":-0.0046280502003684335,"273":0.006514106364371727,"274":0.00261893792020547,"275":0.0020750851091895332,"276":-0.007090231742500584,"277":0.009978184913363303,"278":0.004013297734314945,"279":0.0031784160920165154,"280":-0.016027548293745933,"281":0.022557254367375025,"282":0.009071090426863878,"283":0.007185463159660215,"284":0.005384893219772411,"285":-0.007578906565774231,"286":-0.0030475553698150934,"287":-0.0024142293350755254,"288":0.004058166505280282,"289":-0.0057112968789189015,"290":-0.0022969258365019606,"291":-0.0018192757061614806,"292":-0.01789524184136654,"293":0.025184725858002507,"294":0.010128934153627794,"295":0.008022306817195584,"296":0.05788576802812784,"297":-0.0814732221709921,"298":-0.032758418738935854,"299":-0.02595322475031221,"300":-0.03263828781940795,"301":0.045938684556129816,"302":0.01846988931224947,"303":0.014633820936117049,"304":0.00947233826719693,"305":-0.013331489833226181,"306":-0.0053609965207424655,"307":-0.004246664975535069,"308":0.004247601239745742,"309":-0.005979696055441757,"310":-0.002402894065785783,"311":-0.0019049620958658294,"312":0.012978390711329491,"313":-0.01826668313521616,"314":-0.00734478492573806,"315":-0.005818818213284533,"316":-0.012177326073504382,"317":0.01713894706281655,"318":0.006891625929360113,"319":0.00545955214385754,"320":0.013836611685429424,"321":-0.019473850150279977,"322":-0.007830997323731801,"323":-0.0062032792273738506,"324":0.01040988125781458,"325":-0.01465344100402429,"326":-0.005889910250756789,"327":-0.004668023398668518,"328":0.04431087458717954,"329":-0.062364861313068835,"330":-0.02507752455735189,"331":-0.01986606936405408,"332":-0.028161643661707078,"333":0.03963761176057592,"334":0.01593668032165201,"335":0.012626590588972425,"336":0.002607217337154832,"337":-0.0036681103457338934,"338":-0.0014765098506517797,"339":-0.0011683141663101867,"340":-0.06750504769285803,"341":0.0949796598162948,"342":0.03822479357637296,"343":0.030252236230504867,"344":-0.016359829899391817,"345":0.023029049460449716,"346":0.00925626606403799,"347":0.007336189479079713,"348":-0.006307037919584959,"349":0.008874286591878186,"350":0.003571168629991469,"351":0.0028266040322848774,"352":-0.0476857142003951,"353":0.06711869149892292,"354":0.026984748258357786,"355":0.021380800845906812,"356":0.007985228260905038,"357":-0.01123866108532265,"358":-0.004519242959562307,"359":-0.0035800229050977216,"360":-0.012688459914047915,"361":0.017858385665195705,"362":0.0071808655580806735,"363":0.005688731537765784,"364":0.0037266319840262435,"365":-0.00524357450443569,"366":-0.002110067506371635,"367":-0.0016701671724780993,"368":0.013267697462467969,"369":-0.018673358434540082,"370":-0.0075088695216826845,"371":-0.00594830925631936,"372":0.006962891453433952,"373":-0.009799736554333641,"374":-0.003940689789658692,"375":-0.003121654334131506,"376":-0.014292359019478281,"377":0.020117556996408763,"378":0.008087343145091411,"379":0.00640857018644334,"380":0.006290970817040821,"381":-0.008853826252476197,"382":-0.003560575004959987,"383":-0.0028203148420651654,"384":-0.03542233208890245,"385":0.04985035836247565,"386":0.020050174828694194,"387":0.015879157844265766,"388":-0.0018922335287921094,"389":0.002663549714942427,"390":0.0010706588220242871,"391":0.0008484995705845703,"392":-0.010278910049802178,"393":0.014465591588728803,"394":0.005818237659499899,"395":0.004607811882855272,"396":-0.012379243170576065,"397":0.017420721864703653,"398":0.007007580304443074,"399":0.005549054609087934}},"b1":{"n":100,"d":1,"w":{"0":0.00047399452837171524,"1":-0.00025757572230607786,"2":-0.000389437969858672,"3":0.00017215132183765272,"4":-0.00010915800231266497,"5":0.00038093237011625194,"6":0.00047875403424924376,"7":-0.00022077541030966888,"8":0.00013934622846680815,"9":0.00010096049456853366,"10":0.00011370753719580713,"11":0.0009411022577563623,"12":-0.0014668475029535326,"13":0.000020377130696435918,"14":-0.0004107951141410966,"15":0.29281816812603084,"16":0.000052854809147085115,"17":-0.00040666373129031707,"18":0.0007092002257954659,"19":-0.0005407896504787957,"20":0.000011114576508189442,"21":0.00002061123601159805,"22":-0.00024468912587970285,"23":-0.5852166864739836,"24":0.00009069509396775399,"25":0.00038467225385368055,"26":-0.0003713823453362268,"27":-0.0007064487841373422,"28":0.0001840575121225272,"29":-0.0003504873861777878,"30":-0.0004095574215452039,"31":-0.00016470763381840108,"32":0.00004455256105247625,"33":-0.0004220225850232344,"34":-0.00036644142281240424,"35":0.00025384930745932894,"36":-0.00007048608493262752,"37":-0.00015603231400614697,"38":-0.00024041010552956264,"39":-11.63339217534735,"40":-0.00027524094534106563,"41":0.0003035653178569869,"42":-0.000028412405201971164,"43":-6.979841841367253,"44":-0.0003426537956403938,"45":-0.00022534225767357192,"46":-0.0003285722553091996,"47":0.9238026104354378,"48":0.0003319571427302552,"49":-0.00018038750227781505,"50":-0.0002572093845256898,"51":-0.000013914302230690725,"52":-0.00008001872651372778,"53":-0.00003551600351598496,"54":0.0005168709728030972,"55":0.00029810123949709425,"56":-0.000127368441184281,"57":-0.0002701930279758538,"58":-0.00014166500004928373,"59":0.00013998917914078958,"60":0.00002291187621457795,"61":-0.00013873144059774832,"62":0.000020057523819827884,"63":-0.00032587839076637096,"64":-0.00007993666841113647,"65":0.0005759978083147388,"66":0.0001537774057127845,"67":-0.00004307978104113166,"68":-0.0001072724583757133,"69":-0.00016469335269196297,"70":-0.0003719530399236848,"71":0.00012492594905930715,"72":0.0000942218866575418,"73":-0.00041555939922750216,"74":0.00134232116235458,"75":-0.0007566532859263189,"76":0.00021980882040716993,"77":0.00009820273744780082,"78":0.0003009982886342181,"79":-0.00028248074618143884,"80":0.0003210772118904917,"81":0.00024099762041105305,"82":0.001027978651839337,"83":-0.0006529072906769795,"84":0.00006080820268325462,"85":-0.0015729448425992375,"86":-0.0003787023599373461,"87":-0.00014689578776593028,"88":-0.0011053552095992357,"89":0.000185265335803028,"90":-0.0002943273070632152,"91":0.00008678792241131952,"92":0.00030782762842594783,"93":0.00016155900754074017,"94":-0.0003311227161738857,"95":0.00014602276798996263,"96":-0.0008227976444738299,"97":-0.000043817887647006703,"98":-0.00023877599037689794,"99":-0.0002877253088747785}},"W2":{"n":3,"d":100,"w":{"0":0.00022838944584799696,"1":-0.00012413339209006274,"2":-0.0001876358048590983,"3":0.00008296435227255019,"4":-0.00005260144503138399,"5":0.00018352756204953856,"6":0.00023067599229412074,"7":-0.00010636555673917034,"8":0.00006713803383122885,"9":0.00004864383303829084,"10":0.00005478053404286355,"11":0.00045343964220666765,"12":-0.0007069812106044556,"13":0.000009813544731711995,"14":-0.00019794162879348818,"15":0.1592989211142492,"16":0.000025453964700726764,"17":-0.0001959699075058943,"18":0.0003416916818908285,"19":-0.0002605796342787711,"20":0.000005372070562199973,"21":0.000009906358083358849,"22":-0.00011789255545031481,"23":-0.22723134207618342,"24":0.000043715507025421896,"25":0.0001853501331504503,"26":-0.00017892180182724988,"27":-0.0003403627140930429,"28":0.00008870765358070062,"29":-0.00016889447113483956,"30":-0.00019736854057739547,"31":-0.00007936447904333758,"32":0.00002143285968356123,"33":-0.00020333088642903414,"34":-0.00017657457108332948,"35":0.00012232910787059607,"36":-0.00003398233271927872,"37":-0.00007518814958032593,"38":-0.00011584763476133371,"39":-0.38781197596537387,"40":-0.00013260678466793304,"41":0.00014622115277678396,"42":-0.000013691931357957092,"43":0.284616195665834,"44":-0.0001650880754933901,"45":-0.0001085900714432194,"46":-0.00015833407251270246,"47":0.21915690906025304,"48":0.00015993871887072652,"49":-0.00008693903982943756,"50":-0.00012394026522399333,"51":-0.000006718045643770104,"52":-0.00003853547901424196,"53":-0.000017099494550523523,"54":0.00024908257467934976,"55":0.00014365277666082094,"56":-0.00006137590389704376,"57":-0.00013022253588559798,"58":-0.00006825054448968854,"59":0.00006746657527494076,"60":0.000011068399481887167,"61":-0.00006686152130576266,"62":0.000009637589916378116,"63":-0.0001570209493148779,"64":-0.00003853660820184565,"65":0.00027755836531707,"66":0.00007411610370507885,"67":-0.000020756788715285268,"68":-0.00005168347909000436,"69":-0.00007936939476722036,"70":-0.0001792324709350208,"71":0.000060195421433988424,"72":0.000045405145285897106,"73":-0.00020026051149957605,"74":0.0006467596613858827,"75":-0.00036456073950735487,"76":0.00010591797794072182,"77":0.00004729884927440967,"78":0.0001450302347662971,"79":-0.00013611151911427472,"80":0.00015471521220949505,"81":0.00011609458252418594,"82":0.000495329461209727,"83":-0.0003145773914393903,"84":0.000029319422176963485,"85":-0.0007583256691468614,"86":-0.0001824279162403162,"87":-0.0000708156475210459,"88":-0.0005325588924444165,"89":0.00008927067039650143,"90":-0.0001418190948965876,"91":0.00004183831310149333,"92":0.00014832789478440845,"93":0.00007784846742621814,"94":-0.00015952444507501019,"95":0.00007036541515844795,"96":-0.000396524242064366,"97":-0.000021108829600607708,"98":-0.00011507237099680611,"99":-0.00013867171675534338,"100":0.000050581506506411956,"101":-0.000027528698315490937,"102":-0.000041538340360979887,"103":0.000018397982169374405,"104":-0.000011657233824399034,"105":0.00004061270161815993,"106":0.00005107712116895839,"107":-0.000023536330455213313,"108":0.000014861832747377025,"109":0.000010768432859292073,"110":0.000012119032707671792,"111":0.00010039098748732961,"112":-0.00015689096532685775,"113":0.000002165487933864815,"114":-0.00004384484138675624,"115":-0.3264399150762537,"116":0.000005615636702823129,"117":-0.00004343834214391514,"118":0.000075628284949345,"119":-0.000057719712559681785,"120":0.0000012162374064977916,"121":0.0000021541992930903085,"122":-0.000026096256160163287,"123":-0.1244386009953128,"124":0.000009705559093410368,"125":0.00004104908171568369,"126":-0.00003958600339064398,"127":-0.00007532883329328826,"128":0.000019680186767162402,"129":-0.0000374300722714169,"130":-0.00004375500997722663,"131":-0.000017579675937450803,"132":0.000004692023379352569,"133":-0.000045005611513603494,"134":-0.00003911953513183801,"135":0.000027115164121144223,"136":-0.000007556854951164791,"137":-0.000016660774686324075,"138":-0.000025670262428778683,"139":0.6248192472910818,"140":-0.000029344101496870884,"141":0.000032306002275281904,"142":-0.000003035061849279136,"143":-0.5287826587958864,"144":-0.00003653630905740093,"145":-0.000024067271094616646,"146":-0.000035089953432492295,"147":0.22227535771977325,"148":0.00003540339194234112,"149":-0.000019288082618631767,"150":-0.000027459462820437725,"151":-0.0000015094801595232972,"152":-0.000008501417167123012,"153":-0.00000376546481126816,"154":0.000055217902860283115,"155":0.000031839837395882,"156":-0.000013600423173999665,"157":-0.000028892594785312725,"158":-0.000015100627643969808,"159":0.000014964454178471244,"160":0.0000024967926227687333,"161":-0.000014832005543076155,"162":0.000002091540598211312,"163":-0.00003477505929530375,"164":-0.000008566458064545988,"165":0.00006150239817402021,"166":0.000016446383873349393,"167":-0.000004595781493899888,"168":-0.000011438899310542233,"169":-0.000017599559075118783,"170":-0.00003971166085051661,"171":0.000013333258444888906,"172":0.000010064291918227024,"173":-0.00004439546483009814,"174":0.00014320252583278477,"175":-0.00008070001720278632,"176":0.000023466141278306198,"177":0.000010444771709109269,"178":0.00003211550101880509,"179":-0.000030146281099283145,"180":0.000034276613201809285,"181":0.000025667376582779944,"182":0.00010971535795479578,"183":-0.00006963893641603396,"184":0.000006524604905521491,"185":-0.00016861775988839337,"186":-0.000040329112826195414,"187":-0.00001573993711224585,"188":-0.000117875391618271,"189":0.000019774670575167366,"190":-0.00003140943392169385,"191":0.000009298479215635901,"192":0.00003285700701824568,"193":0.000017245712278982007,"194":-0.0000352921837593161,"195":0.000015593103728990473,"196":-0.00008792652961640408,"197":-0.000004667999342194722,"198":-0.000025517870516428246,"199":-0.00003076611609744014,"200":-0.000003888529912010724,"201":0.0000021424893665629203,"202":0.000003180945493615599,"203":-0.0000014313188924909116,"204":9.015556210581889e-7,"205":-0.000003098572674054184,"206":-0.0000039189661519953965,"207":0.0000017948487299206511,"208":-0.0000011373838973608867,"209":-8.244837278805074e-7,"210":-9.222770338197983e-7,"211":-0.00000769435698526072,"212":0.000012284130204927604,"213":-1.6084919897995133e-7,"214":0.000003375355927036934,"215":0.05218355828582287,"216":-4.163253148960455e-7,"217":0.0000033655460412429636,"218":-0.0000057810473572799155,"219":0.000004443690187302794,"220":-1.1231536554695993e-7,"221":-1.373583381645624e-7,"222":0.000001996646484300352,"223":-0.06285126257032443,"224":-7.630944764161242e-7,"225":-0.0000031553752778384477,"226":0.00000301491407867148,"227":0.000005754387486049302,"228":-0.0000015371610231694168,"229":0.0000028952295372468827,"230":0.0000033948004759940713,"231":0.0000013534618442973648,"232":-3.21835207748142e-7,"233":0.000003441294694564202,"234":0.000003016972482829313,"235":-0.000002100795825041437,"236":6.028140335426517e-7,"237":0.0000012871048116124407,"238":0.0000019830050432976737,"239":-0.015564931304964173,"240":0.000002238571057803587,"241":-0.0000024284202488701164,"242":2.3524886448565545e-7,"243":-0.004047362671976144,"244":0.0000027904597471826275,"245":0.0000018628585425349684,"246":0.0000027144049130972522,"247":-0.0011010253685800975,"248":-0.000002708703089011977,"249":0.0000015067269938221891,"250":0.000002118366200233095,"251":1.314128786006176e-7,"252":6.30086210542012e-7,"253":2.7415714521968713e-7,"254":-0.0000042829440922644746,"255":-0.0000024655121416758495,"256":0.00000105087613182846,"257":0.0000022582328479140655,"258":0.0000011503472552425128,"259":-0.000001166486075279073,"260":-2.242500467707996e-7,"261":0.0000011574070387456476,"262":-1.303144508429364e-7,"263":0.000002673092601338176,"264":6.811158195456705e-7,"265":-0.000004750391492352049,"266":-0.0000012869882941348333,"267":3.524358225456743e-7,"268":8.74091294643971e-7,"269":0.000001368342568257654,"270":0.000003064964548951269,"271":-0.0000010262715949896546,"272":-7.79681059533676e-7,"273":0.000003444013505293249,"274":-0.000010982671043279673,"275":0.0000061758259111898445,"276":-0.0000018100100553931963,"277":-7.812816043184807e-7,"278":-0.000002465815620477185,"279":0.0000023187000683944363,"280":-0.0000026434458486121747,"281":-0.0000019418783421336944,"282":-0.00000844447800494637,"283":0.00000533176501736478,"284":-5.237746945151026e-7,"285":0.000013437882569158108,"286":0.000003048319000358563,"287":0.0000012500889669771807,"288":0.000009011167184748791,"289":-0.0000015229641136160388,"290":0.000002415162799439499,"291":-7.379537562512973e-7,"292":-0.00000253075668332642,"293":-0.000001329057980820347,"294":0.0000026863297082946677,"295":-0.0000012053251347074206,"296":0.000006836143428801402,"297":3.539036209856314e-7,"298":0.0000019850053090043602,"299":0.000002403880689571661}},"b2":{"n":3,"d":1,"w":{"0":0.4652391951803686,"1":-0.492227056924476,"2":0.05544183160140097}}}}}