{"numStates":1,"sensitivity":10.38199476368214,"alpha":0.013981899823296673,"gamma":0.41686407875015963,"epsilon":0.40456077416840375,"cycles":3535,"max":{"lastUpdatedDate":"2018-04-11T04:53:42.169Z","meetsCriterion":false,"cycles":875,"wealth":5.6151264002418735,"percentSuccess":0.4420833244664009,"odds":1.4736842105263157,"weights":{"nh":100,"ns":4,"na":3,"net":{"W1":{"n":100,"d":4,"w":{"0":-0.018328120064221538,"1":0.027541596315724795,"2":0.009104125166280395,"3":0.009194473685964861,"4":-0.0022780421683823195,"5":0.0034231568067537247,"6":0.0011315825016875065,"7":0.001142807505305071,"8":0.009954557301163172,"9":-0.014958633959851187,"10":-0.004944735484277704,"11":-0.004993802559230679,"12":0.002681527152480666,"13":-0.0040295327763137465,"14":-0.001331991990549602,"15":-0.001345211737198409,"16":-0.02654614635932936,"17":0.03989072876216708,"18":0.013186278915197141,"19":0.01331713211194032,"20":0.029200501169716907,"21":-0.04387948092047322,"22":-0.014504762137421743,"23":-0.014648706008470333,"24":-0.00854590632477706,"25":0.012841962615924967,"26":0.004244993355172196,"27":0.004287126284832507,"28":0.0012674514109326973,"29":-0.0019046430758044004,"30":-0.0006295701180294533,"31":-0.0006358226487218177,"32":-1.5245350881447028,"33":1.8846617970175967,"34":-28.770425718033188,"35":19.71465548058318,"36":0.00960699348896868,"37":-0.014436421092112607,"38":-0.004772074494385206,"39":-0.004819434902659836,"40":0.030626975830456885,"41":-0.0460232015674635,"42":-0.015213298357060662,"43":-0.01536428950243411,"44":-0.01641446873513339,"45":0.02466588807179748,"46":0.008153573380651265,"47":0.008234481735412275,"48":-0.031136272501811443,"49":0.04678831599706965,"50":0.015466326831608219,"51":0.015619809189612744,"52":-0.0065660025054775474,"53":0.009866770014891455,"54":0.0032615156378900593,"55":0.003293888753862534,"56":-0.023599351889556124,"57":0.03546254615932031,"58":0.011722528250331788,"59":0.011838850857356841,"60":0.007990578710854401,"61":-0.012007200704954795,"62":-0.003969206668340237,"63":-0.004008576134962484,"64":-0.011872184718098637,"65":0.017840410627665924,"66":0.00589724137292864,"67":0.005955777106878193,"68":0.001769062238402056,"69":-0.0026583322281621717,"70":-0.0008787530095727862,"71":-0.0008874706711784677,"72":0.00012954047895132013,"73":-0.00019493393560223178,"74":-0.0000642853236247296,"75":-0.0000649499375735964,"76":0.025820820399551917,"77":-0.03880073747456718,"78":-0.012825998284498898,"79":-0.01295327154067407,"80":-0.02807240264645417,"81":0.04218431292639443,"82":0.013944397096547071,"83":0.01408278202988687,"84":0.0035040722589782507,"85":-0.005265355062991551,"86":-0.001740622427172751,"87":-0.0017578766513036447,"88":0.014899807443776348,"89":-0.022389725081587392,"90":-0.007401215356055434,"91":-0.007474648890158685,"92":0.010333194868973591,"93":-0.015527491562441348,"94":-0.0051328428548598915,"95":-0.005183765051807418,"96":-0.0023653531401139002,"97":0.003554260258599262,"98":0.0011749744946501725,"99":0.0011866205419605053,"100":0.020653082628234027,"101":-0.031035382074375246,"102":-0.010258987160612047,"103":-0.010360803566757995,"104":0.007661000627095636,"105":-0.011512224068621391,"106":-0.003805432924572701,"107":-0.0038432042682253953,"108":-0.016211609127648265,"109":0.024361043795581974,"110":0.00805280872043783,"111":0.008132716325522073,"112":-0.0205505552136656,"113":0.030881166662351984,"114":0.010208091816115084,"115":0.010309388756689354,"116":-0.028477242047109524,"117":0.04279247911306939,"118":0.014145534203162375,"119":0.014285897260963397,"120":0.00392839933634161,"121":-0.0059030674011061705,"122":-0.0019513809949140669,"123":-0.0019707343226144118,"124":0.033347148403366146,"125":-0.05011065225703037,"126":-0.016564521230187656,"127":-0.016728907959538724,"128":0.004848949600944864,"129":-0.00728658064491154,"130":-0.002408599763868181,"131":-0.002432510517161655,"132":0.009505711449682186,"133":-0.01428434233897408,"134":-0.004721738409641131,"135":-0.004768610707112223,"136":-0.004572145061525353,"137":0.006870472979322663,"138":0.0022711372563228465,"139":0.002293668809466012,"140":1.7172510870231827,"141":2.6107861033500104,"142":-2.2023950540343815,"143":-0.6933808846646415,"144":-0.0037789750780532626,"145":0.005678633800371588,"146":0.0018771338530412117,"147":0.0018957606387533397,"148":0.02289697279187039,"149":-0.034407212269006136,"150":-0.011373606797614521,"151":-0.011486479240178168,"152":0.013665951413869943,"153":-0.020535642832510945,"154":-0.006788315798453469,"155":-0.006855669745946682,"156":-0.024546201932895063,"157":0.03688546918303008,"158":0.01219283569870353,"159":0.012313834845377607,"160":0.019754697749989603,"161":-0.02968521150863066,"162":-0.009812770806871426,"163":-0.009910142361954179,"164":0.005431199781794341,"165":-0.008161572523185555,"166":-0.0026978103746950997,"167":-0.0027245957756889,"168":0.0026166826907464452,"169":-0.003932056924091184,"170":-0.0012997894893864894,"171":-0.0013126863217888922,"172":-0.013638108170249885,"173":0.02049415601052885,"174":0.006774406206612392,"175":0.006841656470499054,"176":-0.008055838986726323,"177":0.012105496820636542,"178":0.004001571985263458,"179":0.0040412849940785955,"180":-0.001114493229201697,"181":0.0016748332564877689,"182":0.0005535822967125411,"183":0.0005590846089852555,"184":-0.02899048287292651,"185":0.043563651136810815,"186":0.014400492602780535,"187":0.014543378743669996,"188":0.012333622715462272,"189":-0.018533738472026627,"190":-0.006126467819704256,"191":-0.0061872712471267915,"192":5.686825097744521,"193":5.411747281506431,"194":6.946340191718268,"195":-12.389956068981743,"196":-0.0059677827832289275,"197":0.00896779868601273,"198":0.002964368468615803,"199":0.0029937899184353544,"200":-0.011294654300114376,"201":0.016972452938283908,"202":0.00561038822937138,"203":0.005666067050260902,"204":0.033475471548949025,"205":-0.05030339396763168,"206":-0.016628283087182304,"207":-0.016793293926456964,"208":-0.015314615441988328,"209":0.02301322330863119,"210":0.007607225333397506,"211":0.007682719619635316,"212":0.0037850716709328714,"213":-0.005687676516190957,"214":-0.0018801887559394825,"215":-0.0018988343187183526,"216":0.014014705530692709,"217":-0.021059976843153447,"218":-0.006961493646131681,"219":-0.007030591735834744,"220":0.020614924941772025,"221":-0.03097801646219042,"222":-0.010240038960510834,"223":-0.010341664777231337,"224":-0.005843841307571175,"225":0.008781613714121166,"226":0.0029027892894094563,"227":0.002931605607763122,"228":-0.013726227330408713,"229":0.02062636356887513,"230":0.0068182243463248094,"231":0.006885889146701465,"232":-0.005576628694204314,"233":0.008380154572217302,"234":0.002770038840489936,"235":0.002797545561492243,"236":0.0042743854003319155,"237":-0.0064232437257019685,"238":-0.002123183452662866,"239":-0.002144267453743647,"240":-0.03190207257851115,"241":0.04793864827693027,"242":0.015846819424302248,"243":0.01600403567724323,"244":0.025781617974385548,"245":-0.03874176019073212,"246":-0.012806540473508623,"247":-0.012933614021581967,"248":-0.012586050958377233,"249":0.01891302458445833,"250":0.006251864720358618,"251":0.006313908990499109,"252":1.6858862810714073,"253":4.013452004542898,"254":-3.9088806214967327,"255":-5.667207323974805,"256":-0.046613190242057206,"257":0.07004454228836708,"258":0.02315437123042572,"259":0.023384063645388416,"260":0.006411077743636146,"261":-0.009633906255823993,"262":-0.0031845730597454235,"263":-0.0032161768733923305,"264":-0.012283366149466377,"265":0.018458079275850716,"266":0.0061015349519557074,"267":0.00616207743977049,"268":0.021242463080919767,"269":-0.03192082090327901,"270":-0.010551799491960126,"271":-0.010656500248080873,"272":-0.017249971459026625,"273":0.025921362031844017,"274":0.00856859990232911,"275":0.008653623752148062,"276":-0.001039218947263714,"277":0.0015615685728362753,"278":0.0005162249462782778,"279":0.0005213419044657452,"280":-0.003367702293357624,"281":0.005060739023773851,"282":0.0016728147793446926,"283":0.0016894259142177506,"284":-0.005137440975243277,"285":0.007719984454733466,"286":0.0025519269120800837,"287":0.002577249224023529,"288":0.006604170265634458,"289":-0.009924127896724966,"290":-0.0032804739593724286,"291":-0.0033130355403514136,"292":-0.020630556194366052,"293":0.03100142071881466,"294":0.010247822440240324,"295":0.0103495172527246,"296":-0.0035966712219638384,"297":0.005404660303159428,"298":0.0017865839375256162,"299":0.0018043095665051492,"300":-0.0010149730629183782,"301":0.0015251951564081274,"302":0.0005041676888393493,"303":0.0005091709052885027,"304":-0.007339996507005719,"305":0.01102978332057485,"306":0.0036459960397463927,"307":0.0036821784257022134,"308":-0.020535321477796225,"309":0.030857969965530696,"310":0.010200593021264416,"311":0.010301785870451493,"312":0.021495464190291518,"313":-0.032301134383473,"314":-0.010677443687574699,"315":-0.010783403941566806,"316":0.006427259156979494,"317":-0.0096582148466307,"318":-0.003192612453221254,"319":-0.003224295352737678,"320":0.001570675339593813,"321":-0.00236022727686266,"322":-0.0007802060039273339,"323":-0.0007879466948337532,"324":-0.02328048862351253,"325":0.03498355248022492,"326":0.011564103319064916,"327":0.011678869387810598,"328":0.00788950092648123,"329":-0.011855573378654592,"330":-0.0039189397081692764,"331":-0.003957835807482845,"332":0.015480450042955379,"333":-0.023262363251696214,"334":-0.0076896135585983036,"335":-0.007765919710392786,"336":0.01145782261564287,"337":-0.017217543501700742,"338":-0.005691461600421203,"339":-0.0057479350779571095,"340":-0.02579205068380631,"341":0.038757634802643506,"342":0.012811678533712201,"343":0.012938822277646074,"344":-0.0041613543738379085,"345":0.00625311391538818,"346":0.0020670998894907317,"347":0.002087600225851884,"348":-0.02793795870206303,"349":0.04198215549234277,"350":0.013877643644694439,"351":0.014015353569438144,"352":-0.00009582436711149577,"353":0.00014386281269586674,"354":0.000047628389277212616,"355":0.000048088197292657164,"356":-0.01484215424307501,"357":0.022303307687542052,"358":0.007372528536726017,"359":0.007445698579693858,"360":-0.0014262206167272664,"361":0.002143069658099511,"362":0.000708470282227017,"363":0.0007154907020707132,"364":0.0015288404116853664,"365":-0.002297392766795837,"366":-0.0007594184795986267,"367":-0.0007669558615356858,"368":0.03026086637469694,"369":-0.04547299690610664,"370":-0.015031452790345559,"371":-0.015180634122449178,"372":-0.0005325305289792581,"373":0.0008003010784456669,"374":0.00026450828638262806,"375":0.0002671400019509855,"376":-0.025031021505888474,"377":0.03761386297033185,"378":0.012433692016528454,"379":0.012557067514121872,"380":0.0016800475126437786,"381":-0.0025246330559454116,"382":-0.0008345226543099775,"383":-0.0008428074990812013,"384":-0.003632781357718343,"385":0.0054589511302840805,"386":0.0018045145966626673,"387":0.00182242091759044,"388":-0.014460642997069569,"389":0.02172996580103603,"390":0.0071830308762132625,"391":0.007254315848208331,"392":0.02648076729705388,"393":-0.03979230197572813,"394":-0.013153843890061457,"395":-0.013284357506356105,"396":-0.01693408046147943,"397":0.025446740456667095,"398":0.008411672490761187,"399":0.008495145488592733}},"b1":{"n":100,"d":1,"w":{"0":0.00008159247942546168,"1":0.000010141936117595976,"2":-0.0000443158838708995,"3":-0.000011937370768283342,"4":0.00011817803728371307,"5":-0.00012999378213779045,"6":0.000038043564755333036,"7":-0.000005641764827772198,"8":5.248523387346311,"9":-0.00004276770504214048,"10":-0.00013634200566469117,"11":0.00007307428226961588,"12":0.00013861191541656467,"13":0.000029229481419427835,"14":0.00010506019303318883,"15":-0.00003557491750770168,"16":0.00005285056872251831,"17":-0.000007875848821559683,"18":-5.731336001547747e-7,"19":-0.00011494966188076443,"20":0.0001249714752137721,"21":-0.000015601909806487013,"22":-0.00006633249669672101,"23":-0.000046003039564978294,"24":0.000010531899355365091,"25":-0.00009194171584394375,"26":-0.00003410409658598622,"27":0.00007217130156306689,"28":0.00009148720397797923,"29":0.00012677611554753827,"30":-0.000017489907799238455,"31":-0.00014845342044037525,"32":-0.000021585313206080484,"33":-0.00004231530007979863,"34":0.000020355047166436552,"35":0.14468905786754124,"36":0.000016823336864723007,"37":-0.0001019317008292303,"38":-0.0000608392902372543,"39":0.0001092741151446812,"40":-0.00008794453379381735,"41":-0.00002417674823130516,"42":-0.000011649143314751757,"43":0.000060710762642544866,"44":0.00003586246358744667,"45":0.000004960314471087368,"46":0.00012906188958318728,"47":-0.00005490573178731812,"48":-2.8375607291610767,"49":0.000026566721541250877,"50":0.000050280898877439556,"51":-0.00014902583833345333,"52":0.00006817694949377441,"53":-0.0000168520145423561,"54":-0.00006238845946947054,"55":-0.00009177218634083221,"56":0.000026014167416784797,"57":0.00006110575384664305,"58":0.00002482355996166661,"59":-0.000019026730225878758,"60":0.00014202668432259754,"61":-0.00011477602247987559,"62":0.000056029960474892926,"63":-0.10383167104835456,"64":0.0002075229291373586,"65":-0.000028540556225127607,"66":0.00005468380068283377,"67":-0.00009456836234042164,"68":0.00007679416914393064,"69":0.000004627158894475673,"70":0.000014990849718861858,"71":0.00002287104841734039,"72":-0.00002939935210487465,"73":0.00009184287151972856,"74":0.000016012102338613192,"75":0.000004518434255382258,"76":0.00003267595693988755,"77":0.00009142333994687058,"78":-0.00009569298333749539,"79":-0.00002861268482366613,"80":-0.000006992543723294843,"81":0.00010363860299179658,"82":-0.000035121549324156615,"83":-0.00006891597178854772,"84":-0.00005100860563995455,"85":0.00011481990799119636,"86":0.000018527151981237566,"87":0.00012437463448164126,"88":4.2829940198604465e-7,"89":0.0000660730150319214,"90":0.000006350580487871541,"91":-0.0000068059069275450926,"92":-0.0001347128638968065,"93":0.000002369800239072653,"94":0.00011143426793284383,"95":-0.000007478760863495831,"96":0.000016172489900921083,"97":0.00006437521781096281,"98":-0.0001178893426602712,"99":0.00007538703325704432}},"W2":{"n":3,"d":100,"w":{"0":0.00001207350025212658,"1":0.0000015045405092067134,"2":-0.000006560815261492581,"3":-0.0000017654597727091538,"4":0.000017492235595282877,"5":-0.000019235682608807425,"6":0.0000056245878182618644,"7":-8.310114452956256e-7,"8":0.21640058124063033,"9":-0.0000063262369604069,"10":-0.00002016228928774335,"11":0.000010818659708945834,"12":0.000020514163262206445,"13":0.000004320234632880297,"14":0.000015554737850102676,"15":-0.000005280734597313748,"16":0.000007810752751630929,"17":-0.000001167837081301565,"18":-6.331046984555109e-8,"19":-0.000017018189528303617,"20":0.00001849083942393201,"21":-0.0000023244374514268264,"22":-0.000009827901337861054,"23":-0.000006819856951714983,"24":0.0000015699674921288162,"25":-0.000013599153090980783,"26":-0.000005041190729488339,"27":0.000010685663941655962,"28":0.00001354350035375115,"29":0.000018772351464501192,"30":-0.0000025977168665763277,"31":-0.00002196561907164893,"32":-0.000003187572348159042,"33":-0.000006250081723595895,"34":0.000003017653043367535,"35":-0.5592626697935232,"36":0.0000024907903734539187,"37":-0.000015081720438866733,"38":-0.000009012816412041645,"39":0.000016170825123558803,"40":-0.000013021098436432819,"41":-0.0000035673669712222577,"42":-0.0000017255035395211498,"43":0.000008966087542876914,"44":0.00000530525456462517,"45":7.270471866386321e-7,"46":0.00001911631420890331,"47":-0.000008120612312426928,"48":0.949909007578442,"49":0.000003928479710412283,"50":0.000007438744491109245,"51":-0.000022057305064733104,"52":0.000010087660982070989,"53":-0.0000025043417708211332,"54":-0.00000922145053847278,"55":-0.000013576123432542982,"56":0.0000038418972515199765,"57":0.000009040918519127846,"58":0.0000036594228233989864,"59":-0.000002804378333606555,"60":0.00002105340349133942,"61":-0.000016997827733900353,"62":0.000008289859641145358,"63":-0.12091585415602454,"64":0.00003078012505826466,"65":-0.000004222914951693478,"66":0.000008098668200983273,"67":-0.000014005163955299479,"68":0.000011371677587523674,"69":6.895442138987317e-7,"70":0.000002209957675259266,"71":0.000003386543678744804,"72":-0.000004345109326438522,"73":0.000013593234944668997,"74":0.000002372804313129018,"75":6.686861005177182e-7,"76":0.0000048352851152655325,"77":0.00001355798619524747,"78":-0.000014161401579302254,"79":-0.00000423414972701601,"80":-0.0000010363243263042744,"81":0.000015331751271582894,"82":-0.000005193097856783575,"83":-0.00001020165278595802,"84":-0.000007554417657629404,"85":0.000016988829408340254,"86":0.0000027523104126184606,"87":0.0000184126484975296,"88":7.374318047744586e-8,"89":0.000009772409385668087,"90":9.480841184388506e-7,"91":-0.0000010062997382728652,"92":-0.00001992540859984477,"93":3.4521475542777244e-7,"94":0.000016501671161535626,"95":-0.0000011041413113260543,"96":0.000002394319433035217,"97":0.00000952482116574223,"98":-0.00001746379231840184,"99":0.0000111582308630787,"100":0.00008485957646735274,"101":0.00001055165494789039,"102":-0.00004609345762185789,"103":-0.000012414458429272907,"104":0.00012291488342229792,"105":-0.00013519902642528543,"106":0.00003956228958440607,"107":-0.000005864039418550658,"108":-0.9744715939851554,"109":-0.00004447806739958777,"110":-0.0001417893089598825,"111":0.0000760056450557852,"112":0.00014416531239886069,"113":0.000030395175882346803,"114":0.00010927519528237946,"115":-0.00003701518116940674,"116":0.00005495755491549911,"117":-0.000008193514443927535,"118":-5.756405682070548e-7,"119":-0.00011956072569791649,"120":0.00012997402450825045,"121":-0.000016241634533760126,"122":-0.00006900041648380603,"123":-0.00004785709666038062,"124":0.000010964576591758665,"125":-0.00009561773887178415,"126":-0.00003546463988545559,"127":0.00007506709820827696,"128":0.00009515606067675779,"129":0.0001318646882999404,"130":-0.0000181994366477516,"131":-0.00015439629993588784,"132":-0.000022443467413881734,"133":-0.00004399878831032091,"134":0.000021175471063841352,"135":-0.46677225049312715,"136":0.00001749829043355305,"137":-0.00010601184409759766,"138":-0.00006328512536636479,"139":0.00011365075559636316,"140":-0.000091473265323261,"141":-0.000025135179616014315,"142":-0.000012117251297819926,"143":0.00006312510184417973,"144":0.00003729709727684293,"145":0.000005152328388404837,"146":0.00013424743634300046,"147":-0.00005710047819885397,"148":-0.2261164318382806,"149":0.000027627945783949033,"150":0.00005229282093759308,"151":-0.0001549982788414823,"152":0.00007090620097609224,"153":-0.000017536967205396038,"154":-0.00006487673613255099,"155":-0.00009544337632829878,"156":0.000027048683877138854,"157":0.00006355148750133943,"158":0.000025804415290877417,"159":-0.000019778067740162674,"160":0.0001477490926881324,"161":-0.00011938520382823865,"162":0.00005827247246072706,"163":-0.2764463079189256,"164":0.00021590121397234134,"165":-0.000029683060760024535,"166":0.00005688002129889388,"167":-0.00009836604667142634,"168":0.00007987693012958298,"169":0.000004817048618082233,"170":0.000015583228793998778,"171":0.00002378897451026617,"172":-0.00003057159970258289,"173":0.00009552321719405883,"174":0.00001665652673153362,"175":0.000004699434910026207,"176":0.000033984469752879145,"177":0.00009511239996021999,"178":-0.00009952602287605558,"179":-0.000029758611600841188,"180":-0.00000727407271326292,"181":0.00010778467336742238,"182":-0.000036524118139492314,"183":-0.00007167922356177797,"184":-0.00005305726587781919,"185":0.0001194161151758953,"186":0.000019279268541599645,"187":0.0001293629136051024,"188":4.553065141620277e-7,"189":0.00006871428864603457,"190":0.0000066128257282818474,"191":-0.000007077673542311064,"192":-0.00014009891679231317,"193":0.0000024595065400843165,"194":0.00011590805555074192,"195":-0.000007775831488504146,"196":0.000016821227451907525,"197":0.00006695197036160459,"198":-0.00012262820373297806,"199":0.00007840847866595599,"200":0.000038397650195468373,"201":0.000004773484070772964,"202":-0.000020855743883838628,"203":-0.0000056175951854638065,"204":0.00005561579345722925,"205":-0.00006117545434064475,"206":0.00001790256860438854,"207":-0.0000026543677512025387,"208":-0.0212131559392578,"209":-0.000020126214004492407,"210":-0.00006416073186953642,"211":0.00003438993866864511,"212":0.00006523173221999328,"213":0.000013754617973866185,"214":0.000049443122345500966,"215":-0.00001674453685177203,"216":0.00002486994036341487,"217":-0.000003706816982824662,"218":-2.6598771667301335e-7,"219":-0.00005409714725199095,"220":0.00005881165168753893,"221":-0.000007345039716871349,"222":-0.00003121842328370985,"223":-0.000021651353184114394,"224":0.000004958342027786261,"225":-0.00004326703096224008,"226":-0.000016048563745061855,"227":0.000033965101203421285,"228":0.00004305514985452528,"229":0.00005966343212172397,"230":-0.000008232479434470562,"231":-0.00006986233516907509,"232":-0.000010156985374748992,"233":-0.000019911712485564802,"234":0.00000958012314989593,"235":-0.002539316321469141,"236":0.000007917350381089274,"237":-0.00004796909516330429,"238":-0.000028632916590721582,"239":0.00005142491134799066,"240":-0.0000413882748438407,"241":-0.000011375885416227267,"242":-0.000005482421977978714,"243":0.00002856762255061107,"244":0.00001687672822455787,"245":0.000002333132514027088,"246":0.00006074011803962439,"247":-0.000025838103772557993,"248":0.00031404738682399083,"249":0.000012501908247933454,"250":0.000023662075369248794,"251":-0.00007013292848740447,"252":0.00003208414256016266,"253":-0.00000793246138406981,"254":-0.000029358384998570678,"255":-0.00004318760671036076,"256":0.000012241038431051673,"257":0.000028756349462675534,"258":0.000011679642586535648,"259":-0.000008952112122105469,"260":0.00006684462270511803,"261":-0.00005401635735938894,"262":0.000026367670738811403,"263":0.04215765713516729,"264":0.00009767341860843674,"265":-0.000013431210038833081,"266":0.000025735553123551305,"267":-0.000044506146795198275,"268":0.00003614097461210677,"269":0.0000021783953874608334,"270":0.000007053298085597219,"271":0.000010763568649159507,"272":-0.00001383451419753606,"273":0.000043222025683627074,"274":0.000007535937723485669,"275":0.000002126401559908848,"276":0.00001537741788792418,"277":0.00004302924889312898,"278":-0.000045033630721192505,"279":-0.000013465251428460687,"280":-0.0000032909910329887255,"281":0.000048771926491882906,"282":-0.000016527614372657674,"283":-0.0000324327330742551,"284":-0.000024005923091476302,"285":0.00005403432162876547,"286":0.000008720801944491176,"287":0.00005853253384959717,"288":2.0335778943194455e-7,"289":0.00003109334385921757,"290":0.00000299005321241074,"291":-0.0000032027414823721056,"292":-0.00006339478003348904,"293":0.0000011142885324982857,"294":0.00005244342909591984,"295":-0.0000035190894804111886,"296":0.000007611031678851267,"297":0.00003029498741470122,"298":-0.0000554824102431281,"299":0.00003547786523114258}},"b2":{"n":3,"d":1,"w":{"0":0.15660540690878852,"1":0.09158270995289483,"2":0.23458171961565252}}}}},"weights":{"nh":100,"ns":4,"na":3,"net":{"W1":{"n":100,"d":4,"w":{"0":-0.01911471777920674,"1":0.02846152750173449,"2":0.009376126586012704,"3":0.009684296386067059,"4":-0.002375792321522005,"5":0.0035375190618377483,"6":0.0011653705729021034,"7":0.0012036733791032867,"8":0.010381767142588396,"9":-0.015458295251025017,"10":-0.005092450970464647,"11":-0.005259827061744543,"12":0.0027966161336902364,"13":-0.00416411939374687,"14":-0.0013717925242576038,"15":-0.0014168799020212197,"16":-0.027685417862044058,"17":0.04122317111207235,"18":0.01358021523900277,"19":0.014026562983547982,"20":0.030453714262385592,"21":-0.045345122844964524,"22":-0.014938116378380155,"23":-0.015429094975445428,"24":-0.008912698186690314,"25":0.01327087365399112,"26":0.004371845170154207,"27":0.0045155367542992104,"28":0.0013218651587357856,"29":-0.0019682373555351155,"30":-0.0006483995858669216,"31":-0.0006697108530408043,"32":-0.4736834601768472,"33":-0.49249887420388466,"34":-27.167243350747967,"35":25.473854783577757,"36":0.01001931242148119,"37":-0.014918605618550499,"38":-0.004914660150457905,"39":-0.005076192702866215,"40":0.031941469375424754,"41":-0.04756036784718198,"42":-0.01566788807371266,"43":-0.01618285246581286,"44":-0.01711891095010535,"45":0.025489801128429128,"46":0.008397146012020552,"47":0.008673139163499472,"48":-0.03247254902930562,"49":0.04835113746958372,"50":0.015928392571671772,"51":0.01645191910459037,"52":-0.006847822269382547,"53":0.01019630444556811,"54":0.0033589849106013636,"55":0.003469386317151606,"56":-0.024612137443531808,"57":0.03664710275926277,"58":0.012072713731340341,"59":0.012469513639753774,"60":0.008333437007271247,"61":-0.012408362463402253,"62":-0.004087706727035763,"63":-0.004222059392714122,"64":-0.012381755044716471,"65":0.018436247179826778,"66":0.006073482443385976,"67":0.006273102582707778,"68":0.0018449746973138303,"69":-0.002747139596856545,"70":-0.0009049945992996536,"71":-0.000934739500639918,"72":0.00013520057966951807,"73":-0.0002013116312485335,"74":-0.00006631841325757373,"75":-0.00006849813306802864,"76":0.026928945550980115,"77":-0.04009679521048903,"78":-0.013209151426867499,"79":-0.01364330322311695,"80":-0.029277208372861865,"81":0.04359332325831096,"82":0.014361018244671524,"83":0.01483302905201617,"84":0.00365438463146451,"85":-0.005441323795834686,"86":-0.0017925440168937935,"87":-0.001851460440489585,"88":0.01553921211732355,"89":-0.023137653307758164,"90":-0.0076222741909288275,"91":-0.007872799241294295,"92":0.010776610995347196,"93":-0.016046211813754416,"94":-0.005286129265313968,"95":-0.005459871077030175,"96":-0.0024668143460701277,"97":0.003673049488452804,"98":0.001210018578506,"99":0.001249788852613518,"100":0.021539488926442946,"101":-0.03207197529747495,"102":-0.010565522177973137,"103":-0.010912784447585037,"104":0.00798981667647506,"105":-0.011896716955023891,"106":-0.003919154527609377,"107":-0.004047967305005007,"108":-0.016907342203380093,"109":0.025174778444235327,"110":0.008293367585035485,"111":0.008565949798757442,"112":-0.021432507023226268,"113":0.03191268085145071,"114":0.010513045553895789,"115":0.01085858304751818,"116":-0.02969935479081759,"117":0.04422189292981237,"118":0.014568088954854926,"119":0.015046905664596237,"120":0.004096951279910556,"121":-0.006100298884190784,"122":-0.00200963123610102,"123":-0.0020756827719297325,"124":0.03477833282902302,"125":-0.051784414890673175,"126":-0.017059422626166394,"127":-0.01762012333409133,"128":0.005057084845267199,"129":-0.007529923333485126,"130":-0.002480594709002513,"131":-0.002562125632681019,"132":0.009913726687351467,"133":-0.014761390047256037,"134":-0.004862868373000489,"135":-0.005022698659437509,"136":-0.004768343820932919,"137":0.0070999922876437,"138":0.002338961835737112,"139":0.002415837642166126,"140":7.781768090594995,"141":8.193021541973286,"142":13.299089584417345,"143":-19.477002978295484,"144":-0.003941152880777171,"145":0.005868317409321485,"146":0.0019332092071416558,"147":0.0019967489426144253,"148":0.023879661130616226,"149":-0.03555645653809327,"150":-0.011713420403658867,"151":-0.012098411232904146,"152":0.014252412494322303,"153":-0.02122162800837293,"154":-0.006991074909409671,"155":-0.007220854017369336,"156":-0.02559965884624281,"157":0.038117507285870406,"158":0.012557111444056626,"159":0.012969832302898967,"160":0.020602484815872454,"161":-0.030676790259348385,"162":-0.010105904139683647,"163":-0.01043805990897495,"164":0.005664340924189918,"165":-0.008434118508748768,"166":-0.002778465174257487,"167":-0.0028697863529623825,"168":0.0027289761094954476,"169":-0.004063404414258671,"170":-0.0013386138271875999,"171":-0.0013826107044332475,"172":-0.014223503884156191,"173":0.02117858352230126,"174":0.006976894695452236,"175":0.0072062077352409255,"176":-0.008401582413019049,"177":0.012509829948421688,"178":0.004121133323163242,"179":0.004256584637270307,"180":-0.0011623570176343106,"181":0.0017307321306240728,"182":0.0005701578590562676,"183":0.0005888975170208234,"184":-0.030234595851127862,"185":0.0450188588239547,"186":0.0148306347012868,"187":0.015318080641065707,"188":0.0128629699286978,"189":-0.01915276890995959,"190":-0.006309527344260643,"191":-0.006516905688727226,"192":2.3075969169188313,"193":2.9720432921504036,"194":-3.8140392108160244,"195":-2.242790935771619,"196":-0.006223917852006873,"197":0.009267320144564084,"198":0.0030529481240298352,"199":0.003153290868870338,"200":-0.011779399936140593,"201":0.017539349475860732,"202":0.005778015996542152,"203":0.005967924893388875,"204":0.034912130626649836,"205":-0.05198363780029828,"206":-0.017125052946786446,"207":-0.01768791076210431,"208":-0.015971884245831444,"209":0.02378189560447528,"210":0.00783450796190913,"211":0.00809200860599084,"212":0.003947467592815104,"213":-0.005877719920644189,"214":-0.0019363066915120612,"215":-0.0019999482335246754,"216":0.01461623062762247,"217":-0.02176334774105576,"218":-0.007169534508176169,"219":-0.007405179136898204,"220":0.02149968398979099,"221":-0.03201270634504319,"222":-0.01054599711219776,"223":-0.010892617641505257,"224":-0.006094679652828872,"225":0.009074886408268408,"226":0.002989554369984372,"227":0.0030878135211184227,"228":-0.014315328281054649,"229":0.021315308669260093,"230":0.007021936279500203,"231":0.007252729723518247,"232":-0.005816028380560942,"233":0.008659978851622655,"234":0.0028528707088691296,"235":0.0029466374108742628,"236":0.004457883243596795,"237":-0.006637721153796985,"238":-0.0021866751154556796,"239":-0.0022585456394284046,"240":-0.0332710565951765,"241":0.049540103233394195,"242":0.016320075459237613,"243":0.016856475644080438,"244":0.026888035716472716,"245":-0.040035881081772084,"246":-0.013189084388151539,"247":-0.013622576630567188,"248":-0.013126218245634935,"249":0.019544741697550338,"250":0.006438655567289488,"251":0.006650278033332361,"252":-0.05811089036678494,"253":1.5983968615144166,"254":-1.311199440240917,"255":-4.119495386923241,"256":-0.048613375295788956,"257":0.07238458516548318,"258":0.02384576947096662,"259":0.024629520885677138,"260":0.0066862268987175075,"261":-0.009955691367215825,"262":-0.0032797193587276404,"263":-0.003387515505355762,"264":-0.012810505516975948,"265":0.019074650189386744,"266":0.006283792569059509,"267":0.006490325075864912,"268":0.022154083049161326,"269":-0.032987096709255155,"270":-0.010866992087900845,"271":-0.011224162923128741,"272":-0.017990259350735834,"273":0.026787225801392082,"274":0.008824558698133858,"275":0.009114599837686968,"276":-0.0010837969850487857,"277":0.0016137574227539906,"278":0.0005316226936070911,"279":0.0005490957973894841,"280":-0.003512274524923633,"281":0.005229723982918177,"282":0.0017228363514832383,"283":0.0017794616590171746,"284":-0.005357916789876383,"285":0.007977857577904162,"286":0.0026281584048104835,"287":0.002714539377016624,"288":0.006887629319219504,"289":-0.010255576544527462,"290":-0.003378511013117032,"291":-0.0034895541936942748,"292":-0.021515954986716726,"293":0.03203693361492201,"294":0.010553978340456228,"295":0.010900861192866543,"296":-0.003751015382238645,"297":0.005585205531507619,"298":0.0018399432076140014,"299":0.0019004175236835385,"300":-0.0010585328347146666,"301":0.001576139482592079,"302":0.0005192301553020714,"303":0.0005362959474501879,"304":-0.007655010498955932,"305":0.011398195588406657,"306":0.003754925835207347,"307":0.0038783408271973723,"308":-0.021416507547325003,"309":0.03188885787229533,"310":0.01050519751177747,"311":0.01085047705979431,"312":0.022417989934649996,"313":-0.033380050095392286,"314":-0.010996443350159138,"315":-0.011357868926297853,"316":0.006703100151539937,"317":-0.00998081538708554,"318":-0.0032879960048431654,"319":-0.00339606418407406,"320":0.0016380772975345605,"321":-0.0024390724779704345,"322":-0.0008035075546946928,"323":-0.0008299168315582965,"324":-0.024279648418260594,"325":0.03615203159778618,"326":0.011909621647440437,"327":0.012301061124120523,"328":0.00822811732496489,"329":-0.012251543039269659,"330":-0.004036045452937977,"331":-0.004168700142032404,"332":0.016144814375534198,"333":-0.02403938596863346,"334":-0.007919333424693973,"335":-0.008179622069808363,"336":0.011949533655616944,"337":-0.017792676027248443,"338":-0.005861469768033749,"339":-0.0060541215814233626,"340":-0.026898988627052457,"341":0.040052189801004535,"342":0.01319445699557751,"343":0.013628125822285049,"344":-0.0043398989855455514,"345":0.00646204436670394,"346":0.0021288016300088216,"347":0.0021987699977062515,"348":-0.02913694707029312,"349":0.04338447628690021,"350":0.014292217453501394,"351":0.014761966948954843,"352":-0.00009988843072803605,"353":0.00014873237216786158,"354":0.00004899714368729358,"355":0.0000506075568365906,"356":-0.015479164537255029,"357":0.023048243363490737,"358":0.007592819729874602,"359":0.007842376685716565,"360":-0.0014873913506968234,"361":0.002214703367732793,"362":0.0007295932791910599,"363":0.0007535731793070409,"364":0.0015944581764868284,"365":-0.0023741242622661307,"366":-0.0007821115599254636,"367":-0.0008078176041341743,"368":0.03155962781511966,"369":-0.046991811503022465,"370":-0.015480587650308124,"371":-0.015989395939342888,"372":-0.0005554109250613329,"373":0.0008269985203513978,"374":0.0002724394477149813,"375":0.0002813938486458728,"376":-0.02610523329253618,"377":0.038870300037803174,"378":0.01280510516298654,"379":0.013225976960201275,"380":0.0017521627705181714,"381":-0.0026089440326943145,"382":-0.0008594686131606646,"383":-0.0008877171895826127,"384":-0.0037886856489622767,"385":0.0056412959925258785,"386":0.0018584211780590853,"387":0.001919502818656092,"388":-0.015081262744399469,"389":0.02245577357398684,"390":0.007397641458750747,"391":0.007640783392663045,"392":0.027617166125597493,"393":-0.04112154530231374,"394":-0.013546736486205213,"395":-0.013991983867053194,"396":-0.01766083554275386,"397":0.026296718702252517,"398":0.008662970159603156,"399":0.008947700287189546}},"b1":{"n":100,"d":1,"w":{"0":0.00008299764882030178,"1":0.000010315881109816224,"2":-0.00004507846825532094,"3":-0.000012143131915133538,"4":0.00012021233506302119,"5":-0.0001322325092989923,"6":0.00003869965232647203,"7":-0.000005739644699436362,"8":4.989831717634685,"9":-0.00004350466059902297,"10":-0.00013869246701117734,"11":0.00007433169276329877,"12":0.0001409984596222228,"13":0.000029733794744183835,"14":0.00010686789662547201,"15":-0.000036184453593036197,"16":0.00005376257736112185,"17":-0.0000080110283391422,"18":-5.870517767572678e-7,"19":-0.0001169276693798904,"20":0.0001271240222329365,"21":-0.00001586763166588516,"22":-0.00006747251194029907,"23":-0.000046792912147503635,"24":0.000010711106053642239,"25":-0.00009352620372434082,"26":-0.00003469242642870149,"27":0.00007341304403789452,"28":0.0000930616795195248,"29":0.00012895701728445622,"30":-0.000017789291627408656,"31":-0.00015101036801125212,"32":-0.000021958268766591613,"33":-0.00004304619882048813,"34":0.00002070453201962961,"35":-4.199541758990794,"36":0.00001711280245449322,"37":-0.00010368742400139164,"38":-0.00006188512352973104,"39":0.00011115579624559939,"40":-0.00008945765502963055,"41":-0.000024595023504865776,"42":-0.00001184943349503842,"43":0.00006175960000002172,"44":0.00003648034643665268,"45":0.000005047047537527783,"46":0.00013128107878950733,"47":-0.00005585205133210826,"48":0.4812188894733801,"49":0.000027024751548109167,"50":0.000051147102761781645,"51":-0.00015159132941368062,"52":0.0000693512094847257,"53":-0.000017140221441747858,"54":-0.00006346485137616717,"55":-0.00009335336742202527,"56":0.00002646358888769822,"57":0.00006215830897820317,"58":0.00002525366264353721,"59":-0.000019356487230292268,"60":0.0001444656468947551,"61":-0.00011675003547967106,"62":0.00005699509683842559,"63":-0.2925862551433208,"64":0.00021108332602091663,"65":-0.000029032134636647564,"66":0.0000556242466093108,"67":-0.0000961948218875386,"68":0.00007811515853042993,"69":0.000004705933565427523,"70":0.000015250578161518604,"71":0.000023264505265082282,"72":-0.00002990664015921716,"73":0.00009342401742611074,"74":0.0000162872101525414,"75":0.000004596234595251266,"76":0.00003323867103509375,"77":0.00009299220848204535,"78":-0.00009734072728101663,"79":-0.000029105399658604537,"80":-0.000007112663208119513,"81":0.00010542420181503208,"82":-0.00003572714704528663,"83":-0.00007010208616793039,"84":-0.000051885837128672536,"85":0.00011679759392733066,"86":0.000018844190096222906,"87":0.00012651499593574863,"88":4.337235896443024e-7,"89":0.00006721178046942133,"90":0.0000064583727218824215,"91":-0.0000069232654804427284,"92":-0.00013703447882125445,"93":0.0000024116388495670836,"94":0.0001133510423865482,"95":-0.0000076080314968459705,"96":0.000016450777478519397,"97":0.00006548405857042015,"98":-0.00011991598034270618,"99":0.0000766847734974834}},"W2":{"n":3,"d":100,"w":{"0":0.000026598944710133755,"1":0.000003306015563917193,"2":-0.000014446669273935456,"3":-0.000003891609713932541,"4":0.00003852544887307348,"5":-0.00004237765653373887,"6":0.000012402397299542455,"7":-0.000001839431308028784,"8":1.125317782220835,"9":-0.000013942298093570928,"10":-0.000044447934487884484,"11":0.00002382169334964308,"12":0.00004518695572907147,"13":0.000009529034746272882,"14":0.00003424884366100268,"15":-0.000011596330743879018,"16":0.00001722973774744327,"17":-0.000002567360370931021,"18":-1.8813732792426216e-7,"19":-0.00003747278417729886,"20":0.000040740496079536255,"21":-0.000005085230900259827,"22":-0.000021623474481829254,"23":-0.000014996111318376685,"24":0.000003432676564237861,"25":-0.000029973118973118953,"26":-0.00001111816845313202,"27":0.000023527286326605814,"28":0.000029824248999497996,"29":0.00004132793163628792,"30":-0.0000057010811370263275,"31":-0.00004839555822616029,"32":-0.000007037147675761304,"33":-0.000013795371049240052,"34":0.000006635352303608138,"35":0.5097607371908863,"36":0.000005484281065175866,"37":-0.00003322957075815412,"38":-0.00001983283761151831,"39":0.00003562302309680462,"40":-0.00002866923702250478,"41":-0.000007882170252320192,"42":-0.0000037974857566249562,"43":0.000019792610041934248,"44":0.000011691157972090548,"45":0.0000016174689791030068,"46":0.00004207274346873188,"47":-0.000017899368821088903,"48":0.8333004001401054,"49":0.000008660845278437307,"50":0.000016391534895790597,"51":-0.00004858174394495581,"52":0.000022225556336661867,"53":-0.000005493068254431021,"54":-0.000020339106136476208,"55":-0.00002991772867167979,"56":0.000008481004842551133,"57":0.000019920387624487516,"58":0.000008093249779756745,"59":-0.0000062033332552569775,"60":0.00004629811503584133,"61":-0.000037415856334639124,"62":0.000018265690109291915,"63":0.24584475210128964,"64":0.00006764766824405707,"65":-0.00000930416793052766,"66":0.000017826362349550286,"67":-0.000030828353463724595,"68":0.00002503421221876215,"69":0.0000015081493690660057,"70":0.000004887478668575324,"71":0.000007455768078209218,"72":-0.000009584427945569047,"73":0.00002994037047174758,"74":0.000005219696682541069,"75":0.0000014729932346913836,"76":0.000010652271435929264,"77":0.000029801985032677023,"78":-0.000031195591402753296,"79":-0.000009327647777829661,"80":-0.000002279453882186013,"81":0.000033786170596802606,"82":-0.000011449773930386146,"83":-0.000022466196045803186,"84":-0.000016628283228164003,"85":0.00003743109779362344,"86":0.000006039153161517126,"87":0.00004054531623112696,"88":1.3899897835931777e-7,"89":0.000021539915695647073,"90":0.000002069768009598117,"91":-0.000002218756029113884,"92":-0.000043916584799926194,"93":7.728778058131227e-7,"94":0.00003632655220994326,"95":-0.0000024382086464776593,"96":0.000005272116454185427,"97":0.000020986218271770282,"98":-0.00003843047355843056,"99":0.00002457580477817656,"100":-0.00009461051484901996,"101":-0.000011759259969692258,"102":0.000051385761932918224,"103":0.000013842176293278668,"104":-0.00013703218934795202,"105":0.00015073419344683987,"106":-0.000044114434571256874,"107":0.000006542725096936107,"108":-0.471810636900865,"109":0.000049591750209098836,"110":0.00015809800989660395,"111":-0.00008473203730521193,"112":-0.00016072665022100793,"113":-0.000033894091468145996,"114":-0.00012182063139709754,"115":0.00004124731410751268,"116":-0.00006128493424855057,"117":0.000009131916500962583,"118":6.691909684547946e-7,"119":0.00013328794189647805,"120":-0.00014491094110518154,"121":0.000018087801074897695,"122":0.00007691313456868744,"123":0.000053340087423807696,"124":-0.000012209784049511386,"125":0.00010661220103903401,"126":0.0000395465253830883,"127":-0.0000836848532362397,"128":-0.00010608268169458346,"129":-0.00014700040375959905,"130":0.000020278336090760177,"131":0.00017213939445264223,"132":0.000025030628659085315,"133":0.00004906914135921972,"134":-0.00002360147143191759,"135":-0.6769997927255157,"136":-0.000019507193823467914,"137":0.00011819515490292999,"138":0.00007054397045973217,"139":-0.00012670848314719774,"140":0.00010197439045832466,"141":0.000028036313132869396,"142":0.000013507384139287533,"143":-0.00007040088393782805,"144":-0.000041584607705450795,"145":-0.000005753221030642093,"146":-0.00014964964145975957,"147":0.00006366676318243723,"148":0.6302721188130715,"149":-0.00003080600411146839,"150":-0.00005830350770821986,"151":0.00017280164216161288,"152":-0.00007905469549259813,"153":0.00001953844922395876,"154":0.00007234473054418535,"155":0.00010641518188585001,"156":-0.00003016632463841096,"157":-0.00007085537944976817,"158":-0.000028787107811223918,"159":0.000022064810755061273,"160":-0.0001646789559978198,"161":0.0001330854539249264,"162":-0.00006496974128799783,"163":0.31104403555966503,"164":-0.00024061753964610194,"165":0.000033094256417944,"166":-0.0000634070844859382,"167":0.0001096542059670847,"168":-0.00008904487735004672,"169":-0.000005364379027048697,"170":-0.00001738441060116347,"171":-0.000026519631299942038,"172":0.00003409112108333592,"173":-0.00010649571707340528,"174":-0.000018566086196322877,"175":-0.000005239331181322022,"176":-0.00003788936333341785,"177":-0.0001060034904319509,"178":0.00011096044371979212,"179":0.000033177772541963273,"180":0.000008107853796103838,"181":-0.00012017493839104184,"182":0.000040726022111472154,"183":0.00007991063324264061,"184":0.00005914560430460289,"185":-0.00013313966662652175,"186":-0.000021480833969963747,"187":-0.00014421670152092665,"188":-4.944093868510037e-7,"189":-0.00007661592210084098,"190":-0.000007362016204764564,"191":0.000007891955891479914,"192":0.00015620804081824507,"193":-0.000002749070867443807,"194":-0.0001292108825201456,"195":0.000008672533092089679,"196":-0.000018752539555618496,"197":-0.00007464646098843195,"198":0.00013669436946152607,"199":-0.00008741435597730562,"200":-0.00010727787746023216,"201":-0.000013333701378572372,"202":0.000058265777061546895,"203":0.000015695498329495705,"204":-0.0001553793858008305,"205":0.00017091595281850023,"206":-0.00005002089484597659,"207":0.000007418727266524556,"208":0.08889600401699801,"209":0.00005623156587504352,"210":0.00017926571219689086,"211":-0.000096076773156366,"212":-0.0001822463018485182,"213":-0.000038432154686235406,"214":-0.0001381311523875383,"215":0.00004676989691155402,"216":-0.00006949034551335538,"217":0.000010354584207921053,"218":7.587886100645746e-7,"219":0.00015113382089806309,"220":-0.00016431302434716697,"221":0.000020509567706622895,"222":0.00008721099994246531,"223":0.00006048176636811598,"224":-0.00001384454590236212,"225":0.00012088646700668419,"226":0.00004484139035864177,"227":-0.00009488938191768347,"228":-0.00012028605040481108,"229":-0.00016668224543539832,"230":0.00002299339237624524,"231":0.00019518710211747944,"232":0.000028381967075430246,"233":0.00005563898515151606,"234":-0.000026761460681882968,"235":0.0031718175896747955,"236":-0.000022119002250199396,"237":0.00013402026110988084,"238":0.00007998907062341254,"239":-0.0001436734384042942,"240":0.00011562770079436512,"241":0.000031790081192430165,"242":0.000015315881020836805,"243":-0.00007982682629790211,"244":-0.00004715235059669482,"245":-0.00000652351689767428,"246":-0.00016968618998041367,"247":0.00007219107660137264,"248":0.2111239202139878,"249":-0.00003493060477250302,"250":-0.00006610973695671477,"251":0.0001959380184279159,"252":-0.00008963929376913677,"253":0.000022154442420862314,"254":0.00008203093384332115,"255":0.00012066306899147019,"256":-0.00003420527891928538,"257":-0.00008034217405281299,"258":-0.000032641399410108883,"259":0.00002501905725722512,"260":-0.00018672778298498276,"261":0.0001509042218064942,"262":-0.00007366850995025277,"263":0.09921336795026747,"264":-0.000272833839732877,"265":0.00003752523009730175,"266":-0.00007189662962361373,"267":0.00012433576550605334,"268":-0.0001009670581561487,"269":-0.00000608261303377662,"270":-0.000019712000630134942,"271":-0.00003007033155925119,"272":0.00003865556450418299,"273":-0.00012075438702190543,"274":-0.000021051890186789454,"275":-0.0000059408225948820115,"276":-0.000042962351642769956,"277":-0.00012019625623724797,"278":0.0001258168952489415,"279":0.00003761992815582997,"280":0.000009193410261186307,"281":-0.0001362651176531094,"282":0.00004617880936658351,"283":0.00009060983275508243,"284":0.00006706458152902625,"285":-0.00015096569304815026,"286":-0.000024356892106332273,"287":-0.00016352583294071199,"288":-5.606056105585726e-7,"289":-0.00008687399379462406,"290":-0.000008347712849189096,"291":0.00000894860589447569,"292":0.0001771226947144944,"293":-0.000003117142581022412,"294":-0.0001465108839944812,"295":0.000009833694184799295,"296":-0.000021263307694368776,"297":-0.00008464084218906678,"298":0.0001549963351907563,"299":-0.00009911822671863263}},"b2":{"n":3,"d":1,"w":{"0":0.6307603582096863,"1":-0.029394135202202007,"2":0.422270936651066}}}}}